svm_type c_svc
kernel_type rbf
gamma 0.0416667
nr_class 2
total_sv 547
rho 0.971564
label 1 0
probA -6.44591
probB -3.55172
nr_sv 149 398
SV
1 1:4 2:3 3:3 4:2 5:23 6:0.5 7:0 8:1 9:3 10:0.4 11:0.35 12:0.1 13:20 14:3 15:0.4512 16:0.2439 17:0.2439 18:0.2073 19:0.3049 20:0.1316 21:1.25 22:0.3333 23:0.1875 24:17 
1 1:4 2:2 3:5 4:1 5:24 6:0.5 7:0 8:2 9:3 10:0.4 11:0.35 12:0.1 13:20 14:2 15:0.475 16:0.2125 17:0.225 18:0.25 19:0.3125 20:0.1579 21:2 22:0.25 23:0.2 24:17 
1 1:4 2:3 3:3 4:2 5:23 6:0.5 7:0 8:1 9:3 10:0.4 11:0.35 12:0.1 13:20 14:3 15:0.4699 16:0.2289 17:0.241 18:0.2289 19:0.3012 20:0.1538 21:1.25 22:0.3684 23:0.2778 24:12 
1 1:4 2:3 3:3 4:2 5:22 6:0.5 7:1 8:1 9:2 10:0.4 11:0.35 12:0.1 13:20 14:3 15:0.3953 16:0.2674 17:0.1395 18:0.2558 19:0.3372 20:0.1566 21:1.25 22:0.2174 23:0.2857 24:14 
1 1:4 2:3 3:-1 4:0 5:21 6:0.5 7:1 8:1 9:1 10:0.4 11:0.35 12:0.1 13:20 14:4 15:0.4271 16:0.1979 17:0.1771 18:0.25 19:0.375 20:0.1868 21:0.91 22:0 23:0.3462 24:4 
1 1:4 2:4 3:-1 4:0 5:21 6:0.5 7:0 8:1 9:2 10:0.4 11:0.35 12:0.1 13:19 14:4 15:0.4556 16:0.2333 17:0.2111 18:0.2444 19:0.3111 20:0.1429 21:0.91 22:0 23:0.2632 24:13 
1 1:2 2:4 3:-1 4:0 5:21 6:0.55 7:1 8:1 9:2 10:0.4 11:0.35 12:0.05 13:19 14:3 15:0.4819 16:0.2048 17:0.2651 18:0.2169 19:0.3133 20:0.1899 21:0.73 22:0 23:0.3158 24:11 
1 1:4 2:5 3:1 4:1 5:21 6:0.45 7:0 8:1 9:2 10:0.5 11:0.3 12:0.05 13:19 14:4 15:0.4643 16:0.2738 17:0.2143 18:0.25 19:0.2619 20:0.2051 21:0.73 22:0.25 23:0.3514 24:12 
1 1:4 2:3 3:-1 4:0 5:22 6:0.4286 7:0 8:2 9:2 10:0.4286 11:0.2857 12:0.1429 13:19 14:4 15:0.4176 16:0.2527 17:0.2088 18:0.2088 19:0.3297 20:0.1494 21:0.64 22:0 23:0.1818 24:5 
1 1:4 2:1 3:2 4:1 5:22 6:0.4286 7:0 8:2 9:2 10:0.4286 11:0.2857 12:0.1429 13:19 14:4 15:0.4176 16:0.2527 17:0.2418 18:0.1758 19:0.3297 20:0.1316 21:0.64 22:0.1765 23:0.2 24:14 
1 1:4 2:2 3:3 4:2 5:21 6:0.4 7:0 8:2 9:3 10:0.45 11:0.15 12:0.15 13:17 14:3 15:0.3692 16:0.3077 17:0.2 18:0.1692 19:0.3231 20:0.2131 21:1.6 22:0.2667 23:0.3 24:19 
1 1:2 2:2 3:1 4:1 5:22 6:0.45 7:0 8:2 9:3 10:0.45 11:0.15 12:0.1 13:16 14:3 15:0.3538 16:0.2923 17:0.1846 18:0.1692 19:0.3538 20:0.2131 21:1.2 22:0.25 23:0.2 24:8 
1 1:4 2:4 3:1 4:2 5:21 6:0.4762 7:2 8:1 9:1 10:0.2857 11:0.3333 12:0.2381 13:20 14:1 15:0.3864 16:0.2614 17:0.1818 18:0.2045 19:0.3523 20:0.2 21:0.82 22:0.1818 23:0.3778 24:15 
1 1:4 2:4 3:-1 4:0 5:21 6:0.3333 7:0 8:1 9:2 10:0.381 11:0.1905 12:0.2857 13:19 14:4 15:0.3774 16:0.2736 17:0.1887 18:0.1887 19:0.3491 20:0.2039 21:0.67 22:0 23:0.3016 24:6 
1 1:4 2:4 3:5 4:2 5:21 6:0.4762 7:0 8:1 9:3 10:0.2857 11:0.1429 12:0.2381 13:18 14:3 15:0.4235 16:0.3294 17:0.2235 18:0.2 19:0.2471 20:0.2195 21:0.91 22:0.4167 23:0.3333 24:18 
1 1:4 2:4 3:-1 4:0 5:21 6:0.619 7:1 8:3 9:2 10:0.2857 11:0.4286 12:0.0952 13:17 14:4 15:0.4487 16:0.3077 17:0.2692 18:0.1795 19:0.2436 20:0.2877 21:1 22:0 23:0.4545 24:12 
1 1:4 2:4 3:1 4:2 5:21 6:0.6667 7:0 8:2 9:3 10:0.2381 11:0.4762 12:0.0952 13:17 14:4 15:0.4512 16:0.2805 17:0.2195 18:0.2317 19:0.2683 20:0.2162 21:0.91 22:0.25 23:0.25 24:11 
1 1:4 2:3 3:-1 4:0 5:21 6:0.619 7:1 8:2 9:3 10:0.1429 11:0.1905 12:0.2381 13:16 14:1 15:0.4375 16:0.2143 17:0.2054 18:0.2321 19:0.3482 20:0.2407 21:0.67 22:-1 23:0.2424 24:2 
1 1:4 2:3 3:-1 4:0 5:21 6:0.619 7:0 8:2 9:3 10:0.1429 11:0.1905 12:0.2381 13:17 14:1 15:0.4615 16:0.2527 17:0.2308 18:0.2308 19:0.2857 20:0.2644 21:0.89 22:0 23:0.3333 24:3 
1 1:4 2:5 3:1 4:1 5:21 6:0.619 7:0 8:2 9:4 10:0.1429 11:0.1905 12:0.2381 13:14 14:1 15:0.4556 16:0.2667 17:0.2333 18:0.2222 19:0.2778 20:0.3412 21:0.89 22:0.1429 23:0.3778 24:13 
1 1:4 2:3 3:-1 4:0 5:21 6:0.4762 7:2 8:1 9:1 10:0.2857 11:0.2381 12:0.2381 13:20 14:4 15:0.3861 16:0.2277 17:0.1782 18:0.2079 19:0.3861 20:0.1837 21:1 22:-1 23:0.3103 24:8 
1 1:4 2:3 3:-1 4:0 5:23 6:0.4762 7:1 8:2 9:3 10:0.2857 11:0.2381 12:0.2381 13:19 14:3 15:0.4286 16:0.2967 17:0.2088 18:0.2198 19:0.2747 20:0.1954 21:0.78 22:0 23:0.2558 24:5 
1 1:4 2:7 3:1 4:1 5:21 6:0.619 7:3 8:2 9:3 10:0.1429 11:0.4286 12:0.2381 13:17 14:2 15:0.5281 16:0.1573 17:0.2247 18:0.3034 19:0.3146 20:0.2289 21:0.62 22:0.1429 23:0.2857 24:9 
1 1:2 2:3 3:-1 4:0 5:22 6:0.619 7:1 8:2 9:3 10:0.2381 11:0.3333 12:0.1429 13:18 14:4 15:0.396 16:0.2871 17:0.1683 18:0.2277 19:0.3168 20:0.2 21:0.73 22:0 23:0.2308 24:8 
1 1:4 2:4 3:1 4:2 5:21 6:0.5714 7:1 8:2 9:2 10:0.2381 11:0.3333 12:0.1905 13:18 14:2 15:0.4474 16:0.2368 17:0.2105 18:0.2368 19:0.3158 20:0.2 21:0.67 22:0.1667 23:0.2857 24:16 
1 1:4 2:6 3:2 4:2 5:21 6:0.5714 7:1 8:2 9:2 10:0.2381 11:0.3333 12:0.1905 13:18 14:2 15:0.4458 16:0.2169 17:0.2048 18:0.241 19:0.3373 20:0.1892 21:0.67 22:0.25 23:0.2941 24:15 
1 1:4 2:2 3:3 4:2 5:27 6:0.5714 7:2 8:6 9:2 10:0.1429 11:0.2857 12:0.2857 13:19 14:3 15:0.443 16:0.2278 17:0.2025 18:0.2405 19:0.3291 20:0.1714 21:1 22:0.2857 23:0.1667 24:17 
1 1:4 2:6 3:-1 4:0 5:22 6:0.5238 7:0 8:1 9:3 10:0.2381 11:0.2857 12:0.2381 13:19 14:3 15:0.4554 16:0.2376 17:0.2178 18:0.2376 19:0.3069 20:0.2577 21:0.91 22:0 23:0.3929 24:5 
1 1:4 2:-1 3:2 4:1 5:21 6:0.4286 7:2 8:2 9:2 10:0.2381 11:0.2381 12:0.3333 13:18 14:4 15:0.4062 16:0.2188 17:0.2344 18:0.1719 19:0.375 20:0.125 21:0.78 22:0.5 23:0 24:8 
1 1:4 2:2 3:4 4:1 5:21 6:0.5238 7:1 8:2 9:3 10:0.2381 11:0.2381 12:0.2381 13:17 14:3 15:0.4535 16:0.2558 17:0.2093 18:0.2442 19:0.2907 20:0.1795 21:1 22:0.375 23:0.1667 24:17 
1 1:1 2:3 3:-1 4:0 5:21 6:0.381 7:1 8:2 9:3 10:0.2857 11:0.2381 12:0.3333 13:17 14:3 15:0.3483 16:0.3371 17:0.1461 18:0.2022 19:0.3146 20:0.2326 21:1.17 22:0 23:0.3043 24:5 
1 1:1 2:5 3:-1 4:0 5:21 6:0.4286 7:1 8:1 9:2 10:0.2857 11:0.2857 12:0.2857 13:19 14:3 15:0.3204 16:0.3301 17:0.1359 18:0.1845 19:0.3495 20:0.2371 21:1 22:0 23:0.3571 24:3 
1 1:1 2:9 3:2 4:1 5:21 6:0.4286 7:1 8:1 9:3 10:0.2857 11:0.2857 12:0.2857 13:18 14:1 15:0.3441 16:0.2258 17:0.1505 18:0.1935 19:0.4301 20:0.2644 21:0.7 22:0.3333 23:0.3778 24:10 
1 1:3 2:3 3:1 4:1 5:21 6:0.4286 7:1 8:1 9:2 10:0.2381 11:0.2857 12:0.3333 13:19 14:3 15:0.4667 16:0.2381 17:0.2286 18:0.2381 19:0.2952 20:0.26 21:0.7 22:0.25 23:0.4 24:6 
1 1:4 2:9 3:-1 4:0 5:22 6:0.4545 7:1 8:1 9:2 10:0.3182 11:0.2273 12:0.2273 13:20 14:4 15:0.3837 16:0.2674 17:0.1744 18:0.2093 19:0.3488 20:0.2927 21:1 22:0 23:0.5385 24:5 
1 1:4 2:9 3:-1 4:0 5:22 6:0.381 7:1 8:1 9:2 10:0.2857 11:0.2381 12:0.3333 13:20 14:2 15:0.375 16:0.2727 17:0.1705 18:0.2045 19:0.3523 20:0.2857 21:1 22:0 23:0.5122 24:4 
1 1:4 2:3 3:1 4:1 5:21 6:0.3333 7:0 8:2 9:2 10:0.3333 11:0.2857 12:0.3333 13:18 14:4 15:0.2674 16:0.314 17:0.1279 18:0.1395 19:0.4186 20:0.2 21:0.67 22:0.0667 23:0.2632 24:10 
1 1:4 2:8 3:2 4:3 5:21 6:0.381 7:1 8:1 9:3 10:0.2381 11:0.1905 12:0.381 13:18 14:4 15:0.321 16:0.3333 17:0.1605 18:0.1605 19:0.3457 20:0.2 21:1 22:0.2593 23:0.2727 24:16 
1 1:1 2:8 3:2 4:3 5:21 6:0.4762 7:1 8:1 9:3 10:0.2381 11:0.1905 12:0.2857 13:18 14:3 15:0.3529 16:0.3176 17:0.1765 18:0.1765 19:0.3294 20:0.1899 21:0.8 22:0.3043 23:0.2432 24:14 
1 1:3 2:-1 3:4 4:4 5:22 6:0.5 7:1 8:2 9:4 10:0.3636 11:0.3182 12:0.1364 13:17 14:1 15:0.5 16:0.2609 17:0.1522 18:0.3478 19:0.2391 20:0.1905 21:0.89 22:0.3448 23:-1 24:33 
1 1:3 2:-1 3:4 4:4 5:22 6:0.5 7:2 8:2 9:4 10:0.3636 11:0.3182 12:0.1364 13:17 14:1 15:0.4783 16:0.2609 17:0.1304 18:0.3478 19:0.2609 20:0.1905 21:0.89 22:0.3448 23:-1 24:33 
1 1:4 2:14 3:-1 4:0 5:21 6:0.4762 7:2 8:2 9:1 10:0.1905 11:0.1905 12:0.3333 13:19 14:1 15:0.3204 16:0.2718 17:0.165 18:0.1553 19:0.4078 20:0.2525 21:0.4 22:-1 23:0.3684 24:1 
1 1:2 2:14 3:-1 4:0 5:21 6:0.381 7:2 8:1 9:1 10:0.3333 11:0.2381 12:0.2857 13:20 14:2 15:0.3232 16:0.2626 17:0.1616 18:0.1616 19:0.4141 20:0.2211 21:0.78 22:-1 23:0.3585 24:3 
1 1:4 2:1 3:3 4:3 5:21 6:0.4286 7:1 8:2 9:3 10:0.4286 11:0.0952 12:0.1429 13:17 14:3 15:0.3699 16:0.3151 17:0.1781 18:0.1918 19:0.3151 20:0.1143 21:0.57 22:0.2727 23:0.125 24:23 
1 1:4 2:2 3:1 4:2 5:21 6:0.4762 7:1 8:2 9:2 10:0.0952 11:0.0952 12:0.4286 13:18 14:1 15:0.3766 16:0.2727 17:0.1558 18:0.2208 19:0.3506 20:0.1111 21:0.4 22:0.1053 23:0.125 24:21 
1 1:4 2:2 3:1 4:1 5:21 6:0.5238 7:2 8:2 9:3 10:0.2381 11:0.4286 12:0.2381 13:17 14:4 15:0.4 16:0.2588 17:0.1529 18:0.2471 19:0.3412 20:0.125 21:1.43 22:0.0667 23:0.1 24:17 
1 1:1 2:9 3:2 4:3 5:21 6:0.619 7:1 8:1 9:1 10:0.2857 11:0.381 12:0.0952 13:20 14:4 15:0.4366 16:0.2254 17:0.2113 18:0.2254 19:0.338 20:0.1692 21:0.75 22:0.3846 23:0.3913 24:16 
1 1:4 2:7 3:2 4:3 5:21 6:0.5714 7:0 8:1 9:4 10:0.2857 11:0.3333 12:0.1429 13:17 14:3 15:0.4714 16:0.2571 17:0.2429 18:0.2286 19:0.2714 20:0.2537 21:1 22:0.2 23:0.4074 24:23 
1 1:1 2:6 3:-1 4:0 5:21 6:0.381 7:0 8:3 9:2 10:0.381 11:0.2381 12:0.2381 13:17 14:4 15:0.3402 16:0.3608 17:0.1959 18:0.1443 19:0.299 20:0.3407 21:0.6 22:0 23:0.4694 24:5 
1 1:1 2:6 3:-1 4:0 5:21 6:0.381 7:0 8:1 9:2 10:0.381 11:0.2381 12:0.2381 13:19 14:4 15:0.3402 16:0.3505 17:0.1959 18:0.1443 19:0.3093 20:0.2967 21:0.6 22:0 23:0.4694 24:11 
1 1:4 2:3 3:1 4:3 5:20 6:0.55 7:0 8:3 9:2 10:0.1 11:0.15 12:0.35 13:15 14:1 15:0.4 16:0.2556 17:0.1778 18:0.2222 19:0.3444 20:0.2093 21:0.91 22:0.1429 23:0.1739 24:13 
1 1:2 2:6 3:2 4:1 5:21 6:0.5238 7:2 8:2 9:2 10:0.1905 11:0.381 12:0.2857 13:18 14:1 15:0.411 16:0.2466 17:0.1781 18:0.2329 19:0.3425 20:0.2464 21:0.7 22:0.4 23:0.4074 24:8 
1 1:2 2:3 3:1 4:1 5:21 6:0.5714 7:3 8:2 9:2 10:0.1429 11:0.4286 12:0.2857 13:18 14:1 15:0.4125 16:0.2625 17:0.2 18:0.2125 19:0.325 20:0.1733 21:0.7 22:0.25 23:0.2571 24:8 
1 1:2 2:3 3:3 4:1 5:21 6:0.5714 7:3 8:2 9:2 10:0.1429 11:0.4286 12:0.2857 13:18 14:4 15:0.4125 16:0.25 17:0.1875 18:0.225 19:0.3375 20:0.1733 21:0.7 22:0.4545 23:0.2571 24:9 
1 1:2 2:4 3:2 4:1 5:21 6:0.5238 7:1 8:2 9:2 10:0.1905 11:0.381 12:0.2857 13:18 14:1 15:0.3875 16:0.275 17:0.175 18:0.2125 19:0.3375 20:0.1714 21:0.7 22:0.5 23:0.2143 24:8 
1 1:2 2:1 3:2 4:1 5:21 6:0.5238 7:2 8:2 9:2 10:0.1905 11:0.381 12:0.2857 13:18 14:4 15:0.36 16:0.2667 17:0.1467 18:0.2133 19:0.3733 20:0.1268 21:0.7 22:0.3333 23:0.1034 24:12 
1 1:2 2:4 3:1 4:1 5:21 6:0.5714 7:2 8:2 9:2 10:0.1429 11:0.4286 12:0.2857 13:18 14:4 15:0.4022 16:0.25 17:0.2065 18:0.1957 19:0.3478 20:0.2273 21:0.7 22:0.25 23:0.3043 24:6 
1 1:4 2:3 3:1 4:1 5:21 6:0.4762 7:4 8:1 9:2 10:0.1905 11:0.3333 12:0.3333 13:19 14:1 15:0.3333 16:0.2529 17:0.1264 18:0.2069 19:0.4138 20:0.1325 21:0.86 22:0.0588 23:0.1707 24:12 
1 1:4 2:4 3:1 4:1 5:21 6:0.4286 7:3 8:1 9:2 10:0.1905 11:0.2857 12:0.381 13:19 14:1 15:0.2584 16:0.3034 17:0.1124 18:0.1461 19:0.4382 20:0.1566 21:0.67 22:0.0588 23:0.2195 24:12 
1 1:4 2:4 3:-1 4:0 5:21 6:0.5238 7:1 8:1 9:3 10:0.0952 11:0.1905 12:0.381 13:18 14:1 15:0.4 16:0.2471 17:0.2118 18:0.1882 19:0.3529 20:0.2113 21:1 22:0 23:0.3103 24:11 
1 1:4 2:4 3:2 4:1 5:21 6:0.5714 7:0 8:2 9:2 10:0.0952 11:0.2381 12:0.3333 13:18 14:1 15:0.4688 16:0.2396 17:0.2396 18:0.2292 19:0.2917 20:0.2043 21:0.91 22:0.4 23:0.283 24:7 
1 1:4 2:8 3:-1 4:0 5:21 6:0.5714 7:0 8:2 9:3 10:0.0952 11:0.2381 12:0.3333 13:17 14:1 15:0.4842 16:0.2526 17:0.2632 18:0.2211 19:0.2632 20:0.2609 21:0.73 22:-1 23:0.3585 24:3 
1 1:4 2:5 3:-1 4:0 5:22 6:0.5238 7:2 8:2 9:2 10:0.2381 11:0.2857 12:0.2381 13:19 14:1 15:0.3883 16:0.2524 17:0.1845 18:0.2039 19:0.3592 20:0.2165 21:1 22:0 23:0.2963 24:8 
1 1:4 2:3 3:-1 4:0 5:21 6:0.5714 7:2 8:2 9:2 10:0.2381 11:0.3333 12:0.1905 13:18 14:1 15:0.4468 16:0.1702 17:0.1915 18:0.2553 19:0.383 20:0.2051 21:1.1 22:0 23:0.2778 24:3 
1 1:4 2:3 3:1 4:1 5:22 6:0.5714 7:1 8:2 9:3 10:0.2381 11:0.2857 12:0.1905 13:18 14:4 15:0.4875 16:0.2625 17:0.2375 18:0.25 19:0.25 20:0.2113 21:1.83 22:0.1429 23:0.3333 24:9 
1 1:4 2:5 3:1 4:2 5:22 6:0.5238 7:2 8:2 9:3 10:0.2381 11:0.2857 12:0.2381 13:17 14:4 15:0.4382 16:0.2135 17:0.2247 18:0.2135 19:0.3483 20:0.2857 21:2.2 22:0.1579 23:0.3953 24:12 
1 1:4 2:3 3:-1 4:0 5:22 6:0.5714 7:1 8:1 9:4 10:0.2381 11:0.3333 12:0.1905 13:18 14:1 15:0.449 16:0.2551 17:0.2143 18:0.2347 19:0.2959 20:0.2421 21:1.22 22:0 23:0.3333 24:10 
1 1:4 2:3 3:2 4:1 5:21 6:0.2857 7:2 8:1 9:1 10:0.381 11:0.1905 12:0.3333 13:20 14:1 15:0.3205 16:0.3333 17:0.1282 18:0.1923 19:0.3462 20:0.1622 21:0.9 22:0.4 23:0.3125 24:14 
1 1:2 2:1 3:7 4:5 5:21 6:0.5714 7:1 8:4 9:2 10:0.2857 11:0.2857 12:0.1429 13:16 14:3 15:0.5714 16:0.2449 17:0.3061 18:0.2653 19:0.1837 20:0.1905 21:0.8 22:0.4286 23:0.5 24:35 
1 1:1 2:-1 3:11 4:1 5:24 6:0.4167 7:0 8:1 9:1 10:0.2917 11:0.2083 12:0.2917 13:23 14:3 15:0.3818 16:0.2727 17:0.1818 18:0.2 19:0.3455 20:0.0196 21:1 22:0.3143 23:0 24:27 
1 1:1 2:-1 3:3 4:1 5:24 6:0.4167 7:0 8:1 9:1 10:0.2917 11:0.2083 12:0.2917 13:23 14:3 15:0.3818 16:0.2727 17:0.1818 18:0.2 19:0.3455 20:0.0196 21:1 22:0.1579 23:0 24:21 
1 1:4 2:2 3:-1 4:0 5:21 6:0.1905 7:2 8:4 9:1 10:0.2857 11:0.0952 12:0.5238 13:17 14:1 15:0.2605 16:0.395 17:0.1429 18:0.1176 19:0.3445 20:0.1754 21:0 22:-1 23:0.1892 24:1 
1 1:1 2:3 3:-1 4:0 5:21 6:0.619 7:0 8:3 9:3 10:0.0952 11:0.1905 12:0.2857 13:15 14:1 15:0.4598 16:0.2644 17:0.2644 18:0.1954 19:0.2759 20:0.2632 21:2 22:-1 23:0.3158 24:14 
1 1:1 2:10 3:-1 4:0 5:21 6:0.381 7:1 8:5 9:2 10:0.1429 11:0.1429 12:0.4762 13:15 14:4 15:0.4071 16:0.3097 17:0.1947 18:0.2124 19:0.2832 20:0.4019 21:1.12 22:-1 23:0.4925 24:2 
1 1:4 2:-1 3:3 4:3 5:25 6:0.381 7:0 8:4 9:5 10:0.2381 11:0.0476 12:0.381 13:17 14:1 15:0.375 16:0.3438 17:0.2031 18:0.1719 19:0.2812 20:0.2174 21:1 22:0.2308 23:0 24:25 
1 1:3 2:2 3:-1 4:0 5:29 6:0.4762 7:3 8:4 9:3 10:0.1905 11:0.2381 12:0.3333 13:21 14:3 15:0.493 16:0.2535 17:0.2394 18:0.2535 19:0.2535 20:0.2059 21:0 22:-1 23:0.2941 24:1 
1 1:3 2:3 3:3 4:2 5:25 6:0.381 7:1 8:3 9:3 10:0.2857 11:0.3333 12:0.3333 13:17 14:3 15:0.3375 16:0.2875 17:0.1625 18:0.175 19:0.375 20:0.2432 21:1.29 22:0.4545 23:0.2414 24:14 
1 1:4 2:3 3:1 4:1 5:21 6:0.4286 7:0 8:1 9:3 10:0.2857 11:0.0952 12:0.2857 13:18 14:4 15:0.3544 16:0.2911 17:0.1646 18:0.1899 19:0.3544 20:0.1892 21:0.7 22:0.1429 23:0.3143 24:19 
1 1:4 2:3 3:2 4:3 5:21 6:0.381 7:2 8:2 9:2 10:0.0952 11:0.1429 12:0.5238 13:18 14:4 15:0.4 16:0.2375 17:0.1875 18:0.2125 19:0.3625 20:0.2778 21:0.82 22:0.2222 23:0.4667 24:21 
1 1:4 2:4 3:-1 4:0 5:23 6:0.4545 7:1 8:2 9:4 10:0.1364 11:0.3182 12:0.4091 13:18 14:4 15:0.3837 16:0.2209 17:0.1512 18:0.2326 19:0.3953 20:0.2683 21:1.29 22:0 23:0.3684 24:14 
1 1:4 2:3 3:3 4:1 5:21 6:0.381 7:0 8:1 9:3 10:0.0952 11:0.1429 12:0.5238 13:18 14:1 15:0.3855 16:0.3253 17:0.241 18:0.1446 19:0.2892 20:0.2152 21:0.6 22:0.375 23:0.2973 24:18 
1 1:4 2:1 3:3 4:1 5:21 6:0.381 7:2 8:1 9:1 10:0.1429 11:0.2381 12:0.4762 13:20 14:1 15:0.2951 16:0.2951 17:0.1639 18:0.1311 19:0.4098 20:0.0769 21:0.89 22:0.0909 23:0.3333 24:30 
1 1:4 2:1 3:1 4:1 5:21 6:0.381 7:1 8:1 9:1 10:0.0952 11:0.2857 12:0.5238 13:20 14:4 15:0.3167 16:0.3667 17:0.15 18:0.1667 19:0.3167 20:0.0714 21:0.9 22:0.125 23:0.1429 24:10 
1 1:4 2:1 3:4 4:4 5:21 6:0.1905 7:2 8:1 9:2 10:0.5238 11:0.0476 12:0.2857 13:19 14:1 15:0.2462 16:0.4 17:0.1077 18:0.1385 19:0.3538 20:0.0714 21:0.89 22:0.2609 23:0.125 24:28 
1 1:4 2:2 3:3 4:2 5:22 6:0.4762 7:1 8:2 9:3 10:0.3333 11:0.381 12:0.1905 13:18 14:1 15:0.4133 16:0.2933 17:0.2133 18:0.2 19:0.2933 20:0.1429 21:0.8 22:0.25 23:0.1 24:22 
1 1:1 2:4 3:-1 4:0 5:21 6:0.4286 7:3 8:2 9:2 10:0.4286 11:0.381 12:0.1429 13:18 14:4 15:0.3824 16:0.2843 17:0.2059 18:0.1765 19:0.3333 20:0.2165 21:0.56 22:-1 23:0.2982 24:2 
1 1:4 2:3 3:3 4:1 5:21 6:0.5238 7:1 8:2 9:2 10:0.3333 11:0.4286 12:0.1429 13:17 14:1 15:0.4353 16:0.2941 17:0.2353 18:0.2 19:0.2706 20:0.2055 21:1.38 22:0.2727 23:0.2258 24:13 
1 1:3 2:5 3:1 4:1 5:21 6:0.4762 7:3 8:1 9:1 10:0.2381 11:0.381 12:0.2857 13:20 14:1 15:0.3625 16:0.25 17:0.1375 18:0.225 19:0.3875 20:0.1579 21:1 22:0.0833 23:0.2941 24:18 
1 1:1 2:7 3:1 4:2 5:21 6:0.5238 7:4 8:2 9:1 10:0.2381 11:0.4762 12:0.2381 13:19 14:4 15:0.36 16:0.24 17:0.1333 18:0.2267 19:0.4 20:0.2394 21:0.82 22:0.1429 23:0.4483 24:23 
1 1:1 2:14 3:-1 4:0 5:21 6:0.2857 7:0 8:-1 9:0 10:0.381 11:0.1905 12:0.3333 13:21 14:1 15:0.2826 16:0.4022 17:0.1196 18:0.163 19:0.3152 20:0.1818 21:1 22:0 23:0.3478 24:7 
1 1:1 2:1 3:2 4:1 5:21 6:0.4286 7:1 8:3 9:3 10:0.3333 11:0.1905 12:0.2381 13:16 14:2 15:0.3976 16:0.3133 17:0.2048 18:0.1928 19:0.2892 20:0.1351 21:1.25 22:0.2857 23:0.0588 24:9 
1 1:1 2:5 3:-1 4:0 5:21 6:0.4762 7:1 8:2 9:3 10:0.2381 11:0.2381 12:0.2857 13:17 14:3 15:0.3363 16:0.3717 17:0.1593 18:0.177 19:0.292 20:0.1262 21:0.75 22:-1 23:0.1111 24:1 
1 1:1 2:2 3:-1 4:0 5:21 6:0.3333 7:0 8:5 9:2 10:0.2381 11:0.2857 12:0.4286 13:15 14:2 15:0.4245 16:0.2925 17:0.2453 18:0.1792 19:0.283 20:0.2745 21:0.67 22:-1 23:0.2667 24:1 
1 1:1 2:-1 3:-1 4:0 5:21 6:0.381 7:0 8:-1 9:0 10:0.2381 11:0.1429 12:0.381 13:21 14:4 15:0.3462 16:0.3462 17:0.1731 18:0.1731 19:0.3077 20:0 21:0.9 22:0 23:0 24:14 
1 1:3 2:7 3:-1 4:0 5:21 6:0.2857 7:1 8:2 9:1 10:0.4762 11:0.2381 12:0.2381 13:19 14:1 15:0.25 16:0.3095 17:0.131 18:0.119 19:0.4405 20:0.1392 21:1 22:-1 23:0.2308 24:2 
1 1:3 2:2 3:-1 4:0 5:25 6:0.5238 7:1 8:3 9:5 10:0.2381 11:0.381 12:0.2381 13:18 14:4 15:0.5156 16:0.2188 17:0.2188 18:0.2969 19:0.2656 20:0.2281 21:1.25 22:0 23:0.3846 24:5 
1 1:3 2:2 3:-1 4:0 5:25 6:0.5238 7:1 8:3 9:5 10:0.2381 11:0.381 12:0.2381 13:18 14:4 15:0.5156 16:0.2188 17:0.2188 18:0.2969 19:0.2656 20:0.2281 21:1.25 22:0 23:0.3846 24:5 
1 1:1 2:2 3:-1 4:0 5:23 6:0.4286 7:5 8:5 9:2 10:0.1905 11:0.2857 12:0.381 13:16 14:4 15:0.3671 16:0.2405 17:0.1646 18:0.2025 19:0.3924 20:0.2603 21:1.11 22:0 23:0.2414 24:3 
1 1:1 2:2 3:-1 4:0 5:23 6:0.4286 7:6 8:5 9:2 10:0.1905 11:0.2857 12:0.381 13:16 14:4 15:0.3924 16:0.2405 17:0.1772 18:0.2152 19:0.3671 20:0.2603 21:1.11 22:0 23:0.2414 24:3 
1 1:3 2:8 3:-1 4:0 5:22 6:0.65 7:2 8:2 9:5 10:0.15 11:0.5 12:0.2 13:15 14:3 15:0.5286 16:0.2571 17:0.2286 18:0.3 19:0.2143 20:0.3636 21:1.2 22:-1 23:0.5 24:1 
1 1:4 2:1 3:-1 4:0 5:21 6:0.2857 7:1 8:-1 9:0 10:0.2381 11:0.1905 12:0.4762 13:21 14:3 15:0.2532 16:0.3418 17:0.1392 18:0.1139 19:0.4051 20:0.0141 21:1 22:0 23:0.0345 24:3 
1 1:4 2:5 3:5 4:1 5:21 6:0.381 7:2 8:2 9:1 10:0.2857 11:0.2381 12:0.3333 13:19 14:4 15:0.2564 16:0.3846 17:0.1154 18:0.141 19:0.359 20:0.2222 21:0.56 22:0.3043 23:0.4 24:15 
1 1:4 2:3 3:-1 4:0 5:24 6:0.5 7:2 8:2 9:4 10:0.125 11:0.4583 12:0.375 13:18 14:1 15:0.3837 16:0.2907 17:0.186 18:0.1977 19:0.3256 20:0.2289 21:1.38 22:-1 23:0.3 24:1 
1 1:1 2:1 3:3 4:4 5:21 6:0.381 7:1 8:1 9:2 10:0.2857 11:0.3333 12:0.3333 13:19 14:3 15:0.4 16:0.2923 17:0.2154 18:0.1846 19:0.3077 20:0.0968 21:1.11 22:0.3333 23:0.1818 24:23 
1 1:4 2:3 3:-1 4:0 5:25 6:0.4286 7:2 8:4 9:4 10:0.2381 11:0.381 12:0.3333 13:18 14:4 15:0.45 16:0.325 17:0.2125 18:0.2375 19:0.225 20:0.2703 21:1 22:0 23:0.3793 24:5 
1 1:1 2:9 3:-1 4:0 5:21 6:0.2857 7:0 8:4 9:2 10:0.4286 11:0.2857 12:0.2857 13:16 14:3 15:0.3889 16:0.3222 17:0.1333 18:0.2556 19:0.2889 20:0.2791 21:0 22:-1 23:0.3182 24:3 
1 1:2 2:6 3:-1 4:0 5:21 6:0.4762 7:1 8:1 9:2 10:0.2857 11:0.381 12:0.2381 13:19 14:4 15:0.4396 16:0.2747 17:0.2198 18:0.2198 19:0.2857 20:0.1529 21:1 22:0 23:0.2093 24:9 
1 1:1 2:6 3:-1 4:0 5:21 6:0.4286 7:3 8:2 9:3 10:0.2857 11:0.2857 12:0.2857 13:16 14:4 15:0.3896 16:0.1818 17:0.1948 18:0.1948 19:0.4286 20:0.3134 21:1.8 22:-1 23:0.44 24:3 
1 1:1 2:-1 3:3 4:2 5:21 6:0.381 7:0 8:-1 9:0 10:0.2381 11:0.1429 12:0.381 13:21 14:4 15:0.3462 16:0.3077 17:0.1731 18:0.1731 19:0.3462 20:0 21:0.9 22:0.1111 23:0 24:22 
1 1:4 2:12 3:1 4:1 5:21 6:0.3333 7:1 8:-1 9:0 10:0.4762 11:0.1905 12:0.1905 13:21 14:4 15:0.3095 16:0.2976 17:0.1667 18:0.1429 19:0.3929 20:0.2 21:1 22:0.0833 23:0.4211 24:14 
1 1:3 2:5 3:-1 4:0 5:21 6:0.4 7:2 8:3 9:3 10:0.45 11:0.2 12:0.15 13:16 14:2 15:0.4026 16:0.2987 17:0.2208 18:0.1818 19:0.2987 20:0.3699 21:1.11 22:0 23:0.5625 24:10 
1 1:4 2:5 3:-1 4:0 5:21 6:0.381 7:2 8:3 9:3 10:0.0952 11:0.1429 12:0.5238 13:16 14:3 15:0.4074 16:0.2963 17:0.2222 18:0.1852 19:0.2963 20:0.3506 21:0.9 22:0 23:0.5 24:8 
1 1:4 2:3 3:1 4:1 5:21 6:0.4762 7:1 8:2 9:2 10:0.1905 11:0.1905 12:0.3333 13:18 14:1 15:0.3171 16:0.2805 17:0.1341 18:0.1829 19:0.4024 20:0.1538 21:0.9 22:0.1667 23:0.1667 24:9 
1 1:4 2:1 3:1 4:3 5:21 6:0.2857 7:0 8:2 9:3 10:0.1905 11:0.1429 12:0.5238 13:16 14:3 15:0.3176 16:0.3294 17:0.1647 18:0.1529 19:0.3529 20:0.1899 21:0.57 22:0.1724 23:0.1579 24:17 
1 1:4 2:1 3:6 4:1 5:22 6:0.3333 7:2 8:2 9:3 10:0.2381 11:0.2381 12:0.4286 13:17 14:1 15:0.3294 16:0.2588 17:0.1412 18:0.1882 19:0.4118 20:0.122 21:0.9 22:0.375 23:0.0732 24:17 
1 1:4 2:3 3:-1 4:0 5:23 6:0.2857 7:0 8:2 9:1 10:0.2381 11:0.1905 12:0.4762 13:21 14:4 15:0.3012 16:0.3373 17:0.1446 18:0.1566 19:0.3614 20:0.1538 21:2.25 22:-1 23:0.2941 24:1 
1 1:4 2:4 3:-1 4:0 5:23 6:0.2857 7:0 8:2 9:1 10:0.2381 11:0.1905 12:0.4762 13:21 14:1 15:0.3012 16:0.3614 17:0.1566 18:0.1446 19:0.3373 20:0.1579 21:2.25 22:-1 23:0.3125 24:3 
1 1:1 2:14 3:-1 4:0 5:21 6:0.381 7:0 8:1 9:3 10:0.2857 11:0.1429 12:0.3333 13:18 14:1 15:0.3371 16:0.4157 17:0.1685 18:0.1685 19:0.2472 20:0.3176 21:0.78 22:-1 23:0.4884 24:1 
1 1:4 2:3 3:1 4:1 5:21 6:0.381 7:2 8:1 9:1 10:0.2857 11:0.3333 12:0.3333 13:20 14:1 15:0.3146 16:0.3483 17:0.1236 18:0.191 19:0.3371 20:0.1429 21:0.89 22:0.25 23:0.2727 24:9 
1 1:4 2:2 3:1 4:1 5:22 6:0.4286 7:0 8:2 9:4 10:0.3333 11:0.2381 12:0.2381 13:17 14:4 15:0.369 16:0.381 17:0.1786 18:0.1905 19:0.25 20:0.2055 21:0.9 22:0.1111 23:0.25 24:18 
1 1:4 2:8 3:3 4:2 5:21 6:0.4762 7:2 8:1 9:1 10:0.1429 11:0.3333 12:0.381 13:20 14:4 15:0.35 16:0.3125 17:0.1625 18:0.1875 19:0.3375 20:0.1622 21:0.73 22:0.3043 23:0.3125 24:14 
1 1:4 2:2 3:2 4:3 5:21 6:0.3333 7:1 8:3 9:3 10:0.4286 11:0.0952 12:0.2381 13:16 14:3 15:0.3467 16:0.2533 17:0.16 18:0.1867 19:0.4 20:0.2121 21:1 22:0.2903 23:0.2308 24:23 
1 1:4 2:7 3:2 4:1 5:22 6:0.3182 7:2 8:2 9:2 10:0.2727 11:0.1364 12:0.4091 13:19 14:1 15:0.3978 16:0.2366 17:0.172 18:0.2258 19:0.3656 20:0.2809 21:1.4 22:0.3333 23:0.4222 24:8 
1 1:1 2:1 3:2 4:1 5:24 6:0.375 7:0 8:2 9:4 10:0.375 11:0.2083 12:0.25 13:18 14:3 15:0.3443 16:0.3443 17:0.1803 18:0.1639 19:0.3115 20:0.2308 21:2 22:0.0741 23:0.3333 24:30 
1 1:2 2:2 3:1 4:1 5:21 6:0.3333 7:2 8:1 9:1 10:0.4286 11:0.1905 12:0.2381 13:20 14:4 15:0.3398 16:0.3301 17:0.1553 18:0.1845 19:0.3301 20:0.1489 21:1.29 22:0.1667 23:0.2593 24:9 
1 1:4 2:12 3:3 4:4 5:22 6:0.3182 7:0 8:1 9:2 10:0.2273 11:0.1364 12:0.4545 13:20 14:4 15:0.3294 16:0.3412 17:0.2 18:0.1294 19:0.3294 20:0.358 21:0.9 22:0.3571 23:0.6842 24:18 
1 1:4 2:12 3:1 4:3 5:22 6:0.2857 7:0 8:3 9:3 10:0.381 11:0.2381 12:0.3333 13:17 14:4 15:0.3548 16:0.3226 17:0.2151 18:0.1398 19:0.3226 20:0.3933 21:3 22:0.2 23:0.5652 24:14 
1 1:4 2:2 3:1 4:1 5:23 6:0.4091 7:1 8:1 9:2 10:0.0909 11:0.2727 12:0.5 13:21 14:1 15:0.3704 16:0.3086 17:0.1852 18:0.1852 19:0.321 20:0.0909 21:1 22:0.0667 23:0.1515 24:19 
1 1:4 2:2 3:1 4:1 5:23 6:0.4091 7:1 8:1 9:2 10:0.4545 11:0.1818 12:0.1364 13:21 14:3 15:0.3647 16:0.3059 17:0.1765 18:0.1882 19:0.3294 20:0.0864 21:1 22:0.0769 23:0.1351 24:17 
1 1:4 2:3 3:-1 4:0 5:22 6:0.4286 7:0 8:1 9:2 10:0.1429 11:0.2857 12:0.4286 13:20 14:1 15:0.3704 16:0.321 17:0.1852 18:0.1852 19:0.3086 20:0.1169 21:0.9 22:0 23:0.2 24:3 
1 1:1 2:4 3:1 4:1 5:21 6:0.3333 7:0 8:1 9:1 10:0.1429 11:0.1429 12:0.5238 13:20 14:4 15:0.2597 16:0.3377 17:0.1558 18:0.1039 19:0.4026 20:0.1268 21:1 22:0.04 23:0.2414 24:15 
1 1:4 2:4 3:-1 4:0 5:21 6:0.3333 7:0 8:1 9:2 10:0.1429 11:0.0476 12:0.5238 13:19 14:4 15:0.3905 16:0.2762 17:0.1714 18:0.219 19:0.3333 20:0.1717 21:0.6 22:0 23:0.2281 24:6 
1 1:4 2:3 3:1 4:1 5:21 6:0.5238 7:1 8:1 9:2 10:0.1905 11:0.1905 12:0.2857 13:19 14:3 15:0.433 16:0.2784 17:0.1856 18:0.2474 19:0.2887 20:0.2258 21:0.9 22:0.125 23:0.3333 24:11 
1 1:4 2:5 3:1 4:1 5:21 6:0.3333 7:2 8:1 9:1 10:0.2857 11:0.2381 12:0.381 13:20 14:3 15:0.4286 16:0.2208 17:0.1688 18:0.2597 19:0.3506 20:0.2059 21:0.9 22:0.0588 23:0.5 24:21 
1 1:4 2:5 3:-1 4:0 5:21 6:0.2857 7:2 8:1 9:2 10:0.2857 11:0.0952 12:0.4286 13:19 14:3 15:0.4217 16:0.2289 17:0.1566 18:0.2651 19:0.3494 20:0.2162 21:1.33 22:0 23:0.4118 24:18 
1 1:2 2:2 3:4 4:3 5:21 6:0.4762 7:3 8:1 9:2 10:0.2381 11:0.2381 12:0.2857 13:19 14:1 15:0.4918 16:0.2295 17:0.2295 18:0.2623 19:0.2787 20:0.1429 21:0.9 22:0.3636 23:0.375 24:30 
1 1:4 2:5 3:2 4:1 5:22 6:0.4091 7:1 8:3 9:2 10:0.2727 11:0.1818 12:0.3182 13:18 14:1 15:0.403 16:0.3284 17:0.209 18:0.194 19:0.2687 20:0.2459 21:0.8 22:0.2 23:0.4444 24:13 
1 1:4 2:3 3:1 4:1 5:22 6:0.5 7:1 8:1 9:2 10:0.2727 11:0.2727 12:0.2273 13:20 14:4 15:0.413 16:0.3152 17:0.2065 18:0.2065 19:0.2717 20:0.1325 21:1 22:0.0588 23:0.2381 24:12 
1 1:4 2:2 3:-1 4:0 5:21 6:0.2857 7:0 8:1 9:1 10:0.381 11:0.1905 12:0.3333 13:20 14:2 15:0.2874 16:0.3678 17:0.1264 18:0.1609 19:0.3448 20:0.1176 21:1 22:0 23:0.2857 24:16 
1 1:4 2:2 3:1 4:1 5:21 6:0.5714 7:1 8:2 9:4 10:0.1905 11:0.2381 12:0.2381 13:16 14:1 15:0.4419 16:0.314 17:0.186 18:0.2558 19:0.2442 20:0.2308 21:0.88 22:0.0909 23:0.2222 24:18 
1 1:4 2:2 3:1 4:1 5:21 6:0.5238 7:1 8:2 9:3 10:0.381 11:0.3333 12:0.0952 13:17 14:4 15:0.4681 16:0.2979 17:0.2021 18:0.266 19:0.234 20:0.2093 21:0.91 22:0.1429 23:0.2273 24:14 
1 1:4 2:12 3:-1 4:0 5:21 6:0.381 7:0 8:2 9:3 10:0.2381 11:0.1905 12:0.381 13:16 14:3 15:0.3043 16:0.3043 17:0.1304 18:0.1739 19:0.3913 20:0.2644 21:0.78 22:0 23:0.3191 24:3 
1 1:4 2:4 3:-1 4:0 5:21 6:0.2857 7:1 8:-1 9:0 10:0.3333 11:0.1905 12:0.381 13:21 14:4 15:0.3372 16:0.3372 17:0.1395 18:0.1977 19:0.3256 20:0.125 21:1.12 22:0 23:0.2632 24:5 
1 1:2 2:2 3:1 4:2 5:21 6:0.4286 7:2 8:1 9:3 10:0.3333 11:0.2381 12:0.2381 13:18 14:4 15:0.4091 16:0.2614 17:0.1477 18:0.2614 19:0.3295 20:0.2 21:1.43 22:0.2222 23:0.2889 24:12 
1 1:3 2:2 3:1 4:2 5:21 6:0.4286 7:2 8:1 9:2 10:0.2857 11:0.2857 12:0.2857 13:19 14:1 15:0.413 16:0.2609 17:0.1522 18:0.2609 19:0.3261 20:0.191 21:0.91 22:0.2857 23:0.3061 24:10 
1 1:4 2:4 3:1 4:1 5:21 6:0.3333 7:1 8:1 9:1 10:0.3333 11:0.2381 12:0.3333 13:20 14:3 15:0.3626 16:0.3297 17:0.1978 18:0.1648 19:0.3077 20:0.1084 21:1.12 22:0.0833 23:0.1905 24:14 
1 1:1 2:4 3:1 4:1 5:21 6:0.35 7:2 8:1 9:1 10:0.4 11:0.15 12:0.25 13:20 14:2 15:0.3505 16:0.3299 17:0.1856 18:0.1649 19:0.3196 20:0.1011 21:1.12 22:0.1111 23:0.1667 24:11 
1 1:4 2:3 3:2 4:2 5:21 6:0.2857 7:0 8:1 9:3 10:0.3333 11:0.2381 12:0.381 13:18 14:4 15:0.2817 16:0.3662 17:0.1268 18:0.1549 19:0.3521 20:0.1515 21:0.9 22:0.1579 23:0.2308 24:22 
1 1:4 2:2 3:6 4:1 5:21 6:0.381 7:2 8:1 9:3 10:0.2857 11:0.1905 12:0.3333 13:18 14:4 15:0.3614 16:0.3133 17:0.1325 18:0.2289 19:0.3253 20:0.1622 21:0.75 22:0.3548 23:0.2353 24:19 
-0.3299552880651868 1:4 2:3 3:1 4:1 5:21 6:0.4762 7:0 8:2 9:4 10:0.0952 11:0.1905 12:0.4286 13:16 14:1 15:0.4526 16:0.2632 17:0.2421 18:0.2105 19:0.2842 20:0.1685 21:1.4 22:0.25 23:0.16 24:10 
-0.001215504443326432 1:2 2:3 3:-1 4:0 5:27 6:0.4583 7:0 8:3 9:5 10:0.5 11:0.2917 12:0.0417 13:20 14:1 15:0.4667 16:0.2571 17:0.2476 18:0.219 19:0.2762 20:0.1919 21:0.8 22:-1 23:0.1667 24:5 
-0.06200735106992749 1:1 2:-1 3:5 4:3 5:23 6:0.5 7:2 8:2 9:4 10:0.25 11:0.2917 12:0.25 13:17 14:-1 15:0.4792 16:0.1875 17:0.2083 18:0.2708 19:0.3333 20:0.2273 21:1.67 22:0.1429 23:-1 24:34 
-0.04240845323384756 1:3 2:2 3:-1 4:0 5:28 6:0.4091 7:0 8:5 9:3 10:0.5 11:0.3182 12:0.0909 13:21 14:2 15:0.47 16:0.23 17:0.23 18:0.24 19:0.3 20:0.1875 21:1 22:0 23:0.2174 24:5 
-0.01975934634535685 1:1 2:-1 3:5 4:3 5:23 6:0.4783 7:2 8:2 9:4 10:0.2609 11:0.2609 12:0.2609 13:17 14:4 15:0.4792 16:0.1875 17:0.2083 18:0.2708 19:0.3333 20:0.2273 21:1.67 22:0.1429 23:-1 24:34 
-0.4348675355884777 1:3 2:-1 3:5 4:3 5:22 6:0.5217 7:2 8:2 9:4 10:0.2174 11:0.3043 12:0.2609 13:16 14:-1 15:0.5 16:0.1739 17:0.2174 18:0.2826 19:0.3261 20:0.2381 21:1.83 22:0.1379 23:-1 24:35 
-0.1162128037279019 1:4 2:2 3:5 4:1 5:24 6:0.5833 7:1 8:2 9:4 10:0.0417 11:0.25 12:0.375 13:19 14:1 15:0.4848 16:0.197 17:0.2273 18:0.2576 19:0.3182 20:0.1935 21:1.14 22:0.1579 23:0.25 24:24 
-0.08789572068509317 1:1 2:-1 3:5 4:3 5:20 6:0.55 7:1 8:2 9:3 10:0.1 11:0.3 12:0.35 13:15 14:3 15:0.4808 16:0.1923 17:0.2115 18:0.2692 19:0.3269 20:0.2083 21:0.5 22:0.1538 23:0 24:32 
-0.1200345552421504 1:3 2:-1 3:3 4:4 5:23 6:0.4545 7:1 8:3 9:4 10:0.0909 11:0.2273 12:0.4545 13:15 14:2 15:0.4444 16:0.2 17:0.2444 18:0.2 19:0.3556 20:0.25 21:0.88 22:0.1579 23:-1 24:32 
-0.052181561931032 1:1 2:1 3:3 4:3 5:28 6:0.5 7:1 8:3 9:4 10:0.4167 11:0.2917 12:0.0833 13:21 14:1 15:0.4853 16:0.2059 17:0.25 18:0.2353 19:0.3088 20:0.1746 21:2 22:0.2353 23:0.2308 24:19 
-0.4181762477298083 1:4 2:3 3:3 4:3 5:21 6:0.5238 7:1 8:3 9:3 10:0.0476 11:0.1905 12:0.4286 13:16 14:3 15:0.4844 16:0.2031 17:0.25 18:0.2344 19:0.3125 20:0.1864 21:0.57 22:0.2105 23:0.3043 24:22 
-0.9458748309961758 1:4 2:3 3:3 4:2 5:21 6:0.5238 7:0 8:2 9:4 10:0.0952 11:0.1905 12:0.381 13:16 14:1 15:0.4783 16:0.2174 17:0.2464 18:0.2319 19:0.3043 20:0.1875 21:0.57 22:0.2121 23:0.2857 24:19 
-0.008357421201226843 1:3 2:1 3:3 4:3 5:28 6:0.5 7:1 8:3 9:4 10:0.375 11:0.2917 12:0.125 13:20 14:1 15:0.5 16:0.197 17:0.2576 18:0.2424 19:0.303 20:0.1803 21:5 22:0.2222 23:0.1667 24:21 
-0.05880342679431525 1:1 2:3 3:3 4:3 5:22 6:0.4545 7:2 8:1 9:1 10:0.5 11:0.3182 12:0.0455 13:21 14:2 15:0.3896 16:0.2727 17:0.1299 18:0.2597 19:0.3377 20:0.1622 21:1 22:0.1875 23:0.375 24:20 
-0.6310128400809355 1:3 2:3 3:-1 4:0 5:26 6:0.4348 7:2 8:3 9:4 10:0.4783 11:0.3913 12:0.087 13:19 14:2 15:0.3964 16:0.2793 17:0.1441 18:0.2523 19:0.3243 20:0.1852 21:0.89 22:-1 23:0.2188 24:1 
-0.293725922270107 1:4 2:3 3:-1 4:0 5:25 6:0.3182 7:1 8:3 9:3 10:0.1364 11:0.0455 12:0.5455 13:19 14:3 15:0.381 16:0.2952 17:0.1429 18:0.2381 19:0.3238 20:0.1765 21:1 22:0 23:0.2333 24:4 
-0.4847779308742167 1:2 2:3 3:-1 4:0 5:20 6:0.45 7:2 8:1 9:1 10:0.1 11:0.15 12:0.45 13:19 14:1 15:0.4268 16:0.1829 17:0.1707 18:0.2561 19:0.3902 20:0.2208 21:1.29 22:0 23:0.45 24:11 
-0.1943215346084717 1:3 2:3 3:1 4:2 5:20 6:0.55 7:2 8:1 9:1 10:0.3 11:0.4 12:0.15 13:19 14:1 15:0.4658 16:0.2055 17:0.2055 18:0.2603 19:0.3288 20:0.1333 21:1.43 22:0.1429 23:0.3913 24:22 
-0.01637444538735179 1:1 2:2 3:1 4:2 5:26 6:0.4545 7:2 8:4 9:1 10:0.1818 11:0.1818 12:0.3636 13:22 14:1 15:0.4533 16:0.2133 17:0.2 18:0.2533 19:0.3333 20:0.129 21:0.9 22:0.1579 23:0.375 24:21 
-0.03781882285134951 1:1 2:4 3:-1 4:0 5:21 6:0.55 7:0 8:4 9:3 10:0.45 11:0.4 12:0 13:15 14:1 15:0.5052 16:0.2062 17:0.2784 18:0.2268 19:0.2887 20:0.2473 21:0 22:-1 23:0.2308 24:4 
-0.2257235507741263 1:4 2:-1 3:1 4:2 5:25 6:0.5238 7:1 8:4 9:4 10:0.1905 11:0.2381 12:0.2857 13:17 14:1 15:0.5 16:0.1897 17:0.2759 18:0.2241 19:0.3103 20:0.2222 21:0.78 22:0.0968 23:0 24:24 
-0.04993080763661096 1:4 2:-1 3:1 4:2 5:26 6:0.5652 7:0 8:4 9:5 10:0.1739 11:0.2609 12:0.2609 13:17 14:-1 15:0.52 16:0.18 17:0.3 18:0.22 19:0.3 20:0.2609 21:0.64 22:0.0769 23:-1 24:28 
-0.7909771499461159 1:4 2:3 3:1 4:3 5:21 6:0.5238 7:2 8:2 9:2 10:0.0476 11:0.3333 12:0.4286 13:17 14:3 15:0.4462 16:0.2769 17:0.1846 18:0.2615 19:0.2769 20:0.2203 21:0.56 22:0.1852 23:0.3333 24:22 
-0.02664828811162041 1:4 2:1 3:2 4:3 5:21 6:0.4286 7:1 8:1 9:3 10:0.0952 11:0.1429 12:0.4762 13:18 14:3 15:0.4138 16:0.2414 17:0.2586 18:0.1552 19:0.3448 20:0.1163 21:0.7 22:0.16 23:0.5 24:31 
-0.3423284498857314 1:2 2:2 3:-1 4:0 5:22 6:0.35 7:2 8:4 9:3 10:0.35 11:0.25 12:0.3 13:15 14:2 15:0.4174 16:0.2435 17:0.2348 18:0.1826 19:0.3391 20:0.2 21:0.22 22:-1 23:0.1667 24:1 
-0.1205235578052562 1:2 2:1 3:2 4:3 5:20 6:0.45 7:1 8:1 9:2 10:0.05 11:0.1 12:0.5 13:18 14:4 15:0.4242 16:0.2424 17:0.2576 18:0.1667 19:0.3333 20:0.098 21:0.9 22:0.1905 23:0.2857 24:27 
-1 1:4 2:1 3:2 4:2 5:21 6:0.4762 7:1 8:2 9:2 10:0.0476 11:0.1429 12:0.4762 13:18 14:3 15:0.4156 16:0.2597 17:0.2468 18:0.1688 19:0.3247 20:0.129 21:1 22:0.1613 23:0.2174 24:21 
-0.2491988361736893 1:4 2:-1 3:2 4:3 5:20 6:0.35 7:1 8:1 9:4 10:0.1 11:0.1 12:0.55 13:16 14:2 15:0.3846 16:0.25 17:0.25 18:0.1346 19:0.3654 20:0.1351 21:0.78 22:0.1429 23:-1 24:34 
-0.2311918031562187 1:3 2:1 3:2 4:3 5:23 6:0.4783 7:1 8:1 9:3 10:0.087 11:0.1304 12:0.4348 13:20 14:1 15:0.4375 16:0.2344 17:0.2656 18:0.1719 19:0.3281 20:0.102 21:0.7 22:0.1818 23:0.3333 24:28 
-0.05724815321437276 1:4 2:-1 3:3 4:2 5:21 6:0.4 7:0 8:2 9:4 10:0.25 11:0.15 12:0.35 13:16 14:3 15:0.3725 16:0.3137 17:0.1961 18:0.1765 19:0.3137 20:0.1915 21:0.56 22:0.2727 23:0 24:26 
-0.1708343211174271 1:4 2:-1 3:3 4:2 5:23 6:0.2609 7:0 8:2 9:4 10:0.3913 11:0.1739 12:0.3478 13:18 14:2 15:0.3725 16:0.3137 17:0.1961 18:0.1765 19:0.3137 20:0.1915 21:2.25 22:0.2727 23:0 24:26 
-0.02728288897145975 1:3 2:-1 3:3 4:2 5:21 6:0.4762 7:0 8:2 9:5 10:0.1905 11:0.1429 12:0.3333 13:15 14:-1 15:0.3953 16:0.3023 17:0.2093 18:0.186 19:0.3023 20:0.2308 21:0.78 22:0.2308 23:-1 24:30 
-0.3502476480670188 1:4 2:2 3:-1 4:0 5:20 6:0.4 7:1 8:3 9:2 10:0.1 11:0.15 12:0.5 13:14 14:1 15:0.3797 16:0.2658 17:0.2025 18:0.1772 19:0.3544 20:0.28 21:0.33 22:-1 23:0.2571 24:1 
-1 1:2 2:4 3:1 4:1 5:21 6:0.4286 7:2 8:1 9:2 10:0.1429 11:0.1905 12:0.4286 13:19 14:3 15:0.3936 16:0.2553 17:0.1915 18:0.2021 19:0.3511 20:0.2088 21:1.43 22:0.125 23:0.3333 24:12 
-1 1:3 2:4 3:1 4:2 5:20 6:0.5 7:2 8:1 9:1 10:0.3 11:0.35 12:0.2 13:19 14:1 15:0.3953 16:0.2558 17:0.186 18:0.2093 19:0.3488 20:0.2048 21:0.82 22:0.1667 23:0.3778 24:16 
-0.3750909303662076 1:4 2:1 3:5 4:5 5:21 6:0.2857 7:1 8:4 9:3 10:0.4762 11:0.1905 12:0.2381 13:15 14:4 15:0.3208 16:0.3962 17:0.1698 18:0.1509 19:0.283 20:0.24 21:0.2 22:0.2857 23:0.2 24:34 
-0.06868561976470203 1:1 2:1 3:5 4:5 5:21 6:0.4286 7:1 8:4 9:3 10:0.2381 11:0.1429 12:0.3333 13:15 14:3 15:0.3208 16:0.3962 17:0.1698 18:0.1509 19:0.283 20:0.24 21:5 22:0.2857 23:0.2 24:34 
-0.3593805191748289 1:3 2:3 3:5 4:4 5:22 6:0.5 7:1 8:1 9:4 10:0.0909 11:0.2273 12:0.4091 13:18 14:1 15:0.3492 16:0.381 17:0.1905 18:0.1587 19:0.2698 20:0.2333 21:1.43 22:0.3043 23:0.4444 24:29 
-0.2889648634120283 1:3 2:4 3:5 4:4 5:20 6:0.45 7:1 8:1 9:3 10:0.1 11:0.15 12:0.45 13:17 14:1 15:0.3279 16:0.3934 17:0.1803 18:0.1475 19:0.2787 20:0.2414 21:1 22:0.2917 23:0.5 24:30 
-0.08506975601299124 1:4 2:1 3:5 4:5 5:21 6:0.4762 7:1 8:4 9:3 10:0.1905 11:0.1429 12:0.3333 13:15 14:4 15:0.3333 16:0.3922 17:0.1765 18:0.1569 19:0.2745 20:0.25 21:2 22:0.2759 23:0.25 24:35 
-0.1475840389603987 1:1 2:1 3:5 4:5 5:20 6:0.25 7:1 8:4 9:3 10:0.5 11:0.2 12:0.25 13:14 14:3 15:0.2889 16:0.4222 17:0.1556 18:0.1333 19:0.2889 20:0.2857 21:1 22:0.25 23:0.5 24:38 
-0.4082474699060237 1:4 2:4 3:-1 4:0 5:22 6:0.4545 7:0 8:2 9:5 10:0.2273 11:0.1364 12:0.3182 13:16 14:1 15:0.4583 16:0.2812 17:0.2292 18:0.2292 19:0.2604 20:0.2273 21:0.62 22:0 23:0.1818 24:4 
-0.3238603585668446 1:2 2:-1 3:3 4:6 5:23 6:0.4091 7:1 8:2 9:4 10:0.2727 11:0.3182 12:0.3182 13:17 14:1 15:0.3 16:0.32 17:0.14 18:0.16 19:0.38 20:0.1739 21:1.8 22:0.2903 23:0 24:34 
-0.07904387614950774 1:4 2:2 3:2 4:2 5:23 6:0.4762 7:1 8:3 9:5 10:0.1429 11:0.2381 12:0.381 13:14 14:3 15:0.4 16:0.2444 17:0.1778 18:0.2222 19:0.3556 20:0.2326 21:5 22:0.2727 23:0.0952 24:13 
-0.02591129281141568 1:3 2:-1 3:2 4:4 5:29 6:0.2917 7:0 8:3 9:6 10:0.3333 11:0.0417 12:0.375 13:19 14:2 15:0.3088 16:0.2794 17:0.1471 18:0.1618 19:0.4118 20:0.2188 21:0.8 22:0.2727 23:0 24:24 
-0.01390781110699508 1:4 2:-1 3:3 4:7 5:22 6:0.2857 7:1 8:2 9:3 10:0.2857 11:0.1905 12:0.4286 13:18 14:2 15:0.25 16:0.3636 17:0.1364 18:0.1136 19:0.3864 20:0.1 21:1.12 22:0.3235 23:-1 24:37 
-1 1:4 2:3 3:1 4:1 5:22 6:0.5455 7:1 8:2 9:4 10:0.0909 11:0.3182 12:0.3636 13:16 14:4 15:0.4 16:0.23 17:0.18 18:0.22 19:0.37 20:0.25 21:0.62 22:0.1667 23:0.2308 24:8 
-0.2734572075871703 1:4 2:3 3:1 4:2 5:22 6:0.4545 7:1 8:3 9:4 10:0.2727 11:0.3182 12:0.2727 13:13 14:2 15:0.4154 16:0.2923 17:0.2 18:0.2154 19:0.2923 20:0.3115 21:0.88 22:0.1429 23:0.1579 24:16 
-0.1601819458897981 1:3 2:3 3:1 4:1 5:21 6:0.5714 7:1 8:3 9:3 10:0.1905 11:0.3333 12:0.2381 13:15 14:4 15:0.4545 16:0.2597 17:0.2208 18:0.2338 19:0.2857 20:0.2877 21:1.12 22:0.125 23:0.2903 24:10 
-0.06758499835678443 1:2 2:3 3:-1 4:0 5:21 6:0.5238 7:2 8:7 9:2 10:0.2857 11:0.2381 12:0.1905 13:13 14:1 15:0.4087 16:0.2174 17:0.2 18:0.2087 19:0.3739 20:0.2857 21:0 22:-1 23:0.25 24:1 
-0.1838301881386235 1:4 2:1 3:2 4:2 5:29 6:0.5238 7:3 8:8 9:4 10:0.0952 11:0.2381 12:0.381 13:18 14:4 15:0.5455 16:0.1429 17:0.2208 18:0.3247 19:0.3117 20:0.2113 21:0.56 22:0.2308 23:0.0909 24:15 
-0.7201711785692321 1:2 2:8 3:-1 4:0 5:20 6:0.6 7:3 8:2 9:2 10:0.1 11:0.35 12:0.3 13:17 14:2 15:0.534 16:0.165 17:0.2233 18:0.3107 19:0.301 20:0.2165 21:0.89 22:-1 23:0.2632 24:2 
-0.1211174433620564 1:4 2:-1 3:5 4:4 5:24 6:0.5652 7:2 8:3 9:5 10:0.1739 11:0.2609 12:0.2609 13:15 14:-1 15:0.5227 16:0.1364 17:0.2045 18:0.3182 19:0.3409 20:0.2105 21:0.6 22:0.2203 23:-1 24:34 
-0.09885127309667709 1:3 2:-1 3:8 4:4 5:21 6:0.5 7:2 8:2 9:4 10:0.1 11:0.4 12:0.4 13:15 14:1 15:0.5366 16:0.1463 17:0.2195 18:0.3171 19:0.3171 20:0.1429 21:0.62 22:0.2581 23:-1 24:29 
-0.02333411629051071 1:4 2:1 3:1 4:2 5:27 6:0.375 7:1 8:3 9:3 10:0.25 11:0.2083 12:0.375 13:19 14:3 15:0.3571 16:0.2976 17:0.131 18:0.2262 19:0.3452 20:0.2051 21:1.8 22:0.12 23:0.1111 24:17 
-0.3395450725996905 1:4 2:4 3:-1 4:0 5:23 6:0.4783 7:2 8:2 9:3 10:0.0435 11:0.1739 12:0.4783 13:18 14:1 15:0.4271 16:0.2396 17:0.1979 18:0.2292 19:0.3333 20:0.2 21:0.56 22:0 23:0.1818 24:6 
-0.6146762920184622 1:1 2:4 3:-1 4:0 5:22 6:0.3182 7:1 8:3 9:3 10:0.4545 11:0.2273 12:0.2273 13:16 14:4 15:0.4 16:0.2476 17:0.1905 18:0.2095 19:0.3524 20:0.2323 21:0.18 22:-1 23:0.2143 24:1 
-1 1:4 2:4 3:-1 4:0 5:21 6:0.4762 7:2 8:2 9:3 10:0.3333 11:0.3333 12:0.1905 13:16 14:1 15:0.4432 16:0.2273 17:0.2045 18:0.2386 19:0.3295 20:0.2195 21:1 22:0 23:0.2 24:10 
-0.007139948998304183 1:4 2:1 3:3 4:2 5:28 6:0.6 7:3 8:6 9:3 10:0.15 11:0.35 12:0.25 13:18 14:1 15:0.4328 16:0.2239 17:0.194 18:0.2388 19:0.3433 20:0.2069 21:1.67 22:0.2 23:0.1667 24:23 
-0.002515355758584973 1:1 2:1 3:3 4:2 5:32 6:0.5417 7:3 8:6 9:3 10:0.1667 11:0.2917 12:0.2917 13:22 14:1 15:0.4328 16:0.2239 17:0.194 18:0.2388 19:0.3433 20:0.2069 21:1.5 22:0.2 23:0.5 24:23 
-0.005278513146284379 1:1 2:3 3:4 4:4 5:21 6:0.2857 7:1 8:6 9:3 10:0.4762 11:0.0952 12:0.2381 13:13 14:1 15:0.3673 16:0.3265 17:0.1837 18:0.1837 19:0.3061 20:0.3333 21:0.7 22:0.1852 23:0.5 24:33 
-0.1631332432730774 1:1 2:6 3:-1 4:0 5:22 6:0.4286 7:1 8:5 9:4 10:0.1905 11:0.2381 12:0.381 13:14 14:3 15:0.4337 16:0.241 17:0.2048 18:0.2289 19:0.3253 20:0.3165 21:1.75 22:0 23:0.35 24:14 
-0.1938053500824231 1:1 2:1 3:-1 4:0 5:22 6:0.4762 7:2 8:3 9:3 10:0.2381 11:0.1905 12:0.2857 13:15 14:4 15:0.4286 16:0.1948 17:0.2727 18:0.1558 19:0.3766 20:0.2459 21:2 22:-1 23:0.1111 24:1 
-0.3675930327959516 1:2 2:1 3:4 4:4 5:21 6:0.5714 7:4 8:2 9:2 10:0.0952 11:0.381 12:0.3333 13:18 14:3 15:0.4667 16:0.2333 17:0.2167 18:0.25 19:0.3 20:0.1154 21:0.73 22:0.3333 23:0.1667 24:30 
-0.4764306431579704 1:3 2:-1 3:4 4:4 5:23 6:0.4286 7:4 8:2 9:3 10:0.2857 11:0.1905 12:0.2857 13:19 14:1 15:0.4483 16:0.2414 17:0.2069 18:0.2414 19:0.3103 20:0.12 21:1.25 22:0.3182 23:0 24:31 
-0.7182893042137157 1:4 2:3 3:2 4:1 5:22 6:0.2727 7:2 8:3 9:3 10:0.3182 11:0.2273 12:0.4091 13:17 14:2 15:0.28 16:0.3733 17:0.1067 18:0.1733 19:0.3467 20:0.2222 21:0.29 22:0.25 23:0.2667 24:12 
-0.2134680813581765 1:2 2:3 3:2 4:1 5:22 6:0.3636 7:2 8:3 9:3 10:0.4091 11:0.1364 12:0.2273 13:17 14:4 15:0.2987 16:0.3636 17:0.1169 18:0.1818 19:0.3377 20:0.2162 21:4 22:0.2857 23:0.25 24:11 
-0.6448293510527294 1:4 2:5 3:1 4:1 5:20 6:0.3 7:0 8:4 9:1 10:0.3 11:0.25 12:0.4 13:16 14:2 15:0.2697 16:0.3596 17:0.1236 18:0.1461 19:0.3708 20:0.253 21:0.78 22:0.125 23:0.3617 24:10 
-0.1678026861726078 1:4 2:5 3:1 4:1 5:25 6:0.2857 7:0 8:4 9:2 10:0.4762 11:0.0476 12:0.2381 13:18 14:4 15:0.2716 16:0.358 17:0.1235 18:0.1481 19:0.3704 20:0.28 21:1 22:0.0833 23:0.4 24:14 
-0.976440463285723 1:4 2:9 3:2 4:2 5:22 6:0.3182 7:2 8:2 9:2 10:0.2273 11:0.2727 12:0.4545 13:19 14:2 15:0.3038 16:0.2278 17:0.1266 18:0.1772 19:0.4684 20:0.2877 21:1.29 22:0.2308 23:0.5172 24:17 
-0.2729589436590747 1:4 2:9 3:-1 4:0 5:21 6:0.35 7:1 8:2 9:4 10:0.2 11:0.1 12:0.45 13:15 14:4 15:0.3519 16:0.2222 17:0.1574 18:0.1944 19:0.4259 20:0.2941 21:0.88 22:-1 23:0.3115 24:2 
-0.3707795166457404 1:4 2:7 3:2 4:3 5:21 6:0.2857 7:2 8:2 9:2 10:0.4286 11:0.1429 12:0.2857 13:17 14:4 15:0.3099 16:0.2254 17:0.1268 18:0.1831 19:0.4648 20:0.2923 21:2.25 22:0.2353 23:0.4783 24:21 
-0.8465942679758038 1:1 2:9 3:2 4:2 5:23 6:0.3043 7:2 8:2 9:2 10:0.4348 11:0.1304 12:0.2609 13:20 14:4 15:0.3038 16:0.2278 17:0.1266 18:0.1772 19:0.4684 20:0.2877 21:0.78 22:0.2308 23:0.5556 24:17 
-0.5214228472395731 1:4 2:9 3:2 4:2 5:20 6:0.3 7:1 8:2 9:2 10:0.4 11:0.1 12:0.3 13:17 14:4 15:0.3117 16:0.2208 17:0.1299 18:0.1818 19:0.4675 20:0.2958 21:0.78 22:0.2143 23:0.4839 24:18 
-0.05487416096181241 1:4 2:9 3:-1 4:0 5:20 6:0.35 7:1 8:2 9:3 10:0.25 11:0.1 12:0.4 13:16 14:4 15:0.3619 16:0.2286 17:0.1619 18:0.2 19:0.4095 20:0.2727 21:1.43 22:-1 23:0.322 24:3 
-1 1:4 2:9 3:-1 4:0 5:21 6:0.5238 7:1 8:2 9:3 10:0.2381 11:0.3333 12:0.2381 13:17 14:4 15:0.3619 16:0.2286 17:0.1619 18:0.2 19:0.4095 20:0.2727 21:0.9 22:-1 23:0.3333 24:4 
-0.1058465522494164 1:2 2:7 3:2 4:3 5:20 6:0.3 7:2 8:2 9:2 10:0.45 11:0.15 12:0.25 13:16 14:4 15:0.3188 16:0.2174 17:0.1304 18:0.1884 19:0.4638 20:0.3016 21:2.5 22:0.2222 23:0.4783 24:22 
-0.05303726620913207 1:4 2:3 3:1 4:2 5:20 6:0.4 7:1 8:3 9:3 10:0.25 11:0.3 12:0.35 13:14 14:1 15:0.4578 16:0.2289 17:0.2169 18:0.241 19:0.3133 20:0.3077 21:0.5 22:0.1333 23:0.35 24:17 
-0.06865225961478739 1:3 2:7 3:-1 4:0 5:22 6:0.5 7:1 8:2 9:4 10:0.3636 11:0.3182 12:0.1364 13:17 14:4 15:0.375 16:0.2639 17:0.1667 18:0.2083 19:0.3611 20:0.3529 21:1.17 22:0 23:0.6 24:12 
-0.3894938065920488 1:4 2:6 3:-1 4:0 5:22 6:0.4286 7:0 8:3 9:4 10:0.0476 11:0.1905 12:0.5238 13:16 14:3 15:0.3714 16:0.2714 17:0.1714 18:0.2 19:0.3571 20:0.3636 21:0.43 22:0 23:0.5652 24:13 
-0.006903431961174093 1:4 2:-1 3:1 4:2 5:24 6:0.3913 7:1 8:9 9:4 10:0.1304 11:0.1304 12:0.4783 13:12 14:4 15:0.3673 16:0.2449 17:0.1837 18:0.1837 19:0.3878 20:0.4667 21:0.7 22:0.0732 23:-1 24:24 
-1 1:4 2:1 3:2 4:2 5:23 6:0.2609 7:0 8:2 9:3 10:0.2174 11:0.0435 12:0.5217 13:18 14:4 15:0.2639 16:0.3056 17:0.1389 18:0.125 19:0.4306 20:0.1818 21:0.56 22:0.1724 23:0.1 24:17 
-1 1:2 2:3 3:-1 4:0 5:21 6:0.2857 7:0 8:2 9:2 10:0.3333 11:0.1429 12:0.381 13:18 14:2 15:0.2727 16:0.3131 17:0.1313 18:0.1414 19:0.4141 20:0.1828 21:1.12 22:0 23:0.2308 24:3 
-0.7155026075772677 1:3 2:3 3:2 4:2 5:21 6:0.2857 7:0 8:2 9:2 10:0.1905 11:0.0476 12:0.5238 13:18 14:2 15:0.2568 16:0.3108 17:0.1351 18:0.1216 19:0.4324 20:0.1765 21:0.56 22:0.1852 23:0.2308 24:16 
-0.01106622721114196 1:3 2:-1 3:2 4:4 5:29 6:0.4 7:2 8:8 9:4 10:0.2 11:0.2 12:0.4 13:18 14:4 15:0.3478 16:0.3333 17:0.1739 18:0.1739 19:0.3188 20:0.2063 21:1.29 22:0.2308 23:0 24:22 
-0.4350869813337571 1:4 2:8 3:-1 4:0 5:21 6:0.4 7:1 8:2 9:5 10:0.3 11:0.3 12:0.3 13:15 14:2 15:0.3636 16:0.3 17:0.1909 18:0.1727 19:0.3364 20:0.2308 21:1 22:-1 23:0.2063 24:1 
-0.01635537376985599 1:1 2:-1 3:2 4:5 5:33 6:0.3333 7:2 8:8 9:3 10:0.25 11:0.2083 12:0.4167 13:23 14:1 15:0.3333 16:0.3333 17:0.1587 18:0.1746 19:0.3333 20:0.193 21:0.9 22:0.2444 23:-1 24:25 
-0.2763446112252864 1:4 2:4 3:1 4:1 5:21 6:0.4286 7:3 8:4 9:2 10:0.2381 11:0.3333 12:0.3333 13:15 14:3 15:0.4787 16:0.266 17:0.117 18:0.3617 19:0.2553 20:0.2889 21:0.5 22:0.2 23:0.2917 24:10 
-0.334450735258419 1:3 2:-1 3:4 4:3 5:26 6:0.5417 7:0 8:4 9:5 10:0.25 11:0.375 12:0.2083 13:17 14:3 15:0.4844 16:0.2812 17:0.1406 18:0.3438 19:0.2344 20:0.2333 21:0.75 22:0.35 23:0 24:25 
-0.009423447801856255 1:4 2:2 3:3 4:3 5:25 6:0.4783 7:1 8:4 9:5 10:0.3043 11:0.3478 12:0.2174 13:17 14:1 15:0.4853 16:0.2647 17:0.1324 18:0.3529 19:0.25 20:0.25 21:0.75 22:0.3333 23:0.2222 24:23 
-0.165848823185666 1:3 2:4 3:-1 4:0 5:23 6:0.4348 7:3 8:4 9:3 10:0.3043 11:0.3913 12:0.2609 13:16 14:4 15:0.48 16:0.26 17:0.11 18:0.37 19:0.26 20:0.2917 21:1.29 22:0 23:0.28 24:7 
-0.01342920262640201 1:1 2:10 3:-1 4:0 5:23 6:0.3043 7:1 8:4 9:2 10:0.3913 11:0.1739 12:0.3043 13:18 14:1 15:0.3253 16:0.253 17:0.1687 18:0.1566 19:0.4217 20:0.2658 21:0 22:0 23:0.3889 24:11 
-0.2505208180352825 1:1 2:14 3:-1 4:0 5:20 6:0.35 7:1 8:1 9:1 10:0.4 11:0.2 12:0.25 13:19 14:2 15:0.3176 16:0.2588 17:0.1647 18:0.1529 19:0.4235 20:0.2593 21:1 22:0 23:0.4634 24:10 
-0.0201910225212363 1:4 2:4 3:-1 4:0 5:23 6:0.2609 7:0 8:12 9:2 10:0.3478 11:0.0435 12:0.3913 13:10 14:4 15:0.2985 16:0.2537 17:0.1642 18:0.1343 19:0.4478 20:0.3333 21:0 22:0 23:0.2143 24:19 
-0.05043001936319154 1:1 2:2 3:1 4:2 5:23 6:0.4348 7:0 8:2 9:4 10:0.3913 11:0.1304 12:0.1739 13:18 14:4 15:0.3933 16:0.3034 17:0.2022 18:0.191 19:0.3034 20:0.1628 21:1.8 22:0.1765 23:0.1429 24:15 
-0.1557061119068875 1:4 2:2 3:1 4:2 5:22 6:0.3636 7:0 8:2 9:4 10:0.2273 11:0.1818 12:0.4091 13:17 14:1 15:0.3933 16:0.3034 17:0.2022 18:0.191 19:0.3034 20:0.1628 21:0.5 22:0.1765 23:0.1364 24:15 
-0.03799376088483125 1:1 2:2 3:1 4:1 5:20 6:0.45 7:0 8:3 9:4 10:0.35 11:0.15 12:0.2 13:14 14:2 15:0.3871 16:0.3011 17:0.2043 18:0.1828 19:0.3118 20:0.1778 21:3 22:0.0769 23:0.1154 24:13 
-0.4696285271139902 1:4 2:2 3:-1 4:0 5:21 6:0.381 7:1 8:2 9:3 10:0.1429 11:0.2381 12:0.4762 13:17 14:4 15:0.4078 16:0.2524 17:0.165 18:0.2427 19:0.3398 20:0.1224 21:0.8 22:0 23:0.1034 24:8 
-0.3555013000826502 1:4 2:2 3:-1 4:0 5:24 6:0.3333 7:1 8:2 9:3 10:0.125 11:0.2083 12:0.5417 13:20 14:4 15:0.3853 16:0.2661 17:0.156 18:0.2294 19:0.3486 20:0.1154 21:0.8 22:0 23:0.1034 24:5 
-0.13168276183465 1:3 2:1 3:2 4:3 5:24 6:0.4545 7:3 8:2 9:2 10:0.1818 11:0.1364 12:0.3636 13:21 14:1 15:0.377 16:0.2787 17:0.1639 18:0.2131 19:0.3443 20:0.0714 21:1 22:0.1481 23:0.1667 24:29 
-0.4515221083610927 1:1 2:9 3:-1 4:0 5:21 6:0.381 7:1 8:2 9:3 10:0.4286 11:0.2381 12:0.1905 13:16 14:2 15:0.4194 16:0.2366 17:0.2043 18:0.2151 19:0.3441 20:0.2414 21:0.9 22:0 23:0.2444 24:5 
-0.7366528679843684 1:4 2:9 3:-1 4:0 5:22 6:0.4545 7:1 8:2 9:3 10:0.0909 11:0.1818 12:0.4545 13:17 14:1 15:0.4316 16:0.2316 17:0.2105 18:0.2211 19:0.3368 20:0.236 21:1 22:0 23:0.2444 24:4 
-0.001683836394016483 1:1 2:9 3:1 4:1 5:21 6:0.4286 7:1 8:2 9:4 10:0.1905 11:0.1905 12:0.381 13:16 14:1 15:0.4337 16:0.2169 17:0.2048 18:0.2289 19:0.3494 20:0.2468 21:3.33 22:0.1429 23:0.2571 24:10 
-0.214095548750124 1:2 2:9 3:-1 4:0 5:22 6:0.4545 7:1 8:2 9:3 10:0.0909 11:0.1818 12:0.4545 13:17 14:1 15:0.4227 16:0.2371 17:0.2062 18:0.2165 19:0.3402 20:0.2308 21:1.22 22:-1 23:0.234 24:3 
-0.6523231574799131 1:2 2:7 3:1 4:1 5:21 6:0.381 7:0 8:2 9:4 10:0.2857 11:0.0952 12:0.3333 13:16 14:1 15:0.4211 16:0.2842 17:0.2211 18:0.2 19:0.2947 20:0.2391 21:1.33 22:0.2 23:0.283 24:10 
-0.458620955165907 1:1 2:7 3:1 4:2 5:23 6:0.4348 7:0 8:2 9:3 10:0.3043 11:0.3043 12:0.2609 13:19 14:4 15:0.4545 16:0.2614 17:0.2386 18:0.2159 19:0.2841 20:0.2471 21:0.78 22:0.1765 23:0.3659 24:13 
-0.04670175125517788 1:2 2:7 3:-1 4:0 5:23 6:0.3636 7:0 8:2 9:5 10:0.3182 11:0.1818 12:0.3182 13:17 14:4 15:0.4245 16:0.2925 17:0.2264 18:0.1981 19:0.283 20:0.2427 21:1 22:-1 23:0.2787 24:4 
-1 1:4 2:7 3:1 4:1 5:22 6:0.4286 7:0 8:2 9:4 10:0.2857 11:0.2857 12:0.2857 13:17 14:4 15:0.4301 16:0.2796 17:0.2258 18:0.2043 19:0.2903 20:0.2444 21:0.73 22:0.1667 23:0.3061 24:11 
-0.1480179747543977 1:2 2:7 3:1 4:1 5:20 6:0.45 7:0 8:2 9:4 10:0.25 11:0.1 12:0.3 13:15 14:1 15:0.4494 16:0.2697 17:0.236 18:0.2135 19:0.2809 20:0.2558 21:1.57 22:0.125 23:0.3061 24:13 
-0.1363940845556043 1:4 2:7 3:-1 4:0 5:25 6:0.375 7:0 8:2 9:5 10:0.3333 11:0.2083 12:0.2917 13:19 14:2 15:0.419 16:0.2952 17:0.219 18:0.2 19:0.2857 20:0.2353 21:1.25 22:-1 23:0.2727 24:5 
-0.01053318354245254 1:4 2:7 3:1 4:1 5:23 6:0.4348 7:0 8:2 9:4 10:0.2174 11:0.087 12:0.3478 13:18 14:1 15:0.4494 16:0.2697 17:0.236 18:0.2135 19:0.2809 20:0.2558 21:1.43 22:0.125 23:0.3488 24:13 
-0.4525234165713287 1:2 2:6 3:-1 4:0 5:21 6:0.3333 7:0 8:6 9:2 10:0.1429 11:0.0952 12:0.5238 13:14 14:3 15:0.3455 16:0.3364 17:0.2091 18:0.1364 19:0.3182 20:0.3269 21:0 22:-1 23:0.3731 24:2 
-0.550109481306942 1:4 2:3 3:3 4:4 5:20 6:0.5 7:1 8:2 9:2 10:0.3 11:0.5 12:0.2 13:16 14:4 15:0.4 16:0.2571 17:0.1571 18:0.2429 19:0.3429 20:0.1818 21:1.5 22:0.2195 23:0.1852 24:24 
-0.06821042352189584 1:3 2:3 3:-1 4:0 5:25 6:0.4167 7:0 8:3 9:5 10:0.2917 11:0.25 12:0.2917 13:17 14:4 15:0.3964 16:0.2613 17:0.1802 18:0.2162 19:0.3423 20:0.1963 21:0.5 22:-1 23:0.1333 24:2 
-0.1340683302590901 1:2 2:2 3:3 4:4 5:23 6:0.5217 7:2 8:2 9:3 10:0.3043 11:0.4783 12:0.1739 13:18 14:2 15:0.3889 16:0.2639 17:0.1528 18:0.2361 19:0.3472 20:0.1765 21:1.4 22:0.2308 23:0.1304 24:23 
-0.0676079740107416 1:3 2:3 3:-1 4:0 5:24 6:0.4348 7:0 8:3 9:5 10:0.3043 11:0.2609 12:0.2609 13:16 14:2 15:0.3925 16:0.2617 17:0.1776 18:0.215 19:0.3458 20:0.2039 21:0.86 22:0 23:0.1379 24:4 
-0.09378106433241332 1:4 2:-1 3:3 4:5 5:23 6:0.381 7:2 8:3 9:3 10:0.2381 11:0 12:0.381 13:17 14:4 15:0.3971 16:0.2647 17:0.1618 18:0.2353 19:0.3382 20:0.1562 21:2 22:0.2558 23:0 24:25 
-0.4369004059647146 1:4 2:3 3:3 4:1 5:22 6:0.3182 7:1 8:2 9:3 10:0.2727 11:0.1364 12:0.4091 13:17 14:4 15:0.3387 16:0.2903 17:0.1613 18:0.1774 19:0.371 20:0.2281 21:0.44 22:0.1724 23:0.3333 24:18 
-1 1:4 2:3 3:3 4:1 5:23 6:0.3478 7:2 8:2 9:3 10:0.3043 11:0.2609 12:0.3478 13:18 14:2 15:0.3636 16:0.2727 17:0.1667 18:0.197 19:0.3636 20:0.2131 21:1.2 22:0.2 23:0.2941 24:16 
-0.5353987714521631 1:4 2:2 3:3 4:2 5:22 6:0.3182 7:1 8:2 9:4 10:0.2727 11:0.1364 12:0.4091 13:17 14:4 15:0.3333 16:0.3 17:0.1667 18:0.1667 19:0.3667 20:0.2 21:1 22:0.2258 23:0.2857 24:19 
-1 1:4 2:3 3:3 4:2 5:21 6:0.3333 7:1 8:2 9:3 10:0.2857 11:0.1429 12:0.381 13:17 14:4 15:0.3333 16:0.3 17:0.1667 18:0.1667 19:0.3667 20:0.2 21:0.78 22:0.2258 23:0.3333 24:19 
-0.03628370634359936 1:1 2:-1 3:2 4:2 5:20 6:0.2 7:2 8:1 9:4 10:0.4 11:0.1 12:0.4 13:16 14:-1 15:0.2195 16:0.3415 17:0.0976 18:0.122 19:0.439 20:0.1351 21:0.86 22:0.1628 23:-1 24:29 
-0.1302229041096885 1:4 2:1 3:-1 4:0 5:23 6:0.6364 7:4 8:5 9:3 10:0.1364 11:0.4091 12:0.2273 13:14 14:4 15:0.3871 16:0.2366 17:0.1613 18:0.2258 19:0.3763 20:0.236 21:5 22:-1 23:0.1111 24:2 
-0.01753612484299306 1:1 2:-1 3:2 4:2 5:24 6:0.2609 7:3 8:1 9:3 10:0.3478 11:0.1739 12:0.3913 13:21 14:1 15:0.2745 16:0.3137 17:0.1176 18:0.1569 19:0.4118 20:0.1064 21:0.8 22:0.2121 23:-1 24:24 
-0.01353539155090918 1:1 2:-1 3:2 4:2 5:22 6:0.2381 7:2 8:1 9:3 10:0.381 11:0.1429 12:0.381 13:19 14:2 15:0.234 16:0.3404 17:0.1064 18:0.1277 19:0.4255 20:0.1163 21:0.89 22:0.1892 23:-1 24:26 
-0.08618752816365621 1:1 2:-1 3:2 4:2 5:21 6:0.2857 7:2 8:1 9:3 10:0.3333 11:0.1429 12:0.381 13:18 14:1 15:0.234 16:0.3404 17:0.1064 18:0.1277 19:0.4255 20:0.1163 21:1.12 22:0.1892 23:0 24:26 
-0.621822748683202 1:4 2:1 3:-1 4:0 5:25 6:0.4167 7:4 8:5 9:3 10:0.1667 11:0.2083 12:0.4167 13:16 14:3 15:0.3871 16:0.2366 17:0.1613 18:0.2258 19:0.3763 20:0.236 21:0 22:-1 23:0.122 24:2 
-0.8320604940654766 1:4 2:4 3:1 4:1 5:20 6:0.3 7:1 8:2 9:2 10:0.25 11:0.1 12:0.45 13:17 14:3 15:0.3421 16:0.2763 17:0.1842 18:0.1579 19:0.3816 20:0.2778 21:0.44 22:0.0833 23:0.4375 24:14 
-0.6705441245857154 1:1 2:3 3:-1 4:0 5:21 6:0.381 7:3 8:1 9:2 10:0.381 11:0.2381 12:0.2381 13:19 14:3 15:0.3137 16:0.2647 17:0.1176 18:0.1961 19:0.4216 20:0.1224 21:0.6 22:0 23:0.1579 24:4 
-0.3147078320795645 1:4 2:3 3:1 4:2 5:20 6:0.4 7:4 8:1 9:2 10:0.2 11:0.25 12:0.4 13:18 14:1 15:0.338 16:0.2394 17:0.1127 18:0.2254 19:0.4225 20:0.1343 21:1.43 22:0.0909 23:0.1852 24:20 
-0.282827340464723 1:3 2:3 3:-1 4:0 5:20 6:0.4 7:2 8:1 9:2 10:0.35 11:0.25 12:0.25 13:18 14:4 15:0.3269 16:0.2596 17:0.125 18:0.2019 19:0.4135 20:0.12 21:0.64 22:-1 23:0.1475 24:2 
-0.005627404869048953 1:4 2:-1 3:1 4:2 5:33 6:0.3333 7:3 8:4 9:4 10:0.375 11:0.2083 12:0.2917 13:23 14:4 15:0.2676 16:0.2958 17:0.1127 18:0.1549 19:0.4366 20:0.1692 21:1 22:0.0857 23:0 24:21 
-1 1:4 2:4 3:-1 4:0 5:21 6:0.4286 7:2 8:1 9:3 10:0.2857 11:0.2381 12:0.2857 13:18 14:3 15:0.26 16:0.3 17:0.11 18:0.15 19:0.44 20:0.1489 21:0.75 22:0 23:0.1698 24:6 
-0.4887554553019731 1:1 2:4 3:-1 4:0 5:21 6:0.4286 7:1 8:2 9:4 10:0.2857 11:0.3333 12:0.2857 13:16 14:4 15:0.3814 16:0.2577 17:0.2062 18:0.1753 19:0.3608 20:0.2289 21:0.5 22:-1 23:0.2195 24:5 
-0.006735581460712006 1:2 2:4 3:-1 4:0 5:21 6:0.6667 7:0 8:2 9:4 10:0.1429 11:0.2381 12:0.1905 13:15 14:3 15:0.4815 16:0.2315 17:0.25 18:0.2315 19:0.287 20:0.2381 21:1.25 22:-1 23:0.2308 24:1 
-0.004710145776132991 1:4 2:-1 3:5 4:3 5:29 6:0.4545 7:1 8:8 9:4 10:0.1818 11:0.1818 12:0.3636 13:16 14:-1 15:0.5 16:0.2708 17:0.2917 18:0.2083 19:0.2292 20:0.2889 21:0.73 22:0.234 23:-1 24:29 
-0.09821621355641783 1:1 2:3 3:2 4:2 5:29 6:0.5 7:1 8:8 9:2 10:0.4167 11:0.2083 12:0.0833 13:16 14:1 15:0.4493 16:0.2754 17:0.2609 18:0.1884 19:0.2754 20:0.2727 21:0.9 22:0.2308 23:0.3043 24:16 
-0.0338239643857558 1:3 2:1 3:4 4:3 5:29 6:0.4286 7:1 8:8 9:4 10:0.1429 11:0.1905 12:0.4286 13:16 14:-1 15:0.4706 16:0.2745 17:0.2745 18:0.1961 19:0.2549 20:0.2917 21:1 22:0.2273 23:0.5 24:27 
-0.06712915236354948 1:4 2:3 3:2 4:2 5:29 6:0.4286 7:1 8:8 9:3 10:0.1429 11:0.1905 12:0.4286 13:15 14:1 15:0.4603 16:0.2698 17:0.2698 18:0.1905 19:0.2698 20:0.3 21:0.6 22:0.1875 23:0.2941 24:19 
-0.006549587986401144 1:4 2:1 3:3 4:3 5:29 6:0.381 7:1 8:8 9:4 10:0.1429 11:0.1429 12:0.4762 13:15 14:2 15:0.4615 16:0.2692 17:0.2692 18:0.1923 19:0.2692 20:0.3061 21:1 22:0.2093 23:0.3333 24:26 
-0.02558285658782803 1:4 2:5 3:1 4:1 5:22 6:0.4091 7:1 8:2 9:4 10:0.2727 11:0.2727 12:0.3182 13:16 14:4 15:0.359 16:0.2564 17:0.1795 18:0.1795 19:0.3846 20:0.2778 21:1.2 22:0.0303 23:0.3103 24:21 
-0.381957584658434 1:4 2:5 3:2 4:2 5:22 6:0.3182 7:1 8:2 9:3 10:0.3182 11:0.1818 12:0.3636 13:18 14:1 15:0.3472 16:0.25 17:0.1806 18:0.1667 19:0.4028 20:0.2424 21:0.6 22:0.1282 23:0.3913 24:24 
-0.2607063053339742 1:3 2:5 3:-1 4:0 5:21 6:0.4286 7:2 8:2 9:3 10:0.2857 11:0.2381 12:0.2857 13:17 14:1 15:0.3739 16:0.2609 17:0.1826 18:0.1913 19:0.3652 20:0.2294 21:0.5 22:-1 23:0.2647 24:2 
-0.2951990755676516 1:4 2:5 3:2 4:2 5:23 6:0.4091 7:2 8:2 9:3 10:0.3182 11:0.2273 12:0.2727 13:19 14:4 15:0.3472 16:0.25 17:0.1806 18:0.1667 19:0.4028 20:0.2424 21:1.25 22:0.1282 23:0.4286 24:24 
-0.09495106459782339 1:3 2:3 3:1 4:1 5:22 6:0.5 7:3 8:2 9:3 10:0.2727 11:0.2727 12:0.2273 13:18 14:4 15:0.4167 16:0.1806 17:0.1806 18:0.2361 19:0.4028 20:0.25 21:2 22:0.0833 23:0.5 24:14 
-0.1309502786879677 1:4 2:3 3:-1 4:0 5:23 6:0.4783 7:3 8:2 9:4 10:0.1304 11:0.2609 12:0.3913 13:18 14:2 15:0.4125 16:0.175 17:0.175 18:0.2375 19:0.4125 20:0.25 21:1 22:0 23:0.3333 24:10 
-0.3570726407492145 1:3 2:3 3:-1 4:0 5:21 6:0.4762 7:2 8:2 9:3 10:0.2857 11:0.2857 12:0.2381 13:17 14:2 15:0.4024 16:0.1829 17:0.1707 18:0.2317 19:0.4146 20:0.2424 21:1.14 22:0 23:0.3333 24:9 
-1 1:4 2:3 3:1 4:1 5:21 6:0.5714 7:2 8:2 9:3 10:0.1429 11:0.3333 12:0.2857 13:17 14:3 15:0.4167 16:0.1806 17:0.1806 18:0.2361 19:0.4028 20:0.25 21:0.5 22:0.0833 23:0.4286 24:14 
-1 1:4 2:3 3:1 4:1 5:22 6:0.5455 7:3 8:2 9:3 10:0.1364 11:0.3182 12:0.3182 13:18 14:4 15:0.4167 16:0.1806 17:0.1806 18:0.2361 19:0.4028 20:0.25 21:0.5 22:0.0833 23:0.5 24:14 
-0.05443091141803816 1:4 2:-1 3:3 4:3 5:24 6:0.4167 7:1 8:4 9:3 10:0.2917 11:0.1667 12:0.2917 13:15 14:1 15:0.4468 16:0.2766 17:0.2128 18:0.234 19:0.2766 20:0.2105 21:0 22:0.1915 23:-1 24:26 
-0.05948684502845125 1:4 2:1 3:3 4:2 5:24 6:0.5455 7:1 8:3 9:3 10:0.1818 11:0.2727 12:0.2727 13:18 14:1 15:0.4386 16:0.2982 17:0.2105 18:0.2281 19:0.2632 20:0.2083 21:1.43 22:0.1892 23:0.5 24:21 
-1 1:4 2:2 3:3 4:1 5:22 6:0.4762 7:0 8:3 9:3 10:0.2381 11:0.1905 12:0.2857 13:17 14:1 15:0.4355 16:0.3065 17:0.2097 18:0.2258 19:0.2581 20:0.2075 21:0.7 22:0.1875 23:0.3846 24:18 
-0.1848942755061588 1:1 2:3 3:-1 4:0 5:23 6:0.5 7:2 8:3 9:2 10:0.2727 11:0.2273 12:0.2273 13:19 14:4 15:0.4574 16:0.2766 17:0.2234 18:0.234 19:0.266 20:0.2 21:1.11 22:-1 23:0.2857 24:2 
-0.07961430168462881 1:3 2:3 3:-1 4:0 5:22 6:0.5 7:2 8:3 9:2 10:0.2273 11:0.2727 12:0.2727 13:18 14:1 15:0.4674 16:0.2717 17:0.2283 18:0.2391 19:0.2609 20:0.2048 21:0.9 22:0 23:0.2857 24:3 
-0.1901585037307512 1:1 2:5 3:-1 4:0 5:21 6:0.4762 7:2 8:3 9:3 10:0.381 11:0.2381 12:0.1429 13:16 14:3 15:0.4151 16:0.2453 17:0.217 18:0.1981 19:0.3396 20:0.2673 21:1 22:0 23:0.3226 24:3 
-0.02827453805287072 1:4 2:5 3:3 4:2 5:21 6:0.45 7:0 8:2 9:4 10:0.25 11:0.2 12:0.3 13:16 14:1 15:0.3836 16:0.2329 17:0.2055 18:0.1781 19:0.3836 20:0.2941 21:1 22:0.2 23:0.4483 24:20 
-0.8018971501567884 1:1 2:5 3:1 4:1 5:20 6:0.5 7:2 8:3 9:2 10:0.35 11:0.25 12:0.15 13:16 14:3 15:0.419 16:0.2381 17:0.219 18:0.2 19:0.3429 20:0.26 21:1.43 22:0.3333 23:0.3226 24:4 
-0.3174768148828874 1:1 2:5 3:1 4:1 5:22 6:0.5 7:2 8:3 9:2 10:0.2727 11:0.2273 12:0.2273 13:17 14:1 15:0.4272 16:0.233 17:0.2233 18:0.2039 19:0.3398 20:0.2653 21:2 22:0.2 23:0.3214 24:5 
-0.1102526168440013 1:4 2:5 3:3 4:2 5:23 6:0.4091 7:0 8:2 9:4 10:0.2273 11:0.1818 12:0.3636 13:17 14:3 15:0.3733 16:0.24 17:0.2 18:0.1733 19:0.3867 20:0.2857 21:0.44 22:0.2121 23:0.4074 24:19 
-0.1222056149535904 1:4 2:2 3:1 4:3 5:24 6:0.5417 7:0 8:2 9:5 10:0.1667 11:0.3333 12:0.2917 13:17 14:2 15:0.411 16:0.2466 17:0.2055 18:0.2055 19:0.3425 20:0.2571 21:0.62 22:0.1515 23:0.28 24:23 
-0.1247087285911124 1:3 2:3 3:1 4:3 5:21 6:0.5714 7:0 8:2 9:4 10:0.1905 11:0.3333 12:0.2381 13:16 14:2 15:0.3944 16:0.2535 17:0.1972 18:0.1972 19:0.3521 20:0.2647 21:0.71 22:0.1429 23:0.3793 24:24 
-0.6069767060278032 1:4 2:3 3:1 4:2 5:23 6:0.4783 7:1 8:1 9:4 10:0.2609 11:0.2609 12:0.2609 13:19 14:1 15:0.3976 16:0.2651 17:0.1928 18:0.2048 19:0.3373 20:0.25 21:0.78 22:0.1304 23:0.4054 24:18 
-0.9990454221969749 1:3 2:3 3:1 4:2 5:21 6:0.5238 7:0 8:1 9:4 10:0.2857 11:0.2857 12:0.1905 13:17 14:3 15:0.3951 16:0.2716 17:0.1975 18:0.1975 19:0.3333 20:0.2564 21:0.71 22:0.12 23:0.3846 24:19 
-0.1281616548702389 1:4 2:1 3:2 4:2 5:21 6:0.3333 7:1 8:3 9:2 10:0.381 11:0.1905 12:0.2857 13:17 14:4 15:0.3167 16:0.3333 17:0.1333 18:0.1833 19:0.35 20:0.1786 21:0.88 22:0.2143 23:0.1429 24:23 
-0.1990496786639108 1:4 2:-1 3:9 4:1 5:23 6:0.4091 7:0 8:2 9:2 10:0.2727 11:0.2727 12:0.3182 13:20 14:4 15:0.3538 16:0.2923 17:0.1692 18:0.1846 19:0.3538 20:0.0492 21:0.36 22:0.36 23:0 24:21 
-0.04316500961266359 1:4 2:-1 3:5 4:1 5:25 6:0.3333 7:0 8:6 9:2 10:0.2917 11:0.2917 12:0.375 13:18 14:3 15:0.3478 16:0.2899 17:0.1594 18:0.1884 19:0.3623 20:0.1077 21:0 22:0.2381 23:0 24:17 
-0.003586516397194526 1:4 2:1 3:-1 4:0 5:24 6:0.1667 7:0 8:11 9:2 10:0.4583 11:0.125 12:0.375 13:10 14:1 15:0.3118 16:0.3118 17:0.1398 18:0.172 19:0.3763 20:0.1685 21:0.5 22:-1 23:0.0182 24:1 
-0.01482584014528686 1:3 2:1 3:-1 4:0 5:21 6:0.1905 7:0 8:11 9:1 10:0.3333 11:0.1905 12:0.4762 13:10 14:2 15:0.3378 16:0.2838 17:0.1486 18:0.1892 19:0.3784 20:0.1714 21:0 22:0 23:0.0256 24:12 
-0.02290974997763162 1:1 2:-1 3:7 4:1 5:25 6:0.375 7:0 8:4 9:2 10:0.2917 11:0.25 12:0.3333 13:20 14:4 15:0.3433 16:0.2985 17:0.1642 18:0.1791 19:0.3582 20:0.0794 21:0 22:0.3043 23:0 24:19 
-0.02935983760645625 1:4 2:-1 3:-1 4:0 5:35 6:0.2917 7:0 8:11 9:2 10:0.3333 11:0.0417 12:0.375 13:23 14:3 15:0.3222 16:0.3 17:0.1444 18:0.1778 19:0.3778 20:0.1395 21:0.78 22:-1 23:0 24:1 
-0.01663292884958855 1:1 2:1 3:-1 4:0 5:21 6:0.1905 7:0 8:11 9:1 10:0.4286 11:0.1905 12:0.381 13:10 14:4 15:0.314 16:0.3023 17:0.1395 18:0.1744 19:0.3837 20:0.1463 21:0.89 22:0 23:0.0196 24:6 
-0.01029922473395214 1:1 2:-1 3:-1 4:0 5:34 6:0.3182 7:0 8:11 9:2 10:0.3182 11:0.0455 12:0.3636 13:22 14:4 15:0.3295 16:0.2955 17:0.1477 18:0.1818 19:0.375 20:0.1429 21:0.78 22:0 23:0 24:5 
-0.2322427216751038 1:4 2:-1 3:8 4:1 5:21 6:0.3 7:0 8:3 9:2 10:0.3 11:0.3 12:0.4 13:17 14:3 15:0.3485 16:0.2879 17:0.1667 18:0.1818 19:0.3636 20:0.0645 21:0.22 22:0.3333 23:0 24:20 
-0.02042159347981876 1:3 2:-1 3:-1 4:0 5:35 6:0.375 7:0 8:11 9:2 10:0.2917 11:0.0833 12:0.3333 13:23 14:1 15:0.3293 16:0.2927 17:0.1463 18:0.1829 19:0.378 20:0.1538 21:1.22 22:0 23:0 24:8 
-0.05197100240503776 1:4 2:1 3:-1 4:0 5:21 6:0.3333 7:2 8:2 9:2 10:0.2381 11:0.1905 12:0.4286 13:18 14:2 15:0.2921 16:0.382 17:0.1685 18:0.1236 19:0.3258 20:0.1429 21:1 22:0 23:0.1818 24:16 
-0.564569036605739 1:4 2:1 3:-1 4:0 5:22 6:0.2273 7:2 8:2 9:2 10:0.3636 11:0.0455 12:0.4091 13:19 14:3 15:0.2963 16:0.3827 17:0.1728 18:0.1235 19:0.321 20:0.1579 21:0.89 22:0 23:0.2353 24:20 
-0.1577069489135108 1:4 2:1 3:-1 4:0 5:21 6:0.3333 7:2 8:2 9:2 10:0.1429 11:0.1429 12:0.5238 13:18 14:2 15:0.2887 16:0.3814 17:0.1649 18:0.1237 19:0.3299 20:0.1304 21:2.25 22:0 23:0.1538 24:12 
-0.2198303065401378 1:4 2:8 3:5 4:1 5:23 6:0.4348 7:0 8:3 9:3 10:0.3043 11:0.3478 12:0.2609 13:15 14:4 15:0.427 16:0.3258 17:0.2022 18:0.2247 19:0.2472 20:0.4217 21:0.56 22:0.3333 23:0.5135 24:13 
-0.01185392646634011 1:2 2:-1 3:5 4:3 5:26 6:0.5 7:0 8:10 9:3 10:0.2083 11:0.1667 12:0.2917 13:13 14:1 15:0.4364 16:0.3455 17:0.1818 18:0.2545 19:0.2182 20:0.4694 21:1.11 22:0.3448 23:-1 24:32 
-0.434688141069781 1:1 2:1 3:-1 4:0 5:27 6:0.375 7:1 8:4 9:4 10:0.2917 11:0.375 12:0.3333 13:17 14:4 15:0.3465 16:0.3267 17:0.1782 18:0.1683 19:0.3267 20:0.2289 21:0.4 22:0 23:0.1429 24:5 
-0.07019579666219376 1:4 2:-1 3:3 4:5 5:21 6:0.3333 7:1 8:3 9:3 10:0.0952 11:0.0476 12:0.5714 13:15 14:1 15:0.3478 16:0.2609 17:0.1522 18:0.1957 19:0.3913 20:0.2 21:2 22:0.3571 23:0 24:33 
-0.01685525715560232 1:1 2:3 3:-1 4:0 5:21 6:0.2857 7:1 8:2 9:4 10:0.5238 11:0.1905 12:0.1905 13:16 14:4 15:0.3761 16:0.2564 17:0.1709 18:0.2051 19:0.3675 20:0.2661 21:1 22:-1 23:0.2941 24:2 
-0.6916108946498215 1:3 2:3 3:1 4:1 5:24 6:0.5 7:2 8:2 9:3 10:0.375 11:0.3333 12:0.125 13:19 14:4 15:0.4135 16:0.2404 17:0.1923 18:0.2212 19:0.3462 20:0.2708 21:0.45 22:0.1667 23:0.3333 24:9 
-1 1:3 2:3 3:1 4:1 5:21 6:0.4286 7:2 8:2 9:2 10:0.4286 11:0.2857 12:0.1429 13:18 14:4 15:0.4135 16:0.2404 17:0.1923 18:0.2212 19:0.3462 20:0.2708 21:0.73 22:0.1667 23:0.3704 24:9 
-0.4735039402641586 1:1 2:4 3:-1 4:0 5:20 6:0.35 7:1 8:2 9:2 10:0.2 11:0.15 12:0.45 13:17 14:4 15:0.4 16:0.22 17:0.16 18:0.24 19:0.38 20:0.2292 21:0.9 22:0 23:0.2857 24:7 
-1 1:3 2:4 3:-1 4:0 5:22 6:0.4286 7:1 8:2 9:3 10:0.381 11:0.2857 12:0.1905 13:18 14:1 15:0.4 16:0.22 17:0.16 18:0.24 19:0.38 20:0.2292 21:1 22:0 23:0.283 24:7 
-0.1193584159670864 1:4 2:-1 3:3 4:3 5:24 6:0.2917 7:0 8:3 9:4 10:0.25 11:0.0833 12:0.4583 13:17 14:1 15:0.3774 16:0.3208 17:0.2642 18:0.1132 19:0.3019 20:0.2653 21:0.71 22:0.2174 23:0 24:33 
-0.9551993475293777 1:4 2:1 3:3 4:1 5:22 6:0.3182 7:1 8:-1 9:0 10:0.2727 11:0.2273 12:0.4091 13:22 14:2 15:0.3158 16:0.3053 17:0.1684 18:0.1474 19:0.3789 20:0.0465 21:1.12 22:0.4 23:0.1364 24:13 
-0.2374210447331521 1:2 2:1 3:-1 4:0 5:28 6:0.3478 7:0 8:5 9:2 10:0.3043 11:0.087 12:0.3478 13:20 14:4 15:0.3393 16:0.3036 17:0.1786 18:0.1607 19:0.3571 20:0.1456 21:2 22:-1 23:0.1111 24:2 
-0.008809906617791307 1:2 2:1 3:-1 4:0 5:29 6:0.375 7:0 8:6 9:2 10:0.2917 11:0.125 12:0.3333 13:20 14:4 15:0.3421 16:0.2982 17:0.1754 18:0.1667 19:0.3596 20:0.1619 21:3.33 22:-1 23:0.1111 24:1 
-0.6052776666841175 1:2 2:1 3:1 4:1 5:21 6:0.3333 7:0 8:2 9:1 10:0.3333 11:0.1905 12:0.3333 13:19 14:1 15:0.3196 16:0.3093 17:0.1753 18:0.1443 19:0.3711 20:0.0682 21:0.5 22:0.25 23:0.12 24:11 
-0.6482241834816888 1:2 2:1 3:3 4:1 5:23 6:0.3478 7:1 8:1 9:1 10:0.3043 11:0.087 12:0.3478 13:22 14:4 15:0.3377 16:0.2857 17:0.1818 18:0.1558 19:0.3766 20:0.0588 21:1 22:0.1429 23:0.1667 24:22 
-0.1897160742685607 1:2 2:1 3:3 4:1 5:21 6:0.3333 7:1 8:1 9:1 10:0.3333 11:0.0952 12:0.3333 13:20 14:1 15:0.3467 16:0.28 17:0.1867 18:0.16 19:0.3733 20:0.0606 21:1 22:0.1333 23:0.1538 24:23 
-0.9014718514834058 1:4 2:1 3:3 4:1 5:21 6:0.35 7:1 8:1 9:1 10:0.3 11:0.3 12:0.35 13:20 14:4 15:0.3218 16:0.2989 17:0.1724 18:0.1494 19:0.3793 20:0.0513 21:1.29 22:0.2222 23:0.1053 24:17 
-1 1:4 2:1 3:3 4:1 5:22 6:0.2857 7:1 8:1 9:1 10:0.381 11:0.0476 12:0.3333 13:21 14:1 15:0.3146 16:0.3034 17:0.1685 18:0.1461 19:0.382 20:0.05 21:0.88 22:0.25 23:0.1053 24:16 
-0.09630123701040018 1:4 2:1 3:-1 4:0 5:23 6:0.3478 7:1 8:1 9:2 10:0.087 11:0.3478 12:0.5652 13:21 14:2 15:0.3421 16:0.3421 17:0.1711 18:0.1711 19:0.3158 20:0.0833 21:1.17 22:-1 23:0.0769 24:2 
-0.4270102295345989 1:4 2:1 3:-1 4:0 5:20 6:0.35 7:1 8:1 9:1 10:0.05 11:0.35 12:0.6 13:19 14:1 15:0.3421 16:0.3421 17:0.1711 18:0.1711 19:0.3158 20:0.0833 21:0.78 22:-1 23:0.125 24:2 
-0.05805120190262438 1:4 2:-1 3:1 4:1 5:23 6:0.3333 7:0 8:1 9:3 10:0.25 11:0.2083 12:0.4167 13:20 14:4 15:0.2917 16:0.3958 17:0.1458 18:0.1458 19:0.3125 20:0.0909 21:1.14 22:0.0714 23:-1 24:16 
-0.1811062823926785 1:4 2:-1 3:1 4:1 5:20 6:0.2857 7:0 8:1 9:3 10:0.5238 11:0.0952 12:0.1905 13:17 14:1 15:0.3333 16:0.381 17:0.1667 18:0.1667 19:0.2857 20:0.1053 21:1 22:0.0588 23:-1 24:19 
-0.1343778011989196 1:4 2:-1 3:1 4:1 5:22 6:0.3636 7:0 8:1 9:2 10:0.1818 11:0.2273 12:0.4545 13:20 14:4 15:0.2917 16:0.3958 17:0.1458 18:0.1458 19:0.3125 20:0.0909 21:0.8 22:0.0714 23:-1 24:16 
-0.6425072262410322 1:4 2:1 3:-1 4:0 5:21 6:0.3333 7:1 8:1 9:2 10:0.0952 11:0.3333 12:0.5714 13:19 14:2 15:0.3333 16:0.3472 17:0.1667 18:0.1667 19:0.3194 20:0.0882 21:1.17 22:0 23:0.0769 24:4 
-0.06210293333890254 1:3 2:-1 3:4 4:5 5:23 6:0.2609 7:1 8:4 9:2 10:0.3913 11:0.087 12:0.3478 13:18 14:4 15:0.2553 16:0.4043 17:0.1064 18:0.1489 19:0.3404 20:0.0526 21:0 22:0.2188 23:-1 24:37 
-0.5852154797621768 1:1 2:1 3:-1 4:0 5:24 6:0.2917 7:1 8:4 9:4 10:0.4583 11:0.2083 12:0.25 13:17 14:4 15:0.2523 16:0.3832 17:0.1121 18:0.1402 19:0.3645 20:0.1633 21:1.2 22:0 23:0.1111 24:6 
-0.8793430334976211 1:4 2:1 3:4 4:2 5:20 6:0.25 7:1 8:1 9:3 10:0.5 11:0.2 12:0.25 13:17 14:4 15:0.2471 16:0.4 17:0.0941 18:0.1529 19:0.3529 20:0.1053 21:0.67 22:0.3077 23:0.1053 24:18 
-0.2212102204552343 1:1 2:1 3:4 4:2 5:20 6:0.2 7:1 8:1 9:3 10:0.5 11:0.15 12:0.3 13:17 14:2 15:0.2405 16:0.4051 17:0.0886 18:0.1519 19:0.3544 20:0.1143 21:1.33 22:0.25 23:0.125 24:21 
-0.672037973790507 1:4 2:1 3:4 4:1 5:20 6:0.2 7:1 8:1 9:3 10:0.25 11:0.1 12:0.55 13:17 14:3 15:0.2474 16:0.3918 17:0.1031 18:0.1443 19:0.3608 20:0.1136 21:0.89 22:0.4286 23:0.12 24:10 
-1 1:4 2:1 3:4 4:1 5:23 6:0.3043 7:2 8:1 9:3 10:0.4783 11:0.2174 12:0.2174 13:20 14:4 15:0.2474 16:0.3918 17:0.1031 18:0.1443 19:0.3608 20:0.1136 21:1.12 22:0.4286 23:0.1364 24:12 
-0.5591003599788797 1:2 2:1 3:4 4:2 5:24 6:0.25 7:1 8:1 9:3 10:0.5 11:0.1667 12:0.25 13:21 14:4 15:0.253 16:0.3976 17:0.0964 18:0.1566 19:0.3494 20:0.1081 21:1 22:0.2857 23:0.1429 24:19 
-0.548376622036654 1:3 2:-1 3:3 4:2 5:23 6:0.5 7:1 8:2 9:3 10:0.25 11:0.35 12:0.25 13:18 14:1 15:0.4407 16:0.3051 17:0.2373 18:0.2034 19:0.2542 20:0.1489 21:0.89 22:0.2083 23:0 24:30 
-0.5168527183498914 1:3 2:2 3:1 4:1 5:20 6:0.55 7:1 8:2 9:2 10:0.3 11:0.4 12:0.15 13:16 14:4 15:0.4409 16:0.2903 17:0.2258 18:0.2151 19:0.2688 20:0.1852 21:0.5 22:0.1429 23:0.1707 24:13 
-1 1:1 2:4 3:1 4:1 5:22 6:0.3182 7:2 8:3 9:1 10:0.2273 11:0.0455 12:0.4545 13:19 14:1 15:0.3636 16:0.3068 17:0.1932 18:0.1705 19:0.3295 20:0.1807 21:0.33 22:0.2 23:0.3182 24:9 
-0.8767216210178707 1:4 2:4 3:1 4:1 5:21 6:0.3333 7:2 8:4 9:1 10:0.2381 11:0.0476 12:0.4286 13:17 14:1 15:0.3659 16:0.3049 17:0.1951 18:0.1707 19:0.3293 20:0.1948 21:0.22 22:0.125 23:0.3171 24:12 
-0.4316721349355614 1:4 2:3 3:-1 4:0 5:23 6:0.3478 7:1 8:3 9:2 10:0.2609 11:0.087 12:0.3913 13:18 14:1 15:0.4299 16:0.2991 17:0.2243 18:0.2056 19:0.271 20:0.2211 21:0.8 22:-1 23:0.2245 24:2 
-0.1393310988759866 1:1 2:5 3:-1 4:0 5:23 6:0.4091 7:2 8:2 9:2 10:0.4091 11:0.2727 12:0.1818 13:20 14:4 15:0.3458 16:0.2897 17:0.1402 18:0.2056 19:0.3645 20:0.165 21:0.64 22:-1 23:0.2069 24:4 
-1 1:2 2:5 3:-1 4:0 5:20 6:0.45 7:2 8:1 9:2 10:0.3 11:0.3 12:0.25 13:18 14:4 15:0.35 16:0.28 17:0.14 18:0.21 19:0.37 20:0.1458 21:1.25 22:0 23:0.1786 24:8 
-0.2495053772941691 1:4 2:5 3:-1 4:0 5:23 6:0.3043 7:2 8:1 9:2 10:0.2174 11:0.1304 12:0.4783 13:21 14:1 15:0.3365 16:0.2885 17:0.1346 18:0.2019 19:0.375 20:0.14 21:0.78 22:-1 23:0.1852 24:6 
-1 1:4 2:5 3:-1 4:0 5:20 6:0.3 7:2 8:1 9:1 10:0.25 11:0.15 12:0.45 13:19 14:1 15:0.3365 16:0.2885 17:0.1346 18:0.2019 19:0.375 20:0.14 21:1.11 22:-1 23:0.2 24:6 
-0.1236171922981286 1:4 2:5 3:-1 4:0 5:21 6:0.3333 7:2 8:1 9:2 10:0.2381 11:0.1429 12:0.4286 13:19 14:1 15:0.3429 16:0.2857 17:0.1429 18:0.2 19:0.3714 20:0.1485 21:1.43 22:-1 23:0.2 24:5 
-1 1:1 2:5 3:-1 4:0 5:20 6:0.45 7:2 8:1 9:1 10:0.35 11:0.3 12:0.2 13:19 14:4 15:0.3431 16:0.2843 17:0.1373 18:0.2059 19:0.3725 20:0.1429 21:0.82 22:0 23:0.2069 24:7 
-0.1348022217512049 1:1 2:6 3:1 4:2 5:21 6:0.3333 7:3 8:2 9:2 10:0.1905 11:0.0952 12:0.4762 13:18 14:1 15:0.3443 16:0.2459 17:0.1311 18:0.2131 19:0.4098 20:0.2982 21:1.2 22:0.0952 23:0.7333 24:30 
-0.2794854902405672 1:4 2:7 3:-1 4:0 5:21 6:0.4762 7:4 8:1 9:2 10:0.2381 11:0.1905 12:0.2857 13:19 14:4 15:0.3663 16:0.2574 17:0.1584 18:0.2079 19:0.3762 20:0.2165 21:1.12 22:0 23:0.3091 24:10 
-0.9014919576003199 1:2 2:14 3:-1 4:0 5:21 6:0.2381 7:0 8:1 9:1 10:0.3333 11:0.0952 12:0.4286 13:20 14:2 15:0.2788 16:0.4038 17:0.125 18:0.1538 19:0.3173 20:0.18 21:0.78 22:-1 23:0.2759 24:1 
-0.571557854256041 1:4 2:14 3:-1 4:0 5:20 6:0.2 7:0 8:1 9:1 10:0.5 11:0.1 12:0.3 13:19 14:1 15:0.2788 16:0.4038 17:0.125 18:0.1538 19:0.3173 20:0.18 21:1.29 22:-1 23:0.2667 24:1 
-0.3036768720381327 1:2 2:14 3:-1 4:0 5:20 6:0.25 7:0 8:1 9:1 10:0.3 11:0.1 12:0.45 13:19 14:4 15:0.2788 16:0.4038 17:0.125 18:0.1538 19:0.3173 20:0.18 21:0.78 22:-1 23:0.2667 24:1 
-0.4013478890030592 1:1 2:14 3:-1 4:0 5:21 6:0.2381 7:0 8:-1 9:0 10:0.381 11:0.0952 12:0.381 13:21 14:4 15:0.2821 16:0.4103 17:0.1154 18:0.1667 19:0.3077 20:0.2162 21:1.12 22:0 23:0.5 24:14 
-0.06995070545876381 1:4 2:14 3:-1 4:0 5:20 6:0.25 7:0 8:-1 9:0 10:0.35 11:0.15 12:0.4 13:20 14:1 15:0.2895 16:0.4079 17:0.1184 18:0.1711 19:0.3026 20:0.2222 21:1 22:0 23:0.5 24:15 
-0.2394964478058821 1:4 2:14 3:-1 4:0 5:22 6:0.2273 7:0 8:-1 9:0 10:0.3636 11:0.1364 12:0.4091 13:22 14:1 15:0.275 16:0.4125 17:0.1125 18:0.1625 19:0.3125 20:0.2105 21:0.89 22:0 23:0.5 24:13 
-0.6104642190573329 1:3 2:1 3:3 4:3 5:21 6:0.2857 7:1 8:-1 9:0 10:0.381 11:0.1905 12:0.3333 13:21 14:3 15:0.3019 16:0.3585 17:0.1509 18:0.1509 19:0.3396 20:0 21:1.12 22:0.3182 23:0.5 24:24 
-0.3551653133017464 1:4 2:1 3:3 4:3 5:21 6:0.2381 7:1 8:1 9:1 10:0.4286 11:0.0952 12:0.3333 13:20 14:2 15:0.2982 16:0.3684 17:0.1579 18:0.1404 19:0.3333 20:0.0417 21:1.5 22:0.3 23:0.25 24:22 
-0.1446726828948572 1:4 2:1 3:3 4:2 5:24 6:0.25 7:1 8:3 9:1 10:0.4167 11:0.125 12:0.3333 13:21 14:3 15:0.3175 16:0.3651 17:0.1746 18:0.1429 19:0.3175 20:0.1111 21:4.5 22:0.2353 23:0.25 24:19 
-1 1:4 2:5 3:-1 4:0 5:22 6:0.4091 7:1 8:1 9:2 10:0.1818 11:0.2273 12:0.4091 13:20 14:4 15:0.3069 16:0.3861 17:0.1386 18:0.1683 19:0.3069 20:0.1209 21:1.29 22:0 23:0.1489 24:8 
-1 1:4 2:5 3:1 4:1 5:20 6:0.4 7:1 8:1 9:2 10:0.4 11:0.15 12:0.2 13:18 14:3 15:0.2857 16:0.3956 17:0.1319 18:0.1538 19:0.3187 20:0.1111 21:1 22:0.1 23:0.1429 24:13 
-0.8262829176299616 1:4 2:5 3:1 4:1 5:23 6:0.4091 7:1 8:1 9:2 10:0.1364 11:0.2273 12:0.4545 13:21 14:4 15:0.303 16:0.3838 17:0.1414 18:0.1616 19:0.3131 20:0.1011 21:0.8 22:0.1667 23:0.1364 24:9 
-1 1:4 2:5 3:1 4:1 5:21 6:0.4 7:1 8:1 9:2 10:0.15 11:0.25 12:0.45 13:19 14:1 15:0.2947 16:0.3895 17:0.1368 18:0.1579 19:0.3158 20:0.1059 21:0.89 22:0.125 23:0.1364 24:11 
-1 1:3 2:5 3:1 4:1 5:21 6:0.45 7:2 8:1 9:2 10:0.15 11:0.3 12:0.4 13:19 14:2 15:0.2857 16:0.3956 17:0.1319 18:0.1538 19:0.3187 20:0.1111 21:1.29 22:0.1 23:0.15 24:13 
-0.6240111292972501 1:4 2:5 3:1 4:1 5:23 6:0.3913 7:2 8:1 9:2 10:0.3913 11:0.1304 12:0.2174 13:21 14:4 15:0.2857 16:0.3956 17:0.1319 18:0.1538 19:0.3187 20:0.1111 21:0.7 22:0.1 23:0.1667 24:13 
-1 1:4 2:5 3:1 4:2 5:22 6:0.3333 7:1 8:1 9:1 10:0.0952 11:0.2857 12:0.5714 13:21 14:3 15:0.253 16:0.4217 17:0.1084 18:0.1446 19:0.3253 20:0.0959 21:1 22:0.1429 23:0.2 24:17 
-1 1:4 2:5 3:1 4:1 5:22 6:0.381 7:1 8:1 9:2 10:0.1429 11:0.2381 12:0.4762 13:20 14:3 15:0.2887 16:0.3918 17:0.134 18:0.1546 19:0.3196 20:0.1034 21:0.89 22:0.1429 23:0.1364 24:10 
-1 1:4 2:5 3:1 4:1 5:21 6:0.4 7:1 8:1 9:2 10:0.15 11:0.25 12:0.45 13:19 14:4 15:0.2809 16:0.4045 17:0.1348 18:0.1461 19:0.3146 20:0.1139 21:1.12 22:0.0909 23:0.1579 24:14 
-1 1:3 2:5 3:1 4:1 5:21 6:0.45 7:1 8:1 9:2 10:0.1 11:0.3 12:0.45 13:19 14:4 15:0.2874 16:0.4023 17:0.1379 18:0.1494 19:0.3103 20:0.1169 21:1.25 22:0.0833 23:0.1667 24:15 
-1 1:3 2:5 3:1 4:1 5:22 6:0.4762 7:2 8:1 9:2 10:0.1429 11:0.3333 12:0.381 13:20 14:1 15:0.3011 16:0.3871 17:0.1398 18:0.1613 19:0.3118 20:0.1084 21:0.9 22:0.1111 23:0.15 24:12 
-0.9940974589663691 1:1 2:5 3:1 4:1 5:21 6:0.381 7:1 8:1 9:2 10:0.4286 11:0.1429 12:0.1905 13:19 14:3 15:0.2947 16:0.3895 17:0.1368 18:0.1579 19:0.3158 20:0.1059 21:1.5 22:0.125 23:0.1364 24:11 
-0.09790871888355951 1:4 2:-1 3:5 4:2 5:25 6:0.4583 7:1 8:2 9:5 10:0.375 11:0.375 12:0.1667 13:18 14:1 15:0.4828 16:0.2586 17:0.2586 18:0.2241 19:0.2586 20:0.2222 21:1 22:0.3043 23:0 24:25 
-0.1243322260144075 1:4 2:1 3:5 4:1 5:22 6:0.3636 7:0 8:2 9:4 10:0.3182 11:0.2727 12:0.3182 13:16 14:4 15:0.4359 16:0.2949 17:0.2436 18:0.1923 19:0.2692 20:0.2162 21:1.29 22:0.3846 23:0.1333 24:15 
-1 1:4 2:2 3:5 4:1 5:21 6:0.381 7:0 8:2 9:3 10:0.2857 11:0.2857 12:0.3333 13:16 14:2 15:0.4359 16:0.2949 17:0.2436 18:0.1923 19:0.2692 20:0.2162 21:1.29 22:0.3846 23:0.1875 24:15 
-0.102211854347523 1:4 2:1 3:5 4:2 5:21 6:0.4286 7:1 8:2 9:4 10:0.1905 11:0.0476 12:0.381 13:15 14:1 15:0.4667 16:0.2667 17:0.25 18:0.2167 19:0.2667 20:0.2143 21:0.86 22:0.3182 23:0.0667 24:24 
-0.3424323206576192 1:3 2:-1 3:-1 4:0 5:21 6:0.2857 7:0 8:5 9:1 10:0.4286 11:0.1905 12:0.2857 13:16 14:1 15:0.3421 16:0.3421 17:0.1711 18:0.1711 19:0.3158 20:0.1176 21:0 22:-1 23:0 24:1 
-0.4265461842745996 1:4 2:-1 3:-1 4:0 5:22 6:0.3636 7:0 8:-1 9:0 10:0.2727 11:0.1818 12:0.3636 13:22 14:4 15:0.3529 16:0.3382 17:0.1765 18:0.1765 19:0.3088 20:0 21:1.11 22:-1 23:0 24:4 
-0.5302079131084592 1:4 2:-1 3:-1 4:0 5:21 6:0.381 7:0 8:-1 9:0 10:0.3333 11:0.1905 12:0.2857 13:21 14:4 15:0.3529 16:0.3382 17:0.1765 18:0.1765 19:0.3088 20:0 21:0.82 22:-1 23:0 24:6 
-0.2166469127316182 1:4 2:1 3:2 4:1 5:28 6:0.2381 7:1 8:7 9:1 10:0.4762 11:0.1429 12:0.2857 13:21 14:3 15:0.2414 16:0.2931 17:0.1379 18:0.1034 19:0.4655 20:0.1321 21:0.9 22:0.1538 23:0.3333 24:15 
-0.4297368415935468 1:4 2:7 3:2 4:1 5:20 6:0.2 7:1 8:-1 9:0 10:0.25 11:0 12:0.55 13:20 14:2 15:0.2647 16:0.2941 17:0.1471 18:0.1176 19:0.4412 20:0.1111 21:0.8 22:0.25 23:0.36 24:10 
-0.1002635350632635 1:3 2:7 3:2 4:1 5:21 6:0.1905 7:1 8:-1 9:0 10:0.2857 11:0.0476 12:0.5238 13:21 14:1 15:0.25 16:0.2969 17:0.1406 18:0.1094 19:0.4531 20:0.1186 21:1 22:0.2 23:0.4737 24:12 
-0.09959333224207007 1:3 2:-1 3:2 4:1 5:29 6:0.2857 7:1 8:7 9:2 10:0.4762 11:0.1429 12:0.2381 13:20 14:4 15:0.2692 16:0.2692 17:0.1538 18:0.1154 19:0.4615 20:0.1489 21:1.8 22:0.125 23:-1 24:18 
-1 1:4 2:4 3:2 4:1 5:22 6:0.1818 7:1 8:3 9:1 10:0.2727 11:0.0455 12:0.5455 13:19 14:1 15:0.2414 16:0.2931 17:0.1379 18:0.1034 19:0.4655 20:0.1321 21:0.22 22:0.1538 23:0.4286 24:15 
-1 1:4 2:7 3:1 4:1 5:20 6:0.2 7:1 8:1 9:1 10:0.3 11:0 12:0.5 13:19 14:1 15:0.2714 16:0.3 17:0.1571 18:0.1143 19:0.4286 20:0.1385 21:1.29 22:0.1429 23:0.3333 24:9 
-0.0288847231839506 1:1 2:1 3:2 4:1 5:28 6:0.2857 7:1 8:7 9:1 10:0.4762 11:0.1429 12:0.2381 13:21 14:4 15:0.25 16:0.2857 17:0.1429 18:0.1071 19:0.4643 20:0.1373 21:0.9 22:0.1429 23:0.5 24:16 
-0.0007982546931492698 1:4 2:-1 3:1 4:2 5:20 6:0.5 7:1 8:3 9:4 10:0.3 11:0.2 12:0.2 13:12 14:3 15:0.5122 16:0.1951 17:0.2195 18:0.2927 19:0.2927 20:0.2941 21:1.29 22:0.12 23:-1 24:17 
-0.07653290580713557 1:4 2:-1 3:1 4:2 5:20 6:0.5 7:1 8:3 9:4 10:0.3 11:0.2 12:0.2 13:12 14:3 15:0.5122 16:0.1951 17:0.2195 18:0.2927 19:0.2927 20:0.2941 21:1.29 22:0.12 23:-1 24:17 
-0.02436836975906565 1:1 2:-1 3:1 4:1 5:22 6:0.3636 7:3 8:5 9:4 10:0.1818 11:0.1818 12:0.4545 13:12 14:1 15:0.3016 16:0.2857 17:0.1429 18:0.1587 19:0.4127 20:0.2982 21:1.75 22:0.1111 23:0 24:11 
-0.004398320655095682 1:2 2:-1 3:1 4:2 5:21 6:0.381 7:3 8:8 9:3 10:0.3333 11:0.0952 12:0.2857 13:10 14:1 15:0.4889 16:0.2444 17:0.2 18:0.2889 19:0.2667 20:0.4146 21:1 22:0.1429 23:0 24:14 
-0.3133749832838164 1:1 2:-1 3:-1 4:0 5:22 6:0.2727 7:0 8:1 9:1 10:0.3182 11:0.1364 12:0.4091 13:21 14:4 15:0.2549 16:0.3333 17:0.1569 18:0.098 19:0.4118 20:0.0233 21:1.5 22:0 23:-1 24:17 
-0.000821806103898608 1:4 2:-1 3:-1 4:0 5:21 6:0.1905 7:0 8:3 9:2 10:0.4286 11:0.0952 12:0.381 13:17 14:-1 15:0.2558 16:0.3256 17:0.1628 18:0.093 19:0.4186 20:0.0286 21:0.2 22:0 23:-1 24:21 
-0.7848695368205445 1:1 2:1 3:-1 4:0 5:20 6:0.25 7:0 8:-1 9:0 10:0.4 11:0.15 12:0.35 13:20 14:4 15:0.2632 16:0.3333 17:0.1579 18:0.1053 19:0.4035 20:0.0204 21:1 22:0 23:0.1111 24:14 
-0.02122395099468628 1:3 2:1 3:-1 4:0 5:22 6:0.2727 7:1 8:-1 9:0 10:0.3636 11:0.1364 12:0.3636 13:22 14:1 15:0.254 16:0.3333 17:0.1429 18:0.1111 19:0.4127 20:0.0182 21:1 22:0 23:0.0909 24:11 
-0.3976746473877368 1:1 2:1 3:-1 4:0 5:22 6:0.2727 7:1 8:-1 9:0 10:0.3182 11:0.1364 12:0.4091 13:22 14:4 15:0.2769 16:0.3231 17:0.1538 18:0.1231 19:0.4 20:0.0175 21:1 22:0 23:0.0769 24:10 
-0.387265058915191 1:4 2:-1 3:-1 4:0 5:22 6:0.2727 7:0 8:1 9:1 10:0.3182 11:0.1364 12:0.4091 13:21 14:1 15:0.2453 16:0.3396 17:0.1509 18:0.0943 19:0.4151 20:0.0222 21:1.29 22:0 23:0 24:16 
-0.7849457053217033 1:1 2:5 3:-1 4:0 5:22 6:0.4545 7:4 8:5 9:2 10:0.2273 11:0.2273 12:0.3182 13:15 14:4 15:0.2929 16:0.3636 17:0.1212 18:0.1717 19:0.3434 20:0.2473 21:1.5 22:0 23:0.2308 24:3 
-0.3332938872222698 1:4 2:5 3:2 4:1 5:21 6:0.381 7:2 8:3 9:2 10:0.2381 11:0.1905 12:0.381 13:16 14:1 15:0.2809 16:0.3708 17:0.1236 18:0.1573 19:0.3483 20:0.2289 21:4.5 22:0.3333 23:0.2727 24:8 
-0.1386794984864118 1:1 2:5 3:1 4:1 5:23 6:0.4 7:2 8:4 9:2 10:0.25 11:0.3 12:0.35 13:17 14:4 15:0.2857 16:0.3736 17:0.1319 18:0.1538 19:0.3407 20:0.2471 21:0.88 22:0.2 23:0.2857 24:7 
-0.2242375098766466 1:1 2:5 3:-1 4:0 5:23 6:0.5217 7:4 8:5 9:3 10:0.1739 11:0.2609 12:0.3043 13:15 14:4 15:0.3137 16:0.3529 17:0.1275 18:0.1863 19:0.3333 20:0.25 21:1.43 22:-1 23:0.2222 24:1 
-1 1:1 2:5 3:3 4:1 5:21 6:0.381 7:2 8:2 9:2 10:0.2381 11:0.1905 12:0.381 13:17 14:1 15:0.2841 16:0.3636 17:0.125 18:0.1591 19:0.3523 20:0.2195 21:1.6 22:0.3846 23:0.2857 24:9 
-0.1235047022226124 1:3 2:5 3:-1 4:0 5:27 6:0.4167 7:4 8:5 9:2 10:0.2917 11:0.3333 12:0.2917 13:20 14:1 15:0.3069 16:0.3564 17:0.1287 18:0.1782 19:0.3366 20:0.2421 21:1 22:-1 23:0.2727 24:1 
-0.05655945539882682 1:2 2:-1 3:2 4:3 5:22 6:0.3182 7:1 8:3 9:4 10:0.4091 11:0.0909 12:0.2727 13:16 14:1 15:0.3111 16:0.3556 17:0.1778 18:0.1333 19:0.3333 20:0.2381 21:1.17 22:0.1795 23:-1 24:23 
-0.2245638077681641 1:4 2:1 3:2 4:3 5:22 6:0.4091 7:1 8:3 9:3 10:0.2273 11:0.2727 12:0.3636 13:17 14:1 15:0.3673 16:0.3265 17:0.2041 18:0.1633 19:0.3061 20:0.2174 21:0.55 22:0.2 23:0.5 24:21 
-0.9036028989781796 1:3 2:3 3:2 4:1 5:20 6:0.5 7:2 8:2 9:3 10:0.15 11:0.45 12:0.35 13:16 14:1 15:0.3676 16:0.2941 17:0.1765 18:0.1912 19:0.3382 20:0.2308 21:0.9 22:0.125 23:0.3571 24:11 
-0.06249692202644976 1:4 2:1 3:2 4:3 5:20 6:0.35 7:1 8:3 9:3 10:0.25 11:0.2 12:0.4 13:15 14:2 15:0.3111 16:0.3556 17:0.1778 18:0.1333 19:0.3333 20:0.2381 21:0.86 22:0.1795 23:0.5 24:23 
-0.04792089732387382 1:2 2:-1 3:3 4:5 5:21 6:0.4091 7:1 8:1 9:3 10:0.5 11:0.3182 12:0.0909 13:18 14:4 15:0.4186 16:0.2791 17:0.2326 18:0.186 19:0.3023 20:0.1 21:0.75 22:0.25 23:-1 24:34 
-0.4947586393854377 1:1 2:1 3:3 4:4 5:22 6:0.4091 7:1 8:1 9:3 10:0.4545 11:0.3636 12:0.1364 13:19 14:1 15:0.4118 16:0.2941 17:0.2353 18:0.1765 19:0.2941 20:0.125 21:1.43 22:0.25 23:0.3333 24:30 
-0.5282313017165403 1:3 2:1 3:3 4:1 5:23 6:0.3043 7:1 8:2 9:3 10:0.4348 11:0.1739 12:0.2609 13:19 14:3 15:0.4105 16:0.2737 17:0.2105 18:0.2 19:0.3158 20:0.1522 21:0.56 22:0.5 23:0.1667 24:8 
-1 1:3 2:1 3:3 4:2 5:21 6:0.4286 7:1 8:1 9:3 10:0.1429 11:0.2381 12:0.4286 13:18 14:1 15:0.4023 16:0.2874 17:0.2184 18:0.1839 19:0.3103 20:0.119 21:0.78 22:0.5 23:0.1364 24:12 
-0.2821022991428736 1:3 2:1 3:3 4:1 5:20 6:0.35 7:0 8:2 9:3 10:0.4 11:0.25 12:0.25 13:16 14:3 15:0.4227 16:0.268 17:0.2165 18:0.2062 19:0.3093 20:0.1489 21:0.67 22:0.6 23:0.1429 24:7 
-0.06069304489747453 1:2 2:-1 3:4 4:3 5:26 6:0.5217 7:0 8:3 9:4 10:0.1739 11:0.3043 12:0.3043 13:16 14:-1 15:0.48 16:0.34 17:0.26 18:0.22 19:0.18 20:0.2727 21:1.67 22:0.25 23:-1 24:22 
-0.6812528237104626 1:4 2:2 3:4 4:1 5:27 6:0.4348 7:0 8:3 9:4 10:0.2174 11:0.2174 12:0.3478 13:19 14:3 15:0.4603 16:0.3333 17:0.2381 18:0.2222 19:0.2063 20:0.2632 21:0.78 22:0.2632 23:0.5 24:15 
-0.001936172977069108 1:3 2:-1 3:1 4:1 5:30 6:0.5 7:3 8:9 9:2 10:0.2727 11:0.4545 12:0.2273 13:19 14:4 15:0.4107 16:0.3214 17:0.125 18:0.2857 19:0.2679 20:0.2692 21:1.11 22:0.0769 23:-1 24:20 
-0.009293004165528069 1:1 2:-1 3:1 4:1 5:21 6:0.3333 7:2 8:9 9:2 10:0.381 11:0.1905 12:0.2857 13:10 14:3 15:0.413 16:0.3261 17:0.1087 18:0.3043 19:0.2609 20:0.3333 21:0.44 22:0.0556 23:0 24:25 
-0.0007071834963128809 1:1 2:-1 3:1 4:1 5:29 6:0.5 7:3 8:9 9:3 10:0.3182 11:0.5 12:0.1818 13:17 14:-1 15:0.4038 16:0.3269 17:0.1154 18:0.2885 19:0.2692 20:0.2917 21:1 22:0.0667 23:-1 24:22 
-0.2571648124899954 1:1 2:8 3:1 4:1 5:21 6:0.35 7:0 8:2 9:2 10:0.25 11:0.15 12:0.4 13:18 14:4 15:0.3919 16:0.3243 17:0.1351 18:0.2568 19:0.2838 20:0.2 21:0.7 22:0.25 23:0.3103 24:11 
-0.2822702886118951 1:2 2:6 3:1 4:1 5:20 6:0.45 7:0 8:1 9:1 10:0.3 11:0.1 12:0.25 13:19 14:3 15:0.4026 16:0.2987 17:0.2208 18:0.1818 19:0.2987 20:0.1549 21:1.22 22:0.0714 23:0.2903 24:16 
-1 1:4 2:6 3:1 4:1 5:22 6:0.4091 7:0 8:1 9:2 10:0.3182 11:0.0909 12:0.2727 13:20 14:3 15:0.4026 16:0.2987 17:0.2208 18:0.1818 19:0.2987 20:0.1549 21:0.89 22:0.0714 23:0.2593 24:16 
-1 1:4 2:6 3:-1 4:0 5:21 6:0.381 7:1 8:1 9:1 10:0.3333 11:0.1429 12:0.2857 13:20 14:3 15:0.4078 16:0.2913 17:0.2039 18:0.2039 19:0.301 20:0.134 21:1.25 22:0 23:0.2 24:3 
-0.01139109247570539 1:4 2:1 3:1 4:1 5:30 6:0.4167 7:0 8:6 9:3 10:0.2083 11:0.0833 12:0.375 13:22 14:4 15:0.4328 16:0.2836 17:0.2388 18:0.194 19:0.2836 20:0.1803 21:1.12 22:0.0526 23:0.1429 24:21 
-0.6001765541712584 1:2 2:-1 3:1 4:1 5:21 6:0.2857 7:0 8:3 9:1 10:0.3333 11:0.0952 12:0.381 13:18 14:4 15:0.3377 16:0.3247 17:0.1688 18:0.1688 19:0.3377 20:0.0411 21:1 22:0.0909 23:0 24:8 
-0.0113729403805204 1:3 2:-1 3:1 4:1 5:34 6:0.3333 7:0 8:12 9:2 10:0.4583 11:0.1667 12:0.2083 13:21 14:4 15:0.3182 16:0.2879 17:0.1818 18:0.1364 19:0.3939 20:0.2581 21:0.67 22:0.0476 23:0 24:23 
-0.009541290142100079 1:4 2:-1 3:1 4:1 5:32 6:0.3636 7:1 8:12 9:3 10:0.4091 11:0.1818 12:0.2273 13:18 14:4 15:0.3393 16:0.2679 17:0.1964 18:0.1429 19:0.3929 20:0.3077 21:0.7 22:0.0385 23:-1 24:28 
-0.5055696156476678 1:1 2:12 3:-1 4:0 5:21 6:0.3333 7:1 8:1 9:1 10:0.5238 11:0.2857 12:0.1429 13:20 14:4 15:0.33 16:0.3 17:0.18 18:0.15 19:0.37 20:0.1875 21:0.9 22:0 23:0.2963 24:6 
-0.08708557081247702 1:3 2:12 3:1 4:1 5:21 6:0.3333 7:1 8:1 9:1 10:0.1429 11:0.1905 12:0.5238 13:20 14:3 15:0.3429 16:0.2714 17:0.1857 18:0.1571 19:0.3857 20:0.2424 21:1.29 22:0.0526 23:0.5833 24:21 
-0.5047619173093909 1:2 2:12 3:-1 4:0 5:22 6:0.3636 7:1 8:1 9:1 10:0.1364 11:0.0455 12:0.5 13:21 14:1 15:0.3365 16:0.2981 17:0.1827 18:0.1538 19:0.3654 20:0.18 21:1.22 22:0 23:0.2857 24:4 
-0.03327522619768709 1:4 2:9 3:1 4:1 5:20 6:0.3 7:0 8:3 9:2 10:0.1 11:0.15 12:0.6 13:16 14:2 15:0.3167 16:0.2833 17:0.1833 18:0.1333 19:0.4 20:0.2857 21:3.33 22:0.0417 23:0.5294 24:26 
-0.6893725620245492 1:4 2:12 3:-1 4:0 5:21 6:0.381 7:1 8:1 9:1 10:0.0952 11:0.0476 12:0.5238 13:20 14:1 15:0.3426 16:0.2963 17:0.1852 18:0.1574 19:0.3611 20:0.1731 21:1.11 22:-1 23:0.2581 24:2 
-0.0103074896739604 1:3 2:-1 3:1 4:1 5:30 6:0.4 7:1 8:12 9:2 10:0.4 11:0.2 12:0.2 13:17 14:4 15:0.3393 16:0.2679 17:0.1964 18:0.1429 19:0.3929 20:0.3077 21:0.8 22:0.0385 23:0 24:28 
-0.4550855782536615 1:4 2:12 3:-1 4:0 5:21 6:0.3333 7:1 8:1 9:1 10:0.1429 11:0.0476 12:0.5238 13:20 14:1 15:0.3235 16:0.3039 17:0.1765 18:0.1471 19:0.3725 20:0.1837 21:1.11 22:0 23:0.2857 24:5 
-0.0149578378742623 1:2 2:-1 3:1 4:1 5:33 6:0.375 7:1 8:12 9:3 10:0.4167 11:0.1667 12:0.2083 13:19 14:-1 15:0.3276 16:0.2759 17:0.1897 18:0.1379 19:0.3966 20:0.2963 21:0.7 22:0.04 23:-1 24:27 
-0.1621157713151186 1:2 2:12 3:-1 4:0 5:23 6:0.3478 7:1 8:1 9:1 10:0.1304 11:0.087 12:0.5217 13:22 14:2 15:0.33 16:0.3 17:0.18 18:0.15 19:0.37 20:0.1875 21:1 22:0 23:0.32 24:6 
-0.2898756357776982 1:4 2:5 3:-1 4:0 5:24 6:0.4167 7:1 8:3 9:5 10:0.125 11:0.1667 12:0.4583 13:15 14:1 15:0.3768 16:0.3188 17:0.2174 18:0.1594 19:0.3043 20:0.4154 21:2.5 22:0 23:0.5556 24:14 
-0.06583301696786126 1:4 2:-1 3:3 4:3 5:23 6:0.4583 7:0 8:5 9:4 10:0.2083 11:0.2083 12:0.3333 13:13 14:-1 15:0.3958 16:0.3333 17:0.2292 18:0.1667 19:0.2708 20:0.4091 21:0.56 22:0.2432 23:-1 24:25 
-0.01355661171297337 1:2 2:3 3:-1 4:0 5:21 6:0.4762 7:0 8:2 9:4 10:0.1429 11:0.3333 12:0.381 13:16 14:1 15:0.3021 16:0.2917 17:0.1458 18:0.1562 19:0.4062 20:0.1739 21:0.55 22:-1 23:0.12 24:2 
-1 1:4 2:3 3:1 4:2 5:21 6:0.2381 7:1 8:1 9:3 10:0.2857 11:0.0952 12:0.4762 13:18 14:2 15:0.25 16:0.3088 17:0.1029 18:0.1471 19:0.4412 20:0.1562 21:1.5 22:0.1538 23:0.1818 24:16 
-0.02324263472300778 1:1 2:-1 3:2 4:3 5:28 6:0.2917 7:2 8:3 9:3 10:0.3333 11:0.0833 12:0.375 13:23 14:4 15:0.2581 16:0.3226 17:0.1129 18:0.1452 19:0.4194 20:0.1034 21:0.91 22:0.25 23:0 24:19 
-0.5674518223918993 1:4 2:3 3:-1 4:0 5:22 6:0.4545 7:0 8:2 9:4 10:0.1364 11:0.3182 12:0.4091 13:16 14:1 15:0.2959 16:0.2857 17:0.1429 18:0.1531 19:0.4184 20:0.1915 21:0.36 22:-1 23:0.12 24:1 
-0.8861504012381065 1:4 2:3 3:2 4:2 5:20 6:0.2 7:1 8:1 9:2 10:0.35 11:0.15 12:0.45 13:18 14:4 15:0.2424 16:0.3182 17:0.1061 18:0.1364 19:0.4394 20:0.129 21:1.17 22:0.2143 23:0.1818 24:17 
-1 1:4 2:2 3:1 4:2 5:22 6:0.3636 7:0 8:2 9:3 10:0.1364 11:0.1818 12:0.5 13:18 14:1 15:0.3636 16:0.3131 17:0.1919 18:0.1717 19:0.3232 20:0.1828 21:0.36 22:0.2 23:0.2 24:10 
-1 1:4 2:2 3:1 4:1 5:23 6:0.3043 7:0 8:1 9:3 10:0.2174 11:0.1739 12:0.4783 13:20 14:3 15:0.3364 16:0.3178 17:0.1776 18:0.1589 19:0.3458 20:0.1881 21:1.5 22:0.1429 23:0.25 24:5 
-0.140400096129156 1:4 2:1 3:1 4:4 5:21 6:0.2857 7:0 8:2 9:4 10:0.3333 11:0.1905 12:0.381 13:15 14:4 15:0.3286 16:0.3286 17:0.1714 18:0.1571 19:0.3429 20:0.2188 21:1.12 22:0.1364 23:0.1304 24:25 
-1 1:4 2:2 3:1 4:1 5:22 6:0.381 7:0 8:1 9:3 10:0.381 11:0.1429 12:0.2381 13:19 14:4 15:0.3364 16:0.3178 17:0.1776 18:0.1589 19:0.3458 20:0.1881 21:0.67 22:0.1429 23:0.2414 24:6 
-0.8940360081872358 1:2 2:2 3:1 4:1 5:20 6:0.35 7:0 8:1 9:3 10:0.15 11:0.2 12:0.5 13:17 14:4 15:0.3495 16:0.3107 17:0.1845 18:0.165 19:0.3398 20:0.1959 21:1.29 22:0.0909 23:0.2414 24:8 
-0.7470202276360204 1:1 2:2 3:1 4:2 5:21 6:0.4 7:0 8:1 9:3 10:0.45 11:0.15 12:0.15 13:18 14:3 15:0.3636 16:0.3131 17:0.1919 18:0.1717 19:0.3232 20:0.1828 21:1.57 22:0.2 23:0.2308 24:10 
-0.02953838452076131 1:4 2:1 3:6 4:3 5:23 6:0.3182 7:4 8:2 9:2 10:0.2273 11:0.3182 12:0.4545 13:20 14:4 15:0.2931 16:0.2759 17:0.1207 18:0.1724 19:0.431 20:0.0909 21:1.6 22:0.2558 23:0.1667 24:31 
-0.1651767058131713 1:4 2:1 3:6 4:1 5:23 6:0.3636 7:2 8:2 9:3 10:0.2727 11:0.3182 12:0.3636 13:18 14:3 15:0.3151 16:0.2603 17:0.137 18:0.1781 19:0.4247 20:0.1429 21:1.12 22:0.2143 23:0.1111 24:23 
-0.2849882037266493 1:1 2:1 3:6 4:4 5:21 6:0.25 7:4 8:1 9:2 10:0.25 11:0.25 12:0.5 13:19 14:2 15:0.2692 16:0.2885 17:0.1154 18:0.1538 19:0.4423 20:0.0612 21:1.14 22:0.2653 23:0.2 24:34 
-0.04403470087270245 1:1 2:1 3:6 4:2 5:21 6:0.381 7:2 8:2 9:2 10:0.1905 11:0.0952 12:0.4286 13:17 14:3 15:0.2794 16:0.2794 17:0.1176 18:0.1618 19:0.4412 20:0.1385 21:0.5 22:0.2121 23:0.12 24:26 
-0.2725079172011937 1:4 2:1 3:6 4:3 5:20 6:0.35 7:4 8:2 9:1 10:0.2 11:0.1 12:0.45 13:18 14:4 15:0.2833 16:0.2833 17:0.1167 18:0.1667 19:0.4333 20:0.0877 21:0.88 22:0.2683 23:0.1579 24:30 
-0.2545297086342377 1:4 2:2 3:-1 4:0 5:27 6:0.4286 7:1 8:6 9:4 10:0.2857 11:0.2381 12:0.2857 13:17 14:3 15:0.3333 16:0.2647 17:0.1569 18:0.1765 19:0.402 20:0.1717 21:1.17 22:-1 23:0.1273 24:5 
-0.06472843105792368 1:1 2:1 3:-1 4:0 5:20 6:0.2 7:0 8:3 9:3 10:0.4 11:0.05 12:0.4 13:14 14:4 15:0.2727 16:0.3455 17:0.1273 18:0.1455 19:0.3818 20:0.24 21:4.5 22:0 23:0.1667 24:16 
-0.4193670599210704 1:4 2:1 3:-1 4:0 5:22 6:0.1818 7:0 8:3 9:3 10:0.3182 11:0.0909 12:0.5 13:16 14:3 15:0.2727 16:0.3455 17:0.1273 18:0.1455 19:0.3818 20:0.24 21:0.44 22:0 23:0.25 24:16 
-0.2343675958757273 1:4 2:3 3:-1 4:0 5:23 6:0.2609 7:0 8:2 9:2 10:0.2174 11:0.1304 12:0.5217 13:20 14:4 15:0.3043 16:0.3333 17:0.1449 18:0.1594 19:0.3623 20:0.1875 21:1.5 22:0 23:0.4 24:9 
-0.2509094784039012 1:3 2:1 3:-1 4:0 5:22 6:0.2273 7:0 8:3 9:3 10:0.4091 11:0.0909 12:0.3636 13:16 14:4 15:0.2982 16:0.3333 17:0.1404 18:0.1579 19:0.3684 20:0.2308 21:4.5 22:0 23:0.2 24:15 
-0.345610696241526 1:4 2:1 3:-1 4:0 5:22 6:0.2727 7:0 8:3 9:2 10:0.4545 11:0.1364 12:0.2727 13:17 14:4 15:0.3231 16:0.3538 17:0.1692 18:0.1538 19:0.3231 20:0.2069 21:0.2 22:0 23:0.25 24:12 
-1 1:4 2:4 3:-1 4:0 5:22 6:0.2273 7:0 8:2 9:1 10:0.5455 11:0.0909 12:0.2273 13:20 14:3 15:0.2958 16:0.3662 17:0.1549 18:0.1408 19:0.338 20:0.1875 21:1.12 22:0 23:0.4545 24:9 
-0.07254854883570441 1:4 2:1 3:-1 4:0 5:20 6:0.2 7:1 8:4 9:2 10:0.45 11:0.1 12:0.35 13:14 14:4 15:0.283 16:0.3774 17:0.1509 18:0.1321 19:0.3396 20:0.2609 21:1.29 22:0 23:0.25 24:18 
-1 1:3 2:3 3:1 4:1 5:22 6:0.4545 7:3 8:1 9:1 10:0.1818 11:0.3636 12:0.3636 13:21 14:3 15:0.3247 16:0.3506 17:0.1299 18:0.1948 19:0.3247 20:0.1667 21:1.11 22:0.1 23:0.4 24:15 
-1 1:4 2:3 3:-1 4:0 5:21 6:0.381 7:1 8:2 9:2 10:0.2857 11:0.1429 12:0.3333 13:18 14:3 15:0.3333 16:0.3333 17:0.1313 18:0.202 19:0.3333 20:0.1702 21:0.5 22:-1 23:0.25 24:3 
-0.2331139199112291 1:4 2:8 3:1 4:1 5:24 6:0.3043 7:1 8:2 9:3 10:0.3913 11:0.0435 12:0.3043 13:20 14:2 15:0.3299 16:0.3093 17:0.1649 18:0.1649 19:0.3608 20:0.1868 21:1.67 22:0.3333 23:0.2273 24:5 
-0.8969178778625232 1:4 2:8 3:3 4:1 5:21 6:0.381 7:1 8:1 9:2 10:0.1905 11:0.2857 12:0.4286 13:19 14:4 15:0.3298 16:0.3191 17:0.1596 18:0.1702 19:0.3511 20:0.1591 21:0.9 22:0.5556 23:0.2174 24:7 
-0.01091245193647124 1:4 2:-1 3:3 4:3 5:31 6:0.2727 7:2 8:8 9:2 10:0.3636 11:0.1818 12:0.3636 13:22 14:3 15:0.3125 16:0.3281 17:0.1406 18:0.1719 19:0.3594 20:0.1724 21:1.33 22:0.2308 23:0 24:22 
-0.1137600212129354 1:2 2:8 3:1 4:1 5:23 6:0.3182 7:1 8:2 9:3 10:0.4091 11:0.0455 12:0.2727 13:19 14:2 15:0.3299 16:0.3093 17:0.1649 18:0.1649 19:0.3608 20:0.1868 21:1.67 22:0.3333 23:0.2174 24:5 
-1 1:1 2:8 3:-1 4:0 5:22 6:0.3333 7:1 8:3 9:3 10:0.3333 11:0.0952 12:0.3333 13:17 14:4 15:0.3592 16:0.2913 17:0.1845 18:0.1748 19:0.3495 20:0.1959 21:1.67 22:-1 23:0.1852 24:2 
-0.1935685095904611 1:2 2:7 3:-1 4:0 5:22 6:0.3636 7:1 8:2 9:3 10:0.2727 11:0.1818 12:0.3636 13:18 14:4 15:0.3645 16:0.243 17:0.1495 18:0.215 19:0.3925 20:0.301 21:2.5 22:-1 23:0.3898 24:1 
-0.5775876538183939 1:1 2:1 3:2 4:1 5:24 6:0.375 7:0 8:2 9:4 10:0.375 11:0.2083 12:0.25 13:18 14:3 15:0.3443 16:0.3443 17:0.1803 18:0.1639 19:0.3115 20:0.2308 21:2 22:0.0741 23:0.3333 24:30 
-0.2101068537308091 1:4 2:1 3:2 4:1 5:21 6:0.381 7:1 8:2 9:3 10:0.2381 11:0.2381 12:0.381 13:16 14:1 15:0.32 16:0.3467 17:0.16 18:0.16 19:0.3333 20:0.1818 21:0.8 22:0.1 23:0.1538 24:23 
-0.3043174329213469 1:3 2:2 3:-1 4:0 5:20 6:0.45 7:1 8:2 9:2 10:0.25 11:0.25 12:0.3 13:16 14:1 15:0.339 16:0.3136 17:0.161 18:0.178 19:0.3475 20:0.1743 21:2 22:-1 23:0.1944 24:1 
-0.014512269462191 1:1 2:1 3:2 4:1 5:24 6:0.375 7:0 8:2 9:4 10:0.2917 11:0.1667 12:0.3333 13:18 14:3 15:0.3559 16:0.339 17:0.1864 18:0.1695 19:0.3051 20:0.24 21:0.3 22:0.0714 23:0.5 24:31 
-0.2972613312920753 1:4 2:12 3:3 4:4 5:21 6:0.3333 7:0 8:1 9:3 10:0.2857 11:0.1905 12:0.381 13:18 14:3 15:0.3291 16:0.3418 17:0.2025 18:0.1266 19:0.3291 20:0.3867 21:1.67 22:0.2941 23:0.7059 24:21 
-0.4155367465782442 1:1 2:12 3:-1 4:0 5:23 6:0.5238 7:0 8:3 9:5 10:0.1429 11:0.0952 12:0.3333 13:15 14:3 15:0.3846 16:0.3333 17:0.2222 18:0.1624 19:0.2821 20:0.3805 21:0.67 22:-1 23:0.4203 24:1 
-0.4110869687680486 1:1 2:12 3:-1 4:0 5:22 6:0.4545 7:0 8:3 9:5 10:0.5 11:0.3636 12:0.0455 13:15 14:1 15:0.3913 16:0.3304 17:0.2261 18:0.1652 19:0.2783 20:0.3694 21:1 22:-1 23:0.4203 24:2 
-0.1355099455719099 1:4 2:12 3:-1 4:0 5:21 6:0.4286 7:0 8:3 9:5 10:0.4762 11:0.381 12:0.0952 13:14 14:3 15:0.3761 16:0.3303 17:0.2202 18:0.156 19:0.2936 20:0.3714 21:1.33 22:0 23:0.4154 24:5 
-0.08013884089865247 1:4 2:12 3:-1 4:0 5:23 6:0.4783 7:0 8:3 9:5 10:0.4348 11:0.3913 12:0.087 13:16 14:1 15:0.3982 16:0.3186 17:0.2301 18:0.1681 19:0.2832 20:0.3578 21:0.89 22:-1 23:0.4154 24:3 
-0.3995591711398337 1:3 2:12 3:3 4:4 5:23 6:0.2727 7:0 8:1 9:3 10:0.4091 11:0.1364 12:0.3182 13:20 14:2 15:0.321 16:0.3457 17:0.1975 18:0.1235 19:0.3333 20:0.3766 21:0.78 22:0.3125 23:0.75 24:20 
-0.001923100521994199 1:4 2:12 3:-1 4:0 5:23 6:0.4348 7:0 8:3 9:5 10:0.4348 11:0.3478 12:0.1304 13:16 14:2 15:0.3874 16:0.3243 17:0.2252 18:0.1622 19:0.2883 20:0.3645 21:0.78 22:0 23:0.4286 24:4 
-0.3550749977398384 1:4 2:2 3:-1 4:0 5:23 6:0.4545 7:2 8:1 9:3 10:0.3182 11:0.1818 12:0.2273 13:20 14:1 15:0.4158 16:0.2772 17:0.1881 18:0.2277 19:0.3069 20:0.0928 21:0.8 22:0 23:0.0943 24:9 
-0.4662083160877596 1:4 2:1 3:1 4:3 5:21 6:0.45 7:1 8:2 9:1 10:0.25 11:0.3 12:0.3 13:19 14:2 15:0.386 16:0.3158 17:0.193 18:0.193 19:0.2982 20:0.0943 21:0.64 22:0.0741 23:0.1667 24:32 
-0.1998914589160334 1:2 2:2 3:-1 4:0 5:20 6:0.45 7:2 8:1 9:1 10:0.25 11:0.35 12:0.3 13:19 14:1 15:0.4037 16:0.2844 17:0.1835 18:0.2202 19:0.3119 20:0.0857 21:1 22:0 23:0.1077 24:5 
-0.9880262775313297 1:3 2:2 3:-1 4:0 5:22 6:0.381 7:2 8:1 9:3 10:0.1429 11:0.3333 12:0.4762 13:19 14:3 15:0.3918 16:0.2887 17:0.1753 18:0.2165 19:0.3196 20:0.0968 21:1 22:0 23:0.098 24:11 
-0.3180460034689548 1:1 2:3 3:1 4:1 5:20 6:0.5 7:0 8:1 9:2 10:0.3 11:0.15 12:0.2 13:18 14:4 15:0.3871 16:0.3065 17:0.1935 18:0.1935 19:0.3065 20:0.1379 21:0.7 22:0.0476 23:0.2632 24:12 
-0.6965098723277374 1:3 2:3 3:-1 4:0 5:21 6:0.45 7:0 8:1 9:3 10:0.3 11:0.3 12:0.25 13:18 14:3 15:0.381 16:0.3175 17:0.1905 18:0.1905 19:0.3016 20:0.1525 21:1.43 22:0 23:0.2632 24:12 
-0.0813066337948872 1:4 2:2 3:-1 4:0 5:23 6:0.4091 7:0 8:1 9:4 10:0.2727 11:0.2727 12:0.3182 13:19 14:3 15:0.381 16:0.3175 17:0.1905 18:0.1905 19:0.3016 20:0.1525 21:1.14 22:0 23:0.2 24:12 
-1 1:3 2:3 3:-1 4:0 5:22 6:0.4286 7:0 8:1 9:3 10:0.3333 11:0.2381 12:0.2381 13:19 14:4 15:0.3881 16:0.3134 17:0.194 18:0.194 19:0.2985 20:0.1429 21:1.29 22:0 23:0.2381 24:10 
-1 1:4 2:4 3:-1 4:0 5:22 6:0.2727 7:1 8:1 9:2 10:0.1364 11:0.0909 12:0.5909 13:20 14:1 15:0.2647 16:0.3333 17:0.1471 18:0.1176 19:0.402 20:0.1042 21:1.5 22:-1 23:0.1321 24:2 
-0.9488297821186352 1:2 2:4 3:-1 4:0 5:22 6:0.2727 7:1 8:1 9:2 10:0.1364 11:0.0909 12:0.5909 13:20 14:1 15:0.27 16:0.33 17:0.15 18:0.12 19:0.4 20:0.1064 21:1.67 22:0 23:0.1373 24:3 
-0.705906667557725 1:2 2:4 3:1 4:1 5:21 6:0.2857 7:0 8:1 9:2 10:0.5238 11:0.0952 12:0.1905 13:19 14:4 15:0.2623 16:0.3279 17:0.1639 18:0.0984 19:0.4098 20:0.1636 21:1.29 22:0.0244 23:0.3846 24:23 
-1 1:4 2:4 3:1 4:1 5:22 6:0.4286 7:1 8:1 9:3 10:0.1905 11:0.1429 12:0.381 13:19 14:3 15:0.3704 16:0.2716 17:0.1605 18:0.2099 19:0.358 20:0.2 21:1 22:0.0714 23:0.3125 24:18 
-0.242834434640982 1:4 2:2 3:3 4:1 5:23 6:0.381 7:2 8:4 9:2 10:0.3333 11:0.2381 12:0.2857 13:17 14:3 15:0.4839 16:0.2366 17:0.2473 18:0.2366 19:0.2796 20:0.2045 21:1.12 22:0.5 23:0.2174 24:13 
-0.4899436340720703 1:3 2:2 3:4 4:2 5:22 6:0.5 7:3 8:2 9:2 10:0.1364 11:0.2273 12:0.3636 13:19 14:1 15:0.4691 16:0.2469 17:0.2346 18:0.2346 19:0.284 20:0.1579 21:1.29 22:0.5 23:0.2353 24:20 
-0.2417337517559227 1:3 2:2 3:4 4:2 5:21 6:0.4762 7:2 8:2 9:2 10:0.1429 11:0.1905 12:0.381 13:18 14:4 15:0.4691 16:0.2469 17:0.2346 18:0.2346 19:0.284 20:0.1579 21:1.29 22:0.5 23:0.2222 24:20 
-0.1765305412312485 1:4 2:2 3:4 4:2 5:21 6:0.381 7:3 8:2 9:2 10:0.2857 11:0.2381 12:0.3333 13:18 14:4 15:0.4932 16:0.2329 17:0.2466 18:0.2466 19:0.274 20:0.1765 21:0.9 22:0.375 23:0.2857 24:24 
-0.1699265263122769 1:4 2:5 3:-1 4:0 5:24 6:0.3913 7:1 8:3 9:2 10:0.2174 11:0.087 12:0.3913 13:19 14:4 15:0.3882 16:0.3412 17:0.2118 18:0.1765 19:0.2706 20:0.2405 21:1 22:0 23:0.3125 24:4 
-0.853404973191824 1:4 2:5 3:-1 4:0 5:22 6:0.3182 7:1 8:3 9:2 10:0.4545 11:0.1818 12:0.2273 13:17 14:1 15:0.3882 16:0.3412 17:0.2118 18:0.1765 19:0.2706 20:0.2405 21:0.44 22:0 23:0.2778 24:4 
-1 1:3 2:5 3:-1 4:0 5:23 6:0.3478 7:1 8:3 9:2 10:0.4348 11:0.2174 12:0.2174 13:18 14:4 15:0.3976 16:0.3373 17:0.2169 18:0.1807 19:0.2651 20:0.2468 21:0.9 22:0 23:0.3125 24:5 
-0.2153205654727235 1:1 2:3 3:-1 4:0 5:21 6:0.45 7:0 8:1 9:3 10:0.25 11:0.2 12:0.3 13:18 14:3 15:0.419 16:0.3143 17:0.2095 18:0.2095 19:0.2667 20:0.125 21:1.57 22:0 23:0.1724 24:6 
-0.4589812929195635 1:2 2:3 3:-1 4:0 5:22 6:0.4286 7:0 8:1 9:3 10:0.2857 11:0.1905 12:0.2857 13:19 14:3 15:0.422 16:0.3119 17:0.211 18:0.211 19:0.2661 20:0.12 21:1.43 22:-1 23:0.1667 24:1 
-0.07682856068628881 1:4 2:2 3:1 4:1 5:24 6:0.3333 7:0 8:1 9:1 10:0.3333 11:0.1667 12:0.3333 13:23 14:1 15:0.28 16:0.3733 17:0.1333 18:0.1467 19:0.3467 20:0.1071 21:1 22:0.0667 23:0.6 24:22 
-0.04747974109184656 1:4 2:2 3:-1 4:0 5:26 6:0.4783 7:1 8:6 9:2 10:0.1304 11:0.3043 12:0.3913 13:19 14:2 15:0.3246 16:0.3333 17:0.1491 18:0.1754 19:0.3421 20:0.1789 21:5 22:-1 23:0.1667 24:1 
-0.7209706988880608 1:3 2:2 3:-1 4:0 5:20 6:0.45 7:0 8:1 9:1 10:0.4 11:0.2 12:0.15 13:19 14:1 15:0.3267 16:0.3465 17:0.1485 18:0.1782 19:0.3267 20:0.0976 21:1.22 22:0 23:0.1818 24:9 
-0.05308183529039628 1:3 2:2 3:2 4:2 5:22 6:0.4545 7:1 8:2 9:4 10:0.2727 11:0.1818 12:0.2727 13:17 14:3 15:0.4474 16:0.3026 17:0.1842 18:0.2632 19:0.25 20:0.2059 21:1.4 22:0.1875 23:0.1667 24:23 
-0.20226369889143 1:3 2:2 3:2 4:2 5:21 6:0.619 7:1 8:2 9:4 10:0.1905 11:0.4286 12:0.1905 13:16 14:3 15:0.4474 16:0.3026 17:0.1842 18:0.2632 19:0.25 20:0.2059 21:0.71 22:0.1875 23:0.1538 24:23 
-0.09084065396196246 1:4 2:12 3:1 4:2 5:21 6:0.381 7:0 8:2 9:2 10:0.1905 11:0.1905 12:0.4286 13:18 14:4 15:0.2895 16:0.3158 17:0.1184 18:0.1711 19:0.3947 20:0.2676 21:1.29 22:0.2222 23:0.4839 24:11 
-0.008368523473287747 1:4 2:-1 3:2 4:3 5:31 6:0.2381 7:1 8:12 9:2 10:0.2857 11:0.0952 12:0.4762 13:17 14:-1 15:0.25 16:0.3462 17:0.1154 18:0.1346 19:0.4038 20:0.2766 21:0.56 22:0.2381 23:-1 24:23 
-0.01169701347926887 1:4 2:-1 3:2 4:2 5:35 6:0.2917 7:1 8:12 9:3 10:0.25 11:0.1667 12:0.4583 13:20 14:1 15:0.2742 16:0.3226 17:0.1129 18:0.1613 19:0.4032 20:0.2982 21:1.4 22:0.1875 23:-1 24:18 
-0.008906117950418929 1:1 2:7 3:2 4:2 5:22 6:0.2727 7:0 8:5 9:2 10:0.4545 11:0.1818 12:0.2727 13:15 14:4 15:0.2576 16:0.3333 17:0.1061 18:0.1515 19:0.4091 20:0.2787 21:5 22:0.2143 23:0.3913 24:16 
-1 1:4 2:11 3:2 4:2 5:20 6:0.35 7:0 8:2 9:2 10:0.4 11:0.25 12:0.25 13:17 14:4 15:0.2714 16:0.3286 17:0.1143 18:0.1571 19:0.4 20:0.2615 21:1.5 22:0.25 23:0.4815 24:14 
-0.003620752588358326 1:4 2:1 3:2 4:3 5:31 6:0.3 7:1 8:12 9:2 10:0.25 11:0.15 12:0.45 13:18 14:1 15:0.2667 16:0.3333 17:0.1167 18:0.15 19:0.4 20:0.2727 21:1.29 22:0.2353 23:0.3333 24:19 
-0.1376811032177975 1:4 2:11 3:1 4:2 5:23 6:0.3478 7:0 8:2 9:3 10:0.3478 11:0.2609 12:0.3043 13:19 14:4 15:0.2895 16:0.3158 17:0.1184 18:0.1711 19:0.3947 20:0.2676 21:1.17 22:0.2222 23:0.4815 24:11 
-0.004411659558365842 1:4 2:1 3:2 4:3 5:24 6:0.25 7:1 8:12 9:1 10:0.4167 11:0.2083 12:0.3333 13:12 14:1 15:0.2391 16:0.3478 17:0.1087 18:0.1304 19:0.413 20:0.3171 21:1.11 22:0.2083 23:0.3333 24:26 
-0.01081036317430869 1:3 2:1 3:2 4:3 5:23 6:0.2609 7:1 8:12 9:1 10:0.4348 11:0.2174 12:0.3043 13:11 14:1 15:0.25 16:0.3409 17:0.1136 18:0.1364 19:0.4091 20:0.3333 21:1.11 22:0.2 23:0.3333 24:27 
-0.01990459896546522 1:1 2:1 3:2 4:3 5:23 6:0.2174 7:0 8:12 9:1 10:0.4783 11:0.1304 12:0.3043 13:11 14:1 15:0.25 16:0.3462 17:0.1154 18:0.1346 19:0.4038 20:0.2766 21:4.5 22:0.2381 23:0.1429 24:23 
-1 1:4 2:3 3:-1 4:0 5:20 6:0.3 7:0 8:1 9:2 10:0.35 11:0.1 12:0.35 13:18 14:4 15:0.3714 16:0.3286 17:0.1571 18:0.2143 19:0.3 20:0.1562 21:1.43 22:0 23:0.25 24:13 
-0.3482455830969604 1:4 2:4 3:1 4:1 5:24 6:0.3478 7:0 8:1 9:2 10:0.3043 11:0.087 12:0.3478 13:22 14:3 15:0.3704 16:0.3333 17:0.2099 18:0.1605 19:0.2963 20:0.1233 21:0.82 22:0.0588 23:0.2308 24:19 
-0.8122453528749453 1:4 2:4 3:1 4:2 5:21 6:0.3333 7:0 8:1 9:1 10:0.3333 11:0.0952 12:0.3333 13:20 14:1 15:0.3684 16:0.3289 17:0.2105 18:0.1579 19:0.3026 20:0.1176 21:0.82 22:0.0769 23:0.2308 24:22 
-0.611525635907235 1:4 2:4 3:-1 4:0 5:23 6:0.3478 7:2 8:1 9:2 10:0.2609 11:0.1739 12:0.3913 13:21 14:4 15:0.3304 16:0.3304 17:0.1739 18:0.1565 19:0.3391 20:0.1028 21:0.55 22:-1 23:0.129 24:1 
-1 1:4 2:3 3:-1 4:0 5:22 6:0.2727 7:2 8:2 9:2 10:0.3636 11:0.1364 12:0.3636 13:19 14:4 15:0.2617 16:0.3738 17:0.1121 18:0.1495 19:0.3645 20:0.1569 21:0.89 22:0 23:0.2 24:4 
-0.5705738882562368 1:4 2:3 3:-1 4:0 5:20 6:0.3 7:2 8:2 9:2 10:0.3 11:0.15 12:0.4 13:17 14:2 15:0.2737 16:0.3684 17:0.1158 18:0.1579 19:0.3579 20:0.1778 21:0.89 22:0 23:0.2308 24:10 
-1 1:4 2:3 3:-1 4:0 5:22 6:0.1818 7:2 8:2 9:2 10:0.3636 11:0.1364 12:0.4545 13:19 14:4 15:0.2667 16:0.3714 17:0.1143 18:0.1524 19:0.3619 20:0.16 21:1.12 22:0 23:0.2069 24:5 
-0.2013869928675978 1:1 2:-1 3:6 4:3 5:21 6:0.3333 7:1 8:2 9:4 10:0.3333 11:0.1905 12:0.3333 13:16 14:3 15:0.4286 16:0.3061 17:0.1429 18:0.2857 19:0.2653 20:0.2 21:0.88 22:0.2308 23:-1 24:36 
-0.763141758809497 1:4 2:2 3:2 4:1 5:23 6:0.1818 7:1 8:4 9:2 10:0.4091 11:0.0909 12:0.4091 13:18 14:3 15:0.3431 16:0.3039 17:0.1373 18:0.2059 19:0.3529 20:0.2043 21:2.67 22:0.3333 23:0.24 24:9 
