svm_type c_svc
kernel_type rbf
gamma 0.0434783
nr_class 2
total_sv 548
rho 0.404204
label 1 0
probA -2.70473
probB -0.314559
nr_sv 209 339
SV
1 1:1 2:2 3:6 4:23 5:0.3043 6:2 7:2 8:0.2609 9:0.1304 10:0.1739 11:0.4348 12:18 13:0.0909 14:2 15:0.3051 16:59 17:0.2712 18:0.1017 19:0.2034 20:0.4237 21:0.1111 22:1.4 23:0.3333 
0.3241941672467613 1:1 2:2 3:6 4:25 5:0.3043 6:2 7:2 8:0.3478 9:0.087 10:0.2174 11:0.3478 12:56 13:0.0833 14:1 15:0.2857 16:63 17:0.2857 18:0.0952 19:0.1905 20:0.4286 21:0.1034 22:1.5 23:0.3333 
1 1:9 2:2 3:15 4:21 5:0.381 6:1 7:2 8:0.2381 9:0 10:0.381 11:0.381 12:20 13:0.0952 14:3 15:0.4091 16:66 17:0.303 18:0.1515 19:0.2576 20:0.2879 21:0.2258 22:0.78 23:0.5 
1 1:9 2:2 3:16 4:22 5:0.4545 6:2 7:2 8:0.1818 9:0.3182 10:0.1364 11:0.3636 12:66 13:0.1364 14:4 15:0.4286 16:70 17:0.2857 18:0.1714 19:0.2571 20:0.2857 21:0.2424 22:1.8 23:0.4545 
0.6086004974319024 1:1 2:1 3:4 4:21 5:0.4286 6:5 7:2 8:0.2381 9:0.2381 10:0.1905 11:0.3333 12:12 13:0.381 14:4 15:0.5094 16:53 17:0.2264 18:0.2642 19:0.2453 20:0.2642 21:0.3469 22:0.2 23:0.1429 
0.7408721503644421 1:-1 2:0 3:4 4:26 5:0.375 6:3 7:4 8:0.3333 9:0.2917 10:0.0833 11:0.2917 12:49 13:0.2083 14:3 15:0.3438 16:64 17:0.2656 18:0.1719 19:0.1719 20:0.3906 21:0.1786 22:1.25 23:0 
0.1916705215982508 1:1 2:1 3:3 4:23 5:0.5455 6:4 7:3 8:0.1364 9:0.3636 10:0.1818 11:0.3182 12:64 13:0.3333 14:4 15:0.4219 16:64 17:0.1875 18:0.2344 19:0.1875 20:0.3906 21:0.3061 22:1.4 23:0.3333 
0.6580601730733262 1:1 2:1 3:3 4:23 5:0.3182 6:2 7:5 8:0.3182 9:0.1364 10:0.1818 11:0.3636 12:55 13:0.2444 14:3 15:0.3833 16:60 17:0.3 18:0.15 19:0.2333 20:0.3167 21:0.2245 22:1 23:0.3333 
0.03284790648785804 1:-1 2:0 3:2 4:21 5:0.4286 6:2 7:4 8:0.2381 9:0.2381 10:0.1905 11:0.3333 12:50 13:0.2381 14:4 15:0.5 16:58 17:0.2069 18:0.2931 19:0.2069 20:0.2931 21:0.2174 22:1.4 23:0 
0.08482818989592492 1:1 2:2 3:4 4:23 5:0.4545 6:2 7:2 8:0.2273 9:0.1364 10:0.3182 11:0.3182 12:14 13:0.1111 14:4 15:0.4364 16:55 17:0.2727 18:0.2364 19:0.2 20:0.2909 21:0.12 22:1.43 23:0.4286 
0.4958685878705342 1:1 2:2 3:4 4:26 5:0.5417 6:3 7:3 8:0.3333 9:0.1667 10:0.375 11:0.125 12:45 13:0.1837 14:4 15:0.4918 16:61 17:0.2295 18:0.2459 19:0.2459 20:0.2787 21:0.1852 22:0.67 23:0.4286 
0.3756403988147772 1:1 2:1 3:4 4:25 5:0.2609 6:2 7:4 8:0.2174 9:0.0435 10:0.2174 11:0.5217 12:17 13:0.2174 14:2 15:0.3333 16:60 17:0.25 18:0.1333 19:0.2 20:0.4167 21:0.2222 22:1.12 23:0.25 
0.3354941080814731 1:1 2:1 3:5 4:26 5:0.4167 6:2 7:5 8:0.3333 9:0.2917 10:0.125 11:0.25 12:55 13:0.25 14:4 15:0.3594 16:64 17:0.2344 18:0.1562 19:0.2031 20:0.4062 21:0.2414 22:0.75 23:0.2 
1 1:9 2:1 3:20 4:22 5:0.3333 6:2 7:4 8:0.5238 9:0.0952 10:0.2381 11:0.1429 12:64 13:0.2381 14:3 15:0.3896 16:77 17:0.3377 18:0.1948 19:0.1948 20:0.2727 21:0.2603 22:1.5 23:0.2903 
0.6006691992623033 1:1 2:1 3:2 4:21 5:0.5238 6:3 7:2 8:0.0952 9:0.4286 10:0.0952 11:0.381 12:16 13:0.1905 14:4 15:0.386 16:57 17:0.2807 18:0.193 19:0.193 20:0.3333 21:0.1818 22:1 23:0.5 
1 1:1 2:4 3:10 4:21 5:0.5238 6:3 7:3 8:0.2381 9:0.2381 10:0.2857 11:0.2381 12:15 13:0.2683 14:2 15:0.459 16:61 17:0.2459 18:0.2295 19:0.2295 20:0.2951 21:0.25 22:0.3 23:0.2941 
1 1:3 2:5 3:21 4:20 5:0.65 6:3 7:3 8:0.1 9:0.4 10:0.25 11:0.25 12:8 13:0.3158 14:3 15:0.6184 16:76 17:0.1579 18:0.3289 19:0.2895 20:0.2237 21:0.2877 22:0.73 23:0.2973 
1 1:15 2:2 3:29 4:23 5:0.3913 6:4 7:2 8:0.3043 9:0.2609 10:0.1304 11:0.3043 12:93 13:0.2 14:4 15:0.4144 16:111 17:0.2613 18:0.2523 19:0.1622 20:0.3243 21:0.4175 22:1 23:0.5862 
0.7713241492444611 1:-1 2:0 3:4 4:23 5:0.4091 6:2 7:3 8:0.2727 9:0.1364 10:0.2727 11:0.3182 12:62 13:0.1556 14:3 15:0.4211 16:57 17:0.2807 18:0.193 19:0.2281 20:0.2982 21:0.1321 22:1.25 23:0 
0.2597895698832106 1:2 2:2 3:7 4:22 5:0.4286 6:2 7:3 8:0.1905 9:0.0952 10:0.3333 11:0.381 12:42 13:0.1628 14:3 15:0.3729 16:59 17:0.2712 18:0.1356 19:0.2373 20:0.3559 21:0.1852 22:1.11 23:0.3846 
1 1:-1 2:0 3:2 4:22 5:0.381 6:2 7:4 8:0.2381 9:0.1905 10:0.1905 11:0.381 12:28 13:0.1707 14:3 15:0.3396 16:53 17:0.283 18:0.1509 19:0.1887 20:0.3774 21:0.1556 22:1 23:0 
1 1:-1 2:0 3:2 4:24 5:0.3636 6:2 7:4 8:0.3182 9:0.1364 10:0.2273 11:0.3182 12:61 13:0.1556 14:1 15:0.3158 16:57 17:0.2982 18:0.1404 19:0.1754 20:0.386 21:0.1429 22:1.11 23:0 
1 1:2 2:2 3:6 4:23 5:0.3478 6:3 7:3 8:0.3043 9:0.2174 10:0.1304 11:0.3478 12:23 13:0.2444 14:2 15:0.386 16:57 17:0.2632 18:0.193 19:0.193 20:0.3509 21:0.2593 22:0.56 23:0.4545 
0.5713455922249498 1:1 2:1 3:9 4:23 5:0.5238 6:4 7:3 8:0.0476 9:0.1905 10:0.3333 11:0.4286 12:13 13:0.3171 14:1 15:0.4603 16:63 17:0.1746 18:0.1746 19:0.2857 20:0.3651 21:0.2542 22:1.8 23:0.1111 
1 1:-1 2:0 3:0 4:30 5:0.5909 6:6 7:4 8:0.2727 9:0.2273 10:0.3636 11:0.1364 12:18 13:0.3208 14:3 15:0.5556 16:54 17:0.2037 18:0.2593 19:0.2963 20:0.2407 21:0.2653 22:1.2 23:-1 
0.4902056480388381 1:1 2:1 3:5 4:23 5:0.4545 6:3 7:3 8:0.2273 9:0.1818 10:0.2727 11:0.3182 12:62 13:0.2273 14:4 15:0.4921 16:63 17:0.2063 18:0.1905 19:0.3016 20:0.3016 21:0.1923 22:5 23:0.2 
1 1:3 2:5 3:24 4:23 5:0.65 6:3 7:4 8:0.05 9:0.2 10:0.45 11:0.3 12:80 13:0.2381 14:3 15:0.5824 16:91 17:0.2088 18:0.2857 19:0.2967 20:0.2088 21:0.2791 22:0.88 23:0.3478 
1 1:4 2:3 3:26 4:28 5:0.6 6:8 7:4 8:0.3 9:0.35 10:0.25 11:0.1 12:5 13:0.3043 14:2 15:0.6633 16:98 17:0.1939 18:0.3265 19:0.3367 20:0.1429 21:0.2903 22:0.64 23:0.3061 
1 1:-1 2:0 3:0 4:23 5:0.4 6:4 7:5 8:0.4 9:0.1 10:0.3 11:0.2 12:52 13:0.3953 14:1 15:0.5111 16:45 17:0.2222 18:0.2 19:0.3111 20:0.2667 21:0.3659 22:0.83 23:-1 
1 1:4 2:3 3:15 4:22 5:0.35 6:4 7:3 8:0.25 9:0.1 10:0.25 11:0.4 12:68 13:0.2381 14:1 15:0.4545 16:77 17:0.2468 18:0.2208 19:0.2338 20:0.2987 21:0.3235 22:0.89 23:0.5 
0.3561437252207988 1:-1 2:0 3:1 4:23 5:0.4783 6:2 7:4 8:0.2174 9:0.3478 10:0.1304 11:0.3043 12:47 13:0.2 14:1 15:0.4754 16:61 17:0.2623 18:0.2459 19:0.2295 20:0.2623 21:0.1915 22:0.89 23:0 
0.2955874852212425 1:-1 2:0 3:0 4:22 5:0.4091 6:2 7:1 8:0.3636 9:0.1364 10:0.2727 11:0.2273 12:11 13:0.0909 14:4 15:0.4815 16:54 17:0.2593 18:0.2222 19:0.2593 20:0.2593 21:0.0909 22:1.8 23:-1 
0.1106094623800628 1:-1 2:0 3:0 4:24 5:0.7391 6:2 7:4 8:0.1304 9:0.4348 10:0.3043 11:0.1304 12:16 13:0.2174 14:3 15:0.6607 16:56 17:0.1786 18:0.3571 19:0.3036 20:0.1607 21:0.2174 22:1.2 23:-1 
1 1:1 2:1 3:6 4:32 5:0.4167 6:8 7:3 8:0.4167 9:0.2083 10:0.2083 11:0.1667 12:11 13:0.3333 14:1 15:0.3623 16:69 17:0.3043 18:0.1739 19:0.1884 20:0.3333 21:0.2812 22:0 23:0.1667 
1 1:8 2:2 3:16 4:24 5:0.2727 6:4 7:2 8:0.1364 9:0.0909 10:0.1818 11:0.5909 12:60 13:0.2174 14:1 15:0.3425 16:73 17:0.3151 18:0.1644 19:0.1781 20:0.3425 21:0.2647 22:2 23:0.4167 
0.6727965761444901 1:1 2:2 3:7 4:21 5:0.5 6:1 7:1 8:0.3 9:0.3 10:0.2 11:0.2 12:11 13:0.0244 14:4 15:0.5455 16:55 17:0.2364 18:0.2727 19:0.2727 20:0.2182 21:0.0385 22:1.11 23:0.2308 
0.05144434591372316 1:1 2:2 3:7 4:23 5:0.5652 6:2 7:2 8:0.1739 9:0.1739 10:0.3913 11:0.2609 12:45 13:0.0698 14:3 15:0.5439 16:57 17:0.2456 18:0.2632 19:0.2807 20:0.2105 21:0.0741 22:1.8 23:0.2308 
1 1:-1 2:0 3:1 4:34 5:0.25 6:12 7:4 8:0.4167 9:0.0833 10:0.1667 11:0.3333 12:11 13:0.3684 14:3 15:0.2698 16:63 17:0.3016 18:0.0952 19:0.1746 20:0.4286 21:0.3559 22:1.25 23:0 
1 1:11 2:1 3:14 4:23 5:0.2727 6:3 7:4 8:0.1818 9:0.1364 10:0.1364 11:0.5455 12:54 13:0.2444 14:4 15:0.2687 16:67 17:0.3134 18:0.1045 19:0.1642 20:0.4179 21:0.3651 22:1.2 23:0.6667 
0.4878462355375469 1:-1 2:0 3:0 4:22 5:0.4545 6:1 7:1 8:0.2273 9:0.1818 10:0.2727 11:0.3182 12:11 13:0.0455 14:2 15:0.4038 16:52 17:0.25 18:0.2115 19:0.1923 20:0.3462 21:0.0455 22:0.78 23:-1 
1 1:5 2:2 3:13 4:22 5:0.3182 6:1 7:1 8:0.3182 9:0.1364 10:0.1818 11:0.3636 12:11 13:0.0455 14:3 15:0.3553 16:76 17:0.2763 18:0.1316 19:0.2237 20:0.3684 21:0.1765 22:1.25 23:0.4167 
1 1:5 2:2 3:14 4:22 5:0.3182 6:1 7:2 8:0.2727 9:0.0909 10:0.2273 11:0.4091 12:66 13:0.0909 14:1 15:0.359 16:78 17:0.2692 18:0.141 19:0.2179 20:0.3718 21:0.2 22:1.12 23:0.3846 
0.4173206099557157 1:-1 2:0 3:1 4:23 5:0.5 6:2 7:3 8:0.2727 9:0.1818 10:0.3182 11:0.2273 12:16 13:0.2 14:1 15:0.4545 16:55 17:0.2727 18:0.2182 19:0.2364 20:0.2727 21:0.1915 22:0.8 23:0 
1 1:1 2:1 3:2 4:24 5:0.375 6:4 7:4 8:0.3333 9:0.0833 10:0.2917 11:0.2917 12:11 13:0.2727 14:3 15:0.449 16:49 17:0.2245 18:0.1837 19:0.2653 20:0.3265 21:0.2609 22:0.5 23:0.5 
1 1:1 2:1 3:2 4:24 5:0.45 6:4 7:4 8:0.15 9:0.25 10:0.2 11:0.4 12:40 13:0.2727 14:2 15:0.449 16:49 17:0.2245 18:0.1837 19:0.2653 20:0.3265 21:0.2609 22:2 23:0.5 
1 1:4 2:3 3:18 4:21 5:0.4286 6:4 7:3 8:0.1429 9:0.0952 10:0.3333 11:0.4286 12:66 13:0.3 14:2 15:0.4675 16:77 17:0.1948 18:0.1818 19:0.2857 20:0.3377 21:0.2754 22:1 23:0.2414 
0.4856960619519696 1:1 2:1 3:7 4:22 5:0.5 6:1 7:1 8:0.3636 9:0.1364 10:0.3636 11:0.1364 12:11 13:0.0233 14:1 15:0.5574 16:61 17:0.2131 18:0.2787 19:0.2787 20:0.2295 21:0.0526 22:1.33 23:0.1429 
0.09742898189168664 1:-1 2:0 3:1 4:23 5:0.6087 6:1 7:1 8:0.1304 9:0.3043 10:0.3043 11:0.2609 12:11 13:0.0435 14:1 15:0.4828 16:58 17:0.2586 18:0.2414 19:0.2414 20:0.2586 21:0.0417 22:0.82 23:0 
0.3633779457739865 1:-1 2:0 3:4 4:20 5:0.55 6:2 7:4 8:0.15 9:0.2 10:0.35 11:0.3 12:11 13:0.2632 14:3 15:0.6296 16:54 17:0.1481 18:0.2037 19:0.4259 20:0.2222 21:0.2174 22:1.75 23:0 
0.1400101489375216 1:2 2:1 3:5 4:22 5:0.3182 6:4 7:3 8:0.5 9:0.1818 10:0.1364 11:0.1818 12:46 13:0.2857 14:1 15:0.3559 16:59 17:0.3051 18:0.2034 19:0.1525 20:0.339 21:0.2941 22:2 23:0.3333 
0.1378092240189878 1:2 2:1 3:5 4:21 5:0.3333 6:3 7:3 8:0.5238 9:0.1905 10:0.1429 11:0.1429 12:46 13:0.2683 14:1 15:0.3621 16:58 17:0.3103 18:0.2069 19:0.1552 20:0.3276 21:0.28 22:2 23:0.3333 
1 1:8 2:2 3:21 4:22 5:0.619 6:1 7:1 8:0.0952 9:0.2381 10:0.381 11:0.2857 12:14 13:0.0233 14:4 15:0.4578 16:83 17:0.253 18:0.1928 19:0.2651 20:0.2892 21:0.2152 22:1.11 23:0.4444 
1 1:8 2:2 3:22 4:23 5:0.3913 6:1 7:2 8:0.3478 9:0.2174 10:0.1739 11:0.2609 12:76 13:0.0455 14:3 15:0.4535 16:86 17:0.2558 18:0.1977 19:0.2558 20:0.2907 21:0.2195 22:1.14 23:0.4211 
0.709401315254211 1:4 2:3 3:14 4:22 5:0.4286 6:2 7:5 8:0.2857 9:0 10:0.4286 11:0.2857 12:63 13:0.3023 14:4 15:0.3973 16:73 17:0.1781 18:0.137 19:0.2603 20:0.4247 21:0.3235 22:1.4 23:0.4074 
1 1:3 2:2 3:15 4:22 5:0.2273 6:2 7:3 8:0.5 9:0.0909 10:0.1364 11:0.2727 12:11 13:0.1905 14:4 15:0.2466 16:73 17:0.3836 18:0.0959 19:0.1507 20:0.3699 21:0.2464 22:2.5 23:0.3333 
1 1:3 2:1 3:12 4:27 5:0.2727 6:5 7:3 8:0.3636 9:0.1364 10:0.1364 11:0.3636 12:64 13:0.2245 14:1 15:0.2338 16:77 17:0.3896 18:0.0909 19:0.1429 20:0.3766 21:0.2329 22:1 23:0.25 
1 1:2 2:3 3:14 4:24 5:0.55 6:4 7:4 8:0.2 9:0.25 10:0.3 11:0.25 12:64 13:0.381 14:3 15:0.5694 16:72 17:0.1667 18:0.2778 19:0.2917 20:0.2639 21:0.303 22:0.78 23:0.1667 
0.1470247362424072 1:1 2:2 3:7 4:23 5:0.6087 6:2 7:3 8:0.2174 9:0.2609 10:0.3478 11:0.1739 12:47 13:0.1556 14:2 15:0.5574 16:61 17:0.1639 18:0.2623 19:0.2951 20:0.2787 21:0.1429 22:0.8 23:0.2308 
1 1:-1 2:0 3:1 4:22 5:0.5909 6:2 7:1 8:0.2273 9:0.2273 10:0.3636 11:0.1818 12:44 13:0.0909 14:4 15:0.5185 16:54 17:0.2407 18:0.2407 19:0.2778 20:0.2407 21:0.087 22:2 23:0 
0.6420385349434214 1:1 2:1 3:2 4:22 5:0.3636 6:-1 7:0 8:0.3636 9:0.0455 10:0.3182 11:0.2727 12:11 13:0 14:1 15:0.3396 16:53 17:0.3208 18:0.1698 19:0.1698 20:0.3396 21:0 22:1 23:0.5 
1 1:-1 2:0 3:6 4:28 5:0.375 6:3 7:6 8:0.25 9:0.0833 10:0.2917 11:0.375 12:11 13:0.3878 14:1 15:0.4615 16:65 17:0.2154 18:0.1385 19:0.3231 20:0.3231 21:0.3115 22:0.5 23:0 
0.4796575886776892 1:2 2:1 3:6 4:23 5:0.5455 6:3 7:5 8:0.2727 9:0.2273 10:0.3182 11:0.1818 12:11 13:0.3023 14:4 15:0.5593 16:59 17:0.2373 18:0.3051 19:0.2542 20:0.2034 21:0.283 22:1.33 23:0.2 
1 1:-1 2:0 3:2 4:27 5:0.2727 6:4 7:3 8:0.2727 9:0.1364 10:0.1364 11:0.4545 12:47 13:0.2245 14:4 15:0.2807 16:57 17:0.3684 18:0.1404 19:0.1404 20:0.3509 21:0.2075 22:1.8 23:0 
0.9653583776377961 1:1 2:2 3:8 4:23 5:0.3636 6:4 7:2 8:0.3636 9:0.3182 10:0.0455 11:0.2727 12:53 13:0.2 14:4 15:0.4603 16:63 17:0.2857 18:0.2381 19:0.2222 20:0.254 21:0.1724 22:0.33 23:0.2 
1 1:2 2:2 3:12 4:21 5:0.4762 6:4 7:3 8:0.3333 9:0.2381 10:0.2381 11:0.1905 12:71 13:0.3659 14:1 15:0.4928 16:69 17:0.2174 18:0.2029 19:0.2899 20:0.2899 21:0.3016 22:0.83 23:0.1818 
1 1:7 2:1 3:12 4:25 5:0.6818 6:2 7:6 8:0.1364 9:0.2727 10:0.4091 11:0.1818 12:72 13:0.3191 14:2 15:0.5541 16:74 17:0.2568 18:0.2432 19:0.3108 20:0.1892 21:0.3824 22:2.4 23:0.5238 
1 1:-1 2:0 3:4 4:22 5:0.45 6:7 7:2 8:0.35 9:0.15 10:0.3 11:0.2 12:60 13:0.3333 14:2 15:0.5152 16:66 17:0.2879 18:0.2273 19:0.2879 20:0.197 21:0.28 22:2.2 23:0 
0.412933844868902 1:1 2:2 3:4 4:23 5:0.4545 6:3 7:2 8:0.1364 9:0.2273 10:0.2273 11:0.4091 12:40 13:0.1364 14:3 15:0.4386 16:57 17:0.2632 18:0.2105 19:0.2281 20:0.2982 21:0.16 22:1.11 23:0.5 
1 1:1 2:2 3:4 4:23 5:0.5 6:3 7:2 8:0.3182 9:0.2273 10:0.2727 11:0.1818 12:5 13:0.1364 14:1 15:0.4386 16:57 17:0.2632 18:0.2105 19:0.2281 20:0.2982 21:0.16 22:0.9 23:0.5 
1 1:2 2:3 3:13 4:23 5:0.45 6:4 7:4 8:0.4 9:0.2 10:0.25 11:0.15 12:61 13:0.3333 14:3 15:0.4493 16:69 17:0.3333 18:0.1594 19:0.2899 20:0.2174 21:0.2923 22:1 23:0.2174 
0.5129718708783272 1:-1 2:0 3:3 4:22 5:0.4545 6:4 7:3 8:0.3182 9:0.1818 10:0.2727 11:0.2273 12:54 13:0.2727 14:1 15:0.4844 16:64 17:0.1719 18:0.25 19:0.2344 20:0.3438 21:0.24 22:1 23:0 
0.7978614674236812 1:5 2:2 3:10 4:24 5:0.3636 6:3 7:3 8:0.3182 9:0.1818 10:0.1818 11:0.3182 12:53 13:0.2444 14:2 15:0.4462 16:65 17:0.2615 18:0.2462 19:0.2 20:0.2923 21:0.3226 22:1 23:0.5789 
0.2187227422612125 1:1 2:1 3:6 4:22 5:0.6364 6:1 7:1 8:0.0909 9:0.2727 10:0.3636 11:0.2727 12:44 13:0.0455 14:4 15:0.5932 16:59 17:0.2203 18:0.2881 19:0.3051 20:0.1864 21:0.037 22:1 23:0.1667 
1 1:3 2:3 3:14 4:23 5:0.5217 6:4 7:3 8:0.2174 9:0.1304 10:0.3913 11:0.2609 12:11 13:0.2727 14:4 15:0.5479 16:73 17:0.274 18:0.1918 19:0.3562 20:0.1781 21:0.3235 22:1.1 23:0.4615 
0.5899092454920506 1:2 2:2 3:8 4:23 5:0.4545 6:2 7:4 8:0.2727 9:0.2727 10:0.1818 11:0.2727 12:55 13:0.2444 14:1 15:0.4032 16:62 17:0.2903 18:0.1935 19:0.2097 20:0.3065 21:0.2542 22:1 23:0.375 
0.009389093373364771 1:-1 2:0 3:1 4:23 5:0.5 6:1 7:2 8:0.2273 9:0.1364 10:0.3636 11:0.2727 12:10 13:0.0667 14:4 15:0.5088 16:57 17:0.2281 18:0.193 19:0.3158 20:0.2632 21:0.0638 22:1.29 23:0 
0.4354514201628754 1:-1 2:0 3:3 4:23 5:0.4348 6:1 7:2 8:0.2174 9:0.2174 10:0.2174 11:0.3478 12:46 13:0.0667 14:1 15:0.5082 16:61 17:0.2295 18:0.1967 19:0.3115 20:0.2623 21:0.0588 22:0.7 23:0 
1 1:2 2:1 3:5 4:21 5:0.4762 6:1 7:3 8:0.2381 9:0.1905 10:0.2857 11:0.2857 12:29 13:0.1429 14:2 15:0.6111 16:54 17:0.1481 18:0.2963 19:0.3148 20:0.2407 21:0.16 22:0.7 23:0.25 
1 1:2 2:1 3:6 4:21 5:0.7143 6:1 7:3 8:0.1429 9:0.4286 10:0.2857 11:0.1429 12:63 13:0.1429 14:2 15:0.625 16:56 17:0.1429 18:0.3036 19:0.3214 20:0.2321 21:0.1538 22:1.43 23:0.2 
1 1:3 2:3 3:10 4:23 5:0.5217 6:3 7:3 8:0.2174 9:0.2609 10:0.2609 11:0.2609 12:16 13:0.2174 14:2 15:0.5606 16:66 17:0.1818 18:0.3182 19:0.2424 20:0.2576 21:0.2459 22:0.8 23:0.4118 
1 1:3 2:3 3:12 4:20 5:0.5 6:3 7:2 8:0.25 9:0.3 10:0.2 11:0.25 12:61 13:0.2 14:1 15:0.5625 16:64 17:0.1719 18:0.3125 19:0.25 20:0.2656 21:0.2203 22:1 23:0.3333 
0.492446285251489 1:1 2:1 3:2 4:25 5:0.6818 6:2 7:4 8:0.0455 9:0.3636 10:0.3182 11:0.2727 12:15 13:0.1915 14:3 15:0.5484 16:62 17:0.2097 18:0.2419 19:0.3065 20:0.2419 21:0.1837 22:0.88 23:0.5 
1 1:1 2:1 3:2 4:22 5:0.5 6:2 7:3 8:0.2727 9:0.1818 10:0.3182 11:0.2273 12:52 13:0.1429 14:3 15:0.5439 16:57 17:0.2105 18:0.2281 19:0.3158 20:0.2456 21:0.1364 22:0.89 23:0.5 
0.9498580787818478 1:1 2:1 3:2 4:21 5:0.5714 6:2 7:2 8:0.2857 9:0.1905 10:0.381 11:0.1429 12:21 13:0.122 14:1 15:0.5 16:56 17:0.2679 18:0.2143 19:0.2857 20:0.2321 21:0.1163 22:0.82 23:0.5 
0.2376675648729012 1:1 2:1 3:3 4:23 5:0.6364 6:2 7:3 8:0.1364 9:0.3182 10:0.3182 11:0.2273 12:58 13:0.2 14:3 15:0.5 16:62 17:0.2903 18:0.2097 19:0.2903 20:0.2097 21:0.1837 22:1.67 23:0.3333 
1 1:-1 2:0 3:1 4:22 5:0.3636 6:3 7:2 8:0.2727 9:0.0909 10:0.2727 11:0.3636 12:19 13:0.1628 14:3 15:0.4154 16:65 17:0.3077 18:0.2 19:0.2154 20:0.2769 21:0.1556 22:1 23:0 
1 1:-1 2:0 3:2 4:23 5:0.5 6:3 7:3 8:0.2727 9:0.2727 10:0.2273 11:0.2273 12:64 13:0.2 14:3 15:0.4348 16:69 17:0.3043 18:0.2174 19:0.2174 20:0.2609 21:0.1837 22:1.12 23:0 
1 1:-1 2:0 3:1 4:21 5:0.4286 6:3 7:2 8:0.2857 9:0.3333 10:0.0952 11:0.2857 12:28 13:0.1707 14:2 15:0.3878 16:49 17:0.2653 18:0.2245 19:0.1633 20:0.3469 21:0.1628 22:0.38 23:0 
1 1:-1 2:0 3:2 4:22 5:0.381 6:3 7:2 8:0.2381 9:0.0476 10:0.3333 11:0.381 12:58 13:0.1628 14:3 15:0.434 16:53 17:0.2453 18:0.2453 19:0.1887 20:0.3208 21:0.1489 22:1.5 23:0 
1 1:-1 2:0 3:1 4:21 5:0.381 6:2 7:2 8:0.2857 9:0.2857 10:0.0952 11:0.3333 12:21 13:0.122 14:2 15:0.3878 16:49 17:0.2449 18:0.2041 19:0.1837 20:0.3673 21:0.1163 22:0.62 23:0 
0.32344844062399 1:2 2:3 3:12 4:26 5:0.5 6:2 7:4 8:0.4091 9:0.0909 10:0.4091 11:0.0909 12:10 13:0.125 14:4 15:0.3784 16:74 17:0.2568 18:0.0946 19:0.2838 20:0.3649 21:0.1594 22:1.25 23:0.3043 
1 1:-1 2:0 3:3 4:35 5:0.5909 6:7 7:6 8:0.2273 9:0.4545 10:0.1364 11:0.1818 12:70 13:0.2982 14:3 15:0.5325 16:77 17:0.2338 18:0.3247 19:0.2078 20:0.2338 21:0.2698 22:0.91 23:0 
1 1:5 2:5 3:32 4:24 5:0.2174 6:3 7:3 8:0.3913 9:0.1304 10:0.087 11:0.3913 12:84 13:0.3043 14:4 15:0.3585 16:106 17:0.2547 18:0.1226 19:0.2358 20:0.3868 21:0.3725 22:2.33 23:0.4286 
1 1:3 2:5 3:26 4:24 5:0.3636 6:3 7:4 8:0.2727 9:0.3182 10:0.0455 11:0.3636 12:6 13:0.2093 14:2 15:0.4688 16:96 17:0.2083 18:0.2188 19:0.25 20:0.3229 21:0.2667 22:1 23:0.3191 
1 1:2 2:4 3:23 4:24 5:0.4762 6:3 7:5 8:0.1905 9:0.1429 10:0.3333 11:0.3333 12:78 13:0.3333 14:2 15:0.4667 16:90 17:0.2111 18:0.2222 19:0.2444 20:0.3222 21:0.2857 22:0.67 23:0.2381 
1 1:2 2:3 3:13 4:27 5:0.5417 6:4 7:4 8:0.125 9:0.2917 10:0.25 11:0.3333 12:10 13:0.32 14:3 15:0.6203 16:79 17:0.1772 18:0.3291 19:0.2911 20:0.2025 21:0.2778 22:0.8 23:0.25 
1 1:6 2:3 3:24 4:26 5:0.375 6:4 7:4 8:0.1667 9:0.25 10:0.125 11:0.4583 12:4 13:0.3191 14:2 15:0.5319 16:94 17:0.1702 18:0.1702 19:0.3617 20:0.2979 21:0.3647 22:0.7 23:0.45 
1 1:3 2:2 3:15 4:26 5:0.625 6:4 7:4 8:0.125 9:0.4583 10:0.1667 11:0.25 12:63 13:0.3333 14:1 15:0.5926 16:81 17:0.1852 18:0.3333 19:0.2593 20:0.2222 21:0.3333 22:0.73 23:0.3333 
1 1:5 2:4 3:30 4:25 5:0.375 6:3 7:6 8:0.2083 9:0.1667 10:0.2083 11:0.4167 12:3 13:0.3333 14:1 15:0.4135 16:104 17:0.2692 18:0.1827 19:0.2308 20:0.3173 21:0.3061 22:0.86 23:0.283 
0.2249956716278887 1:4 2:3 3:13 4:24 5:0.2273 6:2 7:4 8:0.4545 9:0.0455 10:0.1818 11:0.3182 12:65 13:0.2609 14:4 15:0.3514 16:74 17:0.2568 18:0.1622 19:0.1892 20:0.3919 21:0.2836 22:1.33 23:0.3913 
1 1:4 2:4 3:32 4:24 5:0.3478 6:3 7:5 8:0.2609 9:0.1739 10:0.1739 11:0.3913 12:2 13:0.2727 14:3 15:0.463 16:108 17:0.2222 18:0.2315 19:0.2315 20:0.3148 21:0.2157 22:4 23:0.1724 
1 1:1 2:3 3:15 4:21 5:0.5238 6:2 7:4 8:0.3333 9:0.2381 10:0.2857 11:0.1429 12:73 13:0.2381 14:1 15:0.4932 16:73 17:0.3014 18:0.2192 19:0.274 20:0.2055 21:0.2 22:1.38 23:0.2 
1 1:8 2:2 3:24 4:25 5:0.3478 6:3 7:5 8:0.3478 9:0.087 10:0.2609 11:0.3043 12:74 13:0.3191 14:2 15:0.3636 16:88 17:0.2727 18:0.1932 19:0.1705 20:0.3636 21:0.3415 22:1.8 23:0.3714 
1 1:1 2:1 3:6 4:29 5:0.4348 6:3 7:5 8:0.2174 9:0.2609 10:0.1739 11:0.3478 12:57 13:0.2308 14:3 15:0.3385 16:65 17:0.2769 18:0.1385 19:0.2 20:0.3846 21:0.1935 22:0.91 23:0.1667 
0.8952919234834424 1:3 2:1 3:9 4:25 5:0.4762 6:3 7:4 8:0.4286 9:0.1429 10:0.3333 11:0.0952 12:51 13:0.2093 14:3 15:0.5 16:64 17:0.2812 18:0.2344 19:0.2656 20:0.2188 21:0.2333 22:1.38 23:0.2941 
1 1:1 2:1 3:7 4:29 5:0.25 6:3 7:6 8:0.375 9:0.0833 10:0.1667 11:0.375 12:66 13:0.3962 14:4 15:0.3194 16:72 17:0.2639 18:0.1389 19:0.1806 20:0.4167 21:0.3231 22:1.75 23:0.1429 
0.6328718802974141 1:3 2:2 3:8 4:24 5:0.4348 6:3 7:4 8:0.2174 9:0.1739 10:0.2609 11:0.3478 12:56 13:0.2273 14:1 15:0.4545 16:66 17:0.2576 18:0.2121 19:0.2424 20:0.2879 21:0.2364 22:0.5 23:0.3846 
0.5173571736008183 1:4 2:1 3:10 4:29 5:0.5652 6:6 7:4 8:0.2609 9:0.2609 10:0.3043 11:0.1739 12:10 13:0.28 14:3 15:0.5 16:74 17:0.2568 18:0.2568 19:0.2432 20:0.2432 21:0.3143 22:1.17 23:0.4 
1 1:2 2:4 3:21 4:31 5:0.2609 6:8 7:3 8:0.3913 9:0.1304 10:0.1304 11:0.3478 12:83 13:0.283 14:2 15:0.3173 16:104 17:0.375 18:0.1346 19:0.1827 20:0.3077 21:0.2688 22:0.88 23:0.2857 
1 1:1 2:1 3:3 4:29 5:0.3333 6:4 7:3 8:0.375 9:0 10:0.3333 11:0.2917 12:28 13:0.2453 14:4 15:0.2167 16:60 17:0.4 18:0.0667 19:0.15 20:0.3833 21:0.2281 22:0.8 23:0.3333 
1 1:2 2:1 3:7 4:28 5:0.4783 6:4 7:4 8:0.2174 9:0.1739 10:0.3043 11:0.3043 12:24 13:0.25 14:4 15:0.4697 16:66 17:0.1818 18:0.1515 19:0.3182 20:0.3485 21:0.2581 22:0 23:0.2857 
1 1:2 2:3 3:9 4:22 5:0.5 6:7 7:2 8:0.2273 9:0.1818 10:0.3182 11:0.2727 12:12 13:0.3488 14:3 15:0.5469 16:64 17:0.1562 18:0.1875 19:0.3594 20:0.2969 21:0.4 22:5 23:0.5294 
1 1:3 2:2 3:13 4:24 5:0.5417 6:3 7:4 8:0.125 9:0.3333 10:0.2083 11:0.3333 12:69 13:0.2609 14:1 15:0.4524 16:84 17:0.2381 18:0.2024 19:0.25 20:0.3095 21:0.2778 22:0.56 23:0.3077 
0.6559289632993708 1:-1 2:0 3:5 4:25 5:0.5 6:5 7:3 8:0.1818 9:0.3182 10:0.1818 11:0.3182 12:52 13:0.2444 14:4 15:0.4754 16:61 17:0.2459 18:0.2623 19:0.2131 20:0.2787 21:0.2 22:1.11 23:0 
1 1:1 2:2 3:14 4:24 5:0.3043 6:1 7:3 8:0.2609 9:0.2174 10:0.087 11:0.4348 12:12 13:0.087 14:1 15:0.2597 16:77 17:0.3636 18:0.1429 19:0.1169 20:0.3766 21:0.0833 22:0.56 23:0.1429 
1 1:3 2:2 3:15 4:25 5:0.3043 6:3 7:4 8:0.2609 9:0 10:0.3043 11:0.4348 12:15 13:0.2083 14:1 15:0.2824 16:85 17:0.3647 18:0.1176 19:0.1647 20:0.3529 21:0.2727 22:1.6 23:0.3793 
1 1:1 2:1 3:3 4:33 5:0.4167 6:12 7:3 8:0.1667 9:0.125 10:0.2917 11:0.4167 12:6 13:0.3214 14:4 15:0.3385 16:65 17:0.3846 18:0.1538 19:0.1846 20:0.2769 21:0.3 22:0.88 23:0.3333 
1 1:4 2:3 3:20 4:28 5:0.4286 6:4 7:5 8:0.0952 9:0.1429 10:0.2857 11:0.4762 12:7 13:0.2917 14:2 15:0.4556 16:90 17:0.2444 18:0.1778 19:0.2778 20:0.3 21:0.3012 22:0.88 23:0.3514 
1 1:-1 2:0 3:4 4:26 5:0.25 6:5 7:3 8:0.3333 9:0.2083 10:0.0417 11:0.4167 12:26 13:0.3061 14:1 15:0.2923 16:65 17:0.2923 18:0.1538 19:0.1385 20:0.4154 21:0.2632 22:0.78 23:0 
0.1487653043611701 1:1 2:2 3:6 4:24 5:0.4348 6:2 7:3 8:0.3478 9:0.2174 10:0.2174 11:0.2174 12:25 13:0.1304 14:1 15:0.4194 16:62 17:0.2742 18:0.2097 19:0.2097 20:0.3065 21:0.1273 22:1.29 23:0.2727 
1 1:1 2:3 3:9 4:23 5:0.3636 6:2 7:3 8:0.1818 9:0.1364 10:0.2273 11:0.4545 12:67 13:0.1364 14:1 15:0.4091 16:66 17:0.2879 18:0.2121 19:0.197 20:0.303 21:0.1525 22:1.5 23:0.2941 
1 1:1 2:1 3:5 4:34 5:0.381 6:9 7:3 8:0.3333 9:0.0476 10:0.3333 11:0.2857 12:66 13:0.3333 14:3 15:0.3971 16:68 17:0.3088 18:0.1765 19:0.2206 20:0.2941 21:0.3125 22:1.6 23:0.2 
1 1:-1 2:0 3:3 4:25 5:0.4348 6:1 7:5 8:0.3913 9:0.3043 10:0.1304 11:0.1739 12:59 13:0.1489 14:4 15:0.4737 16:57 17:0.2632 18:0.2281 19:0.2456 20:0.2632 21:0.1321 22:0.8 23:0 
1 1:10 2:2 3:21 4:25 5:0.3913 6:2 7:4 8:0.3913 9:0.1739 10:0.2174 11:0.2174 12:80 13:0.2917 14:2 15:0.4255 16:94 17:0.2128 18:0.2234 19:0.2021 20:0.3617 21:0.3415 22:1 23:0.4118 
1 1:-1 2:0 3:1 4:25 5:0.5 6:3 7:4 8:0.25 9:0.1667 10:0.3333 11:0.25 12:15 13:0.2444 14:4 15:0.4906 16:53 17:0.1887 18:0.2264 19:0.2642 20:0.3208 21:0.234 22:1.25 23:0 
1 1:3 2:3 3:22 4:24 5:0.3043 6:3 7:4 8:0.2609 9:0.1304 10:0.1739 11:0.4348 12:76 13:0.2381 14:1 15:0.3488 16:86 17:0.2674 18:0.1744 19:0.1744 20:0.3837 21:0.2289 22:2.5 23:0.2558 
0.9129625914924887 1:3 2:1 3:6 4:24 5:0.4583 6:2 7:6 8:0.2083 9:0.1667 10:0.2917 11:0.3333 12:24 13:0.3043 14:4 15:0.5 16:60 17:0.1833 18:0.2333 19:0.2667 20:0.3167 21:0.3214 22:0.88 23:0.4 
0.8242486097027587 1:1 2:2 3:8 4:30 5:0.5417 6:6 7:6 8:0.1667 9:0.375 10:0.1667 11:0.2917 12:12 13:0.2941 14:3 15:0.5352 16:71 17:0.2535 18:0.2676 19:0.2676 20:0.2113 21:0.25 22:0.62 23:0.2 
1 1:3 2:4 3:22 4:24 5:0.4348 6:3 7:3 8:0.2609 9:0.2174 10:0.2174 11:0.3043 12:9 13:0.2273 14:3 15:0.4747 16:99 17:0.1818 18:0.2424 19:0.2323 20:0.3434 21:0.2644 22:1 23:0.3023 
1 1:2 2:4 3:29 4:28 5:0.6087 6:4 7:4 8:0.2174 9:0.3913 10:0.2174 11:0.1739 12:2 13:0.3333 14:2 15:0.5909 16:110 17:0.2091 18:0.3091 19:0.2818 20:0.2 21:0.2453 22:0.91 23:0.1636 
0.7281935246540496 1:1 2:1 3:3 4:21 5:0.3333 6:2 7:4 8:0.4286 9:0.1429 10:0.1905 11:0.2381 12:23 13:0.2683 14:4 15:0.2759 16:58 17:0.3448 18:0.1034 19:0.1724 20:0.3793 21:0.2444 22:1.75 23:0.3333 
0.8353398426854569 1:1 2:1 3:3 4:24 5:0.3043 6:4 7:4 8:0.1739 9:0.1304 10:0.1739 11:0.5217 12:61 13:0.3617 14:4 15:0.2812 16:64 17:0.3438 18:0.125 19:0.1562 20:0.375 21:0.3333 22:2 23:0.3333 
1 1:4 2:5 3:30 4:24 5:0.2609 6:2 7:3 8:0.4348 9:0.1304 10:0.1304 11:0.3043 12:84 13:0.1556 14:1 15:0.3333 16:102 17:0.3235 18:0.1275 19:0.2059 20:0.3431 21:0.2929 22:1.29 23:0.4286 
1 1:3 2:2 3:10 4:26 5:0.5417 6:2 7:6 8:0.2917 9:0.2917 10:0.25 11:0.1667 12:68 13:0.234 14:2 15:0.5658 16:76 17:0.1711 18:0.2895 19:0.2763 20:0.2632 21:0.2615 22:1 23:0.4 
1 1:3 2:7 3:30 4:25 5:0.5 6:6 7:4 8:0.375 9:0.2083 10:0.2917 11:0.125 12:3 13:0.4167 14:1 15:0.5 16:112 17:0.3125 18:0.2411 19:0.2589 20:0.1875 21:0.4095 22:0.71 23:0.4237 
1 1:4 2:3 3:13 4:25 5:0.6087 6:2 7:6 8:0.087 9:0.2174 10:0.3913 11:0.3043 12:59 13:0.3191 14:2 15:0.5526 16:76 17:0.1974 18:0.25 19:0.3026 20:0.25 21:0.3333 22:0.71 23:0.4167 
1 1:4 2:1 3:9 4:21 5:0.4286 6:1 7:3 8:0.4286 9:0.1905 10:0.2381 11:0.1429 12:26 13:0.1 14:1 15:0.3833 16:60 17:0.2833 18:0.1833 19:0.2 20:0.3333 21:0.1786 22:1.29 23:0.375 
1 1:4 2:1 3:8 4:24 5:0.2727 6:1 7:4 8:0.1364 9:0.1364 10:0.1364 11:0.5909 12:66 13:0.1304 14:2 15:0.375 16:64 17:0.2969 18:0.1875 19:0.1875 20:0.3281 21:0.2 22:1.5 23:0.4286 
1 1:4 2:3 3:16 4:26 5:0.3043 6:3 7:3 8:0.2609 9:0.087 10:0.2174 11:0.4348 12:8 13:0.1915 14:3 15:0.3924 16:79 17:0.2405 18:0.1772 19:0.2152 20:0.3671 21:0.25 22:0.56 23:0.4074 
0.7169574271847072 1:4 2:2 3:14 4:26 5:0.625 6:3 7:6 8:0.2083 9:0.2917 10:0.3333 11:0.1667 12:9 13:0.2444 14:3 15:0.6438 16:73 17:0.2055 18:0.3151 19:0.3288 20:0.1507 21:0.2353 22:0.5 23:0.28 
1 1:1 2:3 3:12 4:31 5:0.5833 6:7 7:5 8:0.125 9:0.4167 10:0.1667 11:0.2917 12:13 13:0.3846 14:3 15:0.5952 16:84 17:0.1429 18:0.3452 19:0.25 20:0.2619 21:0.3151 22:0.3 23:0.2174 
1 1:4 2:2 3:21 4:26 5:0.5652 6:4 7:4 8:0.1304 9:0.2609 10:0.3043 11:0.3043 12:11 13:0.3043 14:3 15:0.5455 16:88 17:0.1932 18:0.2159 19:0.3295 20:0.2614 21:0.2619 22:1.75 23:0.2105 
1 1:10 2:4 3:30 4:27 5:0.375 6:5 7:4 8:0.2083 9:0.2917 10:0.0833 11:0.4167 12:82 13:0.36 14:3 15:0.4857 16:105 17:0.1905 18:0.2286 19:0.2571 20:0.3238 21:0.3469 22:1.12 23:0.36 
1 1:-1 2:0 3:4 4:30 5:0.5652 6:6 7:4 8:0.1304 9:0.2609 10:0.3043 11:0.3043 12:75 13:0.3585 14:1 15:0.3827 16:81 17:0.358 18:0.2099 19:0.1728 20:0.2593 21:0.3115 22:1.4 23:0 
1 1:4 2:5 3:27 4:24 5:0.4583 6:3 7:5 8:0.2083 9:0.2083 10:0.25 11:0.3333 12:8 13:0.2558 14:2 15:0.4624 16:93 17:0.2366 18:0.2258 19:0.2366 20:0.3011 21:0.2955 22:1 23:0.3617 
1 1:1 2:3 3:18 4:31 5:0.375 6:8 7:4 8:0.25 9:0.2917 10:0.0833 11:0.375 12:4 13:0.4074 14:1 15:0.4343 16:99 17:0.303 18:0.2222 19:0.2121 20:0.2626 21:0.2955 22:3.5 23:0.1667 
1 1:3 2:3 3:13 4:24 5:0.4286 6:4 7:4 8:0.381 9:0.2857 10:0.1429 11:0.1905 12:71 13:0.2444 14:3 15:0.4143 16:70 17:0.3 18:0.1857 19:0.2286 20:0.2857 21:0.2615 22:1.25 23:0.3636 
1 1:5 2:3 3:29 4:25 5:0.4167 6:3 7:4 8:0.25 9:0.0417 10:0.375 11:0.3333 12:82 13:0.3191 14:2 15:0.3714 16:105 17:0.3048 18:0.181 19:0.1905 20:0.3238 21:0.2727 22:1.8 23:0.2308 
1 1:5 2:2 3:16 4:32 5:0.5 6:7 7:3 8:0.125 9:0.1667 10:0.3333 11:0.375 12:72 13:0.3214 14:4 15:0.3371 16:89 17:0.236 18:0.1348 19:0.2022 20:0.427 21:0.3253 22:0.5 23:0.3333 
1 1:3 2:3 3:22 4:23 5:0.3636 6:9 7:4 8:0.3182 9:0.0909 10:0.2727 11:0.3182 12:10 13:0.5 14:2 15:0.3563 16:87 17:0.3218 18:0.1494 19:0.2069 20:0.3218 21:0.3976 22:1.17 23:0.2821 
1 1:5 2:4 3:26 4:29 5:0.3333 6:4 7:5 8:0.2917 9:0.1667 10:0.1667 11:0.375 12:82 13:0.3077 14:3 15:0.3465 16:101 17:0.2772 18:0.1881 19:0.1584 20:0.3762 21:0.3061 22:1.5 23:0.3333 
0.2974976503583437 1:1 2:1 3:6 4:23 5:0.3043 6:3 7:4 8:0.4783 9:0.2174 10:0.087 11:0.2174 12:25 13:0.2727 14:1 15:0.3729 16:59 17:0.3729 18:0.2034 19:0.1695 20:0.2542 21:0.2364 22:0.88 23:0.0909 
1 1:6 2:4 3:22 4:27 5:0.3913 6:5 7:3 8:0.3478 9:0.2174 10:0.1739 11:0.2609 12:73 13:0.24 14:4 15:0.3152 16:92 17:0.2609 18:0.1522 19:0.163 20:0.4239 21:0.2955 22:1.33 23:0.3684 
1 1:2 2:2 3:9 4:27 5:0.4348 6:3 7:5 8:0.1739 9:0.3043 10:0.1304 11:0.3913 12:57 13:0.2653 14:1 15:0.4857 16:70 17:0.2714 18:0.2143 19:0.2714 20:0.2429 21:0.2727 22:0.5 23:0.2941 
1 1:2 2:2 3:9 4:22 5:0.3636 6:5 7:4 8:0.1364 9:0.1818 10:0.1818 11:0.5 12:23 13:0.3333 14:1 15:0.3871 16:62 17:0.2097 18:0.1452 19:0.2419 20:0.4032 21:0.3091 22:2 23:0.3333 
1 1:3 2:3 3:17 4:29 5:0.4583 6:6 7:5 8:0.2917 9:0.2917 10:0.1667 11:0.25 12:5 13:0.434 14:1 15:0.5057 16:87 17:0.2759 18:0.2644 19:0.2414 20:0.2184 21:0.3735 22:1 23:0.2667 
1 1:3 2:3 3:17 4:20 5:0.5 6:6 7:3 8:0.2 9:0.25 10:0.25 11:0.3 12:63 13:0.4286 14:2 15:0.5217 16:69 17:0.2609 18:0.2754 19:0.2464 20:0.2174 21:0.3538 22:0.62 23:0.2667 
1 1:5 2:4 3:24 4:23 5:0.4348 6:2 7:4 8:0.087 9:0.1304 10:0.3043 11:0.4783 12:10 13:0.2727 14:4 15:0.5444 16:90 17:0.1 18:0.2444 19:0.3 20:0.3556 21:0.3103 22:1.8 23:0.3778 
1 1:2 2:2 3:11 4:29 5:0.5833 6:6 7:4 8:0.1667 9:0.3333 10:0.25 11:0.25 12:54 13:0.3462 14:3 15:0.6104 16:77 17:0.1299 18:0.2857 19:0.3247 20:0.2597 21:0.3151 22:1.6 23:0.2381 
1 1:1 2:1 3:9 4:24 5:0.5833 6:6 7:3 8:0.0833 9:0.25 10:0.3333 11:0.3333 12:7 13:0.4419 14:3 15:0.6719 16:64 17:0.0938 18:0.3125 19:0.3594 20:0.2344 21:0.3333 22:3.67 23:0.0588 
1 1:7 2:3 3:27 4:23 5:0.4091 6:3 7:4 8:0.3636 9:0.2727 10:0.1364 11:0.2273 12:5 13:0.2857 14:3 15:0.4059 16:101 17:0.2871 18:0.2475 19:0.1584 20:0.3069 21:0.4066 22:1 23:0.5102 
1 1:4 2:2 3:19 4:27 5:0.25 6:7 7:3 8:0.375 9:0.125 10:0.125 11:0.375 12:71 13:0.4043 14:2 15:0.375 16:88 17:0.25 18:0.1818 19:0.1932 20:0.375 21:0.381 22:0.2 23:0.3514 
1 1:-1 2:0 3:3 4:24 5:0.5652 6:3 7:4 8:0.2174 9:0.3043 10:0.2609 11:0.2174 12:28 13:0.1628 14:2 15:0.6721 16:61 17:0.2131 18:0.3607 19:0.3115 20:0.1148 21:0.1429 22:0.73 23:0 
1 1:-1 2:0 3:1 4:25 5:0.7619 6:3 7:4 8:0.1429 9:0.4762 10:0.2857 11:0.0952 12:67 13:0.1556 14:4 15:0.6949 16:59 17:0.2034 18:0.3729 19:0.322 20:0.1017 21:0.1489 22:1 23:0 
1 1:9 2:2 3:17 4:30 5:0.4762 6:6 7:3 8:0.1905 9:0.2381 10:0.2381 11:0.3333 12:70 13:0.2549 14:2 15:0.5529 16:85 17:0.2588 18:0.3176 19:0.2353 20:0.1882 21:0.35 22:1.1 23:0.5484 
1 1:2 2:3 3:12 4:23 5:0.3478 6:2 7:5 8:0.3913 9:0.1739 10:0.1739 11:0.2609 12:61 13:0.2273 14:4 15:0.4211 16:76 17:0.2895 18:0.1974 19:0.2237 20:0.2895 21:0.2308 22:1 23:0.3043 
1 1:2 2:2 3:9 4:22 5:0.3636 6:2 7:3 8:0.4545 9:0.2273 10:0.1364 11:0.1818 12:49 13:0.2093 14:3 15:0.4355 16:62 17:0.2903 18:0.2097 19:0.2258 20:0.2742 21:0.193 22:1.8 23:0.25 
1 1:4 2:2 3:20 4:25 5:0.4167 6:4 7:3 8:0.2083 9:0.2083 10:0.2083 11:0.375 12:9 13:0.3333 14:2 15:0.5882 16:85 17:0.2 18:0.3059 19:0.2824 20:0.2118 21:0.2593 22:3 23:0.1667 
1 1:3 2:2 3:14 4:25 5:0.3478 6:2 7:4 8:0.2609 9:0.1304 10:0.2174 11:0.3913 12:3 13:0.2273 14:2 15:0.4253 16:87 17:0.2989 18:0.2184 19:0.2069 20:0.2759 21:0.2286 22:0.4 23:0.2857 
1 1:4 2:2 3:11 4:28 5:0.5909 6:6 7:4 8:0.1818 9:0.2273 10:0.3636 11:0.2273 12:70 13:0.36 14:4 15:0.5132 16:76 17:0.1974 18:0.2368 19:0.2763 20:0.2895 21:0.3433 22:1.22 23:0.3684 
0.9025536443889659 1:5 2:1 3:9 4:27 5:0.5217 6:5 7:3 8:0.3043 9:0.3043 10:0.2174 11:0.1739 12:12 13:0.36 14:4 15:0.4789 16:71 17:0.2817 18:0.3099 19:0.169 20:0.2394 21:0.403 22:3 23:0.5294 
1 1:1 2:3 3:15 4:34 5:0.4783 6:9 7:5 8:0.1304 9:0.3043 10:0.1739 11:0.3913 12:70 13:0.3091 14:2 15:0.4118 16:85 17:0.3059 18:0.1647 19:0.2471 20:0.2824 21:0.2439 22:0.6 23:0.1724 
0.66201173365188 1:2 2:1 3:6 4:26 5:0.2609 6:2 7:5 8:0.2174 9:0.087 10:0.1739 11:0.5217 12:64 13:0.1837 14:4 15:0.3281 16:64 17:0.2969 18:0.1719 19:0.1562 20:0.375 21:0.2 22:0.88 23:0.2727 
1 1:2 2:4 3:19 4:30 5:0.375 6:4 7:4 8:0.2083 9:0.1667 10:0.2083 11:0.4167 12:7 13:0.3333 14:1 15:0.4494 16:89 17:0.191 18:0.191 19:0.2584 20:0.3596 21:0.2558 22:5 23:0.1765 
1 1:3 2:2 3:14 4:24 5:0.4783 6:3 7:4 8:0.1739 9:0.2609 10:0.2174 11:0.3478 12:66 13:0.2558 14:3 15:0.4286 16:84 17:0.25 18:0.25 19:0.1786 20:0.3214 21:0.2571 22:0.5 23:0.2593 
1 1:7 2:4 3:32 4:23 5:0.2609 6:2 7:4 8:0.3043 9:0.0435 10:0.2174 11:0.4348 12:91 13:0.2444 14:4 15:0.3571 16:112 17:0.2321 18:0.125 19:0.2321 20:0.4107 21:0.3077 22:1.4 23:0.3559 
1 1:7 2:2 3:19 4:32 5:0.4091 6:9 7:4 8:0.1818 9:0.2273 10:0.1818 11:0.4091 12:76 13:0.3585 14:4 15:0.4255 16:94 17:0.3085 18:0.234 19:0.1915 20:0.266 21:0.3721 22:0.8 23:0.3939 
1 1:1 2:1 3:4 4:25 5:0.2727 6:4 7:4 8:0.3636 9:0.1818 10:0.0909 11:0.3636 12:65 13:0.2766 14:1 15:0.3214 16:56 17:0.3929 18:0.1607 19:0.1607 20:0.2857 21:0.2453 22:1.8 23:0.25 
1 1:2 2:1 3:10 4:26 5:0.3333 6:3 7:4 8:0.4167 9:0.1667 10:0.1667 11:0.25 12:15 13:0.36 14:4 15:0.3684 16:76 17:0.3158 18:0.1579 19:0.2105 20:0.3158 21:0.2941 22:1.8 23:0.1111 
1 1:-1 2:0 3:3 4:34 5:0.4783 6:9 7:5 8:0.2609 9:0.1304 10:0.3478 11:0.2609 12:18 13:0.4386 14:4 15:0.3433 16:67 17:0.3284 18:0.1343 19:0.209 20:0.3284 21:0.3968 22:1.17 23:0 
1 1:2 2:1 3:8 4:26 5:0.25 6:4 7:4 8:0.25 9:0.125 10:0.125 11:0.5 12:24 13:0.3469 14:3 15:0.4058 16:69 17:0.2029 18:0.1594 19:0.2464 20:0.3913 21:0.3231 22:0.57 23:0.25 
1 1:2 2:2 3:9 4:26 5:0.3913 6:4 7:2 8:0.3043 9:0.087 10:0.3043 11:0.3043 12:66 13:0.2245 14:4 15:0.3194 16:72 17:0.2778 18:0.125 19:0.1944 20:0.4028 21:0.2308 22:0.56 23:0.3333 
1 1:-1 2:0 3:2 4:35 5:0.3333 6:10 7:4 8:0.2083 9:0.2083 10:0.125 11:0.4583 12:21 13:0.2881 14:4 15:0.4058 16:69 17:0.2754 18:0.1739 19:0.2319 20:0.3188 21:0.2698 22:1.5 23:0 
1 1:11 2:2 3:24 4:24 5:0.2083 6:3 7:4 8:0.2917 9:0.125 10:0.0833 11:0.5 12:5 13:0.2444 14:1 15:0.3299 16:97 17:0.3196 18:0.1443 19:0.1856 20:0.3505 21:0.3846 22:0.78 23:0.5217 
0.1941016113875123 1:1 2:2 3:7 4:22 5:0.5455 6:1 7:3 8:0.0909 9:0.0909 10:0.4545 11:0.3636 12:21 13:0.1163 14:1 15:0.4915 16:59 17:0.2542 18:0.2034 19:0.2881 20:0.2542 21:0.1273 22:0.8 23:0.1667 
0.6742673175535705 1:1 2:2 3:8 4:23 5:0.5455 6:2 7:3 8:0.2727 9:0.4091 10:0.1364 11:0.1818 12:60 13:0.1556 14:2 15:0.4921 16:63 17:0.2381 18:0.2063 19:0.2857 20:0.2698 21:0.1525 22:2.5 23:0.1429 
1 1:3 2:1 3:8 4:25 5:0.5652 6:2 7:5 8:0.1304 9:0.3043 10:0.2609 11:0.3043 12:2 13:0.2 14:4 15:0.5152 16:66 17:0.2727 18:0.197 19:0.3182 20:0.2121 21:0.2333 22:0.8 23:0.3333 
1 1:3 2:1 3:10 4:24 5:0.619 6:2 7:5 8:0.2857 9:0.2381 10:0.381 11:0.0952 12:48 13:0.2558 14:1 15:0.5147 16:68 17:0.2647 18:0.2059 19:0.3088 20:0.2206 21:0.2581 22:1.25 23:0.2632 
1 1:-1 2:0 3:0 4:27 5:0.5417 6:5 7:3 8:0.2083 9:0.3333 10:0.2083 11:0.25 12:26 13:0.2245 14:2 15:0.5091 16:55 17:0.2182 18:0.2 19:0.3091 20:0.2727 21:0.2245 22:0.75 23:-1 
1 1:-1 2:0 3:1 4:23 5:0.5217 6:5 7:2 8:0.2174 9:0.087 10:0.4348 11:0.2609 12:57 13:0.2093 14:2 15:0.4902 16:51 17:0.2157 18:0.1961 19:0.2941 20:0.2941 21:0.2 22:1 23:0 
0.6720467906783861 1:-1 2:0 3:0 4:23 5:0.3636 6:1 7:3 8:0.1364 9:0.3182 10:0.0455 11:0.5 12:60 13:0.1111 14:2 15:0.3871 16:62 17:0.2742 18:0.2097 19:0.1774 20:0.3387 21:0.0698 22:1 23:-1 
0.1658574641794131 1:-1 2:0 3:2 4:23 5:0.5 6:5 7:3 8:0.2727 9:0.1364 10:0.3636 11:0.2273 12:12 13:0.2727 14:2 15:0.4828 16:58 17:0.1897 18:0.2241 19:0.2586 20:0.3276 21:0.25 22:1.12 23:0 
0.6151899871138269 1:-1 2:0 3:4 4:21 5:0.45 6:5 7:3 8:0.2 9:0.35 10:0.1 11:0.35 12:50 13:0.3 14:3 15:0.4828 16:58 17:0.1897 18:0.2241 19:0.2586 20:0.3276 21:0.25 22:0.89 23:0 
1 1:-1 2:0 3:1 4:23 5:0.5 6:2 7:3 8:0.1364 9:0.2273 10:0.2727 11:0.3636 12:23 13:0.2 14:3 15:0.4182 16:55 17:0.2727 18:0.2364 19:0.1818 20:0.3091 21:0.1915 22:1 23:0 
0.3800725286705541 1:-1 2:0 3:1 4:26 5:0.3478 6:2 7:5 8:0.2174 9:0.0435 10:0.3043 11:0.4348 12:15 13:0.1667 14:3 15:0.3393 16:56 17:0.2857 18:0.1429 19:0.1964 20:0.375 21:0.16 22:0.67 23:0 
0.2038330870376353 1:-1 2:0 3:4 4:23 5:0.4286 6:3 7:3 8:0.2381 9:0.1429 10:0.2857 11:0.3333 12:62 13:0.2727 14:1 15:0.4839 16:62 17:0.2097 18:0.2097 19:0.2742 20:0.3065 21:0.2308 22:2.5 23:0 
0.7398683701189739 1:1 2:1 3:2 4:23 5:0.5 6:1 7:3 8:0.2727 9:0.2727 10:0.2273 11:0.2273 12:21 13:0.1111 14:4 15:0.4 16:60 17:0.2667 18:0.2 19:0.2 20:0.3333 21:0.1064 22:1.11 23:0.5 
0.7587318879674073 1:1 2:2 3:6 4:22 5:0.5 6:3 7:2 8:0.2273 9:0.2727 10:0.2273 11:0.2727 12:39 13:0.2273 14:3 15:0.5 16:58 17:0.2241 18:0.2414 19:0.2586 20:0.2759 21:0.2075 22:1.38 23:0.2727 
0.7372747085778284 1:1 2:1 3:2 4:22 5:0.4762 6:3 7:3 8:0.2381 9:0.1905 10:0.2857 11:0.2857 12:7 13:0.2558 14:2 15:0.56 16:50 17:0.2 18:0.28 19:0.28 20:0.24 21:0.2444 22:0.45 23:0.5 
0.2358290095378477 1:1 2:1 3:6 4:25 5:0.5238 6:2 7:3 8:0.2857 9:0.3333 10:0.1905 11:0.1905 12:58 13:0.087 14:2 15:0.4615 16:65 17:0.2308 18:0.2154 19:0.2462 20:0.3077 21:0.0877 22:0.9 23:0.0909 
1 1:1 2:2 3:6 4:21 5:0.4762 6:3 7:3 8:0.2381 9:0.0476 10:0.4286 11:0.2857 12:56 13:0.2683 14:4 15:0.5 16:60 17:0.25 18:0.2 19:0.3 20:0.25 21:0.2549 22:1.33 23:0.3333 
0.8378491763402068 1:-1 2:0 3:1 4:24 5:0.5 6:2 7:3 8:0.125 9:0.2917 10:0.2083 11:0.375 12:14 13:0.1915 14:2 15:0.4286 16:63 17:0.2381 18:0.2381 19:0.1905 20:0.3333 21:0.1837 22:0.5 23:0 
0.7012729149210661 1:-1 2:0 3:2 4:24 5:0.4783 6:2 7:3 8:0.2174 9:0.2609 10:0.2174 11:0.3043 12:55 13:0.1915 14:3 15:0.4154 16:65 17:0.2462 18:0.2308 19:0.1846 20:0.3385 21:0.1765 22:2.25 23:0 
1 1:1 2:1 3:5 4:20 5:0.5 6:2 7:2 8:0.25 9:0.25 10:0.25 11:0.25 12:44 13:0.2 14:3 15:0.6415 16:53 17:0.1321 18:0.3208 19:0.3208 20:0.2264 21:0.1837 22:1 23:0.1111 
0.6591695530551267 1:1 2:1 3:3 4:24 5:0.3478 6:2 7:5 8:0.1739 9:0.1304 10:0.2174 11:0.4783 12:18 13:0.234 14:2 15:0.3966 16:58 17:0.2414 18:0.1552 19:0.2414 20:0.3621 21:0.2157 22:0.56 23:0.3333 
0.8067345994985754 1:1 2:1 3:5 4:22 5:0.5455 6:2 7:3 8:0.3636 9:0.2727 10:0.2727 11:0.0909 12:53 13:0.2273 14:1 15:0.4407 16:59 17:0.2881 18:0.1864 19:0.2542 20:0.2712 21:0.2075 22:0.4 23:0.1111 
1 1:1 2:2 3:6 4:22 5:0.3182 6:2 7:3 8:0.3636 9:0.0909 10:0.2273 11:0.3182 12:61 13:0.1818 14:3 15:0.5 16:58 17:0.1897 18:0.2241 19:0.2759 20:0.3103 21:0.1698 22:1.2 23:0.2727 
0.006661650550563289 1:-1 2:0 3:2 4:24 5:0.4167 6:1 7:4 8:0.2917 9:0.25 10:0.1667 11:0.2917 12:53 13:0.1304 14:4 15:0.4375 16:64 17:0.2344 18:0.2188 19:0.2188 20:0.3281 21:0.12 22:0.86 23:0 
0.8739821515099663 1:-1 2:0 3:2 4:23 5:0.3913 6:1 7:4 8:0.3043 9:0.1739 10:0.2174 11:0.3043 12:9 13:0.1364 14:2 15:0.4194 16:62 17:0.3387 18:0.2097 19:0.2097 20:0.2419 21:0.125 22:1.17 23:0 
-0.3066841502348171 1:-1 2:0 3:0 4:23 5:0.2609 6:2 7:3 8:0.3043 9:0.087 10:0.1739 11:0.4348 12:25 13:0.1818 14:4 15:0.2889 16:45 17:0.2667 18:0.0889 19:0.2 20:0.4444 21:0.1 22:2.25 23:-1 
-0.1575552369834862 1:-1 2:0 3:0 4:22 5:0.35 6:2 7:3 8:0.25 9:0.1 10:0.25 11:0.4 12:50 13:0.1429 14:4 15:0.2889 16:45 17:0.2667 18:0.0889 19:0.2 20:0.4444 21:0.1 22:0.44 23:-1 
-0.545679463582186 1:9 2:2 3:28 4:21 5:0.619 6:2 7:3 8:0.0952 9:0.1905 10:0.4286 11:0.2857 12:7 13:0.1905 14:3 15:0.4891 16:92 17:0.25 18:0.1957 19:0.2935 20:0.2609 21:0.2045 22:1.29 23:0.2174 
-0.2797578448604972 1:-1 2:0 3:0 4:32 5:0.5455 6:9 7:3 8:0.1818 9:0.2273 10:0.3182 11:0.2727 12:59 13:0.2222 14:3 15:0.4107 16:56 17:0.3214 18:0.1607 19:0.25 20:0.2679 21:0.1923 22:0.89 23:-1 
-0.2665647897600721 1:5 2:2 3:16 4:20 5:0.65 6:3 7:1 8:0.1 9:0.35 10:0.3 11:0.25 12:1 13:0.15 14:4 15:0.64 16:75 17:0.16 18:0.32 19:0.32 20:0.2 21:0.2394 22:1 23:0.3548 
-0.3901597710533692 1:-1 2:0 3:0 4:20 5:0.5 6:5 7:2 8:0.25 9:0.2 10:0.3 11:0.25 12:43 13:0.3 14:4 15:0.4146 16:41 17:0.2683 18:0.1463 19:0.2683 20:0.3171 21:0.0667 22:0 23:-1 
-0.321935376019648 1:1 2:2 3:11 4:28 5:0.4167 6:4 7:5 8:0.2917 9:0.0417 10:0.375 11:0.2917 12:2 13:0.3462 14:1 15:0.3875 16:80 17:0.2625 18:0.2 19:0.1875 20:0.35 21:0.2778 22:0.43 23:0.1 
-1 1:-1 2:0 3:0 4:25 5:0.4167 6:3 7:4 8:0.125 9:0.1667 10:0.25 11:0.4583 12:15 13:0.2766 14:3 15:0.3922 16:51 17:0.2157 18:0.1961 19:0.1961 20:0.3922 21:0.2093 22:2.75 23:-1 
-0.3089121629315897 1:-1 2:0 3:0 4:25 5:0.3636 6:4 7:5 8:0.3636 9:0.2273 10:0.1364 11:0.2727 12:39 13:0.3043 14:3 15:0.4681 16:47 17:0.2553 18:0.2553 19:0.2128 20:0.2766 21:0.1579 22:0 23:-1 
-0.2715755178992922 1:4 2:3 3:19 4:21 5:0.5 6:2 7:3 8:0.1 9:0.2 10:0.3 11:0.4 12:9 13:0.2683 14:2 15:0.4286 16:91 17:0.1868 18:0.2308 19:0.1978 20:0.3846 21:0.2895 22:0.91 23:0.3514 
-0.2377482090830028 1:4 2:3 3:15 4:23 5:0.4348 6:2 7:3 8:0.3043 9:0.2609 10:0.1739 11:0.2609 12:75 13:0.2444 14:3 15:0.4253 16:87 17:0.1839 18:0.2299 19:0.1954 20:0.3908 21:0.3056 22:2 23:0.4483 
-0.4124790243550981 1:2 2:4 3:14 4:25 5:0.5417 6:2 7:4 8:0.1667 9:0.25 10:0.2917 11:0.2917 12:5 13:0.2653 14:3 15:0.4353 16:85 17:0.2824 18:0.1529 19:0.2824 20:0.2824 21:0.2703 22:0.89 23:0.3333 
-0.7021409929964277 1:1 2:1 3:8 4:26 5:0.4783 6:6 7:4 8:0.1304 9:0.1739 10:0.3043 11:0.3913 12:56 13:0.3469 14:4 15:0.4675 16:77 17:0.2078 18:0.2597 19:0.2078 20:0.3247 21:0.2923 22:4.5 23:0.125 
-0.2973712060259861 1:2 2:3 3:12 4:25 5:0.4783 6:2 7:3 8:0.3043 9:0.2609 10:0.2174 11:0.2174 12:5 13:0.125 14:2 15:0.4865 16:74 17:0.2297 18:0.2432 19:0.2432 20:0.2838 21:0.1594 22:0.45 23:0.3043 
-0.1754199099227219 1:2 2:3 3:17 4:24 5:0.4545 6:3 7:4 8:0.0909 9:0.0909 10:0.3636 11:0.4545 12:59 13:0.2273 14:1 15:0.5 16:80 17:0.2125 18:0.25 19:0.25 20:0.2875 21:0.2 22:1.6 23:0.2121 
-0.2713844271812756 1:3 2:4 3:13 4:22 5:0.5909 6:1 7:2 8:0.3182 9:0.2273 10:0.3636 11:0.0909 12:52 13:0.0698 14:4 15:0.5211 16:71 17:0.2254 18:0.2676 19:0.2535 20:0.2535 21:0.1875 22:1.11 23:0.4783 
-0.1591124244264547 1:2 2:4 3:11 4:25 5:0.5 6:2 7:4 8:0.125 9:0.2917 10:0.2083 11:0.375 12:2 13:0.1667 14:3 15:0.5139 16:72 17:0.2222 18:0.2639 19:0.25 20:0.2639 21:0.2 22:1.2 23:0.3684 
-0.3070095444835704 1:2 2:4 3:17 4:24 5:0.4348 6:2 7:3 8:0.3478 9:0.3043 10:0.1304 11:0.2174 12:65 13:0.1111 14:2 15:0.4578 16:83 17:0.2048 18:0.2169 19:0.241 20:0.3373 21:0.1948 22:0.75 23:0.3125 
-0.8582850292263259 1:9 2:1 3:11 4:23 5:0.3636 6:2 7:2 8:0.4091 9:0.0909 10:0.2727 11:0.2273 12:55 13:0.0909 14:3 15:0.4098 16:61 17:0.3279 18:0.2131 19:0.1967 20:0.2623 21:0.2281 22:1.12 23:0.6923 
-0.3250888108118197 1:-1 2:0 3:0 4:31 5:0.4286 6:9 7:3 8:0.3333 9:0.1429 10:0.2857 11:0.2381 12:53 13:0.2549 14:4 15:0.4364 16:55 17:0.3273 18:0.2364 19:0.2 20:0.2364 21:0.2549 22:1.22 23:-1 
-0.2911798771590458 1:3 2:2 3:13 4:23 5:0.619 6:1 7:3 8:0.2381 9:0.1429 10:0.4762 11:0.1429 12:63 13:0.0909 14:3 15:0.4691 16:81 17:0.2346 18:0.2222 19:0.2469 20:0.2963 21:0.1471 22:0.64 23:0.3077 
-0.3247855568104823 1:3 2:3 3:16 4:22 5:0.5909 6:1 7:3 8:0.1364 9:0.3182 10:0.2727 11:0.2727 12:1 13:0.0952 14:1 15:0.4824 16:85 17:0.2353 18:0.2235 19:0.2588 20:0.2824 21:0.1667 22:1 23:0.3125 
-0.5172729758915032 1:-1 2:0 3:0 4:24 5:0.5217 6:3 7:4 8:0.2609 9:0.3043 10:0.2174 11:0.2174 12:13 13:0.2609 14:3 15:0.46 16:50 17:0.24 18:0.22 19:0.24 20:0.3 21:0.15 22:4 23:-1 
-0.9176337179644001 1:1 2:2 3:12 4:22 5:0.4286 6:2 7:4 8:0.2857 9:0.1905 10:0.2381 11:0.2857 12:60 13:0.1707 14:2 15:0.4722 16:72 17:0.1944 18:0.2222 19:0.25 20:0.3333 21:0.1562 22:1.14 23:0.1304 
-1 1:2 2:2 3:11 4:22 5:0.5909 6:2 7:4 8:0.3182 9:0.2273 10:0.3636 11:0.0909 12:11 13:0.3182 14:4 15:0.4805 16:77 17:0.2338 18:0.2208 19:0.2597 20:0.2857 21:0.2581 22:2.2 23:0.2 
-0.7032437769471409 1:2 2:3 3:14 4:26 5:0.5417 6:2 7:6 8:0.2083 9:0.2083 10:0.3333 11:0.25 12:69 13:0.32 14:2 15:0.4831 16:89 17:0.2584 18:0.2247 19:0.2584 20:0.2584 21:0.2703 22:0.64 23:0.2308 
-0.4172487200225902 1:1 2:6 3:23 4:21 5:0.5 6:6 7:3 8:0.15 9:0.2 10:0.3 11:0.35 12:68 13:0.3659 14:1 15:0.5116 16:86 17:0.1977 18:0.2442 19:0.2674 20:0.2907 21:0.2593 22:0.8 23:0.1905 
-0.7012956169201152 1:1 2:5 3:20 4:20 5:0.55 6:6 7:2 8:0.15 9:0.3 10:0.25 11:0.3 12:65 13:0.4 14:2 15:0.481 16:79 17:0.2152 18:0.2405 19:0.2405 20:0.3038 21:0.2703 22:0.6 23:0.1667 
-1 1:2 2:3 3:12 4:22 5:0.5909 6:3 7:5 8:0.1364 9:0.2727 10:0.3182 11:0.2727 12:15 13:0.2857 14:3 15:0.5938 16:64 17:0.1719 18:0.2969 19:0.2969 20:0.2344 21:0.2787 22:1.6 23:0.3333 
-0.3823683595523502 1:15 2:1 3:21 4:24 5:0.4583 6:4 7:2 8:0.2083 9:0.0417 10:0.4167 11:0.3333 12:11 13:0.25 14:2 15:0.4286 16:98 17:0.2551 18:0.2653 19:0.1633 20:0.3163 21:0.4667 22:1.11 23:0.7143 
-0.435280250606506 1:15 2:1 3:23 4:23 5:0.4783 6:4 7:2 8:0.1739 9:0.087 10:0.3913 11:0.3478 12:10 13:0.2609 14:2 15:0.44 16:100 17:0.25 18:0.27 19:0.17 20:0.31 21:0.4565 22:2.5 23:0.6522 
-0.442940217432966 1:3 2:4 3:17 4:21 5:0.381 6:2 7:3 8:0.2857 9:0.2381 10:0.1429 11:0.3333 12:5 13:0.1905 14:3 15:0.3867 16:75 17:0.2667 18:0.16 19:0.2267 20:0.3467 21:0.2286 22:1.43 23:0.3333 
-0.2312113279553415 1:2 2:2 3:17 4:25 5:0.3043 6:4 7:3 8:0.3913 9:0.087 10:0.2174 11:0.3043 12:74 13:0.2917 14:1 15:0.3765 16:85 17:0.3176 18:0.1647 19:0.2118 20:0.3059 21:0.2346 22:1.33 23:0.1515 
-0.3479243252666565 1:3 2:4 3:31 4:24 5:0.4545 6:5 7:4 8:0.3182 9:0.2273 10:0.2273 11:0.2273 12:88 13:0.3953 14:2 15:0.3981 16:108 17:0.2963 18:0.1944 19:0.2037 20:0.3056 21:0.2885 22:3 23:0.2131 
-0.4205107500783165 1:-1 2:0 3:0 4:24 5:0.3333 6:2 7:5 8:0.3333 9:0.125 10:0.2083 11:0.3333 12:33 13:0.3043 14:-1 15:0.3617 16:47 17:0.2766 18:0.1277 19:0.234 20:0.3617 21:0.2381 22:0.44 23:-1 
-0.3893231824309813 1:-1 2:0 3:0 4:23 5:0.381 6:2 7:5 8:0.2381 9:0.1429 10:0.2381 11:0.381 12:11 13:0.3182 14:1 15:0.3778 16:45 17:0.2667 18:0.1333 19:0.2444 20:0.3556 21:0.25 22:2.25 23:-1 
-0.8667714786549777 1:2 2:4 3:24 4:26 5:0.3182 6:5 7:3 8:0.2727 9:0.1364 10:0.1818 11:0.4091 12:6 13:0.3778 14:4 15:0.3469 16:98 17:0.2959 18:0.1735 19:0.1735 20:0.3571 21:0.2667 22:0 23:0.1556 
-1 1:1 2:2 3:14 4:20 5:0.25 6:3 7:3 8:0.35 9:0.15 10:0.1 11:0.4 12:71 13:0.2821 14:2 15:0.2877 16:73 17:0.3151 18:0.137 19:0.1507 20:0.3973 21:0.2 22:0.78 23:0.0769 
-1 1:2 2:3 3:13 4:24 5:0.375 6:3 7:3 8:0.2917 9:0.2917 10:0.0833 11:0.3333 12:15 13:0.2917 14:2 15:0.3973 16:73 17:0.2603 18:0.1781 19:0.2192 20:0.3425 21:0.2571 22:0.9 23:0.25 
-0.884454486576599 1:3 2:4 3:23 4:24 5:0.4 6:6 7:3 8:0.2 9:0.3 10:0.1 11:0.4 12:9 13:0.3636 14:3 15:0.4045 16:89 17:0.2584 18:0.2022 19:0.2022 20:0.3371 21:0.3023 22:0.56 23:0.2727 
-0.2852374423384727 1:4 2:3 3:21 4:25 5:0.4348 6:3 7:5 8:0.1304 9:0.1739 10:0.2609 11:0.4348 12:1 13:0.2889 14:3 15:0.4494 16:89 17:0.1573 18:0.191 19:0.2584 20:0.3933 21:0.2941 22:2.33 23:0.3 
-0.6672118537260098 1:2 2:3 3:15 4:27 5:0.7 6:7 7:3 8:0.1 9:0.5 10:0.2 11:0.2 12:58 13:0.4419 14:1 15:0.5616 16:73 17:0.2192 18:0.2877 19:0.274 20:0.2192 21:0.3235 22:0 23:0.1852 
-0.6222639093666497 1:6 2:3 3:20 4:28 5:0.6667 6:7 7:3 8:0.1429 9:0.4286 10:0.2381 11:0.1905 12:63 13:0.3478 14:4 15:0.5663 16:83 17:0.2289 18:0.2892 19:0.2771 20:0.2048 21:0.3077 22:1.83 23:0.2941 
-1 1:2 2:2 3:12 4:25 5:0.5 6:3 7:3 8:0.2917 9:0.25 10:0.25 11:0.2083 12:68 13:0.1667 14:1 15:0.5 16:80 17:0.2125 18:0.2 19:0.3 20:0.2875 21:0.1594 22:0.91 23:0.2174 
-1 1:3 2:2 3:8 4:20 5:0.7 6:2 7:4 8:0.25 9:0.4 10:0.3 11:0.05 12:27 13:0.2973 14:3 15:0.5636 16:55 17:0.2545 18:0.2909 19:0.2727 20:0.1818 21:0.32 22:0.83 23:0.4667 
-0.8384367490843402 1:1 2:1 3:4 4:24 5:0.6522 6:3 7:5 8:0.2609 9:0.3913 10:0.2609 11:0.087 12:27 13:0.3636 14:1 15:0.5636 16:55 17:0.2545 18:0.2909 19:0.2727 20:0.1818 21:0.32 22:1 23:0.25 
-0.1652063765217911 1:-1 2:0 3:0 4:24 5:0.6667 6:4 7:3 8:0.1905 9:0.4286 10:0.2381 11:0.1429 12:28 13:0.3778 14:3 15:0.6522 16:46 17:0.1739 18:0.3043 19:0.3478 20:0.1739 21:0.3171 22:1 23:-1 
-0.8934902467339393 1:1 2:1 3:5 4:26 5:0.6957 6:4 7:3 8:0.1739 9:0.3913 10:0.3043 11:0.1304 12:20 13:0.3061 14:2 15:0.6935 16:62 17:0.1613 18:0.3387 19:0.3548 20:0.1452 21:0.2632 22:1.8 23:0.2 
-0.4931560482685467 1:2 2:2 3:8 4:27 5:0.6667 6:4 7:4 8:0.1667 9:0.4167 10:0.25 11:0.1667 12:17 13:0.375 14:1 15:0.4706 16:68 17:0.25 18:0.1912 19:0.2794 20:0.2794 21:0.375 22:0.29 23:0.375 
-1 1:2 2:2 3:8 4:24 5:0.6667 6:4 7:3 8:0.1429 9:0.4286 10:0.2381 11:0.1905 12:20 13:0.2857 14:1 15:0.4839 16:62 17:0.2419 18:0.1935 19:0.2903 20:0.2742 21:0.3103 22:1.57 23:0.375 
-0.3663236358339914 1:1 2:1 3:3 4:25 5:0.4545 6:5 7:3 8:0.2273 9:0.2727 10:0.1818 11:0.3182 12:58 13:0.4043 14:2 15:0.4833 16:60 17:0.25 18:0.25 19:0.2333 20:0.2667 21:0.3725 22:1.4 23:0.3333 
-0.5139686040865259 1:-1 2:0 3:0 4:22 5:0.5 6:5 7:3 8:0.2 9:0.3 10:0.2 11:0.3 12:55 13:0.381 14:1 15:0.4898 16:49 17:0.2245 18:0.2449 19:0.2449 20:0.2857 21:0.35 22:0.7 23:-1 
-0.1775790741840663 1:-1 2:0 3:0 4:22 5:0.5217 6:6 7:4 8:0.3043 9:0.3478 10:0.1739 11:0.1739 12:39 13:0.4545 14:3 15:0.5 16:46 17:0.2609 18:0.2826 19:0.2174 20:0.2391 21:0.25 22:0 23:-1 
-0.02611486703985438 1:2 2:3 3:13 4:21 5:0.3333 6:2 7:3 8:0.2857 9:0.2857 10:0.0476 11:0.381 12:59 13:0.1282 14:2 15:0.443 16:79 17:0.2658 18:0.2278 19:0.2152 20:0.2911 21:0.2 22:2.5 23:0.3077 
-0.1282668388885507 1:2 2:1 3:10 4:20 5:0.35 6:2 7:2 8:0.35 9:0.1 10:0.25 11:0.3 12:3 13:0.2 14:4 15:0.4429 16:70 17:0.2714 18:0.1857 19:0.2571 20:0.2857 21:0.2 22:0.4 23:0.2 
-0.2048799814706219 1:2 2:3 3:15 4:22 5:0.3636 6:4 7:5 8:0.3182 9:0.1364 10:0.2273 11:0.3182 12:56 13:0.4545 14:4 15:0.3506 16:77 17:0.2857 18:0.1948 19:0.1558 20:0.3636 21:0.3973 22:1.4 23:0.3103 
-0.1662737374234409 1:2 2:2 3:10 4:22 5:0.8095 6:2 7:3 8:0.0952 9:0.4762 10:0.3333 11:0.0952 12:8 13:0.1628 14:1 15:0.6806 16:72 17:0.1528 18:0.3611 19:0.3194 20:0.1667 21:0.2258 22:0.56 23:0.3684 
-0.3985456415851517 1:2 2:3 3:13 4:25 5:0.7917 6:2 7:3 8:0.125 9:0.4167 10:0.375 11:0.0833 12:2 13:0.1429 14:2 15:0.6905 16:84 17:0.1429 18:0.369 19:0.3214 20:0.1667 21:0.2162 22:0.8 23:0.36 
-1 1:2 2:2 3:8 4:26 5:0.25 6:6 7:2 8:0.2917 9:0.0417 10:0.2083 11:0.4583 12:52 13:0.1818 14:3 15:0.3279 16:61 17:0.3115 18:0.1475 19:0.1803 20:0.3607 21:0.1786 22:0 23:0.2857 
-0.4784761453871478 1:2 2:2 3:8 4:24 5:0.2273 6:6 7:2 8:0.3182 9:0.0455 10:0.1818 11:0.4545 12:52 13:0.2 14:2 15:0.2982 16:57 17:0.3333 18:0.1404 19:0.1579 20:0.3684 21:0.1923 22:0 23:0.2857 
-0.3725384289967307 1:-1 2:0 3:0 4:21 5:0.5714 6:1 7:2 8:0.1905 9:0.2857 10:0.2857 11:0.2381 12:38 13:0.0732 14:-1 15:0.5476 16:42 17:0.2381 18:0.2857 19:0.2619 20:0.2143 21:0.0256 22:0.73 23:-1 
-0.1127731544577889 1:-1 2:0 3:0 4:23 5:0.5652 6:1 7:3 8:0.1739 9:0.2609 10:0.3043 11:0.2609 12:38 13:0.0909 14:3 15:0.5333 16:45 17:0.2444 18:0.2667 19:0.2667 20:0.2222 21:0.0476 22:1.14 23:-1 
-0.2119106543134711 1:-1 2:0 3:0 4:22 5:0.3478 6:2 7:3 8:0.2174 9:0.1304 10:0.2174 11:0.4348 12:21 13:0.1905 14:3 15:0.4545 16:44 17:0.25 18:0.1591 19:0.2955 20:0.2955 21:0.15 22:1.8 23:-1 
-0.05171460661719875 1:2 2:2 3:15 4:22 5:0.3182 6:1 7:3 8:0.1818 9:0.2727 10:0.0455 11:0.5 12:5 13:0.1163 14:4 15:0.4 16:75 17:0.28 18:0.1733 19:0.2267 20:0.32 21:0.1268 22:0.86 23:0.1429 
-0.5153307708337094 1:12 2:1 3:20 4:24 5:0.4167 6:3 7:4 8:0.375 9:0.1667 10:0.25 11:0.2083 12:2 13:0.2766 14:4 15:0.284 16:81 17:0.2963 18:0.0988 19:0.1852 20:0.4198 21:0.3506 22:1.12 23:0.4667 
-0.5515190728724715 1:-1 2:0 3:3 4:23 5:0.1739 6:12 7:2 8:0.3043 9:0.087 10:0.087 11:0.5217 12:43 13:0.4444 14:1 15:0.2391 16:46 17:0.3261 18:0.087 19:0.1522 20:0.4348 21:0.381 22:0 23:0 
-0.248656154928561 1:-1 2:0 3:0 4:24 5:0.25 6:3 7:2 8:0.2917 9:0.0417 10:0.2083 11:0.4583 12:42 13:0.1489 14:-1 15:0.3061 16:49 17:0.2857 18:0.1224 19:0.1837 20:0.4082 21:0.1111 22:0.67 23:-1 
-0.5959585018290092 1:2 2:1 3:7 4:25 5:0.4583 6:4 7:4 8:0.125 9:0.0833 10:0.375 11:0.4167 12:49 13:0.3878 14:2 15:0.5352 16:71 17:0.1127 18:0.2535 19:0.2817 20:0.3521 21:0.3651 22:1 23:0.2857 
-0.264674284836085 1:-1 2:0 3:11 4:21 5:0.3333 6:2 7:3 8:0.2857 9:0.1905 10:0.1429 11:0.381 12:1 13:0.2381 14:3 15:0.375 16:72 17:0.25 18:0.1806 19:0.1944 20:0.375 21:0.1562 22:0.56 23:0 
-0.1953807229581061 1:-1 2:0 3:0 4:22 5:0.45 6:5 7:3 8:0.25 9:0.1 10:0.35 11:0.3 12:51 13:0.381 14:1 15:0.3864 16:44 17:0.25 18:0.1591 19:0.2273 20:0.3636 21:0.2778 22:0.3 23:-1 
-0.6737154326072334 1:-1 2:0 3:3 4:20 5:0.25 6:5 7:2 8:0.3 9:0.15 10:0.1 11:0.45 12:23 13:0.2632 14:2 15:0.3462 16:52 17:0.2692 18:0.1346 19:0.2115 20:0.3846 21:0.2273 22:4 23:0 
-0.3783004237658099 1:1 2:1 3:10 4:21 5:0.4286 6:1 7:3 8:0.1905 9:0.1905 10:0.2381 11:0.381 12:54 13:0.1429 14:1 15:0.3 16:70 17:0.3429 18:0.1571 19:0.1429 20:0.3571 21:0.129 22:1.29 23:0.1 
-0.2076037747713353 1:1 2:2 3:12 4:23 5:0.55 6:4 7:5 8:0.15 9:0.15 10:0.4 11:0.3 12:49 13:0.4419 14:2 15:0.5075 16:67 17:0.194 18:0.2239 19:0.2836 20:0.2985 21:0.3125 22:1 23:0.1304 
-1 1:1 2:2 3:11 4:23 5:0.55 6:4 7:5 8:0.15 9:0.1 10:0.45 11:0.3 12:48 13:0.3953 14:2 15:0.4923 16:65 17:0.2 18:0.2 19:0.2923 20:0.3077 21:0.2903 22:1 23:0.1429 
-0.5793564124273746 1:4 2:3 3:24 4:23 5:0.35 6:4 7:4 8:0.2 9:0.3 10:0.05 11:0.45 12:3 13:0.3488 14:3 15:0.4783 16:92 17:0.1739 18:0.1957 19:0.2826 20:0.3478 21:0.3095 22:0.22 23:0.2683 
-0.2134850166797028 1:-1 2:0 3:0 4:27 5:0.5217 6:4 7:4 8:0.3043 9:0.1739 10:0.3478 11:0.1739 12:23 13:0.3617 14:-1 15:0.5306 16:49 17:0.1633 18:0.1837 19:0.3469 20:0.3061 21:0.2683 22:3 23:-1 
-0.3059158745603259 1:-1 2:0 3:10 4:24 5:0.4583 6:2 7:2 8:0.375 9:0.125 10:0.3333 11:0.1667 12:1 13:0.125 14:1 15:0.4744 16:78 17:0.2692 18:0.2308 19:0.2436 20:0.2564 21:0.0882 22:0.86 23:0 
-0.29284179986606 1:-1 2:0 3:7 4:24 5:0.4167 6:1 7:1 8:0.1667 9:0.2083 10:0.2083 11:0.4167 12:52 13:0.0417 14:3 15:0.4583 16:72 17:0.2639 18:0.2222 19:0.2361 20:0.2778 21:0.0323 22:0.8 23:0 
-0.04217807392412941 1:2 2:2 3:11 4:24 5:0.3333 6:4 7:3 8:0.4167 9:0.1667 10:0.1667 11:0.25 12:52 13:0.2174 14:2 15:0.4 16:75 17:0.2933 18:0.2133 19:0.1867 20:0.3067 21:0.2537 22:0.73 23:0.3333 
-0.5115753505347097 1:2 2:1 3:8 4:24 5:0.5 6:7 7:4 8:0.1818 9:0.2273 10:0.2727 11:0.3182 12:3 13:0.3913 14:4 15:0.4493 16:69 17:0.1884 18:0.1449 19:0.3043 20:0.3623 21:0.3443 22:0 23:0.2 
-0.3249783072939026 1:3 2:1 3:12 4:22 5:0.45 6:9 7:3 8:0.1 9:0.2 10:0.25 11:0.45 12:1 13:0.4762 14:3 15:0.4247 16:73 17:0.1781 18:0.137 19:0.2877 20:0.3973 21:0.3846 22:0 23:0.2174 
-0.4605091917344272 1:3 2:1 3:10 4:23 5:0.3 6:8 7:2 8:0.4 9:0.2 10:0.1 11:0.3 12:67 13:0.3333 14:3 15:0.4127 16:63 17:0.2857 18:0.1746 19:0.2381 20:0.3016 21:0.2881 22:0.57 23:0.1765 
-0.655152220625448 1:3 2:1 3:11 4:23 5:0.5909 6:8 7:2 8:0.2273 9:0.1818 10:0.4091 11:0.1818 12:23 13:0.3333 14:4 15:0.4154 16:65 17:0.2769 18:0.1692 19:0.2462 20:0.3077 21:0.2787 22:4.5 23:0.1579 
-1 1:1 2:1 3:8 4:23 5:0.65 6:3 7:5 8:0.2 9:0.45 10:0.2 11:0.15 12:50 13:0.2381 14:3 15:0.7077 16:65 17:0.1231 18:0.3231 19:0.3846 20:0.1692 21:0.1786 22:5 23:0.125 
-0.3823102997278734 1:1 2:1 3:9 4:24 5:0.7391 6:5 7:5 8:0.087 9:0.3478 10:0.3913 11:0.1739 12:3 13:0.3182 14:1 15:0.7101 16:69 17:0.1159 18:0.3333 19:0.3768 20:0.1739 21:0.2333 22:0 23:0.1111 
-0.3771933598023365 1:-1 2:0 3:0 4:20 5:0.35 6:3 7:3 8:0.35 9:0.2 10:0.15 11:0.3 12:20 13:0.25 14:1 15:0.3659 16:41 17:0.3415 18:0.1707 19:0.1951 20:0.2927 21:0.1176 22:4 23:-1 
-0.07398271199633534 1:1 2:1 3:9 4:25 5:0.5417 6:4 7:4 8:0.25 9:0.2917 10:0.25 11:0.2083 12:52 13:0.25 14:3 15:0.52 16:75 17:0.2267 18:0.24 19:0.28 20:0.2533 21:0.2 22:0.78 23:0.0588 
-0.1400452414907289 1:-1 2:0 3:0 4:24 5:0.4167 6:4 7:3 8:0.2917 9:0.0833 10:0.3333 11:0.2917 12:48 13:0.3191 14:4 15:0.3958 16:48 17:0.2083 18:0.1458 19:0.25 20:0.3958 21:0.2558 22:0.62 23:-1 
-1 1:1 2:2 3:6 4:22 5:0.4091 6:3 7:3 8:0.2273 9:0.0909 10:0.3182 11:0.3636 12:55 13:0.3182 14:2 15:0.3793 16:58 17:0.1897 18:0.1379 19:0.2414 20:0.431 21:0.283 22:0.43 23:0.2727 
-0.6280753764433726 1:-1 2:0 3:0 4:29 5:0.3333 6:5 7:5 8:0.2917 9:0.125 10:0.2083 11:0.375 12:51 13:0.3208 14:3 15:0.2182 16:55 17:0.4182 18:0.0909 19:0.1273 20:0.3636 21:0.2941 22:0.71 23:-1 
-0.9537960161296934 1:-1 2:0 3:2 4:27 5:0.5417 6:3 7:5 8:0.2083 9:0.1667 10:0.375 11:0.25 12:21 13:0.234 14:3 15:0.5439 16:57 17:0.1579 18:0.2456 19:0.2982 20:0.2982 21:0.2157 22:1.67 23:0 
-0.2868521052748786 1:-1 2:0 3:0 4:24 5:0.4583 6:3 7:5 8:0.125 9:0.1667 10:0.2917 11:0.4167 12:26 13:0.3023 14:-1 15:0.5556 16:45 17:0.1556 18:0.2444 19:0.3111 20:0.2889 21:0.2308 22:1 23:-1 
-0.2507215735200883 1:-1 2:0 3:0 4:21 5:0.5909 6:2 7:4 8:0.1818 9:0.2727 10:0.3182 11:0.2273 12:38 13:0.2683 14:4 15:0.5714 16:42 17:0.1429 18:0.2857 19:0.2857 20:0.2857 21:0.1892 22:0.57 23:-1 
-0.3384338952551984 1:2 2:1 3:11 4:22 5:0.4091 6:2 7:5 8:0.2273 9:0.2273 10:0.1818 11:0.3636 12:56 13:0.2558 14:4 15:0.3636 16:77 17:0.2208 18:0.1558 19:0.2078 20:0.4156 21:0.2308 22:1.6 23:0.1818 
-0.2894247687058963 1:1 2:3 3:12 4:24 5:0.4783 6:3 7:4 8:0.3043 9:0.2609 10:0.2174 11:0.2174 12:55 13:0.3617 14:4 15:0.4026 16:77 17:0.2727 18:0.2078 19:0.1948 20:0.3247 21:0.2941 22:0.8 23:0.2174 
-0.02711881843353377 1:3 2:2 3:11 4:21 5:0.2381 6:1 7:4 8:0.3333 9:0.0476 10:0.1905 11:0.4286 12:3 13:0.1905 14:4 15:0.3099 16:71 17:0.2817 18:0.1549 19:0.1549 20:0.4085 21:0.2258 22:1 23:0.3636 
-0.04765495650343014 1:3 2:2 3:12 4:20 5:0.25 6:1 7:4 8:0.35 9:0.05 10:0.2 11:0.4 12:3 13:0.2 14:1 15:0.3099 16:71 17:0.2817 18:0.1549 19:0.1549 20:0.4085 21:0.2258 22:0.86 23:0.3333 
-1 1:-1 2:0 3:7 4:21 5:0.5238 6:2 7:1 8:0.2857 9:0.1905 10:0.3333 11:0.1905 12:50 13:0.0952 14:3 15:0.5156 16:64 17:0.2344 18:0.2344 19:0.2812 20:0.25 21:0.0714 22:1 23:0 
-0.5138887772875653 1:1 2:1 3:8 4:23 5:0.3043 6:-1 7:0 8:0.3478 9:0.2609 10:0.0435 11:0.3478 12:48 13:0 14:1 15:0.3284 16:67 17:0.3284 18:0.1642 19:0.1642 20:0.3433 21:0 22:0.9 23:0.125 
-0.09556723769740384 1:2 2:3 3:12 4:27 5:0.3333 6:5 7:3 8:0.25 9:0.0417 10:0.2917 11:0.4167 12:2 13:0.2157 14:2 15:0.4133 16:75 17:0.2267 18:0.16 19:0.2533 20:0.36 21:0.2 22:0.56 23:0.2381 
-0.001449244451335485 1:1 2:3 3:14 4:20 5:0.55 6:1 7:4 8:0.1 9:0.35 10:0.2 11:0.35 12:55 13:0.1795 14:4 15:0.4384 16:73 17:0.2055 18:0.2329 19:0.2055 20:0.3562 21:0.1562 22:0.88 23:0.1852 
-0.3051554470250281 1:3 2:4 3:20 4:21 5:0.35 6:3 7:3 8:0.2 9:0.05 10:0.3 11:0.45 12:4 13:0.1579 14:4 15:0.4177 16:79 17:0.2405 18:0.1266 19:0.2911 20:0.3418 21:0.2533 22:1.29 23:0.3514 
-0.3368316110515874 1:4 2:2 3:14 4:22 5:0.5455 6:3 7:4 8:0.1818 9:0.3182 10:0.2273 11:0.2727 12:55 13:0.3023 14:1 15:0.5616 16:73 17:0.2192 18:0.3014 19:0.2603 20:0.2192 21:0.2836 22:1 23:0.25 
-0.04537982164437326 1:4 2:2 3:16 4:23 5:0.5 6:4 7:4 8:0.2273 9:0.2727 10:0.2273 11:0.2727 12:1 13:0.4222 14:4 15:0.5696 16:79 17:0.2152 18:0.3165 19:0.2532 20:0.2152 21:0.3425 22:0 23:0.2143 
-0.397068435751316 1:1 2:1 3:13 4:22 5:0.3182 6:7 7:2 8:0.2273 9:0.0909 10:0.2273 11:0.4545 12:6 13:0.3846 14:1 15:0.2754 16:69 17:0.3333 18:0.1304 19:0.1449 20:0.3913 21:0.2615 22:0.78 23:0.0769 
-0.009647533471488634 1:4 2:3 3:17 4:23 5:0.3043 6:1 7:1 8:0.3478 9:0.2174 10:0.087 11:0.3478 12:61 13:0.0435 14:4 15:0.4074 16:81 17:0.3086 18:0.2099 19:0.1975 20:0.284 21:0.1316 22:1 23:0.3125 
-0.7876929842390866 1:4 2:3 3:16 4:21 5:0.2857 6:1 7:1 8:0.381 9:0.2381 10:0.0476 11:0.3333 12:60 13:0.0476 14:2 15:0.4133 16:75 17:0.3067 18:0.2133 19:0.2 20:0.28 21:0.1429 22:1 23:0.3333 
-0.3418155494019309 1:-1 2:0 3:0 4:22 5:0.3478 6:2 7:2 8:0.3478 9:0.1304 10:0.2174 11:0.3043 12:17 13:0.0952 14:-1 15:0.3636 16:44 17:0.2955 18:0.1818 19:0.1818 20:0.3409 21:0.05 22:1.29 23:-1 
-1 1:2 2:1 3:6 4:21 5:0.4286 6:4 7:3 8:0.3333 9:0.2857 10:0.1429 11:0.2381 12:65 13:0.2683 14:1 15:0.4912 16:57 17:0.2456 18:0.2105 19:0.2807 20:0.2632 21:0.2549 22:1.33 23:0.2 
-0.300044311124447 1:4 2:3 3:24 4:20 5:0.25 6:2 7:2 8:0.35 9:0.1 10:0.15 11:0.4 12:12 13:0.2 14:1 15:0.4286 16:91 17:0.2527 18:0.1758 19:0.2527 20:0.3187 21:0.2235 22:2.5 23:0.2444 
-0.3926635281830025 1:7 2:4 3:24 4:22 5:0.5 6:4 7:5 8:0.3636 9:0.2273 10:0.2727 11:0.1364 12:11 13:0.4419 14:1 15:0.5326 16:92 17:0.2826 18:0.2283 19:0.3043 20:0.1848 21:0.3953 22:0.4 23:0.3488 
-0.6544190094127539 1:7 2:6 3:33 4:21 5:0.4286 6:4 7:4 8:0.1905 9:0.1905 10:0.2381 11:0.381 12:90 13:0.4146 14:2 15:0.5234 16:107 17:0.2617 18:0.2336 19:0.2897 20:0.215 21:0.3861 22:0.71 23:0.3667 
-0.3181841991993229 1:-1 2:0 3:0 4:22 5:0.6522 6:7 7:2 8:0.1739 9:0.3478 10:0.3043 11:0.1739 12:48 13:0.3636 14:-1 15:0.5652 16:46 17:0.2391 18:0.2826 19:0.2826 20:0.1957 21:0.0667 22:0 23:-1 
-0.1776286903244655 1:-1 2:0 3:0 4:21 5:0.5714 6:5 7:2 8:0.2381 9:0.3333 10:0.2381 11:0.1905 12:51 13:0.2857 14:4 15:0.5417 16:48 17:0.25 18:0.2708 19:0.2708 20:0.2083 21:0.0625 22:0 23:-1 
-0.334722901925923 1:-1 2:0 3:0 4:21 5:0.45 6:3 7:4 8:0.2 9:0.25 10:0.2 11:0.35 12:13 13:0.35 14:3 15:0.4146 16:41 17:0.2683 18:0.1951 19:0.2195 20:0.3171 21:0.2353 22:2.5 23:-1 
-0.1426466884897184 1:-1 2:0 3:0 4:23 5:0.5 6:3 7:4 8:0.1818 9:0.2727 10:0.2273 11:0.3182 12:11 13:0.3182 14:3 15:0.4667 16:45 17:0.2444 18:0.2222 19:0.2444 20:0.2889 21:0.2105 22:3 23:-1 
-0.232571830038987 1:2 2:5 3:23 4:22 5:0.5238 6:4 7:3 8:0.1905 9:0.1905 10:0.3333 11:0.2857 12:3 13:0.3333 14:3 15:0.4767 16:86 17:0.2907 18:0.1628 19:0.314 20:0.2326 21:0.2927 22:4.5 23:0.2558 
-0.3140059751688767 1:4 2:2 3:15 4:21 5:0.5714 6:3 7:3 8:0.1429 9:0.3333 10:0.2381 11:0.2857 12:1 13:0.2195 14:4 15:0.4824 16:85 17:0.1529 18:0.2471 19:0.2353 20:0.3647 21:0.2676 22:0.9 23:0.3333 
-0.1109161590267442 1:-1 2:0 3:0 4:24 5:0.5455 6:4 7:4 8:0.2727 9:0.2727 10:0.2727 11:0.1818 12:48 13:0.3488 14:4 15:0.5 16:44 17:0.2273 18:0.2273 19:0.2727 20:0.2727 21:0.2821 22:0.44 23:-1 
-1 1:4 2:4 3:20 4:26 5:0.4545 6:3 7:4 8:0.1818 9:0.0455 10:0.4091 11:0.3636 12:7 13:0.2083 14:4 15:0.4535 16:86 17:0.2326 18:0.2093 19:0.2442 20:0.314 21:0.2593 22:1.11 23:0.3714 
-0.4946373294093702 1:5 2:3 3:18 4:23 5:0.4286 6:2 7:3 8:0.2857 9:0.0952 10:0.3333 11:0.2857 12:61 13:0.1628 14:4 15:0.4487 16:78 17:0.2564 18:0.2308 19:0.2179 20:0.2949 21:0.28 22:1.5 23:0.4706 
-0.07332025111292331 1:1 2:1 3:14 4:24 5:0.4 6:7 7:2 8:0.45 9:0.25 10:0.15 11:0.15 12:1 13:0.2727 14:3 15:0.5333 16:75 17:0.24 18:0.2667 19:0.2667 20:0.2267 21:0.1714 22:0.38 23:0.0714 
-0.1039589825029092 1:1 2:1 3:13 4:25 5:0.4286 6:7 7:2 8:0.4286 9:0.2857 10:0.1429 11:0.1429 12:1 13:0.2609 14:2 15:0.5333 16:75 17:0.24 18:0.2667 19:0.2667 20:0.2267 21:0.1714 22:0.33 23:0.0769 
-0.2681192291065583 1:2 2:2 3:12 4:22 5:0.4545 6:2 7:2 8:0.2727 9:0.2727 10:0.1818 11:0.2727 12:7 13:0.1818 14:4 15:0.4085 16:71 17:0.2676 18:0.2113 19:0.1972 20:0.3239 21:0.194 22:0.56 23:0.2174 
-0.4203300201990758 1:-1 2:0 3:8 4:23 5:0.4783 6:2 7:4 8:0.087 9:0.3913 10:0.087 11:0.4348 12:47 13:0.2609 14:3 15:0.4848 16:66 17:0.197 18:0.2424 19:0.2424 20:0.3182 21:0.1935 22:1.25 23:0 
-0.1152657902702132 1:-1 2:0 3:12 4:20 5:0.5 6:2 7:4 8:0.1 9:0.35 10:0.15 11:0.4 12:51 13:0.35 14:3 15:0.4853 16:68 17:0.1912 18:0.2353 19:0.25 20:0.3235 21:0.2188 22:1.6 23:0 
-0.1167650100840054 1:2 2:4 3:23 4:21 5:0.381 6:2 7:4 8:0.2381 9:0.1905 10:0.1905 11:0.381 12:2 13:0.2683 14:1 15:0.4138 16:87 17:0.2529 18:0.1839 19:0.2299 20:0.3333 21:0.2381 22:0.86 23:0.2444 
-0.3967666269832849 1:-1 2:0 3:0 4:25 5:0.375 6:2 7:5 8:0.2083 9:0.0417 10:0.3333 11:0.4167 12:21 13:0.2653 14:1 15:0.36 16:50 17:0.3 18:0.16 19:0.2 20:0.34 21:0.234 22:1.5 23:-1 
-0.6020411029415413 1:1 2:2 3:10 4:24 5:0.5 6:2 7:3 8:0.25 9:0.2917 10:0.2083 11:0.25 12:62 13:0.1915 14:1 15:0.4487 16:78 17:0.2692 18:0.2179 19:0.2308 20:0.2821 21:0.1818 22:0.86 23:0.1579 
-0.173777226928289 1:1 2:2 3:11 4:25 5:0.4583 6:2 7:4 8:0.2917 9:0.1667 10:0.2917 11:0.25 12:6 13:0.2083 14:2 15:0.4321 16:81 17:0.284 18:0.2099 19:0.2222 20:0.284 21:0.1884 22:1.17 23:0.1429 
-0.3361039543407661 1:2 2:2 3:9 4:26 5:0.4583 6:1 7:3 8:0.1667 9:0.2083 10:0.25 11:0.375 12:5 13:0.0612 14:2 15:0.4474 16:76 17:0.2105 18:0.2105 19:0.2368 20:0.3421 21:0.1212 22:0.78 23:0.2941 
-0.9115126554404551 1:1 2:2 3:15 4:24 5:0.5652 6:5 7:3 8:0.1739 9:0.4348 10:0.1304 11:0.2609 12:7 13:0.2766 14:4 15:0.5443 16:79 17:0.1646 18:0.2785 19:0.2658 20:0.2911 21:0.2 22:1.5 23:0.0714 
-0.2818570205204584 1:-1 2:0 3:0 4:23 5:0.5455 6:1 7:4 8:0.1364 9:0.1818 10:0.3636 11:0.3182 12:47 13:0.1364 14:-1 15:0.5217 16:46 17:0.1522 18:0.2174 19:0.3043 20:0.3261 21:0.0952 22:0.6 23:-1 
-0.5151925255147934 1:2 2:3 3:20 4:24 5:0.8182 6:2 7:5 8:0.0909 9:0.4545 10:0.3636 11:0.0909 12:77 13:0.1905 14:1 15:0.7262 16:84 17:0.1071 18:0.3452 19:0.381 20:0.1667 21:0.175 22:1.67 23:0.1579 
-0.8835507028566705 1:2 2:2 3:14 4:25 5:0.7826 6:2 7:5 8:0.0435 9:0.4783 10:0.3043 11:0.1739 12:71 13:0.1739 14:2 15:0.7105 16:76 17:0.1053 18:0.3421 19:0.3684 20:0.1842 21:0.1667 22:0.89 23:0.1538 
-0.05554452634215587 1:3 2:5 3:24 4:20 5:0.55 6:3 7:2 8:0.15 9:0.4 10:0.15 11:0.3 12:5 13:0.25 14:4 15:0.5568 16:88 17:0.1591 18:0.3068 19:0.25 20:0.2841 21:0.2771 22:0.7 23:0.3333 
-0.1850115943825176 1:-1 2:0 3:0 4:23 5:0.6087 6:3 7:5 8:0.1739 9:0.4348 10:0.1739 11:0.2174 12:48 13:0.3488 14:2 15:0.5909 16:44 17:0.1364 18:0.3182 19:0.2727 20:0.2727 21:0.2821 22:0.83 23:-1 
-0.5163513857984385 1:1 2:2 3:11 4:27 5:0.5217 6:3 7:5 8:0.2609 9:0.1304 10:0.3913 11:0.2174 12:51 13:0.25 14:4 15:0.4384 16:73 17:0.2192 18:0.1781 19:0.2603 20:0.3425 21:0.2174 22:1.5 23:0.1429 
-0.479492485818695 1:1 2:3 3:11 4:23 5:0.4783 6:2 7:2 8:0.1304 9:0.1739 10:0.3043 11:0.3913 12:61 13:0.1163 14:2 15:0.5395 16:76 17:0.2105 18:0.2368 19:0.3026 20:0.25 21:0.1429 22:0.8 23:0.2727 
-0.09467843855397955 1:1 2:3 3:10 4:23 5:0.4783 6:2 7:2 8:0.1304 9:0.1739 10:0.3043 11:0.3913 12:60 13:0.1163 14:3 15:0.527 16:74 17:0.2162 18:0.2297 19:0.2973 20:0.2568 21:0.1475 22:1.22 23:0.3 
-0.02441660695320322 1:1 2:2 3:17 4:21 5:0.7 6:2 7:3 8:0.2 9:0.2 10:0.5 11:0.1 12:7 13:0.2683 14:4 15:0.5647 16:85 17:0.2353 18:0.2471 19:0.3176 20:0.2 21:0.1667 22:2 23:0.0909 
-0.4568485820982328 1:1 2:2 3:17 4:25 5:0.7083 6:2 7:4 8:0.2083 9:0.2083 10:0.5 11:0.0833 12:3 13:0.25 14:4 15:0.5652 16:92 17:0.2283 18:0.25 19:0.3152 20:0.2065 21:0.1646 22:1.17 23:0.0909 
-0.5184537370785528 1:1 2:1 3:10 4:24 5:0.3043 6:3 7:3 8:0.3478 9:0.1304 10:0.1739 11:0.3478 12:9 13:0.234 14:3 15:0.4419 16:86 17:0.3023 18:0.2209 19:0.2209 20:0.2558 21:0.1818 22:1.4 23:0.0526 
-0.7535289932670202 1:-1 2:0 3:0 4:23 5:0.5 6:5 7:3 8:0.2727 9:0.3182 10:0.1818 11:0.2273 12:57 13:0.3778 14:4 15:0.4364 16:55 17:0.3091 18:0.2182 19:0.2182 20:0.2545 21:0.2 22:0 23:-1 
-1 1:1 2:1 3:12 4:21 5:0.4286 6:3 7:3 8:0.1429 9:0.1905 10:0.2381 11:0.4286 12:67 13:0.3171 14:1 15:0.4571 16:70 17:0.2286 18:0.2571 19:0.2 20:0.3143 21:0.2188 22:1.6 23:0.0435 
-1 1:1 2:1 3:17 4:27 5:0.5217 6:3 7:5 8:0.3043 9:0.2609 10:0.2609 11:0.1739 12:10 13:0.36 14:3 15:0.4494 16:89 17:0.236 18:0.2472 19:0.2022 20:0.3146 21:0.2289 22:1.4 23:0.0303 
-0.3370146842408743 1:2 2:4 3:25 4:23 5:0.5217 6:3 7:5 8:0.2174 9:0.1304 10:0.3913 11:0.2609 12:71 13:0.2821 14:3 15:0.4333 16:90 17:0.2444 18:0.1111 19:0.3222 20:0.3222 21:0.2 22:0.8 23:0.1667 
-0.8109186963045872 1:1 2:2 3:4 4:22 5:0.45 6:1 7:3 8:0.5 9:0 10:0.45 11:0.05 12:19 13:0.0952 14:4 15:0.3396 16:53 17:0.2642 18:0.0755 19:0.2642 20:0.3962 21:0.125 22:1.14 23:0.5 
-0.3605390487406128 1:-1 2:0 3:0 4:31 5:0.5652 6:7 7:4 8:0.1739 9:0.4783 10:0.087 11:0.2609 12:60 13:0.3962 14:-1 15:0.5273 16:55 17:0.2545 18:0.3273 19:0.2 20:0.2182 21:0.2195 22:0 23:-1 
-0.8368320647913146 1:7 2:4 3:29 4:24 5:0.5714 6:3 7:5 8:0.1905 9:0.3333 10:0.2381 11:0.2381 12:86 13:0.4091 14:2 15:0.5283 16:106 17:0.2075 18:0.3019 19:0.2264 20:0.2642 21:0.3478 22:3.67 23:0.2917 
-0.5822801206594055 1:5 2:3 3:20 4:21 5:0.381 6:2 7:3 8:0.1429 9:0.1429 10:0.2381 11:0.4762 12:15 13:0.25 14:4 15:0.3333 16:78 17:0.2436 18:0.1154 19:0.2179 20:0.4231 21:0.3784 22:1.29 23:0.5294 
-0.4732009481038488 1:5 2:2 3:14 4:23 5:0.3043 6:2 7:4 8:0.1739 9:0.1304 10:0.1739 11:0.5217 12:19 13:0.2857 14:3 15:0.3286 16:70 17:0.2429 18:0.1143 19:0.2143 20:0.4286 21:0.4242 22:0.62 23:0.6667 
-0.2994724365457977 1:3 2:5 3:29 4:26 5:0.3333 6:5 7:5 8:0.2083 9:0.3333 10:0 11:0.4583 12:1 13:0.3488 14:4 15:0.4608 16:102 17:0.2059 18:0.2255 19:0.2353 20:0.3333 21:0.3125 22:0 23:0.283 
-0.8480370395572144 1:-1 2:0 3:0 4:28 5:0.4348 6:3 7:5 8:0.2174 9:0.3043 10:0.1304 11:0.3478 12:26 13:0.2941 14:4 15:0.5088 16:57 17:0.193 18:0.2456 19:0.2632 20:0.2982 21:0.2941 22:0.45 23:-1 
-0.2568399110015077 1:1 2:1 3:4 4:24 5:0.619 6:4 7:4 8:0.0952 9:0.3333 10:0.2857 11:0.2857 12:56 13:0.3488 14:2 15:0.6071 16:56 17:0.1607 18:0.3393 19:0.2679 20:0.2321 21:0.3061 22:2.25 23:0.25 
-1 1:1 2:1 3:5 4:26 5:0.6522 6:4 7:4 8:0.087 9:0.3478 10:0.3043 11:0.2609 12:57 13:0.3191 14:3 15:0.6452 16:62 17:0.1452 18:0.3548 19:0.2903 20:0.2097 21:0.2727 22:0.89 23:0.2 
-0.8827016237464189 1:6 2:2 3:17 4:23 5:0.4545 6:6 7:3 8:0.2273 9:0.2727 10:0.1818 11:0.3182 12:13 13:0.3333 14:4 15:0.56 16:75 17:0.1867 18:0.1867 19:0.3733 20:0.2533 21:0.3333 22:2.67 23:0.375 
-0.383284332803757 1:1 2:1 3:3 4:26 5:0.4583 6:6 7:2 8:0.1667 9:0.25 10:0.2083 11:0.375 12:23 13:0.3636 14:3 15:0.5614 16:57 17:0.193 18:0.1754 19:0.386 20:0.2456 21:0.3333 22:0.9 23:0.3333 
-0.03008696813606973 1:-1 2:0 3:0 4:25 5:0.5652 6:3 7:4 8:0.2174 9:0.2174 10:0.3478 11:0.2174 12:22 13:0.3478 14:-1 15:0.5625 16:48 17:0.2292 18:0.2917 19:0.2708 20:0.2083 21:0.2857 22:1.6 23:-1 
-1 1:3 2:1 3:8 4:24 5:0.6957 6:4 7:4 8:0.087 9:0.3478 10:0.3478 11:0.2174 12:56 13:0.381 14:3 15:0.5938 16:64 17:0.2031 18:0.3438 19:0.25 20:0.2031 21:0.3793 22:0.83 23:0.375 
-0.05806508545594184 1:5 2:1 3:16 4:23 5:0.5238 6:4 7:5 8:0.2381 9:0.2381 10:0.2857 11:0.2381 12:18 13:0.3953 14:1 15:0.4342 16:76 17:0.2763 18:0.1974 19:0.2368 20:0.2895 21:0.3143 22:0.29 23:0.1852 
-0.3498165088572609 1:-1 2:0 3:1 4:25 5:0.5 6:5 7:3 8:0.25 9:0.15 10:0.35 11:0.25 12:62 13:0.2273 14:3 15:0.4231 16:52 17:0.2692 18:0.2115 19:0.2115 20:0.3077 21:0.2174 22:1 23:0 
-0.5545722278265903 1:-1 2:0 3:0 4:27 5:0.4348 6:4 7:4 8:0.087 9:0.2174 10:0.2174 11:0.4783 12:25 13:0.3725 14:4 15:0.4231 16:52 17:0.2115 18:0.1923 19:0.2308 20:0.3654 21:0.2889 22:1.33 23:-1 
-0.7622303874600028 1:1 2:1 3:3 4:24 5:0.375 6:4 7:3 8:0.4167 9:0.1667 10:0.2083 11:0.2083 12:55 13:0.2889 14:4 15:0.4286 16:56 17:0.2143 18:0.1964 19:0.2321 20:0.3571 21:0.2653 22:0 23:0.3333 
-0.6261218879793939 1:4 2:2 3:22 4:26 5:0.5 6:4 7:4 8:0.1818 9:0.2727 10:0.2273 11:0.3182 12:81 13:0.234 14:4 15:0.4624 16:93 17:0.2366 18:0.2366 19:0.2258 20:0.3011 21:0.1954 22:1.33 23:0.15 
-0.2405463765380159 1:1 2:4 3:22 4:22 5:0.4545 6:2 7:4 8:0.2727 9:0.1364 10:0.3182 11:0.2727 12:13 13:0.2273 14:2 15:0.4831 16:89 17:0.3034 18:0.2135 19:0.2697 20:0.2135 21:0.186 22:2 23:0.1818 
-0.998287297031947 1:1 2:2 3:6 4:20 5:0.55 6:2 7:3 8:0.2 9:0.2 10:0.35 11:0.25 12:64 13:0.2 14:3 15:0.4906 16:53 17:0.3019 18:0.2264 19:0.2642 20:0.2075 21:0.2 22:1.8 23:0.3333 
-0.413957647591695 1:-1 2:0 3:0 4:27 5:0.3636 6:8 7:2 8:0.2727 9:0.2273 10:0.1364 11:0.3636 12:55 13:0.3171 14:4 15:0.3404 16:47 17:0.2979 18:0.2128 19:0.1277 20:0.3617 21:0.3171 22:1.14 23:-1 
-0.4965102106796393 1:5 2:1 3:11 4:20 5:0.45 6:8 7:2 8:0.3 9:0.3 10:0.15 11:0.25 12:61 13:0.3125 14:4 15:0.3455 16:55 17:0.2909 18:0.2182 19:0.1273 20:0.3636 21:0.3061 22:1.43 23:0.2941 
-0.5206709580854488 1:3 2:4 3:27 4:22 5:0.3333 6:3 7:4 8:0.381 9:0.1429 10:0.1905 11:0.2857 12:73 13:0.3023 14:3 15:0.3118 16:93 17:0.3011 18:0.129 19:0.1828 20:0.3871 21:0.2222 22:0.44 23:0.1837 
-0.04295334736792971 1:3 2:3 3:21 4:23 5:0.3478 6:2 7:5 8:0.2609 9:0.087 10:0.2609 11:0.3913 12:6 13:0.2889 14:2 15:0.3253 16:83 17:0.2771 18:0.1325 19:0.1928 20:0.3976 21:0.225 22:0.71 23:0.1892 
-0.490612626718393 1:-1 2:0 3:1 4:26 5:0.5455 6:3 7:4 8:0.3182 9:0.2727 10:0.2727 11:0.1364 12:43 13:0.2174 14:4 15:0.5 16:52 17:0.2692 18:0.25 19:0.25 20:0.2308 21:0.2083 22:0.83 23:0 
-0.2503818242644144 1:-1 2:0 3:0 4:26 5:0.5455 6:3 7:3 8:0.3182 9:0.2727 10:0.2727 11:0.1364 12:42 13:0.1915 14:-1 15:0.5098 16:51 17:0.2549 18:0.2549 19:0.2549 20:0.2353 21:0.1915 22:0.78 23:-1 
-0.4520086213401401 1:3 2:4 3:24 4:27 5:0.2273 6:3 7:4 8:0.3636 9:0.0909 10:0.1364 11:0.4091 12:80 13:0.2653 14:1 15:0.3232 16:99 17:0.2727 18:0.1313 19:0.1919 20:0.404 21:0.2609 22:0.56 23:0.2889 
-1 1:3 2:6 3:29 4:24 5:0.2 6:3 7:4 8:0.45 9:0.1 10:0.1 11:0.35 12:83 13:0.2727 14:1 15:0.3235 16:102 17:0.2843 18:0.1373 19:0.1863 20:0.3922 21:0.2842 22:0.57 23:0.3208 
-1 1:6 2:2 3:15 4:24 5:0.5238 6:4 7:4 8:0.1905 9:0.1905 10:0.3333 11:0.2857 12:63 13:0.2558 14:3 15:0.4872 16:78 17:0.2436 18:0.2179 19:0.2692 20:0.2692 21:0.2836 22:1.33 23:0.3846 
-0.2506446724498516 1:1 2:1 3:4 4:29 5:0.5217 6:6 7:4 8:0.2609 9:0.2609 10:0.2609 11:0.2174 12:16 13:0.36 14:2 15:0.5323 16:62 17:0.2258 18:0.2742 19:0.2581 20:0.2419 21:0.3448 22:4 23:0.25 
-0.6868608064269163 1:6 2:3 3:27 4:24 5:0.4 6:6 7:4 8:0.4 9:0.2 10:0.2 11:0.2 12:1 13:0.3488 14:3 15:0.4681 16:94 17:0.266 18:0.234 19:0.234 20:0.266 21:0.3556 22:0.2 23:0.3617 
-1 1:2 2:2 3:6 4:21 5:0.3333 6:2 7:3 8:0.2857 9:0.1905 10:0.1429 11:0.381 12:68 13:0.1707 14:1 15:0.3226 16:62 17:0.371 18:0.1452 19:0.1774 20:0.3065 21:0.2157 22:1 23:0.5 
-0.3137805566864064 1:2 2:3 3:12 4:24 5:0.3043 6:7 7:3 8:0.4783 9:0.087 10:0.2174 11:0.2174 12:18 13:0.25 14:2 15:0.3288 16:73 17:0.3562 18:0.137 19:0.1918 20:0.3151 21:0.2903 22:0 23:0.4167 
-0.9579436207600825 1:3 2:3 3:15 4:24 5:0.1739 6:4 7:3 8:0.3478 9:0.087 10:0.087 11:0.4783 12:71 13:0.3191 14:4 15:0.2603 16:73 17:0.3973 18:0.0959 19:0.1644 20:0.3425 21:0.2857 22:0.8 23:0.28 
-0.4590178345475169 1:4 2:4 3:22 4:21 5:0.25 6:4 7:1 8:0.3 9:0.1 10:0.15 11:0.45 12:78 13:0.1707 14:3 15:0.284 16:81 17:0.3827 18:0.1111 19:0.1728 20:0.3333 21:0.2564 22:0.8 23:0.3846 
-0.7484112745461736 1:4 2:4 3:26 4:23 5:0.4783 6:4 7:4 8:0.087 9:0.1739 10:0.3043 11:0.4348 12:10 13:0.3333 14:4 15:0.4946 16:93 17:0.1505 18:0.1935 19:0.3011 20:0.3548 21:0.2809 22:0.67 23:0.234 
-0.49387257812641 1:4 2:5 3:32 4:20 5:0.45 6:3 7:5 8:0.2 9:0.2 10:0.25 11:0.35 12:7 13:0.3889 14:1 15:0.4898 16:98 17:0.1633 18:0.1939 19:0.2959 20:0.3469 21:0.2766 22:1.67 23:0.2069 
-0.6879943117214057 1:5 2:4 3:15 4:28 5:0.5217 6:5 7:4 8:0.2609 9:0.2174 10:0.3043 11:0.2174 12:5 13:0.24 14:3 15:0.4819 16:83 17:0.2169 18:0.1807 19:0.3012 20:0.3012 21:0.3924 22:1.4 23:0.6552 
-0.7072218484331408 1:7 2:4 3:18 4:28 5:0.4783 6:5 7:4 8:0.3043 9:0.1739 10:0.3043 11:0.2174 12:2 13:0.2083 14:2 15:0.4828 16:87 17:0.2184 18:0.1839 19:0.2989 20:0.2989 21:0.3976 22:0.56 23:0.6571 
-0.7757905901714581 1:-1 2:0 3:7 4:24 5:0.5 6:5 7:5 8:0.1667 9:0.25 10:0.25 11:0.3333 12:63 13:0.4348 14:3 15:0.4306 16:72 17:0.25 18:0.1944 19:0.2361 20:0.3194 21:0.3333 22:0.62 23:0 
-0.340231947654598 1:5 2:3 3:21 4:24 5:0.5455 6:4 7:5 8:0.2727 9:0.3636 10:0.1818 11:0.1818 12:77 13:0.3182 14:3 15:0.4796 16:98 17:0.2551 18:0.2245 19:0.2551 20:0.2653 21:0.3488 22:1 23:0.381 
-0.5316515534718702 1:2 2:2 3:18 4:25 5:0.25 6:8 7:3 8:0.4583 9:0.2083 10:0.0417 11:0.2917 12:62 13:0.4359 14:2 15:0.4103 16:78 17:0.3077 18:0.2179 19:0.1923 20:0.2821 21:0.2778 22:5 23:0.0909 
-0.04877781493330317 1:-1 2:0 3:0 4:23 5:0.619 6:2 7:4 8:0.1905 9:0.2857 10:0.3333 11:0.1905 12:44 13:0.1905 14:-1 15:0.5227 16:44 17:0.25 18:0.2727 19:0.25 20:0.2273 21:0.1053 22:0.57 23:-1 
-0.4733499007362013 1:1 2:2 3:21 4:23 5:0.2727 6:4 7:3 8:0.4545 9:0.1364 10:0.1364 11:0.2727 12:73 13:0.2273 14:1 15:0.2584 16:89 17:0.3483 18:0.1461 19:0.1124 20:0.3933 21:0.1429 22:1.14 23:0.0952 
-1 1:1 2:1 3:4 4:24 5:0.2917 6:1 7:1 8:0.4167 9:0.1667 10:0.125 11:0.2917 12:21 13:0.0417 14:4 15:0.2712 16:59 17:0.3559 18:0.1356 19:0.1356 20:0.3729 21:0.037 22:1.25 23:0.25 
-1 1:3 2:4 3:29 4:26 5:0.3043 6:6 7:5 8:0.3043 9:0.087 10:0.2174 11:0.3913 12:2 13:0.3333 14:2 15:0.2857 16:112 17:0.3482 18:0.125 19:0.1607 20:0.3661 21:0.3269 22:0 23:0.3214 
-1 1:3 2:3 3:22 4:25 5:0.3043 6:1 7:5 8:0.1739 9:0.0435 10:0.2609 11:0.5217 12:9 13:0.1489 14:4 15:0.2887 16:97 17:0.3505 18:0.1237 19:0.1649 20:0.3608 21:0.2584 22:1.17 23:0.381 
-1 1:1 2:2 3:4 4:23 5:0.3913 6:3 7:4 8:0.3478 9:0 10:0.3913 11:0.2609 12:21 13:0.3636 14:3 15:0.4643 16:56 17:0.2857 18:0.1786 19:0.2857 20:0.25 21:0.3469 22:1.33 23:0.4286 
-0.3242190544879465 1:1 2:1 3:14 4:26 5:0.4783 6:5 7:4 8:0.1739 9:0.2174 10:0.2609 11:0.3478 12:76 13:0.4167 14:2 15:0.3494 16:83 17:0.2892 18:0.1687 19:0.1807 20:0.3614 21:0.28 22:0 23:0.037 
-0.8716788289716891 1:5 2:4 3:34 4:21 5:0.6 6:3 7:5 8:0.3 9:0.5 10:0.1 11:0.1 12:2 13:0.3333 14:2 15:0.4196 16:112 17:0.2679 18:0.2054 19:0.2143 20:0.3125 21:0.2885 22:4 23:0.2615 
-0.6702370719891733 1:2 2:5 3:26 4:22 5:0.4 6:4 7:4 8:0.2 9:0.1 10:0.3 11:0.4 12:83 13:0.35 14:4 15:0.4255 16:94 17:0.2979 18:0.2128 19:0.2128 20:0.2766 21:0.2414 22:1.8 23:0.1837 
-0.5056322943331786 1:2 2:5 3:24 4:23 5:0.381 6:3 7:4 8:0.4762 9:0.2857 10:0.0952 11:0.1429 12:10 13:0.2857 14:1 15:0.4348 16:92 17:0.2826 18:0.2174 19:0.2174 20:0.2826 21:0.2235 22:0.33 23:0.2 
-0.3544707724547749 1:9 2:4 3:36 4:22 5:0.4762 6:3 7:4 8:0.381 9:0.1429 10:0.3333 11:0.1429 12:1 13:0.35 14:3 15:0.4118 16:102 17:0.2745 18:0.1765 19:0.2353 20:0.3137 21:0.3265 22:0.29 23:0.3103 
-0.1610762479501828 1:9 2:4 3:35 4:22 5:0.4762 6:3 7:4 8:0.381 9:0.1429 10:0.3333 11:0.1429 12:2 13:0.3659 14:3 15:0.4158 16:101 17:0.2673 18:0.1782 19:0.2376 20:0.3168 21:0.3196 22:0.8 23:0.2857 
-0.08748786475703343 1:1 2:3 3:17 4:22 5:0.35 6:2 7:3 8:0.4 9:0.25 10:0.1 11:0.25 12:72 13:0.122 14:1 15:0.4487 16:78 17:0.2821 18:0.2179 19:0.2308 20:0.2692 21:0.1351 22:1.12 23:0.1515 
-0.2218007202454949 1:1 2:5 3:26 4:24 5:0.3913 6:4 7:3 8:0.1739 9:0.2174 10:0.1739 11:0.4348 12:4 13:0.3182 14:4 15:0.433 16:97 17:0.2577 18:0.2165 19:0.2165 20:0.3093 21:0.2258 22:0.3 23:0.1429 
-0.4122397303362486 1:-1 2:0 3:2 4:29 5:0.4545 6:10 7:4 8:0.0455 9:0.2727 10:0.1818 11:0.5 12:24 13:0.3878 14:2 15:0.4615 16:65 17:0.1692 18:0.2615 19:0.2 20:0.3692 21:0.3585 22:0.67 23:0 
-0.5877602696637514 1:-1 2:0 3:2 4:27 5:0.45 6:10 7:3 8:0.05 9:0.3 10:0.15 11:0.5 12:26 13:0.3913 14:2 15:0.4677 16:62 17:0.1613 18:0.2742 19:0.1935 20:0.371 21:0.36 22:1 23:0 
-0.8194129641644381 1:1 2:2 3:8 4:26 5:0.3333 6:3 7:3 8:0.3333 9:0.2083 10:0.125 11:0.3333 12:21 13:0.24 14:1 15:0.3284 16:67 17:0.2687 18:0.1642 19:0.1642 20:0.403 21:0.2188 22:1.5 23:0.25 
-0.6018555815905301 1:1 2:1 3:3 4:21 5:0.2857 6:3 7:2 8:0.2381 9:0.2381 10:0.0476 11:0.4762 12:57 13:0.2195 14:2 15:0.3542 16:48 17:0.25 18:0.1667 19:0.1875 20:0.3958 21:0.2 22:0.9 23:0.3333 
-0.3052731434013837 1:4 2:4 3:22 4:21 5:0.2381 6:4 7:4 8:0.2857 9:0.0952 10:0.1429 11:0.4762 12:11 13:0.2821 14:1 15:0.4118 16:85 17:0.2471 18:0.2 19:0.2118 20:0.3412 21:0.3333 22:0.86 23:0.381 
-0.4961664489463435 1:4 2:4 3:21 4:26 5:0.3182 6:4 7:5 8:0.3636 9:0.2273 10:0.0909 11:0.3182 12:77 13:0.3333 14:1 15:0.413 16:92 17:0.2283 18:0.1957 19:0.2174 20:0.3587 21:0.3636 22:2.25 23:0.4 
-0.2445710888181176 1:1 2:1 3:2 4:30 5:0.625 6:6 7:4 8:0.1667 9:0.4583 10:0.1667 11:0.2083 12:18 13:0.2308 14:2 15:0.5738 16:61 17:0.2459 18:0.2951 19:0.2787 20:0.1803 21:0.2222 22:0.7 23:0.5 
-1 1:2 2:2 3:14 4:22 5:0.4762 6:6 7:4 8:0.3333 9:0.1905 10:0.2857 11:0.1905 12:62 13:0.2973 14:4 15:0.5507 16:69 17:0.2609 18:0.2754 19:0.2754 20:0.1884 21:0.2258 22:1.43 23:0.1852 
-0.6862189622443098 1:1 2:1 3:7 4:27 5:0.5 6:3 7:4 8:0.125 9:0.25 10:0.25 11:0.375 12:72 13:0.3333 14:1 15:0.4605 16:76 17:0.1711 18:0.2368 19:0.2237 20:0.3684 21:0.2812 22:1 23:0.0769 
-1 1:-1 2:0 3:1 4:23 5:0.5455 6:3 7:4 8:0.1364 9:0.2727 10:0.2727 11:0.3182 12:30 13:0.3333 14:3 15:0.4915 16:59 17:0.1356 18:0.2542 19:0.2373 20:0.3729 21:0.3191 22:0.67 23:0 
-1 1:2 2:2 3:16 4:26 5:0.7391 6:3 7:4 8:0.1739 9:0.5217 10:0.2174 11:0.087 12:14 13:0.2653 14:1 15:0.6145 16:83 17:0.1928 18:0.3253 19:0.2892 20:0.1928 21:0.2152 22:0.73 23:0.1333 
-0.8772006674385884 1:-1 2:0 3:3 4:22 5:0.55 6:2 7:3 8:0.25 9:0.3 10:0.25 11:0.2 12:29 13:0.1707 14:1 15:0.5294 16:51 17:0.2549 18:0.2549 19:0.2745 20:0.2157 21:0.1489 22:0.78 23:0 
-0.2043879755830842 1:2 2:4 3:18 4:22 5:0.2727 6:6 7:2 8:0.3636 9:0.0909 10:0.1818 11:0.3636 12:7 13:0.4419 14:4 15:0.2778 16:90 17:0.3222 18:0.1222 19:0.1556 20:0.4 21:0.3766 22:0 23:0.3333 
-0.6066793243841562 1:2 2:3 3:11 4:23 5:0.3182 6:6 7:2 8:0.1818 9:0.1818 10:0.1364 11:0.5 12:69 13:0.3333 14:3 15:0.2692 16:78 17:0.359 18:0.1154 19:0.1538 20:0.3718 21:0.3231 22:1 23:0.3636 
-0.1770466951530972 1:-1 2:0 3:0 4:24 5:0.375 6:4 7:4 8:0.2917 9:0.0417 10:0.3333 11:0.3333 12:54 13:0.4222 14:3 15:0.3043 16:46 17:0.3478 18:0.087 19:0.2174 20:0.3478 21:0.3953 22:2 23:-1 
-0.9065408351503403 1:4 2:4 3:21 4:24 5:0.3913 6:3 7:4 8:0.3913 9:0.2609 10:0.1304 11:0.2174 12:75 13:0.2727 14:4 15:0.3529 16:85 17:0.3059 18:0.1294 19:0.2235 20:0.3412 21:0.3171 22:1.5 23:0.4 
-0.7935317791894184 1:3 2:5 3:20 4:23 5:0.5 6:3 7:5 8:0.2727 9:0.2727 10:0.2273 11:0.2273 12:77 13:0.3488 14:1 15:0.5506 16:89 17:0.1685 18:0.3034 19:0.2472 20:0.2809 21:0.3333 22:2.33 23:0.3514 
-1 1:1 2:1 3:3 4:22 5:0.381 6:3 7:5 8:0.2857 9:0.0952 10:0.2857 11:0.3333 12:61 13:0.3171 14:3 15:0.5 16:56 17:0.1786 18:0.2321 19:0.2679 20:0.3214 21:0.2889 22:0.71 23:0.3333 
-0.6708246851554116 1:2 2:4 3:16 4:20 5:0.25 6:4 7:4 8:0.55 9:0.1 10:0.15 11:0.2 12:77 13:0.4872 14:1 15:0.4933 16:75 17:0.32 18:0.2533 19:0.24 20:0.1867 21:0.4118 22:1.4 23:0.3548 
-0.3251752700640397 1:-1 2:0 3:0 4:22 5:0.6522 6:3 7:5 8:0.087 9:0.3043 10:0.3478 11:0.2609 12:58 13:0.3953 14:-1 15:0.6136 16:44 17:0.2045 18:0.3182 19:0.2955 20:0.1818 21:0.2973 22:0.43 23:-1 
-0.5522515952212831 1:1 2:1 3:3 4:20 5:0.7 6:4 7:3 8:0.05 9:0.3 10:0.4 11:0.25 12:20 13:0.3684 14:2 15:0.5714 16:49 17:0.1429 18:0.2653 19:0.3061 20:0.2857 21:0.3333 22:0.91 23:0.3333 
-1 1:1 2:1 3:4 4:22 5:0.6364 6:4 7:4 8:0.1364 9:0.2727 10:0.3636 11:0.2273 12:17 13:0.381 14:3 15:0.5636 16:55 17:0.1636 18:0.2727 19:0.2909 20:0.2727 21:0.3333 22:1 23:0.25 
-0.8410136119870744 1:4 2:4 3:29 4:22 5:0.4091 6:2 7:5 8:0.4091 9:0.1818 10:0.2273 11:0.1818 12:5 13:0.3023 14:4 15:0.396 16:101 17:0.297 18:0.198 19:0.198 20:0.3069 21:0.2371 22:1 23:0.1852 
-0.2144683112993148 1:4 2:4 3:26 4:25 5:0.375 6:2 7:5 8:0.2083 9:0.2083 10:0.1667 11:0.4167 12:82 13:0.2653 14:1 15:0.396 16:101 17:0.297 18:0.198 19:0.198 20:0.3069 21:0.2371 22:1.29 23:0.2083 
-0.6510696199054932 1:1 2:1 3:3 4:30 5:0.4167 6:4 7:3 8:0.2083 9:0.125 10:0.2917 11:0.375 12:15 13:0.2593 14:1 15:0.4154 16:65 17:0.2308 18:0.1846 19:0.2308 20:0.3538 21:0.2414 22:0.8 23:0.3333 
-0.4031542235500402 1:4 2:3 3:25 4:24 5:0.2381 6:9 7:3 8:0.1905 9:0.0476 10:0.1905 11:0.5714 12:1 13:0.4595 14:4 15:0.3908 16:87 17:0.2184 18:0.1724 19:0.2184 20:0.3908 21:0.325 22:0 23:0.2444 
-0.2445219554701046 1:4 2:5 3:25 4:21 5:0.6 6:6 7:4 8:0.2 9:0.3 10:0.3 11:0.2 12:3 13:0.3514 14:4 15:0.6429 16:84 17:0.2024 18:0.3333 19:0.3095 20:0.1548 21:0.2911 22:0.67 23:0.2727 
-0.2584093106534168 1:-1 2:0 3:0 4:23 5:0.75 6:4 7:4 8:0.2 9:0.55 10:0.2 11:0.05 12:26 13:0.3171 14:4 15:0.6667 16:42 17:0.2143 18:0.3571 19:0.3095 20:0.119 21:0.2432 22:1.6 23:-1 
-0.4082488051680204 1:7 2:6 3:33 4:22 5:0.5 6:6 7:3 8:0.1364 9:0.3636 10:0.1364 11:0.3636 12:1 13:0.4286 14:3 15:0.5784 16:102 17:0.1373 18:0.3431 19:0.2353 20:0.2843 21:0.3407 22:0 23:0.3103 
-1 1:7 2:5 3:26 4:23 5:0.5217 6:4 7:3 8:0.1739 9:0.3478 10:0.1739 11:0.3043 12:7 13:0.2558 14:4 15:0.5833 16:96 17:0.1458 18:0.3333 19:0.25 20:0.2708 21:0.2941 22:1 23:0.3636 
-1 1:-1 2:0 3:4 4:26 5:0.4 6:4 7:4 8:0.25 9:0.2 10:0.2 11:0.35 12:62 13:0.3333 14:3 15:0.5263 16:57 17:0.193 18:0.2105 19:0.3158 20:0.2807 21:0.283 22:1 23:0 
-1 1:4 2:1 3:11 4:27 5:0.5 6:3 7:4 8:0.1667 9:0.1667 10:0.3333 11:0.3333 12:66 13:0.25 14:4 15:0.5915 16:71 17:0.1549 18:0.2254 19:0.3662 20:0.2535 21:0.2537 22:1.6 23:0.2632 
-0.5113595950650706 1:7 2:4 3:24 4:23 5:0.4545 6:5 7:3 8:0.1364 9:0.1818 10:0.2727 11:0.4091 12:11 13:0.3488 14:4 15:0.4598 16:87 17:0.2069 18:0.2069 19:0.2529 20:0.3333 21:0.325 22:0.67 23:0.3333 
-0.3251443059359331 1:-1 2:0 3:0 4:28 5:0.5 6:10 7:4 8:0.2 9:0.15 10:0.35 11:0.3 12:60 13:0.3913 14:3 15:0.5294 16:51 17:0.2157 18:0.2353 19:0.2941 20:0.2549 21:0.3636 22:1 23:-1 
-0.5195456142424142 1:4 2:3 3:21 4:22 5:0.5714 6:3 7:3 8:0.1429 9:0.1429 10:0.4286 11:0.2857 12:86 13:0.2558 14:4 15:0.3636 16:99 17:0.3434 18:0.1919 19:0.1717 20:0.2929 21:0.2658 22:0.56 23:0.2778 
-0.6967920207996814 1:6 2:3 3:27 4:21 5:0.2381 6:3 7:2 8:0.2381 9:0.1905 10:0.0476 11:0.5238 12:3 13:0.1707 14:3 15:0.3394 16:109 17:0.3486 18:0.1743 19:0.1651 20:0.3119 21:0.236 22:0.8 23:0.2917 
-0.32439127768888 1:4 2:3 3:13 4:24 5:0.5 6:3 7:6 8:0.25 9:0.3333 10:0.1667 11:0.25 12:22 13:0.3023 14:1 15:0.4783 16:69 17:0.2609 18:0.2464 19:0.2319 20:0.2609 21:0.3125 22:1.2 23:0.3913 
-0.3893993655455649 1:4 2:2 3:8 4:20 5:0.55 6:3 7:4 8:0.2 9:0.35 10:0.2 11:0.25 12:31 13:0.3143 14:2 15:0.5385 16:52 17:0.2308 18:0.2692 19:0.2692 20:0.2308 21:0.3617 22:0.5 23:0.5714 
-0.4979421432605044 1:-1 2:0 3:0 4:32 5:0.4167 6:8 7:4 8:0.3333 9:0.2917 10:0.125 11:0.25 12:23 13:0.4237 14:3 15:0.4 16:60 17:0.35 18:0.2 19:0.2 20:0.25 21:0.3061 22:3 23:-1 
-0.389094988784961 1:1 2:2 3:6 4:20 5:0.3 6:4 7:3 8:0.45 9:0.15 10:0.15 11:0.25 12:33 13:0.3143 14:4 15:0.3878 16:49 17:0.3061 18:0.1633 19:0.2245 20:0.3061 21:0.2727 22:1.25 23:0.2727 
-0.2470278217585008 1:1 2:1 3:4 4:23 5:0.3478 6:4 7:3 8:0.3913 9:0.1304 10:0.2174 11:0.2609 12:32 13:0.3 14:1 15:0.3725 16:51 17:0.3137 18:0.1569 19:0.2157 20:0.3137 21:0.2609 22:3.5 23:0.25 
-0.5528634829101423 1:5 2:2 3:19 4:21 5:0.25 6:3 7:2 8:0.25 9:0.05 10:0.2 11:0.5 12:72 13:0.1795 14:1 15:0.3544 16:79 17:0.3165 18:0.1899 19:0.1646 20:0.3291 21:0.2329 22:1.8 23:0.2941 
-0.08430710608455164 1:-1 2:0 3:0 4:24 5:0.3182 6:5 7:3 8:0.3182 9:0.1364 10:0.1818 11:0.3636 12:29 13:0.3182 14:2 15:0.413 16:46 17:0.2826 18:0.2609 19:0.1522 20:0.3043 21:0.25 22:2 23:-1 
-0.04851689647688308 1:-1 2:0 3:0 4:23 5:0.3913 6:5 7:3 8:0.2174 9:0.0435 10:0.3478 11:0.3913 12:56 13:0.3171 14:4 15:0.3191 16:47 17:0.2766 18:0.1064 19:0.2128 20:0.4043 21:0.3171 22:1 23:-1 
-0.06296772363548971 1:2 2:1 3:8 4:27 5:0.3182 6:7 7:3 8:0.2273 9:0.2273 10:0.0909 11:0.4545 12:20 13:0.4222 14:1 15:0.3582 16:67 17:0.2388 18:0.1493 19:0.209 20:0.403 21:0.377 22:1.14 23:0.25 
-1 1:2 2:1 3:8 4:23 5:0.2727 6:3 7:5 8:0.3636 9:0.1818 10:0.0909 11:0.3636 12:61 13:0.381 14:1 15:0.3833 16:60 17:0.3167 18:0.1667 19:0.2167 20:0.3 21:0.3214 22:2 23:0.1429 
-0.5042334328392057 1:-1 2:0 3:0 4:22 5:0.3182 6:3 7:4 8:0.2727 9:0.2273 10:0.0909 11:0.4091 12:52 13:0.3333 14:3 15:0.3902 16:41 17:0.2683 18:0.1951 19:0.1951 20:0.3415 21:0.2973 22:1.17 23:-1 
-0.5838573501949176 1:1 2:1 3:3 4:25 5:0.2727 6:5 7:3 8:0.2727 9:0.0909 10:0.1818 11:0.4545 12:62 13:0.3043 14:1 15:0.3396 16:53 17:0.2642 18:0.1698 19:0.1698 20:0.3962 21:0.28 22:1 23:0.3333 
-0.6849274500106497 1:4 2:3 3:13 4:22 5:0.3333 6:3 7:4 8:0.3333 9:0.2381 10:0.0952 11:0.3333 12:25 13:0.2 14:4 15:0.3636 16:66 17:0.2576 18:0.197 19:0.1667 20:0.3788 21:0.2698 22:1.43 23:0.44 
-0.5175988226413024 1:3 2:4 3:26 4:28 5:0.4348 6:5 7:4 8:0.2174 9:0.3478 10:0.087 11:0.3478 12:5 13:0.3333 14:4 15:0.3846 16:104 17:0.3365 18:0.2019 19:0.1827 20:0.2788 21:0.28 22:1.8 23:0.2245 
-0.6313957767674102 1:-1 2:0 3:0 4:26 5:0.3913 6:3 7:4 8:0.2174 9:0.1304 10:0.2609 11:0.3913 12:58 13:0.2245 14:3 15:0.3585 16:53 17:0.3774 18:0.1887 19:0.1698 20:0.2642 21:0.2245 22:2.75 23:-1 
-0.5836263763944783 1:-1 2:0 3:0 4:24 5:0.3 6:6 7:5 8:0.35 9:0.2 10:0.1 11:0.35 12:54 13:0.381 14:-1 15:0.3182 16:44 17:0.2955 18:0.1591 19:0.1591 20:0.3864 21:0.35 22:1.4 23:-1 
-0.3175333679336876 1:-1 2:0 3:0 4:26 5:0.4583 6:3 7:5 8:0.2083 9:0.25 10:0.2083 11:0.3333 12:47 13:0.375 14:-1 15:0.48 16:50 17:0.26 18:0.2 19:0.28 20:0.26 21:0.3478 22:1.67 23:-1 
-0.4401193271480094 1:5 2:6 3:27 4:24 5:0.5714 6:8 7:2 8:0.1429 9:0.381 10:0.1905 11:0.2857 12:6 13:0.4222 14:4 15:0.4141 16:99 17:0.2424 18:0.202 19:0.2121 20:0.3434 21:0.3913 22:0.9 23:0.3878 
-0.7680518717962059 1:2 2:4 3:17 4:29 5:0.3333 6:8 7:3 8:0.375 9:0.1667 10:0.1667 11:0.2917 12:76 13:0.434 14:4 15:0.4239 16:92 17:0.2283 18:0.2065 19:0.2174 20:0.3478 21:0.3882 22:0.6 23:0.3529 
-0.136881403981991 1:5 2:4 3:24 4:21 5:0.45 6:3 7:5 8:0.3 9:0.25 10:0.2 11:0.25 12:6 13:0.4146 14:1 15:0.5176 16:85 17:0.2706 18:0.2706 19:0.2471 20:0.2118 21:0.3827 22:0.75 23:0.35 
-0.3042100404543541 1:-1 2:0 3:4 4:24 5:0.4 6:6 7:4 8:0.35 9:0.15 10:0.25 11:0.25 12:54 13:0.4 14:1 15:0.5 16:52 17:0.2692 18:0.2692 19:0.2308 20:0.2308 21:0.3333 22:1.25 23:0 
-0.7444459344659803 1:5 2:5 3:32 4:26 5:0.5 6:3 7:5 8:0.2083 9:0.2083 10:0.2917 11:0.2917 12:86 13:0.3617 14:3 15:0.5463 16:108 17:0.1019 18:0.2593 19:0.287 20:0.3519 21:0.3333 22:4 23:0.3333 
-0.8699991239592878 1:5 2:2 3:16 4:22 5:0.6 6:2 7:5 8:0.05 9:0.35 10:0.25 11:0.35 12:71 13:0.381 14:4 15:0.6111 16:72 17:0.0694 18:0.2778 19:0.3333 20:0.3194 21:0.3333 22:1.2 23:0.3103 
-0.2232792773228288 1:4 2:3 3:17 4:24 5:0.5455 6:6 7:3 8:0.1364 9:0.2727 10:0.2727 11:0.3182 12:57 13:0.3182 14:3 15:0.6026 16:78 17:0.1282 18:0.2821 19:0.3205 20:0.2692 21:0.3243 22:2 23:0.3333 
-0.6170751068248496 1:-1 2:0 3:2 4:23 5:0.6522 6:4 7:4 8:0.0435 9:0.3043 10:0.3478 11:0.3043 12:15 13:0.3 14:4 15:0.6667 16:48 17:0.0833 18:0.3125 19:0.3542 20:0.25 21:0.2727 22:0.56 23:0 
-0.8842579556865658 1:4 2:1 3:9 4:27 5:0.4545 6:7 7:3 8:0.2727 9:0.2727 10:0.1818 11:0.2727 12:72 13:0.4167 14:2 15:0.4079 16:76 17:0.3158 18:0.2632 19:0.1447 20:0.2763 21:0.4242 22:0.29 23:0.4444 
-0.624926074966154 1:4 2:1 3:6 4:27 5:0.4091 6:7 7:2 8:0.2273 9:0.2727 10:0.1364 11:0.3636 12:69 13:0.375 14:2 15:0.4 16:70 17:0.3286 18:0.2571 19:0.1429 20:0.2714 21:0.4333 22:1 23:0.6667 
-1 1:7 2:2 3:29 4:27 5:0.2083 6:7 7:4 8:0.2917 9:0.0417 10:0.1667 11:0.5 12:81 13:0.4286 14:2 15:0.3495 16:103 17:0.2621 18:0.165 19:0.1845 20:0.3883 21:0.3737 22:1 23:0.3333 
-0.622757505444142 1:7 2:2 3:28 4:30 5:0.45 6:7 7:4 8:0.25 9:0.3 10:0.15 11:0.3 12:1 13:0.4468 14:2 15:0.3585 16:106 17:0.2547 18:0.1698 19:0.1887 20:0.3868 21:0.3922 22:3 23:0.3455 
-0.4317682028916382 1:3 2:1 3:13 4:24 5:0.6087 6:4 7:5 8:0.2174 9:0.3043 10:0.3043 11:0.1739 12:18 13:0.2727 14:1 15:0.6835 16:79 17:0.2278 18:0.3418 19:0.3418 20:0.0886 21:0.2239 22:0.43 23:0.1304 
-0.1769688209563356 1:3 2:1 3:14 4:25 5:0.7727 6:4 7:5 8:0.1818 9:0.3636 10:0.4091 11:0.0455 12:77 13:0.2609 14:2 15:0.6988 16:83 17:0.2169 18:0.3494 19:0.3494 20:0.0843 21:0.2113 22:0.89 23:0.12 
-0.4460748542003511 1:-1 2:0 3:0 4:26 5:0.6364 6:9 7:3 8:0.2273 9:0.3182 10:0.3182 11:0.1364 12:28 13:0.4468 14:3 15:0.5833 16:48 17:0.2708 18:0.3542 19:0.2292 20:0.1458 21:0.3953 22:1.6 23:-1 
-0.8382287128414316 1:2 2:2 3:9 4:30 5:0.5 6:7 7:3 8:0.25 9:0.3333 10:0.1667 11:0.25 12:62 13:0.434 14:3 15:0.5556 16:72 17:0.2778 18:0.3333 19:0.2222 20:0.1667 21:0.3731 22:0 23:0.25 
-0.2588698981753392 1:3 2:5 3:22 4:20 5:0.25 6:3 7:4 8:0.4 9:0.1 10:0.15 11:0.35 12:71 13:0.2222 14:4 15:0.3908 16:87 17:0.2874 18:0.1724 19:0.2184 20:0.3218 21:0.2368 22:3.5 23:0.2857 
-0.9433480715678236 1:1 2:1 3:3 4:20 5:0.45 6:3 7:4 8:0.4 9:0.25 10:0.2 11:0.15 12:52 13:0.3158 14:3 15:0.434 16:53 17:0.283 18:0.2264 19:0.2075 20:0.283 21:0.2857 22:1.4 23:0.3333 
-0.231640654618962 1:2 2:3 3:20 4:21 5:0.4286 6:2 7:5 8:0.381 9:0.2381 10:0.1905 11:0.1905 12:60 13:0.3333 14:2 15:0.425 16:80 17:0.3125 18:0.2 19:0.225 20:0.2625 21:0.2533 22:1.75 23:0.2105 
-0.9304101038751879 1:4 2:4 3:29 4:26 5:0.5238 6:4 7:4 8:0.2857 9:0.2381 10:0.2857 11:0.1905 12:3 13:0.3913 14:1 15:0.5842 16:101 17:0.198 18:0.2871 19:0.297 20:0.2178 21:0.299 22:1 23:0.2157 
-0.4548319192929102 1:-1 2:0 3:2 4:25 5:0.7143 6:4 7:3 8:0.0476 9:0.4762 10:0.2381 11:0.2381 12:26 13:0.2273 14:1 15:0.6731 16:52 17:0.1731 18:0.3846 19:0.2885 20:0.1538 21:0.2083 22:0.58 23:0 
-0.91985789700545 1:1 2:1 3:4 4:23 5:0.4348 6:3 7:2 8:0.3478 9:0.2609 10:0.1739 11:0.2174 12:13 13:0.1818 14:4 15:0.4328 16:67 17:0.3134 18:0.2388 19:0.194 20:0.2537 21:0.16 22:0.8 23:0.25 
-1 1:1 2:1 3:3 4:24 5:0.5455 6:3 7:2 8:0.1364 9:0.2273 10:0.3182 11:0.3182 12:58 13:0.1739 14:4 15:0.4328 16:67 17:0.3134 18:0.2388 19:0.194 20:0.2537 21:0.16 22:1.25 23:0.3333 
-1 1:1 2:1 3:5 4:24 5:0.4583 6:5 7:4 8:0.3333 9:0.1667 10:0.2917 11:0.2083 12:26 13:0.4 14:4 15:0.4912 16:57 17:0.2281 18:0.2105 19:0.2807 20:0.2807 21:0.3333 22:0 23:0.2 
-0.4526611319500054 1:8 2:2 3:20 4:26 5:0.5417 6:9 7:2 8:0.25 9:0.2917 10:0.25 11:0.2083 12:2 13:0.3171 14:1 15:0.5 16:82 17:0.2683 18:0.3171 19:0.1829 20:0.2317 21:0.4615 22:0 23:0.6216 
-0.4997326829817549 1:8 2:2 3:20 4:22 5:0.6 6:5 7:2 8:0.2 9:0.35 10:0.25 11:0.2 12:6 13:0.2432 14:1 15:0.5128 16:78 17:0.2564 18:0.3333 19:0.1795 20:0.2308 21:0.4324 22:0 23:0.6216 
-0.006464911162943593 1:1 2:1 3:3 4:29 5:0.45 6:9 7:3 8:0.3 9:0.2 10:0.25 11:0.25 12:58 13:0.3333 14:3 15:0.3636 16:55 17:0.3455 18:0.1455 19:0.2182 20:0.2909 21:0.3077 22:1 23:0.3333 
-0.6279026494985538 1:1 2:1 3:6 4:31 5:0.4762 6:9 7:4 8:0.2381 9:0.2381 10:0.2381 11:0.2857 12:61 13:0.3333 14:3 15:0.3906 16:64 17:0.3281 18:0.1562 19:0.2344 20:0.2812 21:0.2787 22:0.7 23:0.1667 
-0.236621009756366 1:-1 2:0 3:0 4:24 5:0.4286 6:3 7:4 8:0.1429 9:0.1905 10:0.2381 11:0.4286 12:58 13:0.1818 14:1 15:0.3958 16:48 17:0.25 18:0.2083 19:0.1875 20:0.3542 21:0.1818 22:0.9 23:-1 
-0.4892313199555636 1:3 2:5 3:29 4:22 5:0.2727 6:3 7:4 8:0.2727 9:0.1364 10:0.1364 11:0.4545 12:84 13:0.2857 14:2 15:0.32 16:100 17:0.32 18:0.17 19:0.15 20:0.36 21:0.25 22:4 23:0.2222 
-1 1:1 2:3 3:13 4:24 5:0.2917 6:4 7:3 8:0.1667 9:0.0833 10:0.2083 11:0.5417 12:60 13:0.3636 14:3 15:0.4493 16:69 17:0.1739 18:0.1739 19:0.2754 20:0.3768 21:0.2727 22:1 23:0.1667 
-0.4786485030271755 1:4 2:6 3:32 4:23 5:0.5455 6:3 7:5 8:0.2273 9:0.3182 10:0.2273 11:0.2273 12:79 13:0.4 14:2 15:0.45 16:100 17:0.21 18:0.2 19:0.25 20:0.34 21:0.299 22:0.4 23:0.2542 
-1 1:-1 2:0 3:3 4:24 5:0.2273 6:3 7:4 8:0.4091 9:0.1364 10:0.0909 11:0.3636 12:14 13:0.3333 14:3 15:0.4154 16:65 17:0.2462 18:0.2615 19:0.1538 20:0.3385 21:0.2941 22:4 23:0 
-1 1:2 2:1 3:5 4:20 5:0.55 6:3 7:4 8:0.2 9:0.3 10:0.25 11:0.25 12:57 13:0.3158 14:1 15:0.4426 16:61 17:0.2295 18:0.2787 19:0.1639 20:0.3279 21:0.3191 22:1 23:0.3333 
-0.6474523418229177 1:1 2:2 3:9 4:24 5:0.4167 6:7 7:3 8:0.25 9:0.2083 10:0.2083 11:0.3333 12:68 13:0.3953 14:4 15:0.3623 16:69 17:0.2609 18:0.1304 19:0.2319 20:0.3768 21:0.3443 22:3.5 23:0.2222 
-1 1:-1 2:0 3:2 4:20 5:0.25 6:3 7:3 8:0.25 9:0.1 10:0.15 11:0.5 12:29 13:0.3 14:3 15:0.3462 16:52 17:0.2308 18:0.1154 19:0.2308 20:0.4231 21:0.2727 22:0.75 23:0 
-0.6770371077337335 1:1 2:1 3:4 4:29 5:0.4167 6:7 7:4 8:0.3333 9:0.1667 10:0.25 11:0.25 12:21 13:0.3846 14:1 15:0.4118 16:68 17:0.3088 18:0.2206 19:0.1912 20:0.2794 21:0.3667 22:1.29 23:0.25 
-0.07152479927982622 1:2 2:1 3:7 4:22 5:0.5714 6:7 7:3 8:0.2381 9:0.381 10:0.1905 11:0.1905 12:64 13:0.4737 14:1 15:0.4333 16:60 17:0.3 18:0.2333 19:0.2 20:0.2667 21:0.4231 22:1.4 23:0.2857 
-0.1565656181682328 1:2 2:5 3:25 4:22 5:0.3636 6:3 7:5 8:0.3636 9:0.1818 10:0.1818 11:0.2727 12:13 13:0.3659 14:4 15:0.3146 16:89 17:0.3933 18:0.1573 19:0.1573 20:0.2921 21:0.2791 22:0.6 23:0.234 
-0.4272667110250912 1:2 2:5 3:24 4:21 5:0.3333 6:3 7:4 8:0.381 9:0.1429 10:0.1905 11:0.2857 12:15 13:0.3846 14:4 15:0.2941 16:85 17:0.4118 18:0.1529 19:0.1412 20:0.2941 21:0.2683 22:2.5 23:0.2 
-0.5985873415739177 1:4 2:3 3:20 4:26 5:0.2609 6:5 7:4 8:0.2609 9:0 10:0.2609 11:0.4783 12:75 13:0.4167 14:4 15:0.3871 16:93 17:0.2796 18:0.1505 19:0.2366 20:0.3333 21:0.3647 22:2 23:0.2973 
-0.6732722038325332 1:2 2:2 3:10 4:33 5:0.4545 6:10 7:3 8:0.3182 9:0.1364 10:0.3182 11:0.2273 12:12 13:0.3818 14:2 15:0.3544 16:79 17:0.3165 18:0.1392 19:0.2152 20:0.3291 21:0.36 22:4.5 23:0.3 
-0.6934937062405846 1:5 2:3 3:16 4:29 5:0.45 6:10 7:3 8:0.3 9:0.15 10:0.3 11:0.25 12:10 13:0.2917 14:1 15:0.3537 16:82 17:0.3171 18:0.1341 19:0.2195 20:0.3293 21:0.359 22:0.7 23:0.4667 
-0.8797247653016447 1:4 2:3 3:23 4:21 5:0.45 6:2 7:5 8:0.15 9:0.15 10:0.3 11:0.4 12:83 13:0.2683 14:1 15:0.4045 16:89 17:0.2247 18:0.1685 19:0.236 20:0.3708 21:0.2941 22:1 23:0.3182 
-0.6378170561824098 1:4 2:5 3:34 4:24 5:0.4091 6:8 7:4 8:0.3182 9:0.2273 10:0.1818 11:0.2727 12:93 13:0.4222 14:2 15:0.4035 16:114 17:0.2368 18:0.1842 19:0.2193 20:0.3596 21:0.3636 22:1 23:0.3231 
-1 1:1 2:1 3:3 4:26 5:0.3043 6:4 7:3 8:0.2609 9:0.087 10:0.2174 11:0.4348 12:60 13:0.3061 14:4 15:0.3167 16:60 17:0.2833 18:0.1333 19:0.1833 20:0.4 21:0.283 22:1.5 23:0.3333 
-1 1:4 2:4 3:27 4:26 5:0.2083 6:4 7:3 8:0.2917 9:0.0417 10:0.1667 11:0.5 12:81 13:0.3333 14:2 15:0.2885 16:104 17:0.2692 18:0.1154 19:0.1731 20:0.4423 21:0.3196 22:2 23:0.3333 
-0.2774509892599333 1:5 2:1 3:10 4:21 5:0.5714 6:5 7:3 8:0.2381 9:0.1905 10:0.381 11:0.1905 12:63 13:0.2973 14:1 15:0.4138 16:58 17:0.2759 18:0.1724 19:0.2414 20:0.3103 21:0.3077 22:0 23:0.3333 
-1 1:10 2:1 3:23 4:23 5:0.55 6:4 7:4 8:0.15 9:0.15 10:0.4 11:0.3 12:76 13:0.2683 14:1 15:0.4286 16:84 17:0.2619 18:0.1786 19:0.25 20:0.3095 21:0.2821 22:0.56 23:0.2973 
-0.5766484805492039 1:2 2:1 3:6 4:25 5:0.625 6:9 7:3 8:0.3333 9:0.2917 10:0.3333 11:0.0417 12:63 13:0.4583 14:1 15:0.4 16:65 17:0.3385 18:0.1846 19:0.2154 20:0.2615 21:0.4237 22:0 23:0.2727 
-0.535403977488815 1:11 2:1 3:16 4:22 5:0.3333 6:3 7:4 8:0.1905 9:0.1429 10:0.1905 11:0.4762 12:15 13:0.2683 14:3 15:0.359 16:78 17:0.3333 18:0.1667 19:0.1923 20:0.3077 21:0.4444 22:0.5 23:0.6774 
-0.09204938845467481 1:1 2:4 3:20 4:24 5:0.625 6:4 7:3 8:0.1667 9:0.2083 10:0.4167 11:0.2083 12:6 13:0.2766 14:2 15:0.5455 16:88 17:0.2273 18:0.25 19:0.2955 20:0.2273 21:0.2143 22:0.8 23:0.1351 
-0.105810525652209 1:-1 2:0 3:0 4:23 5:0.55 6:3 7:3 8:0.25 9:0.1 10:0.45 11:0.2 12:39 13:0.1905 14:3 15:0.4792 16:48 17:0.2708 18:0.1667 19:0.3125 20:0.25 21:0.1905 22:1 23:-1 
-1 1:-1 2:0 3:2 4:23 5:0.55 6:3 7:4 8:0.25 9:0.15 10:0.4 11:0.2 12:41 13:0.2381 14:4 15:0.5 16:52 17:0.2692 18:0.1731 19:0.3269 20:0.2308 21:0.2174 22:0.56 23:0 
-0.7508242852884383 1:-1 2:0 3:9 4:24 5:0.5455 6:5 7:3 8:0.1364 9:0.0909 10:0.4545 11:0.3182 12:65 13:0.3488 14:3 15:0.4776 16:67 17:0.2388 18:0.1791 19:0.2985 20:0.2836 21:0.2459 22:0.22 23:0 
-0.7787200981148238 1:5 2:1 3:21 4:22 5:0.5238 6:4 7:4 8:0.381 9:0.2381 10:0.2857 11:0.0952 12:10 13:0.3 14:4 15:0.5 16:86 17:0.2326 18:0.2093 19:0.2907 20:0.2674 21:0.25 22:0.89 23:0.2 
-0.09938305661321017 1:1 2:1 3:10 4:23 5:0.4762 6:4 7:3 8:0.0952 9:0.1905 10:0.2857 11:0.4286 12:70 13:0.3182 14:2 15:0.4321 16:81 17:0.2346 18:0.2346 19:0.1975 20:0.3333 21:0.2258 22:2 23:0.1 
-0.3102752814795017 1:1 2:2 3:17 4:23 5:0.3913 6:4 7:3 8:0.3043 9:0.2609 10:0.1304 11:0.3043 12:3 13:0.4146 14:2 15:0.4396 16:91 17:0.2527 18:0.2308 19:0.2088 20:0.3077 21:0.25 22:0 23:0.0909 
-0.02677356357576383 1:-1 2:0 3:0 4:23 5:0.4783 6:5 7:4 8:0.1304 9:0.2609 10:0.2174 11:0.3913 12:41 13:0.4545 14:-1 15:0.4565 16:46 17:0.1957 18:0.2174 19:0.2391 20:0.3478 21:0.3333 22:0 23:-1 
-0.6794823832928173 1:2 2:2 3:15 4:20 5:0.7 6:2 7:3 8:0.1 9:0.3 10:0.4 11:0.2 12:12 13:0.25 14:1 15:0.5195 16:77 17:0.2208 18:0.2857 19:0.2338 20:0.2597 21:0.2174 22:1.8 23:0.1724 
-0.4799167780147791 1:2 2:2 3:14 4:22 5:0.6818 6:2 7:3 8:0.0909 9:0.3182 10:0.3636 11:0.2273 12:11 13:0.2273 14:3 15:0.5316 16:79 17:0.2152 18:0.2911 19:0.2405 20:0.2532 21:0.2113 22:3 23:0.1852 
-0.1380635947733063 1:2 2:3 3:20 4:22 5:0.5238 6:2 7:5 8:0.3333 9:0.3333 10:0.1905 11:0.1429 12:65 13:0.2381 14:4 15:0.3882 16:85 17:0.2824 18:0.1765 19:0.2118 20:0.3294 21:0.1899 22:0.88 23:0.1351 
-0.2065071410530684 1:3 2:2 3:18 4:21 5:0.5238 6:2 7:3 8:0.1905 9:0.2381 10:0.2857 11:0.2857 12:9 13:0.1795 14:4 15:0.494 16:83 17:0.2048 18:0.2169 19:0.2771 20:0.3012 21:0.2055 22:0.73 23:0.2353 
-0.578640147057977 1:1 2:4 3:23 4:24 5:0.6 6:4 7:4 8:0.25 9:0.25 10:0.35 11:0.15 12:3 13:0.2857 14:1 15:0.5 16:98 17:0.2143 18:0.2551 19:0.2449 20:0.2857 21:0.2 22:0.73 23:0.1556 
-0.9624059337297233 1:3 2:2 3:13 4:20 5:0.3 6:2 7:2 8:0.2 9:0.2 10:0.1 11:0.5 12:9 13:0.15 14:2 15:0.3944 16:71 17:0.2676 18:0.1831 19:0.2113 20:0.338 21:0.2 22:1.6 23:0.28 
-0.7731226371693021 1:1 2:2 3:9 4:21 5:0.3333 6:3 7:3 8:0.2857 9:0.0952 10:0.2381 11:0.381 12:1 13:0.2683 14:2 15:0.5082 16:61 17:0.2131 18:0.2459 19:0.2623 20:0.2787 21:0.2143 22:0.7 23:0.1765 
-0.2716564244787402 1:5 2:3 3:18 4:20 5:0.6 6:2 7:3 8:0.2 9:0.3 10:0.3 11:0.2 12:5 13:0.2 14:2 15:0.5132 16:76 17:0.2105 18:0.2632 19:0.25 20:0.2763 21:0.2603 22:1.22 23:0.3714 
-0.119137362916605 1:5 2:3 3:21 4:20 5:0.7 6:2 7:3 8:0.15 9:0.3 10:0.4 11:0.15 12:2 13:0.2 14:4 15:0.5244 16:82 17:0.2073 18:0.2683 19:0.2561 20:0.2683 21:0.2405 22:1.22 23:0.3171 
-0.1936719068239529 1:1 2:3 3:16 4:21 5:0.45 6:2 7:1 8:0.1 9:0.3 10:0.15 11:0.45 12:74 13:0.0732 14:2 15:0.378 16:82 17:0.3171 18:0.1829 19:0.1951 20:0.3049 21:0.0725 22:0.9 23:0.1333 
-0.1582945646912017 1:1 2:3 3:21 4:20 5:0.5 6:3 7:2 8:0.35 9:0.2 10:0.3 11:0.15 12:4 13:0.1667 14:2 15:0.4578 16:83 17:0.253 18:0.2048 19:0.253 20:0.2892 21:0.12 22:0.83 23:0.0769 
-0.3745308612176733 1:3 2:4 3:18 4:24 5:0.5217 6:2 7:3 8:0.2174 9:0.1739 10:0.3478 11:0.2609 12:68 13:0.1489 14:3 15:0.4944 16:89 17:0.236 18:0.191 19:0.3034 20:0.2697 21:0.2 22:1 23:0.3143 
-0.8584851692960974 1:3 2:3 3:17 4:21 5:0.55 6:2 7:4 8:0.2 9:0.25 10:0.3 11:0.25 12:67 13:0.2195 14:2 15:0.4938 16:81 17:0.2469 18:0.1975 19:0.2963 20:0.2593 21:0.2222 22:0.7 23:0.2727 
-0.8572284413973468 1:2 2:1 3:14 4:22 5:0.55 6:2 7:4 8:0.2 9:0.25 10:0.3 11:0.25 12:67 13:0.2857 14:3 15:0.4643 16:84 17:0.2262 18:0.25 19:0.2143 20:0.3095 21:0.2286 22:1.8 23:0.1429 
