svm_type c_svc
kernel_type rbf
gamma 0.0416667
nr_class 2
total_sv 101
rho 0.887475
label 1 0
probA -5.80579
probB -1.70267
nr_sv 16 85
SV
1 1:4 2:6 3:3 4:2 5:21 6:0.619 7:2 8:2 9:2 10:0.0952 11:0.2381 12:0.2857 13:18 14:1 15:0.5443 16:0.2025 17:0.3038 18:0.2405 19:0.2532 20:0.2632 21:0.73 22:0.2414 23:0.4444 24:18 
1 1:3 2:6 3:3 4:2 5:21 6:0.5238 7:2 8:2 9:2 10:0.2857 11:0.3333 12:0.1905 13:18 14:3 15:0.5181 16:0.2169 17:0.2892 18:0.2289 19:0.2651 20:0.25 21:1.11 22:0.28 23:0.4 24:16 
1 1:4 2:7 3:3 4:1 5:21 6:0.619 7:1 8:2 9:2 10:0.2857 11:0.4286 12:0.0952 13:18 14:4 15:0.4933 16:0.3067 17:0.2933 18:0.2 19:0.2 20:0.2394 21:1 22:0.3333 23:0.3793 24:10 
1 1:4 2:3 3:-1 4:0 5:21 6:0.4762 7:3 8:1 9:1 10:0.2857 11:0.2381 12:0.2381 13:20 14:4 15:0.3737 16:0.2727 17:0.1616 18:0.2121 19:0.3535 20:0.1522 21:1 22:-1 23:0.2692 24:8 
1 1:4 2:3 3:5 4:2 5:21 6:0.4762 7:2 8:1 9:1 10:0.2857 11:0.2381 12:0.2381 13:20 14:4 15:0.382 16:0.2584 17:0.1685 18:0.2135 19:0.3596 20:0.1628 21:1 22:0.5238 23:0.3043 24:13 
0.9935383928742055 1:4 2:2 3:5 4:1 5:21 6:0.5238 7:1 8:2 9:3 10:0.2381 11:0.2381 12:0.2381 13:17 14:3 15:0.3953 16:0.2674 17:0.1744 18:0.2209 19:0.3372 20:0.2051 21:1 22:0.5 23:0.2222 24:11 
1 1:4 2:3 3:-1 4:0 5:21 6:0.5238 7:1 8:2 9:3 10:0.2381 11:0.2381 12:0.2381 13:17 14:3 15:0.4302 16:0.2442 17:0.186 18:0.2442 19:0.3256 20:0.2308 21:1 22:0 23:0.2778 24:6 
0.8080843238578516 1:4 2:3 3:4 4:2 5:21 6:0.5238 7:1 8:2 9:2 10:0.2381 11:0.2381 12:0.2381 13:18 14:4 15:0.4253 16:0.2529 17:0.2644 18:0.1609 19:0.3218 20:0.2121 21:0.78 22:0.4545 23:0.3846 24:12 
1 1:1 2:3 3:1 4:1 5:21 6:0.381 7:0 8:2 9:3 10:0.2857 11:0.2381 12:0.3333 13:17 14:3 15:0.3368 16:0.3263 17:0.1474 18:0.1895 19:0.3368 20:0.2391 21:1.17 22:0.1667 23:0.3077 24:9 
1 1:1 2:3 3:1 4:1 5:21 6:0.381 7:2 8:1 9:2 10:0.2857 11:0.2381 12:0.3333 13:19 14:3 15:0.3299 16:0.3402 17:0.134 18:0.1959 19:0.3299 20:0.1868 21:0.7 22:0.25 23:0.2653 24:6 
0.9449491390523594 1:3 2:3 3:1 4:1 5:21 6:0.4286 7:1 8:1 9:2 10:0.381 11:0.1429 12:0.1905 13:19 14:1 15:0.3333 16:0.3441 17:0.1398 18:0.1935 19:0.3226 20:0.1954 21:1.38 22:0.1667 23:0.2889 24:8 
1 1:1 2:2 3:5 4:1 5:23 6:0.381 7:0 8:2 9:1 10:0.4286 11:0.0476 12:0.1905 13:21 14:1 15:0.3816 16:0.3158 17:0.1974 18:0.1842 19:0.3026 20:0.1429 21:1.6 22:0.3846 23:0.25 24:23 
1 1:1 2:2 3:5 4:1 5:23 6:0.381 7:0 8:2 9:1 10:0.4286 11:0.0476 12:0.1905 13:21 14:1 15:0.3816 16:0.3158 17:0.1974 18:0.1842 19:0.3026 20:0.1429 21:1.6 22:0.3846 23:0.25 24:23 
1 1:4 2:9 3:-1 4:0 5:21 6:0.4286 7:2 8:2 9:2 10:0.0952 11:0.2857 12:0.4762 13:18 14:2 15:0.3778 16:0.3222 17:0.2222 18:0.1556 19:0.3 20:0.2471 21:0.73 22:0 23:0.3778 24:11 
1 1:4 2:4 3:1 4:1 5:21 6:0.1905 7:1 8:2 9:1 10:0.4762 11:0.1905 12:0.3333 13:19 14:3 15:0.2381 16:0.381 17:0.119 18:0.119 19:0.381 20:0.175 21:1.12 22:0.0714 23:0.2632 24:18 
1 1:1 2:8 3:-1 4:0 5:21 6:0.3333 7:1 8:2 9:2 10:0.5238 11:0.3333 12:0.1429 13:18 14:2 15:0.2667 16:0.3524 17:0.1333 18:0.1333 19:0.381 20:0.2871 21:0.67 22:-1 23:0.4 24:5 
-0.02549553683516177 1:1 2:1 3:3 4:4 5:20 6:0.55 7:1 8:6 9:2 10:0.2 11:0.3 12:0.25 13:13 14:4 15:0.5102 16:0.2245 17:0.3061 18:0.2041 19:0.2653 20:0.3043 21:0.9 22:0.2203 23:0.25 24:33 
-0.5328007973888048 1:4 2:6 3:-1 4:0 5:22 6:0.4091 7:1 8:3 9:3 10:0.2273 11:0.2727 12:0.3636 13:17 14:3 15:0.4519 16:0.2404 17:0.2404 18:0.2115 19:0.3077 20:0.2673 21:0.73 22:0 23:0.3333 24:5 
-0.7320390890174705 1:3 2:6 3:-1 4:0 5:22 6:0.3333 7:1 8:3 9:3 10:0.2857 11:0.1429 12:0.381 13:17 14:4 15:0.4608 16:0.2353 17:0.2451 18:0.2157 19:0.3039 20:0.2727 21:1.83 22:0 23:0.3448 24:6 
-0.01041494343530477 1:2 2:-1 3:3 4:4 5:21 6:0.5238 7:1 8:6 9:3 10:0.2381 11:0.0952 12:0.2381 13:13 14:2 15:0.5116 16:0.2326 17:0.3256 18:0.186 19:0.2558 20:0.35 21:1.43 22:0.2 23:-1 24:36 
-0.005352547612981842 1:1 2:-1 3:3 4:4 5:24 6:0.4783 7:2 8:6 9:3 10:0.2609 11:0.1304 12:0.2609 13:16 14:2 15:0.5102 16:0.2245 17:0.3061 18:0.2041 19:0.2653 20:0.3043 21:1.43 22:0.2203 23:-1 24:33 
-0.02339590527350477 1:2 2:1 3:3 4:3 5:20 6:0.45 7:0 8:7 9:1 10:0.5 11:0.1 12:0.05 13:13 14:2 15:0.4286 16:0.3469 17:0.2653 18:0.1633 19:0.2245 20:0.2444 21:1.57 22:0.2683 23:0.2 24:23 
-0.05367003234266664 1:4 2:-1 3:3 4:3 5:25 6:0.4 7:0 8:7 9:2 10:0.2 11:0.2 12:0.4 13:17 14:3 15:0.4286 16:0.3469 17:0.2653 18:0.1633 19:0.2245 20:0.2444 21:0.91 22:0.2683 23:-1 24:23 
-0.0320057327115536 1:3 2:1 3:3 4:3 5:20 6:0.5 7:0 8:7 9:1 10:0.45 11:0.15 12:0.05 13:13 14:4 15:0.451 16:0.3333 17:0.2745 18:0.1765 19:0.2157 20:0.234 21:2.2 22:0.2821 23:0.1667 24:22 
-0.01466379000005786 1:2 2:-1 3:3 4:3 5:23 6:0.4783 7:0 8:7 9:2 10:0.4783 11:0.1739 12:0.0435 13:15 14:4 15:0.4222 16:0.3556 17:0.2667 18:0.1556 19:0.2222 20:0.2683 21:1.1 22:0.2444 23:-1 24:25 
-0.0450933811519621 1:2 2:-1 3:3 4:2 5:29 6:0.4583 7:1 8:7 9:3 10:0.2083 11:0.1667 12:0.3333 13:19 14:3 15:0.4746 16:0.322 17:0.2881 18:0.1864 19:0.2034 20:0.2727 21:1.6 22:0.2258 23:0 24:18 
-0.0162624446027186 1:2 2:-1 3:2 4:3 5:22 6:0.3913 7:2 8:3 9:3 10:0.4783 11:0.2609 12:0.1304 13:14 14:4 15:0.3333 16:0.3095 17:0.1429 18:0.1905 19:0.3571 20:0.2 21:0.25 22:0.1228 23:-1 24:38 
-0.3419966219779282 1:3 2:3 3:1 4:1 5:22 6:0.2857 7:3 8:2 9:2 10:0.2857 11:0.1429 12:0.4286 13:19 14:3 15:0.3506 16:0.2857 17:0.1429 18:0.2078 19:0.3636 20:0.1714 21:1.12 22:0.0909 23:0.3103 24:20 
-0.07383602372878768 1:1 2:3 3:1 4:1 5:22 6:0.3182 7:3 8:2 9:2 10:0.3182 11:0.2273 12:0.3636 13:19 14:1 15:0.3506 16:0.2857 17:0.1429 18:0.2078 19:0.3636 20:0.1714 21:0.89 22:0.0909 23:0.3103 24:20 
-0.8045887292643971 1:1 2:3 3:1 4:1 5:22 6:0.5 7:2 8:5 9:2 10:0.1364 11:0.2273 12:0.3636 13:16 14:3 15:0.4078 16:0.2427 17:0.1942 18:0.2136 19:0.3495 20:0.24 21:1.8 22:0.1429 23:0.2414 24:6 
-0.04588887564020888 1:4 2:2 3:5 4:3 5:27 6:0.2273 7:2 8:3 9:3 10:0.1818 11:0.0455 12:0.5909 13:20 14:3 15:0.3279 16:0.2787 17:0.1311 18:0.1967 19:0.3934 20:0.2069 21:1.5 22:0.2653 23:0.5 24:27 
-0.3572242345183162 1:3 2:3 3:5 4:2 5:23 6:0.3913 7:2 8:3 9:2 10:0.2174 11:0.2609 12:0.3913 13:19 14:2 15:0.3766 16:0.2597 17:0.1688 18:0.2078 19:0.3636 20:0.1892 21:0.38 22:0.3333 23:0.3125 24:19 
-0.008633412822385656 1:1 2:1 3:5 4:3 5:23 6:0.3636 7:2 8:3 9:4 10:0.4091 11:0.3182 12:0.2273 13:14 14:1 15:0.3556 16:0.2444 17:0.1333 18:0.2222 19:0.4 20:0.2857 21:0.83 22:0.2 23:0.5 24:35 
-0.8750008276785423 1:3 2:3 3:5 4:2 5:21 6:0.381 7:2 8:2 9:2 10:0.2381 11:0.2381 12:0.381 13:18 14:2 15:0.3766 16:0.2597 17:0.1688 18:0.2078 19:0.3636 20:0.1892 21:0.5 22:0.3333 23:0.3143 24:19 
-0.3487803608338986 1:1 2:2 3:5 4:3 5:28 6:0.2609 7:3 8:3 9:2 10:0.2609 11:0.087 12:0.4783 13:22 14:1 15:0.3333 16:0.2754 17:0.1304 18:0.2029 19:0.3913 20:0.1818 21:1 22:0.3171 23:0.4118 24:23 
-0.07851060465193929 1:3 2:1 3:5 4:4 5:20 6:0.35 7:3 8:2 9:2 10:0.35 11:0.15 12:0.3 13:17 14:1 15:0.3621 16:0.2586 17:0.1552 18:0.2069 19:0.3793 20:0.16 21:1.43 22:0.3636 23:0.2 24:25 
-0.03860417145758396 1:1 2:-1 3:5 4:4 5:22 6:0.3043 7:3 8:3 9:4 10:0.3043 11:0.087 12:0.3913 13:15 14:-1 15:0.3043 16:0.2826 17:0.1304 18:0.1739 19:0.413 20:0.2105 21:3.5 22:0.2857 23:-1 24:31 
-0.09593951577183156 1:3 2:-1 3:5 4:4 5:24 6:0.375 7:4 8:2 9:3 10:0.2083 11:0.2917 12:0.4167 13:20 14:3 15:0.3393 16:0.2679 17:0.1429 18:0.1964 19:0.3929 20:0.1667 21:0.9 22:0.3478 23:-1 24:26 
-0.008602029837769785 1:3 2:2 3:-1 4:0 5:22 6:0.4091 7:0 8:5 9:5 10:0.4091 11:0.0909 12:0.1818 13:13 14:4 15:0.3942 16:0.2885 17:0.1827 18:0.2115 19:0.3173 20:0.2708 21:0.62 22:-1 23:0.1852 24:1 
-0.1382894152352203 1:1 2:2 3:5 4:2 5:22 6:0.3182 7:2 8:2 9:3 10:0.3636 11:0.1818 12:0.3182 13:18 14:4 15:0.3784 16:0.2568 17:0.1622 18:0.2162 19:0.3649 20:0.2121 21:0.75 22:0.3571 23:0.2727 24:17 
-0.02232239775428185 1:1 2:-1 3:2 4:3 5:22 6:0.3478 7:3 8:3 9:4 10:0.2609 11:0.1304 12:0.3913 13:14 14:-1 15:0.3696 16:0.2391 17:0.1522 18:0.2174 19:0.3913 20:0.2632 21:2.33 22:0.1739 23:-1 24:26 
-1 1:4 2:3 3:1 4:1 5:21 6:0.3333 7:2 8:2 9:3 10:0.3333 11:0.1905 12:0.3333 13:17 14:4 15:0.4306 16:0.2222 17:0.1806 18:0.25 19:0.3472 20:0.25 21:0.88 22:0.1 23:0.3636 24:13 
-0.04030132106276954 1:4 2:-1 3:2 4:3 5:21 6:0.3636 7:3 8:3 9:4 10:0.2273 11:0.1364 12:0.4091 13:13 14:-1 15:0.3864 16:0.2273 17:0.1591 18:0.2273 19:0.3864 20:0.2778 21:2.33 22:0.1667 23:-1 24:27 
-0.8625988152670633 1:4 2:3 3:1 4:1 5:23 6:0.4783 7:3 8:2 9:3 10:0.1739 11:0.2609 12:0.3478 13:19 14:4 15:0.4189 16:0.2297 17:0.1757 18:0.2432 19:0.3514 20:0.2424 21:1.33 22:0.1111 23:0.4 24:12 
-0.1671356857965516 1:4 2:3 3:-1 4:0 5:20 6:0.45 7:0 8:4 9:3 10:0.1 11:0.2 12:0.45 13:12 14:2 15:0.4257 16:0.2277 17:0.2673 18:0.1584 19:0.3465 20:0.3 21:0.83 22:0 23:0.2727 24:6 
-0.03126147722066233 1:2 2:3 3:-1 4:0 5:22 6:0.6 7:0 8:4 9:3 10:0.2 11:0.2 12:0.2 13:14 14:1 15:0.4369 16:0.2233 17:0.2718 18:0.165 19:0.3398 20:0.2927 21:1 22:0 23:0.2857 24:5 
-0.04912646172457751 1:4 2:-1 3:2 4:5 5:22 6:0.2381 7:1 8:3 9:4 10:0.2381 11:0.2381 12:0.5238 13:14 14:-1 15:0.2093 16:0.3488 17:0.0698 18:0.1395 19:0.4419 20:0.3 21:1.5 22:0.1875 23:-1 24:35 
-0.006716797547033893 1:3 2:-1 3:2 4:4 5:24 6:0.2609 7:2 8:3 9:4 10:0.4348 11:0.1304 12:0.3043 13:15 14:4 15:0.234 16:0.3404 17:0.0638 18:0.1702 19:0.4255 20:0.3182 21:0.33 22:0.1667 23:-1 24:33 
-0.02955443885331352 1:2 2:3 3:2 4:2 5:22 6:0.3636 7:1 8:3 9:3 10:0.4091 11:0.1364 12:0.2273 13:17 14:4 15:0.2785 16:0.3544 17:0.1139 18:0.1646 19:0.3671 20:0.2368 21:1.75 22:0.2143 23:0.2941 24:17 
-0.0316444240618165 1:1 2:-1 3:2 4:5 5:21 6:0.2 7:1 8:3 9:4 10:0.45 11:0.05 12:0.35 13:14 14:4 15:0.2195 16:0.3415 17:0.0732 18:0.1463 19:0.439 20:0.2632 21:0.67 22:0.2121 23:-1 24:36 
-0.01628285844672737 1:2 2:2 3:2 4:3 5:24 6:0.3333 7:1 8:3 9:3 10:0.4167 11:0.1667 12:0.25 13:17 14:4 15:0.2727 16:0.3506 17:0.1039 18:0.1688 19:0.3766 20:0.2162 21:5 22:0.2667 23:0.1429 24:18 
-0.004536623189267121 1:4 2:-1 3:1 4:2 5:22 6:0.25 7:1 8:3 9:4 10:0.35 11:0.2 12:0.4 13:13 14:1 15:0.2698 16:0.381 17:0.0952 18:0.1746 19:0.3492 20:0.2632 21:1.29 22:0.0952 23:0 24:23 
-0.02855643762270006 1:4 2:-1 3:1 4:3 5:21 6:0.35 7:1 8:3 9:3 10:0.45 11:0.2 12:0.2 13:13 14:4 15:0.2549 16:0.3725 17:0.0784 18:0.1765 19:0.3725 20:0.2889 21:0.4 22:0.1111 23:0 24:29 
-0.01110486999729975 1:1 2:-1 3:1 4:3 5:21 6:0.35 7:1 8:3 9:3 10:0.45 11:0.2 12:0.2 13:13 14:4 15:0.2453 16:0.3774 17:0.0755 18:0.1698 19:0.3774 20:0.2766 21:0.55 22:0.1154 23:0 24:28 
-0.02336731783363112 1:3 2:-1 3:1 4:2 5:25 6:0.3478 7:1 8:3 9:4 10:0.3043 11:0.3043 12:0.3478 13:16 14:1 15:0.2698 16:0.381 17:0.0952 18:0.1746 19:0.3492 20:0.2632 21:1.57 22:0.0952 23:0 24:23 
-0.03337601589543954 1:1 2:-1 3:1 4:3 5:26 6:0.2917 7:1 8:3 9:3 10:0.2917 11:0.25 12:0.4167 13:18 14:2 15:0.2727 16:0.3636 17:0.0909 18:0.1818 19:0.3636 20:0.2653 21:0.89 22:0.12 23:-1 24:27 
-0.002407957140098867 1:1 2:-1 3:1 4:2 5:22 6:0.381 7:1 8:3 9:4 10:0.4762 11:0.1905 12:0.1429 13:13 14:1 15:0.2632 16:0.386 17:0.0877 18:0.1754 19:0.3509 20:0.2941 21:0.64 22:0.0833 23:0 24:26 
-0.7323824291740738 1:3 2:3 3:-1 4:0 5:21 6:0.4762 7:2 8:1 9:2 10:0.3333 11:0.2857 12:0.1905 13:19 14:1 15:0.3429 16:0.3429 17:0.1429 18:0.2 19:0.3143 20:0.1919 21:0.89 22:-1 23:0.2632 24:2 
-0.756698552259391 1:4 2:2 3:2 4:1 5:20 6:0.3 7:1 8:3 9:1 10:0.5 11:0.1 12:0.2 13:17 14:3 15:0.3587 16:0.3152 17:0.1848 18:0.1739 19:0.3261 20:0.186 21:0.2 22:0.4 23:0.2174 24:15 
-0.2513883809376783 1:3 2:2 3:-1 4:0 5:22 6:0.3636 7:1 8:5 9:1 10:0.1364 11:0.1818 12:0.5 13:17 14:2 15:0.3725 16:0.3039 17:0.1961 18:0.1765 19:0.3235 20:0.2083 21:1.38 22:-1 23:0.1923 24:10 
-0.001126795696071603 1:1 2:-1 3:5 4:1 5:23 6:0.3478 7:1 8:2 9:4 10:0.3913 11:0.3043 12:0.2609 13:16 14:1 15:0.3958 16:0.3125 17:0.2083 18:0.1875 19:0.2917 20:0.2381 21:0.44 22:0.1852 23:-1 24:37 
-0.4067486546074647 1:4 2:2 3:2 4:1 5:23 6:0.3043 7:1 8:3 9:1 10:0.4783 11:0.087 12:0.2174 13:20 14:3 15:0.3587 16:0.3152 17:0.1848 18:0.1739 19:0.3261 20:0.186 21:0.2 22:0.4 23:0.25 24:15 
-0.05091448393709039 1:4 2:-1 3:5 4:1 5:20 6:0.45 7:1 8:2 9:4 10:0.2 11:0.1 12:0.35 13:13 14:2 15:0.4048 16:0.3095 17:0.2143 18:0.1905 19:0.2857 20:0.2778 21:2.5 22:0.1667 23:-1 24:40 
-0.00469104378863864 1:1 2:-1 3:5 4:1 5:20 6:0.35 7:0 8:2 9:3 10:0.4 11:0.3 12:0.25 13:15 14:1 15:0.3958 16:0.3125 17:0.2083 18:0.1875 19:0.2917 20:0.2381 21:0.89 22:0.1852 23:0 24:37 
-0.04813714778090117 1:4 2:-1 3:5 4:1 5:23 6:0.4167 7:1 8:2 9:4 10:0.25 11:0.0833 12:0.3333 13:16 14:-1 15:0.3958 16:0.3125 17:0.2083 18:0.1875 19:0.2917 20:0.2381 21:2.25 22:0.1852 23:-1 24:37 
-0.1831247747294792 1:3 2:2 3:-1 4:0 5:23 6:0.3913 7:1 8:5 9:2 10:0.1304 11:0.1739 12:0.4783 13:17 14:2 15:0.3786 16:0.301 17:0.2039 18:0.1748 19:0.3204 20:0.2165 21:1.38 22:-1 23:0.1923 24:9 
-0.3022526053477095 1:2 2:1 3:5 4:1 5:23 6:0.4348 7:0 8:2 9:2 10:0.3043 11:0.0435 12:0.2609 13:19 14:2 15:0.4531 16:0.2812 17:0.2344 18:0.2188 19:0.2656 20:0.1724 21:2.75 22:0.2632 23:0.1667 24:29 
-0.02199662410096748 1:1 2:-1 3:5 4:1 5:22 6:0.4091 7:1 8:2 9:3 10:0.2273 11:0.0455 12:0.3636 13:17 14:4 15:0.38 16:0.32 17:0.2 18:0.18 19:0.3 20:0.2273 21:1.29 22:0.1923 23:-1 24:36 
-0.04409756791588573 1:2 2:-1 3:5 4:1 5:20 6:0.381 7:1 8:2 9:4 10:0.381 11:0.2857 12:0.2381 13:13 14:1 15:0.4048 16:0.3095 17:0.2143 18:0.1905 19:0.2857 20:0.2778 21:0.4 22:0.1667 23:-1 24:40 
-0.3090594375552242 1:4 2:9 3:-1 4:0 5:22 6:0.3636 7:2 8:2 9:2 10:0.1364 11:0.2273 12:0.5 13:19 14:1 15:0.359 16:0.3333 17:0.2179 18:0.141 19:0.3077 20:0.2877 21:1.5 22:0 23:0.5484 24:17 
-0.03670076252617415 1:3 2:3 3:1 4:1 5:30 6:0.25 7:2 8:9 9:2 10:0.375 11:0.125 12:0.375 13:19 14:1 15:0.375 16:0.3194 17:0.2222 18:0.1528 19:0.3056 20:0.2836 21:2 22:0.0714 23:0.3333 24:20 
-0.0420346528008354 1:2 2:1 3:2 4:2 5:24 6:0.4167 7:0 8:9 9:2 10:0.4583 11:0.0417 12:0.125 13:12 14:4 15:0.36 16:0.38 17:0.26 18:0.1 19:0.26 20:0.3333 21:0.22 22:0.12 23:0.25 24:31 
-0.5155414858163511 1:3 2:7 3:1 4:1 5:21 6:0.2857 7:2 8:2 9:2 10:0.381 11:0.1429 12:0.3333 13:17 14:1 15:0.375 16:0.3194 17:0.2222 18:0.1528 19:0.3056 20:0.2836 21:2 22:0.0714 23:0.4815 24:20 
-0.3413997527090205 1:1 2:9 3:1 4:1 5:20 6:0.35 7:2 8:2 9:1 10:0.15 11:0.25 12:0.5 13:18 14:1 15:0.3553 16:0.3289 17:0.2105 18:0.1447 19:0.3158 20:0.2676 21:1 22:0.0833 23:0.5152 24:18 
-0.06107600547325449 1:1 2:7 3:1 4:1 5:22 6:0.2727 7:2 8:2 9:2 10:0.4091 11:0.1364 12:0.3182 13:18 14:1 15:0.3649 16:0.3243 17:0.2162 18:0.1486 19:0.3108 20:0.2754 21:2.5 22:0.0769 23:0.4815 24:19 
-0.05840444248082849 1:1 2:-1 3:2 4:2 5:32 6:0.1739 7:1 8:9 9:3 10:0.3913 11:0.1739 12:0.4348 13:18 14:2 15:0.3393 16:0.375 17:0.2321 18:0.1071 19:0.2857 20:0.2941 21:1.6 22:0.1364 23:-1 24:28 
-0.0213580211563641 1:2 2:2 3:2 4:2 5:22 6:0.3636 7:0 8:9 9:2 10:0.5 11:0.0455 12:0.1364 13:12 14:4 15:0.36 16:0.38 17:0.26 18:0.1 19:0.26 20:0.3333 21:0.67 22:0.12 23:0.4 24:31 
-0.07049595831299826 1:4 2:-1 3:2 4:2 5:30 6:0.2 7:1 8:9 9:3 10:0.3 11:0.2 12:0.5 13:16 14:2 15:0.3654 16:0.3654 17:0.25 18:0.1154 19:0.2692 20:0.3191 21:1.8 22:0.125 23:-1 24:30 
-0.07243754611255633 1:4 2:1 3:1 4:2 5:33 6:0.1667 7:1 8:9 9:3 10:0.4167 11:0.125 12:0.4167 13:20 14:2 15:0.3281 16:0.3594 17:0.2188 18:0.1094 19:0.3125 20:0.2881 21:0.78 22:0.1111 23:0.5 24:24 
-0.610955713233765 1:1 2:9 3:-1 4:0 5:21 6:0.4286 7:1 8:2 9:3 10:0.3333 11:0.1429 12:0.2381 13:17 14:4 15:0.3762 16:0.3267 17:0.2178 18:0.1584 19:0.297 20:0.2292 21:1.17 22:-1 23:0.2982 24:5 
-0.0132280450313556 1:2 2:3 3:1 4:2 5:23 6:0.3478 7:1 8:8 9:2 10:0.3043 11:0.087 12:0.3478 13:14 14:2 15:0.3281 16:0.3594 17:0.2188 18:0.1094 19:0.3125 20:0.2881 21:0 22:0.1111 23:0.3 24:24 
-0.04310699589927861 1:2 2:3 3:1 4:1 5:28 6:0.1818 7:1 8:9 9:2 10:0.4091 11:0.0909 12:0.4091 13:17 14:1 15:0.3529 16:0.3382 17:0.2206 18:0.1324 19:0.3088 20:0.3016 21:1.5 22:0.0625 23:0.3333 24:22 
-0.01205145763162859 1:1 2:-1 3:2 4:2 5:23 6:0.3478 7:0 8:4 9:3 10:0.2609 11:0.1739 12:0.3913 13:16 14:1 15:0.2609 16:0.3696 17:0.1304 18:0.1304 19:0.3696 20:0.2381 21:2.25 22:0.0909 23:-1 24:37 
-0.02831462283075557 1:2 2:1 3:2 4:2 5:21 6:0.381 7:1 8:3 9:2 10:0.2381 11:0.1429 12:0.381 13:16 14:4 15:0.3 16:0.34 17:0.14 18:0.16 19:0.36 20:0.2174 21:4.5 22:0.0968 23:0.2 24:35 
-0.01016913095901166 1:4 2:-1 3:2 4:2 5:25 6:0.2609 7:1 8:4 9:2 10:0.3913 11:0.1739 12:0.3478 13:19 14:1 15:0.2679 16:0.3571 17:0.125 18:0.1429 19:0.375 20:0.1923 21:0.56 22:0.1071 23:0 24:32 
-0.279273726139134 1:1 2:4 3:1 4:1 5:23 6:0.2609 7:1 8:2 9:2 10:0.4348 11:0.2174 12:0.3043 13:19 14:4 15:0.2857 16:0.3571 17:0.1429 18:0.1429 19:0.3571 20:0.2121 21:0.9 22:0.0476 23:0.3 24:25 
-0.2054653938556264 1:4 2:4 3:-1 4:0 5:24 6:0.25 7:1 8:1 9:1 10:0.5417 11:0.1667 12:0.2083 13:23 14:4 15:0.2407 16:0.3704 17:0.1204 18:0.1204 19:0.3889 20:0.1538 21:1.29 22:0 23:0.25 24:6 
-0.01732073825951256 1:2 2:2 3:2 4:2 5:20 6:0.35 7:1 8:2 9:2 10:0.25 11:0.15 12:0.4 13:16 14:4 15:0.3 16:0.34 17:0.14 18:0.16 19:0.36 20:0.2174 21:1.8 22:0.0968 23:0.3333 24:35 
-1 1:3 2:4 3:1 4:1 5:20 6:0.25 7:1 8:-1 9:0 10:0.55 11:0.2 12:0.2 13:20 14:4 15:0.2451 16:0.3725 17:0.1176 18:0.1275 19:0.3824 20:0.1429 21:1.11 22:0.2 23:0.2414 24:9 
-0.0005363235104882911 1:1 2:-1 3:2 4:2 5:22 6:0.3636 7:0 8:4 9:3 10:0.2273 11:0.1818 12:0.4091 13:15 14:1 15:0.2727 16:0.3636 17:0.1364 18:0.1364 19:0.3636 20:0.25 21:1.75 22:0.0882 23:-1 24:38 
-0.02269284498240684 1:4 2:-1 3:2 4:2 5:23 6:0.2857 7:1 8:4 9:2 10:0.3333 11:0.1905 12:0.381 13:17 14:4 15:0.3 16:0.34 17:0.14 18:0.16 19:0.36 20:0.2174 21:0.44 22:0.0968 23:0 24:35 
-0.7099889614243056 1:4 2:4 3:1 4:1 5:24 6:0.2083 7:1 8:2 9:1 10:0.25 11:0.0417 12:0.5417 13:22 14:1 15:0.2404 16:0.375 17:0.1154 18:0.125 19:0.3846 20:0.14 21:1.8 22:0.25 23:0.1923 24:8 
-0.01830966189541378 1:1 2:4 3:1 4:1 5:21 6:0.2381 7:1 8:2 9:2 10:0.4286 11:0.1905 12:0.3333 13:17 14:1 15:0.2778 16:0.3611 17:0.1389 18:0.1389 19:0.3611 20:0.2059 21:0.44 22:0.05 23:0.2308 24:24 
-0.7710130787752628 1:4 2:8 3:-1 4:0 5:23 6:0.3913 7:1 8:2 9:3 10:0.1739 11:0 12:0.4348 13:18 14:4 15:0.2979 16:0.3298 17:0.1489 18:0.1489 19:0.3723 20:0.3111 21:0.45 22:0 23:0.4468 24:11 
-0.005777480038824445 1:3 2:8 3:-1 4:0 5:29 6:0.4583 7:2 8:4 9:3 10:0.375 11:0.4167 12:0.1667 13:22 14:4 15:0.2979 16:0.3298 17:0.1489 18:0.1489 19:0.3723 20:0.3111 21:1.22 22:0 23:0.5135 24:11 
-0.05619682770688187 1:4 2:2 3:2 4:1 5:24 6:0.2609 7:1 8:8 9:3 10:0.1739 11:0.0435 12:0.5652 13:11 14:1 15:0.2241 16:0.3621 17:0.1207 18:0.1034 19:0.4138 20:0.4444 21:0 22:0.087 23:0.3333 24:29 
-0.0562316982849299 1:1 2:3 3:2 4:2 5:20 6:0.25 7:1 8:5 9:2 10:0.15 11:0.05 12:0.6 13:11 14:1 15:0.2105 16:0.3684 17:0.1053 18:0.1053 19:0.4211 20:0.434 21:0 22:0.1064 23:0.5294 24:30 
-0.1646894481008889 1:4 2:8 3:1 4:1 5:20 6:0.25 7:2 8:4 9:3 10:0.15 11:0 12:0.6 13:14 14:3 15:0.2375 16:0.35 17:0.1125 18:0.125 19:0.4125 20:0.3421 21:0.67 22:0.0833 23:0.4634 24:18 
-0.2525702547326372 1:2 2:8 3:-1 4:0 5:22 6:0.3636 7:1 8:3 9:3 10:0.1818 11:0 12:0.4545 13:16 14:3 15:0.2667 16:0.3444 17:0.1333 18:0.1333 19:0.3889 20:0.3256 21:0.3 22:0 23:0.4348 24:13 
-0.03748174359505382 1:1 2:6 3:2 4:1 5:28 6:0.2609 7:2 8:4 9:3 10:0.5652 11:0.2174 12:0.1739 13:21 14:2 15:0.2308 16:0.359 17:0.1154 18:0.1154 19:0.4103 20:0.3243 21:2 22:0.1538 23:0.6522 24:19 
-0.03174766047406648 1:1 2:6 3:2 4:1 5:27 6:0.2727 7:2 8:4 9:3 10:0.5455 11:0.2273 12:0.1818 13:20 14:2 15:0.2368 16:0.3553 17:0.1184 18:0.1184 19:0.4079 20:0.3333 21:2.25 22:0.1429 23:0.6522 24:20 
