svm_type c_svc
kernel_type rbf
gamma 0.0416667
nr_class 2
total_sv 39
rho 0.920395
label 1 0
probA -0.586382
probB 2.29604
nr_sv 3 36
SV
1 1:4 2:1 3:2 4:3 5:22 6:0.5 7:1 8:1 9:2 10:0.2727 11:0.2727 12:0.2273 13:20 14:3 15:0.4865 16:0.2432 17:0.2703 18:0.2162 19:0.2703 20:0.0909 21:1.12 22:0.1892 23:0.1304 24:23 
1 1:4 2:1 3:1 4:1 5:21 6:0.5238 7:2 8:1 9:1 10:0.2381 11:0.2381 12:0.2381 13:20 14:3 15:0.4359 16:0.2436 17:0.2051 18:0.2308 19:0.3205 20:0.0833 21:0.67 22:0.2 23:0.1333 24:11 
1 1:4 2:7 3:-1 4:0 5:21 6:0.381 7:2 8:1 9:1 10:0.1905 11:0.0952 12:0.4286 13:20 14:3 15:0.5182 16:0.2182 17:0.2636 18:0.2545 19:0.2636 20:0.2571 21:1.43 22:0 23:0.4154 24:4 
-0.1590561515063713 1:4 2:1 3:2 4:3 5:22 6:0.4545 7:0 8:2 9:2 10:0.2273 11:0.1818 12:0.3182 13:19 14:3 15:0.5 16:0.2419 17:0.2903 18:0.2097 19:0.2581 20:0.1111 21:1.22 22:0.1429 23:0.0909 24:29 
-0.04000525095735361 1:2 2:2 3:-1 4:0 5:22 6:0.5 7:4 8:3 9:4 10:0.2273 11:0.2727 12:0.2727 13:15 14:2 15:0.4701 16:0.2393 17:0.2393 18:0.2308 19:0.2906 20:0.1743 21:3.5 22:-1 23:0.0909 24:1 
-0.01058159450909296 1:4 2:-1 3:2 4:3 5:25 6:0.5417 7:1 8:2 9:3 10:0.2917 11:0.3333 12:0.1667 13:21 14:4 15:0.5167 16:0.2333 17:0.3 18:0.2167 19:0.25 20:0.1154 21:0.64 22:0.1373 23:0 24:30 
-0.2409149895095789 1:2 2:2 3:1 4:1 5:20 6:0.45 7:3 8:2 9:2 10:0.25 11:0.3 12:0.3 13:17 14:3 15:0.4688 16:0.2396 17:0.2396 18:0.2292 19:0.2917 20:0.1364 21:0.64 22:0.0667 23:0.125 24:12 
-0.03045847555578244 1:3 2:-1 3:2 4:3 5:25 6:0.4583 7:1 8:2 9:4 10:0.2083 11:0.1667 12:0.3333 13:19 14:2 15:0.4808 16:0.25 17:0.2885 18:0.1923 19:0.2692 20:0.1364 21:1.4 22:0.1186 23:-1 24:34 
-0.06250486890199736 1:3 2:-1 3:2 4:4 5:22 6:0.4545 7:1 8:3 9:3 10:0.1818 11:0.1364 12:0.3636 13:16 14:-1 15:0.4889 16:0.2444 17:0.2889 18:0.2 19:0.2667 20:0.1351 21:5 22:0.1212 23:-1 24:38 
-0.2043607694891486 1:3 2:2 3:-1 4:0 5:23 6:0.4348 7:3 8:2 9:3 10:0.2174 11:0.2609 12:0.3478 13:19 14:2 15:0.4545 16:0.2525 17:0.2323 18:0.2222 19:0.2929 20:0.1429 21:1.57 22:0 23:0.1304 24:10 
-0.04327455970031473 1:4 2:-1 3:2 4:4 5:22 6:0.5 7:1 8:2 9:3 10:0.3182 11:0.2727 12:0.1818 13:17 14:1 15:0.4681 16:0.2553 17:0.2766 18:0.1915 19:0.2766 20:0.1282 21:0.56 22:0.125 23:-1 24:37 
-0.2324803831116047 1:4 2:2 3:1 4:1 5:21 6:0.4286 7:3 8:2 9:2 10:0.1905 11:0.2381 12:0.381 13:18 14:2 15:0.4574 16:0.2447 17:0.234 18:0.2234 19:0.2979 20:0.1395 21:2.75 22:0.0588 23:0.1364 24:13 
-0.1219631457149937 1:1 2:2 3:2 4:2 5:22 6:0.5 7:2 8:1 9:2 10:0.2727 11:0.3182 12:0.2273 13:20 14:4 15:0.4651 16:0.2442 17:0.2558 18:0.2093 19:0.2907 20:0.1026 21:1.14 22:0.2 23:0.1429 24:17 
-0.1921765973708279 1:4 2:2 3:-1 4:0 5:23 6:0.4348 7:4 8:2 9:3 10:0.2174 11:0.2609 12:0.3478 13:19 14:4 15:0.4775 16:0.2342 17:0.2342 18:0.2432 19:0.2883 20:0.1262 21:1 22:-1 23:0.1034 24:4 
-0.1502330045452465 1:4 2:2 3:1 4:1 5:25 6:0.4583 7:3 8:2 9:3 10:0.1667 11:0.25 12:0.375 13:21 14:1 15:0.4688 16:0.2396 17:0.2396 18:0.2292 19:0.2917 20:0.1364 21:1.43 22:0.0667 23:0.1282 24:12 
-0.03812598985019207 1:2 2:2 3:-1 4:0 5:25 6:0.4583 7:4 8:2 9:3 10:0.25 11:0.2917 12:0.2917 13:21 14:2 15:0.4771 16:0.2385 17:0.2385 18:0.2385 19:0.2844 20:0.1287 21:1.11 22:0 23:0.1154 24:5 
-0.03055467886687664 1:3 2:1 3:-1 4:0 5:24 6:0.5417 7:2 8:5 9:2 10:0.1667 11:0.375 12:0.2917 13:18 14:1 15:0.4624 16:0.2366 17:0.2151 18:0.2473 19:0.3011 20:0.1494 21:0 22:-1 23:0.1364 24:1 
-0.04150821960657938 1:3 2:-1 3:1 4:1 5:23 6:0.5217 7:2 8:1 9:3 10:0.1304 11:0.2609 12:0.3478 13:20 14:2 15:0.4107 16:0.25 17:0.1964 18:0.2143 19:0.3393 20:0.12 21:1.1 22:0.0625 23:0 24:22 
-0.003929825747010371 1:4 2:-1 3:1 4:1 5:23 6:0.375 7:1 8:2 9:4 10:0.0833 11:0.2083 12:0.5417 13:18 14:-1 15:0.375 16:0.2708 17:0.1875 18:0.1875 19:0.3542 20:0.1429 21:0.44 22:0.05 23:-1 24:26 
-0.1352468139729978 1:4 2:-1 3:1 4:1 5:21 6:0.381 7:1 8:1 9:3 10:0.4286 11:0.1905 12:0.1905 13:18 14:4 15:0.36 16:0.28 17:0.18 18:0.18 19:0.36 20:0.1364 21:0.9 22:0.0526 23:0 24:25 
-0.1044529699674093 1:4 2:1 3:1 4:1 5:20 6:0.4 7:3 8:1 9:2 10:0.4 11:0.25 12:0.2 13:18 14:2 15:0.4516 16:0.2258 17:0.2097 18:0.2419 19:0.3226 20:0.1071 21:1.38 22:0.0769 23:0.125 24:19 
-0.02540112247140046 1:3 2:1 3:1 4:1 5:23 6:0.4783 7:3 8:1 9:2 10:0.3478 11:0.3478 12:0.1739 13:21 14:2 15:0.4848 16:0.2121 17:0.2273 18:0.2576 19:0.303 20:0.1 21:1.22 22:0.0909 23:0.1429 24:17 
-0.003453948652567955 1:4 2:-1 3:1 4:1 5:21 6:0.5238 7:2 8:1 9:3 10:0.0952 11:0.2381 12:0.381 13:18 14:4 15:0.45 16:0.2333 17:0.2167 18:0.2333 19:0.3167 20:0.1111 21:0.75 22:0.0714 23:0 24:20 
-0.1087006046965857 1:2 2:1 3:-1 4:0 5:20 6:0.6 7:1 8:2 9:2 10:0.15 11:0.4 12:0.25 13:17 14:3 15:0.4667 16:0.2333 17:0.2222 18:0.2444 19:0.3 20:0.119 21:0.42 22:-1 23:0.1304 24:4 
-0.02733373446854754 1:4 2:-1 3:1 4:1 5:21 6:0.3636 7:1 8:2 9:4 10:0.0909 11:0.1818 12:0.5455 13:16 14:-1 15:0.3636 16:0.2727 17:0.1818 18:0.1818 19:0.3636 20:0.1579 21:0.67 22:0.0455 23:-1 24:28 
-0.01629265751467538 1:4 2:1 3:-1 4:0 5:20 6:0.5 7:1 8:4 9:2 10:0.2 11:0.3 12:0.3 13:15 14:2 15:0.4565 16:0.2391 17:0.2174 18:0.2391 19:0.3043 20:0.1395 21:0 22:-1 23:0.12 24:2 
-0.0149968036914623 1:4 2:-1 3:1 4:1 5:22 6:0.3636 7:1 8:1 9:3 10:0.4545 11:0.1818 12:0.1818 13:19 14:4 15:0.36 16:0.28 17:0.18 18:0.18 19:0.36 20:0.1364 21:1 22:0.0526 23:-1 24:25 
-0.4999945073419758 1:4 2:-1 3:1 4:1 5:23 6:0.4783 7:2 8:1 9:3 10:0.1304 11:0.2609 12:0.3913 13:20 14:3 15:0.3889 16:0.2593 17:0.1852 18:0.2037 19:0.3519 20:0.125 21:1 22:0.0588 23:0 24:23 
-0.02780529955088519 1:4 2:1 3:1 4:2 5:25 6:0.3913 7:1 8:7 9:5 10:0.2174 11:0.2174 12:0.3913 13:12 14:3 15:0.55 16:0.1833 17:0.2833 18:0.2667 19:0.2667 20:0.4182 21:0.33 22:0.0741 23:0.2 24:29 
-0.01241903308657818 1:3 2:7 3:-1 4:0 5:22 6:0.5455 7:1 8:2 9:3 10:0.3182 11:0.3182 12:0.1364 13:18 14:2 15:0.5102 16:0.2245 17:0.2653 18:0.2449 19:0.2653 20:0.2903 21:0.3 22:0 23:0.4118 24:10 
-0.1671004523852056 1:2 2:7 3:-1 4:0 5:21 6:0.5238 7:1 8:2 9:2 10:0.3333 11:0.2857 12:0.1429 13:18 14:2 15:0.5102 16:0.2245 17:0.2653 18:0.2449 19:0.2653 20:0.2903 21:0.5 22:0 23:0.434 24:10 
-0.03237659930959522 1:3 2:1 3:2 4:2 5:22 6:0.4 7:1 8:7 9:3 10:0.25 11:0.25 12:0.35 13:11 14:3 15:0.5517 16:0.1897 17:0.2759 18:0.2759 19:0.2586 20:0.3962 21:0.45 22:0.1071 23:0.2857 24:30 
-0.05840853905187109 1:1 2:2 3:-1 4:0 5:20 6:0.75 7:2 8:5 9:4 10:0.2 11:0.35 12:0.05 13:10 14:1 15:0.5526 16:0.1974 17:0.2895 18:0.2632 19:0.25 20:0.3803 21:0 22:0 23:0.2727 24:21 
-0.02051132241160926 1:3 2:1 3:2 4:2 5:23 6:0.6818 7:1 8:7 9:3 10:0.1818 11:0.3182 12:0.1364 13:12 14:4 15:0.5517 16:0.1897 17:0.2759 18:0.2759 19:0.2586 20:0.3962 21:2.4 22:0.1071 23:0.3333 24:30 
-0.007748778802885967 1:3 2:7 3:-1 4:0 5:20 6:0.7 7:2 8:2 9:3 10:0.2 11:0.4 12:0.1 13:15 14:4 15:0.5349 16:0.2093 17:0.2791 18:0.2558 19:0.2558 20:0.3333 21:0.8 22:0 23:0.4419 24:16 
-0.03664332121388064 1:1 2:1 3:1 4:1 5:25 6:0.3913 7:1 8:7 9:4 10:0.2609 11:0.2174 12:0.3478 13:12 14:3 15:0.5312 16:0.2031 17:0.2812 18:0.25 19:0.2656 20:0.4237 21:0.45 22:0.04 23:0.2857 24:27 
-0.04514739382478802 1:1 2:2 3:-1 4:0 5:24 6:0.3333 7:2 8:7 9:4 10:0.25 11:0.125 12:0.4167 13:12 14:4 15:0.5385 16:0.2051 17:0.2821 18:0.2564 19:0.2564 20:0.3699 21:3.5 22:0 23:0.2143 24:20 
-0.01698088517397822 1:1 2:4 3:-1 4:0 5:21 6:0.7143 7:2 8:3 9:4 10:0.1905 11:0.3333 12:0.0952 13:13 14:4 15:0.5366 16:0.2073 17:0.2805 18:0.2561 19:0.2561 20:0.3506 21:0.43 22:0 23:0.3514 24:18 
-0.03685670746812926 1:3 2:2 3:-1 4:0 5:24 6:0.7391 7:2 8:7 9:4 10:0.1739 11:0.3478 12:0.087 13:12 14:4 15:0.55 16:0.2 17:0.2875 18:0.2625 19:0.25 20:0.36 21:0 22:0 23:0.2 24:19 
