svm_type c_svc
kernel_type rbf
gamma 0.0434783
nr_class 2
total_sv 542
rho 0.652177
label 1 0
probA -5.88583
probB -1.03254
nr_sv 95 447
SV
0.09275567821511059 1:3 2:2 3:8 4:22 5:0.3636 6:4 7:1 8:0.2273 9:0 10:0.3636 11:0.4091 12:22 13:0.1818 14:3 15:0.371 16:62 17:0.2581 18:0.1452 19:0.2258 20:0.371 21:0.2 22:1.11 23:0.3846 
0.3924565622077563 1:1 2:2 3:8 4:22 5:0.6818 6:3 7:4 8:0.0909 9:0.3636 10:0.3182 11:0.2273 12:58 13:0.2558 14:4 15:0.6032 16:63 17:0.1429 18:0.3175 19:0.2857 20:0.254 21:0.2143 22:3.33 23:0.2 
0.8308727527428235 1:1 2:3 3:10 4:22 5:0.6 6:3 7:3 8:0.25 9:0.25 10:0.35 11:0.15 12:53 13:0.1905 14:4 15:0.5 16:64 17:0.2656 18:0.25 19:0.25 20:0.2344 21:0.1864 22:0.73 23:0.2632 
1 1:-1 2:0 3:2 4:23 5:0.381 6:2 7:4 8:0.381 9:0.1905 10:0.1905 11:0.2381 12:40 13:0.1905 14:1 15:0.3667 16:60 17:0.2833 18:0.1333 19:0.2333 20:0.35 21:0.1739 22:1.8 23:0 
0.3952928457773949 1:-1 2:0 3:2 4:24 5:0.5909 6:2 7:4 8:0.1818 9:0.3182 10:0.2727 11:0.2273 12:40 13:0.2093 14:1 15:0.5082 16:61 17:0.2623 18:0.2623 19:0.2459 20:0.2295 21:0.1915 22:2.2 23:0 
1 1:3 2:2 3:9 4:23 5:0.5909 6:5 7:3 8:0.1818 9:0.2273 10:0.3636 11:0.2273 12:42 13:0.3488 14:4 15:0.5238 16:63 17:0.2698 18:0.2698 19:0.254 20:0.2063 21:0.3448 22:2.67 23:0.4118 
0.3832852829935275 1:1 2:2 3:7 4:21 5:0.4286 6:2 7:2 8:0.2381 9:0.381 10:0.0476 11:0.3333 12:15 13:0.122 14:4 15:0.339 16:59 17:0.3559 18:0.1695 19:0.1695 20:0.3051 21:0.1154 22:0.9 23:0.2308 
0.1768264154598263 1:1 2:1 3:5 4:23 5:0.5909 6:3 7:4 8:0.2273 9:0.1818 10:0.4091 11:0.1818 12:43 13:0.3023 14:1 15:0.5156 16:64 17:0.2344 18:0.2969 19:0.2188 20:0.25 21:0.2692 22:3.67 23:0.1111 
0.0226633492061216 1:1 2:1 3:6 4:21 5:0.5 6:3 7:3 8:0.25 9:0.15 10:0.35 11:0.25 12:53 13:0.2195 14:4 15:0.4531 16:64 17:0.2969 18:0.2656 19:0.1875 20:0.25 21:0.1923 22:0.89 23:0.0909 
0.405042085978303 1:1 2:1 3:5 4:23 5:0.5455 6:2 7:5 8:0.2273 9:0.1364 10:0.4091 11:0.2273 12:54 13:0.2727 14:4 15:0.5323 16:62 17:0.2419 18:0.2581 19:0.2742 20:0.2258 21:0.2593 22:0.88 23:0.2 
1 1:3 2:2 3:9 4:21 5:0.4762 6:1 7:3 8:0.1905 9:0.1429 10:0.3333 11:0.3333 12:23 13:0.122 14:4 15:0.4746 16:59 17:0.2542 18:0.2203 19:0.2542 20:0.2712 21:0.1636 22:1.25 23:0.2857 
0.8944164100475347 1:3 2:2 3:10 4:21 5:0.55 6:1 7:3 8:0.3 9:0.35 10:0.2 11:0.15 12:63 13:0.122 14:4 15:0.4918 16:61 17:0.2459 18:0.2295 19:0.2623 20:0.2623 21:0.1579 22:0.8 23:0.25 
1 1:-1 2:0 3:2 4:23 5:0.4545 6:2 7:4 8:0.4545 9:0.2273 10:0.2273 11:0.0909 12:25 13:0.1818 14:4 15:0.4464 16:56 17:0.3214 18:0.25 19:0.1964 20:0.2321 21:0.1667 22:1.25 23:0 
0.9499259165740851 1:1 2:1 3:5 4:21 5:0.55 6:2 7:3 8:0.1 9:0.35 10:0.2 11:0.35 12:62 13:0.1707 14:4 15:0.4655 16:58 17:0.3103 18:0.2586 19:0.2069 20:0.2241 21:0.16 22:0.8 23:0.1111 
0.5226492967982362 1:2 2:1 3:4 4:23 5:0.4783 6:1 7:4 8:0.3043 9:0.2174 10:0.2609 11:0.2174 12:17 13:0.1556 14:1 15:0.5167 16:60 17:0.2833 18:0.25 19:0.2667 20:0.2 21:0.1923 22:0.78 23:0.4286 
0.4457683850991077 1:4 2:2 3:10 4:23 5:0.3182 6:1 7:3 8:0.3182 9:0.1818 10:0.1364 11:0.3636 12:15 13:0.0909 14:4 15:0.4127 16:63 17:0.2857 18:0.1746 19:0.2381 20:0.3016 21:0.1379 22:0.88 23:0.375 
0.6931532957610197 1:4 2:2 3:11 4:23 5:0.5 6:2 7:3 8:0.2273 9:0.1364 10:0.3636 11:0.2727 12:57 13:0.1364 14:3 15:0.4154 16:65 17:0.2769 18:0.1692 19:0.2462 20:0.3077 21:0.1667 22:1.6 23:0.3333 
0.4788435882194834 1:2 2:2 3:9 4:23 5:0.5909 6:4 7:3 8:0.1818 9:0.1818 10:0.4091 11:0.2273 12:61 13:0.2273 14:4 15:0.5152 16:66 17:0.2121 18:0.2879 19:0.2273 20:0.2727 21:0.2333 22:0.75 23:0.25 
0.6198693178024641 1:1 2:1 3:3 4:25 5:0.4583 6:2 7:5 8:0.25 9:0.2083 10:0.25 11:0.2917 12:27 13:0.1915 14:2 15:0.5 16:62 17:0.2097 18:0.2742 19:0.2258 20:0.2903 21:0.1765 22:1.38 23:0.3333 
0.460983060766132 1:2 2:2 3:5 4:23 5:0.5217 6:1 7:3 8:0.1739 9:0.3043 10:0.2174 11:0.3043 12:22 13:0.1111 14:3 15:0.4915 16:59 17:0.2542 18:0.2542 19:0.2373 20:0.2542 21:0.1538 22:0.8 23:0.5556 
0.8742791726251099 1:2 2:1 3:10 4:22 5:0.45 6:2 7:5 8:0.15 9:0.3 10:0.15 11:0.4 12:72 13:0.2195 14:4 15:0.4925 16:67 17:0.2239 18:0.209 19:0.2836 20:0.2836 21:0.1864 22:1.2 23:0.1111 
0.1720031563085509 1:1 2:1 3:5 4:21 5:0.5 6:1 7:3 8:0.35 9:0.05 10:0.45 11:0.15 12:19 13:0.122 14:4 15:0.4844 16:64 17:0.2812 18:0.2344 19:0.25 20:0.2344 21:0.12 22:0.78 23:0.1111 
0.769908194686044 1:1 2:1 3:5 4:20 5:0.55 6:3 7:3 8:0.05 9:0.25 10:0.3 11:0.4 12:26 13:0.25 14:4 15:0.4746 16:59 17:0.2373 18:0.2881 19:0.1864 20:0.2881 21:0.2245 22:1.25 23:0.1111 
1 1:3 2:1 3:8 4:25 5:0.375 6:3 7:4 8:0.2083 9:0.0833 10:0.2917 11:0.4167 12:26 13:0.234 14:2 15:0.4394 16:66 17:0.2121 18:0.2121 19:0.2273 20:0.3485 21:0.2581 22:0.78 23:0.3333 
0.5078107990076662 1:3 2:2 3:11 4:22 5:0.5 6:3 7:3 8:0.2 9:0.25 10:0.25 11:0.3 12:72 13:0.2381 14:4 15:0.4394 16:66 17:0.2121 18:0.2121 19:0.2273 20:0.3485 21:0.2581 22:1.43 23:0.3 
0.3010441220379346 1:1 2:2 3:9 4:22 5:0.4286 6:2 7:4 8:0.2381 9:0.2857 10:0.1429 11:0.3333 12:58 13:0.2381 14:1 15:0.5323 16:62 17:0.2581 18:0.2903 19:0.2419 20:0.2097 21:0.2069 22:0.88 23:0.125 
0.8990337515555951 1:-1 2:0 3:4 4:24 5:0.5909 6:2 7:5 8:0.2273 9:0.3182 10:0.2727 11:0.1818 12:64 13:0.1818 14:4 15:0.4833 16:60 17:0.25 18:0.25 19:0.2333 20:0.2667 21:0.1538 22:1.12 23:0 
0.5115948698136115 1:-1 2:0 3:4 4:25 5:0.5 6:2 7:3 8:0.1818 9:0.2273 10:0.2727 11:0.3182 12:59 13:0.1064 14:1 15:0.4127 16:63 17:0.3016 18:0.1905 19:0.2222 20:0.2857 21:0.0909 22:1 23:0 
0.346491139030674 1:1 2:2 3:7 4:21 5:0.45 6:1 7:5 8:0.3 9:0.25 10:0.2 11:0.25 12:68 13:0.2195 14:3 15:0.4921 16:63 17:0.2222 18:0.2698 19:0.2222 20:0.2857 21:0.1923 22:1.17 23:0.2308 
0.8064690559169231 1:-1 2:0 3:3 4:23 5:0.4545 6:2 7:3 8:0.1818 9:0.1818 10:0.2727 11:0.3636 12:1 13:0.1818 14:1 15:0.4 16:60 17:0.2833 18:0.2 19:0.2 20:0.3167 21:0.16 22:0.67 23:0 
0.180554719098068 1:1 2:1 3:6 4:21 5:0.4762 6:3 7:4 8:0.2857 9:0.1429 10:0.3333 11:0.2381 12:15 13:0.2683 14:4 15:0.4194 16:62 17:0.2742 18:0.2258 19:0.1935 20:0.3065 21:0.2308 22:0.6 23:0.0909 
0.5008362485717101 1:1 2:1 3:3 4:25 5:0.375 6:3 7:5 8:0.2917 9:0.25 10:0.125 11:0.3333 12:12 13:0.2766 14:4 15:0.4355 16:62 17:0.2903 18:0.2097 19:0.2258 20:0.2742 21:0.2549 22:2 23:0.3333 
0.8622436406192757 1:1 2:1 3:3 4:24 5:0.4783 6:1 7:4 8:0.2174 9:0.2609 10:0.2174 11:0.3043 12:52 13:0.1304 14:1 15:0.4478 16:67 17:0.2388 18:0.209 19:0.2388 20:0.3134 21:0.12 22:0.78 23:0.3333 
1 1:-1 2:0 3:2 4:25 5:0.5455 6:2 7:5 8:0.1364 9:0.0909 10:0.4545 11:0.3182 12:15 13:0.2 14:3 15:0.4912 16:57 17:0.2281 18:0.2281 19:0.2632 20:0.2807 21:0.1837 22:1.29 23:0 
0.6066252467130978 1:-1 2:0 3:2 4:23 5:0.3636 6:3 7:2 8:0.1364 9:0.1364 10:0.2273 11:0.5 12:27 13:0.1556 14:4 15:0.3158 16:57 17:0.2632 18:0.1579 19:0.1579 20:0.4211 21:0.1429 22:0.78 23:0 
0.2564565898547929 1:3 2:1 3:8 4:24 5:0.5 6:4 7:3 8:0.1364 9:0.3182 10:0.1818 11:0.3636 12:53 13:0.2 14:4 15:0.5 16:64 17:0.1875 18:0.25 19:0.25 20:0.3125 21:0.2069 22:0.82 23:0.2308 
0.8362978468024334 1:-1 2:0 3:5 4:23 5:0.4545 6:2 7:6 8:0.1818 9:0.2273 10:0.2273 11:0.3636 12:47 13:0.2381 14:4 15:0.4853 16:68 17:0.2353 18:0.2941 19:0.1912 20:0.2794 21:0.1923 22:1.4 23:0 
0.2520356500469278 1:2 2:1 3:6 4:23 5:0.5714 6:2 7:4 8:0.2857 9:0.2381 10:0.3333 11:0.1429 12:57 13:0.1628 14:4 15:0.4333 16:60 17:0.25 18:0.1833 19:0.25 20:0.3167 21:0.1852 22:1.11 23:0.2727 
0.102684493316379 1:5 2:1 3:11 4:23 5:0.5 6:2 7:4 8:0.2273 9:0.2273 10:0.2727 11:0.2727 12:62 13:0.1818 14:2 15:0.4925 16:67 17:0.2388 18:0.209 19:0.2836 20:0.2687 21:0.2131 22:1.43 23:0.2941 
0.8414424593693663 1:1 2:1 3:6 4:23 5:0.6364 6:3 7:5 8:0.1818 9:0.2273 10:0.4091 11:0.1818 12:47 13:0.3023 14:1 15:0.4265 16:68 17:0.3088 18:0.1765 19:0.25 20:0.2647 21:0.2453 22:3.5 23:0.1667 
1 1:3 2:2 3:8 4:21 5:0.4762 6:2 7:2 8:0.1429 9:0.1905 10:0.2857 11:0.381 12:1 13:0.1429 14:1 15:0.4237 16:59 17:0.2542 18:0.2373 19:0.1864 20:0.322 21:0.1852 22:0.9 23:0.4286 
0.05310446010339205 1:1 2:1 3:8 4:24 5:0.5652 6:3 7:5 8:0.2174 9:0.2609 10:0.3043 11:0.2174 12:41 13:0.2273 14:2 15:0.4762 16:63 17:0.254 18:0.254 19:0.2222 20:0.2698 21:0.1864 22:2.33 23:0.0667 
0.619707641278915 1:1 2:1 3:3 4:23 5:0.4545 6:1 7:2 8:0.3182 9:0.1818 10:0.2727 11:0.2273 12:68 13:0.0667 14:4 15:0.3676 16:68 17:0.2941 18:0.1765 19:0.1912 20:0.3382 21:0.0612 22:1.11 23:0.3333 
0.9224573848833415 1:-1 2:0 3:2 4:23 5:0.4545 6:4 7:4 8:0.2727 9:0.1818 10:0.2727 11:0.2727 12:57 13:0.2889 14:2 15:0.4286 16:63 17:0.2857 18:0.2698 19:0.1587 20:0.2857 21:0.2653 22:1 23:0 
1 1:5 2:2 3:12 4:23 5:0.5455 6:3 7:2 8:0.2273 9:0.2727 10:0.2727 11:0.2273 12:59 13:0.1556 14:2 15:0.4493 16:69 17:0.2464 18:0.2319 19:0.2174 20:0.3043 21:0.2063 22:1 23:0.3333 
1 1:-1 2:0 3:3 4:21 5:0.5 6:3 7:2 8:0.35 9:0.3 10:0.2 11:0.15 12:70 13:0.1707 14:4 15:0.4444 16:63 17:0.3333 18:0.254 19:0.1905 20:0.2222 21:0.1489 22:1 23:0 
1 1:6 2:1 3:12 4:25 5:0.4762 6:4 7:2 8:0.2857 9:0.2857 10:0.1905 11:0.2381 12:68 13:0.1739 14:4 15:0.4 16:70 17:0.1714 18:0.1857 19:0.2143 20:0.4286 21:0.2424 22:1.11 23:0.4 
1 1:1 2:2 3:7 4:25 5:0.4348 6:1 7:4 8:0.1739 9:0.2609 10:0.1739 11:0.3913 12:63 13:0.1064 14:2 15:0.4085 16:71 17:0.338 18:0.169 19:0.2394 20:0.2535 21:0.1034 22:0.9 23:0.2308 
0.3084535249129172 1:1 2:2 3:6 4:22 5:0.4762 6:2 7:2 8:0.1429 9:0.1905 10:0.2857 11:0.381 12:17 13:0.0732 14:4 15:0.4154 16:65 17:0.3538 18:0.2 19:0.2154 20:0.2308 21:0.08 22:1.11 23:0.2727 
0.4588278619721123 1:3 2:2 3:9 4:22 5:0.4762 6:2 7:2 8:0.1429 9:0.1905 10:0.2857 11:0.381 12:23 13:0.0732 14:4 15:0.3906 16:64 17:0.2969 18:0.1875 19:0.2031 20:0.3125 21:0.1273 22:1.11 23:0.375 
0.1129014151789674 1:3 2:2 3:10 4:23 5:0.4286 6:2 7:3 8:0.3333 9:0.2381 10:0.1905 11:0.2381 12:68 13:0.1163 14:1 15:0.4118 16:68 17:0.2794 18:0.2059 19:0.2059 20:0.3088 21:0.1525 22:1.25 23:0.3333 
1 1:3 2:3 3:15 4:22 5:0.5455 6:2 7:4 8:0.2273 9:0.1364 10:0.4091 11:0.2273 12:13 13:0.2093 14:4 15:0.5217 16:69 17:0.1884 18:0.2609 19:0.2609 20:0.2899 21:0.2424 22:1.25 23:0.36 
1 1:3 2:3 3:16 4:23 5:0.5 6:2 7:5 8:0.1818 9:0.4091 10:0.0909 11:0.3182 12:62 13:0.2889 14:1 15:0.5342 16:73 17:0.1781 18:0.274 19:0.2603 20:0.2877 21:0.2857 22:1.4 23:0.3333 
0.5893587163453889 1:1 2:1 3:3 4:24 5:0.375 6:4 7:3 8:0.125 9:0.0833 10:0.2917 11:0.5 12:10 13:0.2174 14:3 15:0.4127 16:63 17:0.3016 18:0.1746 19:0.2381 20:0.2857 21:0.2 22:0.7 23:0.3333 
0.3501405827347666 1:1 2:1 3:4 4:25 5:0.4783 6:4 7:3 8:0.3913 9:0.2609 10:0.2174 11:0.1304 12:52 13:0.25 14:2 15:0.4328 16:67 17:0.2985 18:0.194 19:0.2388 20:0.2687 21:0.2222 22:1.33 23:0.25 
1 1:-1 2:0 3:4 4:26 5:0.5714 6:4 7:3 8:0.2381 9:0.1905 10:0.381 11:0.1905 12:28 13:0.1915 14:4 15:0.4576 16:59 17:0.2373 18:0.2203 19:0.2373 20:0.3051 21:0.1636 22:1.22 23:0 
0.3557326274053814 1:4 2:1 3:9 4:23 5:0.4348 6:2 7:2 8:0.1304 9:0.2174 10:0.2174 11:0.4348 12:66 13:0.1111 14:3 15:0.4603 16:63 17:0.2381 18:0.2222 19:0.2381 20:0.3016 21:0.1525 22:1 23:0.2857 
1 1:2 2:2 3:7 4:24 5:0.5 6:1 7:5 8:0.1667 9:0.2083 10:0.2917 11:0.3333 12:29 13:0.1739 14:1 15:0.45 16:60 17:0.25 18:0.1833 19:0.2667 20:0.3 21:0.193 22:0.8 23:0.3846 
0.7345412366328128 1:1 2:2 3:5 4:24 5:0.4783 6:4 7:3 8:0.1739 9:0.3913 10:0.087 11:0.3478 12:21 13:0.2174 14:3 15:0.4394 16:66 17:0.2576 18:0.2727 19:0.1667 20:0.303 21:0.2075 22:1.1 23:0.3333 
0.6743701370705862 1:1 2:2 3:7 4:23 5:0.4545 6:3 7:3 8:0.2727 9:0.1818 10:0.2727 11:0.2727 12:69 13:0.2 14:2 15:0.4203 16:69 17:0.2754 18:0.2609 19:0.1594 20:0.3043 21:0.1786 22:1.11 23:0.2308 
0.05844299605778229 1:3 2:2 3:11 4:23 5:0.3913 6:2 7:2 8:0.2609 9:0.1304 10:0.2609 11:0.3478 12:62 13:0.1111 14:1 15:0.3824 16:68 17:0.3824 18:0.1765 19:0.2059 20:0.2353 21:0.1562 22:0.8 23:0.2632 
0.6812487232655086 1:1 2:2 3:7 4:22 5:0.5238 6:2 7:4 8:0.2381 9:0.2857 10:0.2381 11:0.2381 12:59 13:0.2093 14:1 15:0.5424 16:59 17:0.2034 18:0.2712 19:0.2712 20:0.2542 21:0.1852 22:0.8 23:0.2308 
1 1:1 2:2 3:7 4:26 5:0.3182 6:6 7:4 8:0.3182 9:0.1364 10:0.1818 11:0.3636 12:49 13:0.375 14:4 15:0.4062 16:64 17:0.2812 18:0.1719 19:0.2344 20:0.3125 21:0.322 22:1.4 23:0.2308 
1 1:-1 2:0 3:3 4:31 5:0.4167 6:5 7:4 8:0.1667 9:0.2083 10:0.2083 11:0.4167 12:23 13:0.2222 14:1 15:0.4118 16:68 17:0.3235 18:0.1912 19:0.2206 20:0.2647 21:0.2 22:2.25 23:0 
1 1:5 2:3 3:16 4:23 5:0.4545 6:2 7:4 8:0.2273 9:0.1818 10:0.2727 11:0.3182 12:18 13:0.2093 14:4 15:0.4267 16:75 17:0.3333 18:0.1867 19:0.24 20:0.24 21:0.2571 22:0.75 23:0.3793 
1 1:5 2:3 3:17 4:24 5:0.5 6:2 7:5 8:0.2727 9:0.2727 10:0.2273 11:0.2273 12:73 13:0.2889 14:3 15:0.4304 16:79 17:0.3418 18:0.2025 19:0.2278 20:0.2278 21:0.2973 22:2 23:0.3548 
0.3270563032259847 1:2 2:1 3:7 4:24 5:0.3182 6:1 7:4 8:0.2273 9:0.0909 10:0.2273 11:0.4545 12:57 13:0.1304 14:3 15:0.3939 16:66 17:0.303 18:0.2121 19:0.1818 20:0.303 21:0.1379 22:1.67 23:0.1667 
0.5134548997085895 1:1 2:1 3:6 4:24 5:0.3636 6:3 7:3 8:0.4091 9:0.2273 10:0.1364 11:0.2273 12:66 13:0.2174 14:3 15:0.4462 16:65 17:0.3231 18:0.2769 19:0.1692 20:0.2308 21:0.193 22:4.5 23:0.0909 
1 1:6 2:2 3:10 4:23 5:0.4348 6:3 7:4 8:0.2609 9:0.2174 10:0.2174 11:0.3043 12:24 13:0.2273 14:4 15:0.3594 16:64 17:0.3281 18:0.1719 19:0.1875 20:0.3125 21:0.322 22:0.88 23:0.6471 
0.597018106045916 1:3 2:1 3:8 4:23 5:0.3913 6:3 7:3 8:0.3913 9:0.1304 10:0.2609 11:0.2174 12:25 13:0.2273 14:4 15:0.4062 16:64 17:0.375 18:0.2188 19:0.1875 20:0.2188 21:0.2414 22:0.5 23:0.2857 
0.3440341585435348 1:-1 2:0 3:4 4:23 5:0.4348 6:3 7:4 8:0.3913 9:0.2609 10:0.1739 11:0.1739 12:50 13:0.2444 14:4 15:0.4308 16:65 17:0.3385 18:0.2154 19:0.2154 20:0.2308 21:0.2075 22:0.88 23:0 
0.9228740367965207 1:-1 2:0 3:2 4:24 5:0.4348 6:3 7:4 8:0.1304 9:0.1739 10:0.2609 11:0.4348 12:9 13:0.234 14:3 15:0.4127 16:63 17:0.3492 18:0.2063 19:0.2063 20:0.2381 21:0.2157 22:1 23:0 
0.3973033474725991 1:1 2:1 3:4 4:23 5:0.4783 6:2 7:4 8:0.3478 9:0.087 10:0.3913 11:0.1739 12:27 13:0.2 14:3 15:0.4737 16:57 17:0.2105 18:0.193 19:0.2807 20:0.3158 21:0.2075 22:0.88 23:0.25 
0.8076068305280852 1:-1 2:0 3:2 4:25 5:0.4783 6:2 7:4 8:0.2609 9:0.1304 10:0.3478 11:0.2609 12:66 13:0.1915 14:3 15:0.4627 16:67 17:0.2985 18:0.2239 19:0.2388 20:0.2388 21:0.1765 22:1.1 23:0 
0.6606061705644792 1:1 2:3 3:10 4:22 5:0.5238 6:2 7:3 8:0.3333 9:0.1905 10:0.3333 11:0.1429 12:70 13:0.1628 14:4 15:0.4921 16:63 17:0.2222 18:0.2381 19:0.254 20:0.2857 21:0.1667 22:0.8 23:0.2632 
0.7191315892708698 1:1 2:1 3:5 4:25 5:0.5 6:2 7:5 8:0.3333 9:0.0833 10:0.4167 11:0.1667 12:42 13:0.234 14:4 15:0.4923 16:65 17:0.2462 18:0.2308 19:0.2615 20:0.2615 21:0.2281 22:1.43 23:0.2 
0.3928968900966003 1:1 2:1 3:3 4:23 5:0.4091 6:3 7:3 8:0.2727 9:0.2273 10:0.1818 11:0.3182 12:41 13:0.1628 14:2 15:0.371 16:62 17:0.2742 18:0.2419 19:0.129 20:0.3548 21:0.1489 22:4.5 23:0.3333 
1 1:1 2:1 3:4 4:26 5:0.3043 6:4 7:3 8:0.3043 9:0.0435 10:0.2609 11:0.3913 12:1 13:0.1837 14:4 15:0.375 16:64 17:0.2969 18:0.2344 19:0.1406 20:0.3281 21:0.1636 22:0.44 23:0.25 
1 1:4 2:2 3:9 4:25 5:0.4091 6:3 7:4 8:0.2273 9:0.1364 10:0.2727 11:0.3636 12:1 13:0.2174 14:1 15:0.3824 16:68 17:0.3382 18:0.1324 19:0.25 20:0.2794 21:0.2787 22:0.7 23:0.5294 
0.9187831357357042 1:1 2:1 3:6 4:23 5:0.4348 6:2 7:3 8:0.2609 9:0.2174 10:0.2174 11:0.3043 12:38 13:0.1163 14:4 15:0.4 16:60 17:0.2667 18:0.1833 19:0.2167 20:0.3333 21:0.1111 22:1.8 23:0.0909 
0.9504912490952648 1:1 2:2 3:4 4:23 5:0.3913 6:2 7:3 8:0.1739 9:0.1304 10:0.2609 11:0.4348 12:1 13:0.1556 14:4 15:0.3793 16:58 17:0.2759 18:0.1552 19:0.2241 20:0.3448 21:0.1765 22:0.78 23:0.5 
0.7522691783021171 1:-1 2:0 3:6 4:26 5:0.4167 6:3 7:4 8:0.2917 9:0.125 10:0.2917 11:0.2917 12:39 13:0.1739 14:1 15:0.4355 16:62 17:0.3065 18:0.2097 19:0.2258 20:0.2581 21:0.1379 22:3.67 23:0 
0.4364981743763001 1:1 2:1 3:2 4:24 5:0.3913 6:4 7:2 8:0.3913 9:0.2174 10:0.1739 11:0.2174 12:1 13:0.1739 14:2 15:0.3934 16:61 17:0.3607 18:0.2131 19:0.1803 20:0.2459 21:0.1667 22:1 23:0.5 
1 1:3 2:2 3:10 4:21 5:0.35 6:1 7:2 8:0.15 9:0.1 10:0.25 11:0.5 12:55 13:0.05 14:4 15:0.4167 16:60 17:0.2833 18:0.2333 19:0.1833 20:0.3 21:0.0909 22:1.11 23:0.2941 
0.9358373277223571 1:2 2:3 3:8 4:21 5:0.4286 6:2 7:3 8:0.2857 9:0.1905 10:0.2381 11:0.2857 12:17 13:0.1905 14:4 15:0.4138 16:58 17:0.2759 18:0.2069 19:0.2069 20:0.3103 21:0.2364 22:1.1 23:0.4667 
0.321266572815123 1:1 2:1 3:3 4:24 5:0.4348 6:2 7:3 8:0.2174 9:0.2609 10:0.1739 11:0.3478 12:65 13:0.1489 14:1 15:0.3906 16:64 17:0.3125 18:0.1875 19:0.2031 20:0.2969 21:0.1373 22:1.14 23:0.3333 
0.824130013723506 1:-1 2:0 3:2 4:25 5:0.4583 6:2 7:4 8:0.1667 9:0.3333 10:0.125 11:0.375 12:18 13:0.1489 14:4 15:0.4098 16:61 17:0.2623 18:0.2295 19:0.1803 20:0.3279 21:0.1373 22:1.38 23:0 
1 1:5 2:2 3:10 4:22 5:0.3636 6:2 7:2 8:0.2273 9:0.1364 10:0.2273 11:0.4091 12:21 13:0.1628 14:4 15:0.3385 16:65 17:0.3385 18:0.1538 19:0.1846 20:0.3231 21:0.2414 22:1.29 23:0.5294 
0.5301952768424428 1:5 2:2 3:11 4:23 5:0.3636 6:2 7:3 8:0.4091 9:0.1818 10:0.1818 11:0.2273 12:66 13:0.2 14:3 15:0.3333 16:69 17:0.3333 18:0.1594 19:0.1739 20:0.3333 21:0.2581 22:0.86 23:0.4737 
0.02220415132708225 1:2 2:1 3:10 4:23 5:0.4091 6:2 7:4 8:0.3182 9:0.1364 10:0.2727 11:0.2727 12:60 13:0.1628 14:4 15:0.3939 16:66 17:0.3182 18:0.1818 19:0.2121 20:0.2879 21:0.1613 22:0.78 23:0.1579 
0.1398605392493143 1:3 2:1 3:7 4:22 5:0.4091 6:2 7:3 8:0.3182 9:0.1364 10:0.2727 11:0.2727 12:58 13:0.2273 14:1 15:0.4 16:65 17:0.2769 18:0.1846 19:0.2154 20:0.3231 21:0.2364 22:1.75 23:0.2727 
0.2607683088446969 1:2 2:3 3:10 4:23 5:0.2727 6:1 7:4 8:0.4091 9:0.1818 10:0.0909 11:0.3182 12:61 13:0.1556 14:1 15:0.403 16:67 17:0.3134 18:0.209 19:0.194 20:0.2836 21:0.1667 22:0.71 23:0.2941 
0.9854444506208068 1:4 2:2 3:11 4:23 5:0.4348 6:1 7:4 8:0.2609 9:0.2174 10:0.2174 11:0.3043 12:17 13:0.1364 14:1 15:0.4444 16:63 17:0.2698 18:0.2222 19:0.2222 20:0.2857 21:0.1667 22:1.12 23:0.3333 
0.6789475458401287 1:1 2:2 3:8 4:25 5:0.5417 6:1 7:5 8:0.1667 9:0.4167 10:0.125 11:0.2917 12:19 13:0.1304 14:3 15:0.5 16:64 17:0.2031 18:0.25 19:0.25 20:0.2969 21:0.1186 22:1.38 23:0.2 
0.8290829917596507 1:1 2:3 3:11 4:25 5:0.5 6:1 7:5 8:0.2273 9:0.1364 10:0.3636 11:0.2727 12:64 13:0.1304 14:3 15:0.5217 16:69 17:0.1884 18:0.2609 19:0.2609 20:0.2899 21:0.125 22:1.11 23:0.2 
-0.1894682471091171 1:3 2:2 3:18 4:21 5:0.5714 6:4 7:2 8:0.1429 9:0.0952 10:0.4762 11:0.2857 12:13 13:0.25 14:1 15:0.4103 16:78 17:0.2436 18:0.1667 19:0.2436 20:0.3462 21:0.1831 22:5 23:0.1515 
-0.2013496630304176 1:3 2:2 3:14 4:24 5:0.5417 6:4 7:2 8:0.125 9:0.0833 10:0.4583 11:0.3333 12:14 13:0.2174 14:4 15:0.4211 16:76 17:0.2368 18:0.1711 19:0.25 20:0.3421 21:0.1884 22:0.44 23:0.2 
-0.06341144463570721 1:-1 2:0 3:0 4:25 5:0.5417 6:3 7:5 8:0.25 9:0.25 10:0.2917 11:0.2083 12:23 13:0.2653 14:4 15:0.56 16:50 17:0.16 18:0.28 19:0.28 20:0.28 21:0.1628 22:4 23:-1 
-0.02231901891918227 1:1 2:4 3:22 4:20 5:0.6 6:3 7:4 8:0.2 9:0.2 10:0.4 11:0.2 12:72 13:0.3333 14:2 15:0.5952 16:84 17:0.1429 18:0.2976 19:0.2976 20:0.2619 21:0.2208 22:2.25 23:0.1628 
-0.04649837999760507 1:1 2:3 3:15 4:27 5:0.6087 6:3 7:5 8:0.087 9:0.3913 10:0.2174 11:0.3043 12:8 13:0.28 14:3 15:0.5952 16:84 17:0.1429 18:0.2976 19:0.2976 20:0.2619 21:0.2208 22:1.29 23:0.1724 
-0.1068009018301084 1:-1 2:0 3:0 4:23 5:0.4 6:3 7:5 8:0.25 9:0.1 10:0.3 11:0.35 12:19 13:0.3023 14:1 15:0.4545 16:44 17:0.2727 18:0.2273 19:0.2273 20:0.2727 21:0.2308 22:0.75 23:-1 
-0.07673009436931491 1:1 2:4 3:17 4:23 5:0.6364 6:3 7:3 8:0.2273 9:0.2727 10:0.3636 11:0.1364 12:59 13:0.2 14:4 15:0.5 16:80 17:0.25 18:0.25 19:0.25 20:0.25 21:0.1733 22:0.5 23:0.1875 
-0.2118812481588137 1:1 2:4 3:19 4:21 5:0.4762 6:3 7:3 8:0.2381 9:0.2857 10:0.1905 11:0.2857 12:1 13:0.2195 14:2 15:0.5 16:80 17:0.25 18:0.25 19:0.25 20:0.25 21:0.1733 22:3.33 23:0.1667 
-0.188830785626136 1:1 2:3 3:15 4:26 5:0.625 6:3 7:5 8:0.25 9:0.2917 10:0.3333 11:0.125 12:58 13:0.2245 14:4 15:0.4938 16:81 17:0.2593 18:0.2469 19:0.2469 20:0.2469 21:0.1842 22:1.14 23:0.1724 
-0.08691118618289367 1:-1 2:0 3:0 4:24 5:0.4286 6:3 7:5 8:0.2381 9:0.1429 10:0.2857 11:0.3333 12:18 13:0.2889 14:1 15:0.4783 16:46 17:0.2609 18:0.2391 19:0.2391 20:0.2609 21:0.2195 22:0.75 23:-1 
-0.08349372817777173 1:-1 2:0 3:0 4:25 5:0.25 6:6 7:4 8:0.5417 9:0.125 10:0.125 11:0.2083 12:31 13:0.375 14:-1 15:0.32 16:50 17:0.3 18:0.12 19:0.2 20:0.38 21:0.1667 22:0 23:-1 
-0.04536909810402587 1:-1 2:0 3:0 4:23 5:0.4348 6:4 7:4 8:0.0435 9:0.1304 10:0.3043 11:0.5217 12:5 13:0.3182 14:1 15:0.32 16:50 17:0.3 18:0.12 19:0.2 20:0.38 21:0.1667 22:5 23:-1 
-0.1224995530155312 1:-1 2:0 3:0 4:24 5:0.4167 6:5 7:4 8:0.0417 9:0.125 10:0.2917 11:0.5417 12:5 13:0.3478 14:4 15:0.32 16:50 17:0.3 18:0.12 19:0.2 20:0.38 21:0.1667 22:5 23:-1 
-0.09658747813420281 1:-1 2:0 3:0 4:26 5:0.5417 6:6 7:4 8:0.25 9:0.2917 10:0.25 11:0.2083 12:32 13:0.3878 14:4 15:0.5294 16:51 17:0.2745 18:0.2745 19:0.2549 20:0.1961 21:0.1892 22:0 23:-1 
-0.07609100879036534 1:1 2:1 3:2 4:24 5:0.5217 6:5 7:3 8:0.2609 9:0.1739 10:0.3478 11:0.2174 12:35 13:0.3478 14:1 15:0.5283 16:53 17:0.2453 18:0.283 19:0.2453 20:0.2264 21:0.3333 22:0.5 23:0.5 
-0.09681704309603985 1:1 2:1 3:3 4:23 5:0.6364 6:5 7:3 8:0.1818 9:0.4545 10:0.1818 11:0.1818 12:5 13:0.3636 14:3 15:0.5283 16:53 17:0.2453 18:0.283 19:0.2453 20:0.2264 21:0.3333 22:2.5 23:0.3333 
-0.08501543055151282 1:1 2:1 3:3 4:21 5:0.5 6:5 7:3 8:0.3 9:0.15 10:0.35 11:0.2 12:36 13:0.4 14:3 15:0.5306 16:49 17:0.2449 18:0.2857 19:0.2449 20:0.2245 21:0.3636 22:0.25 23:0.3333 
-0.1320577210244313 1:2 2:3 3:15 4:32 5:0.5417 6:8 7:3 8:0.1667 9:0.3333 10:0.2083 11:0.2917 12:4 13:0.25 14:4 15:0.382 16:89 17:0.3371 18:0.1685 19:0.2135 20:0.2809 21:0.2195 22:1.11 23:0.2143 
-0.134535413416607 1:2 2:4 3:21 4:28 5:0.55 6:8 7:2 8:0.15 9:0.3 10:0.25 11:0.3 12:2 13:0.25 14:3 15:0.3978 16:93 17:0.3226 18:0.172 19:0.2258 20:0.2796 21:0.2093 22:1.11 23:0.2 
-0.1166879202291299 1:2 2:4 3:30 4:21 5:0.4286 6:8 7:3 8:0.3333 9:0.1429 10:0.2857 11:0.2381 12:76 13:0.3939 14:2 15:0.4062 16:96 17:0.3125 18:0.1771 19:0.2292 20:0.2812 21:0.2135 22:0.75 23:0.1379 
-0.2438244151254082 1:2 2:3 3:15 4:20 5:0.5 6:2 7:2 8:0.2 9:0.35 10:0.15 11:0.3 12:8 13:0.15 14:4 15:0.3836 16:73 17:0.3425 18:0.1781 19:0.2055 20:0.274 21:0.1515 22:0.67 23:0.2143 
-0.1104556091689237 1:2 2:4 3:27 4:23 5:0.4348 6:8 7:2 8:0.3478 9:0.1304 10:0.3043 11:0.2174 12:73 13:0.3158 14:2 15:0.4105 16:95 17:0.3158 18:0.1789 19:0.2316 20:0.2737 21:0.2045 22:0.91 23:0.1538 
-0.2320513048802474 1:2 2:3 3:14 4:32 5:0.5 6:8 7:3 8:0.2083 9:0.3333 10:0.1667 11:0.2917 12:5 13:0.25 14:1 15:0.3678 16:87 17:0.3448 18:0.1609 19:0.2069 20:0.2874 21:0.225 22:1.11 23:0.2308 
-0.03159080894463379 1:2 2:4 3:26 4:23 5:0.3913 6:8 7:2 8:0.3478 9:0.087 10:0.3043 11:0.2609 12:72 13:0.3158 14:2 15:0.3978 16:93 17:0.3226 18:0.172 19:0.2258 20:0.2796 21:0.2093 22:0.9 23:0.16 
-0.02965957530967408 1:-1 2:0 3:0 4:23 5:0.381 6:3 7:4 8:0.4286 9:0.0952 10:0.2857 11:0.1905 12:45 13:0.3182 14:4 15:0.4 16:50 17:0.34 18:0.24 19:0.16 20:0.26 21:0.2105 22:0.22 23:-1 
-0.2051630163860977 1:1 2:2 3:13 4:21 5:0.5238 6:3 7:2 8:0.1429 9:0.3333 10:0.1905 11:0.3333 12:2 13:0.1707 14:4 15:0.4615 16:78 17:0.2821 18:0.2564 19:0.2051 20:0.2564 21:0.1515 22:5 23:0.12 
-0.05873367401598144 1:-1 2:0 3:0 4:23 5:0.4286 6:5 7:4 8:0.381 9:0.1429 10:0.2857 11:0.1905 12:43 13:0.4091 14:4 15:0.4348 16:46 17:0.3261 18:0.2609 19:0.1739 20:0.2391 21:0.2353 22:0 23:-1 
-0.01896059394120134 1:-1 2:0 3:0 4:22 5:0.4091 6:5 7:4 8:0.2727 9:0.3636 10:0.0455 11:0.3182 12:19 13:0.4286 14:1 15:0.4091 16:44 17:0.3409 18:0.25 19:0.1591 20:0.25 21:0.25 22:3 23:-1 
-0.07531227041298641 1:2 2:3 3:15 4:20 5:0.55 6:1 7:3 8:0.1 9:0.3 10:0.25 11:0.35 12:1 13:0.1282 14:4 15:0.4684 16:79 17:0.2785 18:0.2532 19:0.2152 20:0.2532 21:0.1642 22:1.14 23:0.2143 
-0.5910102028058944 1:3 2:2 3:13 4:23 5:0.3478 6:1 7:4 8:0.3913 9:0.2174 10:0.1304 11:0.2609 12:69 13:0.1556 14:4 15:0.3836 16:73 17:0.274 18:0.1918 19:0.1918 20:0.3425 21:0.1884 22:1.33 23:0.25 
-0.156253102824283 1:3 2:5 3:25 4:20 5:0.45 6:2 7:2 8:0.3 9:0.15 10:0.3 11:0.25 12:81 13:0.1053 14:4 15:0.3889 16:90 17:0.2556 18:0.1889 19:0.2 20:0.3556 21:0.186 22:1 23:0.25 
-0.07210189773505074 1:-1 2:0 3:0 4:22 5:0.4286 6:3 7:5 8:0.1905 9:0.2857 10:0.1429 11:0.381 12:56 13:0.2857 14:4 15:0.4773 16:44 17:0.25 18:0.25 19:0.2273 20:0.2727 21:0.25 22:0.75 23:-1 
-0.01117464319920392 1:3 2:4 3:20 4:21 5:0.381 6:2 7:3 8:0.381 9:0.1429 10:0.2381 11:0.2381 12:76 13:0.15 14:2 15:0.3902 16:82 17:0.2561 18:0.1951 19:0.1951 20:0.3537 21:0.2051 22:1.29 23:0.2632 
-0.02656347727292558 1:3 2:3 3:16 4:21 5:0.3333 6:2 7:3 8:0.381 9:0.1905 10:0.1429 11:0.2857 12:72 13:0.1707 14:4 15:0.3733 16:75 17:0.2667 18:0.1867 19:0.1867 20:0.36 21:0.2113 22:2 23:0.2667 
-0.3295159135009937 1:3 2:3 3:16 4:22 5:0.3636 6:2 7:3 8:0.3636 9:0.1818 10:0.1818 11:0.2727 12:72 13:0.1628 14:1 15:0.3766 16:77 17:0.2597 18:0.1818 19:0.1948 20:0.3636 21:0.2055 22:2 23:0.2667 
-0.01697596199645123 1:1 2:2 3:11 4:23 5:0.5 6:2 7:5 8:0.2273 9:0.2727 10:0.2273 11:0.2727 12:8 13:0.2727 14:3 15:0.4865 16:74 17:0.2703 18:0.2297 19:0.2568 20:0.2432 21:0.2424 22:1.4 23:0.1818 
-0.03188957666155055 1:2 2:4 3:21 4:23 5:0.3913 6:2 7:5 8:0.3913 9:0.2174 10:0.1739 11:0.2174 12:69 13:0.2558 14:4 15:0.4396 16:91 17:0.2857 18:0.2088 19:0.2308 20:0.2747 21:0.2289 22:0.71 23:0.2 
-0.008839711122470249 1:2 2:3 3:16 4:25 5:0.3636 6:2 7:5 8:0.2273 9:0.2273 10:0.1364 11:0.4091 12:3 13:0.234 14:3 15:0.4419 16:86 17:0.2791 18:0.2093 19:0.2326 20:0.2791 21:0.2308 22:0.82 23:0.2258 
-0.06828171136997453 1:-1 2:0 3:1 4:20 5:0.45 6:3 7:5 8:0.25 9:0.15 10:0.3 11:0.3 12:32 13:0.2571 14:3 15:0.4634 16:41 17:0.2683 18:0.2195 19:0.2439 20:0.2683 21:0.2432 22:0.86 23:0 
-0.04783014138417328 1:3 2:5 3:20 4:23 5:0.3913 6:6 7:1 8:0.3043 9:0.1304 10:0.2609 11:0.3043 12:10 13:0.2273 14:4 15:0.4337 16:83 17:0.3133 18:0.1807 19:0.253 20:0.253 21:0.2405 22:0.22 23:0.2571 
-0.008406080531751688 1:3 2:5 3:20 4:24 5:0.4167 6:6 7:1 8:0.2917 9:0.125 10:0.2917 11:0.2917 12:9 13:0.2174 14:4 15:0.4471 16:85 17:0.3059 18:0.1882 19:0.2588 20:0.2471 21:0.2346 22:0.56 23:0.2571 
-0.01193839512116885 1:3 2:5 3:25 4:22 5:0.4091 6:6 7:2 8:0.3182 9:0.1364 10:0.2727 11:0.2727 12:6 13:0.3333 14:2 15:0.4396 16:91 17:0.2967 18:0.1758 19:0.2637 20:0.2637 21:0.2644 22:0.5 23:0.2 
-0.08966022320137412 1:3 2:5 3:29 4:20 5:0.35 6:6 7:2 8:0.35 9:0.1 10:0.25 11:0.3 12:4 13:0.3684 14:2 15:0.4211 16:95 17:0.3053 18:0.1684 19:0.2526 20:0.2737 21:0.2527 22:0.44 23:0.1698 
-0.03516886531264843 1:-1 2:0 3:0 4:24 5:0.4583 6:3 7:6 8:0.2917 9:0.1667 10:0.2917 11:0.25 12:30 13:0.2558 14:4 15:0.4667 16:45 17:0.2667 18:0.2222 19:0.2444 20:0.2667 21:0.2195 22:1.8 23:-1 
-0.07589811182115529 1:3 2:5 3:22 4:26 5:0.4167 6:6 7:2 8:0.375 9:0.1667 10:0.25 11:0.2083 12:74 13:0.28 14:4 15:0.4301 16:93 17:0.3011 18:0.172 19:0.2581 20:0.2688 21:0.2584 22:2.5 23:0.2308 
-0.1859088884044181 1:1 2:3 3:12 4:21 5:0.4762 6:2 7:2 8:0.4286 9:0.1905 10:0.2857 11:0.0952 12:17 13:0.1429 14:3 15:0.4444 16:72 17:0.2917 18:0.2222 19:0.2222 20:0.2639 21:0.1562 22:0.67 23:0.1818 
-0.07457754189218721 1:2 2:4 3:24 4:24 5:0.2727 6:5 7:2 8:0.2727 9:0.0909 10:0.1818 11:0.4545 12:80 13:0.2609 14:4 15:0.4 16:100 17:0.28 18:0.18 19:0.22 20:0.32 21:0.2174 22:1.11 23:0.1739 
-0.0635227897092004 1:-1 2:0 3:0 4:23 5:0.3913 6:4 7:3 8:0.3043 9:0.1304 10:0.2609 11:0.3043 12:44 13:0.2195 14:-1 15:0.3333 16:42 17:0.3095 18:0.1429 19:0.1905 20:0.3571 21:0.1351 22:0.6 23:-1 
-0.02590626396632778 1:4 2:2 3:17 4:24 5:0.5652 6:3 7:3 8:0.2174 9:0.1739 10:0.3913 11:0.2174 12:63 13:0.1739 14:4 15:0.4304 16:79 17:0.2785 18:0.1772 19:0.2532 20:0.2911 21:0.1622 22:1.11 23:0.2 
-0.03940065870139134 1:4 2:3 3:20 4:26 5:0.4783 6:3 7:3 8:0.2174 9:0.2174 10:0.2609 11:0.3043 12:4 13:0.1837 14:4 15:0.4138 16:87 17:0.2759 18:0.1724 19:0.2414 20:0.3103 21:0.1707 22:0.9 23:0.2 
-0.02808463505341196 1:4 2:3 3:23 4:24 5:0.4762 6:3 7:3 8:0.1429 9:0.1905 10:0.2857 11:0.381 12:3 13:0.2 14:4 15:0.4045 16:89 17:0.2809 18:0.1685 19:0.236 20:0.3146 21:0.1667 22:0.82 23:0.1707 
-0.03112057095333961 1:4 2:2 3:18 4:23 5:0.5455 6:3 7:3 8:0.2273 9:0.1818 10:0.3636 11:0.2273 12:64 13:0.1818 14:4 15:0.4304 16:79 17:0.2785 18:0.1772 19:0.2532 20:0.2911 21:0.1622 22:1 23:0.1875 
-0.05444044108997658 1:3 2:4 3:31 4:22 5:0.4091 6:8 7:3 8:0.1364 9:0.1364 10:0.2727 11:0.4545 12:83 13:0.3714 14:1 15:0.4314 16:102 17:0.2451 18:0.2157 19:0.2157 20:0.3235 21:0.234 22:1.17 23:0.1525 
-0.2146221613368069 1:3 2:4 3:32 4:22 5:0.4091 6:8 7:3 8:0.0909 9:0.1364 10:0.2727 11:0.5 12:84 13:0.4118 14:1 15:0.4272 16:103 17:0.2427 18:0.2136 19:0.2136 20:0.3301 21:0.2421 22:1.67 23:0.1475 
-0.06999747987435823 1:3 2:3 3:22 4:28 5:0.5238 6:8 7:3 8:0.1429 9:0.3333 10:0.1905 11:0.3333 12:4 13:0.2653 14:2 15:0.4286 16:98 17:0.2449 18:0.2143 19:0.2143 20:0.3265 21:0.2222 22:1 23:0.1707 
-0.1690083483148356 1:3 2:4 3:28 4:20 5:0.45 6:8 7:2 8:0.15 9:0.15 10:0.3 11:0.4 12:80 13:0.3333 14:1 15:0.4255 16:94 17:0.2447 18:0.2128 19:0.2128 20:0.3298 21:0.2326 22:1 23:0.1698 
-0.2210949734289478 1:3 2:3 3:20 4:23 5:0.4783 6:8 7:2 8:0.2609 9:0.2174 10:0.2609 11:0.2609 12:72 13:0.2821 14:3 15:0.381 16:84 17:0.2738 18:0.1905 19:0.1905 20:0.3452 21:0.2368 22:5 23:0.1892 
-0.0960300501771397 1:-1 2:0 3:0 4:21 5:0.4091 6:2 7:4 8:0.2727 9:0.2727 10:0.1364 11:0.3182 12:29 13:0.2308 14:-1 15:0.3902 16:41 17:0.2927 18:0.2195 19:0.1707 20:0.3171 21:0.1429 22:1.8 23:-1 
-0.1323639438532385 1:-1 2:0 3:0 4:22 5:0.4 6:2 7:5 8:0.3 9:0.15 10:0.25 11:0.3 12:51 13:0.25 14:-1 15:0.4048 16:42 17:0.2857 18:0.2143 19:0.1905 20:0.3095 21:0.1667 22:0.83 23:-1 
-0.09066764498369972 1:2 2:3 3:17 4:24 5:0.5417 6:4 7:3 8:0.2083 9:0.1667 10:0.375 11:0.25 12:68 13:0.3478 14:4 15:0.494 16:83 17:0.2048 18:0.2771 19:0.2169 20:0.3012 21:0.2727 22:5 23:0.1613 
-0.1601816278721601 1:1 2:5 3:19 4:24 5:0.5217 6:8 7:2 8:0.3043 9:0.3043 10:0.2174 11:0.1739 12:80 13:0.4043 14:4 15:0.4396 16:91 17:0.2967 18:0.2308 19:0.2088 20:0.2637 21:0.3 22:1.2 23:0.2 
-0.2143580090605588 1:2 2:6 3:25 4:21 5:0.3 6:8 7:1 8:0.4 9:0.15 10:0.15 11:0.3 12:86 13:0.3659 14:3 15:0.4124 16:97 17:0.3093 18:0.2165 19:0.1959 20:0.2784 21:0.2791 22:1.22 23:0.234 
-0.1928987540929104 1:1 2:6 3:22 4:20 5:0.4 6:8 7:2 8:0.4 9:0.2 10:0.2 11:0.2 12:13 13:0.4359 14:2 15:0.427 16:89 17:0.3034 18:0.2247 19:0.2022 20:0.2697 21:0.3077 22:0.22 23:0.2195 
-0.005515351606301257 1:-1 2:0 3:0 4:25 5:0.4167 6:5 7:5 8:0.25 9:0.25 10:0.1667 11:0.3333 12:58 13:0.3191 14:-1 15:0.4375 16:48 17:0.25 18:0.2292 19:0.2083 20:0.3125 21:0.1351 22:0 23:-1 
-0.1151905735329147 1:1 2:5 3:20 4:24 5:0.4167 6:8 7:2 8:0.3333 9:0.2083 10:0.2083 11:0.25 12:11 13:0.4043 14:2 15:0.4301 16:93 17:0.3011 18:0.2258 19:0.2043 20:0.2688 21:0.2927 22:1.17 23:0.1892 
-0.03048979406150138 1:1 2:5 3:19 4:22 5:0.4545 6:8 7:2 8:0.3636 9:0.1818 10:0.2727 11:0.1818 12:14 13:0.4419 14:3 15:0.4368 16:87 17:0.2989 18:0.2299 19:0.2069 20:0.2644 21:0.3158 22:0 23:0.2 
-0.1091568684829226 1:2 2:6 3:24 4:22 5:0.3636 6:8 7:1 8:0.4545 9:0.1818 10:0.1818 11:0.1818 12:9 13:0.3488 14:3 15:0.4124 16:97 17:0.3093 18:0.2165 19:0.1959 20:0.2784 21:0.2791 22:0.82 23:0.2444 
-0.1978190034630458 1:1 2:6 3:22 4:22 5:0.4286 6:8 7:2 8:0.381 9:0.1905 10:0.2381 11:0.1905 12:83 13:0.3953 14:1 15:0.4301 16:93 17:0.3011 18:0.2258 19:0.2043 20:0.2688 21:0.2927 22:1.29 23:0.2195 
-0.002372687754876202 1:-1 2:0 3:2 4:22 5:0.4 6:2 7:5 8:0.3 9:0.15 10:0.25 11:0.3 12:59 13:0.2195 14:4 15:0.3529 16:51 17:0.2941 18:0.1765 19:0.1765 20:0.3529 21:0.2 22:0.5 23:0 
-0.002800283127968186 1:1 2:4 3:15 4:24 5:0.5 6:2 7:3 8:0.1364 9:0.3182 10:0.1818 11:0.3636 12:15 13:0.1111 14:1 15:0.3924 16:79 17:0.2658 18:0.1899 19:0.2025 20:0.3418 21:0.1507 22:1.8 23:0.2143 
-0.009928011940128816 1:-1 2:0 3:1 4:22 5:0.3333 6:2 7:5 8:0.2857 9:0.1905 10:0.1429 11:0.381 12:29 13:0.2195 14:1 15:0.3673 16:49 17:0.2857 18:0.1837 19:0.1837 20:0.3469 21:0.2093 22:1.57 23:0 
-0.2690319316283175 1:-1 2:0 3:1 4:25 5:0.3478 6:2 7:5 8:0.3478 9:0.1304 10:0.2174 11:0.3043 12:58 13:0.1915 14:2 15:0.3273 16:55 17:0.3091 18:0.1636 19:0.1636 20:0.3636 21:0.1837 22:0.78 23:0 
-0.0161115348951351 1:2 2:4 3:24 4:26 5:0.5652 6:3 7:5 8:0.087 9:0.3043 10:0.2609 11:0.3478 12:3 13:0.375 14:1 15:0.4646 16:99 17:0.2222 18:0.2323 19:0.2323 20:0.3131 21:0.2609 22:0.62 23:0.1739 
-0.06174282374722834 1:2 2:5 3:30 4:21 5:0.25 6:4 7:4 8:0.25 9:0.1 10:0.15 11:0.5 12:83 13:0.4737 14:3 15:0.4653 16:101 17:0.2178 18:0.2376 19:0.2277 20:0.3168 21:0.2766 22:3 23:0.1724 
-0.1183690691299135 1:2 2:6 3:33 4:20 5:0.45 6:6 7:2 8:0.25 9:0.25 10:0.2 11:0.3 12:4 13:0.3143 14:1 15:0.4615 16:104 17:0.2212 18:0.1827 19:0.2788 20:0.3173 21:0.2292 22:0.44 23:0.1803 
-0.006104799657700112 1:2 2:3 3:20 4:23 5:0.5 6:4 7:4 8:0.2273 9:0.1818 10:0.3182 11:0.2727 12:14 13:0.2683 14:2 15:0.4419 16:86 17:0.2442 18:0.186 19:0.2558 20:0.314 21:0.2051 22:0 23:0.1351 
-0.2213430489349845 1:-1 2:0 3:3 4:21 5:0.35 6:2 7:4 8:0.2 9:0.2 10:0.15 11:0.45 12:65 13:0.1579 14:2 15:0.4423 16:52 17:0.25 18:0.1923 19:0.25 20:0.3077 21:0.1364 22:0.5 23:0 
-0.09204643197333254 1:2 2:6 3:30 4:20 5:0.45 6:6 7:2 8:0.25 9:0.25 10:0.2 11:0.3 12:7 13:0.2973 14:1 15:0.46 16:100 17:0.23 18:0.19 19:0.27 20:0.31 21:0.2174 22:1.43 23:0.1636 
-0.2494515785068414 1:-1 2:0 3:0 4:21 5:0.3 6:2 7:4 8:0.2 9:0.1 10:0.2 11:0.5 12:60 13:0.2308 14:3 15:0.3953 16:43 17:0.2558 18:0.1628 19:0.2326 20:0.3488 21:0.1429 22:0.67 23:-1 
-0.03205938895751561 1:3 2:3 3:22 4:20 5:0.35 6:2 7:2 8:0.2 9:0.15 10:0.2 11:0.45 12:3 13:0.0811 14:4 15:0.375 16:88 17:0.2955 18:0.1818 19:0.1932 20:0.3295 21:0.15 22:0.89 23:0.2093 
-0.239171299616968 1:1 2:2 3:10 4:26 5:0.3043 6:3 7:2 8:0.3043 9:0.1739 10:0.1304 11:0.3913 12:63 13:0.1429 14:3 15:0.3506 16:77 17:0.2987 18:0.1688 19:0.1818 20:0.3506 21:0.1594 22:0.9 23:0.2 
-0.1117172178861156 1:3 2:3 3:24 4:20 5:0.3 6:2 7:2 8:0.3 9:0.15 10:0.15 11:0.4 12:1 13:0.0811 14:2 15:0.3587 16:92 17:0.3043 18:0.1739 19:0.1848 20:0.337 21:0.1429 22:1.12 23:0.1915 
-0.03930692285811334 1:1 2:3 3:21 4:22 5:0.55 6:2 7:5 8:0.3 9:0.15 10:0.4 11:0.15 12:4 13:0.2381 14:3 15:0.5208 16:96 17:0.2604 18:0.2604 19:0.2604 20:0.2188 21:0.1707 22:0.9 23:0.1 
-0.1979119748627799 1:1 2:3 3:24 4:29 5:0.45 6:10 7:6 8:0.4 9:0.15 10:0.3 11:0.15 12:1 13:0.4694 14:4 15:0.4771 16:109 17:0.3028 18:0.2477 19:0.2294 20:0.2202 21:0.2842 22:0.38 23:0.087 
-0.1871982671170085 1:-1 2:0 3:0 4:21 5:0.4091 6:6 7:3 8:0.2273 9:0.2727 10:0.1364 11:0.3636 12:50 13:0.35 14:3 15:0.4524 16:42 17:0.3095 18:0.2619 19:0.1905 20:0.2381 21:0.0714 22:0 23:-1 
-0.1082709958431416 1:1 2:2 3:16 4:25 5:0.4783 6:2 7:6 8:0.3043 9:0.087 10:0.3913 11:0.2174 12:6 13:0.25 14:2 15:0.5 16:92 17:0.2717 18:0.25 19:0.25 20:0.2283 21:0.1795 22:1.29 23:0.0667 
-0.1393256093519457 1:1 2:3 3:22 4:30 5:0.4762 6:9 7:6 8:0.381 9:0.1429 10:0.3333 11:0.1429 12:2 13:0.4118 14:2 15:0.486 16:107 17:0.2991 18:0.2523 19:0.2336 20:0.215 21:0.2688 22:0.86 23:0.0952 
-0.06065138466985624 1:1 2:3 3:18 4:25 5:0.5217 6:2 7:5 8:0.3043 9:0.1304 10:0.3913 11:0.1739 12:4 13:0.2083 14:1 15:0.5208 16:96 17:0.2604 18:0.2604 19:0.2604 20:0.2188 21:0.1707 22:0.9 23:0.1176 
-0.143525574701958 1:3 2:4 3:25 4:20 5:0.2 6:3 7:2 8:0.2 9:0 10:0.2 11:0.6 12:85 13:0.1795 14:4 15:0.398 16:98 17:0.2755 18:0.2245 19:0.1735 20:0.3265 21:0.2045 22:0.8 23:0.2245 
-0.08130974885619192 1:3 2:3 3:19 4:22 5:0.2727 6:3 7:3 8:0.2727 9:0.1364 10:0.1364 11:0.4545 12:79 13:0.2093 14:1 15:0.3889 16:90 17:0.2778 18:0.2222 19:0.1667 20:0.3333 21:0.225 22:4.5 23:0.2432 
-0.08639914385824231 1:3 2:4 3:29 4:22 5:0.1818 6:5 7:3 8:0.3182 9:0 10:0.1818 11:0.5 12:89 13:0.35 14:3 15:0.3738 16:107 17:0.2991 18:0.2056 19:0.1682 20:0.3271 21:0.2577 22:3 23:0.193 
-0.05112045209195853 1:3 2:3 3:24 4:23 5:0.4348 6:3 7:3 8:0.087 9:0.2609 10:0.1739 11:0.4783 12:12 13:0.3043 14:2 15:0.4468 16:94 17:0.2021 18:0.2234 19:0.2234 20:0.3511 21:0.2667 22:2 23:0.2273 
-0.5207225763847891 1:3 2:1 3:5 4:22 5:0.55 6:3 7:3 8:0.1 9:0.35 10:0.2 11:0.35 12:66 13:0.2195 14:3 15:0.463 16:54 17:0.2037 18:0.2407 19:0.2222 20:0.3333 21:0.28 22:1.33 23:0.5556 
-0.09957412190862949 1:-1 2:0 3:0 4:25 5:0.4545 6:3 7:4 8:0.1364 9:0.3182 10:0.1364 11:0.4091 12:61 13:0.2609 14:4 15:0.4375 16:48 17:0.2292 18:0.25 19:0.1875 20:0.3333 21:0.2273 22:0.71 23:-1 
-0.03728495006897055 1:3 2:2 3:17 4:24 5:0.4091 6:3 7:4 8:0.2727 9:0.1364 10:0.2727 11:0.3182 12:78 13:0.3043 14:4 15:0.439 16:82 17:0.2195 18:0.2195 19:0.2195 20:0.3415 21:0.2564 22:0.75 23:0.1875 
-0.08259481685821134 1:2 2:4 3:15 4:24 5:0.3913 6:2 7:4 8:0.2174 9:0.2174 10:0.1739 11:0.3913 12:70 13:0.1739 14:1 15:0.4302 16:86 17:0.2209 18:0.2442 19:0.186 20:0.3488 21:0.2055 22:1.4 23:0.3103 
-0.05284886654933398 1:-1 2:0 3:0 4:25 5:0.4583 6:6 7:4 8:0.2083 9:0.3333 10:0.125 11:0.3333 12:51 13:0.4286 14:3 15:0.44 16:50 17:0.22 18:0.28 19:0.16 20:0.34 21:0.2432 22:0 23:-1 
-0.7406429874159388 1:1 2:3 3:11 4:20 5:0.5 6:3 7:2 8:0.2 9:0.35 10:0.15 11:0.3 12:66 13:0.1795 14:3 15:0.4507 16:71 17:0.2254 18:0.2535 19:0.1972 20:0.3239 21:0.1724 22:0.86 23:0.2381 
-0.00405218431924681 1:1 2:3 3:15 4:24 5:0.6364 6:4 7:4 8:0.2273 9:0.4091 10:0.2273 11:0.1364 12:10 13:0.3333 14:1 15:0.5325 16:77 17:0.2208 18:0.2857 19:0.2468 20:0.2468 21:0.2603 22:0.5 23:0.1429 
-0.05743964509196078 1:-1 2:0 3:0 4:22 5:0.7 6:2 7:5 8:0.2 9:0.55 10:0.15 11:0.1 12:26 13:0.25 14:4 15:0.5909 16:44 17:0.25 18:0.3182 19:0.2727 20:0.1591 21:0.25 22:0.75 23:-1 
-0.09015912598363551 1:-1 2:0 3:0 4:23 5:0.5 6:2 7:6 8:0.2727 9:0.1364 10:0.3636 11:0.2273 12:48 13:0.2857 14:-1 15:0.5909 16:44 17:0.25 18:0.3182 19:0.2727 20:0.1591 21:0.25 22:1.33 23:-1 
-0.1301462556198935 1:1 2:2 3:14 4:26 5:0.3913 6:3 7:5 8:0.3478 9:0.1739 10:0.2174 11:0.2609 12:16 13:0.2917 14:3 15:0.4268 16:82 17:0.2561 18:0.2073 19:0.2195 20:0.3171 21:0.2162 22:0.44 23:0.0769 
-0.09068944571443636 1:2 2:3 3:19 4:23 5:0.3182 6:4 7:4 8:0.1818 9:0.1818 10:0.1364 11:0.5 12:78 13:0.3023 14:2 15:0.4186 16:86 17:0.2558 18:0.1977 19:0.2209 20:0.3256 21:0.2308 22:4.5 23:0.1429 
-0.02268402073707045 1:2 2:2 3:18 4:21 5:0.4762 6:4 7:2 8:0.381 9:0.2857 10:0.1905 11:0.1429 12:8 13:0.2195 14:4 15:0.3902 16:82 17:0.3171 18:0.1707 19:0.2195 20:0.2927 21:0.1622 22:0.29 23:0.0909 
-0.06668271036647824 1:1 2:5 3:21 4:22 5:0.65 6:2 7:4 8:0.1 9:0.45 10:0.2 11:0.25 12:12 13:0.2857 14:2 15:0.5055 16:91 17:0.1978 18:0.2747 19:0.2308 20:0.2967 21:0.225 22:0.71 23:0.2 
-0.02951314781536806 1:1 2:3 3:13 4:21 5:0.55 6:2 7:4 8:0.2 9:0.25 10:0.3 11:0.25 12:74 13:0.2195 14:3 15:0.5333 16:75 17:0.2133 18:0.2933 19:0.24 20:0.2533 21:0.1875 22:0.91 23:0.2 
-0.09817086393664759 1:1 2:5 3:24 4:26 5:0.6522 6:5 7:5 8:0.1304 9:0.3913 10:0.2609 11:0.2174 12:6 13:0.4286 14:1 15:0.4808 16:104 17:0.2115 18:0.2596 19:0.2212 20:0.3077 21:0.2903 22:0 23:0.1739 
-0.1142633348654623 1:1 2:5 3:22 4:27 5:0.6667 6:4 7:5 8:0.125 9:0.4167 10:0.25 11:0.2083 12:7 13:0.3725 14:4 15:0.4902 16:102 17:0.2157 18:0.2647 19:0.2255 20:0.2941 21:0.2747 22:0.25 23:0.1905 
-0.1330562528366155 1:1 2:5 3:21 4:26 5:0.6087 6:2 7:5 8:0.1739 9:0.3913 10:0.2174 11:0.2174 12:9 13:0.3061 14:2 15:0.4898 16:98 17:0.2143 18:0.2653 19:0.2245 20:0.2959 21:0.2414 22:1.14 23:0.2 
-0.03512398561190322 1:1 2:4 3:14 4:25 5:0.6087 6:2 7:4 8:0.1304 9:0.3913 10:0.2174 11:0.2609 12:16 13:0.2083 14:2 15:0.5181 16:83 17:0.2048 18:0.2771 19:0.241 20:0.2771 21:0.1944 22:1 23:0.2308 
-0.06264113862497309 1:-1 2:0 3:0 4:21 5:0.381 6:4 7:4 8:0.2381 9:0.2381 10:0.1429 11:0.381 12:46 13:0.4 14:-1 15:0.4762 16:42 17:0.2619 18:0.2857 19:0.1905 20:0.2619 21:0.25 22:0 23:-1 
-0.1126048557202659 1:1 2:2 3:15 4:22 5:0.6818 6:2 7:6 8:0.1364 9:0.1364 10:0.5455 11:0.1818 12:62 13:0.3333 14:1 15:0.4756 16:82 17:0.2683 18:0.2317 19:0.2439 20:0.2561 21:0.2286 22:1.25 23:0.0714 
-0.05434446147473083 1:1 2:2 3:15 4:21 5:0.45 6:2 7:5 8:0.2 9:0.4 10:0.05 11:0.35 12:2 13:0.3171 14:3 15:0.4691 16:81 17:0.2716 18:0.2346 19:0.2346 20:0.2593 21:0.2174 22:0.5 23:0.0714 
-0.1052421493663268 1:-1 2:0 3:0 4:26 5:0.5 6:5 7:5 8:0.2083 9:0.1667 10:0.3333 11:0.2917 12:44 13:0.4286 14:4 15:0.46 16:50 17:0.28 18:0.24 19:0.22 20:0.26 21:0.2821 22:0 23:-1 
-0.04013375624919776 1:3 2:3 3:11 4:24 5:0.3478 6:2 7:4 8:0.3913 9:0.2609 10:0.087 11:0.2609 12:5 13:0.1915 14:2 15:0.4342 16:76 17:0.2895 18:0.1974 19:0.2368 20:0.2763 21:0.2308 22:0.78 23:0.4 
-0.05276870451919035 1:-1 2:0 3:0 4:25 5:0.4583 6:5 7:5 8:0.25 9:0.1667 10:0.2917 11:0.2917 12:43 13:0.4468 14:-1 15:0.4375 16:48 17:0.2917 18:0.2292 19:0.2083 20:0.2708 21:0.2973 22:0 23:-1 
-0.04560122232774263 1:3 2:3 3:13 4:25 5:0.4167 6:4 7:4 8:0.375 9:0.25 10:0.1667 11:0.2083 12:2 13:0.3061 14:1 15:0.4512 16:82 17:0.2927 18:0.1951 19:0.2561 20:0.2561 21:0.2958 22:0 23:0.3333 
-0.2212636231125779 1:-1 2:0 3:0 4:22 5:0.3636 6:8 7:3 8:0.4091 9:0.2273 10:0.1364 11:0.2273 12:41 13:0.4419 14:-1 15:0.3864 16:44 17:0.2727 18:0.1818 19:0.2045 20:0.3409 21:0.1111 22:0 23:-1 
-0.04506183333742699 1:1 2:3 3:11 4:22 5:0.619 6:1 7:3 8:0.2857 9:0.2857 10:0.3333 11:0.0952 12:2 13:0.1163 14:1 15:0.4557 16:79 17:0.2405 18:0.2152 19:0.2405 20:0.3038 21:0.129 22:0.73 23:0.2381 
-0.002971811434525354 1:1 2:2 3:9 4:24 5:0.6087 6:1 7:4 8:0.2609 9:0.3043 10:0.3043 11:0.1304 12:2 13:0.1304 14:2 15:0.4557 16:79 17:0.2405 18:0.2152 19:0.2405 20:0.3038 21:0.129 22:1 23:0.2222 
-0.01758506529426745 1:1 2:3 3:13 4:22 5:0.4545 6:2 7:4 8:0.1818 9:0.2273 10:0.2273 11:0.3636 12:61 13:0.1905 14:4 15:0.439 16:82 17:0.2683 18:0.2073 19:0.2317 20:0.2927 21:0.1692 22:1.6 23:0.2 
-0.1454234343836549 1:1 2:3 3:10 4:25 5:0.5652 6:2 7:4 8:0.3043 9:0.2609 10:0.3043 11:0.1304 12:1 13:0.1667 14:2 15:0.439 16:82 17:0.2683 18:0.2073 19:0.2317 20:0.2927 21:0.1692 22:0.73 23:0.2632 
-0.09224205151377407 1:-1 2:0 3:0 4:25 5:0.375 6:7 7:4 8:0.375 9:0.25 10:0.125 11:0.25 12:43 13:0.375 14:1 15:0.3922 16:51 17:0.2745 18:0.1765 19:0.2157 20:0.3333 21:0.1176 22:0 23:-1 
-1 1:1 2:2 3:11 4:22 5:0.5714 6:4 7:4 8:0.2381 9:0.4762 10:0.0952 11:0.1905 12:57 13:0.3171 14:3 15:0.5217 16:69 17:0.2319 18:0.2609 19:0.2609 20:0.2464 21:0.2459 22:1.25 23:0.1 
-0.227960107760605 1:2 2:4 3:19 4:20 5:0.55 6:4 7:3 8:0.3 9:0.4 10:0.15 11:0.15 12:64 13:0.3514 14:2 15:0.519 16:79 17:0.2278 18:0.2405 19:0.2785 20:0.2532 21:0.2676 22:5 23:0.1765 
-0.1479578168438331 1:1 2:2 3:10 4:26 5:0.5833 6:4 7:4 8:0.1667 9:0.125 10:0.4583 11:0.25 12:6 13:0.2653 14:3 15:0.52 16:75 17:0.2267 18:0.2533 19:0.2667 20:0.2533 21:0.2239 22:1 23:0.1111 
-0.1133310454235972 1:1 2:2 3:11 4:28 5:0.5833 6:4 7:5 8:0.1667 9:0.125 10:0.4583 11:0.25 12:5 13:0.3333 14:2 15:0.519 16:79 17:0.2278 18:0.2405 19:0.2785 20:0.2532 21:0.2676 22:1 23:0.1 
-0.3559741287537432 1:1 2:2 3:9 4:25 5:0.625 6:4 7:4 8:0.2083 9:0.5 10:0.125 11:0.1667 12:55 13:0.2766 14:4 15:0.5352 16:71 17:0.2254 18:0.2676 19:0.2676 20:0.2394 21:0.2381 22:1.25 23:0.125 
-0.1638940138288227 1:2 2:4 3:20 4:24 5:0.5833 6:4 7:4 8:0.25 9:0.4167 10:0.1667 11:0.1667 12:65 13:0.3182 14:4 15:0.5341 16:88 17:0.2273 18:0.25 19:0.2841 20:0.2386 21:0.25 22:1.38 23:0.1667 
-0.1350158185279284 1:-1 2:0 3:0 4:22 5:0.3478 6:3 7:2 8:0.3043 9:0.2174 10:0.1304 11:0.3478 12:55 13:0.2558 14:-1 15:0.3556 16:45 17:0.2444 18:0.1778 19:0.1778 20:0.4 21:0.1351 22:0.25 23:-1 
-0.03375740430091305 1:3 2:1 3:22 4:22 5:0.3333 6:3 7:4 8:0.1905 9:0.0952 10:0.2381 11:0.4762 12:9 13:0.3171 14:2 15:0.337 16:92 17:0.2826 18:0.1522 19:0.1848 20:0.3804 21:0.2143 22:0.29 23:0.1163 
-0.5624724417267514 1:-1 2:0 3:11 4:21 5:0.3333 6:3 7:3 8:0.381 9:0.2381 10:0.0952 11:0.2857 12:70 13:0.2195 14:4 15:0.3662 16:71 17:0.2676 18:0.1831 19:0.1831 20:0.3662 21:0.1429 22:0.38 23:0 
-0.015521055818904 1:3 2:1 3:17 4:24 5:0.3043 6:3 7:3 8:0.1304 9:0.087 10:0.2174 11:0.5652 12:12 13:0.1915 14:4 15:0.3409 16:88 17:0.2727 18:0.1591 19:0.1818 20:0.3864 21:0.175 22:1.12 23:0.1515 
-0.2074517076349523 1:3 2:1 3:15 4:22 5:0.2727 6:3 7:3 8:0.4545 9:0.1818 10:0.0909 11:0.2727 12:74 13:0.2093 14:4 15:0.35 16:80 17:0.2625 18:0.1625 19:0.1875 20:0.3875 21:0.1944 22:2 23:0.1724 
-0.1409843231165001 1:-1 2:0 3:0 4:27 5:0.4348 6:4 7:4 8:0.087 9:0.1739 10:0.2609 11:0.4783 12:45 13:0.3061 14:-1 15:0.4706 16:51 17:0.1765 18:0.2353 19:0.2353 20:0.3529 21:0.2444 22:0.62 23:-1 
-0.01212787437962694 1:-1 2:0 3:0 4:27 5:0.4545 6:4 7:4 8:0.0909 9:0.1818 10:0.2727 11:0.4545 12:46 13:0.3061 14:3 15:0.4706 16:51 17:0.1765 18:0.2353 19:0.2353 20:0.3529 21:0.2444 22:0.62 23:-1 
-0.3855811409824897 1:4 2:2 3:17 4:20 5:0.55 6:1 7:2 8:0.25 9:0.35 10:0.2 11:0.2 12:60 13:0.0769 14:1 15:0.4865 16:74 17:0.2027 18:0.2432 19:0.2432 20:0.3108 21:0.1765 22:1 23:0.3103 
-0.01995919458936878 1:3 2:2 3:16 4:22 5:0.5238 6:1 7:4 8:0.1429 9:0.1905 10:0.3333 11:0.3333 12:5 13:0.1429 14:4 15:0.48 16:75 17:0.2 18:0.24 19:0.24 20:0.32 21:0.1884 22:1 23:0.2593 
-0.06638006333468066 1:4 2:2 3:17 4:24 5:0.5217 6:2 7:3 8:0.2174 9:0.2174 10:0.3043 11:0.2609 12:2 13:0.1111 14:2 15:0.475 16:80 17:0.2125 18:0.2375 19:0.2375 20:0.3125 21:0.1892 22:0.5 23:0.3103 
-0.131672720107993 1:4 2:2 3:19 4:24 5:0.5455 6:2 7:4 8:0.2273 9:0.3182 10:0.2273 11:0.2273 12:62 13:0.1364 14:4 15:0.494 16:83 17:0.2048 18:0.253 19:0.241 20:0.3012 21:0.1948 22:1 23:0.2727 
-0.1484713412039122 1:4 2:2 3:17 4:21 5:0.55 6:1 7:3 8:0.15 9:0.2 10:0.35 11:0.3 12:5 13:0.1 14:2 15:0.48 16:75 17:0.2 18:0.24 19:0.24 20:0.32 21:0.1884 22:0.8 23:0.3103 
-0.1149840614731724 1:4 2:3 3:22 4:23 5:0.5238 6:3 7:3 8:0.3333 9:0.3333 10:0.1905 11:0.1429 12:65 13:0.15 14:4 15:0.4824 16:85 17:0.2235 18:0.2471 19:0.2353 20:0.2941 21:0.2152 22:3.67 23:0.2821 
-0.3039752027774648 1:1 2:1 3:10 4:28 5:0.4762 6:8 7:3 8:0.1905 9:0.1905 10:0.2857 11:0.3333 12:76 13:0.2917 14:4 15:0.4024 16:82 17:0.3293 18:0.2073 19:0.1951 20:0.2683 21:0.2353 22:1.33 23:0.1 
-0.2035332453923956 1:2 2:3 3:24 4:20 5:0.55 6:9 7:1 8:0.2 9:0.25 10:0.3 11:0.25 12:9 13:0.3529 14:3 15:0.4255 16:94 17:0.3191 18:0.2128 19:0.2128 20:0.2553 21:0.225 22:1.38 23:0.1304 
-0.115566274171217 1:-1 2:0 3:0 4:25 5:0.4167 6:4 7:4 8:0.3333 9:0.2083 10:0.2083 11:0.25 12:62 13:0.2917 14:1 15:0.3704 16:54 17:0.3519 18:0.1852 19:0.1852 20:0.2778 21:0.15 22:0 23:-1 
-0.318113660317593 1:2 2:3 3:20 4:31 5:0.4783 6:9 7:3 8:0.2609 9:0.2174 10:0.2609 11:0.2609 12:85 13:0.2593 14:4 15:0.434 16:106 17:0.3113 18:0.217 19:0.217 20:0.2547 21:0.2174 22:1 23:0.1579 
-0.190428936888025 1:1 2:2 3:11 4:22 5:0.5238 6:3 7:2 8:0.2381 9:0.2857 10:0.2381 11:0.2381 12:20 13:0.15 14:2 15:0.4133 16:75 17:0.32 18:0.2 19:0.2133 20:0.2667 21:0.1475 22:0.38 23:0.1429 
-0.287867698646652 1:1 2:2 3:14 4:29 5:0.4348 6:9 7:2 8:0.2609 9:0.1739 10:0.2609 11:0.3043 12:79 13:0.2941 14:3 15:0.413 16:92 17:0.3261 18:0.2065 19:0.2065 20:0.2609 21:0.2308 22:0.5 23:0.1111 
-0.1378249238523203 1:2 2:3 3:19 4:21 5:0.5238 6:9 7:1 8:0.2381 9:0.2857 10:0.2381 11:0.2381 12:13 13:0.3333 14:4 15:0.3953 16:86 17:0.3372 18:0.1977 19:0.1977 20:0.2674 21:0.25 22:0.2 23:0.1667 
-0.1913825604139902 1:-1 2:0 3:0 4:25 5:0.4167 6:5 7:5 8:0.2083 9:0.2083 10:0.2083 11:0.375 12:37 13:0.3469 14:3 15:0.4727 16:55 17:0.2364 18:0.2909 19:0.1818 20:0.2909 21:0.1795 22:0 23:-1 
-0.04584635581635277 1:-1 2:0 3:0 4:20 5:0.4 6:5 7:4 8:0.25 9:0.2 10:0.2 11:0.35 12:37 13:0.4 14:3 15:0.4348 16:46 17:0.2609 18:0.2826 19:0.1522 20:0.3043 21:0.2 22:0 23:-1 
-0.08483376854935694 1:-1 2:0 3:0 4:22 5:0.45 6:5 7:5 8:0.4 9:0.3 10:0.15 11:0.15 12:9 13:0.3953 14:3 15:0.4091 16:44 17:0.2727 18:0.2273 19:0.1818 20:0.3182 21:0.2121 22:5 23:-1 
-0.005483230046078403 1:2 2:3 3:17 4:25 5:0.5417 6:1 7:3 8:0.3333 9:0.2917 10:0.25 11:0.125 12:67 13:0.0833 14:3 15:0.4884 16:86 17:0.2326 18:0.2326 19:0.2558 20:0.2791 21:0.15 22:1 23:0.25 
-0.05386866639193218 1:-1 2:0 3:0 4:21 5:0.3333 6:2 7:3 8:0.1429 9:0.1429 10:0.1905 11:0.5238 12:25 13:0.2 14:4 15:0.3478 16:46 17:0.2826 18:0.1304 19:0.2174 20:0.3696 21:0.2 22:1.6 23:-1 
-0.009410825825553396 1:1 2:3 3:13 4:23 5:0.6087 6:3 7:5 8:0.2609 9:0.2174 10:0.3913 11:0.1304 12:11 13:0.3913 14:3 15:0.5233 16:86 17:0.2326 18:0.2209 19:0.3023 20:0.2442 21:0.3043 22:0.38 23:0.2 
-0.1191233522969245 1:1 2:3 3:11 4:24 5:0.625 6:2 7:5 8:0.25 9:0.2917 10:0.3333 11:0.125 12:12 13:0.3333 14:3 15:0.5238 16:84 17:0.2262 18:0.2262 19:0.2976 20:0.25 21:0.2836 22:0.75 23:0.2381 
-0.0896945291896592 1:1 2:4 3:16 4:21 5:0.619 6:3 7:4 8:0.2381 9:0.2381 10:0.381 11:0.1429 12:10 13:0.381 14:3 15:0.5341 16:88 17:0.2273 18:0.2273 19:0.3068 20:0.2386 21:0.2958 22:0.3 23:0.2258 
-0.08060983684431802 1:1 2:4 3:18 4:23 5:0.4348 6:3 7:5 8:0.1304 9:0.2174 10:0.2174 11:0.4348 12:79 13:0.3778 14:4 15:0.5158 16:95 17:0.2316 18:0.2211 19:0.2947 20:0.2526 21:0.2821 22:0.57 23:0.2 
-0.09241729854808664 1:1 2:5 3:21 4:22 5:0.5455 6:3 7:5 8:0.0909 9:0.3182 10:0.2273 11:0.3636 12:82 13:0.4146 14:4 15:0.5258 16:97 17:0.2268 18:0.2371 19:0.2887 20:0.2474 21:0.3 22:1.5 23:0.2195 
-0.08907859851024318 1:1 2:4 3:17 4:21 5:0.4762 6:3 7:4 8:0.0952 9:0.2381 10:0.2381 11:0.4286 12:78 13:0.381 14:3 15:0.5222 16:90 17:0.2333 18:0.2222 19:0.3 20:0.2444 21:0.2877 22:1.4 23:0.2121 
-0.1056280003513913 1:1 2:4 3:19 4:26 5:0.5455 6:5 7:5 8:0.2727 9:0.1818 10:0.3636 11:0.1818 12:6 13:0.4583 14:1 15:0.51 16:100 17:0.23 18:0.23 19:0.28 20:0.26 21:0.3253 22:1.4 23:0.1892 
-0.1686511300890103 1:5 2:4 3:29 4:22 5:0.4762 6:3 7:4 8:0.1905 9:0.2381 10:0.2381 11:0.3333 12:79 13:0.2821 14:4 15:0.5155 16:97 17:0.2371 18:0.2268 19:0.2887 20:0.2474 21:0.2527 22:5 23:0.2308 
-0.06088687806716093 1:5 2:3 3:26 4:22 5:0.619 6:3 7:4 8:0.2381 9:0.2381 10:0.381 11:0.1429 12:3 13:0.2857 14:1 15:0.5213 16:94 17:0.234 18:0.234 19:0.2872 20:0.2447 21:0.2273 22:2 23:0.1739 
-0.0722869700591188 1:5 2:3 3:27 4:26 5:0.619 6:5 7:5 8:0.1905 9:0.2381 10:0.381 11:0.1905 12:2 13:0.3913 14:4 15:0.5 16:100 17:0.24 18:0.22 19:0.28 20:0.26 21:0.2766 22:1.4 23:0.1667 
-0.06244678152483979 1:5 2:4 3:28 4:26 5:0.619 6:6 7:5 8:0.1905 9:0.2857 10:0.3333 11:0.1905 12:1 13:0.3913 14:4 15:0.5 16:102 17:0.2353 18:0.2255 19:0.2745 20:0.2647 21:0.2917 22:0.71 23:0.2 
-0.05957936107414524 1:5 2:3 3:26 4:22 5:0.4762 6:3 7:4 8:0.1429 9:0.2381 10:0.2381 11:0.381 12:76 13:0.2857 14:4 15:0.5213 16:94 17:0.234 18:0.234 19:0.2872 20:0.2447 21:0.2273 22:0.5 23:0.1739 
-0.03042355591596673 1:-1 2:0 3:1 4:25 5:0.5 6:5 7:3 8:0.2 9:0.15 10:0.35 11:0.3 12:24 13:0.1818 14:3 15:0.5 16:52 17:0.2692 18:0.2308 19:0.2692 20:0.2308 21:0.1739 22:1 23:0 
-0.0009334924124598243 1:5 2:2 3:18 4:22 5:0.5714 6:2 7:4 8:0.1905 9:0.2381 10:0.3333 11:0.2381 12:11 13:0.1905 14:3 15:0.5256 16:78 17:0.2308 18:0.2308 19:0.2949 20:0.2436 21:0.1944 22:1 23:0.2 
-0.08208955265398747 1:-1 2:0 3:0 4:24 5:0.4167 6:7 7:4 8:0.375 9:0.2083 10:0.2083 11:0.2083 12:34 13:0.4043 14:-1 15:0.3958 16:48 17:0.375 18:0.1875 19:0.2083 20:0.2292 21:0.1515 22:0 23:-1 
-0.07494319309304268 1:-1 2:0 3:0 4:24 5:0.4348 6:7 7:4 8:0.3913 9:0.2174 10:0.2174 11:0.1739 12:35 13:0.4043 14:4 15:0.3958 16:48 17:0.375 18:0.1875 19:0.2083 20:0.2292 21:0.1515 22:0 23:-1 
-1 1:-1 2:0 3:0 4:23 5:0.5 6:1 7:5 8:0.2727 9:0.2727 10:0.2273 11:0.2273 12:41 13:0.2 14:2 15:0.3793 16:58 17:0.3621 18:0.1724 19:0.2069 20:0.2586 21:0.1628 22:1.14 23:-1 
-0.05322783913560591 1:-1 2:0 3:0 4:22 5:0.35 6:3 7:3 8:0.2 9:0.15 10:0.2 11:0.45 12:9 13:0.2857 14:4 15:0.4186 16:43 17:0.2558 18:0.2326 19:0.186 20:0.3256 21:0.2105 22:1 23:-1 
-0.08889933954970164 1:-1 2:0 3:0 4:22 5:0.4286 6:1 7:5 8:0.2381 9:0.1905 10:0.2381 11:0.3333 12:32 13:0.1905 14:4 15:0.4545 16:44 17:0.2727 18:0.2273 19:0.2273 20:0.2727 21:0.15 22:0.83 23:-1 
-0.1078074967843239 1:-1 2:0 3:0 4:23 5:0.4783 6:1 7:5 8:0.2609 9:0.2609 10:0.2174 11:0.2609 12:8 13:0.1818 14:-1 15:0.4348 16:46 17:0.2826 18:0.2174 19:0.2174 20:0.2826 21:0.1429 22:0.86 23:-1 
-0.1750255493151102 1:-1 2:0 3:2 4:24 5:0.3913 6:1 7:5 8:0.2609 9:0.2174 10:0.1739 11:0.3478 12:35 13:0.1556 14:2 15:0.3962 16:53 17:0.3019 18:0.2075 19:0.1887 20:0.3019 21:0.1429 22:1.17 23:0 
-0.09381864304008615 1:-1 2:0 3:0 4:21 5:0.4762 6:1 7:4 8:0.2857 9:0.2381 10:0.2381 11:0.2381 12:10 13:0.15 14:-1 15:0.4524 16:42 17:0.2619 18:0.2143 19:0.2381 20:0.2857 21:0.1053 22:1.29 23:-1 
-0.1748443606439088 1:1 2:2 3:15 4:25 5:0.4783 6:3 7:3 8:0.3043 9:0.2609 10:0.2174 11:0.2174 12:10 13:0.1667 14:4 15:0.4255 16:94 17:0.2872 18:0.2128 19:0.2128 20:0.2872 21:0.12 22:1.33 23:0.1034 
-0.2169134958923523 1:-1 2:0 3:0 4:23 5:0.4091 6:8 7:3 8:0.2727 9:0.2273 10:0.1818 11:0.3182 12:58 13:0.4222 14:4 15:0.375 16:48 17:0.2917 18:0.1875 19:0.1875 20:0.3333 21:0.1034 22:0 23:-1 
-0.1040543382449065 1:1 2:2 3:12 4:22 5:0.4091 6:1 7:2 8:0.3182 9:0.2727 10:0.1364 11:0.2727 12:14 13:0.0909 14:3 15:0.3929 16:84 17:0.2976 18:0.1905 19:0.2024 20:0.3095 21:0.0769 22:1.43 23:0.1304 
-0.1434703530924601 1:1 2:2 3:13 4:22 5:0.4091 6:1 7:3 8:0.3182 9:0.1364 10:0.2727 11:0.2727 12:77 13:0.1163 14:3 15:0.4 16:85 17:0.2941 18:0.2 19:0.2 20:0.3059 21:0.0909 22:0.88 23:0.12 
-0.05548948612131825 1:4 2:3 3:18 4:20 5:0.45 6:1 7:3 8:0.15 9:0.2 10:0.25 11:0.4 12:72 13:0.1053 14:3 15:0.4483 16:87 17:0.2644 18:0.2644 19:0.1839 20:0.2874 21:0.2055 22:1.43 23:0.3143 
-0.1016523961355605 1:3 2:2 3:13 4:22 5:0.5238 6:1 7:4 8:0.2381 9:0.3333 10:0.1905 11:0.2381 12:7 13:0.1628 14:1 15:0.4756 16:82 17:0.2561 18:0.2805 19:0.1951 20:0.2683 21:0.2059 22:1.57 23:0.28 
-0.1149302084366865 1:1 2:1 3:9 4:25 5:0.5 6:4 7:4 8:0.2083 9:0.3333 10:0.1667 11:0.2917 12:8 13:0.25 14:3 15:0.4625 16:80 17:0.2625 18:0.275 19:0.1875 20:0.275 21:0.2121 22:3.33 23:0.1111 
-0.1334075966843789 1:4 2:2 3:15 4:21 5:0.4286 6:1 7:4 8:0.1905 9:0.1905 10:0.2381 11:0.381 12:69 13:0.15 14:4 15:0.4699 16:83 17:0.253 18:0.2771 19:0.1928 20:0.2771 21:0.2174 22:0.88 23:0.3103 
-0.07269510800108761 1:-1 2:0 3:0 4:24 5:0.4583 6:6 7:4 8:0.3333 9:0.25 10:0.2083 11:0.2083 12:48 13:0.4894 14:-1 15:0.4082 16:49 17:0.2857 18:0.2653 19:0.1429 20:0.3061 21:0.3143 22:0 23:-1 
-0.04523306114043139 1:4 2:2 3:14 4:21 5:0.4762 6:1 7:3 8:0.1905 9:0.1905 10:0.2857 11:0.3333 12:68 13:0.122 14:4 15:0.4756 16:82 17:0.2561 18:0.2805 19:0.1951 20:0.2683 21:0.2059 22:0.64 23:0.3333 
-0.2000633415836159 1:4 2:3 3:18 4:24 5:0.5455 6:1 7:4 8:0.3182 9:0.2727 10:0.2727 11:0.1364 12:1 13:0.1111 14:1 15:0.4468 16:94 17:0.2553 18:0.2553 19:0.1915 20:0.2979 21:0.2 22:0.7 23:0.3143 
-0.1020694169431771 1:1 2:1 3:8 4:25 5:0.5 6:4 7:4 8:0.2083 9:0.3333 10:0.1667 11:0.2917 12:9 13:0.25 14:3 15:0.4487 16:78 17:0.2692 18:0.2692 19:0.1795 20:0.2821 21:0.2188 22:1.67 23:0.125 
-0.1482112076516648 1:5 2:3 3:20 4:21 5:0.5714 6:1 7:2 8:0.1905 9:0.1905 10:0.381 11:0.2381 12:66 13:0.0952 14:2 15:0.4815 16:81 17:0.2346 18:0.2346 19:0.2469 20:0.284 21:0.2 22:0.7 23:0.3333 
-0.5258992263841834 1:1 2:1 3:5 4:24 5:0.4783 6:5 7:3 8:0.1739 9:0.3043 10:0.1739 11:0.3478 12:52 13:0.2857 14:4 15:0.4561 16:57 17:0.2456 18:0.2456 19:0.2105 20:0.2982 21:0.2549 22:0 23:0.1111 
-0.1788319784711293 1:5 2:3 3:22 4:21 5:0.4762 6:1 7:2 8:0.1905 9:0.2857 10:0.1905 11:0.3333 12:4 13:0.0952 14:4 15:0.5059 16:85 17:0.2235 18:0.2471 19:0.2588 20:0.2706 21:0.1899 22:1.5 23:0.2973 
-0.16290931819759 1:-1 2:0 3:0 4:28 5:0.4091 6:5 7:4 8:0.2727 9:0.1818 10:0.2273 11:0.3182 12:19 13:0.2653 14:1 15:0.4364 16:55 17:0.2545 18:0.2364 19:0.2 20:0.3091 21:0.2653 22:0.9 23:-1 
-0.0357203858768986 1:5 2:3 3:18 4:24 5:0.4583 6:1 7:3 8:0.2083 9:0.25 10:0.2083 11:0.3333 12:5 13:0.125 14:2 15:0.494 16:83 17:0.2289 18:0.241 19:0.253 20:0.2771 21:0.1948 22:1.57 23:0.3103 
-0.06976510624367463 1:1 2:1 3:4 4:22 5:0.4762 6:5 7:3 8:0.1905 9:0.2857 10:0.1905 11:0.3333 12:51 13:0.3158 14:4 15:0.4706 16:51 17:0.2353 18:0.2549 19:0.2157 20:0.2941 21:0.2889 22:0.25 23:0.1429 
-0.157891322155585 1:3 2:2 3:26 4:20 5:0.5 6:4 7:3 8:0.25 9:0.35 10:0.15 11:0.25 12:5 13:0.2571 14:1 15:0.4706 16:102 17:0.2843 18:0.2647 19:0.2059 20:0.2451 21:0.186 22:0 23:0.1373 
-0.0527519186460441 1:3 2:2 3:23 4:24 5:0.5 6:5 7:3 8:0.2083 9:0.2917 10:0.2083 11:0.2917 12:4 13:0.2381 14:2 15:0.4757 16:103 17:0.2816 18:0.2621 19:0.2136 20:0.2427 21:0.1954 22:0 23:0.1556 
-0.1889786889102858 1:3 2:2 3:22 4:21 5:0.5714 6:2 7:3 8:0.2381 9:0.3333 10:0.2381 11:0.1905 12:8 13:0.15 14:1 15:0.4848 16:99 17:0.2929 18:0.2727 19:0.2121 20:0.2222 21:0.1566 22:0.7 23:0.1628 
-0.2447922896658886 1:3 2:2 3:17 4:22 5:0.5714 6:2 7:2 8:0.2857 9:0.3333 10:0.2381 11:0.1429 12:83 13:0.1163 14:1 15:0.5 16:92 17:0.2826 18:0.2826 19:0.2174 20:0.2174 21:0.1579 22:1.12 23:0.2121 
-0.1491416195556198 1:3 2:1 3:14 4:20 5:0.45 6:1 7:2 8:0.15 9:0.25 10:0.2 11:0.4 12:17 13:0.0769 14:3 15:0.4756 16:82 17:0.3049 18:0.2561 19:0.2195 20:0.2195 21:0.1212 22:1.33 23:0.1852 
-0.2260705485238556 1:2 2:1 3:9 4:24 5:0.5417 6:1 7:3 8:0.125 9:0.2917 10:0.25 11:0.3333 12:18 13:0.1064 14:2 15:0.4625 16:80 17:0.3125 18:0.25 19:0.2125 20:0.225 21:0.125 22:1 23:0.1765 
-0.1937427014945126 1:3 2:1 3:11 4:23 5:0.5 6:1 7:2 8:0.3636 9:0.1818 10:0.3182 11:0.1364 12:77 13:0.0667 14:2 15:0.4756 16:82 17:0.3049 18:0.2561 19:0.2195 20:0.2195 21:0.1212 22:0.73 23:0.2381 
-0.1793614634771939 1:3 2:2 3:17 4:22 5:0.5455 6:2 7:2 8:0.1364 9:0.2727 10:0.2727 11:0.3182 12:12 13:0.1163 14:1 15:0.5 16:92 17:0.2826 18:0.2826 19:0.2174 20:0.2174 21:0.1579 22:0.89 23:0.2121 
-0.1759234362370146 1:6 2:1 3:18 4:25 5:0.4762 6:4 7:2 8:0.2857 9:0.2381 10:0.2381 11:0.2381 12:74 13:0.1739 14:3 15:0.439 16:82 17:0.1707 18:0.2073 19:0.2317 20:0.3902 21:0.2051 22:0.45 23:0.25 
-0.2559371685058825 1:6 2:3 3:26 4:20 5:0.5 6:2 7:1 8:0.1 9:0.15 10:0.35 11:0.4 12:10 13:0.0769 14:4 15:0.4483 16:87 17:0.1609 18:0.2184 19:0.2299 20:0.3908 21:0.2289 22:0.67 23:0.3636 
-0.186179243122603 1:6 2:3 3:31 4:24 5:0.5417 6:2 7:2 8:0.1667 9:0.2917 10:0.25 11:0.2917 12:1 13:0.087 14:4 15:0.4519 16:104 17:0.1731 18:0.2212 19:0.2308 20:0.375 21:0.2 22:0.6 23:0.2963 
-0.1880634991224399 1:-1 2:0 3:0 4:27 5:0.375 6:6 7:4 8:0.1667 9:0.2083 10:0.1667 11:0.4583 12:54 13:0.3913 14:-1 15:0.4167 16:48 17:0.125 18:0.2083 19:0.2083 20:0.4583 21:0.3636 22:1.4 23:-1 
-0.1924954783637369 1:6 2:3 3:29 4:22 5:0.5455 6:2 7:1 8:0.0909 9:0.2727 10:0.2727 11:0.3636 12:5 13:0.0698 14:2 15:0.4742 16:97 17:0.1546 18:0.2268 19:0.2474 20:0.3711 21:0.2043 22:1.22 23:0.32 
-0.7008631268983514 1:-1 2:0 3:3 4:27 5:0.3913 6:6 7:3 8:0.087 9:0.1304 10:0.2609 11:0.5217 12:26 13:0.3478 14:1 15:0.3929 16:56 17:0.1607 18:0.1964 19:0.1964 20:0.4464 21:0.3077 22:1.8 23:0 
-0.08398129938582749 1:-1 2:0 3:0 4:24 5:0.4286 6:6 7:3 8:0.0952 9:0.1429 10:0.2857 11:0.4762 12:33 13:0.35 14:-1 15:0.4048 16:42 17:0.1429 18:0.1905 19:0.2143 20:0.4524 21:0.3158 22:0.29 23:-1 
-0.06180735709527192 1:1 2:4 3:18 4:24 5:0.5833 6:2 7:4 8:0.0833 9:0.25 10:0.3333 11:0.3333 12:72 13:0.1915 14:2 15:0.4615 16:91 17:0.2857 18:0.1978 19:0.2637 20:0.2527 21:0.1538 22:1.4 23:0.1515 
-0.08469319736400382 1:1 2:4 3:19 4:20 5:0.6 6:1 7:4 8:0.1 9:0.25 10:0.35 11:0.3 12:73 13:0.1795 14:1 15:0.4588 16:85 17:0.2941 18:0.2 19:0.2588 20:0.2471 21:0.1389 22:0.88 23:0.1429 
-0.02487388919939622 1:1 2:5 3:21 4:23 5:0.6087 6:2 7:4 8:0.087 9:0.2609 10:0.3478 11:0.3043 12:75 13:0.2609 14:3 15:0.4632 16:95 17:0.2842 18:0.2 19:0.2632 20:0.2526 21:0.1951 22:2 23:0.1579 
-0.08055316238071281 1:1 2:5 3:25 4:20 5:0.6 6:2 7:4 8:0.2 9:0.3 10:0.3 11:0.2 12:2 13:0.3 14:3 15:0.4742 16:97 17:0.2784 18:0.2062 19:0.268 20:0.2474 21:0.1905 22:0.86 23:0.1304 
-0.00547765795084861 1:1 2:4 3:18 4:25 5:0.5 6:2 7:5 8:0.3333 9:0.2917 10:0.2083 11:0.1667 12:4 13:0.2245 14:4 15:0.4624 16:93 17:0.2903 18:0.2043 19:0.2581 20:0.2473 21:0.175 22:0.56 23:0.1515 
-0.1873456876019597 1:1 2:5 3:24 4:23 5:0.6522 6:2 7:5 8:0.087 9:0.2609 10:0.3913 11:0.2609 12:78 13:0.2889 14:1 15:0.47 16:100 17:0.28 18:0.2 19:0.27 20:0.25 21:0.1954 22:1.6 23:0.1364 
-0.006577819575906751 1:1 2:5 3:24 4:21 5:0.6667 6:2 7:4 8:0.0952 9:0.2857 10:0.381 11:0.2381 12:78 13:0.2857 14:1 15:0.4742 16:97 17:0.2784 18:0.2062 19:0.268 20:0.2474 21:0.1905 22:1.33 23:0.1364 
-0.06459177455532508 1:2 2:4 3:20 4:23 5:0.5217 6:4 7:2 8:0.1739 9:0.3043 10:0.2174 11:0.3043 12:74 13:0.2174 14:2 15:0.4632 16:95 17:0.3053 18:0.2105 19:0.2526 20:0.2316 21:0.175 22:0.9 23:0.1667 
-0.120185977505216 1:2 2:4 3:24 4:20 5:0.55 6:4 7:2 8:0.25 9:0.15 10:0.4 11:0.2 12:1 13:0.25 14:4 15:0.4536 16:97 17:0.3093 18:0.2062 19:0.2474 20:0.2371 21:0.1707 22:1 23:0.1364 
-0.02998606012838592 1:2 2:3 3:15 4:21 5:0.6 6:1 7:3 8:0.1 9:0.25 10:0.35 11:0.3 12:9 13:0.122 14:1 15:0.4568 16:81 17:0.2963 18:0.2222 19:0.2346 20:0.2469 21:0.1212 22:0.82 23:0.1852 
-0.02638862143304185 1:2 2:4 3:22 4:23 5:0.4783 6:4 7:3 8:0.2174 9:0.2609 10:0.2174 11:0.3043 12:76 13:0.2444 14:2 15:0.449 16:98 17:0.3163 18:0.2041 19:0.2449 20:0.2347 21:0.1807 22:1.29 23:0.15 
-1 1:1 2:1 3:3 4:23 5:0.3636 6:3 7:3 8:0.2727 9:0.1818 10:0.1818 11:0.3636 12:28 13:0.1707 14:3 15:0.3704 16:54 17:0.3148 18:0.1852 19:0.1852 20:0.3148 21:0.1556 22:3.33 23:0.3333 
-0.02807342211146301 1:-1 2:0 3:0 4:24 5:0.4 6:4 7:3 8:0.35 9:0.1 10:0.3 11:0.25 12:57 13:0.3182 14:-1 15:0.3556 16:45 17:0.3111 18:0.1778 19:0.1778 20:0.3333 21:0.1667 22:0 23:-1 
-0.1401939573783338 1:3 2:4 3:27 4:23 5:0.5714 6:10 7:2 8:0.2857 9:0.3333 10:0.2381 11:0.1429 12:6 13:0.4545 14:4 15:0.43 16:100 17:0.31 18:0.23 19:0.2 20:0.26 21:0.2967 22:0.2 23:0.1837 
-0.1305352013900747 1:3 2:3 3:17 4:27 5:0.625 6:5 7:4 8:0.1667 9:0.2917 10:0.3333 11:0.2083 12:12 13:0.24 14:1 15:0.4659 16:88 17:0.2727 18:0.2386 19:0.2273 20:0.2614 21:0.2152 22:0.38 23:0.2258 
-0.1712875096747075 1:3 2:4 3:31 4:24 5:0.5 6:10 7:3 8:0.3636 9:0.3182 10:0.1818 11:0.1364 12:1 13:0.4667 14:3 15:0.4312 16:109 17:0.3119 18:0.2294 19:0.2018 20:0.2569 21:0.28 22:0.88 23:0.1579 
-0.07090054684484892 1:3 2:3 3:21 4:27 5:0.5833 6:9 7:3 8:0.25 9:0.2917 10:0.2917 11:0.1667 12:8 13:0.3725 14:3 15:0.4479 16:96 17:0.2917 18:0.2396 19:0.2083 20:0.2604 21:0.2874 22:0 23:0.2105 
-0.04132388779180063 1:3 2:3 3:20 4:26 5:0.5652 6:7 7:3 8:0.2609 9:0.2609 10:0.3043 11:0.1739 12:10 13:0.3061 14:1 15:0.4457 16:92 17:0.2935 18:0.2283 19:0.2174 20:0.2609 21:0.253 22:0 23:0.2222 
-0.1543063148049823 1:3 2:4 3:26 4:25 5:0.5652 6:10 7:2 8:0.3043 9:0.3043 10:0.2609 11:0.1304 12:5 13:0.4167 14:1 15:0.4412 16:102 17:0.3039 18:0.2353 19:0.2059 20:0.2549 21:0.2903 22:0.56 23:0.1915 
-0.05543612198173502 1:3 2:3 3:20 4:20 5:0.5 6:7 7:1 8:0.4 9:0.05 10:0.45 11:0.1 12:13 13:0.2973 14:3 15:0.4471 16:85 17:0.2353 18:0.2 19:0.2471 20:0.3176 21:0.2533 22:0.8 23:0.2105 
-0.1693624568627753 1:1 2:2 3:13 4:23 5:0.55 6:6 7:2 8:0.15 9:0.25 10:0.3 11:0.3 12:74 13:0.3333 14:1 15:0.4286 16:77 17:0.2338 18:0.1948 19:0.2338 20:0.3377 21:0.2537 22:2.33 23:0.12 
-0.2743331673351173 1:3 2:3 3:20 4:28 5:0.3913 6:7 7:2 8:0.2174 9:0.3043 10:0.087 11:0.3913 12:81 13:0.3725 14:2 15:0.4141 16:99 17:0.2727 18:0.1818 19:0.2323 20:0.3131 21:0.3034 22:5 23:0.2105 
-0.01057267502284968 1:2 2:3 3:18 4:25 5:0.4545 6:7 7:2 8:0.1364 9:0.3182 10:0.1364 11:0.4091 12:79 13:0.2766 14:1 15:0.4286 16:91 17:0.2418 18:0.1868 19:0.2418 20:0.3297 21:0.2346 22:0.89 23:0.1765 
-0.1637613891127725 1:1 2:2 3:15 4:25 5:0.5 6:7 7:2 8:0.1818 9:0.3182 10:0.1818 11:0.3182 12:76 13:0.3478 14:1 15:0.4471 16:85 17:0.2353 18:0.2 19:0.2471 20:0.3176 21:0.2533 22:0.25 23:0.1034 
-0.1416912083491846 1:1 2:2 3:15 4:25 5:0.5417 6:7 7:2 8:0.3333 9:0.125 10:0.4167 11:0.125 12:13 13:0.3478 14:3 15:0.4471 16:85 17:0.2353 18:0.2 19:0.2471 20:0.3176 21:0.2533 22:1.6 23:0.1034 
-0.08925520517123547 1:2 2:3 3:17 4:26 5:0.5417 6:5 7:3 8:0.375 9:0.1667 10:0.375 11:0.0833 12:1 13:0.28 14:3 15:0.5165 16:91 17:0.2088 18:0.2418 19:0.2747 20:0.2747 21:0.2771 22:1.38 23:0.2727 
-0.09281531689510857 1:2 2:4 3:21 4:22 5:0.5238 6:5 7:2 8:0.381 9:0.1429 10:0.381 11:0.0952 12:1 13:0.2558 14:2 15:0.5165 16:91 17:0.2088 18:0.2418 19:0.2747 20:0.2747 21:0.2771 22:1.1 23:0.3 
-0.003171964254621185 1:2 2:4 3:19 4:20 5:0.5 6:5 7:2 8:0.1 9:0.3 10:0.2 11:0.4 12:68 13:0.2821 14:2 15:0.494 16:83 17:0.2169 18:0.2289 19:0.2651 20:0.2892 21:0.3067 22:1.38 23:0.3333 
-0.07879425070091001 1:2 2:4 3:19 4:21 5:0.55 6:5 7:2 8:0.35 9:0.15 10:0.4 11:0.1 12:4 13:0.2683 14:2 15:0.5059 16:85 17:0.2118 18:0.2353 19:0.2706 20:0.2824 21:0.2987 22:1 23:0.3333 
-0.05010628374359217 1:2 2:3 3:15 4:23 5:0.5652 6:5 7:2 8:0.1304 9:0.3043 10:0.2609 11:0.3043 12:64 13:0.2889 14:2 15:0.5 16:82 17:0.2195 18:0.2317 19:0.2683 20:0.2805 21:0.2973 22:0.5 23:0.3103 
-0.1260877658123342 1:3 2:6 3:27 4:23 5:0.4783 6:3 7:4 8:0.1304 9:0.3478 10:0.1304 11:0.3913 12:72 13:0.2889 14:2 15:0.5 16:94 17:0.1809 18:0.266 19:0.234 20:0.3191 21:0.2967 22:1.57 23:0.3333 
-0.01910800910474414 1:3 2:5 3:23 4:22 5:0.5238 6:3 7:4 8:0.0952 9:0.4286 10:0.0952 11:0.381 12:69 13:0.3488 14:1 15:0.5294 16:85 17:0.1647 18:0.2824 19:0.2471 20:0.3059 21:0.3171 22:1.33 23:0.3171 
-0.9952902265023846 1:2 2:2 3:7 4:23 5:0.5217 6:3 7:5 8:0.2609 9:0.1739 10:0.3478 11:0.2174 12:20 13:0.2857 14:3 15:0.5455 16:55 17:0.1636 18:0.2909 19:0.2545 20:0.2909 21:0.2692 22:1.29 23:0.3333 
-0.09094008873303283 1:3 2:6 3:27 4:22 5:0.5455 6:3 7:3 8:0.2273 9:0.1818 10:0.3636 11:0.2273 12:1 13:0.2727 14:4 15:0.5054 16:93 17:0.1828 18:0.2688 19:0.2366 20:0.3118 21:0.2889 22:0.82 23:0.3333 
-0.1278217667017028 1:-1 2:0 3:0 4:27 5:0.5 6:3 7:6 8:0.1364 9:0.3636 10:0.1364 11:0.3636 12:50 13:0.3333 14:-1 15:0.4898 16:49 17:0.1837 18:0.2653 19:0.2245 20:0.3265 21:0.3043 22:1.8 23:-1 
-1 1:3 2:2 3:10 4:23 5:0.45 6:3 7:5 8:0.2 9:0.4 10:0.05 11:0.35 12:58 13:0.3023 14:3 15:0.5082 16:61 17:0.1967 18:0.2623 19:0.2459 20:0.2951 21:0.2759 22:1.14 23:0.2941 
-0.001111476961731988 1:2 2:5 3:24 4:22 5:0.5 6:2 7:4 8:0.3 9:0.35 10:0.15 11:0.2 12:7 13:0.2195 14:1 15:0.4944 16:89 17:0.2584 18:0.236 19:0.2584 20:0.2472 21:0.2143 22:0.9 23:0.2444 
-0.08468367859048835 1:2 2:5 3:19 4:26 5:0.4583 6:2 7:5 8:0.2083 9:0.3333 10:0.125 11:0.3333 12:8 13:0.2245 14:1 15:0.5057 16:87 17:0.2529 18:0.2414 19:0.2644 20:0.2414 21:0.2195 22:1.29 23:0.2571 
-0.08382366733255013 1:2 2:5 3:28 4:24 5:0.4091 6:4 7:5 8:0.3182 9:0.2727 10:0.1364 11:0.2727 12:1 13:0.3636 14:3 15:0.47 16:100 17:0.26 18:0.23 19:0.24 20:0.27 21:0.2632 22:0 23:0.2075 
-0.08061926685525096 1:4 2:2 3:12 4:24 5:0.5417 6:2 7:2 8:0.125 9:0.25 10:0.2917 11:0.3333 12:1 13:0.125 14:1 15:0.5185 16:81 17:0.2469 18:0.2346 19:0.284 20:0.2346 21:0.1765 22:1.83 23:0.3636 
-0.0104666131507086 1:-1 2:0 3:0 4:24 5:0.4091 6:4 7:3 8:0.5455 9:0.2273 10:0.1818 11:0.0455 12:45 13:0.3478 14:4 15:0.4314 16:51 17:0.3137 18:0.1961 19:0.2353 20:0.2549 21:0.2105 22:0 23:-1 
-0.1094407899867077 1:4 2:2 3:12 4:23 5:0.6522 6:2 7:2 8:0.2174 9:0.2609 10:0.3913 11:0.1304 12:58 13:0.1304 14:2 15:0.5063 16:79 17:0.2532 18:0.2278 19:0.2785 20:0.2405 21:0.1818 22:0.55 23:0.3636 
-0.04501995425446811 1:4 2:2 3:14 4:22 5:0.5909 6:2 7:2 8:0.0909 9:0.2727 10:0.3182 11:0.3182 12:1 13:0.1364 14:4 15:0.5185 16:81 17:0.2469 18:0.2346 19:0.284 20:0.2346 21:0.1765 22:1.57 23:0.3077 
-0.00675934961315483 1:4 2:2 3:15 4:20 5:0.7 6:2 7:2 8:0.2 9:0.3 10:0.4 11:0.1 12:61 13:0.15 14:2 15:0.5063 16:79 17:0.2532 18:0.2278 19:0.2785 20:0.2405 21:0.1818 22:0.73 23:0.2857 
-0.004912876285012052 1:4 2:2 3:14 4:23 5:0.6522 6:2 7:3 8:0.2609 9:0.2609 10:0.3913 11:0.087 12:60 13:0.1556 14:2 15:0.5122 16:82 17:0.2561 18:0.2317 19:0.2805 20:0.2317 21:0.1884 22:0.88 23:0.3077 
-0.1466775076468484 1:4 2:4 3:34 4:24 5:0.5652 6:3 7:5 8:0.2609 9:0.2609 10:0.3043 11:0.1739 12:1 13:0.381 14:2 15:0.5093 16:108 17:0.2407 18:0.2593 19:0.25 20:0.25 21:0.25 22:1 23:0.1613 
-0.2541091211693696 1:4 2:3 3:29 4:29 5:0.6087 6:3 7:6 8:0.2174 9:0.3478 10:0.2609 11:0.1739 12:86 13:0.3333 14:1 15:0.5093 16:108 17:0.2407 18:0.2593 19:0.25 20:0.25 21:0.25 22:1.83 23:0.1698 
-0.1736261389709748 1:4 2:3 3:26 4:27 5:0.619 6:3 7:5 8:0.1905 9:0.381 10:0.2381 11:0.1905 12:83 13:0.25 14:2 15:0.5051 16:99 17:0.2424 18:0.2525 19:0.2525 20:0.2525 21:0.2211 22:1.57 23:0.1915 
-0.1448927983483631 1:4 2:3 3:21 4:29 5:0.5652 6:3 7:4 8:0.1739 9:0.3913 10:0.1739 11:0.2609 12:78 13:0.1923 14:2 15:0.5054 16:93 17:0.2473 18:0.2581 19:0.2473 20:0.2473 21:0.2135 22:1.12 23:0.2432 
-0.02297241675443751 1:-1 2:0 3:0 4:26 5:0.4545 6:4 7:4 8:0.2727 9:0.1818 10:0.2727 11:0.2727 12:33 13:0.234 14:-1 15:0.4082 16:49 17:0.2653 18:0.2041 19:0.2041 20:0.3265 21:0.2 22:1.29 23:-1 
-0.1813217723726686 1:4 2:2 3:17 4:26 5:0.5217 6:3 7:3 8:0.087 9:0.3043 10:0.2174 11:0.3913 12:74 13:0.1837 14:3 15:0.5122 16:82 17:0.2195 18:0.2561 19:0.2561 20:0.2683 21:0.1795 22:0.5 23:0.1724 
-0.1686630154232194 1:2 2:4 3:19 4:28 5:0.4348 6:3 7:5 8:0.4348 9:0.1739 10:0.2609 11:0.1304 12:78 13:0.2941 14:4 15:0.4318 16:88 17:0.2727 18:0.1932 19:0.2386 20:0.2955 21:0.2471 22:1.29 23:0.2222 
-0.1729164799391001 1:2 2:7 3:33 4:22 5:0.3636 6:5 7:3 8:0.2273 9:0.1818 10:0.1818 11:0.4091 12:5 13:0.3714 14:1 15:0.4141 16:99 17:0.2929 18:0.1818 19:0.2323 20:0.2929 21:0.2708 22:0 23:0.2381 
-0.2762851333581314 1:2 2:5 3:26 4:31 5:0.4091 6:7 7:5 8:0.5 9:0.0909 10:0.3182 11:0.0909 12:84 13:0.434 14:4 15:0.4078 16:103 17:0.2913 18:0.1748 19:0.233 20:0.301 21:0.3 22:1.6 23:0.1837 
-0.06682971651834592 1:2 2:6 3:30 4:20 5:0.4 6:3 7:3 8:0.1 9:0.25 10:0.15 11:0.5 12:10 13:0.3333 14:4 15:0.4255 16:94 17:0.2766 18:0.1915 19:0.234 20:0.2979 21:0.2308 22:2 23:0.193 
-0.05091134012614644 1:2 2:6 3:28 4:24 5:0.375 6:3 7:4 8:0.1667 9:0.25 10:0.125 11:0.4583 12:8 13:0.3333 14:3 15:0.4167 16:96 17:0.2812 18:0.1875 19:0.2292 20:0.3021 21:0.2473 22:1 23:0.2075 
-0.1813510973566157 1:2 2:7 3:31 4:20 5:0.4 6:3 7:4 8:0.15 9:0.25 10:0.15 11:0.45 12:9 13:0.3143 14:4 15:0.4211 16:95 17:0.2842 18:0.1895 19:0.2316 20:0.2947 21:0.2391 22:0.88 23:0.2203 
-0.1819144436778402 1:-1 2:0 3:0 4:25 5:0.4348 6:2 7:5 8:0.3043 9:0.2609 10:0.1739 11:0.2609 12:60 13:0.1915 14:-1 15:0.4375 16:48 17:0.25 18:0.1667 19:0.2708 20:0.3125 21:0.1556 22:0.7 23:-1 
-0.06847715159322651 1:2 2:5 3:25 4:23 5:0.4348 6:3 7:4 8:0.1304 9:0.3043 10:0.1304 11:0.4348 12:12 13:0.3333 14:2 15:0.4222 16:90 17:0.2778 18:0.1889 19:0.2333 20:0.3 21:0.2414 22:1.12 23:0.1915 
-0.07615413480899361 1:3 2:4 3:19 4:22 5:0.5 6:8 7:3 8:0.2273 9:0.4091 10:0.0909 11:0.2727 12:9 13:0.3846 14:4 15:0.4353 16:85 17:0.2824 18:0.2706 19:0.1647 20:0.2824 21:0.3056 22:0 23:0.2571 
-0.1645646441672661 1:2 2:4 3:18 4:28 5:0.4783 6:8 7:4 8:0.3478 9:0.1739 10:0.3043 11:0.1739 12:76 13:0.36 14:4 15:0.4574 16:94 17:0.266 18:0.2766 19:0.1809 20:0.2766 21:0.284 22:0.62 23:0.2121 
-0.03167274529187367 1:4 2:5 3:26 4:22 5:0.5238 6:8 7:2 8:0.1905 9:0.381 10:0.1429 11:0.2857 12:3 13:0.4211 14:3 15:0.4388 16:98 17:0.2755 18:0.2653 19:0.1735 20:0.2857 21:0.3176 22:0.6 23:0.2653 
-0.02565733602693482 1:2 2:4 3:18 4:23 5:0.4783 6:8 7:3 8:0.2174 9:0.3913 10:0.087 11:0.3043 12:9 13:0.4146 14:4 15:0.4353 16:85 17:0.2824 18:0.2706 19:0.1647 20:0.2824 21:0.3056 22:0 23:0.2121 
-0.1028750203867456 1:-1 2:0 3:0 4:25 5:0.4783 6:6 7:4 8:0.1739 9:0.4348 10:0.0435 11:0.3478 12:30 13:0.4468 14:3 15:0.3958 16:48 17:0.2708 18:0.25 19:0.1458 20:0.3333 21:0.2571 22:4 23:-1 
-0.03083016822699491 1:3 2:5 3:29 4:21 5:0.45 6:6 7:2 8:0.2 9:0.3 10:0.15 11:0.35 12:3 13:0.4595 14:1 15:0.4135 16:104 17:0.2885 18:0.2404 19:0.1731 20:0.2981 21:0.2967 22:0.4 23:0.2143 
-0.0008229682617618139 1:3 2:4 3:23 4:20 5:0.6 6:6 7:2 8:0.15 9:0.45 10:0.15 11:0.25 12:9 13:0.2778 14:1 15:0.4615 16:91 17:0.2747 18:0.2747 19:0.1868 20:0.2637 21:0.2308 22:1.22 23:0.2273 
-0.2042067567874335 1:3 2:5 3:25 4:24 5:0.35 6:6 7:2 8:0.45 9:0.1 10:0.25 11:0.2 12:86 13:0.3953 14:4 15:0.4216 16:102 17:0.2843 18:0.2451 19:0.1765 20:0.2941 21:0.3034 22:5 23:0.25 
-0.05407823031105336 1:3 2:4 3:28 4:23 5:0.2609 6:3 7:3 8:0.3478 9:0.1304 10:0.1304 11:0.3913 12:79 13:0.2093 14:4 15:0.3434 16:99 17:0.3737 18:0.1616 19:0.1818 20:0.2828 21:0.2 22:4.5 23:0.1923 
-0.01331951465170211 1:-1 2:0 3:0 4:21 5:0.3 6:2 7:5 8:0.4 9:0.1 10:0.2 11:0.3 12:26 13:0.3 14:1 15:0.3333 16:42 17:0.4048 18:0.1667 19:0.1667 20:0.2619 21:0.2222 22:2 23:-1 
-0.1829997301858491 1:2 2:2 3:12 4:25 5:0.3913 6:2 7:5 8:0.3478 9:0.2609 10:0.1304 11:0.2609 12:62 13:0.1739 14:4 15:0.3421 16:76 17:0.3684 18:0.1711 19:0.1711 20:0.2895 21:0.2 22:1.57 23:0.25 
-0.1520619953210798 1:2 2:4 3:23 4:25 5:0.375 6:8 7:3 8:0.3333 9:0.1667 10:0.2083 11:0.2917 12:72 13:0.3488 14:1 15:0.3656 16:93 17:0.3333 18:0.1828 19:0.1828 20:0.3011 21:0.2644 22:0.64 23:0.1818 
-0.1841416476058148 1:2 2:3 3:17 4:31 5:0.4583 6:8 7:4 8:0.25 9:0.2083 10:0.25 11:0.2917 12:3 13:0.2963 14:2 15:0.3656 16:93 17:0.3333 18:0.1828 19:0.1828 20:0.3011 21:0.2644 22:1.38 23:0.2121 
-0.02847094094594461 1:2 2:4 3:19 4:28 5:0.4545 6:8 7:3 8:0.2273 9:0.2273 10:0.2273 11:0.3182 12:4 13:0.3061 14:4 15:0.3736 16:91 17:0.3297 18:0.1868 19:0.1868 20:0.2967 21:0.2706 22:1 23:0.2222 
-0.1887978707705351 1:2 2:4 3:24 4:21 5:0.35 6:8 7:3 8:0.4 9:0.2 10:0.15 11:0.25 12:73 13:0.4286 14:2 15:0.3448 16:87 17:0.3448 18:0.1724 19:0.1724 20:0.3103 21:0.284 22:1.67 23:0.1739 
-0.3480907718581309 1:1 2:4 3:13 4:23 5:0.6522 6:2 7:3 8:0.087 9:0.3043 10:0.3478 11:0.2609 12:14 13:0.1739 14:4 15:0.5616 16:73 17:0.1918 18:0.2877 19:0.274 20:0.2466 21:0.1765 22:1.4 23:0.25 
-0.1159297818902814 1:2 2:6 3:25 4:20 5:0.45 6:2 7:2 8:0.2 9:0.2 10:0.25 11:0.35 12:5 13:0.1579 14:4 15:0.5393 16:89 17:0.2022 18:0.2697 19:0.2697 20:0.2584 21:0.1905 22:0.4 23:0.25 
-0.03738785750331965 1:2 2:6 3:20 4:23 5:0.6522 6:2 7:1 8:0.1304 9:0.3043 10:0.3478 11:0.2174 12:71 13:0.087 14:2 15:0.5517 16:87 17:0.1839 18:0.2759 19:0.2759 20:0.2644 21:0.1707 22:1.11 23:0.3158 
-0.02897389202471238 1:2 2:5 3:18 4:20 5:0.65 6:2 7:2 8:0.1 9:0.35 10:0.3 11:0.25 12:69 13:0.15 14:3 15:0.5584 16:77 17:0.1818 18:0.2857 19:0.2727 20:0.2597 21:0.1944 22:1.6 23:0.2941 
-0.580493363022636 1:-1 2:0 3:0 4:27 5:0.5 6:2 7:4 8:0.1667 9:0.2917 10:0.2083 11:0.3333 12:14 13:0.283 14:1 15:0.3889 16:54 17:0.2778 18:0.1852 19:0.2037 20:0.3333 21:0.2245 22:1 23:-1 
-0.06215137368976073 1:-1 2:0 3:0 4:23 5:0.4762 6:2 7:3 8:0.1905 9:0.381 10:0.0952 11:0.3333 12:18 13:0.2444 14:4 15:0.3696 16:46 17:0.3043 18:0.1957 19:0.1739 20:0.3261 21:0.1707 22:1.8 23:-1 
-0.08528159608739451 1:-1 2:0 3:0 4:23 5:0.3043 6:2 7:3 8:0.3913 9:0.087 10:0.2174 11:0.3043 12:42 13:0.2 14:3 15:0.3958 16:48 17:0.2917 18:0.2083 19:0.1875 20:0.3125 21:0.1628 22:0.89 23:-1 
-0.1095096659959974 1:-1 2:0 3:0 4:21 5:0.2273 6:2 7:3 8:0.4091 9:0.0455 10:0.1818 11:0.3636 12:40 13:0.2683 14:-1 15:0.381 16:42 17:0.3095 18:0.2143 19:0.1667 20:0.3095 21:0.1892 22:0.56 23:-1 
-0.2039690629009971 1:-1 2:0 3:0 4:21 5:0.2381 6:2 7:3 8:0.4286 9:0.0476 10:0.1905 11:0.3333 12:41 13:0.2683 14:4 15:0.381 16:42 17:0.3095 18:0.2143 19:0.1667 20:0.3095 21:0.1892 22:0.56 23:-1 
-0.07150102842629892 1:5 2:3 3:22 4:24 5:0.3636 6:2 7:4 8:0.3636 9:0.3182 10:0.0455 11:0.2727 12:11 13:0.1818 14:1 15:0.3889 16:90 17:0.3444 18:0.1889 19:0.2 20:0.2667 21:0.2195 22:0.4 23:0.2632 
-0.3372212585368703 1:-1 2:0 3:3 4:24 5:0.4348 6:5 7:4 8:0.3913 9:0.1739 10:0.2609 11:0.1739 12:61 13:0.3 14:4 15:0.4444 16:54 17:0.3148 18:0.2037 19:0.2407 20:0.2407 21:0.2609 22:0.5 23:0 
-0.08669181833341534 1:5 2:2 3:17 4:27 5:0.4167 6:2 7:5 8:0.375 9:0.0833 10:0.3333 11:0.2083 12:75 13:0.1837 14:1 15:0.407 16:86 17:0.3372 18:0.1977 19:0.2093 20:0.2558 21:0.2308 22:1.25 23:0.3103 
-0.3983547577079948 1:5 2:3 3:18 4:22 5:0.5 6:2 7:3 8:0.15 9:0.35 10:0.15 11:0.35 12:17 13:0.122 14:2 15:0.4177 16:79 17:0.3165 18:0.2025 19:0.2152 20:0.2658 21:0.2113 22:0.8 23:0.3333 
-0.1800968627087165 1:5 2:3 3:21 4:22 5:0.45 6:2 7:4 8:0.25 9:0.4 10:0.05 11:0.3 12:14 13:0.15 14:4 15:0.4167 16:84 17:0.3214 18:0.2024 19:0.2143 20:0.2619 21:0.2105 22:0.45 23:0.2778 
-0.07739564378880889 1:5 2:6 3:33 4:22 5:0.5714 6:2 7:3 8:0.2857 9:0.2857 10:0.2857 11:0.1429 12:3 13:0.2093 14:4 15:0.5094 16:106 17:0.283 18:0.2453 19:0.2642 20:0.2075 21:0.2277 22:2 23:0.2667 
-0.1717072320067162 1:5 2:6 3:30 4:22 5:0.6364 6:2 7:3 8:0.2273 9:0.2727 10:0.3636 11:0.1364 12:84 13:0.2093 14:1 15:0.52 16:100 17:0.28 18:0.25 19:0.27 20:0.2 21:0.2421 22:1.11 23:0.2963 
-1 1:3 2:2 3:9 4:24 5:0.4545 6:2 7:5 8:0.2727 9:0.2273 10:0.2273 11:0.2727 12:24 13:0.2273 14:4 15:0.4444 16:63 17:0.3175 18:0.2063 19:0.2381 20:0.2381 21:0.2414 22:2 23:0.375 
-0.09208532679377068 1:5 2:6 3:29 4:25 5:0.5417 6:2 7:3 8:0.2917 9:0.2917 10:0.25 11:0.1667 12:4 13:0.1837 14:2 15:0.5 16:104 17:0.2885 18:0.2404 19:0.2596 20:0.2115 21:0.2323 22:1 23:0.3077 
-1 1:5 2:2 3:11 4:23 5:0.5238 6:2 7:4 8:0.2381 9:0.2857 10:0.2381 11:0.2381 12:23 13:0.1429 14:1 15:0.4615 16:65 17:0.3077 18:0.2154 19:0.2462 20:0.2308 21:0.2333 22:1 23:0.5 
-1 1:5 2:2 3:12 4:22 5:0.55 6:2 7:4 8:0.2 9:0.3 10:0.25 11:0.25 12:23 13:0.15 14:4 15:0.4615 16:65 17:0.3077 18:0.2154 19:0.2462 20:0.2308 21:0.2333 22:0.91 23:0.4545 
-1 1:3 2:2 3:9 4:22 5:0.45 6:2 7:5 8:0.25 9:0.2 10:0.25 11:0.3 12:26 13:0.25 14:4 15:0.4407 16:59 17:0.322 18:0.2034 19:0.2373 20:0.2373 21:0.2593 22:1 23:0.375 
-0.3025599986215572 1:5 2:2 3:12 4:23 5:0.5238 6:2 7:5 8:0.2381 9:0.2857 10:0.2381 11:0.2381 12:22 13:0.1905 14:4 15:0.4627 16:67 17:0.3134 18:0.209 19:0.2537 20:0.2239 21:0.2581 22:0.73 23:0.4545 
-0.08705991942300495 1:2 2:3 3:19 4:24 5:0.5652 6:1 7:3 8:0.1739 9:0.2609 10:0.3043 11:0.2609 12:68 13:0.087 14:4 15:0.5169 16:89 17:0.236 18:0.2697 19:0.2472 20:0.2472 21:0.1111 22:0.83 23:0.1429 
-0.1497936717639515 1:-1 2:0 3:0 4:25 5:0.3913 6:2 7:4 8:0.2609 9:0.1304 10:0.2609 11:0.3478 12:50 13:0.1304 14:3 15:0.4259 16:54 17:0.2963 18:0.2222 19:0.2037 20:0.2778 21:0.1304 22:0.8 23:-1 
-0.4036926402742588 1:-1 2:0 3:1 4:24 5:0.4545 6:2 7:4 8:0.3636 9:0.3182 10:0.1364 11:0.1818 12:19 13:0.1364 14:2 15:0.4259 16:54 17:0.2963 18:0.2222 19:0.2037 20:0.2778 21:0.1304 22:1 23:0 
-0.05184117032517789 1:-1 2:0 3:0 4:22 5:0.4286 6:3 7:4 8:0.3333 9:0.2381 10:0.1905 11:0.2381 12:25 13:0.2683 14:-1 15:0.4186 16:43 17:0.3023 18:0.2093 19:0.2093 20:0.2791 21:0.1429 22:2.33 23:-1 
-0.1076531133090058 1:2 2:3 3:20 4:28 5:0.5833 6:7 7:3 8:0.2917 9:0.3333 10:0.25 11:0.125 12:9 13:0.3462 14:1 15:0.5773 16:97 17:0.2474 18:0.3505 19:0.2268 20:0.1753 21:0.2584 22:0 23:0.1351 
-0.1641409062180834 1:2 2:3 3:24 4:20 5:0.7 6:3 7:3 8:0.2 9:0.4 10:0.3 11:0.1 12:82 13:0.2778 14:1 15:0.5618 16:89 17:0.2472 18:0.3258 19:0.236 20:0.191 21:0.1852 22:1.67 23:0.1111 
-0.07095270491815886 1:2 2:3 3:22 4:27 5:0.6087 6:8 7:3 8:0.2609 9:0.3478 10:0.2609 11:0.1304 12:8 13:0.4 14:4 15:0.5859 16:99 17:0.2424 18:0.3636 19:0.2222 20:0.1717 21:0.2747 22:0 23:0.122 
-0.04304163425238479 1:-1 2:0 3:0 4:22 5:0.4545 6:6 7:3 8:0.3182 9:0.1818 10:0.2727 11:0.2273 12:36 13:0.35 14:1 15:0.4146 16:41 17:0.3171 18:0.1951 19:0.2195 20:0.2683 21:0.2778 22:1.8 23:-1 
-0.1310466083892599 1:6 2:4 3:25 4:23 5:0.6522 6:2 7:4 8:0.2609 9:0.4348 10:0.2174 11:0.087 12:9 13:0.2 14:1 15:0.4731 16:93 17:0.2581 18:0.2473 19:0.2258 20:0.2688 21:0.2727 22:1.43 23:0.3778 
-0.03543617307338947 1:6 2:4 3:25 4:23 5:0.5 6:2 7:4 8:0.0455 9:0.2273 10:0.2727 11:0.4545 12:80 13:0.2 14:1 15:0.4731 16:93 17:0.2581 18:0.2473 19:0.2258 20:0.2688 21:0.2727 22:0.7 23:0.3778 
-0.1548011565349035 1:6 2:5 3:29 4:26 5:0.6667 6:7 7:4 8:0.25 9:0.4583 10:0.2083 11:0.0833 12:4 13:0.3878 14:4 15:0.4667 16:105 17:0.2667 18:0.2476 19:0.219 20:0.2667 21:0.36 22:0 23:0.3585 
-0.1154404188643692 1:6 2:3 3:21 4:26 5:0.4583 6:3 7:5 8:0.1667 9:0.2083 10:0.25 11:0.375 12:77 13:0.28 14:1 15:0.4835 16:91 17:0.2527 18:0.2527 19:0.2308 20:0.2637 21:0.2791 22:0.62 23:0.3158 
-0.1706137269314207 1:6 2:4 3:27 4:21 5:0.5 6:2 7:4 8:0.05 9:0.25 10:0.25 11:0.45 12:82 13:0.2195 14:1 15:0.4731 16:93 17:0.2581 18:0.2473 19:0.2258 20:0.2688 21:0.2727 22:0.7 23:0.3469 
-0.03361466989189765 1:6 2:3 3:21 4:24 5:0.4091 6:3 7:5 8:0.1818 9:0.1364 10:0.2727 11:0.4091 12:77 13:0.3043 14:3 15:0.4598 16:87 17:0.2644 18:0.2414 19:0.2184 20:0.2759 21:0.2927 22:1 23:0.3158 
-0.2729876922919487 1:6 2:3 3:19 4:24 5:0.4091 6:3 7:5 8:0.1818 9:0.0909 10:0.3182 11:0.4091 12:75 13:0.2609 14:1 15:0.4578 16:83 17:0.2651 18:0.2289 19:0.2289 20:0.2771 21:0.2821 22:0.62 23:0.3529 
-0.03026714185093588 1:3 2:3 3:24 4:25 5:0.5 6:3 7:3 8:0.1818 9:0.1818 10:0.3182 11:0.3182 12:82 13:0.2609 14:1 15:0.4271 16:96 17:0.3646 18:0.2188 19:0.2083 20:0.2083 21:0.2444 22:3.33 23:0.2273 
-0.135796870318689 1:3 2:3 3:29 4:26 5:0.5652 6:6 7:3 8:0.1739 9:0.1739 10:0.3913 11:0.2609 12:87 13:0.375 14:2 15:0.4537 16:108 17:0.3519 18:0.2222 19:0.2315 20:0.1944 21:0.2745 22:0.56 23:0.1852 
-0.008964061566939225 1:3 2:3 3:25 4:20 5:0.45 6:3 7:2 8:0.45 9:0.3 10:0.15 11:0.1 12:11 13:0.1892 14:4 15:0.4157 16:89 17:0.3596 18:0.2247 19:0.191 20:0.2247 21:0.2048 22:0.9 23:0.2174 
-0.1237947281485752 1:1 2:1 3:9 4:25 5:0.4783 6:3 7:4 8:0.1304 9:0.2609 10:0.2174 11:0.3913 12:2 13:0.25 14:1 15:0.4103 16:78 17:0.3205 18:0.2051 19:0.2051 20:0.2692 21:0.2121 22:1 23:0.1111 
-0.213259541750693 1:1 2:1 3:10 4:24 5:0.4167 6:3 7:4 8:0.3333 9:0.2083 10:0.2083 11:0.25 12:56 13:0.2609 14:1 15:0.4103 16:78 17:0.3205 18:0.2051 19:0.2051 20:0.2692 21:0.2121 22:1.2 23:0.1 
-0.190668972187348 1:-1 2:0 3:0 4:21 5:0.4 6:4 7:3 8:0.2 9:0.1 10:0.3 11:0.4 12:18 13:0.3659 14:3 15:0.4222 16:45 17:0.3333 18:0.2222 19:0.2 20:0.2444 21:0.2121 22:5 23:-1 
-0.08736181568940857 1:2 2:2 3:14 4:21 5:0.381 6:3 7:4 8:0.381 9:0.1429 10:0.2381 11:0.2381 12:60 13:0.2683 14:1 15:0.4125 16:80 17:0.325 18:0.2125 19:0.2 20:0.2625 21:0.2353 22:3.5 23:0.1852 
-0.02311491041632466 1:2 2:4 3:22 4:20 5:0.4 6:5 7:2 8:0.45 9:0.1 10:0.3 11:0.15 12:8 13:0.2 14:4 15:0.3605 16:86 17:0.3372 18:0.1628 19:0.1977 20:0.3023 21:0.1733 22:0.67 23:0.1905 
-0.1061553560790769 1:1 2:3 3:14 4:26 5:0.3636 6:5 7:2 8:0.1818 9:0.1818 10:0.1818 11:0.4545 12:71 13:0.1915 14:3 15:0.3494 16:83 17:0.3373 18:0.1566 19:0.1928 20:0.3133 21:0.1667 22:0.71 23:0.1852 
-0.05514991186648389 1:1 2:3 3:14 4:25 5:0.4167 6:5 7:2 8:0.375 9:0.1667 10:0.25 11:0.2083 12:11 13:0.2 14:4 15:0.3333 16:81 17:0.3457 18:0.1481 19:0.1852 20:0.321 21:0.1714 22:0 23:0.1852 
-0.01685637354564907 1:2 2:4 3:22 4:23 5:0.4286 6:7 7:4 8:0.4762 9:0.2857 10:0.1429 11:0.0952 12:11 13:0.5 14:4 15:0.4835 16:91 17:0.2418 18:0.2418 19:0.2418 20:0.2747 21:0.3563 22:0 23:0.2093 
-0.04725149814534398 1:2 2:3 3:16 4:26 5:0.4167 6:4 7:5 8:0.4583 9:0.2083 10:0.2083 11:0.125 12:14 13:0.3469 14:4 15:0.4706 16:85 17:0.2353 18:0.2118 19:0.2588 20:0.2941 21:0.3086 22:0.62 23:0.25 
-0.01897835399238439 1:2 2:5 3:30 4:26 5:0.4783 6:9 7:4 8:0.3478 9:0.3478 10:0.1304 11:0.1739 12:1 13:0.4694 14:3 15:0.4732 16:112 17:0.2411 18:0.2321 19:0.2411 20:0.2857 21:0.3333 22:1.8 23:0.2203 
-0.1613459931618884 1:2 2:5 3:29 4:27 5:0.5 6:9 7:4 8:0.3333 9:0.375 10:0.125 11:0.1667 12:1 13:0.451 14:2 15:0.4732 16:112 17:0.2411 18:0.2321 19:0.2411 20:0.2857 21:0.3333 22:1.12 23:0.2281 
-0.07310890985808506 1:2 2:6 3:31 4:24 5:0.4762 6:9 7:3 8:0.3333 9:0.381 10:0.0952 11:0.1905 12:2 13:0.4667 14:3 15:0.4727 16:110 17:0.2455 18:0.2364 19:0.2364 20:0.2818 21:0.3396 22:2 23:0.2459 
-0.5784164933876168 1:2 2:3 3:16 4:20 5:0.45 6:2 7:4 8:0.4 9:0.2 10:0.25 11:0.15 12:18 13:0.2821 14:4 15:0.5067 16:75 17:0.2 18:0.2267 19:0.28 20:0.2933 21:0.2676 22:0.75 23:0.25 
-0.06178023886180242 1:2 2:3 3:20 4:24 5:0.5 6:2 7:4 8:0.3636 9:0.2273 10:0.2727 11:0.1364 12:1 13:0.2609 14:4 15:0.5165 16:91 17:0.2527 18:0.2527 19:0.2637 20:0.2308 21:0.2471 22:2 23:0.2308 
-0.133256221028251 1:2 2:4 3:22 4:24 5:0.5 6:2 7:4 8:0.25 9:0.25 10:0.25 11:0.25 12:70 13:0.2273 14:4 15:0.5054 16:93 17:0.2688 18:0.2473 19:0.2581 20:0.2258 21:0.2644 22:2.2 23:0.3023 
-0.03490359205279708 1:2 2:2 3:10 4:24 5:0.5217 6:1 7:4 8:0.2609 9:0.3478 10:0.1739 11:0.2174 12:15 13:0.1489 14:1 15:0.4568 16:81 17:0.2963 18:0.2222 19:0.2346 20:0.2469 21:0.2 22:0.5 23:0.3333 
-0.07595550998923468 1:2 2:4 3:23 4:23 5:0.4348 6:2 7:4 8:0.2609 9:0.1739 10:0.2609 11:0.3043 12:85 13:0.1628 14:3 15:0.4706 16:102 17:0.2941 18:0.2255 19:0.2451 20:0.2353 21:0.186 22:1.67 23:0.2093 
-0.2277578227686551 1:2 2:4 3:24 4:25 5:0.4583 6:2 7:5 8:0.25 9:0.2083 10:0.25 11:0.2917 12:86 13:0.1739 14:1 15:0.4953 16:107 17:0.2804 18:0.243 19:0.2523 20:0.2243 21:0.1868 22:0.9 23:0.2 
-0.04783144805399706 1:2 2:4 3:19 4:23 5:0.4783 6:1 7:4 8:0.2609 9:0.1739 10:0.3043 11:0.2609 12:81 13:0.1364 14:1 15:0.4947 16:95 17:0.2842 18:0.2421 19:0.2526 20:0.2211 21:0.1899 22:1.12 23:0.2571 
-0.09684199325601327 1:2 2:4 3:21 4:24 5:0.4167 6:2 7:4 8:0.25 9:0.1667 10:0.25 11:0.3333 12:83 13:0.1556 14:1 15:0.48 16:100 17:0.29 18:0.23 19:0.25 20:0.23 21:0.1905 22:2.25 23:0.2308 
-0.2239298159879254 1:2 2:4 3:27 4:23 5:0.6 6:2 7:5 8:0.3 9:0.3 10:0.3 11:0.1 12:2 13:0.1905 14:4 15:0.4862 16:109 17:0.2844 18:0.2385 19:0.2477 20:0.2294 21:0.1828 22:1.14 23:0.1765 
-0.1319149296034831 1:2 2:6 3:27 4:21 5:0.4762 6:3 7:2 8:0.3333 9:0.1429 10:0.3333 11:0.1905 12:12 13:0.2 14:3 15:0.4839 16:93 17:0.2473 18:0.2366 19:0.2473 20:0.2688 21:0.2 22:0.2 23:0.2308 
-0.1368852708608605 1:2 2:6 3:29 4:23 5:0.4762 6:4 7:2 8:0.2857 9:0.2857 10:0.1905 11:0.2381 12:88 13:0.2273 14:1 15:0.495 16:101 17:0.2475 18:0.2376 19:0.2574 20:0.2574 21:0.2041 22:1.12 23:0.2143 
-0.1140702806059757 1:1 2:1 3:2 4:21 5:0.5 6:2 7:4 8:0.15 9:0.35 10:0.15 11:0.35 12:37 13:0.2 14:1 15:0.4667 16:45 17:0.2444 18:0.2222 19:0.2444 20:0.2889 21:0.1905 22:1 23:0.5 
-0.05182228470228133 1:2 2:6 3:29 4:26 5:0.4783 6:4 7:3 8:0.2609 9:0.3043 10:0.1739 11:0.2609 12:88 13:0.2245 14:1 15:0.5 16:106 17:0.2453 18:0.2453 19:0.2547 20:0.2547 21:0.2039 22:0.82 23:0.2143 
-0.03448736228816338 1:2 2:5 3:21 4:24 5:0.5 6:2 7:2 8:0.2083 9:0.25 10:0.25 11:0.2917 12:80 13:0.125 14:3 15:0.4831 16:89 17:0.236 18:0.236 19:0.2472 20:0.2809 21:0.1628 22:0.8 23:0.25 
-0.1694008421870979 1:2 2:6 3:34 4:20 5:0.55 6:4 7:3 8:0.35 9:0.25 10:0.3 11:0.1 12:6 13:0.2973 14:4 15:0.4904 16:104 17:0.25 18:0.2404 19:0.25 20:0.2596 21:0.2079 22:0.8 23:0.1818 
-0.3022503840598861 1:2 2:4 3:19 4:21 5:0.4762 6:2 7:3 8:0.2857 9:0.1905 10:0.2857 11:0.2381 12:78 13:0.1905 14:4 15:0.4937 16:79 17:0.2278 18:0.2405 19:0.2532 20:0.2785 21:0.1842 22:1.4 23:0.2222 
-0.09075194402474313 1:2 2:6 3:34 4:22 5:0.5455 6:4 7:3 8:0.3636 9:0.2273 10:0.3182 11:0.0909 12:4 13:0.2683 14:4 15:0.4907 16:108 17:0.25 18:0.2407 19:0.25 20:0.2593 21:0.2 22:0.7 23:0.1818 
-0.02678012829489853 1:2 2:2 3:10 4:23 5:0.4783 6:2 7:3 8:0.2174 9:0.3478 10:0.1304 11:0.3043 12:9 13:0.1739 14:1 15:0.4737 16:76 17:0.2763 18:0.2763 19:0.1974 20:0.25 21:0.1746 22:1.43 23:0.2632 
-0.009004282239797375 1:-1 2:0 3:0 4:22 5:0.4762 6:5 7:3 8:0.381 9:0.1905 10:0.2857 11:0.1429 12:49 13:0.3953 14:4 15:0.4783 16:46 17:0.3043 18:0.3043 19:0.1739 20:0.2174 21:0.2121 22:0 23:-1 
-0.1215670572339073 1:2 2:3 3:15 4:24 5:0.6087 6:1 7:3 8:0.1739 9:0.4348 10:0.1739 11:0.2174 12:4 13:0.1064 14:1 15:0.5287 16:87 17:0.2414 18:0.2989 19:0.2299 20:0.2299 21:0.1622 22:1.5 23:0.3103 
-0.1220004281949913 1:2 2:2 3:13 4:24 5:0.5833 6:2 7:3 8:0.2083 9:0.2083 10:0.375 11:0.2083 12:65 13:0.1667 14:2 15:0.5238 16:84 17:0.25 18:0.2976 19:0.2262 20:0.2262 21:0.1549 22:0.42 23:0.2 
-0.0965728917254228 1:2 2:4 3:20 4:20 5:0.6 6:1 7:2 8:0.1 9:0.2 10:0.4 11:0.3 12:72 13:0.0769 14:1 15:0.5393 16:89 17:0.236 18:0.3034 19:0.236 20:0.2247 21:0.1579 22:1.11 23:0.2821 
-0.05612189311605017 1:-1 2:0 3:0 4:22 5:0.4545 6:3 7:4 8:0.2727 9:0.3182 10:0.1364 11:0.2727 12:9 13:0.2857 14:-1 15:0.5 16:44 17:0.25 18:0.25 19:0.25 20:0.25 21:0.1667 22:5 23:-1 
-0.2218356359919406 1:-1 2:0 3:0 4:20 5:0.4762 6:3 7:4 8:0.2381 9:0.3333 10:0.1429 11:0.2857 12:12 13:0.3333 14:-1 15:0.5366 16:41 17:0.2195 18:0.2683 19:0.2683 20:0.2439 21:0.2121 22:4 23:-1 
-0.03533140536550586 1:-1 2:0 3:0 4:23 5:0.5455 6:2 7:5 8:0.2273 9:0.1364 10:0.4091 11:0.2273 12:35 13:0.3333 14:4 15:0.5306 16:49 17:0.2041 18:0.2449 19:0.2857 20:0.2653 21:0.2683 22:1 23:-1 
-0.03028760256117571 1:-1 2:0 3:0 4:25 5:0.375 6:6 7:3 8:0.375 9:0.25 10:0.125 11:0.25 12:33 13:0.3061 14:4 15:0.3654 16:52 17:0.3077 18:0.25 19:0.1154 20:0.3269 21:0.0811 22:0 23:-1 
-0.02893923908160953 1:-1 2:0 3:0 4:23 5:0.4348 6:7 7:3 8:0.3478 9:0.3478 10:0.087 11:0.2174 12:31 13:0.3778 14:-1 15:0.3696 16:46 17:0.3043 18:0.2609 19:0.1087 20:0.3261 21:0.0968 22:0 23:-1 
-0.1659607681803386 1:-1 2:0 3:0 4:21 5:0.45 6:7 7:3 8:0.35 9:0.35 10:0.1 11:0.2 12:32 13:0.4146 14:4 15:0.4048 16:42 17:0.2857 18:0.2857 19:0.119 20:0.3095 21:0.1111 22:0 23:-1 
-0.01603566614612011 1:-1 2:0 3:0 4:23 5:0.4091 6:7 7:3 8:0.3636 9:0.3182 10:0.0909 11:0.2273 12:32 13:0.3778 14:4 15:0.3696 16:46 17:0.3043 18:0.2609 19:0.1087 20:0.3261 21:0.0968 22:0 23:-1 
-0.09673957092808291 1:-1 2:0 3:0 4:21 5:0.4762 6:7 7:3 8:0.3333 9:0.381 10:0.0952 11:0.1905 12:31 13:0.4146 14:-1 15:0.4048 16:42 17:0.2857 18:0.2857 19:0.119 20:0.3095 21:0.1111 22:0 23:-1 
-0.04693663714233916 1:3 2:2 3:15 4:21 5:0.3333 6:3 7:2 8:0.3333 9:0.0476 10:0.2857 11:0.3333 12:9 13:0.2381 14:2 15:0.3636 16:77 17:0.3506 18:0.1948 19:0.1688 20:0.2857 21:0.2394 22:4.5 23:0.2414 
-0.09115060621851497 1:-1 2:0 3:0 4:21 5:0.2273 6:3 7:4 8:0.5455 9:0.1364 10:0.0909 11:0.2273 12:26 13:0.4146 14:-1 15:0.3256 16:43 17:0.3953 18:0.2093 19:0.1163 20:0.2791 21:0.3514 22:0.4 23:-1 
-0.08193761902501986 1:3 2:3 3:17 4:23 5:0.4348 6:4 7:3 8:0.3043 9:0.3478 10:0.087 11:0.2609 12:67 13:0.3333 14:1 15:0.3571 16:84 17:0.3333 18:0.1905 19:0.1667 20:0.3095 21:0.3077 22:5 23:0.2727 
-0.1955188314598464 1:1 2:1 3:3 4:22 5:0.4286 6:4 7:3 8:0.2857 9:0.1905 10:0.2381 11:0.2857 12:39 13:0.2195 14:4 15:0.3846 16:52 17:0.3654 18:0.1154 19:0.2692 20:0.25 21:0.2 22:0.4 23:0.3333 
-0.08395612128828092 1:-1 2:0 3:0 4:25 5:0.3636 6:4 7:4 8:0.3636 9:0.0455 10:0.3182 11:0.2727 12:10 13:0.3191 14:1 15:0.375 16:48 17:0.375 18:0.1042 19:0.2708 20:0.25 21:0.2195 22:4.5 23:-1 
-0.153167426620616 1:1 2:1 3:2 4:22 5:0.35 6:4 7:3 8:0.35 9:0.05 10:0.3 11:0.3 12:9 13:0.2195 14:4 15:0.36 16:50 17:0.38 18:0.1 19:0.26 20:0.26 21:0.2093 22:1.5 23:0.5 
-0.2018749979167965 1:-1 2:0 3:0 4:28 5:0.3913 6:4 7:4 8:0.3043 9:0.087 10:0.3043 11:0.3043 12:7 13:0.283 14:1 15:0.3704 16:54 17:0.3704 18:0.1111 19:0.2593 20:0.2593 21:0.1915 22:5 23:-1 
-0.6056015403700202 1:1 2:1 3:2 4:25 5:0.3478 6:4 7:4 8:0.3043 9:0.087 10:0.2609 11:0.3478 12:6 13:0.234 14:4 15:0.375 16:56 17:0.3571 18:0.1071 19:0.2679 20:0.2679 21:0.2245 22:1.17 23:0.5 
-0.1007491432048294 1:-1 2:0 3:0 4:23 5:0.4286 6:1 7:3 8:0.1905 9:0.2381 10:0.1905 11:0.381 12:5 13:0.0909 14:1 15:0.38 16:50 17:0.26 18:0.16 19:0.22 20:0.36 21:0.0909 22:0.78 23:-1 
-0.08103738623430243 1:-1 2:0 3:0 4:20 5:0.45 6:1 7:2 8:0.3 9:0.15 10:0.3 11:0.25 12:32 13:0.0526 14:1 15:0.4091 16:44 17:0.25 18:0.1591 19:0.25 20:0.3409 21:0.0526 22:0.67 23:-1 
-0.1178674495534333 1:-1 2:0 3:0 4:25 5:0.375 6:2 7:4 8:0.25 9:0.2083 10:0.1667 11:0.375 12:5 13:0.1667 14:-1 15:0.38 16:50 17:0.26 18:0.16 19:0.22 20:0.36 21:0.0909 22:1.75 23:-1 
-0.1240216973389845 1:-1 2:0 3:0 4:24 5:0.5 6:1 7:4 8:0.3182 9:0.1364 10:0.3636 11:0.1818 12:32 13:0.1111 14:-1 15:0.4681 16:47 17:0.2766 18:0.2128 19:0.2553 20:0.2553 21:0.0698 22:1 23:-1 
-0.04754845261272855 1:-1 2:0 3:0 4:26 5:0.4583 6:2 7:4 8:0.25 9:0.2917 10:0.1667 11:0.2917 12:6 13:0.125 14:4 15:0.44 16:50 17:0.28 18:0.2 19:0.24 20:0.28 21:0.087 22:1.29 23:-1 
-0.01887889570147421 1:-1 2:0 3:0 4:23 5:0.4783 6:1 7:3 8:0.2174 9:0.3043 10:0.1739 11:0.3043 12:7 13:0.0909 14:4 15:0.4783 16:46 17:0.2609 18:0.2174 19:0.2609 20:0.2609 21:0.0476 22:1 23:-1 
-0.1314006162335182 1:-1 2:0 3:0 4:22 5:0.4545 6:1 7:3 8:0.2273 9:0.2727 10:0.1818 11:0.3182 12:8 13:0.0952 14:4 15:0.4545 16:44 17:0.2727 18:0.2045 19:0.25 20:0.2727 21:0.05 22:1 23:-1 
-0.03915250909780875 1:-1 2:0 3:0 4:22 5:0.4348 6:1 7:3 8:0.2609 9:0.2609 10:0.1739 11:0.3043 12:8 13:0.0952 14:-1 15:0.4545 16:44 17:0.2727 18:0.2045 19:0.25 20:0.2727 21:0.05 22:1 23:-1 
-0.1276789857820196 1:-1 2:0 3:0 4:23 5:0.381 6:6 7:3 8:0.5238 9:0.2857 10:0.0952 11:0.0952 12:9 13:0.4545 14:4 15:0.3778 16:45 17:0.4 18:0.2222 19:0.1556 20:0.2222 21:0.25 22:4 23:-1 
-0.1610389287528478 1:1 2:1 3:3 4:21 5:0.45 6:3 7:3 8:0.35 9:0.35 10:0.1 11:0.2 12:22 13:0.1351 14:3 15:0.4348 16:46 17:0.2826 18:0.2609 19:0.1739 20:0.2826 21:0.122 22:2 23:0.3333 
-0.1500799815849619 1:3 2:3 3:17 4:28 5:0.4783 6:4 7:3 8:0.2174 9:0.3478 10:0.1304 11:0.3043 12:5 13:0.1765 14:4 15:0.4167 16:84 17:0.25 18:0.2262 19:0.1905 20:0.3333 21:0.1646 22:1 23:0.2 
-0.06943963066486901 1:3 2:4 3:30 4:22 5:0.5 6:4 7:4 8:0.1818 9:0.0909 10:0.4091 11:0.3182 12:74 13:0.2973 14:1 15:0.4632 16:95 17:0.2316 18:0.2421 19:0.2211 20:0.3053 21:0.1778 22:0.67 23:0.1273 
-0.1035750010868353 1:3 2:4 3:25 4:22 5:0.3636 6:4 7:3 8:0.2273 9:0.0909 10:0.2727 11:0.4091 12:69 13:0.2632 14:3 15:0.407 16:86 17:0.2558 18:0.2209 19:0.186 20:0.3372 21:0.1852 22:2 23:0.1556 
-0.8772600474643181 1:2 2:4 3:15 4:22 5:0.4545 6:2 7:4 8:0.2273 9:0.2727 10:0.1818 11:0.3182 12:61 13:0.2093 14:3 15:0.4247 16:73 17:0.2603 18:0.2192 19:0.2055 20:0.3151 21:0.2286 22:0.71 23:0.3103 
-0.04951409891338683 1:2 2:4 3:15 4:25 5:0.4091 6:4 7:4 8:0.2727 9:0.2273 10:0.1818 11:0.3182 12:9 13:0.2766 14:4 15:0.4156 16:77 17:0.2468 18:0.2208 19:0.1948 20:0.3377 21:0.2703 22:1.4 23:0.3103 
-0.06043908026149849 1:2 2:5 3:18 4:23 5:0.45 6:4 7:4 8:0.3 9:0.25 10:0.2 11:0.25 12:8 13:0.2558 14:1 15:0.4177 16:79 17:0.2405 18:0.2152 19:0.2025 20:0.3418 21:0.2632 22:1 23:0.3143 
-0.0538710910651875 1:2 2:6 3:29 4:20 5:0.4 6:4 7:3 8:0.2 9:0.2 10:0.2 11:0.4 12:75 13:0.2222 14:1 15:0.4149 16:94 17:0.2447 18:0.2128 19:0.2021 20:0.3404 21:0.2308 22:1.14 23:0.2632 
-0.15647054575658 1:1 2:2 3:3 4:21 5:0.3333 6:2 7:4 8:0.2857 9:0.1905 10:0.1429 11:0.381 12:49 13:0.2195 14:2 15:0.375 16:48 17:0.2708 18:0.1875 19:0.1875 20:0.3542 21:0.2444 22:0.56 23:0.6667 
-0.1382573722430211 1:2 2:5 3:23 4:20 5:0.55 6:4 7:3 8:0.15 9:0.3 10:0.25 11:0.3 12:69 13:0.2432 14:4 15:0.4458 16:83 17:0.2289 18:0.2289 19:0.2169 20:0.3253 21:0.25 22:1.12 23:0.2889 
-0.1870567050124673 1:-1 2:0 3:0 4:23 5:0.35 6:5 7:3 8:0.2 9:0.2 10:0.15 11:0.45 12:25 13:0.3488 14:4 15:0.2955 16:44 17:0.3409 18:0.1136 19:0.1818 20:0.3636 21:0.1515 22:5 23:-1 
-0.01761658445253295 1:1 2:2 3:13 4:21 5:0.4762 6:3 7:3 8:0.1905 9:0.2381 10:0.2381 11:0.3333 12:10 13:0.3 14:1 15:0.4189 16:74 17:0.2568 18:0.1622 19:0.2568 20:0.3243 21:0.2063 22:3 23:0.12 
-0.09461390667046927 1:3 2:3 3:25 4:20 5:0.3 6:2 7:4 8:0.45 9:0.05 10:0.25 11:0.25 12:75 13:0.2973 14:1 15:0.3548 16:93 17:0.2903 18:0.1398 19:0.2151 20:0.3548 21:0.1951 22:1 23:0.1489 
-0.0407061117263785 1:1 2:2 3:10 4:23 5:0.4348 6:2 7:3 8:0.1739 9:0.2174 10:0.2174 11:0.3913 12:71 13:0.1739 14:1 15:0.4079 16:76 17:0.2895 18:0.1974 19:0.2105 20:0.3026 21:0.1429 22:1.14 23:0.1579 
-0.03153078150025862 1:1 2:2 3:13 4:20 5:0.4 6:2 7:3 8:0.2 9:0.15 10:0.25 11:0.4 12:74 13:0.2 14:1 15:0.4079 16:76 17:0.2895 18:0.1974 19:0.2105 20:0.3026 21:0.1429 22:0.71 23:0.12 
-0.1010872520414771 1:2 2:4 3:28 4:22 5:0.381 6:3 7:3 8:0.2381 9:0.2381 10:0.1429 11:0.381 12:89 13:0.2857 14:3 15:0.4074 16:108 17:0.287 18:0.2037 19:0.2037 20:0.3056 21:0.2 22:1 23:0.1636 
-0.1602766108852448 1:2 2:6 3:32 4:24 5:0.5238 6:3 7:4 8:0.2381 9:0.1429 10:0.381 11:0.2381 12:1 13:0.2093 14:2 15:0.4505 16:111 17:0.2432 18:0.2252 19:0.2252 20:0.3063 21:0.2039 22:0.71 23:0.2 
-0.02368893934037447 1:2 2:5 3:19 4:23 5:0.5455 6:1 7:2 8:0.0455 9:0.3636 10:0.1818 11:0.4091 12:77 13:0.0455 14:3 15:0.4713 16:87 17:0.2299 18:0.2299 19:0.2414 20:0.2989 21:0.1646 22:0.82 23:0.3143 
-0.1820445108995425 1:2 2:6 3:31 4:22 5:0.5714 6:3 7:3 8:0.0952 9:0.4286 10:0.1429 11:0.3333 12:89 13:0.15 14:4 15:0.4623 16:106 17:0.2264 18:0.2264 19:0.2358 20:0.3113 21:0.1837 22:1.11 23:0.2069 
-0.0007830063913628615 1:2 2:5 3:24 4:25 5:0.5833 6:3 7:4 8:0.125 9:0.4583 10:0.125 11:0.2917 12:82 13:0.1556 14:4 15:0.4592 16:98 17:0.2347 18:0.2347 19:0.2245 20:0.3061 21:0.2 22:4 23:0.2444 
-0.0495858630699036 1:2 2:2 3:18 4:24 5:0.5 6:5 7:5 8:0.1818 9:0.3636 10:0.1364 11:0.3182 12:4 13:0.3478 14:1 15:0.3889 16:90 17:0.2778 18:0.2 19:0.1889 20:0.3333 21:0.25 22:0.43 23:0.1176 
-0.04378159532849839 1:2 2:4 3:25 4:20 5:0.35 6:5 7:3 8:0.3 9:0.05 10:0.3 11:0.35 12:77 13:0.3333 14:4 15:0.4167 16:96 17:0.2604 18:0.2083 19:0.2083 20:0.3229 21:0.2326 22:0.64 23:0.1489 
-0.05540096581926609 1:2 2:2 3:21 4:21 5:0.381 6:5 7:5 8:0.2857 9:0.0952 10:0.2857 11:0.3333 12:73 13:0.4 14:2 15:0.3889 16:90 17:0.2778 18:0.2 19:0.1889 20:0.3333 21:0.25 22:2 23:0.1 
-0.2540572387277898 1:1 2:1 3:12 4:21 5:0.45 6:2 7:5 8:0.15 9:0.35 10:0.1 11:0.4 12:12 13:0.2308 14:3 15:0.3973 16:73 17:0.2603 18:0.2192 19:0.1781 20:0.3425 21:0.1746 22:1.75 23:0.0833 
-0.01793470895351975 1:-1 2:0 3:0 4:21 5:0.35 6:4 7:3 8:0.3 9:0.15 10:0.2 11:0.35 12:49 13:0.3 14:-1 15:0.3571 16:42 17:0.2857 18:0.1905 19:0.1667 20:0.3571 21:0.125 22:0 23:-1 
-0.1746048193891187 1:1 2:1 3:11 4:24 5:0.3636 6:2 7:5 8:0.3636 9:0.0909 10:0.2727 11:0.2727 12:65 13:0.2 14:1 15:0.4026 16:77 17:0.2597 18:0.2208 19:0.1818 20:0.3377 21:0.1642 22:1.29 23:0.0909 
-0.3372576699785254 1:-1 2:0 3:0 4:30 5:0.375 6:5 7:4 8:0.3333 9:0.125 10:0.25 11:0.2917 12:25 13:0.3571 14:4 15:0.3509 16:57 17:0.3333 18:0.1579 19:0.193 20:0.3158 21:0.28 22:3.33 23:-1 
-0.08952480205698279 1:1 2:1 3:3 4:22 5:0.3333 6:5 7:3 8:0.3333 9:0.1429 10:0.1905 11:0.3333 12:58 13:0.35 14:4 15:0.3137 16:51 17:0.3529 18:0.1373 19:0.1765 20:0.3333 21:0.3182 22:0.33 23:0.3333 
-0.01403882935527891 1:5 2:4 3:27 4:27 5:0.3182 6:4 7:4 8:0.3182 9:0.1364 10:0.1818 11:0.3636 12:4 13:0.3469 14:2 15:0.375 16:104 17:0.3077 18:0.1827 19:0.1923 20:0.3173 21:0.3196 22:0.67 23:0.32 
-0.0152602368313065 1:5 2:3 3:20 4:20 5:0.4 6:2 7:3 8:0.1 9:0.2 10:0.2 11:0.5 12:13 13:0.25 14:4 15:0.3951 16:81 17:0.284 18:0.1852 19:0.2099 20:0.321 21:0.2703 22:1.25 23:0.3333 
-0.04921215942936683 1:2 2:4 3:30 4:21 5:0.4286 6:4 7:4 8:0.2857 9:0.2381 10:0.1905 11:0.2857 12:79 13:0.3846 14:3 15:0.404 16:99 17:0.2929 18:0.202 19:0.202 20:0.303 21:0.2421 22:1 23:0.1429 
-0.05098185202440211 1:2 2:4 3:25 4:26 5:0.5217 6:4 7:4 8:0.1304 9:0.3478 10:0.1739 11:0.3478 12:1 13:0.3061 14:4 15:0.404 16:99 17:0.2929 18:0.202 19:0.202 20:0.303 21:0.2421 22:0.89 23:0.1739 
-0.1237761772438487 1:-1 2:0 3:1 4:20 5:0.4 6:3 7:3 8:0.25 9:0.2 10:0.2 11:0.35 12:52 13:0.2432 14:4 15:0.3878 16:49 17:0.3061 18:0.2041 19:0.1837 20:0.3061 21:0.2308 22:0.3 23:0 
-0.3002738684969102 1:-1 2:0 3:0 4:23 5:0.45 6:3 7:3 8:0.2 9:0.25 10:0.2 11:0.35 12:21 13:0.2093 14:4 15:0.3585 16:53 17:0.3208 18:0.1887 19:0.1698 20:0.3208 21:0.2093 22:0.82 23:-1 
-0.03285875065072721 1:1 2:2 3:16 4:24 5:0.4783 6:3 7:3 8:0.1304 9:0.3043 10:0.1739 11:0.3913 12:5 13:0.2766 14:4 15:0.4235 16:85 17:0.2941 18:0.2118 19:0.2118 20:0.2824 21:0.1948 22:3 23:0.0667 
-0.06001047596923984 1:-1 2:0 3:0 4:26 5:0.45 6:3 7:6 8:0.15 9:0.15 10:0.3 11:0.4 12:25 13:0.2917 14:1 15:0.449 16:49 17:0.2857 18:0.2449 19:0.2041 20:0.2653 21:0.1905 22:2.67 23:-1 
-0.1687908578560099 1:1 2:1 3:3 4:24 5:0.3043 6:2 7:5 8:0.4348 9:0.2174 10:0.087 11:0.2609 12:54 13:0.1818 14:3 15:0.4182 16:55 17:0.2909 18:0.2182 19:0.2 20:0.2909 21:0.1667 22:0.75 23:0.3333 
-0.02522264703126595 1:2 2:5 3:16 4:21 5:0.2 6:1 7:2 8:0.35 9:0.15 10:0.05 11:0.45 12:67 13:0.0732 14:2 15:0.4 16:75 17:0.3067 18:0.2 19:0.2 20:0.2933 21:0.1471 22:1 23:0.3103 
-0.0913759830608768 1:2 2:6 3:21 4:21 5:0.381 6:2 7:2 8:0.381 9:0.1905 10:0.1905 11:0.2381 12:7 13:0.1 14:1 15:0.4217 16:83 17:0.2892 18:0.2169 19:0.2048 20:0.2892 21:0.1579 22:1 23:0.2632 
-0.0215121803390379 1:1 2:1 3:2 4:22 5:0.381 6:2 7:5 8:0.4286 9:0.2857 10:0.0952 11:0.1905 12:53 13:0.2 14:4 15:0.449 16:49 17:0.2857 18:0.2449 19:0.2041 20:0.2653 21:0.1905 22:0.75 23:0.5 
-0.1561023615383101 1:2 2:6 3:20 4:20 5:0.35 6:2 7:2 8:0.35 9:0.15 10:0.2 11:0.3 12:9 13:0.1053 14:4 15:0.4177 16:79 17:0.2911 18:0.2152 19:0.2025 20:0.2911 21:0.1667 22:0.75 23:0.2778 
-0.1452092902209505 1:-1 2:0 3:0 4:20 5:0.4762 6:3 7:5 8:0.1905 9:0.2381 10:0.2381 11:0.3333 12:35 13:0.3333 14:-1 15:0.3902 16:41 17:0.2439 18:0.2195 19:0.1707 20:0.3659 21:0.2121 22:2.5 23:-1 
-0.02163661037262904 1:-1 2:0 3:0 4:22 5:0.4783 6:3 7:5 8:0.1739 9:0.2174 10:0.2609 11:0.3478 12:33 13:0.3023 14:-1 15:0.4 16:45 17:0.2444 18:0.2222 19:0.1778 20:0.3556 21:0.1892 22:3.5 23:-1 
-0.1321800634859125 1:1 2:3 3:18 4:27 5:0.5 6:4 7:4 8:0.3333 9:0.1667 10:0.3333 11:0.1667 12:79 13:0.2 14:3 15:0.433 16:97 17:0.299 18:0.2062 19:0.2268 20:0.268 21:0.1667 22:0.67 23:0.1667 
-0.1652800345403287 1:4 2:5 3:22 4:29 5:0.5833 6:4 7:3 8:0.1667 9:0.25 10:0.3333 11:0.25 12:5 13:0.1154 14:1 15:0.5326 16:92 17:0.1957 18:0.2609 19:0.2717 20:0.2717 21:0.1685 22:1.57 23:0.2821 
-0.03096197907394463 1:-1 2:0 3:0 4:23 5:0.4348 6:4 7:5 8:0.3478 9:0.1739 10:0.2609 11:0.2174 12:47 13:0.2683 14:-1 15:0.4762 16:42 17:0.2619 18:0.2619 19:0.2143 20:0.2619 21:0.2308 22:1.14 23:-1 
-0.1451549809534445 1:4 2:4 3:19 4:22 5:0.4762 6:1 7:3 8:0.1905 9:0.1905 10:0.2857 11:0.3333 12:11 13:0.0952 14:3 15:0.5263 16:76 17:0.2237 18:0.2632 19:0.2632 20:0.25 21:0.1507 22:1.71 23:0.2727 
-0.1388642241939821 1:1 2:1 3:3 4:21 5:0.5 6:4 7:4 8:0.35 9:0.2 10:0.3 11:0.15 12:51 13:0.2432 14:4 15:0.5 16:44 17:0.25 18:0.2727 19:0.2273 20:0.25 21:0.2195 22:0.43 23:0.3333 
