svm_type c_svc
kernel_type rbf
gamma 0.0416667
nr_class 2
total_sv 162
rho 0.806409
label 1 0
probA -5.60282
probB -2.14082
nr_sv 26 136
SV
1 1:4 2:3 3:3 4:1 5:21 6:0.4286 7:2 8:2 9:3 10:0.2857 11:0.2857 12:0.2857 13:16 14:1 15:0.5169 16:0.2022 17:0.2472 18:0.2697 19:0.2809 20:0.2619 21:1 22:0.3846 23:0.3182 24:11 
1 1:4 2:1 3:3 4:3 5:21 6:0.619 7:1 8:2 9:1 10:0.2857 11:0.4286 12:0.0952 13:19 14:4 15:0.5077 16:0.2154 17:0.2615 18:0.2462 19:0.2769 20:0.1034 21:1 22:0.4 23:0.2222 24:17 
1 1:4 2:4 3:-1 4:0 5:23 6:0.4762 7:1 8:3 9:2 10:0.2857 11:0.2381 12:0.2381 13:19 14:3 15:0.4828 16:0.2414 17:0.2529 18:0.2299 19:0.2759 20:0.253 21:0.78 22:0 23:0.3846 24:5 
1 1:4 2:2 3:2 4:3 5:21 6:0.4762 7:2 8:1 9:2 10:0.2857 11:0.2381 12:0.2381 13:19 14:4 15:0.4559 16:0.2353 17:0.1912 18:0.2647 19:0.3088 20:0.129 21:1.29 22:0.2222 23:0.2381 24:20 
1 1:4 2:3 3:-1 4:0 5:22 6:0.5238 7:0 8:1 9:3 10:0.2381 11:0.2857 12:0.2381 13:19 14:2 15:0.4889 16:0.2667 17:0.2667 18:0.2222 19:0.2444 20:0.1605 21:0.91 22:0 23:0.2857 24:11 
1 1:1 2:7 3:2 4:1 5:21 6:0.4762 7:1 8:1 9:3 10:0.2857 11:0.2857 12:0.2381 13:18 14:3 15:0.3474 16:0.2526 17:0.1474 18:0.2 19:0.4 20:0.2174 21:1 22:0.3333 23:0.3077 24:8 
1 1:4 2:4 3:3 4:1 5:23 6:0.5 7:1 8:2 9:2 10:0.2727 11:0.4545 12:0.2273 13:19 14:1 15:0.4583 16:0.2778 17:0.2361 18:0.2222 19:0.2639 20:0.2 21:1 22:0.2 23:0.3913 24:20 
1 1:4 2:9 3:3 4:2 5:21 6:0.5714 7:3 8:2 9:1 10:0.1905 11:0.5238 12:0.2381 13:19 14:1 15:0.4935 16:0.1688 17:0.2078 18:0.2857 19:0.3377 20:0.1944 21:0.62 22:0.5 23:0.375 24:12 
1 1:4 2:4 3:4 4:1 5:28 6:0.55 7:1 8:8 9:2 10:0.1 11:0.15 12:0.35 13:17 14:4 15:0.4819 16:0.1928 17:0.2771 18:0.2048 19:0.3253 20:0.2895 21:0.91 22:0.3333 23:0.3333 24:14 
1 1:4 2:2 3:4 4:1 5:23 6:0.5238 7:1 8:2 9:2 10:0.0952 11:0.1905 12:0.381 13:20 14:1 15:0.5075 16:0.2537 17:0.2985 18:0.209 19:0.2388 20:0.1429 21:1 22:0.2121 23:0.4286 24:19 
1 1:4 2:2 3:2 4:2 5:21 6:0.5238 7:0 8:2 9:2 10:0.2381 11:0.2857 12:0.2381 13:18 14:1 15:0.4156 16:0.2597 17:0.2078 18:0.2078 19:0.3247 20:0.1594 21:0.73 22:0.2632 23:0.1852 24:12 
1 1:2 2:3 3:2 4:3 5:22 6:0.5 7:1 8:2 9:2 10:0.1364 11:0.2727 12:0.3636 13:19 14:1 15:0.3846 16:0.2923 17:0.1846 18:0.2 19:0.3231 20:0.193 21:1.33 22:0.2667 23:0.4286 24:17 
1 1:4 2:4 3:3 4:2 5:23 6:0.5 7:2 8:2 9:3 10:0.1364 11:0 12:0.3636 13:19 14:4 15:0.4 16:0.2588 17:0.1882 18:0.2118 19:0.3412 20:0.1899 21:1.12 22:0.3077 23:0.2571 24:17 
1 1:1 2:2 3:-1 4:0 5:24 6:0.5417 7:0 8:1 9:1 10:0.25 11:0.3333 12:0.2083 13:23 14:3 15:0.55 16:0.2125 17:0.2625 18:0.2875 19:0.2375 20:0.1053 21:1 22:0 23:0.2143 24:16 
0.8425683006123313 1:1 2:2 3:1 4:2 5:24 6:0.5417 7:0 8:1 9:1 10:0.25 11:0.3333 12:0.2083 13:23 14:3 15:0.525 16:0.225 17:0.2625 18:0.2625 19:0.25 20:0.1053 21:1 22:0.2 23:0.2143 24:12 
1 1:4 2:1 3:2 4:1 5:26 6:0.5417 7:2 8:2 9:5 10:0.2083 11:0.375 12:0.25 13:18 14:3 15:0.459 16:0.1967 17:0.1967 18:0.2623 19:0.3443 20:0.25 21:0.7 22:0.2 23:0.25 24:12 
1 1:1 2:3 3:-1 4:0 5:25 6:0.3478 7:1 8:2 9:2 10:0.3043 11:0.2174 12:0.3478 13:21 14:4 15:0.2706 16:0.2941 17:0.1294 18:0.1412 19:0.4353 20:0.1646 21:0.44 22:0 23:0.2258 24:11 
0.9810491576350038 1:1 2:6 3:-1 4:0 5:24 6:0.4583 7:0 8:1 9:3 10:0.2917 11:0.25 12:0.25 13:21 14:1 15:0.3402 16:0.299 17:0.1959 18:0.1443 19:0.3608 20:0.2258 21:1.43 22:0 23:0.3333 24:12 
0.7612054455866699 1:1 2:-1 3:2 4:1 5:24 6:0.25 7:1 8:2 9:2 10:0.25 11:0.1667 12:0.5 13:21 14:2 15:0.2885 16:0.3846 17:0.1538 18:0.1346 19:0.3269 20:0.125 21:0.4 22:0.1765 23:-1 24:12 
1 1:4 2:6 3:-1 4:0 5:25 6:0.2083 7:1 8:2 9:3 10:0.4583 11:0.1667 12:0.3333 13:20 14:1 15:0.2593 16:0.3611 17:0.1204 18:0.1389 19:0.3796 20:0.3137 21:1.14 22:-1 23:0.434 24:4 
1 1:4 2:11 3:2 4:2 5:21 6:0.4286 7:0 8:1 9:1 10:0.2381 11:0.0476 12:0.3333 13:20 14:2 15:0.3953 16:0.2907 17:0.2093 18:0.186 19:0.314 20:0.2771 21:0.9 22:0.4 23:0.5349 24:13 
1 1:1 2:3 3:1 4:1 5:24 6:0.5833 7:1 8:2 9:4 10:0.1667 11:0.375 12:0.25 13:17 14:1 15:0.4756 16:0.2683 17:0.1829 18:0.2927 19:0.2561 20:0.2987 21:1.8 22:0.0909 23:0.3548 24:11 
1 1:1 2:2 3:1 4:2 5:24 6:0.4583 7:3 8:2 9:4 10:0.3333 11:0.4167 12:0.2083 13:19 14:3 15:0.3803 16:0.2535 17:0.1549 18:0.2254 19:0.3662 20:0.2069 21:1.25 22:0.1 23:0.4286 24:13 
0.9464066026363804 1:2 2:2 3:1 4:1 5:22 6:0.4762 7:2 8:1 9:1 10:0.4762 11:0.381 12:0.0476 13:21 14:4 15:0.4205 16:0.25 17:0.2386 18:0.1818 19:0.3295 20:0.1389 21:1.43 22:0.0667 23:0.2857 24:14 
0.8275952181582589 1:1 2:-1 3:-1 4:0 5:23 6:0.4348 7:1 8:2 9:1 10:0.3043 11:0.2609 12:0.2609 13:21 14:1 15:0.3929 16:0.2857 17:0.1786 18:0.2143 19:0.3214 20:0.087 21:0.82 22:0 23:-1 24:12 
1 1:1 2:7 3:-1 4:0 5:21 6:0.4286 7:0 8:1 9:2 10:0.3333 11:0.2381 12:0.2381 13:19 14:1 15:0.3976 16:0.253 17:0.2289 18:0.1687 19:0.3494 20:0.2754 21:1.29 22:0 23:0.5556 24:11 
-0.009376461484809544 1:4 2:-1 3:3 4:4 5:20 6:0.55 7:1 8:3 9:4 10:0.2 11:0.3 12:0.25 13:13 14:3 15:0.5116 16:0.2326 17:0.2791 18:0.2326 19:0.2558 20:0.3158 21:0.7 22:0.2542 23:-1 24:35 
-0.08045941579938612 1:3 2:3 3:3 4:3 5:22 6:0.5455 7:2 8:2 9:3 10:0.1364 11:0.2273 12:0.3182 13:17 14:4 15:0.5373 16:0.209 17:0.2687 18:0.2687 19:0.2537 20:0.2581 21:1.83 22:0.3143 23:0.4 24:23 
-1 1:4 2:3 3:3 4:2 5:24 6:0.5417 7:2 8:2 9:3 10:0.25 11:0.375 12:0.2083 13:19 14:4 15:0.5584 16:0.1948 17:0.2857 18:0.2727 19:0.2468 20:0.25 21:0.5 22:0.36 23:0.3846 24:18 
-0.5061486408041251 1:2 2:3 3:3 4:2 5:20 6:0.6 7:2 8:2 9:2 10:0.1 11:0.2 12:0.3 13:17 14:1 15:0.5467 16:0.2 17:0.28 18:0.2667 19:0.2533 20:0.2571 21:0.8 22:0.3333 23:0.4375 24:19 
-0.09574517262208428 1:4 2:1 3:3 4:3 5:22 6:0.5455 7:1 8:2 9:3 10:0.1364 11:0.1818 12:0.3182 13:18 14:1 15:0.5094 16:0.2075 17:0.2642 18:0.2453 19:0.283 20:0.1304 21:1.4 22:0.2857 23:0.3333 24:23 
-0.4099138854752813 1:3 2:1 3:3 4:1 5:20 6:0.65 7:1 8:2 9:3 10:0.1 11:0.15 12:0.25 13:15 14:2 15:0.5065 16:0.1948 17:0.2597 18:0.2468 19:0.2987 20:0.1714 21:2.2 22:0.3333 23:0.125 24:11 
-0.03731004147040106 1:1 2:-1 3:3 4:3 5:27 6:0.5417 7:1 8:3 9:4 10:0.25 11:0.2917 12:0.2083 13:20 14:4 15:0.5094 16:0.2075 17:0.2642 18:0.2453 19:0.283 20:0.1304 21:2.5 22:0.2857 23:-1 24:23 
-1 1:4 2:4 3:3 4:2 5:22 6:0.5 7:1 8:3 9:2 10:0.2273 11:0.2273 12:0.2727 13:18 14:3 15:0.4478 16:0.2388 17:0.2239 18:0.2239 19:0.3134 20:0.2381 21:0.82 22:0.25 23:0.3684 24:16 
-0.05667166469754002 1:4 2:2 3:3 4:2 5:23 6:0.4348 7:2 8:3 9:3 10:0.2609 11:0.1739 12:0.3043 13:17 14:1 15:0.4211 16:0.2456 17:0.2105 18:0.2105 19:0.3333 20:0.283 21:0.44 22:0.1765 23:0.4286 24:21 
-0.788018708199597 1:3 2:4 3:1 4:1 5:23 6:0.5238 7:1 8:3 9:3 10:0.1905 11:0.1905 12:0.2857 13:16 14:1 15:0.4795 16:0.2329 17:0.2466 18:0.2329 19:0.2877 20:0.2754 21:2.67 22:0.1111 23:0.28 24:12 
-0.008948957187148139 1:4 2:-1 3:3 4:2 5:23 6:0.4348 7:1 8:4 9:4 10:0.2174 11:0.2609 12:0.3478 13:14 14:-1 15:0.4043 16:0.2553 17:0.2128 18:0.1915 19:0.3404 20:0.3488 21:1.17 22:0.1364 23:-1 24:26 
-0.08649239581125938 1:4 2:-1 3:3 4:2 5:25 6:0.3333 7:2 8:4 9:3 10:0.25 11:0.1667 12:0.4167 13:17 14:2 15:0.4211 16:0.2456 17:0.2105 18:0.2105 19:0.3333 20:0.283 21:4.5 22:0.1765 23:0 24:21 
-0.1455052904767216 1:4 2:4 3:3 4:2 5:20 6:0.5 7:1 8:3 9:2 10:0.25 11:0.2 12:0.25 13:16 14:1 15:0.4444 16:0.2381 17:0.2222 18:0.2222 19:0.3175 20:0.2542 21:0.9 22:0.2143 23:0.3684 24:18 
-0.9349170308477348 1:3 2:4 3:1 4:1 5:25 6:0.4783 7:1 8:3 9:3 10:0.1739 11:0.1739 12:0.3478 13:18 14:4 15:0.4795 16:0.2329 17:0.2466 18:0.2329 19:0.2877 20:0.2754 21:1.14 22:0.1111 23:0.3333 24:12 
-0.03223978670286785 1:1 2:-1 3:3 4:3 5:20 6:0.381 7:1 8:4 9:3 10:0.2857 11:0.1429 12:0.3333 13:12 14:4 15:0.439 16:0.2439 17:0.2195 18:0.2195 19:0.3171 20:0.3514 21:1.2 22:0.16 23:-1 24:29 
-0.3335912090946119 1:1 2:4 3:1 4:2 5:23 6:0.5652 7:1 8:3 9:3 10:0.2174 11:0.2609 12:0.2174 13:17 14:3 15:0.4638 16:0.2319 17:0.2319 18:0.2319 19:0.3043 20:0.2615 21:1.4 22:0.1818 23:0.3333 24:14 
-0.2391349069469159 1:4 2:3 3:1 4:1 5:23 6:0.4545 7:2 8:2 9:3 10:0.0909 11:0.2727 12:0.4545 13:19 14:4 15:0.4535 16:0.2326 17:0.1977 18:0.2558 19:0.314 20:0.175 21:2.5 22:0.1111 23:0.2 24:11 
-0.02755750583253617 1:2 2:3 3:1 4:1 5:24 6:0.5417 7:3 8:2 9:3 10:0.2917 11:0.25 12:0.1667 13:20 14:4 15:0.4667 16:0.2222 17:0.2 18:0.2667 19:0.3111 20:0.1667 21:0.88 22:0.1429 23:0.1892 24:9 
-0.6178889691789184 1:1 2:3 3:1 4:1 5:22 6:0.5455 7:2 8:2 9:3 10:0.3182 11:0.2727 12:0.1364 13:18 14:4 15:0.4535 16:0.2326 17:0.1977 18:0.2558 19:0.314 20:0.175 21:0.5 22:0.1111 23:0.1892 24:11 
-0.01346303608710831 1:4 2:3 3:1 4:2 5:22 6:0.4762 7:1 8:3 9:3 10:0.1905 11:0.1905 12:0.3333 13:16 14:3 15:0.4857 16:0.2571 17:0.2714 18:0.2143 19:0.2571 20:0.1803 21:5 22:0.0526 23:0.25 24:22 
-0.1212816548247327 1:1 2:3 3:1 4:1 5:21 6:0.55 7:1 8:2 9:3 10:0.2 11:0.25 12:0.25 13:17 14:4 15:0.4935 16:0.2597 17:0.2727 18:0.2208 19:0.2468 20:0.1765 21:0.8 22:0.0323 23:0.2903 24:18 
-0.07056081788432475 1:3 2:3 3:1 4:1 5:27 6:0.6364 7:1 8:3 9:4 10:0.1364 11:0.3182 12:0.2273 13:20 14:1 15:0.4935 16:0.2597 17:0.2727 18:0.2208 19:0.2468 20:0.1765 21:0.9 22:0.0323 23:0.2727 24:18 
-0.1491157383788908 1:4 2:7 3:2 4:2 5:25 6:0.3182 7:3 8:5 9:3 10:0.3182 11:0.1818 12:0.3636 13:18 14:1 15:0.3014 16:0.2603 17:0.137 18:0.1644 19:0.4384 20:0.2571 21:0.7 22:0.1765 23:0.36 24:19 
-0.5051263694489785 1:4 2:7 3:2 4:2 5:23 6:0.3478 7:1 8:3 9:3 10:0.3043 11:0.2609 12:0.3478 13:18 14:3 15:0.3133 16:0.2651 17:0.1446 18:0.1687 19:0.4217 20:0.225 21:0.2 22:0.25 23:0.2973 24:14 
-0.03584429492913033 1:1 2:1 3:2 4:2 5:31 6:0.3333 7:3 8:7 9:4 10:0.25 11:0.1667 12:0.4167 13:17 14:2 15:0.2899 16:0.2609 17:0.1304 18:0.1594 19:0.4493 20:0.2727 21:1.43 22:0.1579 23:0.125 24:21 
-0.3030935926609716 1:1 2:4 3:-1 4:0 5:24 6:0.5 7:4 8:3 9:2 10:0.2083 11:0.0417 12:0.2917 13:19 14:3 15:0.4787 16:0.2447 17:0.2234 18:0.2553 19:0.2766 20:0.2184 21:0.78 22:0 23:0.2857 24:9 
-0.0350523934992885 1:1 2:-1 3:3 4:2 5:22 6:0.381 7:0 8:4 9:3 10:0.381 11:0.1905 12:0.2381 13:13 14:-1 15:0.3721 16:0.3256 17:0.186 18:0.186 19:0.3023 20:0.2778 21:0.43 22:0.1525 23:-1 24:35 
-0.6373642073314771 1:1 2:4 3:-1 4:0 5:22 6:0.5238 7:3 8:3 9:2 10:0.1905 11:0.5238 12:0.2857 13:17 14:2 15:0.4667 16:0.2556 17:0.2222 18:0.2444 19:0.2778 20:0.2289 21:1.14 22:0 23:0.2857 24:11 
-0.08186400572449842 1:2 2:-1 3:3 4:2 5:33 6:0.5909 7:4 8:9 9:4 10:0.2273 11:0.2273 12:0.1818 13:19 14:4 15:0.5263 16:0.1404 17:0.2281 18:0.2982 19:0.3333 20:0.2692 21:2 22:0.25 23:-1 24:22 
-0.1201853280203902 1:1 2:1 3:3 4:2 5:32 6:0.5217 7:5 8:9 9:3 10:0.2174 11:0.1739 12:0.2609 13:20 14:4 15:0.5231 16:0.1385 17:0.2154 18:0.3077 19:0.3385 20:0.2333 21:0.82 22:0.3125 23:0.25 24:18 
-0.1829628766984895 1:4 2:9 3:-1 4:0 5:23 6:0.3043 7:3 8:3 9:2 10:0.1739 11:0.087 12:0.5217 13:18 14:4 15:0.4516 16:0.1828 17:0.1935 18:0.2581 19:0.3656 20:0.2727 21:0.4 22:0 23:0.3636 24:4 
-0.09172258016327295 1:4 2:1 3:3 4:2 5:32 6:0.5217 7:5 8:9 9:3 10:0.2174 11:0.1739 12:0.2609 13:20 14:4 15:0.5397 16:0.127 17:0.2222 18:0.3175 19:0.3333 20:0.2414 21:0.91 22:0.2941 23:0.3333 24:19 
-0.006420628343791893 1:2 2:1 3:3 4:2 5:24 6:0.6087 7:4 8:8 9:3 10:0.1304 11:0.4348 12:0.2609 13:13 14:2 15:0.5254 16:0.1356 17:0.2203 18:0.3051 19:0.339 20:0.2593 21:0 22:0.2632 23:0.1765 24:21 
-0.0354302724867232 1:4 2:1 3:3 4:2 5:24 6:0.5217 7:3 8:9 9:3 10:0.1304 11:0.3478 12:0.3478 13:12 14:2 15:0.5091 16:0.1455 17:0.2182 18:0.2909 19:0.3455 20:0.28 21:0.2 22:0.2381 23:0.1429 24:23 
-0.08991199845050121 1:3 2:9 3:1 4:1 5:22 6:0.5 7:3 8:3 9:2 10:0.2727 11:0.3636 12:0.2273 13:18 14:4 15:0.4505 16:0.1868 17:0.1978 18:0.2527 19:0.3626 20:0.2558 21:1.43 22:0.3333 23:0.3636 24:5 
-0.041106352006189 1:4 2:1 3:3 4:2 5:24 6:0.5217 7:3 8:9 9:3 10:0.087 11:0.3478 12:0.3913 13:12 14:1 15:0.5111 16:0.1333 17:0.2222 18:0.2889 19:0.3556 20:0.35 21:1.25 22:0.1923 23:0.5 24:28 
-0.1719134317157225 1:1 2:-1 3:4 4:2 5:31 6:0.45 7:0 8:8 9:3 10:0.4 11:0.1 12:0.15 13:16 14:1 15:0.4545 16:0.2 17:0.2727 18:0.1818 19:0.3455 20:0.3333 21:5 22:0.2653 23:-1 24:29 
-0.08305539765304484 1:2 2:1 3:4 4:2 5:30 6:0.5909 7:1 8:8 9:3 10:0.1818 11:0.1364 12:0.2273 13:17 14:4 15:0.4925 16:0.1791 17:0.2836 18:0.209 19:0.3284 20:0.3 21:0.88 22:0.2973 23:0.2 24:23 
-0.03825456278454635 1:4 2:2 3:4 4:2 5:21 6:0.4762 7:0 8:8 9:2 10:0.0952 11:0.381 12:0.4286 13:11 14:4 15:0.4915 16:0.1864 17:0.2881 18:0.2034 19:0.322 20:0.3077 21:0.45 22:0.2889 23:0.3 24:27 
-0.05535136425355452 1:4 2:4 3:4 4:1 5:20 6:0.5 7:1 8:6 9:2 10:0.2 11:0.35 12:0.3 13:11 14:1 15:0.4789 16:0.1831 17:0.2817 18:0.1972 19:0.338 20:0.3438 21:0 22:0.2121 23:0.375 24:21 
-0.002762850934931528 1:2 2:1 3:4 4:2 5:22 6:0.5 7:0 8:8 9:2 10:0.0909 11:0.3182 12:0.4091 13:10 14:2 15:0.4737 16:0.193 17:0.2807 18:0.193 19:0.3333 20:0.32 21:0 22:0.2766 23:0.125 24:28 
-0.006735810606739479 1:2 2:1 3:4 4:2 5:29 6:0.619 7:1 8:8 9:3 10:0.1429 11:0.1429 12:0.2381 13:16 14:4 15:0.4925 16:0.1791 17:0.2836 18:0.209 19:0.3284 20:0.3 21:1.17 22:0.2973 23:0.1667 24:23 
-0.04718937735465883 1:1 2:8 3:-1 4:0 5:22 6:0.5455 7:1 8:4 9:3 10:0.1364 11:0.2727 12:0.3182 13:13 14:2 15:0.4727 16:0.1818 17:0.2545 18:0.2182 19:0.3455 20:0.3398 21:2.5 22:-1 23:0.3226 24:1 
-0.04654620383042577 1:4 2:4 3:4 4:2 5:21 6:0.5238 7:1 8:8 9:1 10:0.0952 11:0.4286 12:0.381 13:13 14:4 15:0.5079 16:0.1746 17:0.2857 18:0.2222 19:0.3175 20:0.2857 21:0.73 22:0.3171 23:0.4167 24:25 
-0.02729978623257973 1:4 2:4 3:4 4:2 5:24 6:0.4583 7:1 8:8 9:2 10:0.1667 11:0.375 12:0.375 13:14 14:1 15:0.4783 16:0.1884 17:0.2754 18:0.2029 19:0.3333 20:0.3226 21:1.6 22:0.2571 23:0.4167 24:22 
-0.07458513723595411 1:1 2:-1 3:4 4:2 5:21 6:0.3636 7:1 8:5 9:3 10:0.3182 11:0.1364 12:0.3182 13:13 14:-1 15:0.3953 16:0.3256 17:0.2558 18:0.1395 19:0.2791 20:0.1875 21:0 22:0.1579 23:-1 24:32 
-0.1001163170271569 1:1 2:2 3:4 4:1 5:21 6:0.6667 7:1 8:2 9:2 10:0.2381 11:0.2857 12:0.0952 13:18 14:4 15:0.5316 16:0.2405 17:0.3038 18:0.2278 19:0.2278 20:0.1176 21:1.38 22:0.3333 23:0.2 24:13 
-0.1306673668480706 1:4 2:2 3:4 4:1 5:24 6:0.625 7:1 8:2 9:2 10:0.25 11:0.2917 12:0.125 13:21 14:4 15:0.5185 16:0.2469 17:0.2963 18:0.2222 19:0.2346 20:0.1143 21:1.43 22:0.3684 23:0.2308 24:11 
-0.09462183643307211 1:4 2:2 3:-1 4:0 5:21 6:0.6 7:2 8:4 9:1 10:0.15 11:0.4 12:0.25 13:17 14:4 15:0.4891 16:0.25 17:0.2717 18:0.2174 19:0.2609 20:0.1852 21:0.36 22:0 23:0.2381 24:6 
-0.08201155417220672 1:3 2:2 3:-1 4:0 5:23 6:0.5909 7:2 8:4 9:1 10:0.1818 11:0.4091 12:0.2273 13:19 14:4 15:0.4896 16:0.25 17:0.2708 18:0.2188 19:0.2604 20:0.1765 21:0.82 22:0 23:0.2381 24:4 
-0.2506226704085406 1:3 2:2 3:-1 4:0 5:26 6:0.4583 7:2 8:4 9:2 10:0.2083 11:0.2083 12:0.3333 13:20 14:3 15:0.4787 16:0.2553 17:0.266 18:0.2128 19:0.266 20:0.1807 21:1.67 22:0 23:0.2222 24:5 
-1 1:4 2:2 3:4 4:1 5:22 6:0.6 7:1 8:2 9:2 10:0.1 11:0.3 12:0.3 13:19 14:4 15:0.5316 16:0.2405 17:0.3038 18:0.2278 19:0.2278 20:0.1176 21:0.64 22:0.3333 23:0.2143 24:13 
-0.04930647270748827 1:4 2:-1 3:2 4:4 5:20 6:0.35 7:2 8:2 9:4 10:0.2 11:0.15 12:0.45 13:14 14:4 15:0.3488 16:0.2558 17:0.1628 18:0.186 19:0.3953 20:0.2 21:0.75 22:0.1698 23:-1 24:29 
-0.03747484166962176 1:1 2:1 3:2 4:2 5:21 6:0.381 7:1 8:2 9:3 10:0.381 11:0.1429 12:0.2381 13:16 14:4 15:0.3492 16:0.2857 17:0.1746 18:0.1746 19:0.3651 20:0.2 21:1.4 22:0.1515 23:0.0769 24:19 
-0.07502525875612827 1:4 2:-1 3:2 4:3 5:23 6:0.3636 7:2 8:2 9:3 10:0.3636 11:0.1818 12:0.2727 13:18 14:1 15:0.3559 16:0.2881 17:0.1695 18:0.1864 19:0.3559 20:0.1765 21:1.25 22:0.1892 23:0 24:21 
-0.01470010474030536 1:1 2:3 3:-1 4:0 5:24 6:0.4583 7:1 8:2 9:4 10:0.3333 11:0.3333 12:0.2083 13:19 14:4 15:0.3871 16:0.2903 17:0.172 18:0.2151 19:0.3226 20:0.2235 21:0.44 22:0 23:0.2632 24:3 
-0.02940688030744275 1:3 2:3 3:-1 4:0 5:20 6:0.6 7:2 8:2 9:5 10:0.3 11:0.45 12:0.1 13:14 14:4 15:0.3918 16:0.2784 17:0.1649 18:0.2268 19:0.3299 20:0.236 21:0.5 22:-1 23:0.2 24:1 
-0.4532861418028701 1:3 2:3 3:2 4:1 5:23 6:0.5217 7:1 8:1 9:3 10:0.2174 11:0.3478 12:0.2609 13:20 14:3 15:0.3924 16:0.3038 17:0.1899 18:0.2025 19:0.3038 20:0.2113 21:0.64 22:0.25 23:0.3846 24:10 
-0.8750668192231579 1:3 2:3 3:2 4:1 5:21 6:0.4762 7:1 8:1 9:3 10:0.2381 11:0.2857 12:0.2857 13:18 14:2 15:0.3924 16:0.3038 17:0.1899 18:0.2025 19:0.3038 20:0.2113 21:0.78 22:0.25 23:0.3333 24:10 
-0.3644317975759876 1:1 2:3 3:2 4:1 5:23 6:0.4783 7:1 8:1 9:3 10:0.2609 11:0.3043 12:0.2609 13:20 14:2 15:0.3827 16:0.3086 17:0.1852 18:0.1975 19:0.3086 20:0.2055 21:0.7 22:0.2857 23:0.3571 24:9 
-1 1:2 2:3 3:2 4:1 5:23 6:0.3636 7:1 8:1 9:3 10:0.3636 11:0.0909 12:0.2727 13:20 14:1 15:0.3924 16:0.3038 17:0.1899 18:0.2025 19:0.3038 20:0.2113 21:1.57 22:0.25 23:0.3846 24:10 
-0.5826040573885722 1:4 2:3 3:-1 4:0 5:24 6:0.3043 7:2 8:2 9:4 10:0.2609 11:0.087 12:0.4348 13:19 14:1 15:0.3956 16:0.2857 17:0.1758 18:0.2198 19:0.3187 20:0.2289 21:1.8 22:0 23:0.2778 24:4 
-0.08939793882156723 1:3 2:-1 3:3 4:4 5:25 6:0.3333 7:2 8:4 9:3 10:0.2083 11:0.25 12:0.4583 13:19 14:3 15:0.3226 16:0.2742 17:0.1452 18:0.1774 19:0.4032 20:0.1786 21:5 22:0.2653 23:0 24:29 
-0.02557607244384481 1:1 2:-1 3:3 4:4 5:24 6:0.3043 7:2 8:4 9:3 10:0.3478 11:0.087 12:0.3478 13:18 14:3 15:0.3226 16:0.2742 17:0.1452 18:0.1774 19:0.4032 20:0.1786 21:0 22:0.2653 23:0 24:29 
-0.1172061202584896 1:4 2:-1 3:3 4:5 5:24 6:0.25 7:2 8:4 9:3 10:0.4167 11:0.125 12:0.3333 13:17 14:-1 15:0.2653 16:0.3061 17:0.1224 18:0.1429 19:0.4286 20:0.2093 21:0.44 22:0.2258 23:-1 24:36 
-0.1302888320703407 1:4 2:4 3:-1 4:0 5:25 6:0.4583 7:4 8:3 9:4 10:0.2083 11:0.0417 12:0.3333 13:18 14:3 15:0.4037 16:0.2477 17:0.1927 18:0.211 19:0.3486 20:0.2233 21:0.78 22:0 23:0.1852 24:5 
-0.08819076165017474 1:3 2:4 3:-1 4:0 5:21 6:0.5238 7:4 8:3 9:4 10:0.1905 11:0.4286 12:0.2857 13:12 14:1 15:0.4052 16:0.2328 17:0.1897 18:0.2155 19:0.3621 20:0.2545 21:0.4 22:-1 23:0.1714 24:1 
-0.06806070688298856 1:3 2:-1 3:3 4:5 5:22 6:0.3182 7:2 8:4 9:3 10:0.1364 11:0.1818 12:0.5455 13:15 14:4 15:0.2889 16:0.2889 17:0.1333 18:0.1556 19:0.4222 20:0.2308 21:2.25 22:0.2121 23:-1 24:38 
-0.07685508130446472 1:3 2:3 3:3 4:3 5:25 6:0.3333 7:2 8:1 9:4 10:0.25 11:0.3333 12:0.4167 13:21 14:3 15:0.3571 16:0.2571 17:0.1714 18:0.1857 19:0.3857 20:0.1875 21:1.33 22:0.2683 23:0.375 24:25 
-0.083728786158598 1:3 2:-1 3:3 4:5 5:21 6:0.2857 7:1 8:4 9:2 10:0.2381 11:0.1905 12:0.4762 13:16 14:3 15:0.3091 16:0.2909 17:0.1455 18:0.1636 19:0.4 20:0.1837 21:5 22:0.25 23:0 24:32 
-0.05060757598666059 1:1 2:-1 3:3 4:5 5:21 6:0.2857 7:2 8:4 9:2 10:0.1429 11:0.1429 12:0.5714 13:16 14:2 15:0.2766 16:0.2979 17:0.1277 18:0.1489 19:0.4255 20:0.2195 21:1 22:0.2188 23:-1 24:37 
-0.09097002382803315 1:2 2:-1 3:-1 4:0 5:23 6:0.5652 7:1 8:2 9:4 10:0.2609 11:0.2609 12:0.1739 13:18 14:3 15:0.5833 16:0.1875 17:0.2708 18:0.3125 19:0.2292 20:0.1818 21:1 22:0 23:-1 24:32 
-0.2562224259011063 1:1 2:2 3:-1 4:0 5:22 6:0.5 7:1 8:-1 9:0 10:0.3182 11:0.2727 12:0.1818 13:22 14:3 15:0.5426 16:0.2128 17:0.2553 18:0.2872 19:0.2447 20:0.0889 21:0.9 22:0 23:0.1739 24:9 
-1 1:3 2:2 3:-1 4:0 5:23 6:0.5217 7:1 8:-1 9:0 10:0.3043 11:0.3043 12:0.1739 13:23 14:2 15:0.5326 16:0.2174 17:0.25 18:0.2826 19:0.25 20:0.0909 21:1.22 22:0 23:0.1905 24:10 
-0.05362992897011962 1:3 2:-1 3:-1 4:0 5:20 6:0.55 7:0 8:2 9:3 10:0.15 11:0.3 12:0.3 13:16 14:3 15:0.5769 16:0.1923 17:0.2692 18:0.3077 19:0.2308 20:0.1667 21:0.9 22:0 23:0 24:30 
-0.06623122701028344 1:4 2:-1 3:-1 4:0 5:24 6:0.5417 7:1 8:2 9:3 10:0.25 11:0.2917 12:0.2083 13:20 14:3 15:0.5714 16:0.1964 17:0.2679 18:0.3036 19:0.2321 20:0.1538 21:0.91 22:0 23:0 24:28 
-0.04492940401412879 1:2 2:-1 3:1 4:3 5:21 6:0.4091 7:1 8:2 9:3 10:0.2727 11:0.2273 12:0.3182 13:17 14:-1 15:0.5227 16:0.2045 17:0.25 18:0.2727 19:0.2727 20:0.15 21:1.83 22:0.1071 23:-1 24:30 
-0.01111233105246052 1:2 2:-1 3:1 4:3 5:23 6:0.4167 7:1 8:2 9:3 10:0.2917 11:0.2083 12:0.2917 13:19 14:-1 15:0.5208 16:0.2083 17:0.25 18:0.2708 19:0.2708 20:0.1364 21:1.83 22:0.1154 23:-1 24:28 
-0.1147940914988077 1:2 2:2 3:1 4:3 5:21 6:0.5238 7:0 8:1 9:1 10:0.1905 11:0.1905 12:0.2857 13:20 14:4 15:0.5179 16:0.2143 17:0.25 18:0.2679 19:0.2679 20:0.1154 21:0.7 22:0.1364 23:0.4 24:24 
-1 1:2 2:2 3:1 4:3 5:24 6:0.5217 7:0 8:1 9:1 10:0.2609 11:0.2609 12:0.2174 13:23 14:1 15:0.5303 16:0.2121 17:0.2576 18:0.2727 19:0.2576 20:0.0968 21:1.83 22:0.1765 23:0.2857 24:19 
-0.09292773404181297 1:3 2:1 3:-1 4:0 5:24 6:0.4783 7:1 8:2 9:5 10:0.2174 11:0.3913 12:0.3043 13:15 14:1 15:0.411 16:0.2329 17:0.1644 18:0.2466 19:0.3562 20:0.2647 21:1 22:0 23:0.1304 24:6 
-0.03541681503735407 1:4 2:2 3:-1 4:0 5:24 6:0.375 7:1 8:2 9:4 10:0.3333 11:0.1667 12:0.2917 13:17 14:4 15:0.4304 16:0.2278 17:0.1772 18:0.2532 19:0.3418 20:0.2432 21:0.88 22:0 23:0.2414 24:3 
-0.08385593886395137 1:1 2:3 3:-1 4:0 5:24 6:0.3333 7:1 8:6 9:1 10:0.25 11:0.125 12:0.4167 13:18 14:3 15:0.2718 16:0.3107 17:0.1359 18:0.1359 19:0.4175 20:0.2577 21:0 22:-1 23:0.2653 24:2 
-0.7095732896721015 1:4 2:2 3:-1 4:0 5:26 6:0.375 7:3 8:2 9:3 10:0.25 11:0.2917 12:0.375 13:21 14:1 15:0.2877 16:0.274 17:0.137 18:0.1507 19:0.4384 20:0.194 21:0.67 22:0 23:0.2941 24:17 
-0.03167777323182393 1:1 2:2 3:-1 4:0 5:24 6:0.2917 7:3 8:2 9:3 10:0.2083 11:0.0417 12:0.5 13:19 14:3 15:0.3043 16:0.2609 17:0.1449 18:0.1594 19:0.4348 20:0.2063 21:1.5 22:0 23:0.2941 24:19 
-0.01476095724611689 1:4 2:-1 3:-1 4:0 5:26 6:0.4167 7:4 8:3 9:4 10:0.25 11:0.3333 12:0.3333 13:18 14:3 15:0.2881 16:0.2542 17:0.1356 18:0.1525 19:0.4576 20:0.2453 21:0.7 22:0 23:0 24:24 
-0.07394207876348201 1:4 2:3 3:-1 4:0 5:23 6:0.3043 7:1 8:7 9:1 10:0.2609 11:0.1304 12:0.4348 13:16 14:1 15:0.2667 16:0.3143 17:0.1333 18:0.1333 19:0.419 20:0.2727 21:0 22:-1 23:0.2453 24:1 
-0.08602101350804431 1:4 2:3 3:-1 4:0 5:21 6:0.2857 7:1 8:7 9:1 10:0.2381 11:0.0952 12:0.4762 13:14 14:4 15:0.2667 16:0.3143 17:0.1333 18:0.1333 19:0.419 20:0.2727 21:0 22:-1 23:0.2281 24:1 
-0.2061619081550992 1:1 2:6 3:-1 4:0 5:24 6:0.375 7:0 8:1 9:4 10:0.2917 11:0.1667 12:0.3333 13:20 14:3 15:0.3086 16:0.3086 17:0.1852 18:0.1235 19:0.3827 20:0.2727 21:1 22:0 23:0.4483 24:20 
-0.1084538966585083 1:4 2:-1 3:1 4:3 5:20 6:0.35 7:1 8:6 9:3 10:0.35 11:0.15 12:0.3 13:12 14:4 15:0.2326 16:0.3256 17:0.1395 18:0.093 19:0.4419 20:0.3846 21:0.88 22:0.0811 23:-1 24:39 
-0.006057154845314356 1:1 2:6 3:1 4:1 5:21 6:0.381 7:0 8:1 9:4 10:0.2857 11:0.1429 12:0.3333 13:17 14:4 15:0.2687 16:0.3134 17:0.1642 18:0.1045 19:0.4179 20:0.3016 21:1 22:0.04 23:0.5238 24:27 
-0.4349511896245119 1:2 2:6 3:-1 4:0 5:23 6:0.4783 7:0 8:1 9:1 10:0.2174 11:0.1304 12:0.3043 13:22 14:2 15:0.3394 16:0.3028 17:0.1927 18:0.1468 19:0.3578 20:0.2 21:1.25 22:0 23:0.322 24:6 
-0.2510162316263458 1:1 2:6 3:-1 4:0 5:21 6:0.4762 7:0 8:1 9:1 10:0.2381 11:0.1429 12:0.2857 13:20 14:2 15:0.3394 16:0.3028 17:0.1927 18:0.1468 19:0.3578 20:0.2 21:1.25 22:0 23:0.3016 24:6 
-0.1177874648903626 1:4 2:6 3:1 4:1 5:20 6:0.3 7:1 8:1 9:4 10:0.35 11:0.15 12:0.35 13:16 14:3 15:0.254 16:0.3175 17:0.1587 18:0.0952 19:0.4286 20:0.322 21:1.4 22:0.037 23:0.5789 24:29 
-0.08805817744689963 1:3 2:6 3:-1 4:0 5:21 6:0.4762 7:1 8:1 9:1 10:0.1429 11:0.2857 12:0.381 13:20 14:1 15:0.3644 16:0.2881 17:0.1949 18:0.1695 19:0.3475 20:0.193 21:1.43 22:-1 23:0.2877 24:1 
-0.1155122097328289 1:4 2:-1 3:1 4:3 5:21 6:0.3182 7:1 8:6 9:4 10:0.4091 11:0.1364 12:0.2727 13:12 14:-1 15:0.2326 16:0.3256 17:0.1395 18:0.093 19:0.4419 20:0.3846 21:1.17 22:0.0811 23:-1 24:39 
-0.1817139868788415 1:4 2:6 3:1 4:1 5:21 6:0.381 7:0 8:1 9:3 10:0.2381 11:0.1905 12:0.381 13:18 14:3 15:0.2933 16:0.3067 17:0.1733 18:0.12 19:0.4 20:0.2676 21:1.43 22:0.0476 23:0.4483 24:23 
-0.1045938901755443 1:1 2:-1 3:-1 4:0 5:24 6:0.1739 7:1 8:2 9:3 10:0.4348 11:0.087 12:0.3913 13:19 14:1 15:0.3016 16:0.381 17:0.1429 18:0.1587 19:0.3175 20:0.1525 21:0.75 22:0 23:0 24:6 
-0.1325952735785355 1:1 2:-1 3:-1 4:0 5:20 6:0.3 7:0 8:2 9:4 10:0.35 11:0.25 12:0.35 13:13 14:1 15:0.274 16:0.411 17:0.1233 18:0.1507 19:0.3151 20:0.1884 21:1.5 22:-1 23:0 24:1 
-0.0148529079864896 1:4 2:-1 3:2 4:3 5:25 6:0.2609 7:0 8:5 9:3 10:0.3043 11:0.1304 12:0.4348 13:12 14:1 15:0.3158 16:0.3158 17:0.1579 18:0.1579 19:0.3684 20:0.4118 21:1 22:0.1667 23:0 24:30 
-0.001771970264048617 1:2 2:-1 3:3 4:3 5:25 6:0.3636 7:0 8:4 9:3 10:0.3636 11:0.1818 12:0.2727 13:14 14:4 15:0.3019 16:0.3208 17:0.1321 18:0.1698 19:0.3774 20:0.3617 21:1.4 22:0.2308 23:0 24:32 
-0.03718583760506738 1:4 2:1 3:2 4:3 5:23 6:0.2857 7:0 8:4 9:3 10:0.2857 11:0.1429 12:0.4286 13:12 14:4 15:0.3273 16:0.3091 17:0.1636 18:0.1636 19:0.3636 20:0.3878 21:3 22:0.2 23:0.1429 24:31 
-0.02855095811425031 1:1 2:4 3:2 4:2 5:26 6:0.2917 7:0 8:6 9:2 10:0.4583 11:0.125 12:0.25 13:16 14:3 15:0.2836 16:0.3433 17:0.1343 18:0.1493 19:0.3731 20:0.377 21:1 22:0.1579 23:0.5385 24:25 
-0.02971126462229494 1:2 2:-1 3:3 4:3 5:26 6:0.3478 7:0 8:4 9:3 10:0.3913 11:0.1739 12:0.2609 13:15 14:2 15:0.3019 16:0.3208 17:0.1321 18:0.1698 19:0.3774 20:0.3617 21:1 22:0.2308 23:-1 24:32 
-0.01091197408439024 1:1 2:2 3:2 4:2 5:26 6:0.25 7:0 8:6 9:3 10:0.3333 11:0.125 12:0.4167 13:14 14:1 15:0.3016 16:0.3333 17:0.1429 18:0.1587 19:0.3651 20:0.4035 21:1 22:0.1429 23:0.3333 24:27 
-0.009899209438172626 1:2 2:2 3:2 4:3 5:22 6:0.4 7:0 8:4 9:3 10:0.35 11:0.2 12:0.25 13:12 14:4 15:0.3273 16:0.3091 17:0.1636 18:0.1636 19:0.3636 20:0.3878 21:1 22:0.2 23:0.3333 24:31 
-0.03447877367427869 1:4 2:1 3:2 4:3 5:24 6:0.2917 7:0 8:11 9:1 10:0.2083 11:0.125 12:0.5 13:13 14:2 15:0.375 16:0.2857 17:0.1964 18:0.1786 19:0.3393 20:0.3962 21:1.11 22:0.2 23:0.25 24:28 
-0.08851313049454695 1:2 2:1 3:2 4:3 5:22 6:0.5714 7:0 8:11 9:1 10:0.2381 11:0.2381 12:0.1905 13:11 14:2 15:0.38 16:0.28 17:0.2 18:0.18 19:0.34 20:0.4468 21:1 22:0.1786 23:0.3333 24:31 
-0.5318635610903878 1:3 2:11 3:2 4:1 5:20 6:0.35 7:0 8:2 9:2 10:0.25 11:0.25 12:0.4 13:17 14:4 15:0.4082 16:0.2755 17:0.2143 18:0.1939 19:0.3163 20:0.2842 21:1.75 22:0.5 23:0.4035 24:7 
-0.09918326784090714 1:1 2:-1 3:2 4:3 5:25 6:0.5 7:0 8:11 9:2 10:0.2917 11:0.2083 12:0.2083 13:13 14:2 15:0.38 16:0.28 17:0.2 18:0.18 19:0.34 20:0.4468 21:0.7 22:0.1786 23:-1 24:31 
-0.09645560555878514 1:1 2:11 3:-1 4:0 5:21 6:0.381 7:0 8:2 9:3 10:0.2381 11:0.2857 12:0.381 13:16 14:1 15:0.4118 16:0.2647 17:0.2059 18:0.2059 19:0.3235 20:0.3131 21:1.75 22:0 23:0.3898 24:5 
-0.07830007255142479 1:1 2:2 3:2 4:2 5:21 6:0.5714 7:0 8:9 9:2 10:0.3333 11:0.2857 12:0.0952 13:11 14:1 15:0.4062 16:0.2812 17:0.2188 18:0.1875 19:0.3125 20:0.377 21:0 22:0.1905 23:0.2381 24:24 
-0.00728449332009275 1:1 2:2 3:2 4:2 5:24 6:0.5833 7:0 8:9 9:2 10:0.2917 11:0.3333 12:0.125 13:14 14:1 15:0.4286 16:0.2714 17:0.2286 18:0.2 19:0.3 20:0.3433 21:0 22:0.2222 23:0.2381 24:21 
-0.6318457600777351 1:1 2:2 3:2 4:3 5:24 6:0.5 7:1 8:3 9:3 10:0.2917 11:0.3333 12:0.2083 13:17 14:1 15:0.4857 16:0.2714 17:0.1857 18:0.3 19:0.2429 20:0.2615 21:0.4 22:0.3043 23:0.3 24:17 
-0.1313930919165514 1:2 2:2 3:2 4:4 5:21 6:0.45 7:1 8:3 9:2 10:0.15 11:0.25 12:0.4 13:16 14:4 15:0.4677 16:0.2742 17:0.1774 18:0.2903 19:0.2581 20:0.2281 21:2.5 22:0.3548 23:0.3333 24:21 
-0.2120663309141591 1:4 2:2 3:2 4:4 5:23 6:0.3913 7:2 8:3 9:2 10:0.3478 11:0.2609 12:0.2609 13:18 14:2 15:0.45 16:0.2833 17:0.1667 18:0.2833 19:0.2667 20:0.2364 21:1 22:0.3333 23:0.5 24:22 
-0.06014936684639673 1:1 2:-1 3:1 4:4 5:22 6:0.2381 7:2 8:5 9:4 10:0.1905 11:0.1429 12:0.5714 13:12 14:4 15:0.3913 16:0.2391 17:0.1739 18:0.2174 19:0.3696 20:0.2727 21:0 22:0.1111 23:-1 24:26 
-0.07172514449788535 1:3 2:-1 3:1 4:3 5:25 6:0.5455 7:2 8:6 9:5 10:0.2727 11:0.3636 12:0.1818 13:13 14:1 15:0.38 16:0.26 17:0.16 18:0.22 19:0.36 20:0.2973 21:5 22:0.0732 23:-1 24:24 
-0.01621894981069591 1:4 2:2 3:1 4:1 5:26 6:0.3333 7:2 8:2 9:4 10:0.0833 11:0.125 12:0.5833 13:21 14:3 15:0.3837 16:0.2558 17:0.1628 18:0.2209 19:0.3605 20:0.1781 21:0.56 22:0.2 23:0.28 24:5 
-0.02759111390487259 1:4 2:-1 3:1 4:4 5:24 6:0.5455 7:2 8:6 9:4 10:0.2727 11:0.3182 12:0.1818 13:13 14:1 15:0.375 16:0.25 17:0.1667 18:0.2083 19:0.375 20:0.2571 21:5 22:0.1163 23:-1 24:25 
-0.001901567305829195 1:4 2:2 3:-1 4:0 5:25 6:0.3478 7:2 8:1 9:5 10:0.1304 11:0.087 12:0.5217 13:20 14:2 15:0.3933 16:0.2584 17:0.1685 18:0.2247 19:0.3483 20:0.1842 21:0.5 22:0 23:0.2903 24:3 
-1 1:3 2:2 3:1 4:1 5:21 6:0.4762 7:2 8:1 9:2 10:0.1429 11:0.1429 12:0.381 13:19 14:1 15:0.4342 16:0.2368 17:0.25 18:0.1842 19:0.3289 20:0.1667 21:0.67 22:0.037 23:0.3333 24:20 
-0.2493995096457747 1:2 2:2 3:1 4:1 5:23 6:0.5217 7:2 8:2 9:2 10:0.1304 11:0.1304 12:0.3478 13:20 14:1 15:0.4342 16:0.2368 17:0.25 18:0.1842 19:0.3289 20:0.1667 21:0.56 22:0.037 23:0.2857 24:20 
-0.05340272310300388 1:4 2:-1 3:1 4:1 5:21 6:0.3333 7:0 8:4 9:4 10:0.381 11:0.0476 12:0.2857 13:12 14:3 15:0.38 16:0.26 17:0.26 18:0.12 19:0.36 20:0.2941 21:0 22:0.0189 23:-1 24:33 
-0.04812445183405925 1:4 2:-1 3:-1 4:0 5:22 6:0.3182 7:1 8:2 9:1 10:0.3182 11:0.2273 12:0.3636 13:20 14:3 15:0.4559 16:0.25 17:0.2059 18:0.25 19:0.2941 20:0.069 21:0.67 22:0 23:0 24:6 
-0.004438084005365939 1:2 2:-1 3:-1 4:0 5:23 6:0.3478 7:1 8:2 9:1 10:0.3043 11:0.2174 12:0.3478 13:21 14:3 15:0.4559 16:0.25 17:0.2059 18:0.25 19:0.2941 20:0.069 21:0.75 22:0 23:0 24:6 
-0.02324717164360405 1:1 2:-1 3:-1 4:0 5:21 6:0.381 7:1 8:2 9:1 10:0.1905 11:0.2381 12:0.4286 13:19 14:4 15:0.4605 16:0.25 17:0.2105 18:0.25 19:0.2895 20:0.0606 21:0.4 22:-1 23:0 24:2 
-0.05030917991115794 1:1 2:-1 3:-1 4:0 5:23 6:0.4783 7:1 8:2 9:1 10:0.3478 11:0.2174 12:0.1739 13:21 14:1 15:0.4605 16:0.25 17:0.2105 18:0.25 19:0.2895 20:0.0606 21:1.43 22:-1 23:0 24:1 
-0.005212309305647332 1:1 2:-1 3:-1 4:0 5:22 6:0.3636 7:1 8:2 9:2 10:0.1818 11:0.2273 12:0.4545 13:19 14:4 15:0.4545 16:0.2468 17:0.2078 18:0.2468 19:0.2987 20:0.0746 21:0.57 22:-1 23:0 24:1 
-0.413506734067304 1:3 2:7 3:-1 4:0 5:21 6:0.381 7:0 8:1 9:2 10:0.381 11:0.1429 12:0.2381 13:19 14:3 15:0.3684 16:0.2737 17:0.2105 18:0.1579 19:0.3579 20:0.2346 21:0.82 22:-1 23:0.3846 24:5 
-0.2061242853611985 1:3 2:7 3:-1 4:0 5:23 6:0.3478 7:0 8:4 9:3 10:0.3913 11:0.087 12:0.2609 13:17 14:2 15:0.3689 16:0.2718 17:0.2136 18:0.1553 19:0.3592 20:0.3034 21:0 22:-1 23:0.3488 24:1 
-0.03399074095915926 1:4 2:-1 3:1 4:2 5:25 6:0.3636 7:0 8:7 9:3 10:0.2727 11:0.1364 12:0.3636 13:12 14:3 15:0.3585 16:0.2453 17:0.2075 18:0.1509 19:0.3962 20:0.3846 21:0 22:0.0952 23:-1 24:26 
-0.07463210314345851 1:4 2:-1 3:1 4:2 5:26 6:0.4348 7:0 8:7 9:2 10:0.3478 11:0.1739 12:0.2174 13:17 14:1 15:0.403 16:0.2388 17:0.2239 18:0.1791 19:0.3582 20:0.283 21:0.4 22:0.1429 23:0 24:19 
-0.04885049449253547 1:2 2:7 3:-1 4:0 5:22 6:0.3636 7:0 8:2 9:3 10:0.2273 11:0.1818 12:0.4091 13:18 14:2 15:0.3636 16:0.2727 17:0.2121 18:0.1515 19:0.3636 20:0.2706 21:2.2 22:-1 23:0.3659 24:3 
-0.02541737430487432 1:4 2:-1 3:1 4:2 5:26 6:0.4783 7:0 8:7 9:2 10:0.2609 11:0.2174 12:0.2609 13:17 14:4 15:0.4286 16:0.2222 17:0.2381 18:0.1905 19:0.3492 20:0.3061 21:0.45 22:0.125 23:-1 24:21 
-0.03397468786921515 1:4 2:2 3:1 4:2 5:20 6:0.5 7:0 8:7 9:1 10:0.2 11:0.25 12:0.3 13:13 14:4 15:0.3898 16:0.2373 17:0.2203 18:0.1695 19:0.3729 20:0.3333 21:2.75 22:0.1111 23:0.5 24:23 
