svm_type c_svc
kernel_type rbf
gamma 0.0416667
nr_class 2
total_sv 58
rho 0.813595
label 1 0
probA -3.63133
probB -1.15991
nr_sv 12 46
SV
1 1:4 2:7 3:-1 4:0 5:22 6:0.4286 7:1 8:3 9:4 10:0.2381 11:0.1905 12:0.3333 13:14 14:3 15:0.4842 16:0.2211 17:0.2526 18:0.2316 19:0.2947 20:0.3333 21:0.75 22:0 23:0.3469 24:9 
1 1:4 2:4 3:-1 4:0 5:22 6:0.6364 7:2 8:2 9:2 10:0.1364 11:0.1818 12:0.2273 13:19 14:3 15:0.4419 16:0.2442 17:0.2326 18:0.2093 19:0.314 20:0.2267 21:1.11 22:0 23:0.3939 24:17 
1 1:3 2:2 3:2 4:3 5:22 6:0.5238 7:0 8:2 9:2 10:0.2857 11:0.5238 12:0.1905 13:19 14:3 15:0.4925 16:0.2388 17:0.209 18:0.2836 19:0.2687 20:0.1475 21:1.8 22:0.1579 23:0.2222 24:26 
1 1:1 2:2 3:3 4:2 5:22 6:0.5455 7:0 8:3 9:3 10:0.4091 11:0.3636 12:0.0455 13:17 14:1 15:0.5057 16:0.2414 17:0.2529 18:0.2529 19:0.2529 20:0.1807 21:0.88 22:0.2381 23:0.1282 24:17 
1 1:1 2:1 3:1 4:1 5:22 6:0.5455 7:0 8:3 9:4 10:0.3636 11:0.3636 12:0.0909 13:16 14:1 15:0.5185 16:0.2716 17:0.284 18:0.2346 19:0.2099 20:0.2208 21:0.43 22:0.0769 23:0.1515 24:10 
1 1:4 2:4 3:3 4:1 5:20 6:0.35 7:0 8:1 9:1 10:0.25 11:0.1 12:0.4 13:19 14:1 15:0.2949 16:0.3077 17:0.1154 18:0.1795 19:0.3974 20:0.1268 21:0.8 22:0.2308 23:0.2727 24:18 
1 1:1 2:3 3:-1 4:0 5:23 6:0.3913 7:1 8:2 9:3 10:0.3043 11:0.3043 12:0.3043 13:19 14:1 15:0.4667 16:0.2 17:0.2667 18:0.2 19:0.3333 20:0.25 21:1.12 22:-1 23:0.6 24:3 
1 1:4 2:3 3:-1 4:0 5:20 6:0.5 7:0 8:-1 9:0 10:0.25 11:0.3 12:0.25 13:20 14:3 15:0.549 16:0.2255 17:0.2647 18:0.2843 19:0.2255 20:0.0816 21:1.11 22:0 23:0.1379 24:10 
1 1:2 2:3 3:5 4:1 5:22 6:0.4286 7:2 8:1 9:2 10:0.5238 11:0.3333 12:0.0476 13:20 14:2 15:0.3833 16:0.3167 17:0.1833 18:0.2 19:0.3 20:0.1273 21:1.25 22:0.1724 23:0.4667 24:25 
1 1:1 2:4 3:-1 4:0 5:20 6:0.45 7:0 8:2 9:1 10:0.35 11:0.25 12:0.2 13:18 14:2 15:0.4615 16:0.3077 17:0.1923 18:0.2692 19:0.2308 20:0.2174 21:0.89 22:0 23:0.4194 24:17 
1 1:2 2:4 3:2 4:1 5:24 6:0.5455 7:1 8:2 9:4 10:0.3182 11:0.2273 12:0.1364 13:19 14:3 15:0.4943 16:0.2644 17:0.2299 18:0.2644 19:0.2414 20:0.25 21:0.91 22:0.3333 23:0.3889 24:16 
1 1:4 2:3 3:4 4:3 5:23 6:0.4762 7:4 8:4 9:3 10:0.2381 11:0.3333 12:0.2857 13:17 14:1 15:0.3939 16:0.2727 17:0.1818 18:0.2121 19:0.3333 20:0.2727 21:0.67 22:0.35 23:0.5385 24:24 
-0.1206006093173481 1:2 2:1 3:3 4:4 5:27 6:0.5 7:0 8:7 9:4 10:0.1 11:0.35 12:0.4 13:14 14:3 15:0.4821 16:0.2143 17:0.2857 18:0.1964 19:0.3036 20:0.3725 21:3.33 22:0.2245 23:0.3333 24:29 
-0.7099493565336007 1:4 2:7 3:3 4:2 5:24 6:0.4583 7:0 8:4 9:4 10:0.1667 11:0.25 12:0.375 13:16 14:2 15:0.4737 16:0.2237 17:0.2632 18:0.2105 19:0.3026 20:0.3239 21:1 22:0.2414 23:0.36 24:19 
-0.1471078587704751 1:3 2:-1 3:3 4:4 5:29 6:0.5652 7:0 8:7 9:5 10:0.087 11:0.3478 12:0.3478 13:16 14:-1 15:0.5192 16:0.2115 17:0.3077 18:0.2115 19:0.2692 20:0.3191 21:0.83 22:0.283 23:-1 24:31 
-0.1380243999955369 1:2 2:1 3:4 4:5 5:21 6:0.4762 7:0 8:7 9:2 10:0.3333 11:0.0952 12:0.1905 13:12 14:4 15:0.4773 16:0.25 17:0.2727 18:0.2045 19:0.2727 20:0.2821 21:0.71 22:0.3115 23:0.3333 24:35 
-0.6154883749655102 1:3 2:4 3:1 4:2 5:20 6:0.5 7:2 8:2 9:2 10:0.25 11:0.3 12:0.25 13:17 14:3 15:0.4091 16:0.2576 17:0.2121 18:0.197 19:0.3333 20:0.2364 21:1.12 22:0.1429 23:0.5294 24:27 
-0.08474971644890957 1:1 2:4 3:-1 4:0 5:26 6:0.4545 7:1 8:7 9:3 10:0.2273 11:0.3636 12:0.3182 13:16 14:2 15:0.4423 16:0.25 17:0.2212 18:0.2212 19:0.3077 20:0.2903 21:0.3 22:-1 23:0.2766 24:6 
-0.07467288057171802 1:4 2:4 3:-1 4:0 5:25 6:0.4286 7:0 8:9 9:3 10:0.2857 11:0.381 12:0.2857 13:13 14:3 15:0.4352 16:0.2593 17:0.213 18:0.2222 19:0.3056 20:0.3196 21:0 22:-1 23:0.2453 24:4 
-0.4445707523806893 1:3 2:1 3:2 4:2 5:23 6:0.4348 7:2 8:3 9:2 10:0.1304 11:0.2174 12:0.4348 13:18 14:4 15:0.4219 16:0.2656 17:0.2188 18:0.2031 19:0.3125 20:0.2075 21:5 22:0.2 23:0.3333 24:28 
-0.2959756330605706 1:4 2:2 3:-1 4:0 5:23 6:0.6087 7:2 8:2 9:3 10:0.2609 11:0.4348 12:0.1304 13:19 14:1 15:0.5053 16:0.2105 17:0.2 18:0.3053 19:0.2842 20:0.1685 21:0.82 22:0 23:0.2 24:11 
-0.1393766508431959 1:2 2:2 3:-1 4:0 5:26 6:0.4583 7:3 8:2 9:3 10:0.0833 11:0.25 12:0.4583 13:22 14:1 15:0.5248 16:0.198 17:0.2079 18:0.3168 19:0.2772 20:0.1579 21:1 22:0 23:0.2 24:8 
-1 1:2 2:2 3:1 4:1 5:21 6:0.5714 7:2 8:2 9:2 10:0.2857 11:0.4762 12:0.1429 13:18 14:2 15:0.4889 16:0.2222 17:0.1889 18:0.3 19:0.2889 20:0.1667 21:0.91 22:0.0667 23:0.2093 24:14 
-0.2608752419558439 1:2 2:2 3:1 4:1 5:24 6:0.625 7:2 8:2 9:2 10:0.25 11:0.4583 12:0.125 13:21 14:2 15:0.5106 16:0.2128 17:0.2021 18:0.3085 19:0.2766 20:0.1591 21:1 22:0.0909 23:0.2195 24:12 
-0.1876620242870622 1:4 2:2 3:3 4:4 5:20 6:0.65 7:1 8:1 9:2 10:0.15 11:0.2 12:0.2 13:18 14:3 15:0.4915 16:0.2542 17:0.2373 18:0.2542 19:0.2542 20:0.1273 21:0.91 22:0.2653 23:0.2 24:31 
-0.1349540219576295 1:1 2:-1 3:3 4:5 5:21 6:0.4286 7:2 8:2 9:2 10:0.3333 11:0.3333 12:0.2381 13:18 14:4 15:0.4222 16:0.2667 17:0.2 18:0.2222 19:0.3111 20:0.122 21:1 22:0.2381 23:-1 24:38 
-0.4448299308067004 1:2 2:2 3:1 4:1 5:22 6:0.5455 7:1 8:3 9:3 10:0.3636 11:0.3182 12:0.0909 13:15 14:4 15:0.5104 16:0.2396 17:0.25 18:0.2604 19:0.25 20:0.1957 21:0.45 22:0.1667 23:0.1373 24:11 
-0.2578142990435114 1:1 2:2 3:-1 4:0 5:21 6:0.4762 7:1 8:3 9:4 10:0.4286 11:0.2857 12:0.0952 13:13 14:4 15:0.5098 16:0.2451 17:0.2451 18:0.2647 19:0.2451 20:0.2041 21:1.14 22:0 23:0.1186 24:8 
-0.2031492942497233 1:2 2:2 3:-1 4:0 5:22 6:0.5 7:1 8:3 9:4 10:0.4091 11:0.2727 12:0.0909 13:15 14:4 15:0.5102 16:0.2755 17:0.2755 18:0.2347 19:0.2143 20:0.234 21:0.36 22:-1 23:0.1765 24:1 
-0.07669828200230155 1:2 2:2 3:-1 4:0 5:20 6:0.45 7:1 8:3 9:4 10:0.45 11:0.25 12:0.1 13:13 14:2 15:0.5102 16:0.2755 17:0.2755 18:0.2347 19:0.2143 20:0.234 21:0.57 22:-1 23:0.1636 24:1 
-0.4640464648942602 1:2 2:-1 3:3 4:3 5:22 6:0.4545 7:1 8:2 9:4 10:0.4091 11:0.2727 12:0.1364 13:17 14:4 15:0.4737 16:0.3158 17:0.2632 18:0.2105 19:0.2105 20:0.1698 21:1.33 22:0.2432 23:0 24:22 
-0.6442966006298089 1:4 2:-1 3:3 4:3 5:23 6:0.6364 7:1 8:2 9:4 10:0.1818 11:0.1818 12:0.1818 13:18 14:1 15:0.4921 16:0.3016 17:0.2698 18:0.2222 19:0.2063 20:0.1525 21:0.91 22:0.2903 23:0 24:19 
-0.1200793089923321 1:4 2:1 3:3 4:1 5:29 6:0.2727 7:3 8:4 9:4 10:0.4091 11:0.1364 12:0.3182 13:21 14:2 15:0.2833 16:0.3 17:0.1 18:0.1833 19:0.4167 20:0.1698 21:1.14 22:0.1364 23:0.5 24:27 
-0.232679951873477 1:1 2:1 3:3 4:1 5:28 6:0.2857 7:2 8:4 9:4 10:0.4286 11:0.1429 12:0.2857 13:20 14:2 15:0.2833 16:0.3 17:0.1 18:0.1833 19:0.4167 20:0.1698 21:1.29 22:0.1364 23:0.3333 24:27 
-0.09889218570146732 1:1 2:-1 3:3 4:2 5:27 6:0.2917 7:3 8:4 9:4 10:0.2917 11:0.2083 12:0.4167 13:17 14:4 15:0.2708 16:0.3125 17:0.0833 18:0.1875 19:0.4167 20:0.1707 21:4.5 22:0.1429 23:-1 24:33 
-0.4337628836048856 1:4 2:4 3:-1 4:0 5:20 6:0.25 7:2 8:3 9:1 10:0.2 11:0.1 12:0.55 13:17 14:3 15:0.2941 16:0.3039 17:0.1176 18:0.1765 19:0.402 20:0.1579 21:0.9 22:0 23:0.193 24:6 
-0.06475371484364946 1:2 2:-1 3:1 4:1 5:20 6:0.5714 7:0 8:3 9:4 10:0.1429 11:0.1429 12:0.2857 13:13 14:1 15:0.5238 16:0.1429 17:0.3095 18:0.2143 19:0.3333 20:0.3158 21:0.5 22:0.1111 23:-1 24:13 
-0.02987198246298715 1:4 2:-1 3:1 4:1 5:20 6:0.55 7:0 8:3 9:4 10:0.15 11:0.15 12:0.3 13:13 14:1 15:0.5238 16:0.1429 17:0.3095 18:0.2143 19:0.3333 20:0.3158 21:0.5 22:0.1111 23:-1 24:13 
-0.01740212915069694 1:4 2:-1 3:1 4:1 5:22 6:0.5 7:0 8:3 9:4 10:0.1364 11:0.1364 12:0.3636 13:15 14:4 15:0.4783 16:0.1739 17:0.2826 18:0.1957 19:0.3478 20:0.2857 21:0.6 22:0.1429 23:-1 24:11 
-0.5450003419820393 1:1 2:-1 3:1 4:1 5:22 6:0.4348 7:0 8:3 9:4 10:0.2174 11:0.2609 12:0.3478 13:15 14:-1 15:0.4783 16:0.1739 17:0.2826 18:0.1957 19:0.3478 20:0.2857 21:1.67 22:0.1429 23:-1 24:11 
-0.04637283692824661 1:4 2:2 3:-1 4:0 5:21 6:0.4762 7:1 8:1 9:2 10:0.2381 11:0.2857 12:0.2857 13:19 14:1 15:0.6071 16:0.1964 17:0.2857 18:0.3214 19:0.1964 20:0.1538 21:2.2 22:0 23:0.4 24:33 
-0.1271085289994157 1:3 2:3 3:-1 4:0 5:21 6:0.4762 7:1 8:1 9:1 10:0.1905 11:0.2857 12:0.3333 13:20 14:2 15:0.5806 16:0.2097 17:0.2742 18:0.3065 19:0.2097 20:0.1379 21:1.29 22:0 23:0.375 24:30 
-0.5633725147532914 1:2 2:3 3:-1 4:0 5:22 6:0.5909 7:0 8:-1 9:0 10:0.2727 11:0.2273 12:0.1364 13:22 14:4 15:0.5952 16:0.2024 17:0.2857 18:0.3095 19:0.2024 20:0.1 21:0.91 22:0 23:0.2222 24:19 
-0.2652420119910789 1:1 2:3 3:-1 4:0 5:22 6:0.5455 7:0 8:-1 9:0 10:0.3182 11:0.1818 12:0.1364 13:22 14:2 15:0.5854 16:0.2073 17:0.2805 18:0.3049 19:0.2073 20:0.1026 21:0.91 22:0 23:0.2353 24:20 
-0.1237191879046676 1:4 2:-1 3:6 4:2 5:21 6:0.3 7:0 8:3 9:2 10:0.3 11:0.15 12:0.4 13:16 14:1 15:0.3571 16:0.381 17:0.1905 18:0.1667 19:0.2619 20:0.1351 21:1.8 22:0.1489 23:-1 24:35 
-0.1761164639437018 1:2 2:3 3:-1 4:0 5:33 6:0.4091 7:3 8:6 9:3 10:0 11:0 12:0.5909 13:20 14:1 15:0.4167 16:0.2812 17:0.2083 18:0.2083 19:0.3021 20:0.2088 21:1 22:-1 23:0.1795 24:2 
-0.3874147495456876 1:1 2:3 3:-1 4:0 5:25 6:0.4583 7:2 8:6 9:2 10:0.4583 11:0.4167 12:0.0833 13:18 14:2 15:0.4026 16:0.3117 17:0.1948 18:0.2078 19:0.2857 20:0.1667 21:0.9 22:0 23:0.2258 24:14 
-0.1476428708951909 1:3 2:3 3:-1 4:0 5:22 6:0.4545 7:1 8:6 9:2 10:0.4091 11:0.4091 12:0.1364 13:15 14:2 15:0.4 16:0.3 17:0.1889 18:0.2111 19:0.3 20:0.1529 21:1.14 22:-1 23:0.16 24:7 
-0.08840627830951049 1:2 2:-1 3:-1 4:0 5:23 6:0.6 7:1 8:4 9:5 10:0.2 11:0.2 12:0.2 13:13 14:4 15:0.52 16:0.3 17:0.2 18:0.32 19:0.18 20:0.3659 21:1.8 22:0 23:-1 24:31 
-0.08362178411856579 1:1 2:1 3:-1 4:0 5:21 6:0.5714 7:1 8:4 9:4 10:0.3333 11:0.4762 12:0.0952 13:12 14:2 15:0.52 16:0.3 17:0.2 18:0.32 19:0.18 20:0.3659 21:0.62 22:0 23:0.5 24:31 
-0.4955439791344022 1:2 2:4 3:-1 4:0 5:21 6:0.4762 7:1 8:2 9:3 10:0.2857 11:0.3333 12:0.2381 13:16 14:3 15:0.4848 16:0.303 17:0.197 18:0.2879 19:0.2121 20:0.2632 21:1.25 22:0 23:0.4737 24:23 
-0.4586966691526856 1:1 2:4 3:-1 4:0 5:22 6:0.5 7:0 8:-1 9:0 10:0.2727 11:0.3182 12:0.2273 13:22 14:3 15:0.5 16:0.2788 17:0.2212 18:0.2788 19:0.2212 20:0.1579 21:1.11 22:0 23:0.3208 24:4 
-0.1044303675831448 1:1 2:1 3:2 4:4 5:21 6:0.5238 7:2 8:4 9:2 10:0.3333 11:0.4286 12:0.1429 13:16 14:4 15:0.4921 16:0.2857 17:0.2381 18:0.254 19:0.2222 20:0.25 21:1 22:0.2778 23:0.375 24:29 
-0.1295847190643843 1:3 2:-1 3:2 4:5 5:22 6:0.5714 7:2 8:4 9:4 10:0.1429 11:0.3333 12:0.2857 13:13 14:4 15:0.5111 16:0.2667 17:0.2444 18:0.2667 19:0.2222 20:0.3158 21:3.67 22:0.2222 23:-1 24:38 
-0.1326612918973 1:4 2:4 3:-1 4:0 5:24 6:0.5 7:2 8:8 9:4 10:0.125 11:0.3333 12:0.375 13:11 14:1 15:0.5 16:0.25 17:0.25 18:0.25 19:0.25 20:0.3524 21:4 22:-1 23:0.2698 24:2 
-0.3258808786712167 1:1 2:4 3:-1 4:0 5:26 6:0.381 7:2 8:4 9:4 10:0.4286 11:0.2857 12:0.1905 13:16 14:3 15:0.3654 16:0.3077 17:0.1635 18:0.2019 19:0.3269 20:0.3118 21:1.12 22:0 23:0.3333 24:3 
-0.06104949425960222 1:3 2:3 3:4 4:2 5:22 6:0.3182 7:5 8:4 9:3 10:0.3182 11:0.2727 12:0.3636 13:13 14:4 15:0.35 16:0.325 17:0.15 18:0.2 19:0.325 20:0.3043 21:0.4 22:0.3077 23:0.2903 24:16 
-0.2958504815219769 1:2 2:3 3:4 4:2 5:24 6:0.35 7:5 8:4 9:3 10:0.35 11:0.2 12:0.3 13:15 14:3 15:0.35 16:0.325 17:0.15 18:0.2 19:0.325 20:0.3043 21:2.5 22:0.3077 23:0.3333 24:16 
