svm_type c_svc
kernel_type rbf
gamma 0.0434783
nr_class 2
total_sv 38
rho 0.589511
label 1 0
probA -5.24646
probB -2.03031
nr_sv 7 31
SV
1 1:-1 2:0 3:0 4:28 5:0.5455 6:3 7:5 8:0.2727 9:0.3182 10:0.2273 11:0.1818 12:11 13:0.1923 14:4 15:0.6226 16:53 17:0.1509 18:0.3208 19:0.3019 20:0.2264 21:0.087 22:2.67 23:-1 
1 1:1 2:1 3:3 4:31 5:0.6667 6:9 7:4 8:0.0833 9:0.2917 10:0.375 11:0.25 12:42 13:0.2692 14:2 15:0.6032 16:63 17:0.1429 18:0.3175 19:0.2857 20:0.254 21:0.25 22:2.2 23:0.3333 
1 1:1 2:3 3:13 4:22 5:0.5455 6:4 7:6 8:0.0909 9:0.3182 10:0.2273 11:0.3636 12:51 13:0.3846 14:2 15:0.6 16:65 17:0.1538 18:0.3385 19:0.2615 20:0.2462 21:0.2903 22:1.4 23:0.2 
1 1:-1 2:0 3:2 4:22 5:0.7143 6:3 7:2 8:0.1429 9:0.3333 10:0.381 11:0.1429 12:11 13:0.1628 14:3 15:0.7255 16:51 17:0.1569 18:0.3529 19:0.3725 20:0.1176 21:0.1489 22:0.75 23:0 
1 1:-1 2:0 3:4 4:21 5:0.7143 6:3 7:2 8:0.1905 9:0.381 10:0.3333 11:0.0952 12:42 13:0.1707 14:3 15:0.7358 16:53 17:0.1509 18:0.3585 19:0.3774 20:0.1132 21:0.1429 22:1.17 23:0 
0.9398770021424381 1:-1 2:0 3:1 4:23 5:0.7391 6:1 7:3 8:0.087 9:0.3478 10:0.3913 11:0.1739 12:11 13:0.1111 14:3 15:0.717 16:53 17:0.1321 18:0.3774 19:0.3396 20:0.1509 21:0.1064 22:1 23:0 
1 1:-1 2:0 3:3 4:23 5:0.6818 6:1 7:3 8:0.1818 9:0.4091 10:0.2727 11:0.1364 12:44 13:0.1111 14:2 15:0.7368 16:57 17:0.1228 18:0.386 19:0.3509 20:0.1404 21:0.098 22:0.58 23:0 
-0.0977627557213759 1:-1 2:0 3:0 4:22 5:0.7391 6:3 7:4 8:0.0435 9:0.3043 10:0.4348 11:0.2174 12:36 13:0.2195 14:-1 15:0.6429 16:42 17:0.119 18:0.3333 19:0.3095 20:0.2381 21:0.0857 22:0.38 23:-1 
-0.2179563140086921 1:-1 2:0 3:0 4:23 5:0.75 6:3 7:4 8:0.0417 9:0.3333 10:0.4167 11:0.2083 12:36 13:0.2093 14:-1 15:0.6591 16:44 17:0.1136 18:0.3409 19:0.3182 20:0.2273 21:0.0811 22:0.38 23:-1 
-0.1903380506574385 1:1 2:6 3:21 4:21 5:0.7619 6:3 7:4 8:0 9:0.4286 10:0.3333 11:0.2381 12:59 13:0.2973 14:2 15:0.641 16:78 17:0.141 18:0.3462 19:0.2949 20:0.2179 21:0.2533 22:0.25 23:0.25 
-0.1599759438014661 1:1 2:1 3:5 4:23 5:0.65 6:4 7:6 8:0.1 9:0.45 10:0.2 11:0.25 12:13 13:0.3333 14:2 15:0.566 16:53 17:0.1698 18:0.3208 19:0.2453 20:0.2642 21:0.28 22:1.12 23:0.2 
-0.3679880873654595 1:4 2:6 3:24 4:20 5:0.8 6:3 7:4 8:0 9:0.4 10:0.4 11:0.2 12:62 13:0.2222 14:2 15:0.6543 16:81 17:0.1358 18:0.358 19:0.2963 20:0.2099 21:0.2564 22:1 23:0.3182 
-0.2288198606703434 1:1 2:1 3:3 4:23 5:0.5909 6:4 7:5 8:0.1364 9:0.3182 10:0.2727 11:0.2727 12:42 13:0.2857 14:2 15:0.551 16:49 17:0.1837 18:0.3061 19:0.2449 20:0.2653 21:0.2609 22:1.67 23:0.3333 
-0.3791193164977334 1:1 2:1 3:4 4:23 5:0.65 6:4 7:6 8:0.1 9:0.4 10:0.25 11:0.25 12:14 13:0.3333 14:1 15:0.549 16:51 17:0.1765 18:0.3137 19:0.2353 20:0.2745 21:0.2917 22:0.75 23:0.25 
-0.338496209921321 1:-1 2:0 3:0 4:25 5:0.5714 6:4 7:6 8:0.0952 9:0.381 10:0.1905 11:0.3333 12:16 13:0.3043 14:1 15:0.5319 16:47 17:0.1915 18:0.2979 19:0.234 20:0.2766 21:0.2727 22:1.14 23:-1 
-0.2960049542749595 1:1 2:5 3:19 4:22 5:0.6818 6:4 7:4 8:0 9:0.3636 10:0.3182 11:0.3182 12:57 13:0.3158 14:3 15:0.6316 16:76 17:0.1447 18:0.3421 19:0.2895 20:0.2237 21:0.2603 22:0.18 23:0.2432 
-0.5055441545728822 1:1 2:1 3:4 4:25 5:0.6818 6:4 7:6 8:0.0909 9:0.4091 10:0.2727 11:0.2273 12:12 13:0.3043 14:1 15:0.5818 16:55 17:0.1636 18:0.3273 19:0.2545 20:0.2545 21:0.2692 22:1.12 23:0.25 
-0.3684236003067754 1:1 2:1 3:5 4:21 5:0.6 6:4 7:5 8:0.1 9:0.3 10:0.3 11:0.3 12:44 13:0.3158 14:2 15:0.551 16:49 17:0.1837 18:0.3061 19:0.2449 20:0.2653 21:0.2609 22:1.67 23:0.2 
-0.2630500704002113 1:-1 2:0 3:0 4:22 5:0.4762 6:2 7:6 8:0.2381 9:0.1905 10:0.2857 11:0.2857 12:39 13:0.2683 14:-1 15:0.4762 16:42 17:0.2143 18:0.2381 19:0.2381 20:0.3095 21:0.2308 22:1.4 23:-1 
-0.2332318004589317 1:1 2:1 3:3 4:25 5:0.5833 6:4 7:6 8:0.125 9:0.2917 10:0.2917 11:0.2917 12:42 13:0.3043 14:3 15:0.566 16:53 17:0.1698 18:0.3208 19:0.2453 20:0.2642 21:0.28 22:1.11 23:0.3333 
-0.6158108766622377 1:1 2:1 3:5 4:24 5:0.6087 6:4 7:6 8:0.087 9:0.3043 10:0.3043 11:0.3043 12:44 13:0.3182 14:2 15:0.5818 16:55 17:0.1636 18:0.3273 19:0.2545 20:0.2545 21:0.2692 22:1.11 23:0.2 
-0.3136335201335591 1:1 2:1 3:15 4:21 5:0.75 6:3 7:3 8:0.05 9:0.5 10:0.25 11:0.2 12:53 13:0.2105 14:1 15:0.7639 16:72 17:0.125 18:0.375 19:0.3889 20:0.1111 21:0.1471 22:1.83 23:0.0667 
-0.1951863666307986 1:1 2:1 3:13 4:21 5:0.85 6:3 7:2 8:0.15 9:0.4 10:0.45 11:0 12:1 13:0.15 14:2 15:0.7714 16:70 17:0.1286 18:0.3714 19:0.4 20:0.1 21:0.1212 22:0.75 23:0.0769 
-0.1835233397864323 1:1 2:1 3:11 4:21 5:0.85 6:3 7:2 8:0.15 9:0.35 10:0.5 11:0 12:3 13:0.15 14:1 15:0.7576 16:66 17:0.1364 18:0.3636 19:0.3939 20:0.1061 21:0.129 22:0.67 23:0.0909 
-0.03149567718804626 1:1 2:1 3:13 4:23 5:0.7727 6:3 7:3 8:0.0455 9:0.4545 10:0.3182 11:0.1818 12:51 13:0.1905 14:1 15:0.7639 16:72 17:0.125 18:0.375 19:0.3889 20:0.1111 21:0.1471 22:2 23:0.0769 
-0.08126821405942317 1:1 2:1 3:10 4:24 5:0.8261 6:3 7:2 8:0.1304 9:0.3913 10:0.4348 11:0.0435 12:1 13:0.1304 14:3 15:0.7714 16:70 17:0.1286 18:0.3714 19:0.4 20:0.1 21:0.1212 22:0.82 23:0.1 
-0.08301760161956111 1:1 2:1 3:11 4:22 5:0.8095 6:3 7:2 8:0.0476 9:0.4762 10:0.3333 11:0.1429 12:49 13:0.1429 14:1 15:0.7647 16:68 17:0.1324 18:0.3676 19:0.3971 20:0.1029 21:0.125 22:1.09 23:0.0909 
-0.2183431268091434 1:1 2:1 3:10 4:23 5:0.7727 6:3 7:2 8:0.0909 9:0.4545 10:0.3182 11:0.1364 12:48 13:0.1364 14:1 15:0.7647 16:68 17:0.1324 18:0.3676 19:0.3971 20:0.1029 21:0.125 22:1 23:0.1 
-0.07781585327350081 1:1 2:1 3:11 4:24 5:0.7826 6:3 7:3 8:0.0435 9:0.4348 10:0.3478 11:0.1739 12:49 13:0.1556 14:1 15:0.7606 16:71 17:0.1268 18:0.3662 19:0.3944 20:0.1127 21:0.1343 22:1.33 23:0.0909 
-0.07197603930961478 1:1 2:1 3:10 4:22 5:0.8095 6:3 7:2 8:0.1429 9:0.3333 10:0.4762 11:0.0476 12:3 13:0.1429 14:3 15:0.7576 16:66 17:0.1364 18:0.3636 19:0.3939 20:0.1061 21:0.129 22:0.73 23:0.1 
-0.3645194579907506 1:1 2:1 3:11 4:21 5:0.8 6:1 7:3 8:0.05 9:0.5 10:0.3 11:0.15 12:52 13:0.1 14:2 15:0.75 16:68 17:0.1176 18:0.3971 19:0.3529 20:0.1324 21:0.0968 22:1.12 23:0.0909 
-0.0005932672411761986 1:1 2:1 3:9 4:24 5:0.7826 6:1 7:3 8:0.1304 9:0.3478 10:0.4348 11:0.087 12:3 13:0.087 14:3 15:0.7571 16:70 17:0.1143 18:0.4 19:0.3571 20:0.1286 21:0.0938 22:1 23:0.1111 
-0.2698646523195666 1:-1 2:0 3:0 4:22 5:0.7391 6:2 7:3 8:0.087 9:0.3913 10:0.3478 11:0.1739 12:15 13:0.1818 14:-1 15:0.7174 16:46 17:0.1304 18:0.3913 19:0.3261 20:0.1522 21:0.1 22:1.67 23:-1 
-0.1360281328291821 1:1 2:1 3:9 4:23 5:0.7727 6:1 7:3 8:0.1364 9:0.3182 10:0.4545 11:0.0909 12:4 13:0.0909 14:3 15:0.75 16:68 17:0.1176 18:0.3971 19:0.3529 20:0.1324 21:0.0968 22:1 23:0.1111 
-0.2996873439397426 1:-1 2:0 3:0 4:20 5:0.7619 6:2 7:3 8:0.0952 9:0.4286 10:0.3333 11:0.1429 12:17 13:0.2 14:-1 15:0.7143 16:42 17:0.1429 18:0.4048 19:0.3095 20:0.1429 21:0.1111 22:1.33 23:-1 
-0.03362311550754841 1:1 2:1 3:12 4:22 5:0.7619 6:1 7:4 8:0.1905 9:0.3333 10:0.4286 11:0.0476 12:2 13:0.122 14:2 15:0.7465 16:71 17:0.1268 18:0.3944 19:0.3521 20:0.1268 21:0.1077 22:1 23:0.0833 
-0.1239057560069717 1:1 2:1 3:9 4:24 5:0.7826 6:1 7:3 8:0.087 9:0.4348 10:0.3478 11:0.1304 12:50 13:0.087 14:3 15:0.7571 16:70 17:0.1143 18:0.4 19:0.3571 20:0.1286 21:0.0938 22:1.22 23:0.1111 
-0.192873542177593 1:1 2:1 3:10 4:24 5:0.7826 6:1 7:4 8:0.1739 9:0.3478 10:0.4348 11:0.0435 12:2 13:0.1111 14:1 15:0.7465 16:71 17:0.1268 18:0.3944 19:0.3521 20:0.1268 21:0.1077 22:0.75 23:0.1 
