svm_type c_svc
kernel_type rbf
gamma 0.0434783
nr_class 2
total_sv 180
rho 0.45921
label 1 0
probA -6.97657
probB -1.75917
nr_sv 57 123
SV
1 1:5 2:3 3:12 4:22 5:0.3636 6:2 7:3 8:0.2727 9:0 10:0.3636 11:0.3636 12:21 13:0.1818 14:1 15:0.3939 16:66 17:0.2727 18:0.1364 19:0.2576 20:0.3333 21:0.3016 22:0.71 23:0.619 
0.5235831307089042 1:1 2:1 3:2 4:22 5:0.4091 6:4 7:3 8:0.2727 9:0.2273 10:0.1818 11:0.3182 12:10 13:0.3182 14:2 15:0.4717 16:53 17:0.2453 18:0.2642 19:0.2075 20:0.283 21:0.3191 22:0 23:0.3333 
0.6072012637441512 1:-1 2:0 3:4 4:24 5:0.4545 6:3 7:4 8:0.2273 9:0.1364 10:0.3182 11:0.3182 12:14 13:0.2273 14:3 15:0.3667 16:60 17:0.2667 18:0.2 19:0.1667 20:0.3667 21:0.1923 22:1.29 23:0 
0.3901511175667036 1:-1 2:0 3:2 4:24 5:0.4545 6:2 7:3 8:0.2727 9:0.2727 10:0.1818 11:0.2727 12:61 13:0.1739 14:4 15:0.5345 16:58 17:0.2069 18:0.2759 19:0.2586 20:0.2586 21:0.16 22:1 23:0 
0.961554977604368 1:-1 2:0 3:3 4:23 5:0.5455 6:4 7:3 8:0.1818 9:0.3636 10:0.1818 11:0.2727 12:65 13:0.3333 14:2 15:0.4 16:65 17:0.2154 18:0.2154 19:0.1846 20:0.3846 21:0.2941 22:1.25 23:0 
0.3800164134647302 1:-1 2:0 3:2 4:23 5:0.3636 6:2 7:4 8:0.0909 9:0.3182 10:0.0455 11:0.5455 12:55 13:0.2 14:4 15:0.4407 16:59 17:0.2034 18:0.2373 19:0.2034 20:0.3559 21:0.1837 22:1.43 23:0 
0.4728475347963496 1:-1 2:0 3:3 4:24 5:0.5455 6:4 7:2 8:0.3182 9:0.1364 10:0.4091 11:0.1364 12:59 13:0.1556 14:1 15:0.5085 16:59 17:0.1864 18:0.2542 19:0.2542 20:0.3051 21:0.1373 22:0.67 23:0 
0.7484916312340799 1:-1 2:0 3:0 4:23 5:0.6364 6:1 7:4 8:0.0909 9:0.1364 10:0.5 11:0.2727 12:10 13:0.1556 14:4 15:0.5636 16:55 17:0.1273 18:0.2364 19:0.3273 20:0.3091 21:0.1556 22:1 23:-1 
0.1695803984006992 1:1 2:1 3:3 4:22 5:0.3636 6:3 7:2 8:0.4091 9:0 10:0.3636 11:0.2273 12:49 13:0.1818 14:3 15:0.3607 16:61 17:0.2787 18:0.1639 19:0.1967 20:0.3607 21:0.1667 22:0.8 23:0.3333 
0.3876934857529696 1:2 2:2 3:7 4:22 5:0.5 6:3 7:3 8:0.4091 9:0.0909 10:0.4091 11:0.0909 12:58 13:0.2273 14:3 15:0.3607 16:61 17:0.3607 18:0.1967 19:0.1639 20:0.2787 21:0.25 22:1.25 23:0.4286 
1 1:-1 2:0 3:0 4:22 5:0.5455 6:3 7:3 8:0.2727 9:0.2273 10:0.3182 11:0.1818 12:18 13:0.2273 14:4 15:0.4655 16:58 17:0.2069 18:0.2414 19:0.2241 20:0.3276 21:0.2273 22:0.55 23:-1 
0.675216151251851 1:-1 2:0 3:1 4:23 5:0.4783 6:2 7:4 8:0.3478 9:0.1739 10:0.3043 11:0.1739 12:31 13:0.2273 14:2 15:0.4655 16:58 17:0.2069 18:0.2241 19:0.2414 20:0.3276 21:0.2174 22:0.64 23:0 
0.3460153887683629 1:1 2:1 3:2 4:23 5:0.4783 6:2 7:4 8:0.2174 9:0.3478 10:0.1304 11:0.3043 12:65 13:0.2 14:3 15:0.4677 16:62 17:0.2097 18:0.2581 19:0.2097 20:0.3226 21:0.1915 22:0.89 23:0.5 
1 1:4 2:1 3:8 4:25 5:0.3182 6:2 7:3 8:0.2273 9:0.1364 10:0.1818 11:0.4545 12:68 13:0.1489 14:4 15:0.3538 16:65 17:0.3077 18:0.1692 19:0.1846 20:0.3385 21:0.2131 22:0.89 23:0.4286 
1 1:9 2:1 3:14 4:22 5:0.3182 6:1 7:1 8:0.2727 9:0.0909 10:0.2273 11:0.4091 12:64 13:0.0455 14:3 15:0.3043 16:69 17:0.3333 18:0.1159 19:0.1884 20:0.3623 21:0.2 22:1.12 23:0.5238 
0.88806140385426 1:-1 2:0 3:1 4:23 5:0.5 6:2 7:3 8:0.2727 9:0.1818 10:0.3182 11:0.2273 12:26 13:0.2 14:1 15:0.4182 16:55 17:0.3091 18:0.1818 19:0.2364 20:0.2727 21:0.1915 22:0.8 23:0 
1 1:-1 2:0 3:1 4:24 5:0.4545 6:2 7:4 8:0.3636 9:0.3182 10:0.1364 11:0.1818 12:42 13:0.1739 14:4 15:0.5172 16:58 17:0.1897 18:0.2759 19:0.2414 20:0.2931 21:0.1667 22:1.8 23:0 
0.2825977400991903 1:1 2:1 3:5 4:23 5:0.6087 6:2 7:4 8:0.2174 9:0.2609 10:0.3478 11:0.1739 12:52 13:0.2 14:1 15:0.5345 16:58 17:0.1552 18:0.2414 19:0.2931 20:0.3103 21:0.1852 22:1.14 23:0.1111 
0.7652762945885181 1:-1 2:0 3:0 4:22 5:0.4545 6:3 7:3 8:0.2727 9:0.2273 10:0.2273 11:0.2727 12:6 13:0.2273 14:4 15:0.4074 16:54 17:0.2778 18:0.2593 19:0.1481 20:0.3148 21:0.2273 22:0.8 23:-1 
0.2494705296485644 1:1 2:1 3:3 4:23 5:0.4545 6:2 7:3 8:0.3182 9:0.3636 10:0.0909 11:0.2273 12:52 13:0.2 14:4 15:0.4483 16:58 17:0.2586 18:0.2414 19:0.2069 20:0.2931 21:0.1837 22:2 23:0.3333 
0.1506760628349767 1:-1 2:0 3:2 4:23 5:0.4545 6:2 7:4 8:0.2273 9:0.2727 10:0.1818 11:0.3182 12:64 13:0.2444 14:3 15:0.4262 16:61 17:0.2295 18:0.2131 19:0.2131 20:0.3443 21:0.2245 22:2 23:0 
0.483047867347166 1:1 2:2 3:4 4:23 5:0.4545 6:3 7:2 8:0.1364 9:0.2273 10:0.2273 11:0.4091 12:55 13:0.1364 14:3 15:0.4386 16:57 17:0.2807 18:0.2281 19:0.2105 20:0.2807 21:0.16 22:1.11 23:0.5 
1 1:3 2:1 3:8 4:22 5:0.5 6:4 7:2 8:0.0455 9:0.3182 10:0.1818 11:0.4545 12:14 13:0.2273 14:2 15:0.4262 16:61 17:0.1967 18:0.2131 19:0.2131 20:0.377 21:0.2281 22:0.9 23:0.2308 
0.6878138803635214 1:-1 2:0 3:4 4:21 5:0.2857 6:2 7:2 8:0.3333 9:0.1429 10:0.1429 11:0.381 12:6 13:0.122 14:2 15:0.4211 16:57 17:0.2632 18:0.193 19:0.2281 20:0.3158 21:0.102 22:0.57 23:0 
0.27365176935241 1:-1 2:0 3:1 4:24 5:0.4783 6:2 7:4 8:0.2609 9:0.2609 10:0.2174 11:0.2609 12:62 13:0.1739 14:4 15:0.45 16:60 17:0.2833 18:0.25 19:0.2 20:0.2667 21:0.1667 22:0.75 23:0 
0.1808992661224439 1:1 2:1 3:6 4:22 5:0.4091 6:2 7:3 8:0.1818 9:0.2273 10:0.1818 11:0.4091 12:8 13:0.1628 14:2 15:0.4655 16:58 17:0.1897 18:0.1897 19:0.2759 20:0.3448 21:0.1481 22:0.62 23:0.0909 
0.922607398565931 1:1 2:1 3:2 4:22 5:0.4762 6:2 7:3 8:0.2381 9:0.1905 10:0.2857 11:0.2857 12:32 13:0.1628 14:2 15:0.5556 16:54 17:0.2037 18:0.2407 19:0.3148 20:0.2407 21:0.1556 22:0.7 23:0.5 
1 1:3 2:3 3:13 4:22 5:0.5455 6:3 7:3 8:0.2727 9:0.3182 10:0.2273 11:0.1818 12:65 13:0.3182 14:3 15:0.5571 16:70 17:0.1857 18:0.3143 19:0.2429 20:0.2571 21:0.2923 22:3.33 23:0.3043 
0.9129505675902723 1:1 2:1 3:3 4:25 5:0.4091 6:2 7:4 8:0.4091 9:0.1818 10:0.2273 11:0.1818 12:47 13:0.1915 14:1 15:0.375 16:56 17:0.3036 18:0.1786 19:0.1964 20:0.3214 21:0.1765 22:1 23:0.3333 
0.9359045558659369 1:3 2:2 3:8 4:21 5:0.4762 6:3 7:3 8:0 9:0.2857 10:0.1905 11:0.5238 12:28 13:0.2195 14:1 15:0.3833 16:60 17:0.25 18:0.1833 19:0.2 20:0.3667 21:0.2453 22:0.38 23:0.4286 
1 1:3 2:1 3:10 4:23 5:0.3636 6:2 7:3 8:0.1818 9:0.1364 10:0.2273 11:0.4545 12:56 13:0.1364 14:1 15:0.3939 16:66 17:0.2727 18:0.2121 19:0.1818 20:0.3333 21:0.1613 22:1.5 23:0.2222 
0.5797958525407565 1:1 2:1 3:5 4:21 5:0.3333 6:2 7:4 8:0.4286 9:0.1429 10:0.1905 11:0.2381 12:29 13:0.2683 14:4 15:0.2373 16:59 17:0.3559 18:0.0847 19:0.1525 20:0.4068 21:0.2549 22:1.75 23:0.2 
0.2309286609089821 1:1 2:1 3:3 4:24 5:0.2727 6:1 7:4 8:0.1364 9:0.1364 10:0.1364 11:0.5909 12:60 13:0.1304 14:2 15:0.3492 16:63 17:0.3016 18:0.1746 19:0.1746 20:0.3492 21:0.12 22:1.5 23:0.3333 
0.9649342161689759 1:1 2:2 3:4 4:20 5:0.6 6:2 7:1 8:0.15 9:0.1 10:0.5 11:0.25 12:9 13:0.1 14:2 15:0.5 16:52 17:0.2692 18:0.2308 19:0.2692 20:0.2308 21:0.1111 22:1 23:0.4286 
0.4488118612979518 1:1 2:1 3:5 4:22 5:0.5909 6:2 7:4 8:0.2273 9:0.1818 10:0.4091 11:0.1818 12:44 13:0.2727 14:1 15:0.4237 16:59 17:0.3051 18:0.1695 19:0.2542 20:0.2712 21:0.2308 22:2.25 23:0.2 
1 1:-1 2:0 3:2 4:22 5:0.2727 6:1 7:3 8:0.2727 9:0.1364 10:0.1364 11:0.4545 12:10 13:0.1364 14:1 15:0.2742 16:62 17:0.3548 18:0.0968 19:0.1774 20:0.371 21:0.125 22:0.44 23:0 
0.7429161300587682 1:-1 2:0 3:4 4:22 5:0.3636 6:2 7:3 8:0.3636 9:0.0909 10:0.2727 11:0.2727 12:52 13:0.1818 14:3 15:0.2727 16:66 17:0.3485 18:0.0909 19:0.1818 20:0.3788 21:0.1538 22:2.25 23:0 
0.2382634690320777 1:-1 2:0 3:4 4:23 5:0.5 6:3 7:1 8:0.1818 9:0.3182 10:0.1818 11:0.3182 12:52 13:0.1111 14:3 15:0.5238 16:63 17:0.2063 18:0.2063 19:0.3175 20:0.2698 21:0.0943 22:0.82 23:0 
0.03117192383620086 1:1 2:2 3:6 4:23 5:0.6522 6:2 7:2 8:0.087 9:0.2174 10:0.4348 11:0.2609 12:46 13:0.1111 14:4 15:0.6949 16:59 17:0.1356 18:0.3559 19:0.339 20:0.1695 21:0.1111 22:1.83 23:0.2727 
0.8267205552945533 1:1 2:1 3:4 4:22 5:0.3636 6:1 7:1 8:0.1364 9:0.2273 10:0.1364 11:0.5 12:45 13:0.0455 14:2 15:0.3607 16:61 17:0.3115 18:0.1803 19:0.1803 20:0.3279 21:0.04 22:1 23:0.25 
0.9710351549519056 1:2 2:2 3:8 4:25 5:0.5 6:3 7:4 8:0.2273 9:0.2727 10:0.2273 11:0.2727 12:47 13:0.1818 14:3 15:0.5833 16:60 17:0.2 18:0.2833 19:0.3 20:0.2167 21:0.193 22:1.43 23:0.3333 
1 1:2 2:2 3:7 4:26 5:0.6087 6:3 7:4 8:0.2174 9:0.2609 10:0.3478 11:0.1739 12:9 13:0.1739 14:2 15:0.5833 16:60 17:0.2 18:0.2833 19:0.3 20:0.2167 21:0.193 22:0.7 23:0.3846 
1 1:9 2:1 3:12 4:23 5:0.4091 6:2 7:2 8:0.1364 9:0.3182 10:0.0909 11:0.4545 12:49 13:0.1111 14:2 15:0.4375 16:64 17:0.2656 18:0.2344 19:0.2031 20:0.2969 21:0.2333 22:1.25 23:0.6 
0.5009949285208797 1:2 2:2 3:7 4:23 5:0.6087 6:2 7:4 8:0.3043 9:0.3043 10:0.3043 11:0.087 12:64 13:0.2609 14:4 15:0.6066 16:61 17:0.1803 18:0.2787 19:0.3279 20:0.2131 21:0.2759 22:1.4 23:0.4286 
1 1:1 2:2 3:8 4:22 5:0.3182 6:2 7:3 8:0.4545 9:0.1818 10:0.1364 11:0.2273 12:50 13:0.2273 14:3 15:0.4375 16:64 17:0.2656 18:0.2188 19:0.2188 20:0.2969 21:0.193 22:0.5 23:0.2 
1 1:1 2:1 3:3 4:22 5:0.3636 6:1 7:4 8:0.2273 9:0.0455 10:0.3182 11:0.4091 12:18 13:0.1429 14:1 15:0.2712 16:59 17:0.3559 18:0.1356 19:0.1356 20:0.3729 21:0.1304 22:0.67 23:0.3333 
0.9123535280318824 1:3 2:2 3:7 4:23 5:0.3636 6:2 7:2 8:0.2273 9:0.2727 10:0.0909 11:0.4091 12:25 13:0.1556 14:4 15:0.3898 16:59 17:0.2542 18:0.1864 19:0.2034 20:0.3559 21:0.2143 22:1 23:0.5385 
0.1490552892973145 1:-1 2:0 3:3 4:23 5:0.4091 6:3 7:3 8:0.3182 9:0.1364 10:0.2727 11:0.2727 12:27 13:0.2444 14:3 15:0.4727 16:55 17:0.2545 18:0.2364 19:0.2364 20:0.2727 21:0.2157 22:0.4 23:0 
0.5619365135591512 1:2 2:1 3:6 4:23 5:0.5455 6:1 7:5 8:0.1818 9:0.3636 10:0.1818 11:0.2727 12:58 13:0.1818 14:3 15:0.5 16:58 17:0.1897 18:0.2241 19:0.2759 20:0.3103 21:0.1852 22:0.86 23:0.2 
0.6938960817610167 1:1 2:1 3:3 4:27 5:0.6364 6:4 7:5 8:0.1818 9:0.4545 10:0.1818 11:0.1818 12:59 13:0.2245 14:3 15:0.5167 16:60 17:0.2333 18:0.2833 19:0.2333 20:0.25 21:0.2075 22:1.29 23:0.3333 
0.3151662086662386 1:1 2:1 3:3 4:25 5:0.4348 6:3 7:4 8:0.2174 9:0.2174 10:0.2174 11:0.3478 12:28 13:0.1915 14:2 15:0.5179 16:56 17:0.2321 18:0.25 19:0.2679 20:0.25 21:0.1765 22:0.88 23:0.3333 
0.4244781667331119 1:2 2:2 3:8 4:24 5:0.4091 6:2 7:4 8:0.1818 9:0.2727 10:0.1364 11:0.4091 12:63 13:0.2174 14:2 15:0.4127 16:63 17:0.254 18:0.1746 19:0.2381 20:0.3333 21:0.2333 22:1 23:0.375 
0.1561216428202265 1:1 2:1 3:6 4:25 5:0.5238 6:2 7:4 8:0.2857 9:0.3333 10:0.1905 11:0.1905 12:65 13:0.1304 14:3 15:0.4923 16:65 17:0.2 18:0.2154 19:0.2769 20:0.3077 21:0.1228 22:1.12 23:0.0909 
0.08795039042445758 1:-1 2:0 3:2 4:23 5:0.3913 6:3 7:3 8:0.2174 9:0.1739 10:0.2174 11:0.3913 12:52 13:0.2174 14:3 15:0.4194 16:62 17:0.2903 18:0.2258 19:0.1935 20:0.2903 21:0.2 22:1.43 23:0 
0.0906155735889988 1:-1 2:0 3:3 4:23 5:0.5 6:2 7:3 8:0.2273 9:0.2727 10:0.2273 11:0.2727 12:54 13:0.1818 14:1 15:0.4667 16:60 17:0.25 18:0.2 19:0.2667 20:0.2833 21:0.16 22:1.8 23:0 
0.6288808271345842 1:1 2:1 3:3 4:24 5:0.4783 6:2 7:3 8:0.2174 9:0.2609 10:0.2174 11:0.3043 12:53 13:0.1915 14:3 15:0.4091 16:66 17:0.2121 18:0.2273 19:0.1818 20:0.3788 21:0.1765 22:2.25 23:0.3333 
0.1547231203438916 1:1 2:1 3:4 4:22 5:0.3636 6:2 7:4 8:0.0909 9:0.1364 10:0.2273 11:0.5455 12:11 13:0.2727 14:4 15:0.386 16:57 17:0.2456 18:0.1404 19:0.2456 20:0.3684 21:0.2549 22:0.56 23:0.1429 
-0.2702308311457745 1:6 2:3 3:27 4:22 5:0.7273 6:2 7:5 8:0.1364 9:0.2273 10:0.5 11:0.1364 12:6 13:0.3182 14:2 15:0.5312 16:96 17:0.2292 18:0.2188 19:0.3125 20:0.2396 21:0.2903 22:0.71 23:0.2941 
-0.3706230573778814 1:1 2:1 3:2 4:20 5:0.25 6:6 7:2 8:0.3 9:0.1 10:0.15 11:0.45 12:33 13:0.3514 14:4 15:0.3571 16:42 17:0.3095 18:0.119 19:0.2381 20:0.3333 21:0.3333 22:1.6 23:0.5 
-0.3109268138036747 1:1 2:1 3:11 4:20 5:0.65 6:4 7:4 8:0.2 9:0.25 10:0.4 11:0.15 12:50 13:0.45 14:4 15:0.5224 16:67 17:0.209 18:0.2687 19:0.2537 20:0.2687 21:0.3115 22:0.38 23:0.0476 
-0.2243267208724183 1:-1 2:0 3:0 4:25 5:0.3333 6:3 7:4 8:0.3333 9:0.2083 10:0.125 11:0.3333 12:44 13:0.3191 14:-1 15:0.3673 16:49 17:0.2449 18:0.2041 19:0.1633 20:0.3878 21:0.2195 22:0.18 23:-1 
-0.3687745534640121 1:-1 2:0 3:0 4:24 5:0.3913 6:3 7:4 8:0.1304 9:0.2174 10:0.1739 11:0.4783 12:20 13:0.3333 14:1 15:0.3404 16:47 17:0.2553 18:0.1915 19:0.1489 20:0.4043 21:0.2308 22:4 23:-1 
-0.08131183116613656 1:2 2:2 3:16 4:22 5:0.5455 6:2 7:2 8:0.1818 9:0.2273 10:0.3182 11:0.2727 12:73 13:0.1364 14:4 15:0.5854 16:82 17:0.1829 18:0.3049 19:0.2805 20:0.2317 21:0.1622 22:0.64 23:0.2 
-0.173159778121804 1:2 2:1 3:10 4:23 5:0.6522 6:2 7:3 8:0.087 9:0.3478 10:0.3043 11:0.2609 12:18 13:0.2174 14:2 15:0.5556 16:72 17:0.1944 18:0.2917 19:0.2639 20:0.25 21:0.1875 22:1.14 23:0.1111 
-0.2230215531632783 1:2 2:3 3:17 4:20 5:0.65 6:3 7:2 8:0.1 9:0.5 10:0.15 11:0.25 12:12 13:0.2308 14:3 15:0.5823 16:79 17:0.2025 18:0.3291 19:0.2532 20:0.2152 21:0.2113 22:1.1 23:0.1875 
-0.4605475463166717 1:-1 2:0 3:0 4:23 5:0.5455 6:3 7:4 8:0.1818 9:0.3182 10:0.2273 11:0.2727 12:29 13:0.2727 14:4 15:0.5435 16:46 17:0.2174 18:0.3043 19:0.2391 20:0.2391 21:0.1579 22:3.33 23:-1 
-0.4302193880427015 1:4 2:2 3:18 4:21 5:0.5238 6:2 7:3 8:0.1429 9:0.2381 10:0.2857 11:0.3333 12:79 13:0.2683 14:4 15:0.4444 16:90 17:0.1778 18:0.2222 19:0.2222 20:0.3778 21:0.2895 22:1.1 23:0.3143 
-0.4431885658905815 1:4 2:3 3:24 4:21 5:0.5 6:2 7:5 8:0.1 9:0.2 10:0.3 11:0.4 12:85 13:0.35 14:1 15:0.4455 16:101 17:0.1683 18:0.2079 19:0.2376 20:0.3861 21:0.3103 22:1.4 23:0.2766 
-0.01939010300017165 1:2 2:4 3:21 4:20 5:0.5 6:2 7:4 8:0.2 9:0.25 10:0.25 11:0.3 12:7 13:0.2973 14:2 15:0.4 16:90 17:0.3 18:0.1667 19:0.2333 20:0.3 21:0.2564 22:0.62 23:0.2195 
-0.2101442793825415 1:1 2:2 3:10 4:22 5:0.4091 6:2 7:4 8:0.3636 9:0.1818 10:0.2273 11:0.2273 12:69 13:0.3182 14:4 15:0.4133 16:75 17:0.2933 18:0.16 19:0.2533 20:0.2933 21:0.2698 22:0.8 23:0.1579 
-0.3274481975658451 1:2 2:2 3:11 4:26 5:0.5 6:2 7:3 8:0.25 9:0.25 10:0.25 11:0.25 12:2 13:0.12 14:1 15:0.4805 16:77 17:0.2208 18:0.2208 19:0.2597 20:0.2987 21:0.1429 22:0.73 23:0.2727 
-0.2488927775594703 1:2 2:2 3:20 4:21 5:0.7143 6:3 7:4 8:0.1429 9:0.1905 10:0.5238 11:0.1429 12:62 13:0.2432 14:2 15:0.4878 16:82 17:0.2195 18:0.2195 19:0.2683 20:0.2927 21:0.1733 22:4 23:0.15 
-0.2891071936464658 1:2 2:2 3:19 4:22 5:0.2727 6:3 7:4 8:0.3636 9:0.1364 10:0.1364 11:0.3636 12:71 13:0.2857 14:1 15:0.3933 16:89 17:0.2472 18:0.191 19:0.2022 20:0.3596 21:0.2152 22:3 23:0.1351 
-0.1987491669839633 1:2 2:2 3:16 4:21 5:0.381 6:2 7:3 8:0.2381 9:0.2381 10:0.1429 11:0.381 12:68 13:0.1905 14:4 15:0.4217 16:83 17:0.2169 18:0.2048 19:0.2169 20:0.3614 21:0.1781 22:1 23:0.1613 
-0.2645894118959333 1:4 2:1 3:12 4:23 5:0.4091 6:1 7:3 8:0.2273 9:0.3182 10:0.0909 11:0.3636 12:14 13:0.0909 14:3 15:0.4595 16:74 17:0.2162 18:0.2297 19:0.2297 20:0.3243 21:0.1515 22:0.67 23:0.2727 
-0.5226598445329376 1:4 2:1 3:13 4:22 5:0.4286 6:1 7:3 8:0.2857 9:0.0952 10:0.3333 11:0.2857 12:67 13:0.0952 14:2 15:0.4595 16:74 17:0.2162 18:0.2297 19:0.2297 20:0.3243 21:0.1515 22:0.88 23:0.25 
-0.3352761297332968 1:2 2:4 3:25 4:25 5:0.4783 6:7 7:3 8:0.1739 9:0.3043 10:0.1739 11:0.3478 12:82 13:0.3617 14:3 15:0.396 16:101 17:0.2574 18:0.2079 19:0.1881 20:0.3465 21:0.2391 22:1 23:0.1489 
-0.2713727978268617 1:3 2:4 3:27 4:25 5:0.4783 6:7 7:2 8:0.1739 9:0.2609 10:0.2174 11:0.3478 12:84 13:0.2917 14:4 15:0.419 16:105 17:0.2476 18:0.219 19:0.2 20:0.3333 21:0.2292 22:0.9 23:0.2 
-0.1850914535043328 1:-1 2:0 3:0 4:23 5:0.4583 6:4 7:4 8:0.1667 9:0.25 10:0.2083 11:0.375 12:37 13:0.2889 14:-1 15:0.5319 16:47 17:0.1064 18:0.2128 19:0.3191 20:0.3617 21:0.1351 22:0 23:-1 
-0.1005116845771875 1:-1 2:0 3:0 4:24 5:0.25 6:6 7:3 8:0.4583 9:0.0417 10:0.2083 11:0.2917 12:41 13:0.4167 14:4 15:0.3265 16:49 17:0.3061 18:0.1633 19:0.1633 20:0.3673 21:0.2222 22:0 23:-1 
-0.2664286415145316 1:3 2:2 3:10 4:22 5:0.4762 6:1 7:2 8:0.3333 9:0.1429 10:0.3333 11:0.1905 12:56 13:0.0698 14:4 15:0.4459 16:74 17:0.2432 18:0.2027 19:0.2432 20:0.3108 21:0.1475 22:0.5 23:0.4 
-0.1526115098616551 1:2 2:4 3:23 4:25 5:0.6 6:3 7:5 8:0.25 9:0.4 10:0.2 11:0.15 12:5 13:0.2889 14:3 15:0.4468 16:94 17:0.2979 18:0.234 19:0.2128 20:0.2553 21:0.236 22:1.5 23:0.2174 
-0.03991126835694465 1:2 2:3 3:19 4:24 5:0.5833 6:3 7:5 8:0.2917 9:0.2917 10:0.2917 11:0.125 12:70 13:0.3488 14:1 15:0.4524 16:84 17:0.3095 18:0.25 19:0.2024 20:0.2381 21:0.2658 22:2.33 23:0.2105 
-0.205240395363364 1:2 2:3 3:20 4:20 5:0.5 6:3 7:3 8:0.35 9:0.25 10:0.25 11:0.15 12:4 13:0.2632 14:2 15:0.4824 16:85 17:0.2706 18:0.2471 19:0.2353 20:0.2471 21:0.1892 22:1.12 23:0.1579 
-0.3946184495513495 1:1 2:1 3:8 4:21 5:0.4286 6:3 7:3 8:0.2381 9:0.2381 10:0.1905 11:0.3333 12:11 13:0.2683 14:2 15:0.4507 16:71 17:0.2254 18:0.2394 19:0.2113 20:0.3239 21:0.2281 22:1.17 23:0.125 
-0.2011181466729562 1:1 2:2 3:11 4:20 5:0.35 6:2 7:3 8:0.3 9:0.2 10:0.15 11:0.35 12:9 13:0.2308 14:2 15:0.4267 16:75 17:0.24 18:0.2267 19:0.2 20:0.3333 21:0.2131 22:1.4 23:0.1818 
-0.2319380232004676 1:2 2:4 3:26 4:24 5:0.5238 6:4 7:5 8:0.1905 9:0.1905 10:0.3333 11:0.2857 12:91 13:0.3778 14:1 15:0.4953 16:107 17:0.243 18:0.2336 19:0.2617 20:0.2617 21:0.3053 22:1 23:0.24 
-0.3185543309168831 1:2 2:4 3:26 4:25 5:0.5 6:4 7:5 8:0.1818 9:0.1818 10:0.3182 11:0.3182 12:91 13:0.3617 14:1 15:0.4862 16:109 17:0.2477 18:0.2294 19:0.2569 20:0.2661 21:0.299 22:1 23:0.24 
-0.3053545466993584 1:-1 2:0 3:0 4:21 5:0.381 6:1 7:4 8:0.2381 9:0.2381 10:0.1429 11:0.381 12:39 13:0.15 14:-1 15:0.4048 16:42 17:0.2857 18:0.1667 19:0.2381 20:0.3095 21:0.1053 22:0.6 23:-1 
-0.2958509160453721 1:-1 2:0 3:0 4:21 5:0.45 6:1 7:4 8:0.3 9:0.1 10:0.35 11:0.25 12:17 13:0.15 14:1 15:0.4091 16:44 17:0.2727 18:0.1591 19:0.25 20:0.3182 21:0.15 22:1 23:-1 
-0.3541928362653867 1:2 2:3 3:13 4:23 5:0.4091 6:2 7:4 8:0.2727 9:0.3182 10:0.0909 11:0.3182 12:76 13:0.1818 14:3 15:0.4699 16:83 17:0.2048 18:0.241 19:0.2289 20:0.3253 21:0.2059 22:1 23:0.3077 
-0.2747450735430214 1:2 2:5 3:21 4:20 5:0.4 6:2 7:3 8:0.3 9:0.1 10:0.3 11:0.3 12:10 13:0.1892 14:4 15:0.4505 16:91 17:0.2198 18:0.2308 19:0.2198 20:0.3297 21:0.2105 22:0.44 23:0.2683 
-0.3289356231739312 1:4 2:2 3:17 4:22 5:0.4545 6:2 7:3 8:0.4091 9:0.2727 10:0.1818 11:0.1364 12:19 13:0.1628 14:3 15:0.3636 16:77 17:0.3117 18:0.1688 19:0.1948 20:0.3247 21:0.2055 22:1.43 23:0.2667 
-0.1425267545745618 1:-1 2:0 3:0 4:23 5:0.381 6:4 7:4 8:0.2857 9:0.0952 10:0.2857 11:0.3333 12:36 13:0.2857 14:4 15:0.3182 16:44 17:0.2955 18:0.1364 19:0.1818 20:0.3864 21:0.25 22:1.8 23:-1 
-0.5345327924702027 1:9 2:1 3:27 4:23 5:0.5652 6:2 7:3 8:0.1739 9:0.2609 10:0.3043 11:0.2609 12:77 13:0.1739 14:3 15:0.4124 16:97 17:0.2887 18:0.1649 19:0.2474 20:0.299 21:0.2043 22:1.67 23:0.234 
-0.4877928375672976 1:-1 2:0 3:0 4:26 5:0.25 6:9 7:2 8:0.4 9:0 10:0.25 11:0.35 12:55 13:0.2889 14:-1 15:0.2553 16:47 17:0.383 18:0.0851 19:0.1702 20:0.3617 21:0.2558 22:0.88 23:-1 
-0.2649806294475562 1:2 2:2 3:16 4:23 5:0.5652 6:3 7:5 8:0.1739 9:0.2174 10:0.3478 11:0.2609 12:11 13:0.4222 14:4 15:0.4524 16:84 17:0.25 18:0.2024 19:0.25 20:0.2976 21:0.3158 22:1 23:0.1613 
-0.4843774857359472 1:2 2:4 3:25 4:24 5:0.4583 6:3 7:6 8:0.375 9:0.2083 10:0.25 11:0.1667 12:1 13:0.4667 14:4 15:0.4412 16:102 17:0.2843 18:0.1961 19:0.2451 20:0.2745 21:0.3404 22:0.62 23:0.2245 
-0.1099095240976131 1:1 2:1 3:9 4:21 5:0.5 6:3 7:3 8:0.3 9:0.3 10:0.2 11:0.2 12:49 13:0.2195 14:4 15:0.5147 16:68 17:0.1765 18:0.2647 19:0.25 20:0.3088 21:0.1724 22:0.89 23:0.0588 
-1 1:1 2:1 3:7 4:22 5:0.5238 6:3 7:3 8:0.2857 9:0.3333 10:0.1905 11:0.1905 12:47 13:0.2093 14:4 15:0.5 16:66 17:0.1818 18:0.2576 19:0.2424 20:0.3182 21:0.1786 22:1.83 23:0.0769 
-0.2439008327942784 1:2 2:3 3:16 4:23 5:0.4348 6:2 7:3 8:0.087 9:0.2609 10:0.1739 11:0.4783 12:62 13:0.2174 14:4 15:0.5641 16:78 17:0.1923 18:0.2821 19:0.2821 20:0.2436 21:0.1781 22:0.44 23:0.1724 
-0.04284793404363486 1:2 2:3 3:16 4:23 5:0.5652 6:2 7:3 8:0.2609 9:0.3043 10:0.2609 11:0.1739 12:7 13:0.2174 14:3 15:0.5641 16:78 17:0.1923 18:0.2821 19:0.2821 20:0.2436 21:0.1781 22:2.25 23:0.1724 
-0.01487154797361274 1:2 2:3 3:16 4:23 5:0.4348 6:1 7:2 8:0.2174 9:0.1739 10:0.2609 11:0.3478 12:63 13:0.0667 14:1 15:0.5125 16:80 17:0.175 18:0.225 19:0.2875 20:0.3125 21:0.1316 22:0.9 23:0.2258 
-0.1078605438030577 1:2 2:3 3:17 4:22 5:0.4091 6:1 7:2 8:0.2273 9:0.1818 10:0.2273 11:0.3636 12:64 13:0.0698 14:1 15:0.5125 16:80 17:0.175 18:0.225 19:0.2875 20:0.3125 21:0.1316 22:0.9 23:0.2121 
-0.2973409749300525 1:2 2:3 3:19 4:22 5:0.3182 6:6 7:2 8:0.3182 9:0.1364 10:0.1818 11:0.3636 12:1 13:0.3158 14:2 15:0.4146 16:82 17:0.2683 18:0.1951 19:0.2195 20:0.3171 21:0.2329 22:0 23:0.1892 
-0.1969775613663934 1:2 2:2 3:13 4:21 5:0.2857 6:2 7:3 8:0.381 9:0.0476 10:0.2381 11:0.3333 12:8 13:0.1905 14:3 15:0.3662 16:71 17:0.2676 18:0.1549 19:0.2113 20:0.3662 21:0.1562 22:1.75 23:0.1667 
-0.2454684774895608 1:2 2:3 3:18 4:24 5:0.3043 6:3 7:3 8:0.3043 9:0.087 10:0.2174 11:0.3913 12:1 13:0.1915 14:1 15:0.3605 16:86 17:0.2907 18:0.1628 19:0.1977 20:0.3488 21:0.1899 22:0.57 23:0.2353 
-0.1480283232686036 1:2 2:3 3:19 4:21 5:0.5 6:2 7:5 8:0.05 9:0.3 10:0.2 11:0.45 12:74 13:0.3659 14:1 15:0.4405 16:84 17:0.2143 18:0.1905 19:0.25 20:0.3452 21:0.28 22:0.5 23:0.2222 
-0.3310876144167775 1:-1 2:0 3:0 4:21 5:0.35 6:4 7:4 8:0.4 9:0.25 10:0.1 11:0.25 12:58 13:0.3659 14:3 15:0.3333 16:45 17:0.2889 18:0.2 19:0.1333 20:0.3778 21:0.2121 22:0 23:-1 
-0.3767286273809478 1:2 2:3 3:21 4:24 5:0.375 6:4 7:4 8:0.1667 9:0.0833 10:0.2917 11:0.4583 12:5 13:0.2727 14:3 15:0.4021 16:97 17:0.2474 18:0.2165 19:0.1856 20:0.3505 21:0.2235 22:1.2 23:0.1707 
-0.1341082553670568 1:2 2:4 3:18 4:22 5:0.3182 6:2 7:3 8:0.3636 9:0.0909 10:0.2273 11:0.3182 12:7 13:0.1818 14:4 15:0.4096 16:83 17:0.2892 18:0.1928 19:0.2169 20:0.3012 21:0.1842 22:0.5 23:0.2353 
-0.07565484600734747 1:1 2:4 3:17 4:23 5:0.4348 6:2 7:3 8:0.1739 9:0.2174 10:0.2174 11:0.3913 12:67 13:0.2174 14:1 15:0.4096 16:83 17:0.2892 18:0.1928 19:0.2169 20:0.3012 21:0.1842 22:1.5 23:0.1875 
-0.2914775858010539 1:-1 2:0 3:0 4:23 5:0.3913 6:4 7:3 8:0.3043 9:0.1739 10:0.2174 11:0.3043 12:45 13:0.3023 14:2 15:0.4043 16:47 17:0.1915 18:0.2128 19:0.1915 20:0.4043 21:0.3023 22:4.5 23:-1 
-0.3036816411836218 1:3 2:2 3:18 4:21 5:0.4762 6:4 7:3 8:0.1429 9:0.3333 10:0.1429 11:0.381 12:5 13:0.3659 14:2 15:0.4231 16:78 17:0.1795 18:0.2051 19:0.2179 20:0.3974 21:0.2703 22:5 23:0.1515 
-0.4265460746201237 1:-1 2:0 3:0 4:22 5:0.5217 6:3 7:2 8:0.1304 9:0.1739 10:0.3478 11:0.3478 12:12 13:0.1628 14:4 15:0.5333 16:45 17:0.1556 18:0.2444 19:0.2889 20:0.3111 21:0.027 22:3 23:-1 
-0.1484694740177405 1:-1 2:0 3:0 4:21 5:0.5238 6:3 7:2 8:0.1905 9:0.3333 10:0.1905 11:0.2857 12:35 13:0.1707 14:-1 15:0.5349 16:43 17:0.1628 18:0.2558 19:0.2791 20:0.3023 21:0.0286 22:0.3 23:-1 
-0.2009476458906221 1:2 2:3 3:14 4:23 5:0.4091 6:1 7:4 8:0.2727 9:0.1818 10:0.2273 11:0.3182 12:12 13:0.1163 14:1 15:0.4211 16:76 17:0.25 18:0.1579 19:0.2632 20:0.3289 21:0.1343 22:0.6 23:0.2308 
-0.01083871377073124 1:2 2:3 3:17 4:22 5:0.45 6:1 7:4 8:0.25 9:0.15 10:0.3 11:0.3 12:70 13:0.122 14:2 15:0.425 16:80 17:0.25 18:0.1625 19:0.2625 20:0.325 21:0.1268 22:1 23:0.1875 
-0.1780749210403944 1:2 2:3 3:19 4:21 5:0.45 6:2 7:4 8:0.2 9:0.2 10:0.25 11:0.35 12:10 13:0.2 14:3 15:0.4494 16:89 17:0.2584 18:0.236 19:0.2135 20:0.2921 21:0.1948 22:0.78 23:0.1892 
-0.463780595184971 1:1 2:1 3:7 4:25 5:0.5417 6:2 7:5 8:0.25 9:0.25 10:0.2917 11:0.2083 12:68 13:0.25 14:3 15:0.473 16:74 17:0.2568 18:0.2568 19:0.2162 20:0.2703 21:0.2258 22:2 23:0.1429 
-0.2949951746090569 1:2 2:2 3:10 4:24 5:0.5 6:1 7:4 8:0.25 9:0.2083 10:0.2917 11:0.25 12:54 13:0.1304 14:4 15:0.4795 16:73 17:0.2466 18:0.2329 19:0.2466 20:0.274 21:0.1562 22:1.43 23:0.3 
-0.2881746398347695 1:2 2:2 3:12 4:26 5:0.5417 6:2 7:5 8:0.25 9:0.2083 10:0.3333 11:0.2083 12:1 13:0.2 14:2 15:0.4938 16:81 17:0.2469 18:0.2222 19:0.2716 20:0.2593 21:0.1944 22:0.5 23:0.25 
-0.315066393427737 1:2 2:4 3:28 4:22 5:0.4545 6:4 7:4 8:0.2273 9:0.2727 10:0.1818 11:0.3182 12:82 13:0.4 14:1 15:0.4412 16:102 17:0.2549 18:0.1961 19:0.2451 20:0.3039 21:0.2473 22:0.43 23:0.1636 
-0.4222557240849167 1:1 2:2 3:14 4:21 5:0.4762 6:5 7:2 8:0.2381 9:0.381 10:0.0952 11:0.2857 12:1 13:0.2857 14:4 15:0.5139 16:72 17:0.1806 18:0.25 19:0.2639 20:0.3056 21:0.2059 22:1.57 23:0.0769 
-0.1664288130515986 1:1 2:2 3:11 4:23 5:0.6364 6:2 7:3 8:0.1364 9:0.2273 10:0.4091 11:0.2273 12:22 13:0.1364 14:3 15:0.6301 16:73 17:0.1644 18:0.274 19:0.3562 20:0.2055 21:0.125 22:1.12 23:0.1818 
-0.444060404304275 1:1 2:3 3:17 4:23 5:0.7727 6:2 7:2 8:0.0455 9:0.3182 10:0.4545 11:0.1818 12:16 13:0.0909 14:4 15:0.6824 16:85 17:0.1412 18:0.3059 19:0.3765 20:0.1765 21:0.1053 22:1.2 23:0.1765 
-0.3335586215094324 1:1 2:1 3:2 4:23 5:0.6087 6:3 7:4 8:0.1739 9:0.4783 10:0.1304 11:0.2174 12:54 13:0.3023 14:2 15:0.56 16:50 17:0.16 18:0.32 19:0.24 20:0.28 21:0.2889 22:1.5 23:0.5 
-0.2306491691012894 1:3 2:5 3:23 4:21 5:0.4762 6:3 7:2 8:0.2381 9:0.381 10:0.0952 11:0.2857 12:8 13:0.2857 14:2 15:0.5795 16:88 17:0.1591 18:0.3068 19:0.2727 20:0.2614 21:0.3012 22:0.78 23:0.3488 
-0.3597973385421193 1:2 2:4 3:22 4:21 5:0.7143 6:3 7:5 8:0.0476 9:0.2857 10:0.4286 11:0.2381 12:63 13:0.3333 14:1 15:0.494 16:83 17:0.2169 18:0.241 19:0.253 20:0.2892 21:0.2308 22:3 23:0.1707 
-0.2839627971105431 1:2 2:3 3:19 4:20 5:0.65 6:2 7:4 8:0.2 9:0.4 10:0.25 11:0.15 12:2 13:0.3 14:1 15:0.4744 16:78 17:0.2308 18:0.2308 19:0.2436 20:0.2949 21:0.2055 22:2.25 23:0.1429 
-0.3592680527071781 1:4 2:2 3:19 4:23 5:0.3333 6:5 7:3 8:0.381 9:0.1905 10:0.1429 11:0.2857 12:79 13:0.2727 14:3 15:0.3529 16:85 17:0.2706 18:0.1882 19:0.1647 20:0.3765 21:0.2308 22:0.89 23:0.2222 
-0.4258226346322982 1:4 2:4 3:30 4:21 5:0.3333 6:3 7:4 8:0.4286 9:0.1429 10:0.1905 11:0.2381 12:6 13:0.2632 14:2 15:0.37 16:100 17:0.28 18:0.19 19:0.18 20:0.35 21:0.2688 22:0.33 23:0.2982 
-1 1:-1 2:0 3:3 4:24 5:0.4762 6:3 7:3 8:0.2857 9:0.2381 10:0.2381 11:0.2381 12:18 13:0.1818 14:4 15:0.4259 16:54 17:0.2407 18:0.2222 19:0.2037 20:0.3333 21:0.16 22:1.5 23:0 
-0.06187756199454021 1:-1 2:0 3:0 4:24 5:0.3913 6:3 7:3 8:0.1304 9:0.2174 10:0.1739 11:0.4783 12:46 13:0.1818 14:4 15:0.4792 16:48 17:0.2083 18:0.25 19:0.2292 20:0.3125 21:0.1818 22:1.33 23:-1 
-0.2773088848947993 1:2 2:3 3:14 4:21 5:0.3333 6:4 7:3 8:0.4762 9:0.1429 10:0.1905 11:0.1905 12:20 13:0.3171 14:2 15:0.2468 16:77 17:0.3506 18:0.0909 19:0.1558 20:0.4026 21:0.3043 22:1.5 23:0.2857 
-0.3968875449639448 1:3 2:6 3:30 4:22 5:0.4286 6:4 7:4 8:0.381 9:0.0952 10:0.3333 11:0.1905 12:4 13:0.3953 14:1 15:0.3091 16:110 17:0.3455 18:0.1273 19:0.1818 20:0.3455 21:0.3529 22:0.5 23:0.322 
-0.3629049148691071 1:1 2:3 3:16 4:23 5:0.3043 6:7 7:3 8:0.4348 9:0.1739 10:0.1304 11:0.2609 12:7 13:0.2821 14:4 15:0.3375 16:80 17:0.3125 18:0.15 19:0.1875 20:0.35 21:0.194 22:0 23:0.1333 
-0.08928063339190244 1:1 2:2 3:12 4:21 5:0.5238 6:2 7:3 8:0.1429 9:0.4286 10:0.0952 11:0.3333 12:49 13:0.15 14:1 15:0.5147 16:68 17:0.2353 18:0.2353 19:0.2794 20:0.25 21:0.1148 22:0.6 23:0.1304 
-0.7899733029742204 1:1 2:2 3:11 4:20 5:0.55 6:2 7:3 8:0.15 9:0.45 10:0.1 11:0.3 12:48 13:0.1579 14:1 15:0.5312 16:64 17:0.2344 18:0.25 19:0.2812 20:0.2344 21:0.1228 22:0.45 23:0.1429 
-0.1769024069386237 1:-1 2:0 3:0 4:21 5:0.45 6:3 7:4 8:0.3 9:0.2 10:0.25 11:0.25 12:15 13:0.3333 14:1 15:0.4186 16:43 17:0.3488 18:0.1628 19:0.2558 20:0.2326 21:0.2222 22:2.5 23:-1 
-0.3303810895778037 1:-1 2:0 3:12 4:21 5:0.3333 6:2 7:4 8:0.2857 9:0.1905 10:0.1429 11:0.381 12:60 13:0.2381 14:1 15:0.3 16:80 17:0.3375 18:0.1 19:0.2 20:0.3625 21:0.1515 22:1 23:0 
-0.413104964603619 1:-1 2:0 3:13 4:20 5:0.45 6:2 7:4 8:0.3 9:0.1 10:0.35 11:0.25 12:1 13:0.25 14:1 15:0.3 16:80 17:0.3375 18:0.1 19:0.2 20:0.3625 21:0.1515 22:1 23:0 
-0.3944599876667741 1:-1 2:0 3:0 4:25 5:0.5 6:4 7:2 8:0.25 9:0.2083 10:0.2917 11:0.25 12:44 13:0.2653 14:3 15:0.451 16:51 17:0.2549 18:0.1765 19:0.2745 20:0.2941 21:0.122 22:0 23:-1 
-0.3446958113544801 1:1 2:2 3:14 4:21 5:0.5238 6:4 7:2 8:0.0476 9:0.1905 10:0.3333 11:0.4286 12:54 13:0.2195 14:3 15:0.662 16:71 17:0.1268 18:0.338 19:0.3239 20:0.2113 21:0.1515 22:1 23:0.1111 
-0.1708506659927523 1:-1 2:0 3:0 4:20 5:0.3 6:5 7:2 8:0.25 9:0.2 10:0.1 11:0.45 12:37 13:0.3 14:1 15:0.3171 16:41 17:0.3415 18:0.1707 19:0.1463 20:0.3415 21:0.0667 22:0 23:-1 
-0.03777368133099946 1:-1 2:0 3:0 4:22 5:0.3182 6:4 7:2 8:0.1818 9:0.2273 10:0.0909 11:0.5 12:38 13:0.2273 14:3 15:0.3191 16:47 17:0.3404 18:0.1702 19:0.1489 20:0.3404 21:0.0556 22:0 23:-1 
-0.2340162404498419 1:2 2:4 3:12 4:22 5:0.4091 6:2 7:3 8:0.2727 9:0.0909 10:0.3182 11:0.3182 12:54 13:0.1429 14:3 15:0.4366 16:71 17:0.2535 18:0.2394 19:0.1972 20:0.3099 21:0.1935 22:1.14 23:0.3636 
-0.1612817379485891 1:-1 2:0 3:0 4:26 5:0.5833 6:3 7:4 8:0.2083 9:0.3333 10:0.25 11:0.2083 12:39 13:0.234 14:1 15:0.6042 16:48 17:0.1875 18:0.3125 19:0.2917 20:0.2083 21:0.2 22:0.7 23:-1 
-0.03588358927411796 1:-1 2:0 3:0 4:25 5:0.5417 6:3 7:4 8:0.2083 9:0.3333 10:0.2083 11:0.25 12:38 13:0.2444 14:-1 15:0.587 16:46 17:0.1957 18:0.3043 19:0.2826 20:0.2174 21:0.2093 22:0.78 23:-1 
-0.5193631904254745 1:9 2:1 3:21 4:20 5:0.55 6:3 7:4 8:0.25 9:0.3 10:0.25 11:0.2 12:1 13:0.3158 14:2 15:0.4667 16:75 17:0.24 18:0.2533 19:0.2133 20:0.2933 21:0.2958 22:0.6 23:0.2727 
-0.3743380727834488 1:-1 2:0 3:3 4:22 5:0.3333 6:9 7:2 8:0.3333 9:0.3333 10:0 11:0.3333 12:40 13:0.3529 14:2 15:0.4318 16:44 17:0.25 18:0.2273 19:0.2045 20:0.3182 21:0.3 22:0 23:0 
-0.3904761564579158 1:2 2:6 3:29 4:26 5:0.4286 6:6 7:4 8:0.1905 9:0.1905 10:0.2381 11:0.381 12:86 13:0.4468 14:2 15:0.5377 16:106 17:0.2264 18:0.2547 19:0.283 20:0.2358 21:0.3592 22:3.5 23:0.3103 
-0.3616463352101249 1:2 2:4 3:18 4:22 5:0.5238 6:4 7:4 8:0.3333 9:0.1905 10:0.3333 11:0.1429 12:75 13:0.3488 14:2 15:0.5875 16:80 17:0.1875 18:0.2625 19:0.325 20:0.225 21:0.3247 22:4 23:0.3333 
-0.3487198347096555 1:-1 2:0 3:0 4:25 5:0.5 6:3 7:4 8:0.1818 9:0.2273 10:0.2727 11:0.3182 12:15 13:0.3061 14:3 15:0.46 16:50 17:0.24 18:0.22 19:0.24 20:0.3 21:0.2093 22:3 23:-1 
-0.1724557817277702 1:1 2:3 3:19 4:22 5:0.619 6:2 7:5 8:0.2381 9:0.4286 10:0.1905 11:0.1429 12:72 13:0.2195 14:2 15:0.3708 16:89 17:0.3034 18:0.191 19:0.1798 20:0.3258 21:0.1579 22:1.38 23:0.1351 
-0.2133376201800199 1:1 2:2 3:13 4:24 5:0.4783 6:2 7:5 8:0.3043 9:0.3478 10:0.1304 11:0.2174 12:66 13:0.2174 14:2 15:0.3415 16:82 17:0.3171 18:0.1707 19:0.1707 20:0.3415 21:0.1594 22:1.5 23:0.12 
-0.2728307158019882 1:2 2:3 3:16 4:26 5:0.5455 6:3 7:4 8:0.0909 9:0.1818 10:0.3636 11:0.3636 12:70 13:0.2917 14:1 15:0.4588 16:85 17:0.1765 18:0.1882 19:0.2706 20:0.3647 21:0.2468 22:0.5 23:0.1724 
-0.3736075562015021 1:-1 2:0 3:0 4:26 5:0.375 6:3 7:4 8:0.3333 9:0.1667 10:0.2083 11:0.2917 12:53 13:0.3061 14:2 15:0.3922 16:51 17:0.2157 18:0.2157 19:0.1765 20:0.3922 21:0.2093 22:0.2 23:-1 
-0.03200590062997345 1:-1 2:0 3:0 4:21 5:0.2857 6:4 7:3 8:0.2381 9:0.1429 10:0.1429 11:0.4762 12:42 13:0.2857 14:4 15:0.4255 16:47 17:0.234 18:0.2128 19:0.2128 20:0.3404 21:0.1176 22:0 23:-1 
-0.2462750970674396 1:3 2:3 3:15 4:23 5:0.3043 6:2 7:2 8:0.3913 9:0.1304 10:0.1739 11:0.3043 12:69 13:0.1739 14:2 15:0.3733 16:75 17:0.2667 18:0.1733 19:0.2 20:0.36 21:0.2222 22:2 23:0.3571 
-0.2472302639308395 1:3 2:4 3:27 4:22 5:0.4286 6:2 7:4 8:0.1429 9:0.1905 10:0.2381 11:0.4286 12:7 13:0.2195 14:4 15:0.4149 16:94 17:0.2447 18:0.2021 19:0.2128 20:0.3404 21:0.2308 22:0.62 23:0.2692 
-0.5241491351297489 1:3 2:3 3:26 4:20 5:0.35 6:5 7:5 8:0.2 9:0.2 10:0.15 11:0.45 12:82 13:0.4286 14:4 15:0.4444 16:90 17:0.2333 18:0.2111 19:0.2333 20:0.3222 21:0.3023 22:1 23:0.2157 
-0.2895474865499424 1:-1 2:0 3:0 4:24 5:0.4762 6:2 7:6 8:0.2857 9:0.3333 10:0.1429 11:0.2381 12:53 13:0.2273 14:2 15:0.4565 16:46 17:0.2174 18:0.1957 19:0.2609 20:0.3261 21:0.1905 22:0.78 23:-1 
-0.3686355033420223 1:-1 2:0 3:0 4:20 5:0.35 6:2 7:4 8:0.2 9:0.1 10:0.25 11:0.45 12:30 13:0.1892 14:3 15:0.3902 16:41 17:0.2439 18:0.1707 19:0.2195 20:0.3659 21:0.1892 22:1 23:-1 
-0.2723548096528285 1:4 2:3 3:18 4:22 5:0.5909 6:2 7:5 8:0.2273 9:0.2273 10:0.3636 11:0.1818 12:11 13:0.2558 14:1 15:0.5823 16:79 17:0.2025 18:0.3165 19:0.2658 20:0.2152 21:0.2222 22:1.14 23:0.2258 
-0.2446210645365754 1:4 2:4 3:23 4:24 5:0.6667 6:3 7:5 8:0.2381 9:0.2857 10:0.381 11:0.0952 12:7 13:0.2727 14:2 15:0.6 16:90 17:0.1889 18:0.3222 19:0.2778 20:0.2111 21:0.2289 22:1.22 23:0.2195 
-0.1385663349545969 1:3 2:3 3:15 4:24 5:0.5833 6:2 7:4 8:0.2083 9:0.125 10:0.4583 11:0.2083 12:71 13:0.25 14:3 15:0.5897 16:78 17:0.1923 18:0.2692 19:0.3205 20:0.2179 21:0.2329 22:1.2 23:0.2593 
-0.7861762631495864 1:3 2:3 3:13 4:22 5:0.5909 6:2 7:3 8:0.1818 9:0.3182 10:0.2727 11:0.2273 12:21 13:0.1818 14:1 15:0.5714 16:70 17:0.2143 18:0.2571 19:0.3143 20:0.2143 21:0.2 22:0.62 23:0.3043 
-0.06292769800514381 1:4 2:3 3:19 4:23 5:0.4545 6:2 7:3 8:0.1364 9:0.2727 10:0.1818 11:0.4091 12:73 13:0.2 14:3 15:0.3976 16:83 17:0.2651 18:0.1687 19:0.2289 20:0.3373 21:0.225 22:1.29 23:0.2973 
-0.2745712628852855 1:1 2:1 3:2 4:21 5:0.4 6:4 7:2 8:0.3 9:0.2 10:0.2 11:0.3 12:57 13:0.2195 14:3 15:0.3478 16:46 17:0.2826 18:0.1304 19:0.2174 20:0.3696 21:0.2093 22:1 23:0.5 
-0.3939649307160709 1:2 2:5 3:31 4:25 5:0.45 6:5 7:4 8:0.4 9:0.1 10:0.35 11:0.15 12:1 13:0.3636 14:2 15:0.4862 16:109 17:0.2385 18:0.211 19:0.2752 20:0.2752 21:0.2277 22:0.3 23:0.1228 
-0.1303362025312166 1:1 2:3 3:18 4:25 5:0.6364 6:2 7:4 8:0.0455 9:0.4091 10:0.2273 11:0.3182 12:75 13:0.1556 14:2 15:0.4884 16:86 17:0.1977 18:0.2093 19:0.2791 20:0.314 21:0.1282 22:2.2 23:0.0909 
-0.3374292030003226 1:3 2:1 3:14 4:23 5:0.6087 6:2 7:4 8:0.2609 9:0.3043 10:0.3043 11:0.1304 12:1 13:0.2174 14:2 15:0.4767 16:86 17:0.2558 18:0.2442 19:0.2326 20:0.2674 21:0.2162 22:0.78 23:0.2143 
-0.1010520276069164 1:3 2:1 3:14 4:20 5:0.4 6:2 7:3 8:0.25 9:0.2 10:0.2 11:0.35 12:64 13:0.2 14:3 15:0.4625 16:80 17:0.2625 18:0.2375 19:0.225 20:0.275 21:0.2059 22:0.9 23:0.2143 
-0.2404675599041701 1:1 2:1 3:12 4:22 5:0.5 6:4 7:2 8:0.3636 9:0.2727 10:0.2273 11:0.1364 12:62 13:0.2558 14:2 15:0.4474 16:76 17:0.2895 18:0.1974 19:0.25 20:0.2632 21:0.1818 22:0.55 23:0.0435 
-0.2666642755888222 1:-1 2:0 3:0 4:22 5:0.3913 6:7 7:2 8:0.2174 9:0.2609 10:0.1304 11:0.3913 12:43 13:0.4091 14:-1 15:0.4 16:45 17:0.2 18:0.2 19:0.2 20:0.4 21:0.1333 22:0 23:-1 
-0.3271865248731675 1:1 2:1 3:11 4:25 5:0.5 6:5 7:4 8:0.2 9:0.3 10:0.2 11:0.3 12:61 13:0.3333 14:1 15:0.4375 16:80 17:0.2125 18:0.2375 19:0.2 20:0.35 21:0.2308 22:0.62 23:0.0909 
-0.179676233011855 1:1 2:3 3:11 4:24 5:0.7083 6:2 7:4 8:0.125 9:0.4167 10:0.2917 11:0.1667 12:4 13:0.1915 14:2 15:0.6667 16:72 17:0.1389 18:0.3194 19:0.3472 20:0.1944 21:0.2059 22:0.9 23:0.2381 
-0.2258375199898356 1:-1 2:0 3:0 4:22 5:0.5455 6:2 7:5 8:0.1818 9:0.2273 10:0.3182 11:0.2727 12:41 13:0.2558 14:4 15:0.6 16:45 17:0.1556 18:0.2889 19:0.3111 20:0.2444 21:0.2195 22:1.25 23:-1 
-0.226109927819773 1:1 2:2 3:11 4:22 5:0.2727 6:2 7:4 8:0.1818 9:0.1364 10:0.1364 11:0.5455 12:4 13:0.3023 14:3 15:0.3714 16:70 17:0.2714 18:0.1286 19:0.2429 20:0.3571 21:0.25 22:0.5 23:0.1429 
