svm_type c_svc
kernel_type rbf
gamma 0.0434783
nr_class 2
total_sv 469
rho 0.741386
label 1 0
probA -8.8835
probB -3.82005
nr_sv 58 411
SV
1 1:5 2:3 3:12 4:22 5:0.3636 6:2 7:3 8:0.2727 9:0 10:0.3636 11:0.3636 12:21 13:0.1818 14:1 15:0.3939 16:66 17:0.2727 18:0.1364 19:0.2576 20:0.3333 21:0.3016 22:0.71 23:0.619 
1 1:1 2:1 3:2 4:22 5:0.4091 6:4 7:3 8:0.2727 9:0.2273 10:0.1818 11:0.3182 12:10 13:0.3182 14:2 15:0.4717 16:53 17:0.2453 18:0.2642 19:0.2075 20:0.283 21:0.3191 22:0 23:0.3333 
0.7685782844070577 1:-1 2:0 3:4 4:24 5:0.4545 6:3 7:4 8:0.2273 9:0.1364 10:0.3182 11:0.3182 12:14 13:0.2273 14:3 15:0.3667 16:60 17:0.2667 18:0.2 19:0.1667 20:0.3667 21:0.1923 22:1.29 23:0 
0.7314724468760141 1:-1 2:0 3:2 4:24 5:0.4545 6:2 7:3 8:0.2727 9:0.2727 10:0.1818 11:0.2727 12:61 13:0.1739 14:4 15:0.5345 16:58 17:0.2069 18:0.2759 19:0.2586 20:0.2586 21:0.16 22:1 23:0 
1 1:-1 2:0 3:3 4:23 5:0.5455 6:4 7:3 8:0.1818 9:0.3636 10:0.1818 11:0.2727 12:65 13:0.3333 14:2 15:0.4 16:65 17:0.2154 18:0.2154 19:0.1846 20:0.3846 21:0.2941 22:1.25 23:0 
0.4205181586587535 1:-1 2:0 3:2 4:23 5:0.3636 6:2 7:4 8:0.0909 9:0.3182 10:0.0455 11:0.5455 12:55 13:0.2 14:4 15:0.4407 16:59 17:0.2034 18:0.2373 19:0.2034 20:0.3559 21:0.1837 22:1.43 23:0 
0.6680118480184289 1:-1 2:0 3:3 4:24 5:0.5455 6:4 7:2 8:0.3182 9:0.1364 10:0.4091 11:0.1364 12:59 13:0.1556 14:1 15:0.5085 16:59 17:0.1864 18:0.2542 19:0.2542 20:0.3051 21:0.1373 22:0.67 23:0 
0.9172600540977327 1:-1 2:0 3:0 4:23 5:0.6364 6:1 7:4 8:0.0909 9:0.1364 10:0.5 11:0.2727 12:10 13:0.1556 14:4 15:0.5636 16:55 17:0.1273 18:0.2364 19:0.3273 20:0.3091 21:0.1556 22:1 23:-1 
0.2110115237801932 1:1 2:1 3:3 4:22 5:0.3636 6:3 7:2 8:0.4091 9:0 10:0.3636 11:0.2273 12:49 13:0.1818 14:3 15:0.3607 16:61 17:0.2787 18:0.1639 19:0.1967 20:0.3607 21:0.1667 22:0.8 23:0.3333 
0.5073870185429894 1:2 2:2 3:7 4:22 5:0.5 6:3 7:3 8:0.4091 9:0.0909 10:0.4091 11:0.0909 12:58 13:0.2273 14:3 15:0.3607 16:61 17:0.3607 18:0.1967 19:0.1639 20:0.2787 21:0.25 22:1.25 23:0.4286 
1 1:-1 2:0 3:0 4:22 5:0.5455 6:3 7:3 8:0.2727 9:0.2273 10:0.3182 11:0.1818 12:18 13:0.2273 14:4 15:0.4655 16:58 17:0.2069 18:0.2414 19:0.2241 20:0.3276 21:0.2273 22:0.55 23:-1 
0.8724584282404053 1:-1 2:0 3:1 4:23 5:0.4783 6:2 7:4 8:0.3478 9:0.1739 10:0.3043 11:0.1739 12:31 13:0.2273 14:2 15:0.4655 16:58 17:0.2069 18:0.2241 19:0.2414 20:0.3276 21:0.2174 22:0.64 23:0 
0.0448624330781087 1:1 2:1 3:6 4:23 5:0.5217 6:3 7:4 8:0.2609 9:0.2174 10:0.3043 11:0.2174 12:9 13:0.2889 14:2 15:0.45 16:60 17:0.25 18:0.2167 19:0.2333 20:0.3 21:0.25 22:0.38 23:0.0909 
0.4062410598173974 1:1 2:1 3:2 4:23 5:0.4783 6:2 7:4 8:0.2174 9:0.3478 10:0.1304 11:0.3043 12:65 13:0.2 14:3 15:0.4677 16:62 17:0.2097 18:0.2581 19:0.2097 20:0.3226 21:0.1915 22:0.89 23:0.5 
1 1:4 2:1 3:8 4:25 5:0.3182 6:2 7:3 8:0.2273 9:0.1364 10:0.1818 11:0.4545 12:68 13:0.1489 14:4 15:0.3538 16:65 17:0.3077 18:0.1692 19:0.1846 20:0.3385 21:0.2131 22:0.89 23:0.4286 
1 1:9 2:1 3:14 4:22 5:0.3182 6:1 7:1 8:0.2727 9:0.0909 10:0.2273 11:0.4091 12:64 13:0.0455 14:3 15:0.3043 16:69 17:0.3333 18:0.1159 19:0.1884 20:0.3623 21:0.2 22:1.12 23:0.5238 
1 1:-1 2:0 3:1 4:23 5:0.5 6:2 7:3 8:0.2727 9:0.1818 10:0.3182 11:0.2273 12:26 13:0.2 14:1 15:0.4182 16:55 17:0.3091 18:0.1818 19:0.2364 20:0.2727 21:0.1915 22:0.8 23:0 
1 1:-1 2:0 3:1 4:24 5:0.4545 6:2 7:4 8:0.3636 9:0.3182 10:0.1364 11:0.1818 12:42 13:0.1739 14:4 15:0.5172 16:58 17:0.1897 18:0.2759 19:0.2414 20:0.2931 21:0.1667 22:1.8 23:0 
0.3824152951719803 1:1 2:1 3:5 4:23 5:0.6087 6:2 7:4 8:0.2174 9:0.2609 10:0.3478 11:0.1739 12:52 13:0.2 14:1 15:0.5345 16:58 17:0.1552 18:0.2414 19:0.2931 20:0.3103 21:0.1852 22:1.14 23:0.1111 
0.8515381362876904 1:-1 2:0 3:0 4:22 5:0.4545 6:3 7:3 8:0.2727 9:0.2273 10:0.2273 11:0.2727 12:6 13:0.2273 14:4 15:0.4074 16:54 17:0.2778 18:0.2593 19:0.1481 20:0.3148 21:0.2273 22:0.8 23:-1 
0.3007612967265814 1:1 2:1 3:3 4:23 5:0.4545 6:2 7:3 8:0.3182 9:0.3636 10:0.0909 11:0.2273 12:52 13:0.2 14:4 15:0.4483 16:58 17:0.2586 18:0.2414 19:0.2069 20:0.2931 21:0.1837 22:2 23:0.3333 
0.2265991028842163 1:-1 2:0 3:2 4:23 5:0.4545 6:2 7:4 8:0.2273 9:0.2727 10:0.1818 11:0.3182 12:64 13:0.2444 14:3 15:0.4262 16:61 17:0.2295 18:0.2131 19:0.2131 20:0.3443 21:0.2245 22:2 23:0 
0.564791080960522 1:1 2:2 3:4 4:23 5:0.4545 6:3 7:2 8:0.1364 9:0.2273 10:0.2273 11:0.4091 12:55 13:0.1364 14:3 15:0.4386 16:57 17:0.2807 18:0.2281 19:0.2105 20:0.2807 21:0.16 22:1.11 23:0.5 
1 1:3 2:1 3:8 4:22 5:0.5 6:4 7:2 8:0.0455 9:0.3182 10:0.1818 11:0.4545 12:14 13:0.2273 14:2 15:0.4262 16:61 17:0.1967 18:0.2131 19:0.2131 20:0.377 21:0.2281 22:0.9 23:0.2308 
0.8031827724657037 1:-1 2:0 3:4 4:21 5:0.2857 6:2 7:2 8:0.3333 9:0.1429 10:0.1429 11:0.381 12:6 13:0.122 14:2 15:0.4211 16:57 17:0.2632 18:0.193 19:0.2281 20:0.3158 21:0.102 22:0.57 23:0 
0.1677589284976882 1:-1 2:0 3:1 4:24 5:0.4783 6:2 7:4 8:0.2609 9:0.2609 10:0.2174 11:0.2609 12:62 13:0.1739 14:4 15:0.45 16:60 17:0.2833 18:0.25 19:0.2 20:0.2667 21:0.1667 22:0.75 23:0 
0.2954942815467382 1:1 2:1 3:6 4:22 5:0.4091 6:2 7:3 8:0.1818 9:0.2273 10:0.1818 11:0.4091 12:8 13:0.1628 14:2 15:0.4655 16:58 17:0.1897 18:0.1897 19:0.2759 20:0.3448 21:0.1481 22:0.62 23:0.0909 
1 1:1 2:1 3:2 4:22 5:0.4762 6:2 7:3 8:0.2381 9:0.1905 10:0.2857 11:0.2857 12:32 13:0.1628 14:2 15:0.5556 16:54 17:0.2037 18:0.2407 19:0.3148 20:0.2407 21:0.1556 22:0.7 23:0.5 
1 1:3 2:3 3:13 4:22 5:0.5455 6:3 7:3 8:0.2727 9:0.3182 10:0.2273 11:0.1818 12:65 13:0.3182 14:3 15:0.5571 16:70 17:0.1857 18:0.3143 19:0.2429 20:0.2571 21:0.2923 22:3.33 23:0.3043 
1 1:1 2:1 3:3 4:25 5:0.4091 6:2 7:4 8:0.4091 9:0.1818 10:0.2273 11:0.1818 12:47 13:0.1915 14:1 15:0.375 16:56 17:0.3036 18:0.1786 19:0.1964 20:0.3214 21:0.1765 22:1 23:0.3333 
1 1:3 2:2 3:8 4:21 5:0.4762 6:3 7:3 8:0 9:0.2857 10:0.1905 11:0.5238 12:28 13:0.2195 14:1 15:0.3833 16:60 17:0.25 18:0.1833 19:0.2 20:0.3667 21:0.2453 22:0.38 23:0.4286 
1 1:3 2:1 3:10 4:23 5:0.3636 6:2 7:3 8:0.1818 9:0.1364 10:0.2273 11:0.4545 12:56 13:0.1364 14:1 15:0.3939 16:66 17:0.2727 18:0.2121 19:0.1818 20:0.3333 21:0.1613 22:1.5 23:0.2222 
0.7001968549962214 1:1 2:1 3:5 4:21 5:0.3333 6:2 7:4 8:0.4286 9:0.1429 10:0.1905 11:0.2381 12:29 13:0.2683 14:4 15:0.2373 16:59 17:0.3559 18:0.0847 19:0.1525 20:0.4068 21:0.2549 22:1.75 23:0.2 
0.2042228346023724 1:1 2:1 3:3 4:24 5:0.2727 6:1 7:4 8:0.1364 9:0.1364 10:0.1364 11:0.5909 12:60 13:0.1304 14:2 15:0.3492 16:63 17:0.3016 18:0.1746 19:0.1746 20:0.3492 21:0.12 22:1.5 23:0.3333 
1 1:1 2:2 3:4 4:20 5:0.6 6:2 7:1 8:0.15 9:0.1 10:0.5 11:0.25 12:9 13:0.1 14:2 15:0.5 16:52 17:0.2692 18:0.2308 19:0.2692 20:0.2308 21:0.1111 22:1 23:0.4286 
0.6161495211517267 1:1 2:1 3:5 4:22 5:0.5909 6:2 7:4 8:0.2273 9:0.1818 10:0.4091 11:0.1818 12:44 13:0.2727 14:1 15:0.4237 16:59 17:0.3051 18:0.1695 19:0.2542 20:0.2712 21:0.2308 22:2.25 23:0.2 
1 1:-1 2:0 3:2 4:22 5:0.2727 6:1 7:3 8:0.2727 9:0.1364 10:0.1364 11:0.4545 12:10 13:0.1364 14:1 15:0.2742 16:62 17:0.3548 18:0.0968 19:0.1774 20:0.371 21:0.125 22:0.44 23:0 
0.8739586409490716 1:-1 2:0 3:4 4:22 5:0.3636 6:2 7:3 8:0.3636 9:0.0909 10:0.2727 11:0.2727 12:52 13:0.1818 14:3 15:0.2727 16:66 17:0.3485 18:0.0909 19:0.1818 20:0.3788 21:0.1538 22:2.25 23:0 
0.3068760699687638 1:-1 2:0 3:4 4:23 5:0.5 6:3 7:1 8:0.1818 9:0.3182 10:0.1818 11:0.3182 12:52 13:0.1111 14:3 15:0.5238 16:63 17:0.2063 18:0.2063 19:0.3175 20:0.2698 21:0.0943 22:0.82 23:0 
0.1385460007475792 1:1 2:2 3:6 4:23 5:0.6522 6:2 7:2 8:0.087 9:0.2174 10:0.4348 11:0.2609 12:46 13:0.1111 14:4 15:0.6949 16:59 17:0.1356 18:0.3559 19:0.339 20:0.1695 21:0.1111 22:1.83 23:0.2727 
0.956538538607254 1:1 2:1 3:4 4:22 5:0.3636 6:1 7:1 8:0.1364 9:0.2273 10:0.1364 11:0.5 12:45 13:0.0455 14:2 15:0.3607 16:61 17:0.3115 18:0.1803 19:0.1803 20:0.3279 21:0.04 22:1 23:0.25 
1 1:2 2:2 3:8 4:25 5:0.5 6:3 7:4 8:0.2273 9:0.2727 10:0.2273 11:0.2727 12:47 13:0.1818 14:3 15:0.5833 16:60 17:0.2 18:0.2833 19:0.3 20:0.2167 21:0.193 22:1.43 23:0.3333 
1 1:2 2:2 3:7 4:26 5:0.6087 6:3 7:4 8:0.2174 9:0.2609 10:0.3478 11:0.1739 12:9 13:0.1739 14:2 15:0.5833 16:60 17:0.2 18:0.2833 19:0.3 20:0.2167 21:0.193 22:0.7 23:0.3846 
1 1:9 2:1 3:12 4:23 5:0.4091 6:2 7:2 8:0.1364 9:0.3182 10:0.0909 11:0.4545 12:49 13:0.1111 14:2 15:0.4375 16:64 17:0.2656 18:0.2344 19:0.2031 20:0.2969 21:0.2333 22:1.25 23:0.6 
0.6430481514573818 1:2 2:2 3:7 4:23 5:0.6087 6:2 7:4 8:0.3043 9:0.3043 10:0.3043 11:0.087 12:64 13:0.2609 14:4 15:0.6066 16:61 17:0.1803 18:0.2787 19:0.3279 20:0.2131 21:0.2759 22:1.4 23:0.4286 
1 1:1 2:2 3:8 4:22 5:0.3182 6:2 7:3 8:0.4545 9:0.1818 10:0.1364 11:0.2273 12:50 13:0.2273 14:3 15:0.4375 16:64 17:0.2656 18:0.2188 19:0.2188 20:0.2969 21:0.193 22:0.5 23:0.2 
1 1:1 2:1 3:3 4:22 5:0.3636 6:1 7:4 8:0.2273 9:0.0455 10:0.3182 11:0.4091 12:18 13:0.1429 14:1 15:0.2712 16:59 17:0.3559 18:0.1356 19:0.1356 20:0.3729 21:0.1304 22:0.67 23:0.3333 
1 1:3 2:2 3:7 4:23 5:0.3636 6:2 7:2 8:0.2273 9:0.2727 10:0.0909 11:0.4091 12:25 13:0.1556 14:4 15:0.3898 16:59 17:0.2542 18:0.1864 19:0.2034 20:0.3559 21:0.2143 22:1 23:0.5385 
0.320293798303388 1:-1 2:0 3:3 4:23 5:0.4091 6:3 7:3 8:0.3182 9:0.1364 10:0.2727 11:0.2727 12:27 13:0.2444 14:3 15:0.4727 16:55 17:0.2545 18:0.2364 19:0.2364 20:0.2727 21:0.2157 22:0.4 23:0 
0.6549666825384217 1:2 2:1 3:6 4:23 5:0.5455 6:1 7:5 8:0.1818 9:0.3636 10:0.1818 11:0.2727 12:58 13:0.1818 14:3 15:0.5 16:58 17:0.1897 18:0.2241 19:0.2759 20:0.3103 21:0.1852 22:0.86 23:0.2 
0.8279949247830619 1:1 2:1 3:3 4:27 5:0.6364 6:4 7:5 8:0.1818 9:0.4545 10:0.1818 11:0.1818 12:59 13:0.2245 14:3 15:0.5167 16:60 17:0.2333 18:0.2833 19:0.2333 20:0.25 21:0.2075 22:1.29 23:0.3333 
0.5246838351034411 1:1 2:1 3:3 4:25 5:0.4348 6:3 7:4 8:0.2174 9:0.2174 10:0.2174 11:0.3478 12:28 13:0.1915 14:2 15:0.5179 16:56 17:0.2321 18:0.25 19:0.2679 20:0.25 21:0.1765 22:0.88 23:0.3333 
0.6093655331652863 1:2 2:2 3:8 4:24 5:0.4091 6:2 7:4 8:0.1818 9:0.2727 10:0.1364 11:0.4091 12:63 13:0.2174 14:2 15:0.4127 16:63 17:0.254 18:0.1746 19:0.2381 20:0.3333 21:0.2333 22:1 23:0.375 
0.5588367661527673 1:1 2:1 3:6 4:25 5:0.5238 6:2 7:4 8:0.2857 9:0.3333 10:0.1905 11:0.1905 12:65 13:0.1304 14:3 15:0.4923 16:65 17:0.2 18:0.2154 19:0.2769 20:0.3077 21:0.1228 22:1.12 23:0.0909 
0.09229664433871478 1:-1 2:0 3:2 4:23 5:0.3913 6:3 7:3 8:0.2174 9:0.1739 10:0.2174 11:0.3913 12:52 13:0.2174 14:3 15:0.4194 16:62 17:0.2903 18:0.2258 19:0.1935 20:0.2903 21:0.2 22:1.43 23:0 
0.08251331334365468 1:-1 2:0 3:3 4:23 5:0.5 6:2 7:3 8:0.2273 9:0.2727 10:0.2273 11:0.2727 12:54 13:0.1818 14:1 15:0.4667 16:60 17:0.25 18:0.2 19:0.2667 20:0.2833 21:0.16 22:1.8 23:0 
0.8343893887763068 1:1 2:1 3:3 4:24 5:0.4783 6:2 7:3 8:0.2174 9:0.2609 10:0.2174 11:0.3043 12:53 13:0.1915 14:3 15:0.4091 16:66 17:0.2121 18:0.2273 19:0.1818 20:0.3788 21:0.1765 22:2.25 23:0.3333 
0.1974284625020492 1:1 2:1 3:4 4:22 5:0.3636 6:2 7:4 8:0.0909 9:0.1364 10:0.2273 11:0.5455 12:11 13:0.2727 14:4 15:0.386 16:57 17:0.2456 18:0.1404 19:0.2456 20:0.3684 21:0.2549 22:0.56 23:0.1429 
-0.04293909672322395 1:6 2:3 3:20 4:23 5:0.6522 6:2 7:4 8:0.1304 9:0.1304 10:0.5217 11:0.2174 12:12 13:0.2174 14:4 15:0.5119 16:84 17:0.2262 18:0.2024 19:0.3095 20:0.2619 21:0.284 22:0.9 23:0.4054 
-0.1229656115784037 1:6 2:4 3:31 4:22 5:0.6818 6:3 7:5 8:0.1818 9:0.3636 10:0.3182 11:0.1364 12:84 13:0.3636 14:1 15:0.5577 16:104 17:0.2212 18:0.2308 19:0.3269 20:0.2212 21:0.3069 22:0.83 23:0.2881 
-0.05354880638713155 1:6 2:4 3:31 4:22 5:0.8182 6:3 7:5 8:0.0909 9:0.3182 10:0.5 11:0.0909 12:2 13:0.3636 14:2 15:0.5577 16:104 17:0.2212 18:0.2308 19:0.3269 20:0.2212 21:0.3069 22:1.2 23:0.2881 
-0.08006181126063315 1:6 2:3 3:26 4:24 5:0.5833 6:3 7:5 8:0.25 9:0.375 10:0.2083 11:0.1667 12:79 13:0.3333 14:2 15:0.5306 16:98 17:0.2347 18:0.2245 19:0.3061 20:0.2347 21:0.3053 22:2.33 23:0.3061 
-0.0145706516861667 1:6 2:4 3:30 4:22 5:0.8182 6:3 7:4 8:0.0909 9:0.3182 10:0.5 11:0.0909 12:3 13:0.3182 14:1 15:0.549 16:102 17:0.2255 18:0.2353 19:0.3137 20:0.2255 21:0.2929 22:1.2 23:0.2982 
-0.04898605148126417 1:-1 2:0 3:0 4:23 5:0.5 6:6 7:3 8:0.25 9:0.15 10:0.35 11:0.25 12:56 13:0.3488 14:3 15:0.3864 16:44 17:0.2955 18:0.1364 19:0.25 20:0.3182 21:0.3171 22:0.78 23:-1 
-0.02688972816031582 1:6 2:3 3:26 4:23 5:0.6087 6:2 7:5 8:0.2174 9:0.3913 10:0.2174 11:0.1739 12:79 13:0.3043 14:2 15:0.5312 16:96 17:0.2292 18:0.2188 19:0.3125 20:0.2396 21:0.2903 22:1.4 23:0.3061 
-0.06615527728473981 1:6 2:3 3:18 4:22 5:0.5455 6:2 7:3 8:0.1818 9:0.3636 10:0.1818 11:0.2727 12:71 13:0.1818 14:3 15:0.4872 16:78 17:0.2308 18:0.1795 19:0.3077 20:0.2821 21:0.28 22:0.89 23:0.4545 
-0.03071844153125222 1:6 2:3 3:28 4:23 5:0.7826 6:3 7:5 8:0.087 9:0.3043 10:0.4783 11:0.1304 12:4 13:0.3478 14:4 15:0.54 16:100 17:0.23 18:0.23 19:0.31 20:0.23 21:0.299 22:0.43 23:0.283 
-0.01855709111794814 1:6 2:3 3:24 4:22 5:0.5909 6:2 7:4 8:0.1818 9:0.3636 10:0.2273 11:0.2273 12:77 13:0.2273 14:3 15:0.5222 16:90 17:0.2222 18:0.2111 19:0.3111 20:0.2556 21:0.2644 22:1.12 23:0.3333 
-0.4436258652548299 1:1 2:2 3:5 4:23 5:0.5 6:6 7:2 8:0.25 9:0.2 10:0.3 11:0.25 12:61 13:0.2558 14:4 15:0.4074 16:54 17:0.2778 18:0.1481 19:0.2593 20:0.3148 21:0.2549 22:0.22 23:0.4 
-0.05859906166039358 1:6 2:3 3:19 4:23 5:0.6522 6:2 7:3 8:0.1304 9:0.087 10:0.5652 11:0.2174 12:13 13:0.1739 14:1 15:0.5122 16:82 17:0.2195 18:0.1951 19:0.3171 20:0.2683 21:0.2658 22:1.33 23:0.4286 
-0.02957852574640616 1:1 2:1 3:10 4:20 5:0.5 6:4 7:4 8:0.15 9:0.3 10:0.2 11:0.35 12:4 13:0.45 14:3 15:0.5077 16:65 17:0.2154 18:0.2615 19:0.2462 20:0.2769 21:0.322 22:1 23:0.0526 
-0.0367465526994287 1:1 2:1 3:10 4:20 5:0.6 6:4 7:4 8:0.2 9:0.25 10:0.35 11:0.2 12:49 13:0.45 14:2 15:0.5077 16:65 17:0.2154 18:0.2615 19:0.2462 20:0.2769 21:0.322 22:1 23:0.0526 
-0.2252008564278468 1:1 2:1 3:8 4:22 5:0.5 6:4 7:4 8:0.1818 9:0.3182 10:0.1818 11:0.3182 12:4 13:0.4091 14:2 15:0.5077 16:65 17:0.2154 18:0.2615 19:0.2462 20:0.2769 21:0.322 22:0.71 23:0.0667 
-0.01715537415649423 1:1 2:1 3:11 4:21 5:0.5238 6:4 7:5 8:0.0952 9:0.3333 10:0.1905 11:0.381 12:2 13:0.4762 14:4 15:0.5072 16:69 17:0.2029 18:0.2609 19:0.2464 20:0.2899 21:0.3333 22:2.67 23:0.0476 
-0.001653365584566358 1:1 2:1 3:10 4:23 5:0.4783 6:4 7:5 8:0.1304 9:0.3043 10:0.1739 11:0.3913 12:1 13:0.4783 14:3 15:0.493 16:71 17:0.1972 18:0.2535 19:0.2394 20:0.3099 21:0.3538 22:1 23:0.0526 
-0.2876224498379196 1:1 2:1 3:8 4:22 5:0.5909 6:4 7:4 8:0.1818 9:0.2273 10:0.3636 11:0.2273 12:47 13:0.4091 14:2 15:0.5077 16:65 17:0.2154 18:0.2615 19:0.2462 20:0.2769 21:0.322 22:1.4 23:0.0667 
-0.05709719023596112 1:1 2:2 3:12 4:20 5:0.5 6:4 7:5 8:0.1 9:0.3 10:0.2 11:0.4 12:2 13:0.45 14:4 15:0.5072 16:69 17:0.2029 18:0.2609 19:0.2464 20:0.2899 21:0.3333 22:1.33 23:0.1304 
-0.06412723451529383 1:3 2:3 3:22 4:20 5:0.55 6:4 7:4 8:0.35 9:0.4 10:0.15 11:0.1 12:68 13:0.3514 14:1 15:0.4302 16:86 17:0.2674 18:0.2209 19:0.2093 20:0.3023 21:0.2821 22:1.33 23:0.2195 
-0.03515764128041235 1:2 2:3 3:17 4:24 5:0.5833 6:4 7:5 8:0.25 9:0.4583 10:0.125 11:0.1667 12:63 13:0.3043 14:1 15:0.4353 16:85 17:0.2588 18:0.2235 19:0.2118 20:0.3059 21:0.2727 22:0.89 23:0.2258 
-0.03334529948105236 1:3 2:3 3:22 4:21 5:0.5714 6:4 7:4 8:0.3333 9:0.381 10:0.1905 11:0.0952 12:68 13:0.3684 14:1 15:0.4368 16:87 17:0.2644 18:0.2184 19:0.2184 20:0.2989 21:0.2911 22:2.67 23:0.2195 
-0.129937170742362 1:-1 2:0 3:0 4:21 5:0.3333 6:3 7:4 8:0.1429 9:0.2381 10:0.0952 11:0.5238 12:23 13:0.3846 14:-1 15:0.2927 16:41 17:0.2683 18:0.1707 19:0.122 20:0.439 21:0.2727 22:2.5 23:-1 
-0.01501028398423821 1:3 2:3 3:18 4:24 5:0.5833 6:4 7:4 8:0.2917 9:0.4583 10:0.125 11:0.125 12:64 13:0.2889 14:1 15:0.4302 16:86 17:0.2674 18:0.2209 19:0.2093 20:0.3023 21:0.2821 22:1.83 23:0.2727 
-0.07546840444456207 1:1 2:1 3:10 4:25 5:0.4583 6:3 7:5 8:0.2917 9:0.4167 10:0.0417 11:0.25 12:57 13:0.3191 14:4 15:0.3919 16:74 17:0.2838 18:0.2027 19:0.1892 20:0.3243 21:0.2424 22:1.17 23:0.0526 
-0.01641332557744971 1:2 2:3 3:21 4:21 5:0.5238 6:2 7:2 8:0.1905 9:0.2381 10:0.2857 11:0.2857 12:78 13:0.1707 14:3 15:0.573 16:89 17:0.1798 18:0.3034 19:0.2697 20:0.2472 21:0.1852 22:2.5 23:0.2 
-0.01795054360342926 1:2 2:2 3:17 4:21 5:0.5714 6:2 7:2 8:0.1429 9:0.2381 10:0.3333 11:0.2857 12:74 13:0.1429 14:4 15:0.5854 16:82 17:0.1829 18:0.3049 19:0.2805 20:0.2317 21:0.1622 22:0.73 23:0.1875 
-0.07238042091111983 1:2 2:1 3:9 4:24 5:0.6667 6:2 7:3 8:0.0833 9:0.3333 10:0.3333 11:0.25 12:18 13:0.2083 14:1 15:0.5556 16:72 17:0.1944 18:0.2917 19:0.2639 20:0.25 21:0.1875 22:0.8 23:0.125 
-0.05796081627810782 1:2 2:3 3:28 4:21 5:0.7143 6:2 7:3 8:0.0952 9:0.2857 10:0.4286 11:0.1905 12:85 13:0.2 14:3 15:0.6078 16:102 17:0.1569 18:0.3039 19:0.3039 20:0.2353 21:0.1702 22:0.5 23:0.1481 
-0.01570509775290089 1:2 2:2 3:16 4:21 5:0.5714 6:2 7:2 8:0.1905 9:0.2381 10:0.3333 11:0.2381 12:73 13:0.1429 14:1 15:0.6 16:80 17:0.175 18:0.3125 19:0.2875 20:0.225 21:0.1667 22:0.58 23:0.2 
-0.3703994947381832 1:2 2:1 3:9 4:23 5:0.4783 6:2 7:3 8:0.2609 9:0.2174 10:0.2609 11:0.2609 12:66 13:0.2174 14:3 15:0.5429 16:70 17:0.2 18:0.2857 19:0.2571 20:0.2571 21:0.1935 22:2 23:0.125 
-0.02447936038026086 1:2 2:3 3:19 4:25 5:0.5833 6:6 7:3 8:0.2083 9:0.4583 10:0.125 11:0.2083 12:6 13:0.4167 14:4 15:0.5652 16:92 17:0.2391 18:0.3261 19:0.2391 20:0.1957 21:0.3095 22:0 23:0.1667 
-0.02356588126971406 1:2 2:3 3:13 4:25 5:0.6667 6:3 7:2 8:0.2083 9:0.25 10:0.4167 11:0.125 12:68 13:0.1837 14:2 15:0.5679 16:81 17:0.2099 18:0.321 19:0.2469 20:0.2222 21:0.2055 22:1.1 23:0.25 
-0.1112593136001927 1:2 2:3 3:17 4:24 5:0.5652 6:3 7:3 8:0.3043 9:0.2174 10:0.3478 11:0.1304 12:72 13:0.3043 14:2 15:0.5581 16:86 17:0.2326 18:0.3256 19:0.2326 20:0.2093 21:0.2564 22:5 23:0.1875 
-0.02340268075575312 1:2 2:3 3:23 4:21 5:0.6 6:6 7:3 8:0.25 9:0.5 10:0.1 11:0.15 12:6 13:0.5 14:4 15:0.5652 16:92 17:0.2391 18:0.3261 19:0.2391 20:0.1957 21:0.3095 22:0 23:0.1364 
-0.007409861028463485 1:2 2:3 3:21 4:23 5:0.5909 6:6 7:3 8:0.2273 9:0.4545 10:0.1364 11:0.1818 12:6 13:0.4545 14:1 15:0.5652 16:92 17:0.2391 18:0.3261 19:0.2391 20:0.1957 21:0.3095 22:0 23:0.15 
-0.105944181217639 1:4 2:2 3:23 4:21 5:0.45 6:2 7:5 8:0.05 9:0.15 10:0.3 11:0.5 12:5 13:0.4 14:4 15:0.4545 16:99 17:0.1616 18:0.2121 19:0.2424 20:0.3838 21:0.3176 22:1 23:0.2444 
-0.1628788055294344 1:4 2:2 3:23 4:22 5:0.5238 6:2 7:5 8:0.0952 9:0.1905 10:0.3333 11:0.381 12:84 13:0.381 14:1 15:0.4455 16:101 17:0.1683 18:0.2079 19:0.2376 20:0.3861 21:0.3103 22:1 23:0.2444 
-0.07245627293031294 1:4 2:3 3:25 4:22 5:0.4286 6:2 7:4 8:0.1905 9:0.1429 10:0.2857 11:0.381 12:2 13:0.2857 14:4 15:0.4286 16:105 17:0.181 18:0.2 19:0.2286 20:0.3905 21:0.2967 22:1.29 23:0.3061 
-0.09941147587916975 1:4 2:3 3:26 4:21 5:0.45 6:2 7:4 8:0.2 9:0.15 10:0.3 11:0.35 12:2 13:0.3 14:1 15:0.4286 16:105 17:0.181 18:0.2 19:0.2286 20:0.3905 21:0.2967 22:1.8 23:0.2941 
-0.1539167281237667 1:4 2:3 3:27 4:25 5:0.4583 6:4 7:5 8:0.0833 9:0.25 10:0.2083 11:0.4583 12:88 13:0.3636 14:4 15:0.4324 16:111 17:0.1802 18:0.2072 19:0.2252 20:0.3874 21:0.3196 22:5 23:0.283 
-0.02403543501174001 1:2 2:2 3:11 4:24 5:0.3913 6:2 7:4 8:0.087 9:0.1304 10:0.2609 11:0.5217 12:14 13:0.3191 14:2 15:0.4268 16:82 17:0.1829 18:0.2195 19:0.2073 20:0.3902 21:0.3235 22:1.4 23:0.3333 
-0.06376113811886039 1:4 2:2 3:16 4:21 5:0.5 6:2 7:3 8:0.05 9:0.2 10:0.3 11:0.45 12:12 13:0.2683 14:1 15:0.4419 16:86 17:0.1744 18:0.2209 19:0.2209 20:0.3837 21:0.3056 22:0.7 23:0.3548 
-0.09002854871608262 1:4 2:2 3:20 4:21 5:0.45 6:2 7:4 8:0.1 9:0.2 10:0.25 11:0.45 12:8 13:0.3 14:1 15:0.4409 16:93 17:0.172 18:0.2151 19:0.2258 20:0.3871 21:0.2911 22:0.88 23:0.2821 
-0.09464284722573646 1:4 2:2 3:18 4:20 5:0.55 6:2 7:3 8:0.15 9:0.25 10:0.3 11:0.3 12:79 13:0.2821 14:1 15:0.4545 16:88 17:0.1705 18:0.2273 19:0.2273 20:0.375 21:0.2973 22:1.38 23:0.3143 
-0.1272360308528593 1:4 2:3 3:26 4:23 5:0.5455 6:2 7:5 8:0.0455 9:0.2727 10:0.2727 11:0.4091 12:87 13:0.3023 14:4 15:0.4444 16:108 17:0.1759 18:0.213 19:0.2315 20:0.3796 21:0.2979 22:0.71 23:0.2941 
-0.03034460311960158 1:2 2:3 3:14 4:20 5:0.55 6:2 7:4 8:0.15 9:0.25 10:0.3 11:0.3 12:14 13:0.2821 14:1 15:0.4103 16:78 17:0.2949 18:0.1667 19:0.2436 20:0.2949 21:0.2727 22:0.78 23:0.2593 
-0.05692431887911367 1:2 2:3 3:20 4:20 5:0.55 6:2 7:5 8:0.15 9:0.3 10:0.25 11:0.3 12:8 13:0.3158 14:2 15:0.4045 16:89 17:0.2921 18:0.1685 19:0.236 20:0.3034 21:0.2468 22:0.88 23:0.1795 
-0.02102397284203983 1:2 2:3 3:16 4:20 5:0.5 6:2 7:4 8:0.2 9:0.2 10:0.3 11:0.3 12:12 13:0.2821 14:1 15:0.4024 16:82 17:0.2927 18:0.1585 19:0.2439 20:0.3049 21:0.2571 22:0.67 23:0.2258 
-0.102864246314836 1:1 2:2 3:10 4:25 5:0.375 6:2 7:5 8:0.375 9:0.1667 10:0.2083 11:0.25 12:69 13:0.3061 14:4 15:0.4 16:80 17:0.3 18:0.1625 19:0.2375 20:0.3 21:0.2647 22:0.44 23:0.1579 
-0.02162924669345011 1:1 2:1 3:8 4:23 5:0.6087 6:2 7:5 8:0.1304 9:0.1739 10:0.4348 11:0.2609 12:17 13:0.3478 14:4 15:0.4247 16:73 17:0.2877 18:0.1644 19:0.2603 20:0.2877 21:0.2787 22:1 23:0.0667 
-0.06270852802614782 1:1 2:3 3:12 4:25 5:0.4167 6:2 7:5 8:0.4167 9:0.1667 10:0.25 11:0.1667 12:71 13:0.2653 14:2 15:0.3929 16:84 17:0.2976 18:0.1548 19:0.2381 20:0.3095 21:0.25 22:0.88 23:0.2174 
-0.07621548699058249 1:2 2:3 3:13 4:25 5:0.4167 6:2 7:4 8:0.4167 9:0.1667 10:0.25 11:0.1667 12:72 13:0.2245 14:4 15:0.407 16:86 17:0.2907 18:0.1628 19:0.2442 20:0.3023 21:0.2432 22:1 23:0.28 
-0.1208048294557296 1:2 2:3 3:16 4:27 5:0.375 6:4 7:5 8:0.4583 9:0.1667 10:0.2083 11:0.1667 12:75 13:0.3333 14:4 15:0.383 16:94 17:0.3298 18:0.1596 19:0.2234 20:0.2872 21:0.2927 22:1.8 23:0.2258 
-0.1072718837117625 1:2 2:2 3:20 4:21 5:0.7143 6:3 7:4 8:0.1429 9:0.1905 10:0.5238 11:0.1429 12:62 13:0.2432 14:2 15:0.4878 16:82 17:0.2195 18:0.2195 19:0.2683 20:0.2927 21:0.1733 22:4 23:0.15 
-0.09513286928966458 1:-1 2:0 3:0 4:23 5:0.4348 6:4 7:3 8:0.087 9:0.2609 10:0.1739 11:0.4783 12:29 13:0.3023 14:-1 15:0.4667 16:45 17:0.2 18:0.2444 19:0.2222 20:0.3333 21:0.1892 22:4.5 23:-1 
-0.08409133658090893 1:4 2:1 3:16 4:25 5:0.4167 6:1 7:4 8:0.2917 9:0.2917 10:0.125 11:0.2917 12:8 13:0.1064 14:1 15:0.4588 16:85 17:0.2118 18:0.2235 19:0.2353 20:0.3294 21:0.1429 22:0.78 23:0.2 
-0.07659798525243808 1:-1 2:0 3:0 4:22 5:0.4762 6:4 7:3 8:0.0476 9:0.2857 10:0.1905 11:0.4762 12:30 13:0.3171 14:4 15:0.4884 16:43 17:0.186 18:0.2558 19:0.2326 20:0.3256 21:0.2 22:4.5 23:-1 
-0.05488495891333242 1:4 2:1 3:12 4:24 5:0.4348 6:1 7:3 8:0.2174 9:0.3478 10:0.087 11:0.3478 12:13 13:0.087 14:3 15:0.4737 16:76 17:0.2105 18:0.2368 19:0.2368 20:0.3158 21:0.1471 22:0.78 23:0.2727 
-0.0240727338019552 1:4 2:1 3:15 4:23 5:0.4091 6:1 7:3 8:0.2727 9:0.3182 10:0.0909 11:0.3182 12:11 13:0.0909 14:1 15:0.4625 16:80 17:0.2125 18:0.225 19:0.2375 20:0.325 21:0.1389 22:1 23:0.2143 
-0.1540558516953014 1:4 2:2 3:24 4:23 5:0.3478 6:7 7:3 8:0.4348 9:0.2174 10:0.1304 11:0.2174 12:2 13:0.2632 14:3 15:0.4396 16:91 17:0.2418 18:0.2088 19:0.2308 20:0.3187 21:0.2048 22:0 23:0.1556 
-0.04761323748057089 1:4 2:1 3:16 4:22 5:0.4762 6:1 7:3 8:0.1905 9:0.0952 10:0.381 11:0.3333 12:70 13:0.0952 14:1 15:0.4625 16:80 17:0.2125 18:0.225 19:0.2375 20:0.325 21:0.1389 22:0.78 23:0.2 
-0.1581280243318963 1:4 2:1 3:10 4:25 5:0.4583 6:1 7:3 8:0.2917 9:0.0833 10:0.375 11:0.25 12:64 13:0.0833 14:2 15:0.4595 16:74 17:0.2162 18:0.2297 19:0.2297 20:0.3243 21:0.1515 22:1.25 23:0.3333 
-0.05263090286160505 1:-1 2:0 3:0 4:22 5:0.55 6:4 7:3 8:0.3 9:0.25 10:0.3 11:0.15 12:53 13:0.3171 14:4 15:0.4884 16:43 17:0.186 18:0.2558 19:0.2326 20:0.3256 21:0.2 22:0.29 23:-1 
-0.05968258214689299 1:1 2:3 3:11 4:24 5:0.3182 6:3 7:3 8:0.2727 9:0.0455 10:0.2727 11:0.4091 12:19 13:0.1364 14:1 15:0.3472 16:72 17:0.2639 18:0.1667 19:0.1806 20:0.3889 21:0.1429 22:1 23:0.2381 
-0.1211950441599505 1:2 2:4 3:25 4:22 5:0.5 6:6 7:3 8:0.15 9:0.3 10:0.2 11:0.35 12:82 13:0.3659 14:4 15:0.4 16:95 17:0.2526 18:0.2 19:0.2 20:0.3474 21:0.2326 22:5 23:0.1489 
-0.1473084432786313 1:3 2:4 3:33 4:20 5:0.55 6:7 7:3 8:0.3 9:0.3 10:0.25 11:0.15 12:1 13:0.4211 14:1 15:0.4112 16:107 17:0.2617 18:0.215 19:0.1963 20:0.3271 21:0.2449 22:1 23:0.1613 
-0.01137819658608665 1:-1 2:0 3:0 4:23 5:0.4583 6:4 7:4 8:0.1667 9:0.25 10:0.2083 11:0.375 12:37 13:0.2889 14:-1 15:0.5319 16:47 17:0.1064 18:0.2128 19:0.3191 20:0.3617 21:0.1351 22:0 23:-1 
-0.02750672389158875 1:1 2:2 3:12 4:20 5:0.65 6:2 7:4 8:0.05 9:0.2 10:0.45 11:0.3 12:1 13:0.2308 14:4 15:0.5694 16:72 17:0.125 18:0.2222 19:0.3472 20:0.3056 21:0.1935 22:0.6 23:0.1304 
-0.01123212842296473 1:3 2:2 3:9 4:22 5:0.5909 6:1 7:2 8:0.0909 9:0.3636 10:0.2273 11:0.3182 12:4 13:0.0698 14:4 15:0.4306 16:72 17:0.25 18:0.1944 19:0.2361 20:0.3194 21:0.1525 22:1 23:0.4444 
-0.08593749269379292 1:3 2:2 3:9 4:24 5:0.5833 6:1 7:3 8:0.125 9:0.3333 10:0.25 11:0.2917 12:2 13:0.087 14:4 15:0.44 16:75 17:0.2533 18:0.2 19:0.24 20:0.3067 21:0.1613 22:1 23:0.4444 
-0.07242636698370622 1:3 2:2 3:11 4:21 5:0.5 6:1 7:2 8:0.35 9:0.15 10:0.35 11:0.15 12:57 13:0.0732 14:4 15:0.4459 16:74 17:0.2432 18:0.2027 19:0.2432 20:0.3108 21:0.1475 22:0.58 23:0.3636 
-0.0366595693437068 1:3 2:2 3:11 4:20 5:0.6 6:1 7:2 8:0.05 9:0.35 10:0.25 11:0.35 12:4 13:0.0769 14:4 15:0.4306 16:72 17:0.25 18:0.1944 19:0.2361 20:0.3194 21:0.1525 22:1.29 23:0.3636 
-0.05556630449041677 1:3 2:2 3:12 4:20 5:0.65 6:1 7:2 8:0.05 9:0.35 10:0.3 11:0.3 12:3 13:0.0769 14:1 15:0.4459 16:74 17:0.2432 18:0.2027 19:0.2432 20:0.3108 21:0.1475 22:1.71 23:0.3333 
-0.09408065391995439 1:3 2:4 3:27 4:24 5:0.5 6:3 7:5 8:0.1667 9:0.25 10:0.25 11:0.3333 12:78 13:0.2558 14:4 15:0.45 16:100 17:0.29 18:0.24 19:0.21 20:0.26 21:0.2421 22:1 23:0.2593 
-0.05619534342059672 1:2 2:3 3:19 4:20 5:0.6 6:3 7:4 8:0.3 9:0.3 10:0.3 11:0.1 12:70 13:0.2973 14:2 15:0.4487 16:78 17:0.3077 18:0.2436 19:0.2051 20:0.2436 21:0.2329 22:1.17 23:0.2105 
-0.07225215040273535 1:2 2:3 3:22 4:24 5:0.5833 6:3 7:5 8:0.2083 9:0.2917 10:0.2917 11:0.2083 12:73 13:0.3488 14:2 15:0.4333 16:90 17:0.3111 18:0.2333 19:0.2 20:0.2556 21:0.2471 22:0.5 23:0.1818 
-0.03936656247069693 1:3 2:4 3:27 4:20 5:0.55 6:3 7:4 8:0.2 9:0.25 10:0.3 11:0.25 12:78 13:0.2571 14:3 15:0.4457 16:92 17:0.3043 18:0.2391 19:0.2065 20:0.25 21:0.2414 22:0.78 23:0.2593 
-0.1801060480312258 1:2 2:4 3:24 4:28 5:0.6522 6:3 7:6 8:0.2609 9:0.3913 10:0.2609 11:0.087 12:1 13:0.2941 14:1 15:0.4608 16:102 17:0.2843 18:0.2451 19:0.2157 20:0.2549 21:0.2577 22:0.62 23:0.25 
-0.008203475816905196 1:-1 2:0 3:0 4:21 5:0.25 6:2 7:3 8:0.3 9:0.2 10:0.05 11:0.45 12:28 13:0.2381 14:2 15:0.3023 16:43 17:0.3721 18:0.1395 19:0.1628 20:0.3256 21:0.1579 22:2.25 23:-1 
-0.09313307273327645 1:2 2:3 3:19 4:29 5:0.5417 6:3 7:5 8:0.25 9:0.375 10:0.1667 11:0.2083 12:5 13:0.283 14:3 15:0.4468 16:94 17:0.2979 18:0.234 19:0.2128 20:0.2553 21:0.236 22:1.29 23:0.2105 
-0.01685663597386465 1:3 2:5 3:30 4:22 5:0.5455 6:3 7:4 8:0.0909 9:0.2727 10:0.2727 11:0.3636 12:81 13:0.2821 14:4 15:0.4608 16:102 17:0.2843 18:0.2451 19:0.2157 20:0.2549 21:0.2577 22:1.6 23:0.2667 
-0.09599877957391552 1:3 2:4 3:25 4:24 5:0.5833 6:3 7:4 8:0.1667 9:0.25 10:0.3333 11:0.25 12:76 13:0.2093 14:1 15:0.4583 16:96 17:0.2917 18:0.2396 19:0.2188 20:0.25 21:0.2308 22:0.8 23:0.28 
-0.09751866108269849 1:2 2:4 3:23 4:20 5:0.35 6:3 7:3 8:0.35 9:0.15 10:0.2 11:0.3 12:1 13:0.3143 14:2 15:0.4659 16:88 17:0.2614 18:0.2386 19:0.2273 20:0.2727 21:0.2208 22:0.5 23:0.1818 
-0.03512631896608435 1:2 2:2 3:11 4:26 5:0.5833 6:3 7:4 8:0.125 9:0.25 10:0.3333 11:0.2917 12:62 13:0.2245 14:3 15:0.4937 16:79 17:0.2658 18:0.2532 19:0.2405 20:0.2405 21:0.2059 22:1.11 23:0.2381 
-0.04324532189665238 1:1 2:1 3:9 4:25 5:0.625 6:3 7:4 8:0.2083 9:0.375 10:0.25 11:0.1667 12:10 13:0.25 14:2 15:0.52 16:75 17:0.24 18:0.2667 19:0.2533 20:0.24 21:0.1875 22:2 23:0.1111 
-0.1744249519731287 1:1 2:1 3:8 4:20 5:0.4 6:3 7:3 8:0.25 9:0.2 10:0.2 11:0.35 12:12 13:0.2821 14:2 15:0.4348 16:69 17:0.2319 18:0.2319 19:0.2029 20:0.3333 21:0.2364 22:1 23:0.125 
-0.02562924288761529 1:2 2:2 3:12 4:21 5:0.25 6:2 7:3 8:0.35 9:0.1 10:0.15 11:0.4 12:66 13:0.1707 14:4 15:0.4051 16:79 17:0.2532 18:0.2152 19:0.1899 20:0.3418 21:0.2 22:0.88 23:0.25 
-0.07575932438924707 1:1 2:1 3:10 4:20 5:0.35 6:3 7:3 8:0.25 9:0.2 10:0.15 11:0.4 12:10 13:0.2821 14:2 15:0.4384 16:73 17:0.2329 18:0.2329 19:0.2055 20:0.3288 21:0.2203 22:3.5 23:0.1 
-0.07642266023210628 1:2 2:2 3:12 4:24 5:0.2609 6:2 7:3 8:0.3478 9:0.087 10:0.1739 11:0.3913 12:66 13:0.1489 14:4 15:0.4 16:85 17:0.2588 18:0.2118 19:0.1882 20:0.3412 21:0.1831 22:0.78 23:0.25 
-0.0791056310007357 1:3 2:2 3:13 4:20 5:0.3 6:2 7:2 8:0.35 9:0.2 10:0.1 11:0.35 12:7 13:0.1282 14:1 15:0.4051 16:79 17:0.2532 18:0.2152 19:0.1899 20:0.3418 21:0.2 22:0.89 23:0.3077 
-0.07201005513854924 1:3 2:2 3:14 4:23 5:0.3043 6:2 7:3 8:0.3913 9:0.2174 10:0.087 11:0.3043 12:3 13:0.1364 14:1 15:0.3953 16:86 17:0.2674 18:0.2093 19:0.186 20:0.3372 21:0.1944 22:0.7 23:0.2857 
-0.02018368816768213 1:3 2:2 3:15 4:21 5:0.2857 6:2 7:2 8:0.381 9:0.1905 10:0.0952 11:0.3333 12:4 13:0.122 14:3 15:0.4 16:85 17:0.2588 18:0.2118 19:0.1882 20:0.3412 21:0.1831 22:1 23:0.2667 
-0.1759589666197842 1:-1 2:0 3:6 4:24 5:0.4583 6:3 7:4 8:0.2083 9:0.25 10:0.2083 11:0.3333 12:10 13:0.2766 14:3 15:0.4384 16:73 17:0.2329 18:0.2329 19:0.2055 20:0.3288 21:0.2203 22:0.78 23:0 
-0.003439044665338152 1:3 2:2 3:13 4:21 5:0.2857 6:2 7:2 8:0.3333 9:0.1905 10:0.0952 11:0.381 12:6 13:0.122 14:1 15:0.3951 16:81 17:0.2593 18:0.2099 19:0.1852 20:0.3457 21:0.194 22:0.89 23:0.3077 
-0.1480577955012206 1:3 2:2 3:16 4:23 5:0.2609 6:3 7:3 8:0.4348 9:0.1739 10:0.087 11:0.3043 12:1 13:0.2093 14:4 15:0.3933 16:89 17:0.2809 18:0.2022 19:0.191 20:0.3258 21:0.2267 22:0.22 23:0.25 
-0.1115622355966887 1:2 2:2 3:17 4:27 5:0.5417 6:2 7:6 8:0.2083 9:0.2083 10:0.3333 11:0.25 12:82 13:0.2941 14:3 15:0.4947 16:95 17:0.2421 18:0.2421 19:0.2526 20:0.2632 21:0.253 22:1.14 23:0.1875 
-0.05856375409122178 1:2 2:3 3:22 4:24 5:0.5 6:4 7:5 8:0.4167 9:0.2917 10:0.2083 11:0.0833 12:9 13:0.3778 14:1 15:0.4949 16:99 17:0.2525 18:0.2424 19:0.2525 20:0.2525 21:0.2874 22:0 23:0.1905 
-0.004577013692580041 1:2 2:3 3:23 4:22 5:0.5455 6:3 7:5 8:0.3636 9:0.3182 10:0.2273 11:0.0909 12:10 13:0.3659 14:4 15:0.5052 16:97 17:0.2371 18:0.2474 19:0.2577 20:0.2577 21:0.2706 22:0.67 23:0.1818 
-0.08366832571770173 1:2 2:4 3:25 4:24 5:0.5417 6:4 7:5 8:0.375 9:0.25 10:0.2917 11:0.0833 12:6 13:0.3333 14:1 15:0.4952 16:105 17:0.2476 18:0.2381 19:0.2571 20:0.2571 21:0.2903 22:0.83 23:0.25 
-0.1281040827829263 1:2 2:2 3:19 4:25 5:0.5455 6:2 7:6 8:0.2273 9:0.2273 10:0.3182 11:0.2273 12:84 13:0.3191 14:3 15:0.4947 16:95 17:0.2421 18:0.2421 19:0.2526 20:0.2632 21:0.253 22:1 23:0.1667 
-0.12438087467148 1:2 2:2 3:13 4:26 5:0.5417 6:2 7:6 8:0.1667 9:0.2083 10:0.3333 11:0.2917 12:78 13:0.28 14:2 15:0.5233 16:86 17:0.2093 18:0.2558 19:0.2674 20:0.2674 21:0.2432 22:0.58 23:0.1667 
-0.1465091834819426 1:-1 2:0 3:7 4:24 5:0.4545 6:2 7:5 8:0.1818 9:0.2273 10:0.2273 11:0.3636 12:74 13:0.3478 14:3 15:0.4861 16:72 17:0.2222 18:0.2361 19:0.25 20:0.2917 21:0.2667 22:0.88 23:0 
-0.1056326056691085 1:2 2:4 3:26 4:25 5:0.5 6:4 7:5 8:0.1818 9:0.1818 10:0.3182 11:0.3182 12:91 13:0.3617 14:1 15:0.4862 16:109 17:0.2477 18:0.2294 19:0.2569 20:0.2661 21:0.299 22:1 23:0.24 
-0.1086741383963436 1:2 2:2 3:14 4:26 5:0.5833 6:2 7:5 8:0.1667 9:0.2083 10:0.375 11:0.25 12:79 13:0.24 14:4 15:0.5341 16:88 17:0.2045 18:0.2614 19:0.2727 20:0.2614 21:0.2368 22:0.75 23:0.2308 
-0.1612554997595924 1:2 2:1 3:11 4:20 5:0.45 6:2 7:4 8:0.2 9:0.2 10:0.25 11:0.35 12:76 13:0.35 14:3 15:0.4861 16:72 17:0.2222 18:0.2361 19:0.25 20:0.2917 21:0.2667 22:0.5 23:0.1 
-0.1349406053154944 1:2 2:5 3:27 4:26 5:0.5 6:4 7:6 8:0.2273 9:0.1818 10:0.3182 11:0.2727 12:92 13:0.375 14:4 15:0.4732 16:112 17:0.2679 18:0.2232 19:0.25 20:0.2589 21:0.32 22:4 23:0.2692 
-0.2089986183388711 1:2 2:5 3:30 4:23 5:0.4348 6:4 7:5 8:0.4348 9:0.2174 10:0.2174 11:0.1304 12:2 13:0.381 14:4 15:0.4732 16:112 17:0.2679 18:0.2232 19:0.25 20:0.2589 21:0.32 22:0.25 23:0.2759 
-0.02803713623544115 1:1 2:3 3:16 4:20 5:0.55 6:3 7:2 8:0.15 9:0.35 10:0.2 11:0.3 12:56 13:0.25 14:4 15:0.4865 16:74 17:0.2162 18:0.2162 19:0.2703 20:0.2973 21:0.2 22:1 23:0.1333 
-0.07907266012852794 1:1 2:3 3:16 4:20 5:0.65 6:3 7:2 8:0.1 9:0.2 10:0.45 11:0.25 12:2 13:0.25 14:4 15:0.4865 16:74 17:0.2162 18:0.2162 19:0.2703 20:0.2973 21:0.2 22:1 23:0.1333 
-0.07173503844997858 1:1 2:2 3:12 4:25 5:0.5417 6:3 7:4 8:0.125 9:0.2917 10:0.25 11:0.3333 12:53 13:0.2653 14:4 15:0.4868 16:76 17:0.2105 18:0.2105 19:0.2763 20:0.3026 21:0.2222 22:1.14 23:0.1304 
-0.1548246686129577 1:-1 2:0 3:0 4:24 5:0.375 6:2 7:5 8:0.25 9:0.2083 10:0.1667 11:0.375 12:39 13:0.2174 14:-1 15:0.3958 16:48 17:0.2917 18:0.1667 19:0.2292 20:0.3125 21:0.1818 22:1.5 23:-1 
-0.03049241724943622 1:-1 2:0 3:0 4:21 5:0.4 6:1 7:4 8:0.2 9:0.25 10:0.15 11:0.4 12:40 13:0.15 14:4 15:0.4048 16:42 17:0.2857 18:0.1667 19:0.2381 20:0.3095 21:0.1053 22:0.6 23:-1 
-0.04857671082885344 1:2 2:4 3:15 4:21 5:0.4 6:2 7:3 8:0.25 9:0.3 10:0.1 11:0.35 12:78 13:0.15 14:3 15:0.4699 16:83 17:0.2048 18:0.241 19:0.2289 20:0.3253 21:0.2059 22:0.88 23:0.3333 
-0.2255574151053634 1:2 2:4 3:16 4:31 5:0.3043 6:8 7:4 8:0.2609 9:0.2174 10:0.087 11:0.4348 12:79 13:0.283 14:4 15:0.4388 16:98 17:0.2449 18:0.2143 19:0.2245 20:0.3163 21:0.2771 22:1.17 23:0.3125 
-0.04887915696040167 1:2 2:4 3:17 4:22 5:0.3333 6:2 7:3 8:0.2381 9:0.2381 10:0.0952 11:0.4286 12:80 13:0.1429 14:1 15:0.4494 16:89 17:0.2135 18:0.2247 19:0.2247 20:0.3371 21:0.1892 22:0.78 23:0.2941 
-0.01523689572272346 1:2 2:4 3:18 4:22 5:0.4286 6:2 7:4 8:0.2857 9:0.0952 10:0.3333 11:0.2857 12:11 13:0.1707 14:4 15:0.4556 16:90 17:0.2111 18:0.2333 19:0.2222 20:0.3333 21:0.2 22:0.6 23:0.2778 
-0.1300410104199111 1:2 2:5 3:26 4:22 5:0.3636 6:9 7:3 8:0.3182 9:0.0455 10:0.3182 11:0.3182 12:3 13:0.4444 14:2 15:0.43 16:100 17:0.25 18:0.21 19:0.22 20:0.32 21:0.2941 22:0 23:0.2157 
-0.04685117075620575 1:2 2:3 3:12 4:23 5:0.4091 6:2 7:4 8:0.2727 9:0.2727 10:0.1364 11:0.3182 12:75 13:0.1818 14:3 15:0.4568 16:81 17:0.2099 18:0.2346 19:0.2222 20:0.3333 21:0.2121 22:1.29 23:0.3333 
-0.08413167014967655 1:2 2:4 3:16 4:25 5:0.4167 6:2 7:4 8:0.2917 9:0.0833 10:0.3333 11:0.2917 12:10 13:0.1739 14:2 15:0.4505 16:91 17:0.2198 18:0.2308 19:0.2198 20:0.3297 21:0.2105 22:0.44 23:0.3125 
-0.0747176536679626 1:1 2:2 3:9 4:24 5:0.3913 6:2 7:5 8:0.2609 9:0.2609 10:0.1304 11:0.3478 12:72 13:0.2609 14:4 15:0.4545 16:77 17:0.2078 18:0.2338 19:0.2208 20:0.3377 21:0.2258 22:1 23:0.2222 
-0.07050545063495957 1:-1 2:0 3:0 4:23 5:0.4783 6:6 7:4 8:0.2174 9:0.3043 10:0.1739 11:0.3043 12:58 13:0.4348 14:3 15:0.5102 16:49 17:0.1633 18:0.2857 19:0.2245 20:0.3265 21:0.2353 22:0 23:-1 
-0.1200407867142904 1:1 2:2 3:8 4:23 5:0.5455 6:2 7:4 8:0.2727 9:0.1818 10:0.3636 11:0.1818 12:20 13:0.2 14:4 15:0.473 16:74 17:0.2162 18:0.2432 19:0.2297 20:0.3108 21:0.1864 22:1.4 23:0.25 
-0.05803563351079249 1:4 2:3 3:19 4:24 5:0.4783 6:2 7:3 8:0.3478 9:0.3043 10:0.1739 11:0.1739 12:16 13:0.1304 14:4 15:0.369 16:84 17:0.3095 18:0.1786 19:0.1905 20:0.3214 21:0.2 22:1.11 23:0.2941 
-0.1620509222532647 1:4 2:3 3:28 4:21 5:0.4 6:5 7:4 8:0.35 9:0.35 10:0.05 11:0.25 12:10 13:0.3143 14:4 15:0.3407 16:91 17:0.3297 18:0.1648 19:0.1758 20:0.3297 21:0.2414 22:0 23:0.1923 
-0.75094327710558 1:-1 2:0 3:1 4:25 5:0.3478 6:4 7:3 8:0.3043 9:0.087 10:0.2609 11:0.3478 12:32 13:0.2174 14:4 15:0.3077 16:52 17:0.3077 18:0.1346 19:0.1731 20:0.3846 21:0.2083 22:1.5 23:0 
-0.03569364490574756 1:4 2:3 3:25 4:25 5:0.3333 6:6 7:4 8:0.4583 9:0.2917 10:0.0417 11:0.2083 12:9 13:0.2857 14:2 15:0.337 16:92 17:0.337 18:0.163 19:0.1739 20:0.3261 21:0.25 22:0 23:0.2174 
-0.02671842504186835 1:4 2:2 3:16 4:24 5:0.3913 6:2 7:3 8:0.2174 9:0.1304 10:0.2609 11:0.3913 12:74 13:0.1489 14:4 15:0.3544 16:79 17:0.3165 18:0.1646 19:0.1899 20:0.3291 21:0.2 22:0.89 23:0.2857 
-0.04422912117555833 1:4 2:3 3:24 4:24 5:0.3913 6:4 7:4 8:0.3913 9:0.3043 10:0.087 11:0.2174 12:11 13:0.2381 14:1 15:0.3444 16:90 17:0.3222 18:0.1667 19:0.1778 20:0.3333 21:0.2326 22:0 23:0.2273 
-0.6004026921282051 1:-1 2:0 3:2 4:25 5:0.2174 6:4 7:3 8:0.3043 9:0.1304 10:0.087 11:0.4783 12:62 13:0.2174 14:1 15:0.2963 16:54 17:0.3148 18:0.1296 19:0.1667 20:0.3889 21:0.2 22:0 23:0 
-0.1312883540834698 1:9 2:1 3:25 4:22 5:0.6364 6:1 7:2 8:0.1818 9:0.2273 10:0.4091 11:0.1818 12:6 13:0.0909 14:1 15:0.4176 16:91 17:0.2747 18:0.1648 19:0.2527 20:0.3077 21:0.1724 22:1.38 23:0.2558 
-0.1766295866398495 1:9 2:1 3:23 4:22 5:0.5 6:1 7:2 8:0.1818 9:0.2727 10:0.2273 11:0.3182 12:73 13:0.0909 14:2 15:0.3908 16:87 17:0.2874 18:0.1494 19:0.2414 20:0.3218 21:0.1807 22:1.14 23:0.2821 
-0.1717716006504212 1:9 2:1 3:22 4:21 5:0.5238 6:1 7:2 8:0.1905 9:0.1429 10:0.381 11:0.2857 12:10 13:0.0952 14:1 15:0.3855 16:83 17:0.2892 18:0.1446 19:0.241 20:0.3253 21:0.1899 22:0.88 23:0.2973 
-0.1250650311578843 1:9 2:1 3:22 4:23 5:0.5217 6:1 7:2 8:0.1739 9:0.1304 10:0.3913 11:0.3043 12:8 13:0.087 14:1 15:0.3908 16:87 17:0.2874 18:0.1494 19:0.2414 20:0.3218 21:0.1807 22:0.88 23:0.2973 
-0.1653742398352308 1:-1 2:0 3:0 4:28 5:0.2273 6:9 7:2 8:0.4091 9:0 10:0.2273 11:0.3636 12:55 13:0.2653 14:-1 15:0.2353 16:51 17:0.3922 18:0.0784 19:0.1569 20:0.3725 21:0.234 22:0.88 23:-1 
-0.2101710983198568 1:9 2:1 3:22 4:20 5:0.45 6:1 7:1 8:0.2 9:0.25 10:0.2 11:0.35 12:72 13:0.05 14:4 15:0.3704 16:81 17:0.2963 18:0.1481 19:0.2222 20:0.3333 21:0.1688 22:0.8 23:0.2973 
-0.1225875943409515 1:9 2:1 3:28 4:20 5:0.75 6:1 7:2 8:0.1 9:0.3 10:0.45 11:0.15 12:5 13:0.1 14:4 15:0.4301 16:93 17:0.2688 18:0.172 19:0.2581 20:0.3011 21:0.1685 22:1.2 23:0.2245 
-0.1339386204152696 1:9 2:1 3:28 4:22 5:0.6818 6:2 7:3 8:0.1364 9:0.2727 10:0.4091 11:0.1818 12:3 13:0.1818 14:4 15:0.4124 16:97 17:0.2887 18:0.1649 19:0.2474 20:0.299 21:0.2043 22:0.6 23:0.2245 
-0.2190552243831931 1:-1 2:0 3:1 4:21 5:0.2857 6:9 7:1 8:0.4286 9:0.1905 10:0.0952 11:0.2857 12:31 13:0.3143 14:4 15:0.2683 16:41 17:0.3902 18:0.0976 19:0.1707 20:0.3415 21:0.2973 22:1.8 23:0 
-0.2175136200140504 1:9 2:1 3:27 4:20 5:0.6 6:1 7:2 8:0.1 9:0.3 10:0.3 11:0.3 12:77 13:0.1 14:2 15:0.4176 16:91 17:0.2747 18:0.1648 19:0.2527 20:0.3077 21:0.1724 22:0.91 23:0.234 
-0.04796048458543628 1:9 2:1 3:26 4:23 5:0.6522 6:1 7:3 8:0.1739 9:0.2609 10:0.3913 11:0.1739 12:4 13:0.1304 14:4 15:0.4211 16:95 17:0.2842 18:0.1684 19:0.2526 20:0.2947 21:0.1868 22:1 23:0.2444 
-0.2328537360952316 1:-1 2:0 3:0 4:29 5:0.2273 6:9 7:1 8:0.3182 9:0 10:0.2273 11:0.4545 12:57 13:0.2157 14:2 15:0.2182 16:55 17:0.4 18:0.0727 19:0.1455 20:0.3818 21:0.2157 22:0.88 23:-1 
-0.03592025941739954 1:1 2:1 3:12 4:24 5:0.5 6:3 7:5 8:0.25 9:0.1667 10:0.3333 11:0.25 12:14 13:0.4468 14:4 15:0.4487 16:78 17:0.2436 18:0.1923 19:0.2564 20:0.3077 21:0.3143 22:1.25 23:0.0435 
-0.05596916442058365 1:2 2:2 3:18 4:26 5:0.5652 6:3 7:6 8:0.087 9:0.2174 10:0.3478 11:0.3478 12:75 13:0.4694 14:1 15:0.4457 16:92 17:0.2717 18:0.1957 19:0.25 20:0.2826 21:0.3333 22:1.2 23:0.1429 
-0.1175369533678321 1:2 2:3 3:21 4:27 5:0.5 6:3 7:6 8:0.125 9:0.2083 10:0.2917 11:0.375 12:78 13:0.4118 14:1 15:0.43 16:100 17:0.29 18:0.19 19:0.24 20:0.28 21:0.3261 22:1.14 23:0.2195 
-0.7831809092714415 1:1 2:1 3:9 4:20 5:0.5 6:2 7:3 8:0.15 9:0.3 10:0.2 11:0.35 12:66 13:0.3 14:4 15:0.4462 16:65 17:0.2769 18:0.2154 19:0.2308 20:0.2769 21:0.2281 22:0.88 23:0.0588 
-0.004541910746494589 1:1 2:1 3:6 4:25 5:0.5417 6:3 7:4 8:0.25 9:0.3333 10:0.2083 11:0.2083 12:46 13:0.2083 14:4 15:0.5072 16:69 17:0.1739 18:0.2609 19:0.2464 20:0.3188 21:0.1864 22:1.71 23:0.0909 
-0.04789500726502161 1:1 2:2 3:10 4:20 5:0.5 6:3 7:2 8:0.1 9:0.15 10:0.35 11:0.4 12:1 13:0.2 14:2 15:0.5147 16:68 17:0.1765 18:0.2647 19:0.25 20:0.3088 21:0.1724 22:1.12 23:0.1111 
-0.1294957212489139 1:1 2:1 3:6 4:24 5:0.5833 6:3 7:3 8:0.0833 9:0.2083 10:0.375 11:0.3333 12:1 13:0.1915 14:4 15:0.5147 16:68 17:0.1765 18:0.2647 19:0.25 20:0.3088 21:0.1724 22:1 23:0.0909 
-0.1697250377758444 1:1 2:1 3:8 4:21 5:0.5 6:3 7:3 8:0.3 9:0.3 10:0.2 11:0.2 12:48 13:0.2195 14:4 15:0.5 16:66 17:0.1818 18:0.2576 19:0.2424 20:0.3182 21:0.1786 22:1.33 23:0.0667 
-0.5826167408001263 1:1 2:1 3:7 4:22 5:0.5238 6:3 7:3 8:0.2857 9:0.3333 10:0.1905 11:0.1905 12:47 13:0.2093 14:4 15:0.5 16:66 17:0.1818 18:0.2576 19:0.2424 20:0.3182 21:0.1786 22:1.83 23:0.0769 
-0.0291639680974107 1:1 2:1 3:6 4:23 5:0.5652 6:3 7:3 8:0.087 9:0.2174 10:0.3478 11:0.3478 12:2 13:0.2 14:4 15:0.5 16:66 17:0.1818 18:0.2576 19:0.2424 20:0.3182 21:0.1786 22:0.67 23:0.0909 
-0.1135343495431263 1:2 2:3 3:16 4:20 5:0.6 6:2 7:3 8:0.2 9:0.35 10:0.25 11:0.2 12:10 13:0.25 14:3 15:0.5833 16:72 17:0.1806 18:0.2917 19:0.2917 20:0.2361 21:0.194 22:1.75 23:0.1724 
-0.08908344521651967 1:-1 2:0 3:0 4:25 5:0.5455 6:2 7:4 8:0.1364 9:0.1364 10:0.4091 11:0.3182 12:48 13:0.234 14:3 15:0.5625 16:48 17:0.2292 18:0.2708 19:0.2917 20:0.2083 21:0.1628 22:0.5 23:-1 
-0.05034759042186908 1:2 2:4 3:23 4:20 5:0.55 6:2 7:3 8:0.25 9:0.3 10:0.25 11:0.2 12:3 13:0.1795 14:3 15:0.5294 16:85 17:0.2118 18:0.2706 19:0.2588 20:0.2588 21:0.175 22:0.55 23:0.2093 
-0.03408213698634412 1:2 2:4 3:21 4:21 5:0.45 6:2 7:3 8:0.1 9:0.25 10:0.2 11:0.45 12:67 13:0.1707 14:4 15:0.5422 16:83 17:0.2048 18:0.2771 19:0.2651 20:0.253 21:0.1795 22:1.38 23:0.2308 
-0.01613478902733928 1:2 2:4 3:18 4:24 5:0.5833 6:2 7:4 8:0.2917 9:0.3333 10:0.25 11:0.125 12:4 13:0.1915 14:1 15:0.5422 16:83 17:0.2048 18:0.2771 19:0.2651 20:0.253 21:0.1795 22:0.86 23:0.2121 
-0.03323543755634625 1:2 2:3 3:18 4:24 5:0.4167 6:3 7:3 8:0.2083 9:0.2083 10:0.2083 11:0.375 12:65 13:0.1915 14:1 15:0.5 16:86 17:0.1977 18:0.2326 19:0.2674 20:0.3023 21:0.1951 22:3 23:0.2 
-0.05256577012448576 1:1 2:3 3:14 4:25 5:0.4583 6:1 7:3 8:0.2083 9:0.2083 10:0.25 11:0.3333 12:6 13:0.102 14:3 15:0.5125 16:80 17:0.175 18:0.225 19:0.2875 20:0.3125 21:0.1316 22:1.43 23:0.1852 
-0.006626776867961362 1:2 2:3 3:17 4:22 5:0.4091 6:1 7:2 8:0.2273 9:0.1818 10:0.2273 11:0.3636 12:64 13:0.0698 14:1 15:0.5125 16:80 17:0.175 18:0.225 19:0.2875 20:0.3125 21:0.1316 22:0.9 23:0.2121 
-0.06845438604349048 1:2 2:3 3:20 4:21 5:0.3333 6:6 7:2 8:0.2857 9:0.1429 10:0.1905 11:0.381 12:1 13:0.3333 14:4 15:0.4146 16:82 17:0.2683 18:0.1951 19:0.2195 20:0.3171 21:0.2329 22:0 23:0.1795 
-0.007808059590625771 1:2 2:3 3:19 4:22 5:0.3182 6:6 7:2 8:0.3182 9:0.1364 10:0.1818 11:0.3636 12:1 13:0.3158 14:2 15:0.4146 16:82 17:0.2683 18:0.1951 19:0.2195 20:0.3171 21:0.2329 22:0 23:0.1892 
-0.02858410820294866 1:-1 2:0 3:0 4:22 5:0.4545 6:4 7:3 8:0.3636 9:0.3636 10:0.0909 11:0.1818 12:45 13:0.3023 14:-1 15:0.4545 16:44 17:0.25 18:0.2273 19:0.2273 20:0.2955 21:0.1429 22:0 23:-1 
-0.004918267858336972 1:2 2:3 3:16 4:22 5:0.3636 6:1 7:2 8:0.2727 9:0.2273 10:0.1364 11:0.3636 12:61 13:0.0909 14:4 15:0.3797 16:79 17:0.2658 18:0.1646 19:0.2152 20:0.3544 21:0.1389 22:0.6 23:0.2667 
-0.02259029537287072 1:2 2:4 3:20 4:21 5:0.35 6:2 7:2 8:0.25 9:0.1 10:0.25 11:0.4 12:2 13:0.122 14:1 15:0.369 16:84 17:0.2738 18:0.1667 19:0.2024 20:0.3571 21:0.1688 22:0.6 23:0.2632 
-0.06136259524839389 1:2 2:3 3:16 4:20 5:0.4 6:1 7:2 8:0.2 9:0.25 10:0.15 11:0.4 12:61 13:0.1 14:4 15:0.4 16:75 17:0.2533 18:0.1733 19:0.2267 20:0.3467 21:0.1471 22:0.6 23:0.2667 
-0.1089220458366198 1:2 2:4 3:25 4:23 5:0.5238 6:2 7:5 8:0.2381 9:0.1429 10:0.381 11:0.2381 12:4 13:0.3023 14:2 15:0.449 16:98 17:0.2041 18:0.1939 19:0.2551 20:0.3469 21:0.2584 22:5 23:0.25 
-0.008285701039482177 1:2 2:4 3:25 4:22 5:0.5 6:2 7:5 8:0.25 9:0.15 10:0.35 11:0.25 12:5 13:0.3171 14:2 15:0.4375 16:96 17:0.2083 18:0.1875 19:0.25 20:0.3542 21:0.2644 22:4.5 23:0.25 
-0.06886828079435174 1:2 2:6 3:28 4:21 5:0.55 6:2 7:4 8:0.05 9:0.3 10:0.25 11:0.4 12:83 13:0.2308 14:3 15:0.44 16:100 17:0.21 18:0.19 19:0.25 20:0.35 21:0.2527 22:0.43 23:0.2963 
-0.01777929251512345 1:2 2:4 3:23 4:21 5:0.5 6:2 7:4 8:0.05 9:0.3 10:0.2 11:0.45 12:78 13:0.2683 14:4 15:0.4348 16:92 17:0.2174 18:0.1848 19:0.25 20:0.3478 21:0.253 22:0.78 23:0.2727 
-0.07855758987393476 1:2 2:6 3:28 4:22 5:0.55 6:2 7:4 8:0.2 9:0.15 10:0.4 11:0.25 12:2 13:0.2195 14:4 15:0.4412 16:102 17:0.2059 18:0.1863 19:0.2549 20:0.3529 21:0.2473 22:3 23:0.2963 
-0.1222052836752118 1:2 2:3 3:19 4:28 5:0.5 6:4 7:5 8:0.2917 9:0.375 10:0.125 11:0.2083 12:80 13:0.2692 14:4 15:0.4059 16:101 17:0.2574 18:0.2178 19:0.1881 20:0.3366 21:0.236 22:1.57 23:0.1892 
-0.0671233309653118 1:1 2:1 3:10 4:24 5:0.5238 6:4 7:4 8:0.2381 9:0.381 10:0.1429 11:0.2381 12:71 13:0.3333 14:1 15:0.4342 16:76 17:0.2237 18:0.2237 19:0.2105 20:0.3421 21:0.25 22:0.71 23:0.0526 
-0.04888474707334051 1:1 2:1 3:8 4:25 5:0.5455 6:4 7:4 8:0.2273 9:0.3636 10:0.1818 11:0.2273 12:69 13:0.3191 14:4 15:0.4459 16:74 17:0.2162 18:0.2297 19:0.2162 20:0.3378 21:0.2581 22:1 23:0.0667 
-0.02519461852418658 1:1 2:1 3:10 4:21 5:0.4762 6:3 7:4 8:0.0476 9:0.1429 10:0.3333 11:0.4762 12:19 13:0.3333 14:3 15:0.4286 16:70 17:0.2143 18:0.2143 19:0.2143 20:0.3571 21:0.2414 22:0.4 23:0.0526 
-0.05731616704790174 1:2 2:3 3:23 4:25 5:0.4286 6:4 7:5 8:0.381 9:0.3333 10:0.0952 11:0.1905 12:84 13:0.3478 14:4 15:0.3981 16:103 17:0.2621 18:0.2136 19:0.1845 20:0.3398 21:0.2527 22:1 23:0.1556 
-0.02801192969568064 1:2 2:2 3:14 4:20 5:0.45 6:4 7:3 8:0.1 9:0.1 10:0.35 11:0.45 12:16 13:0.2973 14:2 15:0.4342 16:76 17:0.2237 18:0.2237 19:0.2105 20:0.3421 21:0.25 22:0.71 23:0.1852 
-0.06403352919715526 1:-1 2:0 3:0 4:23 5:0.3478 6:5 7:4 8:0.3913 9:0.2609 10:0.087 11:0.2609 12:56 13:0.3778 14:-1 15:0.3617 16:47 17:0.2766 18:0.2128 19:0.1489 20:0.3617 21:0.2 22:0 23:-1 
-0.1156332023708773 1:-1 2:0 3:0 4:21 5:0.35 6:4 7:4 8:0.4 9:0.25 10:0.1 11:0.25 12:58 13:0.3659 14:3 15:0.3333 16:45 17:0.2889 18:0.2 19:0.1333 20:0.3778 21:0.2121 22:0 23:-1 
-0.002800754951760268 1:2 2:4 3:25 4:24 5:0.3333 6:4 7:4 8:0.2083 9:0.0833 10:0.25 11:0.4583 12:1 13:0.3182 14:3 15:0.4095 16:105 17:0.2571 18:0.219 19:0.1905 20:0.3333 21:0.2688 22:0.43 23:0.2245 
-0.02197502899936995 1:3 2:4 3:22 4:20 5:0.25 6:2 7:2 8:0.4 9:0.05 10:0.2 11:0.35 12:5 13:0.15 14:4 15:0.4023 16:87 17:0.2874 18:0.1839 19:0.2184 20:0.3103 21:0.175 22:0.4 23:0.2381 
-0.009588555254295991 1:1 2:3 3:16 4:20 5:0.45 6:3 7:2 8:0.15 9:0.2 10:0.25 11:0.4 12:66 13:0.1795 14:4 15:0.4267 16:75 17:0.28 18:0.2 19:0.2267 20:0.2933 21:0.1471 22:0.3 23:0.1613 
-0.1432728241124844 1:1 2:3 3:12 4:21 5:0.4 6:3 7:2 8:0.35 9:0.15 10:0.25 11:0.25 12:14 13:0.1707 14:1 15:0.3913 16:69 17:0.3043 18:0.1884 19:0.2029 20:0.3043 21:0.1613 22:0.6 23:0.2174 
-0.04720108868086452 1:1 2:3 3:13 4:24 5:0.3913 6:3 7:2 8:0.3043 9:0.1739 10:0.2174 11:0.3043 12:10 13:0.1489 14:4 15:0.4156 16:77 17:0.2857 18:0.1948 19:0.2208 20:0.2987 21:0.1429 22:1.25 23:0.2 
-0.3668325916882577 1:1 2:3 3:13 4:21 5:0.4286 6:3 7:2 8:0.1905 9:0.1905 10:0.2381 11:0.381 12:63 13:0.1707 14:4 15:0.4085 16:71 17:0.2958 18:0.1972 19:0.2113 20:0.2958 21:0.1562 22:1.14 23:0.2 
-0.4387711727905841 1:1 2:2 3:10 4:23 5:0.3636 6:3 7:3 8:0.2273 9:0.1364 10:0.2273 11:0.4091 12:61 13:0.1818 14:3 15:0.3913 16:69 17:0.3043 18:0.1884 19:0.2029 20:0.3043 21:0.1613 22:1.67 23:0.2 
-0.06645616461934073 1:3 2:4 3:19 4:24 5:0.5 6:2 7:2 8:0.1667 9:0.2083 10:0.2917 11:0.3333 12:69 13:0.125 14:2 15:0.4157 16:89 17:0.2809 18:0.191 19:0.2247 20:0.3034 21:0.1707 22:1.57 23:0.2778 
-0.1061554594711012 1:3 2:2 3:18 4:20 5:0.5 6:4 7:3 8:0.1 9:0.35 10:0.15 11:0.4 12:6 13:0.3846 14:2 15:0.4342 16:76 17:0.1711 18:0.2105 19:0.2237 20:0.3947 21:0.2778 22:3 23:0.1515 
-0.103329498639671 1:-1 2:0 3:0 4:21 5:0.4545 6:3 7:4 8:0.2727 9:0.2273 10:0.2273 11:0.2727 12:43 13:0.2821 14:-1 15:0.4146 16:41 17:0.1707 18:0.1951 19:0.2195 20:0.4146 21:0.2432 22:1.17 23:-1 
-0.08920100566659572 1:3 2:2 3:17 4:21 5:0.4 6:4 7:3 8:0.2 9:0.1 10:0.3 11:0.4 12:62 13:0.3659 14:1 15:0.4342 16:76 17:0.1711 18:0.2105 19:0.2237 20:0.3947 21:0.2778 22:0.75 23:0.1613 
-0.1417775815767097 1:3 2:3 3:19 4:24 5:0.5417 6:3 7:4 8:0.125 9:0.2917 10:0.25 11:0.3333 12:1 13:0.3043 14:2 15:0.4588 16:85 17:0.1647 18:0.2235 19:0.2353 20:0.3765 21:0.2593 22:4.5 23:0.2 
-0.07703632439883269 1:4 2:3 3:22 4:20 5:0.55 6:3 7:2 8:0.15 9:0.25 10:0.3 11:0.3 12:2 13:0.1795 14:4 15:0.4643 16:84 17:0.1667 18:0.2262 19:0.2381 20:0.369 21:0.25 22:1.1 23:0.3171 
-0.09345999470965911 1:-1 2:0 3:0 4:23 5:0.4286 6:4 7:4 8:0.0476 9:0.2381 10:0.1905 11:0.5238 12:22 13:0.3488 14:-1 15:0.4222 16:45 17:0.1778 18:0.2222 19:0.2 20:0.4 21:0.3171 22:0 23:-1 
-0.06494040286033198 1:3 2:2 3:18 4:24 5:0.4348 6:4 7:3 8:0.1739 9:0.1739 10:0.2609 11:0.3913 12:63 13:0.3191 14:4 15:0.4643 16:84 17:0.1667 18:0.2262 19:0.2381 20:0.369 21:0.25 22:0 23:0.1515 
-0.01537562503627352 1:-1 2:0 3:0 4:21 5:0.55 6:3 7:2 8:0.2 9:0.35 10:0.2 11:0.25 12:36 13:0.1707 14:4 15:0.5349 16:43 17:0.1628 18:0.2558 19:0.2791 20:0.3023 21:0.0286 22:0.3 23:-1 
-0.01102011248467038 1:-1 2:0 3:0 4:22 5:0.5455 6:3 7:2 8:0.1364 9:0.1818 10:0.3636 11:0.3182 12:12 13:0.1628 14:4 15:0.5333 16:45 17:0.1556 18:0.2444 19:0.2889 20:0.3111 21:0.027 22:3 23:-1 
-0.1102630602742568 1:-1 2:0 3:0 4:20 5:0.55 6:3 7:2 8:0.15 9:0.15 10:0.4 11:0.3 12:14 13:0.1795 14:4 15:0.5122 16:41 17:0.1707 18:0.2439 19:0.2683 20:0.3171 21:0.0303 22:3 23:-1 
-0.1199177124041923 1:-1 2:0 3:0 4:20 5:0.5 6:3 7:2 8:0.2 9:0.35 10:0.15 11:0.3 12:35 13:0.1795 14:-1 15:0.5122 16:41 17:0.1707 18:0.2439 19:0.2683 20:0.3171 21:0.0303 22:0.33 23:-1 
-0.1524591482073824 1:-1 2:0 3:0 4:21 5:0.5238 6:2 7:2 8:0.1429 9:0.1905 10:0.3333 11:0.3333 12:12 13:0.122 14:4 15:0.5333 16:45 17:0.1556 18:0.2444 19:0.2889 20:0.3111 21:0.027 22:1.5 23:-1 
-0.04568092948251953 1:-1 2:0 3:0 4:22 5:0.5455 6:3 7:2 8:0.1818 9:0.3182 10:0.2273 11:0.2727 12:35 13:0.1628 14:-1 15:0.5333 16:45 17:0.1556 18:0.2444 19:0.2889 20:0.3111 21:0.027 22:0.33 23:-1 
-0.0602742997978479 1:2 2:3 3:14 4:21 5:0.4 6:1 7:3 8:0.25 9:0.2 10:0.2 11:0.35 12:67 13:0.1 14:4 15:0.4247 16:73 17:0.2466 18:0.1644 19:0.2603 20:0.3288 21:0.125 22:1.25 23:0.2308 
-0.115817087070352 1:-1 2:0 3:0 4:21 5:0.35 6:4 7:3 8:0.3 9:0.25 10:0.1 11:0.35 12:51 13:0.3 14:-1 15:0.4634 16:41 17:0.2195 18:0.1463 19:0.3171 20:0.3171 21:0.125 22:0 23:-1 
-0.1364281946004705 1:2 2:5 3:27 4:21 5:0.4 6:2 7:4 8:0.3 9:0.2 10:0.2 11:0.3 12:1 13:0.1579 14:4 15:0.4375 16:96 17:0.25 18:0.1771 19:0.2604 20:0.3125 21:0.1494 22:0.64 23:0.1765 
-0.1495448787426107 1:2 2:3 3:20 4:28 5:0.5 6:2 7:6 8:0.1667 9:0.2083 10:0.2917 11:0.3333 12:73 13:0.1765 14:4 15:0.4375 16:96 17:0.25 18:0.1771 19:0.2604 20:0.3125 21:0.1494 22:0.78 23:0.1579 
-0.06295492156478871 1:2 2:4 3:22 4:24 5:0.3913 6:2 7:5 8:0.3043 9:0.2174 10:0.1739 11:0.3043 12:3 13:0.1628 14:4 15:0.4348 16:92 17:0.25 18:0.1739 19:0.2609 20:0.3152 21:0.1566 22:0.7 23:0.1905 
-0.1250978826900685 1:2 2:3 3:17 4:27 5:0.5 6:2 7:5 8:0.25 9:0.1667 10:0.3333 11:0.25 12:70 13:0.16 14:1 15:0.4494 16:89 17:0.2472 18:0.1798 19:0.2697 20:0.3034 21:0.15 22:1.12 23:0.1875 
-0.1451309331142967 1:-1 2:0 3:0 4:25 5:0.3478 6:3 7:4 8:0.2609 9:0.2609 10:0.087 11:0.3913 12:53 13:0.25 14:4 15:0.4314 16:51 17:0.2353 18:0.1569 19:0.2745 20:0.3333 21:0.1429 22:0.29 23:-1 
-0.01480589282948735 1:2 2:3 3:19 4:23 5:0.4091 6:2 7:5 8:0.3182 9:0.2727 10:0.1364 11:0.2727 12:7 13:0.1905 14:1 15:0.4353 16:85 17:0.2588 18:0.1765 19:0.2588 20:0.3059 21:0.1579 22:0.86 23:0.1667 
-0.1383800554853579 1:1 2:2 3:9 4:25 5:0.5 6:2 7:4 8:0.1667 9:0.2083 10:0.2917 11:0.3333 12:16 13:0.2245 14:1 15:0.4744 16:78 17:0.2564 18:0.2564 19:0.2179 20:0.2692 21:0.2121 22:0.62 23:0.1765 
-0.02579071135561756 1:2 2:3 3:20 4:23 5:0.4762 6:2 7:5 8:0.2381 9:0.2381 10:0.2381 11:0.2857 12:80 13:0.2093 14:4 15:0.4574 16:94 17:0.2553 18:0.2447 19:0.2128 20:0.2872 21:0.1951 22:0.7 23:0.1795 
-0.005066205613017075 1:2 2:3 3:18 4:25 5:0.5 6:2 7:5 8:0.1667 9:0.25 10:0.25 11:0.3333 12:7 13:0.1915 14:4 15:0.4574 16:94 17:0.2553 18:0.2447 19:0.2128 20:0.2872 21:0.1951 22:0.7 23:0.2 
-0.05405122857314849 1:2 2:3 3:16 4:25 5:0.4583 6:2 7:5 8:0.25 9:0.25 10:0.2083 11:0.2917 12:9 13:0.1915 14:4 15:0.4556 16:90 17:0.2556 18:0.2444 19:0.2111 20:0.2889 21:0.2051 22:0.56 23:0.2258 
-0.09447688738394071 1:1 2:2 3:12 4:25 5:0.4583 6:2 7:4 8:0.25 9:0.2083 10:0.25 11:0.2917 12:13 13:0.2245 14:2 15:0.4524 16:84 17:0.2619 18:0.2381 19:0.2143 20:0.2857 21:0.1944 22:1.6 23:0.1304 
-0.02335202802053719 1:2 2:2 3:9 4:24 5:0.4583 6:1 7:4 8:0.2917 9:0.2083 10:0.25 11:0.25 12:53 13:0.1304 14:2 15:0.4648 16:71 17:0.2535 18:0.2254 19:0.2394 20:0.2817 21:0.1613 22:1.67 23:0.3333 
-0.11030335993863 1:2 2:2 3:9 4:26 5:0.5 6:1 7:4 8:0.2083 9:0.2083 10:0.2917 11:0.2917 12:4 13:0.12 14:2 15:0.48 16:75 17:0.24 18:0.2267 19:0.2533 20:0.28 21:0.1515 22:0.9 23:0.3333 
-0.06591951753858458 1:2 2:2 3:9 4:23 5:0.4762 6:1 7:4 8:0.2381 9:0.1905 10:0.2857 11:0.2857 12:7 13:0.1364 14:2 15:0.4638 16:69 17:0.2609 18:0.2319 19:0.2319 20:0.2754 21:0.1667 22:0.7 23:0.3333 
-0.04671875503692045 1:2 2:4 3:28 4:20 5:0.5 6:4 7:3 8:0.15 9:0.3 10:0.2 11:0.35 12:82 13:0.4054 14:4 15:0.4545 16:99 17:0.2424 18:0.202 19:0.2525 20:0.303 21:0.2444 22:0.6 23:0.1636 
-0.09900819494264762 1:2 2:4 3:25 4:20 5:0.45 6:3 7:3 8:0.15 9:0.3 10:0.15 11:0.4 12:79 13:0.3514 14:4 15:0.4409 16:93 17:0.2581 18:0.1935 19:0.2473 20:0.3011 21:0.2381 22:5 23:0.1837 
-0.05360184698181867 1:2 2:2 3:13 4:26 5:0.5 6:3 7:4 8:0.375 9:0.1667 10:0.3333 11:0.125 12:10 13:0.24 14:2 15:0.4337 16:83 17:0.253 18:0.1928 19:0.241 20:0.3133 21:0.2162 22:0.8 23:0.2308 
-0.0312774099364837 1:1 2:2 3:14 4:21 5:0.4762 6:5 7:2 8:0.1905 9:0.1905 10:0.2857 11:0.3333 12:52 13:0.2857 14:1 15:0.5139 16:72 17:0.1806 18:0.25 19:0.2639 20:0.3056 21:0.2059 22:0.64 23:0.0769 
-0.08831484810948001 1:1 2:2 3:12 4:24 5:0.4583 6:5 7:3 8:0.1667 9:0.2083 10:0.25 11:0.375 12:50 13:0.2766 14:1 15:0.5068 16:73 17:0.1781 18:0.2466 19:0.2603 20:0.3151 21:0.2174 22:1.25 23:0.0909 
-0.07120335753127749 1:1 2:2 3:13 4:22 5:0.5 6:5 7:2 8:0.2273 9:0.3636 10:0.1364 11:0.2727 12:1 13:0.2727 14:2 15:0.5139 16:72 17:0.1806 18:0.25 19:0.2639 20:0.3056 21:0.2059 22:1.57 23:0.0833 
-0.06814888844639613 1:-1 2:0 3:0 4:21 5:0.4762 6:1 7:4 8:0.1905 9:0.1905 10:0.2857 11:0.3333 12:16 13:0.15 14:4 15:0.5238 16:42 17:0.1429 18:0.1905 19:0.3333 20:0.3333 21:0.1053 22:1.17 23:-1 
-0.03313285751007752 1:-1 2:0 3:0 4:21 5:0.6 6:1 7:4 8:0.05 9:0.2 10:0.4 11:0.35 12:38 13:0.15 14:-1 15:0.5238 16:42 17:0.1429 18:0.1905 19:0.3333 20:0.3333 21:0.1053 22:0.86 23:-1 
-0.04919669928001342 1:1 2:2 3:15 4:21 5:0.4762 6:5 7:3 8:0.1905 9:0.1905 10:0.2857 11:0.3333 12:53 13:0.3171 14:1 15:0.5068 16:73 17:0.1781 18:0.2466 19:0.2603 20:0.3151 21:0.2174 22:1 23:0.0714 
-0.06210612789375974 1:1 2:3 3:19 4:22 5:0.8095 6:2 7:2 8:0.0476 9:0.381 10:0.4286 11:0.1429 12:15 13:0.0952 14:2 15:0.6897 16:87 17:0.1379 18:0.3103 19:0.3793 20:0.1724 21:0.1026 22:1.71 23:0.1579 
-0.1244846698525536 1:1 2:3 3:21 4:25 5:0.8333 6:2 7:3 8:0 9:0.3333 10:0.5 11:0.1667 12:10 13:0.1667 14:4 15:0.7113 16:97 17:0.1237 18:0.299 19:0.4124 20:0.1649 21:0.1364 22:0.71 23:0.1429 
-0.07970309075967985 1:1 2:3 3:15 4:24 5:0.7391 6:2 7:2 8:0.087 9:0.3478 10:0.3913 11:0.1739 12:17 13:0.087 14:4 15:0.6747 16:83 17:0.1446 18:0.3012 19:0.3735 20:0.1807 21:0.1081 22:1.2 23:0.2 
-0.03324859852153433 1:1 2:3 3:16 4:22 5:0.8095 6:2 7:2 8:0.0952 9:0.381 10:0.4286 11:0.0952 12:78 13:0.0952 14:3 15:0.6667 16:81 17:0.1481 18:0.2963 19:0.3704 20:0.1852 21:0.1111 22:0.83 23:0.1875 
-0.05645353922245805 1:1 2:2 3:14 4:23 5:0.8182 6:2 7:3 8:0.0909 9:0.4091 10:0.4091 11:0.0909 12:76 13:0.1364 14:2 15:0.6582 16:79 17:0.1519 18:0.2911 19:0.3671 20:0.1899 21:0.1143 22:0.58 23:0.1429 
-0.3989221964990882 1:1 2:1 3:8 4:23 5:0.7391 6:2 7:3 8:0.1304 9:0.4348 10:0.3043 11:0.1304 12:70 13:0.1556 14:2 15:0.6029 16:68 17:0.1765 18:0.2647 19:0.3382 20:0.2206 21:0.1186 22:0.73 23:0.125 
-0.1991691428592169 1:2 2:4 3:31 4:23 5:0.8182 6:4 7:4 8:0.1364 9:0.3182 10:0.5 11:0.0455 12:93 13:0.3636 14:4 15:0.7054 16:112 17:0.1429 18:0.2768 19:0.4286 20:0.1518 21:0.2233 22:2 23:0.1475 
-0.1111861389981489 1:1 2:3 3:15 4:21 5:0.7 6:2 7:2 8:0.1 9:0.3 10:0.4 11:0.2 12:20 13:0.1 14:4 15:0.6494 16:77 17:0.1558 18:0.2857 19:0.3636 20:0.1948 21:0.1176 22:1.2 23:0.2 
-0.03735515981147825 1:1 2:2 3:14 4:23 5:0.6818 6:2 7:3 8:0.0909 9:0.3182 10:0.3636 11:0.2273 12:19 13:0.1364 14:4 15:0.6582 16:79 17:0.1519 18:0.2911 19:0.3671 20:0.1899 21:0.1143 22:1.71 23:0.1429 
-0.07227264415611412 1:1 2:3 3:18 4:22 5:0.8571 6:2 7:2 8:0.0952 9:0.4762 10:0.381 11:0.0476 12:80 13:0.0952 14:2 15:0.6824 16:85 17:0.1412 18:0.3059 19:0.3765 20:0.1765 21:0.1053 22:0.67 23:0.1667 
-0.5831527987240797 1:-1 2:0 3:0 4:27 5:0.5652 6:3 7:5 8:0.1739 9:0.2174 10:0.3478 11:0.2609 12:26 13:0.3333 14:2 15:0.5769 16:52 17:0.1538 18:0.3269 19:0.25 20:0.2692 21:0.2766 22:1.4 23:-1 
-0.1138992092424002 1:3 2:5 3:22 4:20 5:0.65 6:3 7:3 8:0.15 9:0.2 10:0.45 11:0.2 12:74 13:0.35 14:1 15:0.5833 16:84 17:0.1548 18:0.3095 19:0.2738 20:0.2619 21:0.3165 22:3.5 23:0.3171 
-0.02621063736231644 1:3 2:5 3:28 4:20 5:0.7 6:3 7:3 8:0.15 9:0.2 10:0.5 11:0.15 12:80 13:0.3333 14:4 15:0.5895 16:95 17:0.1579 18:0.3053 19:0.2842 20:0.2526 21:0.2889 22:1.25 23:0.283 
-0.07342027673873594 1:3 2:5 3:25 4:20 5:0.5 6:3 7:2 8:0.15 9:0.4 10:0.1 11:0.35 12:7 13:0.3 14:4 15:0.5778 16:90 17:0.1556 18:0.3 19:0.2778 20:0.2667 21:0.2941 22:0.9 23:0.3191 
-0.01071555958435406 1:2 2:2 3:12 4:22 5:0.5 6:2 7:4 8:0.2273 9:0.3636 10:0.1364 11:0.2727 12:7 13:0.2558 14:1 15:0.4265 16:68 17:0.2647 18:0.2059 19:0.2206 20:0.3088 21:0.2063 22:0.75 23:0.1818 
-0.5260755783459989 1:2 2:2 3:9 4:25 5:0.5 6:2 7:4 8:0.2917 9:0.1667 10:0.3333 11:0.2083 12:51 13:0.2245 14:3 15:0.4265 16:68 17:0.2647 18:0.2059 19:0.2206 20:0.3088 21:0.2063 22:1.67 23:0.25 
-0.1176079043344566 1:2 2:2 3:14 4:20 5:0.45 6:2 7:4 8:0.25 9:0.3 10:0.15 11:0.3 12:7 13:0.2821 14:3 15:0.4265 16:68 17:0.2647 18:0.2059 19:0.2206 20:0.3088 21:0.2063 22:1 23:0.1538 
-0.2746095893448331 1:2 2:2 3:13 4:21 5:0.5 6:2 7:4 8:0.25 9:0.15 10:0.35 11:0.25 12:55 13:0.2683 14:3 15:0.4265 16:68 17:0.2647 18:0.2059 19:0.2206 20:0.3088 21:0.2063 22:1.5 23:0.1667 
-0.1523276245595642 1:4 2:2 3:15 4:21 5:0.35 6:5 7:2 8:0.3 9:0.15 10:0.2 11:0.35 12:75 13:0.2683 14:3 15:0.3378 16:74 17:0.2703 18:0.1757 19:0.1622 20:0.3919 21:0.2537 22:1.25 23:0.2857 
-0.1390084612320284 1:4 2:2 3:18 4:22 5:0.4 6:5 7:3 8:0.3 9:0.2 10:0.2 11:0.3 12:78 13:0.2857 14:4 15:0.3704 16:81 17:0.2593 18:0.1975 19:0.1728 20:0.3704 21:0.2432 22:0.9 23:0.2353 
-0.01794739783729365 1:4 2:4 3:29 4:24 5:0.4 6:5 7:4 8:0.25 9:0.3 10:0.1 11:0.35 12:88 13:0.3636 14:2 15:0.3654 16:104 17:0.2885 18:0.1923 19:0.1731 20:0.3462 21:0.299 22:0.8 23:0.2727 
-0.09327837763247523 1:4 2:3 3:21 4:22 5:0.381 6:5 7:2 8:0.3333 9:0.2381 10:0.1429 11:0.2857 12:80 13:0.2558 14:1 15:0.3678 16:87 17:0.2644 18:0.1954 19:0.1724 20:0.3678 21:0.225 22:0.8 23:0.2308 
-0.05869641735389396 1:4 2:3 3:25 4:27 5:0.3913 6:5 7:4 8:0.2174 9:0.2609 10:0.1304 11:0.3913 12:84 13:0.4 14:4 15:0.3627 16:102 17:0.2941 18:0.1863 19:0.1765 20:0.3431 21:0.2842 22:0.43 23:0.1915 
-0.1208917399265946 1:5 2:4 3:33 4:22 5:0.3636 6:7 7:3 8:0.4091 9:0.1818 10:0.1818 11:0.2273 12:2 13:0.4 14:4 15:0.3704 16:108 17:0.287 18:0.1944 19:0.1759 20:0.3426 21:0.3267 22:0 23:0.3016 
-0.06900268307992563 1:5 2:4 3:32 4:21 5:0.3333 6:5 7:3 8:0.4286 9:0.1429 10:0.1905 11:0.2381 12:4 13:0.3158 14:4 15:0.3654 16:104 17:0.2885 18:0.1923 19:0.1731 20:0.3462 21:0.299 22:0 23:0.3115 
-0.04645506016185924 1:4 2:3 3:21 4:24 5:0.2917 6:5 7:3 8:0.2083 9:0.1667 10:0.125 11:0.5 12:12 13:0.3191 14:1 15:0.3736 16:91 17:0.2637 18:0.1978 19:0.1758 20:0.3626 21:0.2619 22:0.62 23:0.2308 
-0.1457027948485908 1:4 2:3 3:26 4:28 5:0.4167 6:6 7:4 8:0.2083 9:0.2917 10:0.125 11:0.375 12:85 13:0.4615 14:1 15:0.3774 16:106 17:0.283 18:0.1981 19:0.1792 20:0.3396 21:0.3131 22:0 23:0.1837 
-0.07179178239053227 1:3 2:3 3:21 4:20 5:0.4 6:3 7:4 8:0.2 9:0.1 10:0.3 11:0.4 12:66 13:0.2632 14:3 15:0.425 16:80 17:0.2625 18:0.2125 19:0.2125 20:0.3125 21:0.2105 22:0.89 23:0.1579 
-0.08552842822074842 1:3 2:3 3:21 4:24 5:0.4167 6:3 7:4 8:0.1667 9:0.1667 10:0.25 11:0.4167 12:66 13:0.2174 14:2 15:0.4318 16:88 17:0.2614 18:0.2159 19:0.2159 20:0.3068 21:0.1905 22:0.8 23:0.1579 
-0.0891540992855515 1:-1 2:0 3:0 4:25 5:0.5217 6:3 7:4 8:0.3043 9:0.2609 10:0.2609 11:0.1739 12:21 13:0.2174 14:-1 15:0.4792 16:48 17:0.2083 18:0.25 19:0.2292 20:0.3125 21:0.1818 22:1.5 23:-1 
-0.1627694112750244 1:-1 2:0 3:1 4:24 5:0.5238 6:3 7:3 8:0.2381 9:0.2381 10:0.2857 11:0.2381 12:20 13:0.1818 14:4 15:0.46 16:50 17:0.22 18:0.24 19:0.22 20:0.32 21:0.1739 22:1 23:0 
-0.2286888944494809 1:-1 2:0 3:4 4:21 5:0.45 6:3 7:3 8:0.15 9:0.25 10:0.2 11:0.4 12:50 13:0.2105 14:4 15:0.46 16:50 17:0.22 18:0.24 19:0.22 20:0.32 21:0.1739 22:0.25 23:0 
-0.05182185142264466 1:3 2:3 3:23 4:21 5:0.381 6:3 7:3 8:0.1905 9:0.0952 10:0.2857 11:0.4286 12:68 13:0.2 14:3 15:0.4186 16:86 17:0.2674 18:0.2093 19:0.2093 20:0.314 21:0.1951 22:0.9 23:0.1905 
-0.03475004853900202 1:3 2:3 3:22 4:24 5:0.4545 6:3 7:4 8:0.4091 9:0.2727 10:0.1818 11:0.1364 12:1 13:0.2 14:4 15:0.4382 16:89 17:0.2584 18:0.2247 19:0.2135 20:0.3034 21:0.2 22:0.7 23:0.2 
-0.08618848185459682 1:2 2:4 3:20 4:20 5:0.4 6:4 7:2 8:0.4 9:0.15 10:0.25 11:0.2 12:15 13:0.2308 14:4 15:0.2874 16:87 17:0.3218 18:0.1034 19:0.1839 20:0.3908 21:0.2658 22:0.9 23:0.3 
-0.04168483903802959 1:2 2:4 3:21 4:21 5:0.3333 6:4 7:3 8:0.381 9:0.0952 10:0.2381 11:0.2857 12:13 13:0.3171 14:3 15:0.2857 16:91 17:0.3187 18:0.1099 19:0.1758 20:0.3956 21:0.3012 22:0.57 23:0.2857 
-0.02718652518681407 1:2 2:4 3:18 4:23 5:0.3636 6:4 7:4 8:0.1364 9:0.1818 10:0.1818 11:0.5 12:81 13:0.2889 14:4 15:0.2921 16:89 17:0.3146 18:0.1124 19:0.1798 20:0.3933 21:0.284 22:1 23:0.2778 
-0.09370176505568467 1:2 2:3 3:11 4:21 5:0.3333 6:4 7:3 8:0.381 9:0.0952 10:0.2381 11:0.2857 12:23 13:0.3171 14:4 15:0.2394 16:71 17:0.3521 18:0.0845 19:0.1549 20:0.4085 21:0.3333 22:0.22 23:0.3636 
-0.08894009233384759 1:2 2:4 3:24 4:21 5:0.381 6:4 7:3 8:0.3333 9:0.0476 10:0.3333 11:0.2857 12:10 13:0.3659 14:3 15:0.3093 16:97 17:0.3196 18:0.1237 19:0.1856 20:0.3711 21:0.3034 22:1.2 23:0.25 
-0.01255808651366491 1:2 2:3 3:17 4:21 5:0.4762 6:4 7:3 8:0.381 9:0.1429 10:0.3333 11:0.1429 12:17 13:0.3171 14:4 15:0.2892 16:83 17:0.3253 18:0.1084 19:0.1807 20:0.3855 21:0.28 22:2.2 23:0.2353 
-0.04643315515648543 1:2 2:3 3:15 4:24 5:0.4167 6:4 7:3 8:0.4583 9:0.125 10:0.2917 11:0.125 12:16 13:0.2766 14:3 15:0.2824 16:85 17:0.3294 18:0.1059 19:0.1765 20:0.3882 21:0.2727 22:2.5 23:0.2667 
-0.04693011918939434 1:2 2:3 3:15 4:22 5:0.4091 6:4 7:3 8:0.4545 9:0.1364 10:0.2727 11:0.1364 12:18 13:0.3023 14:3 15:0.2716 16:81 17:0.3333 18:0.0988 19:0.1728 20:0.3951 21:0.2877 22:2.5 23:0.2667 
-0.03756858878554913 1:2 2:3 3:14 4:22 5:0.2857 6:4 7:3 8:0.1429 9:0.0952 10:0.1905 11:0.5714 12:77 13:0.3023 14:3 15:0.2658 16:79 17:0.3418 18:0.1013 19:0.1646 20:0.3924 21:0.2958 22:0.6 23:0.2857 
-0.1429229333388268 1:2 2:6 3:28 4:22 5:0.4091 6:3 7:4 8:0.2727 9:0.2727 10:0.1364 11:0.3182 12:90 13:0.3953 14:1 15:0.3113 16:106 17:0.3302 18:0.1226 19:0.1887 20:0.3585 21:0.3265 22:0.4 23:0.2727 
-0.1428387022708047 1:2 2:5 3:26 4:25 5:0.375 6:4 7:4 8:0.375 9:0.0417 10:0.3333 11:0.25 12:5 13:0.4286 14:4 15:0.3056 16:108 17:0.3426 18:0.1204 19:0.1852 20:0.3519 21:0.34 22:1.67 23:0.2549 
-0.007023126078146663 1:2 2:4 3:18 4:24 5:0.3478 6:4 7:4 8:0.1739 9:0.1739 10:0.1739 11:0.4783 12:81 13:0.3191 14:3 15:0.2857 16:91 17:0.3187 18:0.1099 19:0.1758 20:0.3956 21:0.3012 22:1.75 23:0.2778 
-0.1557572900773984 1:2 2:4 3:21 4:21 5:0.35 6:4 7:3 8:0.2 9:0.2 10:0.15 11:0.45 12:84 13:0.3171 14:3 15:0.2857 16:91 17:0.3187 18:0.1099 19:0.1758 20:0.3956 21:0.3012 22:2.25 23:0.2857 
-0.105276277819148 1:-1 2:0 3:0 4:24 5:0.3913 6:6 7:4 8:0.2609 9:0.2174 10:0.1739 11:0.3478 12:51 13:0.3478 14:-1 15:0.383 16:47 17:0.2979 18:0.1915 19:0.1915 20:0.3191 21:0.1176 22:0 23:-1 
-0.1895510708555847 1:1 2:4 3:21 4:23 5:0.2174 6:12 7:2 8:0.4348 9:0.087 10:0.1304 11:0.3478 12:2 13:0.4118 14:4 15:0.3176 16:85 17:0.3294 18:0.1412 19:0.1765 20:0.3529 21:0.25 22:0 23:0.15 
-0.1279313187479966 1:1 2:4 3:19 4:21 5:0.2381 6:8 7:2 8:0.4762 9:0.0952 10:0.1429 11:0.2857 12:6 13:0.2941 14:3 15:0.3333 16:81 17:0.321 18:0.1481 19:0.1852 20:0.3457 21:0.2059 22:0 23:0.1667 
-0.1084767734660479 1:1 2:4 3:18 4:24 5:0.25 6:10 7:2 8:0.4167 9:0.125 10:0.125 11:0.3333 12:4 13:0.3158 14:4 15:0.3253 16:83 17:0.3133 18:0.1446 19:0.1807 20:0.3614 21:0.2286 22:0 23:0.1765 
-0.04631579263679196 1:1 2:3 3:16 4:21 5:0.3333 6:5 7:3 8:0.4286 9:0.1905 10:0.1429 11:0.2381 12:9 13:0.2432 14:4 15:0.3462 16:78 17:0.3077 18:0.1538 19:0.1923 20:0.3462 21:0.1692 22:0 23:0.1333 
-0.06250567746848185 1:1 2:3 3:14 4:23 5:0.3478 6:5 7:3 8:0.4348 9:0.1739 10:0.1739 11:0.2174 12:9 13:0.2195 14:1 15:0.3462 16:78 17:0.3077 18:0.1538 19:0.1923 20:0.3462 21:0.1692 22:0 23:0.1538 
-0.05580533860682116 1:1 2:2 3:10 4:24 5:0.6818 6:2 7:4 8:0.1364 9:0.0455 10:0.6364 11:0.1818 12:1 13:0.1739 14:1 15:0.5 16:70 17:0.2286 18:0.2286 19:0.2714 20:0.2714 21:0.1429 22:0.88 23:0.1579 
-0.5865813534519053 1:1 2:2 3:10 4:21 5:0.5714 6:2 7:3 8:0.1429 9:0.4762 10:0.0952 11:0.2857 12:47 13:0.15 14:1 15:0.5312 16:64 17:0.2344 18:0.25 19:0.2812 20:0.2344 21:0.1228 22:0.73 23:0.1579 
-0.1171883812347235 1:-1 2:0 3:0 4:23 5:0.4545 6:3 7:4 8:0.3182 9:0.2273 10:0.2273 11:0.2273 12:13 13:0.3043 14:1 15:0.4255 16:47 17:0.3404 18:0.1702 19:0.2553 20:0.234 21:0.2 22:5 23:-1 
-0.06457232677977766 1:-1 2:0 3:0 4:20 5:0.4 6:3 7:4 8:0.3 9:0.2 10:0.2 11:0.3 12:16 13:0.35 14:1 15:0.3902 16:41 17:0.3659 18:0.1463 19:0.2439 20:0.2439 21:0.2353 22:2.5 23:-1 
-0.007288690817460795 1:-1 2:0 3:0 4:23 5:0.4348 6:3 7:4 8:0.3043 9:0.2174 10:0.2174 11:0.2609 12:13 13:0.3043 14:1 15:0.4255 16:47 17:0.3404 18:0.1702 19:0.2553 20:0.234 21:0.2 22:5 23:-1 
-0.03625967174182858 1:-1 2:0 3:12 4:20 5:0.4 6:2 7:3 8:0.3 9:0.1 10:0.3 11:0.3 12:2 13:0.2 14:1 15:0.2949 16:78 17:0.3333 18:0.1026 19:0.1923 20:0.3718 21:0.125 22:1.29 23:0 
-0.2610689770126101 1:-1 2:0 3:0 4:24 5:0.25 6:5 7:2 8:0.375 9:0.0833 10:0.1667 11:0.375 12:43 13:0.25 14:3 15:0.25 16:52 17:0.3654 18:0.0962 19:0.1538 20:0.3846 21:0.0526 22:0 23:-1 
-0.1112759810208832 1:-1 2:0 3:13 4:20 5:0.45 6:2 7:4 8:0.3 9:0.1 10:0.35 11:0.25 12:1 13:0.25 14:1 15:0.3 16:80 17:0.3375 18:0.1 19:0.2 20:0.3625 21:0.1515 22:1 23:0 
-0.07135175629286394 1:-1 2:0 3:11 4:21 5:0.3333 6:2 7:3 8:0.2857 9:0.1905 10:0.1429 11:0.381 12:59 13:0.1905 14:1 15:0.2949 16:78 17:0.3333 18:0.1026 19:0.1923 20:0.3718 21:0.125 22:0.67 23:0 
-0.0821573688010355 1:-1 2:0 3:12 4:21 5:0.3333 6:2 7:4 8:0.2857 9:0.1905 10:0.1429 11:0.381 12:60 13:0.2381 14:1 15:0.3 16:80 17:0.3375 18:0.1 19:0.2 20:0.3625 21:0.1515 22:1 23:0 
-0.04519435957919105 1:-1 2:0 3:0 4:24 5:0.5 6:4 7:2 8:0.25 9:0.1667 10:0.3333 11:0.25 12:43 13:0.2766 14:-1 15:0.4286 16:49 17:0.2653 18:0.1633 19:0.2653 20:0.3061 21:0.1282 22:0 23:-1 
-0.03089480863966221 1:3 2:1 3:13 4:23 5:0.55 6:3 7:1 8:0.1 9:0.35 10:0.2 11:0.35 12:60 13:0.0698 14:2 15:0.6026 16:78 17:0.1667 18:0.2436 19:0.359 20:0.2308 21:0.1176 22:0.82 23:0.2 
-0.07949350574178655 1:-1 2:0 3:0 4:24 5:0.375 6:3 7:2 8:0.25 9:0.125 10:0.25 11:0.375 12:17 13:0.234 14:3 15:0.451 16:51 17:0.2549 18:0.1765 19:0.2745 20:0.2941 21:0.122 22:4.5 23:-1 
-0.07932382854984424 1:3 2:1 3:17 4:20 5:0.8 6:3 7:2 8:0.2 9:0.25 10:0.55 11:0 12:1 13:0.1111 14:4 15:0.5949 16:79 17:0.1772 18:0.2405 19:0.3544 20:0.2278 21:0.1304 22:0.89 23:0.1515 
-0.05001899958847666 1:3 2:1 3:13 4:24 5:0.7083 6:3 7:2 8:0.2083 9:0.2083 10:0.5 11:0.0833 12:1 13:0.0909 14:3 15:0.5949 16:79 17:0.1772 18:0.2405 19:0.3544 20:0.2278 21:0.1304 22:0.89 23:0.2 
-0.1539433604043177 1:-1 2:0 3:0 4:20 5:0.4 6:3 7:2 8:0.15 9:0.15 10:0.25 11:0.45 12:21 13:0.2821 14:3 15:0.4884 16:43 17:0.2326 18:0.186 19:0.3023 20:0.2791 21:0.1515 22:4.5 23:-1 
-0.02211347891497465 1:-1 2:0 3:0 4:20 5:0.7 6:1 7:2 8:0.05 9:0.2 10:0.5 11:0.25 12:40 13:0.0769 14:1 15:0.7381 16:42 17:0.0952 18:0.3571 19:0.381 20:0.1667 21:0.027 22:0.6 23:-1 
-0.0104949026061371 1:-1 2:0 3:0 4:23 5:0.6957 6:1 7:3 8:0.0435 9:0.2174 10:0.4783 11:0.2609 12:40 13:0.1111 14:2 15:0.7083 16:48 17:0.125 18:0.3542 19:0.3542 20:0.1667 21:0.0698 22:0.75 23:-1 
-0.03988727811338556 1:-1 2:0 3:0 4:23 5:0.3043 6:4 7:2 8:0.1739 9:0.2174 10:0.087 11:0.5217 12:38 13:0.2174 14:4 15:0.3265 16:49 17:0.3265 18:0.1633 19:0.1633 20:0.3469 21:0.0526 22:0 23:-1 
-0.00769531812696711 1:2 2:4 3:14 4:24 5:0.3636 6:2 7:3 8:0.2727 9:0.1818 10:0.1818 11:0.3636 12:1 13:0.1304 14:3 15:0.443 16:79 17:0.2532 18:0.2405 19:0.2025 20:0.3038 21:0.2 22:0.89 23:0.3846 
-0.04539901885066207 1:2 2:4 3:14 4:23 5:0.3913 6:2 7:2 8:0.3043 9:0.1739 10:0.2174 11:0.3043 12:56 13:0.0909 14:1 15:0.4545 16:77 17:0.2468 18:0.2468 19:0.2078 20:0.2987 21:0.1765 22:0.9 23:0.3846 
-0.009927208228827762 1:2 2:4 3:16 4:21 5:0.381 6:2 7:2 8:0.2857 9:0.1905 10:0.1905 11:0.3333 12:58 13:0.1 14:1 15:0.4545 16:77 17:0.2468 18:0.2468 19:0.2078 20:0.2987 21:0.1765 22:0.9 23:0.3333 
-0.01004767022677902 1:2 2:3 3:18 4:23 5:0.5 6:3 7:4 8:0.25 9:0.2 10:0.3 11:0.25 12:1 13:0.1905 14:2 15:0.5921 16:76 17:0.1974 18:0.2895 19:0.3026 20:0.2105 21:0.1781 22:1.14 23:0.2121 
-0.1963235647112516 1:-1 2:0 3:0 4:27 5:0.625 6:3 7:4 8:0.2083 9:0.2917 10:0.3333 11:0.1667 12:14 13:0.2245 14:4 15:0.58 16:50 17:0.2 18:0.3 19:0.28 20:0.22 21:0.1915 22:1.43 23:-1 
-0.09311020099115624 1:2 2:3 3:18 4:22 5:0.5238 6:3 7:3 8:0.2381 9:0.2857 10:0.2381 11:0.2381 12:55 13:0.15 14:4 15:0.5946 16:74 17:0.1892 18:0.2838 19:0.3108 20:0.2162 21:0.1549 22:0.2 23:0.2121 
-0.0353934746388351 1:2 2:3 3:15 4:24 5:0.5238 6:3 7:3 8:0.2381 9:0.2381 10:0.2857 11:0.2381 12:3 13:0.1364 14:2 15:0.5833 16:72 17:0.1944 18:0.2778 19:0.3056 20:0.2222 21:0.1594 22:1.25 23:0.2593 
-0.1144420468281803 1:2 2:3 3:16 4:25 5:0.5833 6:3 7:4 8:0.2083 9:0.2917 10:0.2917 11:0.2083 12:53 13:0.1739 14:4 15:0.5921 16:76 17:0.1974 18:0.2895 19:0.3026 20:0.2105 21:0.1781 22:0.75 23:0.2414 
-0.1231329079964572 1:2 2:3 3:15 4:26 5:0.5217 6:3 7:4 8:0.2609 9:0.2609 10:0.2609 11:0.2174 12:1 13:0.1667 14:2 15:0.5921 16:76 17:0.1974 18:0.2895 19:0.3026 20:0.2105 21:0.1781 22:1 23:0.2593 
-0.05605219151876924 1:-1 2:0 3:0 4:24 5:0.5909 6:3 7:4 8:0.1818 9:0.3636 10:0.2273 11:0.2273 12:39 13:0.2558 14:4 15:0.6136 16:44 17:0.1818 18:0.3182 19:0.2955 20:0.2045 21:0.2195 22:1 23:-1 
-0.1427183696748173 1:9 2:1 3:21 4:20 5:0.55 6:3 7:4 8:0.25 9:0.3 10:0.25 11:0.2 12:1 13:0.3158 14:2 15:0.4667 16:75 17:0.24 18:0.2533 19:0.2133 20:0.2933 21:0.2958 22:0.6 23:0.2727 
-0.189989055428121 1:-1 2:0 3:0 4:29 5:0.5238 6:9 7:3 8:0.1905 9:0.1429 10:0.381 11:0.2857 12:14 13:0.2917 14:-1 15:0.46 16:50 17:0.24 18:0.24 19:0.22 20:0.3 21:0.2609 22:1.14 23:-1 
-0.1529630264149583 1:-1 2:0 3:1 4:24 5:0.3478 6:9 7:2 8:0.3478 9:0.3478 10:0 11:0.3043 12:38 13:0.3158 14:2 15:0.4318 16:44 17:0.25 18:0.2273 19:0.2045 20:0.3182 21:0.3 22:0.62 23:0 
-0.1192662931555859 1:9 2:1 3:20 4:21 5:0.5714 6:3 7:4 8:0.2381 9:0.2857 10:0.2857 11:0.1905 12:1 13:0.3 14:1 15:0.4667 16:75 17:0.24 18:0.2533 19:0.2133 20:0.2933 21:0.2958 22:0.38 23:0.2903 
-0.1559182158700568 1:2 2:1 3:5 4:22 5:0.3333 6:7 7:2 8:0.2857 9:0.2857 10:0.0476 11:0.381 12:42 13:0.2778 14:3 15:0.4375 16:48 17:0.25 18:0.2292 19:0.2083 20:0.3125 21:0.2727 22:0 23:0.25 
-0.1417689136984233 1:-1 2:0 3:3 4:25 5:0.375 6:9 7:2 8:0.2917 9:0.3333 10:0.0417 11:0.3333 12:40 13:0.3 14:1 15:0.46 16:50 17:0.24 18:0.24 19:0.22 20:0.3 21:0.2609 22:0 23:0 
-0.2432783819061976 1:9 2:1 3:19 4:22 5:0.45 6:3 7:4 8:0.15 9:0.25 10:0.2 11:0.4 12:56 13:0.2857 14:2 15:0.4667 16:75 17:0.24 18:0.2533 19:0.2133 20:0.2933 21:0.2958 22:1.67 23:0.3103 
-0.01196132204907386 1:-1 2:0 3:3 4:23 5:0.3636 6:9 7:2 8:0.3182 9:0.3182 10:0.0455 11:0.3182 12:40 13:0.3333 14:1 15:0.4565 16:46 17:0.2391 18:0.2391 19:0.2174 20:0.3043 21:0.2857 22:0 23:0 
-0.1297454112648269 1:-1 2:0 3:0 4:29 5:0.45 6:9 7:2 8:0.25 9:0.05 10:0.4 11:0.3 12:13 13:0.25 14:4 15:0.4423 16:52 17:0.25 18:0.2308 19:0.2115 20:0.3077 21:0.25 22:1.11 23:-1 
-0.07751816620415504 1:-1 2:0 3:0 4:30 5:0.4762 6:9 7:3 8:0.2381 9:0.0952 10:0.381 11:0.2857 12:13 13:0.28 14:4 15:0.4423 16:52 17:0.25 18:0.2308 19:0.2115 20:0.3077 21:0.25 22:1.43 23:-1 
-0.1276390734716194 1:2 2:5 3:25 4:29 5:0.4167 6:5 7:5 8:0.25 9:0.2083 10:0.2083 11:0.3333 12:82 13:0.434 14:2 15:0.5385 16:104 17:0.2212 18:0.25 19:0.2885 20:0.2404 21:0.3465 22:1.2 23:0.28 
-0.0176068724670133 1:2 2:6 3:27 4:22 5:0.5455 6:4 7:4 8:0.2727 9:0.3182 10:0.2273 11:0.1818 12:7 13:0.3333 14:2 15:0.5567 16:97 17:0.1959 18:0.2577 19:0.299 20:0.2474 21:0.2979 22:0.71 23:0.2963 
-0.04014635013616822 1:-1 2:0 3:0 4:23 5:0.5217 6:2 7:5 8:0.1739 9:0.2174 10:0.3043 11:0.3043 12:33 13:0.3043 14:4 15:0.5957 16:47 17:0.1702 18:0.2766 19:0.3191 20:0.234 21:0.2727 22:1.6 23:-1 
-0.04395623417901645 1:-1 2:0 3:0 4:21 5:0.5238 6:2 7:4 8:0.1429 9:0.1905 10:0.3333 11:0.3333 12:35 13:0.2857 14:4 15:0.6047 16:43 17:0.1395 18:0.2791 19:0.3256 20:0.2558 21:0.25 22:1.6 23:-1 
-0.06152165655207341 1:2 2:4 3:17 4:25 5:0.5417 6:4 7:5 8:0.2917 9:0.1667 10:0.375 11:0.1667 12:74 13:0.3469 14:1 15:0.5833 16:84 17:0.1905 18:0.2619 19:0.3214 20:0.2262 21:0.3086 22:1.6 23:0.2941 
-0.1052489369309708 1:2 2:5 3:24 4:20 5:0.65 6:4 7:3 8:0.2 9:0.35 10:0.3 11:0.15 12:12 13:0.3333 14:3 15:0.5795 16:88 17:0.1932 18:0.2614 19:0.3182 20:0.2273 21:0.2941 22:1.67 23:0.2917 
-0.02016592630839348 1:2 2:6 3:31 4:23 5:0.4783 6:5 7:4 8:0.3913 9:0.2609 10:0.2174 11:0.1304 12:2 13:0.4634 14:1 15:0.5385 16:104 17:0.2212 18:0.25 19:0.2885 20:0.2404 21:0.3465 22:0 23:0.2903 
-0.08922520772193794 1:2 2:4 3:20 4:20 5:0.6 6:4 7:4 8:0.15 9:0.3 10:0.3 11:0.25 12:16 13:0.3846 14:3 15:0.5875 16:80 17:0.1875 18:0.2625 19:0.325 20:0.225 21:0.3247 22:0 23:0.3 
-0.06440491181342835 1:2 2:3 3:16 4:21 5:0.619 6:2 7:5 8:0.1429 9:0.3333 10:0.2857 11:0.2381 12:19 13:0.3171 14:4 15:0.6216 16:74 17:0.1757 18:0.2838 19:0.3378 20:0.2027 21:0.2676 22:1.33 23:0.25 
-0.08891443048808041 1:2 2:4 3:19 4:20 5:0.65 6:3 7:4 8:0.15 9:0.35 10:0.3 11:0.2 12:17 13:0.3333 14:2 15:0.6026 16:78 17:0.1923 18:0.2692 19:0.3333 20:0.2051 21:0.3067 22:0.25 23:0.3158 
-0.1907989911256467 1:1 2:1 3:2 4:21 5:0.381 6:2 7:3 8:0.3333 9:0.2381 10:0.1429 11:0.2857 12:44 13:0.2195 14:4 15:0.46 16:50 17:0.24 18:0.22 19:0.24 20:0.3 21:0.2093 22:1.17 23:0.5 
-1 1:1 2:1 3:2 4:22 5:0.5238 6:2 7:3 8:0.1905 9:0.2381 10:0.2857 11:0.2857 12:14 13:0.2093 14:1 15:0.4423 16:52 17:0.25 18:0.2115 19:0.2308 20:0.3077 21:0.2 22:0.8 23:0.5 
-0.04865684171003125 1:1 2:2 3:16 4:22 5:0.5238 6:2 7:5 8:0.1905 9:0.2381 10:0.2857 11:0.2857 12:6 13:0.2381 14:4 15:0.3571 16:84 17:0.3095 18:0.1786 19:0.1786 20:0.3333 21:0.1549 22:1.29 23:0.0968 
-0.04563683393399837 1:1 2:2 3:17 4:23 5:0.5455 6:2 7:5 8:0.1818 9:0.2273 10:0.3182 11:0.2727 12:4 13:0.2273 14:1 15:0.3636 16:88 17:0.3068 18:0.1818 19:0.1818 20:0.3295 21:0.1467 22:1.57 23:0.0909 
-0.1056093985323904 1:1 2:3 3:19 4:27 5:0.5714 6:6 7:5 8:0.1429 9:0.2381 10:0.3333 11:0.2857 12:3 13:0.3191 14:4 15:0.3895 16:95 17:0.2842 18:0.2211 19:0.1684 20:0.3263 21:0.2195 22:1 23:0.1351 
-0.0870555705674855 1:-1 2:0 3:0 4:21 5:0.45 6:3 7:4 8:0.1 9:0.3 10:0.15 11:0.45 12:30 13:0.3333 14:4 15:0.3721 16:43 17:0.2093 18:0.2093 19:0.1628 20:0.4186 21:0.2571 22:0.4 23:-1 
-0.1124784078120815 1:-1 2:0 3:0 4:26 5:0.375 6:3 7:4 8:0.3333 9:0.1667 10:0.2083 11:0.2917 12:53 13:0.3061 14:2 15:0.3922 16:51 17:0.2157 18:0.2157 19:0.1765 20:0.3922 21:0.2093 22:0.2 23:-1 
-0.08164080469713386 1:3 2:3 3:19 4:20 5:0.55 6:2 7:2 8:0.2 9:0.2 10:0.35 11:0.25 12:10 13:0.1579 14:4 15:0.4568 16:81 17:0.1852 18:0.1975 19:0.2593 20:0.358 21:0.2055 22:0.8 23:0.2571 
-0.093292354509041 1:-1 2:0 3:0 4:20 5:0.2857 6:6 7:3 8:0.2381 9:0.1905 10:0.0952 11:0.4762 12:39 13:0.4 14:-1 15:0.3902 16:41 17:0.2439 18:0.1951 19:0.1951 20:0.3659 21:0.1429 22:0 23:-1 
-0.06079754208502183 1:3 2:3 3:15 4:22 5:0.3182 6:2 7:2 8:0.3636 9:0.1364 10:0.1818 11:0.3182 12:69 13:0.1364 14:2 15:0.3699 16:73 17:0.2603 18:0.1781 19:0.1918 20:0.3699 21:0.2 22:1.33 23:0.3571 
-0.004721861540149794 1:3 2:4 3:28 4:25 5:0.4167 6:2 7:5 8:0.25 9:0.1667 10:0.25 11:0.3333 12:3 13:0.234 14:1 15:0.402 16:102 17:0.2647 18:0.1961 19:0.2059 20:0.3333 21:0.2323 22:0.78 23:0.2593 
-0.008308438306610554 1:3 2:4 3:20 4:24 5:0.375 6:2 7:2 8:0.375 9:0.1667 10:0.2083 11:0.25 12:74 13:0.1064 14:3 15:0.4186 16:86 17:0.2442 18:0.1977 19:0.2209 20:0.3372 21:0.2048 22:1.12 23:0.3684 
-0.02187138215991635 1:3 2:4 3:23 4:25 5:0.4167 6:2 7:3 8:0.25 9:0.1667 10:0.25 11:0.3333 12:8 13:0.1489 14:1 15:0.4239 16:92 17:0.25 18:0.2065 19:0.2174 20:0.3261 21:0.2135 22:0.56 23:0.3182 
-0.06446619072375999 1:3 2:4 3:28 4:26 5:0.375 6:2 7:5 8:0.3333 9:0.25 10:0.125 11:0.2917 12:82 13:0.2245 14:2 15:0.4135 16:104 17:0.2596 18:0.2019 19:0.2115 20:0.3269 21:0.2277 22:1.12 23:0.2593 
-0.149341339047372 1:3 2:5 3:32 4:20 5:0.25 6:5 7:3 8:0.3 9:0.15 10:0.1 11:0.45 12:88 13:0.3143 14:1 15:0.4118 16:102 17:0.2549 18:0.1961 19:0.2157 20:0.3333 21:0.2653 22:0.56 23:0.2381 
-0.0527178674686908 1:3 2:3 3:23 4:24 5:0.3333 6:5 7:6 8:0.2083 9:0.1667 10:0.1667 11:0.4583 12:79 13:0.3953 14:4 15:0.4348 16:92 17:0.2391 18:0.2065 19:0.2283 20:0.3261 21:0.2955 22:0.57 23:0.2 
-0.1455363058884985 1:1 2:1 3:13 4:20 5:0.4 6:3 7:5 8:0.3 9:0.1 10:0.3 11:0.3 12:20 13:0.4 14:1 15:0.4783 16:69 17:0.2319 18:0.2174 19:0.2609 20:0.2899 21:0.2615 22:1.67 23:0.04 
-0.04380536875482611 1:3 2:2 3:19 4:26 5:0.381 6:5 7:5 8:0.3333 9:0.0952 10:0.2857 11:0.2857 12:13 13:0.3617 14:3 15:0.4432 16:88 17:0.2386 18:0.2045 19:0.2386 20:0.3182 21:0.2857 22:1.43 23:0.1892 
-0.05804887295474243 1:3 2:3 3:23 4:27 5:0.3636 6:5 7:6 8:0.2727 9:0.0909 10:0.2727 11:0.3636 12:8 13:0.3469 14:1 15:0.4286 16:98 17:0.2449 18:0.2041 19:0.2245 20:0.3265 21:0.2766 22:2.25 23:0.2 
-0.07222239204205944 1:3 2:2 3:22 4:23 5:0.3478 6:5 7:5 8:0.1739 9:0.1304 10:0.2174 11:0.4783 12:78 13:0.4146 14:4 15:0.4432 16:88 17:0.2386 18:0.2045 19:0.2386 20:0.3182 21:0.2857 22:0.8 23:0.1628 
-0.1101443108183127 1:3 2:2 3:20 4:28 5:0.3478 6:5 7:6 8:0.2609 9:0.087 10:0.2609 11:0.3913 12:10 13:0.3725 14:4 15:0.4255 16:94 17:0.2447 18:0.2021 19:0.2234 20:0.3298 21:0.2889 22:1.2 23:0.1795 
-0.01045223134387092 1:3 2:5 3:32 4:21 5:0.2857 6:5 7:4 8:0.2857 9:0.1429 10:0.1429 11:0.4286 12:88 13:0.3514 14:1 15:0.4135 16:104 17:0.2596 18:0.1923 19:0.2212 20:0.3269 21:0.28 22:0.83 23:0.2381 
-0.1829684769068146 1:3 2:2 3:16 4:29 5:0.4167 6:5 7:5 8:0.2917 9:0.1667 10:0.25 11:0.2917 12:13 13:0.3208 14:2 15:0.4432 16:88 17:0.2386 18:0.2045 19:0.2386 20:0.3182 21:0.2857 22:1 23:0.2258 
-0.01675160069402837 1:2 2:3 3:18 4:21 5:0.85 6:2 7:4 8:0 9:0.25 10:0.6 11:0.15 12:12 13:0.2 14:4 15:0.5769 16:78 17:0.1795 18:0.2564 19:0.3205 20:0.2436 21:0.1892 22:1.33 23:0.1765 
-0.1611229757197443 1:2 2:6 3:29 4:26 5:0.7143 6:8 7:3 8:0.0952 9:0.2857 10:0.4286 11:0.1905 12:1 13:0.3913 14:1 15:0.6058 16:104 17:0.1731 18:0.2885 19:0.3173 20:0.2212 21:0.28 22:0.62 23:0.1852 
-0.06504132758518441 1:-1 2:0 3:0 4:22 5:0.4091 6:2 7:4 8:0.1818 9:0.0909 10:0.3182 11:0.4091 12:28 13:0.1707 14:3 15:0.4444 16:45 17:0.2222 18:0.2 19:0.2444 20:0.3333 21:0.1707 22:1.29 23:-1 
-0.06709983024988397 1:2 2:4 3:22 4:27 5:0.8095 6:8 7:4 8:0.0952 9:0.2857 10:0.5238 11:0.0952 12:7 13:0.375 14:2 15:0.6129 16:93 17:0.172 18:0.2796 19:0.3333 20:0.2151 21:0.2809 22:0.27 23:0.1707 
-0.09132144825327257 1:2 2:4 3:21 4:20 5:0.7 6:2 7:4 8:0.2 9:0.4 10:0.3 11:0.1 12:72 13:0.2105 14:1 15:0.5926 16:81 17:0.1728 18:0.2593 19:0.3333 20:0.2346 21:0.1948 22:1 23:0.1795 
-0.1574436308167331 1:2 2:5 3:27 4:22 5:0.7273 6:8 7:3 8:0.1818 9:0.4091 10:0.3182 11:0.0909 12:78 13:0.4359 14:4 15:0.6129 16:93 17:0.172 18:0.2796 19:0.3333 20:0.2151 21:0.2809 22:2.67 23:0.16 
-0.05029484426775281 1:2 2:3 3:15 4:25 5:0.6667 6:2 7:4 8:0.2083 9:0.4167 10:0.25 11:0.125 12:67 13:0.1667 14:1 15:0.5875 16:80 17:0.175 18:0.2625 19:0.325 20:0.2375 21:0.1842 22:0.75 23:0.2143 
-0.05267799980987993 1:2 2:5 3:24 4:28 5:0.7391 6:8 7:3 8:0.087 9:0.2609 10:0.4783 11:0.1739 12:4 13:0.3333 14:3 15:0.596 16:99 17:0.1818 18:0.2727 19:0.3232 20:0.2222 21:0.2632 22:1 23:0.1818 
-0.1734668185546838 1:2 2:6 3:32 4:20 5:0.75 6:8 7:2 8:0.2 9:0.35 10:0.4 11:0.05 12:83 13:0.4286 14:3 15:0.596 16:99 17:0.1818 18:0.2727 19:0.3232 20:0.2222 21:0.2632 22:0.6 23:0.1667 
-0.1252908430157612 1:2 2:4 3:21 4:30 5:0.7917 6:8 7:4 8:0.0833 9:0.2917 10:0.5 11:0.125 12:5 13:0.3333 14:2 15:0.6082 16:97 17:0.1753 18:0.2784 19:0.3299 20:0.2165 21:0.2688 22:0.67 23:0.1795 
-0.08477955524051692 1:-1 2:0 3:0 4:22 5:0.45 6:2 7:5 8:0.3 9:0.3 10:0.15 11:0.25 12:52 13:0.2195 14:-1 15:0.4186 16:43 17:0.2326 18:0.186 19:0.2326 20:0.3488 21:0.1795 22:0.7 23:-1 
-0.1700183552931776 1:2 2:6 3:32 4:23 5:0.7727 6:8 7:3 8:0.1818 9:0.4091 10:0.3636 11:0.0455 12:83 13:0.45 14:4 15:0.6058 16:104 17:0.1731 18:0.2885 19:0.3173 20:0.2212 21:0.28 22:0.75 23:0.1667 
-0.06781478192464369 1:4 2:2 3:16 4:22 5:0.5909 6:2 7:5 8:0.2273 9:0.2727 10:0.3182 11:0.1818 12:13 13:0.2558 14:2 15:0.5921 16:76 17:0.2105 18:0.3289 19:0.2632 20:0.1974 21:0.2174 22:2 23:0.2143 
-0.0675353375136411 1:4 2:4 3:23 4:22 5:0.8095 6:3 7:5 8:0.0476 9:0.4286 10:0.381 11:0.1429 12:74 13:0.3 14:3 15:0.6047 16:86 17:0.186 18:0.3256 19:0.2791 20:0.2093 21:0.2405 22:3 23:0.2195 
-0.04574612988279045 1:4 2:6 3:32 4:22 5:0.7143 6:3 7:5 8:0.0476 9:0.3333 10:0.381 11:0.2381 12:83 13:0.2821 14:2 15:0.5922 16:103 17:0.1845 18:0.3107 19:0.2816 20:0.2233 21:0.25 22:1.29 23:0.2542 
-0.09955338384946251 1:4 2:2 3:12 4:24 5:0.5833 6:2 7:5 8:0.2083 9:0.25 10:0.3333 11:0.2083 12:15 13:0.234 14:3 15:0.5694 16:72 17:0.2222 18:0.3194 19:0.25 20:0.2083 21:0.2308 22:0.82 23:0.3 
-0.3892299271778598 1:4 2:2 3:15 4:21 5:0.75 6:2 7:5 8:0.15 9:0.45 10:0.3 11:0.1 12:67 13:0.2683 14:3 15:0.5694 16:72 17:0.2222 18:0.3194 19:0.25 20:0.2083 21:0.2308 22:1 23:0.2308 
-0.07019153734443757 1:4 2:5 3:28 4:21 5:0.8 6:3 7:5 8:0.05 9:0.4 10:0.4 11:0.15 12:79 13:0.3158 14:4 15:0.6064 16:94 17:0.1915 18:0.3191 19:0.2872 20:0.2021 21:0.2414 22:0.62 23:0.2157 
-0.06410082436743947 1:4 2:4 3:24 4:27 5:0.625 6:3 7:6 8:0.25 9:0.2917 10:0.3333 11:0.125 12:3 13:0.32 14:3 15:0.5918 16:98 17:0.1939 18:0.3163 19:0.2755 20:0.2143 21:0.2527 22:0.62 23:0.2093 
-0.03651244352294709 1:3 2:4 3:23 4:27 5:0.625 6:7 7:4 8:0.2917 9:0.25 10:0.375 11:0.0833 12:9 13:0.4118 14:1 15:0.567 16:97 17:0.2371 18:0.2577 19:0.3093 20:0.1959 21:0.3043 22:0 23:0.2093 
-0.1311817459849258 1:3 2:3 3:15 4:20 5:0.6 6:2 7:3 8:0.25 9:0.1 10:0.5 11:0.15 12:71 13:0.2 14:2 15:0.5714 16:70 17:0.2143 18:0.2571 19:0.3143 20:0.2143 21:0.2 22:1.2 23:0.2593 
-0.5503263803040377 1:3 2:3 3:14 4:20 5:0.55 6:2 7:3 8:0.2 9:0.25 10:0.3 11:0.25 12:22 13:0.2 14:3 15:0.5588 16:68 17:0.2206 18:0.25 19:0.3088 20:0.2206 21:0.2063 22:0.71 23:0.28 
-0.1491604767776336 1:3 2:5 3:28 4:23 5:0.7 6:8 7:3 8:0.3 9:0.25 10:0.45 11:0 12:8 13:0.4884 14:1 15:0.5657 16:99 17:0.2424 18:0.2525 19:0.3131 20:0.1919 21:0.3191 22:0 23:0.2075 
-0.0512419176302466 1:3 2:4 3:22 4:20 5:0.65 6:2 7:3 8:0.2 9:0.3 10:0.35 11:0.15 12:14 13:0.25 14:3 15:0.5952 16:84 17:0.1905 18:0.2738 19:0.3214 20:0.2143 21:0.2152 22:1.33 23:0.2195 
-0.06718843143455225 1:-1 2:0 3:0 4:22 5:0.6667 6:3 7:4 8:0.1429 9:0.381 10:0.2857 11:0.1905 12:56 13:0.2683 14:2 15:0.5714 16:42 17:0.1905 18:0.2857 19:0.2857 20:0.2381 21:0.1892 22:0.6 23:-1 
-0.1719256068243391 1:3 2:5 3:26 4:27 5:0.6667 6:10 7:3 8:0.2917 9:0.2917 10:0.375 11:0.0417 12:6 13:0.4902 14:4 15:0.5534 16:103 17:0.2524 18:0.2524 19:0.301 20:0.1942 21:0.3469 22:0 23:0.2245 
-0.02646032164456841 1:4 2:3 3:16 4:24 5:0.4348 6:2 7:2 8:0.1304 9:0.2609 10:0.1739 11:0.4348 12:70 13:0.1489 14:4 15:0.4051 16:79 17:0.2532 18:0.1646 19:0.2405 20:0.3418 21:0.2105 22:0.89 23:0.3548 
-0.07470868961657127 1:4 2:3 3:21 4:27 5:0.375 6:2 7:4 8:0.25 9:0.25 10:0.125 11:0.375 12:75 13:0.2157 14:4 15:0.3763 16:93 17:0.2796 18:0.1613 19:0.2151 20:0.3441 21:0.2222 22:0.89 23:0.2683 
-0.001436841734388372 1:4 2:3 3:17 4:25 5:0.4167 6:2 7:3 8:0.1667 9:0.25 10:0.1667 11:0.4167 12:71 13:0.1837 14:3 15:0.3976 16:83 17:0.2651 18:0.1687 19:0.2289 20:0.3373 21:0.225 22:1.29 23:0.3333 
-0.01036727870907024 1:4 2:2 3:14 4:25 5:0.3913 6:2 7:3 8:0.1304 9:0.2174 10:0.1739 11:0.4783 12:69 13:0.1667 14:3 15:0.3896 16:77 17:0.2597 18:0.1558 19:0.2338 20:0.3506 21:0.2162 22:1 23:0.3571 
-0.1233396397498275 1:4 2:4 3:29 4:20 5:0.25 6:2 7:4 8:0.3 9:0.1 10:0.15 11:0.45 12:5 13:0.2632 14:2 15:0.3684 16:95 17:0.2842 18:0.1579 19:0.2105 20:0.3474 21:0.2174 22:3 23:0.2143 
-0.1706477747829748 1:4 2:5 3:33 4:20 5:0.3 6:2 7:3 8:0.25 9:0.2 10:0.1 11:0.45 12:1 13:0.1667 14:3 15:0.3762 16:101 17:0.2772 18:0.1683 19:0.2079 20:0.3465 21:0.2245 22:0.56 23:0.2812 
-0.02236929934918421 1:-1 2:0 3:0 4:21 5:0.381 6:4 7:3 8:0.3333 9:0.1905 10:0.1905 11:0.2857 12:54 13:0.2683 14:-1 15:0.381 16:42 17:0.2619 18:0.1429 19:0.2381 20:0.3571 21:0.2308 22:0.67 23:-1 
-0.01823041607370523 1:1 2:2 3:12 4:25 5:0.619 6:2 7:4 8:0.1905 9:0.4286 10:0.1905 11:0.1905 12:70 13:0.1304 14:1 15:0.5 16:76 17:0.1974 18:0.2237 19:0.2763 20:0.3026 21:0.1176 22:1 23:0.0909 
-0.001315028391886854 1:2 2:4 3:26 4:25 5:0.5 6:5 7:4 8:0.1667 9:0.3333 10:0.1667 11:0.3333 12:81 13:0.2727 14:3 15:0.4747 16:99 17:0.2323 18:0.2121 19:0.2626 20:0.2929 21:0.1868 22:2.2 23:0.1064 
-0.1127649166268562 1:-1 2:0 3:0 4:23 5:0.375 6:3 7:4 8:0.125 9:0.0417 10:0.3333 11:0.5 12:32 13:0.2093 14:-1 15:0.3333 16:45 17:0.2667 18:0.1111 19:0.2222 20:0.4 21:0.0811 22:5 23:-1 
-0.04742960523323145 1:-1 2:0 3:11 4:22 5:0.5455 6:3 7:4 8:0.2273 9:0.3182 10:0.2273 11:0.2273 12:5 13:0.3182 14:2 15:0.4744 16:78 17:0.2564 18:0.2436 19:0.2308 20:0.2692 21:0.2121 22:2.67 23:0 
-0.05747932784892951 1:-1 2:0 3:10 4:24 5:0.4167 6:3 7:4 8:0.25 9:0.25 10:0.1667 11:0.3333 12:60 13:0.2917 14:3 15:0.4625 16:80 17:0.2625 18:0.2375 19:0.225 20:0.275 21:0.2059 22:0.3 23:0 
-0.1384367741291537 1:2 2:1 3:13 4:24 5:0.4583 6:2 7:5 8:0.2083 9:0.2917 10:0.1667 11:0.3333 12:63 13:0.25 14:3 15:0.4767 16:86 17:0.2558 18:0.2442 19:0.2326 20:0.2674 21:0.2162 22:1 23:0.1538 
-0.1576953244841619 1:-1 2:0 3:11 4:24 5:0.5417 6:3 7:4 8:0.25 9:0.2917 10:0.25 11:0.2083 12:3 13:0.2917 14:2 15:0.4756 16:82 17:0.2561 18:0.2439 19:0.2317 20:0.2683 21:0.2 22:3.33 23:0 
-0.04611400990909669 1:3 2:1 3:15 4:20 5:0.4 6:2 7:3 8:0.25 9:0.2 10:0.2 11:0.35 12:65 13:0.2 14:3 15:0.4756 16:82 17:0.2561 18:0.2439 19:0.2317 20:0.2683 21:0.2 22:0.6 23:0.2 
-0.005774848142038325 1:2 2:2 3:16 4:24 5:0.4583 6:4 7:2 8:0.2917 9:0.25 10:0.2083 11:0.25 12:2 13:0.2727 14:2 15:0.4643 16:84 17:0.2976 18:0.2024 19:0.2619 20:0.2381 21:0.2162 22:0 23:0.1333 
-0.07292567690714463 1:2 2:2 3:15 4:21 5:0.5238 6:4 7:1 8:0.3333 9:0.2381 10:0.2857 11:0.1429 12:65 13:0.1905 14:4 15:0.475 16:80 17:0.275 18:0.2125 19:0.2625 20:0.25 21:0.1714 22:0.83 23:0.1429 
-0.1155256210528775 1:-1 2:0 3:0 4:21 5:0.5 6:4 7:3 8:0.15 9:0.2 10:0.3 11:0.35 12:47 13:0.3 14:4 15:0.4762 16:42 17:0.2619 18:0.1905 19:0.2857 20:0.2619 21:0.125 22:0 23:-1 
-0.006327555622214858 1:1 2:2 3:14 4:20 5:0.45 6:4 7:2 8:0.4 9:0.25 10:0.2 11:0.15 12:64 13:0.25 14:2 15:0.4474 16:76 17:0.2895 18:0.1974 19:0.25 20:0.2632 21:0.1818 22:0.73 23:0.0769 
-0.001032807916434619 1:-1 2:0 3:0 4:21 5:0.45 6:3 7:3 8:0.35 9:0.2 10:0.25 11:0.2 12:24 13:0.25 14:1 15:0.4545 16:44 17:0.2727 18:0.1818 19:0.2727 20:0.2727 21:0.1176 22:4 23:-1 
-0.03600433497555239 1:-1 2:0 3:0 4:23 5:0.4348 6:5 7:2 8:0.2609 9:0.3043 10:0.1304 11:0.3043 12:46 13:0.3043 14:2 15:0.3922 16:51 17:0.2157 18:0.1961 19:0.1961 20:0.3922 21:0.1111 22:0 23:-1 
-0.01902150660793662 1:1 2:1 3:9 4:22 5:0.5238 6:2 7:3 8:0.1905 9:0.3333 10:0.1905 11:0.2857 12:59 13:0.2093 14:1 15:0.4459 16:74 17:0.2027 18:0.2432 19:0.2027 20:0.3514 21:0.1525 22:0.55 23:0.1111 
-0.05890747834416235 1:-1 2:0 3:0 4:21 5:0.4286 6:7 7:2 8:0.1905 9:0.2857 10:0.1429 11:0.381 12:44 13:0.4286 14:1 15:0.4186 16:43 17:0.186 18:0.2093 19:0.2093 20:0.3953 21:0.1429 22:0 23:-1 
-0.1881937362663457 1:1 2:1 3:9 4:27 5:0.5455 6:5 7:4 8:0.1818 9:0.3182 10:0.2273 11:0.2727 12:59 13:0.3061 14:1 15:0.4375 16:80 17:0.2125 18:0.2375 19:0.2 20:0.35 21:0.2308 22:0.75 23:0.1111 
-0.0280335750840922 1:-1 2:0 3:0 4:20 5:0.45 6:5 7:2 8:0.2 9:0.3 10:0.15 11:0.35 12:46 13:0.35 14:4 15:0.4 16:45 17:0.2 18:0.2 19:0.2 20:0.4 21:0.1333 22:0 23:-1 
-0.04503675095820753 1:-1 2:0 3:0 4:22 5:0.4091 6:7 7:2 8:0.1818 9:0.2727 10:0.1364 11:0.4091 12:44 13:0.4091 14:4 15:0.4 16:45 17:0.2 18:0.2 19:0.2 20:0.4 21:0.1333 22:0 23:-1 
-0.03762636981144158 1:1 2:3 3:17 4:23 5:0.6818 6:2 7:6 8:0.1818 9:0.3182 10:0.3636 11:0.1364 12:59 13:0.2558 14:4 15:0.6875 16:80 17:0.1375 18:0.325 19:0.3625 20:0.175 21:0.2105 22:0.67 23:0.1515 
-0.1196487012491001 1:1 2:3 3:18 4:21 5:0.75 6:2 7:5 8:0.15 9:0.4 10:0.35 11:0.1 12:1 13:0.25 14:1 15:0.6962 16:79 17:0.1266 18:0.3291 19:0.3671 20:0.1772 21:0.2 22:3 23:0.1429 
-0.1057259315371305 1:-1 2:0 3:0 4:21 5:0.6667 6:1 7:5 8:0.0952 9:0.381 10:0.2857 11:0.2381 12:19 13:0.2195 14:-1 15:0.6047 16:43 17:0.1395 18:0.2791 19:0.3256 20:0.2558 21:0.1795 22:1 23:-1 
-0.07379885812256569 1:1 2:3 3:18 4:24 5:0.6957 6:3 7:6 8:0.1304 9:0.3478 10:0.3478 11:0.1739 12:60 13:0.3023 14:4 15:0.6829 16:82 17:0.1341 18:0.3293 19:0.3537 20:0.1829 21:0.2308 22:1.33 23:0.1429 
-0.132302222823409 1:1 2:3 3:16 4:23 5:0.7273 6:2 7:5 8:0.1364 9:0.3182 10:0.4091 11:0.1364 12:58 13:0.2273 14:-1 15:0.6962 16:79 17:0.1266 18:0.3291 19:0.3671 20:0.1772 21:0.2 22:0.78 23:0.1613 
-0.008190482608567294 1:1 2:3 3:14 4:20 5:0.7 6:2 7:4 8:0.15 9:0.5 10:0.2 11:0.15 12:5 13:0.2308 14:4 15:0.6571 16:70 17:0.1429 18:0.3143 19:0.3429 20:0.2 21:0.2121 22:0.55 23:0.1852 
-0.09415830516484706 1:1 2:4 3:20 4:21 5:0.8 6:2 7:6 8:0.15 9:0.4 10:0.4 11:0.05 12:62 13:0.2632 14:4 15:0.6914 16:81 17:0.1358 18:0.3333 19:0.358 20:0.1728 21:0.2208 22:1.33 23:0.1795 
-0.3419082326408108 1:1 2:2 3:11 4:21 5:0.5 6:2 7:4 8:0.25 9:0.15 10:0.35 11:0.25 12:53 13:0.3171 14:2 15:0.3529 16:68 17:0.2794 18:0.1176 19:0.2353 20:0.3676 21:0.2581 22:1.67 23:0.1429 
-0.09805723522580667 1:-1 2:0 3:0 4:20 5:0.35 6:2 7:4 8:0.4 9:0.15 10:0.2 11:0.25 12:40 13:0.2821 14:4 15:0.3415 16:41 17:0.2927 18:0.122 19:0.2195 20:0.3659 21:0.2 22:1 23:-1 
