svm_type c_svc
kernel_type rbf
gamma 0.0416667
nr_class 2
total_sv 187
rho 0.904423
label 1 0
probA -5.08557
probB -2.30149
nr_sv 34 153
SV
1 1:4 2:2 3:3 4:2 5:21 6:0.381 7:1 8:1 9:3 10:0.2381 11:0 12:0.381 13:18 14:4 15:0.4 16:0.2625 17:0.1875 18:0.2125 19:0.3375 20:0.1579 21:0.86 22:0.3333 23:0.2 24:16 
1 1:4 2:2 3:3 4:2 5:21 6:0.381 7:1 8:1 9:3 10:0.2381 11:0 12:0.381 13:18 14:4 15:0.4 16:0.2625 17:0.1875 18:0.2125 19:0.3375 20:0.1579 21:0.86 22:0.3333 23:0.2 24:16 
1 1:4 2:9 3:-1 4:0 5:22 6:0.5 7:1 8:3 9:2 10:0.25 11:0.25 12:0.25 13:18 14:4 15:0.4639 16:0.2887 17:0.2062 18:0.2577 19:0.2474 20:0.3333 21:0.78 22:0 23:0.4902 24:5 
1 1:4 2:5 3:1 4:4 5:20 6:0.5 7:1 8:1 9:1 10:0.25 11:0.25 12:0.25 13:19 14:2 15:0.4776 16:0.2537 17:0.2239 18:0.2537 19:0.2687 20:0.1667 21:1 22:0.28 23:0.4783 24:15 
1 1:4 2:5 3:2 4:1 5:22 6:0.5 7:1 8:1 9:3 10:0.25 11:0.25 12:0.25 13:19 14:4 15:0.4886 16:0.2614 17:0.2386 18:0.25 19:0.25 20:0.25 21:0.78 22:0.25 23:0.4211 24:15 
1 1:4 2:2 3:4 4:1 5:21 6:0.4762 7:2 8:1 9:2 10:0.2381 11:0.2381 12:0.2857 13:19 14:1 15:0.4268 16:0.2927 17:0.1951 18:0.2317 19:0.2805 20:0.2 21:0.67 22:0.3 23:0.3571 24:13 
1 1:4 2:4 3:1 4:1 5:21 6:0.4286 7:1 8:2 9:2 10:0.3333 11:0.1429 12:0.2381 13:18 14:3 15:0.3684 16:0.2895 17:0.1842 18:0.1842 19:0.3421 20:0.2113 21:1.25 22:0.0769 23:0.3548 24:11 
1 1:4 2:3 3:-1 4:0 5:21 6:0.5238 7:3 8:1 9:2 10:0.2381 11:0.1905 12:0.2381 13:19 14:1 15:0.4318 16:0.3295 17:0.1818 18:0.25 19:0.2386 20:0.1463 21:1.12 22:0 23:0.2 24:7 
1 1:2 2:3 3:-1 4:0 5:21 6:0.4762 7:3 8:1 9:2 10:0.1905 11:0.3333 12:0.3333 13:19 14:1 15:0.4286 16:0.3333 17:0.1786 18:0.25 19:0.2381 20:0.1538 21:0.78 22:0 23:0.2222 24:9 
1 1:1 2:4 3:-1 4:0 5:21 6:0.4286 7:0 8:1 9:3 10:0.2857 11:0.2857 12:0.2857 13:18 14:2 15:0.4286 16:0.2232 17:0.1607 18:0.2679 19:0.3482 20:0.215 21:1.4 22:-1 23:0.2836 24:2 
1 1:1 2:2 3:1 4:1 5:20 6:0.4 7:0 8:1 9:2 10:0.3 11:0.25 12:0.3 13:18 14:3 15:0.3824 16:0.3088 17:0.1765 18:0.2059 19:0.3088 20:0.1034 21:0.7 22:0.1667 23:0.1579 24:10 
1 1:1 2:2 3:1 4:1 5:21 6:0.619 7:1 8:1 9:1 10:0.2857 11:0.381 12:0.0952 13:20 14:4 15:0.4091 16:0.2273 17:0.1818 18:0.2273 19:0.3636 20:0.1429 21:0.75 22:0.3333 23:0.2381 24:5 
1 1:2 2:2 3:-1 4:0 5:21 6:0.4762 7:1 8:1 9:2 10:0.1905 11:0.1429 12:0.3333 13:19 14:3 15:0.4022 16:0.2283 17:0.1848 18:0.2174 19:0.3696 20:0.1591 21:1.83 22:0 23:0.2174 24:3 
1 1:1 2:4 3:2 4:2 5:21 6:0.619 7:1 8:1 9:2 10:0.2857 11:0.381 12:0.0952 13:19 14:1 15:0.4651 16:0.186 17:0.2093 18:0.2558 19:0.3488 20:0.1852 21:1 22:0.6 23:0.3333 24:10 
1 1:2 2:5 3:2 4:2 5:21 6:0.619 7:1 8:1 9:2 10:0.3333 11:0.4762 12:0.0476 13:19 14:1 15:0.4583 16:0.2917 17:0.1771 18:0.2812 19:0.25 20:0.1818 21:1.57 22:0.25 23:0.2609 24:11 
1 1:4 2:6 3:-1 4:0 5:22 6:0.5909 7:0 8:2 9:3 10:0.0909 11:0.3182 12:0.3182 13:18 14:4 15:0.5301 16:0.1566 17:0.3012 18:0.2289 19:0.3133 20:0.2778 21:1 22:0 23:0.4839 24:5 
1 1:1 2:6 3:-1 4:0 5:22 6:0.619 7:0 8:2 9:4 10:0.2381 11:0.2857 12:0.1429 13:17 14:4 15:0.5402 16:0.1494 17:0.2989 18:0.2414 19:0.3103 20:0.2895 21:1.43 22:-1 23:0.4286 24:3 
1 1:4 2:2 3:3 4:1 5:22 6:0.5909 7:2 8:2 9:3 10:0.2727 11:0.3636 12:0.1364 13:17 14:4 15:0.3409 16:0.2614 17:0.1591 18:0.1818 19:0.3977 20:0.1951 21:0.7 22:0.3333 23:0.1795 24:9 
1 1:3 2:4 3:-1 4:0 5:21 6:0.5714 7:2 8:2 9:2 10:0.2857 11:0.4762 12:0.1429 13:18 14:4 15:0.5303 16:0.2273 17:0.2576 18:0.2727 19:0.2424 20:0.2143 21:1.1 22:0 23:0.4286 24:10 
1 1:4 2:7 3:2 4:1 5:23 6:0.5238 7:1 8:2 9:5 10:0.1905 11:0.381 12:0.2857 13:14 14:1 15:0.3867 16:0.2533 17:0.16 18:0.2267 19:0.36 20:0.3623 21:0.7 22:0.1429 23:0.36 24:17 
1 1:1 2:-1 3:1 4:2 5:22 6:0.5714 7:2 8:2 9:4 10:0.2381 11:0.381 12:0.1905 13:17 14:1 15:0.5333 16:0.2444 17:0.2 18:0.3333 19:0.2222 20:0.15 21:1 22:0.1 23:-1 24:14 
1 1:1 2:3 3:1 4:2 5:21 6:0.4286 7:1 8:-1 9:0 10:0.2857 11:0.1905 12:0.2857 13:21 14:2 15:0.3766 16:0.3117 17:0.1818 18:0.1948 19:0.3117 20:0.0411 21:0.9 22:0.1111 23:0.0968 24:21 
1 1:1 2:-1 3:1 4:1 5:21 6:0.4286 7:1 8:3 9:2 10:0.2857 11:0.1905 12:0.2857 13:17 14:2 15:0.4138 16:0.2931 17:0.2069 18:0.2069 19:0.2931 20:0.1667 21:0.4 22:0.0455 23:0 24:25 
1 1:1 2:1 3:-1 4:0 5:21 6:0.4286 7:1 8:-1 9:0 10:0.2857 11:0.1905 12:0.2857 13:21 14:2 15:0.3896 16:0.2987 17:0.1818 18:0.2078 19:0.3117 20:0 21:0.9 22:0 23:0.0667 24:8 
1 1:1 2:1 3:1 4:2 5:21 6:0.4286 7:1 8:-1 9:0 10:0.2857 11:0.1905 12:0.2857 13:21 14:2 15:0.3896 16:0.2987 17:0.1818 18:0.2078 19:0.3117 20:0 21:0.9 22:0.1111 23:0.0667 24:22 
0.7860650959070573 1:1 2:9 3:1 4:1 5:21 6:0.4286 7:1 8:1 9:1 10:0.2857 11:0.1905 12:0.2857 13:20 14:2 15:0.4176 16:0.1978 17:0.2088 18:0.2088 19:0.3846 20:0.2558 21:0.9 22:0.0833 23:0.4783 24:14 
1 1:1 2:9 3:1 4:1 5:21 6:0.4286 7:1 8:1 9:1 10:0.2857 11:0.1905 12:0.2857 13:20 14:2 15:0.4176 16:0.1978 17:0.2088 18:0.2088 19:0.3846 20:0.2558 21:0.9 22:0.0833 23:0.4783 24:14 
1 1:2 2:1 3:5 4:5 5:22 6:0.4286 7:2 8:3 9:3 10:0.2857 11:0.1429 12:0.2857 13:17 14:2 15:0.4118 16:0.2745 17:0.1961 18:0.2157 19:0.3137 20:0.1818 21:1 22:0.4915 23:0.5 24:32 
1 1:3 2:4 3:-1 4:0 5:23 6:0.619 7:1 8:5 9:4 10:0.0952 11:0.381 12:0.2857 13:14 14:4 15:0.6442 16:0.1346 17:0.2981 18:0.3462 19:0.2212 20:0.32 21:0.5 22:0 23:0.3103 24:4 
1 1:3 2:-1 3:6 4:1 5:22 6:0.619 7:3 8:2 9:5 10:0.0952 11:0.381 12:0.2857 13:15 14:1 15:0.6557 16:0.0984 17:0.2787 18:0.377 19:0.2459 20:0.1698 21:0.8 22:0.1875 23:0 24:24 
1 1:3 2:2 3:-1 4:0 5:21 6:0.4286 7:2 8:2 9:4 10:0.2857 11:0.1905 12:0.2857 13:15 14:1 15:0.4699 16:0.2771 17:0.2289 18:0.241 19:0.253 20:0.2267 21:0.5 22:0 23:0.2432 24:7 
1 1:4 2:2 3:-1 4:0 5:21 6:0.619 7:3 8:7 9:2 10:0.3333 11:0.4762 12:0.0476 13:12 14:4 15:0.3465 16:0.2574 17:0.1485 18:0.198 19:0.396 20:0.2784 21:0.83 22:-1 23:0.2069 24:7 
1 1:4 2:5 3:-1 4:0 5:21 6:0.3 7:4 8:2 9:3 10:0.35 11:0.3 12:0.35 13:17 14:1 15:0.3297 16:0.3407 17:0.1648 18:0.1648 19:0.3297 20:0.2727 21:0.6 22:-1 23:0.4 24:2 
1 1:4 2:3 3:3 4:2 5:21 6:0.5238 7:4 8:2 9:5 10:0.0476 11:0.2381 12:0.4286 13:12 14:1 15:0.5802 16:0.1481 17:0.2346 18:0.3457 19:0.2716 20:0.3846 21:1.33 22:0.2857 23:0.3846 24:19 
-0.008477149178603607 1:3 2:-1 3:3 4:4 5:23 6:0.3913 7:0 8:2 9:4 10:0.4348 11:0.2609 12:0.1739 13:18 14:4 15:0.3922 16:0.2549 17:0.1765 18:0.2157 19:0.3529 20:0.1915 21:2 22:0.2075 23:0 24:31 
-0.1105893493874376 1:1 2:-1 3:3 4:4 5:21 6:0.381 7:1 8:2 9:4 10:0.4286 11:0.2381 12:0.1905 13:16 14:1 15:0.3556 16:0.2667 17:0.1556 18:0.2 19:0.3778 20:0.2195 21:1.2 22:0.1864 23:-1 24:34 
-0.8879416569925889 1:4 2:2 3:3 4:1 5:21 6:0.45 7:1 8:1 9:3 10:0.15 11:0.4 12:0.4 13:18 14:2 15:0.3804 16:0.2826 17:0.1739 18:0.2065 19:0.337 20:0.1591 21:1.12 22:0.5 23:0.1915 24:10 
-0.1517802040628158 1:3 2:2 3:3 4:4 5:20 6:0.35 7:0 8:1 9:3 10:0.5 11:0.2 12:0.15 13:17 14:3 15:0.3673 16:0.2653 17:0.1633 18:0.2041 19:0.3673 20:0.2 21:0.7 22:0.2 23:0.6667 24:32 
-0.009476204453940424 1:1 2:-1 3:3 4:5 5:20 6:0.3 7:1 8:2 9:4 10:0.15 11:0.2 12:0.55 13:15 14:-1 15:0.3659 16:0.2439 17:0.1463 18:0.2195 19:0.3902 20:0.1892 21:0.22 22:0.2063 23:-1 24:36 
-0.9939562830353196 1:4 2:2 3:3 4:1 5:20 6:0.3 7:1 8:1 9:3 10:0.45 11:0 12:0.25 13:17 14:3 15:0.3804 16:0.2826 17:0.1739 18:0.2065 19:0.337 20:0.1591 21:0.89 22:0.5 23:0.1837 24:10 
-0.00588332472725597 1:4 2:2 3:-1 4:0 5:20 6:0.3 7:2 8:3 9:4 10:0.35 11:0.1 12:0.35 13:13 14:2 15:0.3889 16:0.2778 17:0.1667 18:0.2222 19:0.3333 20:0.2308 21:1.4 22:-1 23:0.1692 24:2 
-0.006133146623199583 1:1 2:-1 3:3 4:4 5:22 6:0.3636 7:1 8:2 9:5 10:0.4091 11:0.2273 12:0.2273 13:16 14:1 15:0.3556 16:0.2667 17:0.1556 18:0.2 19:0.3778 20:0.2195 21:3 22:0.1864 23:-1 24:34 
-0.591095365258462 1:3 2:2 3:3 4:3 5:21 6:0.3333 7:0 8:1 9:2 10:0.5238 11:0.2857 12:0.1429 13:19 14:2 15:0.403 16:0.2537 17:0.194 18:0.209 19:0.3433 20:0.1746 21:1.12 22:0.2432 23:0.3333 24:23 
-0.04210049711231092 1:1 2:2 3:3 4:3 5:25 6:0.3333 7:0 8:1 9:4 10:0.1667 11:0.0417 12:0.5 13:21 14:3 15:0.3846 16:0.2615 17:0.1846 18:0.2 19:0.3538 20:0.1803 21:0.89 22:0.2308 23:0.3333 24:24 
-0.2097740681144843 1:4 2:9 3:1 4:1 5:26 6:0.4583 7:1 8:4 9:2 10:0.1667 11:0.25 12:0.375 13:19 14:4 15:0.4471 16:0.2941 17:0.1882 18:0.2588 19:0.2588 20:0.358 21:0.8 22:0.125 23:0.5484 24:11 
-0.1271666320101225 1:4 2:9 3:1 4:1 5:25 6:0.4783 7:1 8:4 9:2 10:0.1739 11:0.2609 12:0.3478 13:18 14:1 15:0.4471 16:0.2941 17:0.1882 18:0.2588 19:0.2588 20:0.358 21:1 22:0.125 23:0.5152 24:11 
-0.05673115437249045 1:3 2:9 3:3 4:2 5:22 6:0.4286 7:1 8:4 9:2 10:0.1905 11:0.2857 12:0.381 13:17 14:4 15:0.4247 16:0.3014 17:0.1644 18:0.2603 19:0.274 20:0.3623 21:1.11 22:0.2143 23:0.6154 24:18 
-0.2666388679161328 1:2 2:9 3:1 4:1 5:23 6:0.5652 7:1 8:4 9:2 10:0.2174 11:0.2609 12:0.2174 13:16 14:2 15:0.4471 16:0.2941 17:0.1882 18:0.2588 19:0.2588 20:0.358 21:0.6 22:0.125 23:0.4595 24:11 
-0.3971623719705875 1:2 2:9 3:1 4:1 5:22 6:0.5 7:1 8:4 9:2 10:0.2 11:0.25 12:0.3 13:15 14:1 15:0.4444 16:0.2963 17:0.1852 18:0.2593 19:0.2593 20:0.3766 21:1.33 22:0.1 23:0.4857 24:13 
-0.353767922912028 1:3 2:9 3:3 4:2 5:23 6:0.4091 7:1 8:4 9:2 10:0.2273 11:0.2727 12:0.3636 13:18 14:2 15:0.4247 16:0.3014 17:0.1644 18:0.2603 19:0.274 20:0.3623 21:1.11 22:0.2143 23:0.6667 24:18 
-0.4715051927762007 1:1 2:5 3:-1 4:0 5:23 6:0.5455 7:1 8:1 9:4 10:0.2727 11:0.1818 12:0.1818 13:19 14:4 15:0.4783 16:0.2283 17:0.2391 18:0.2391 19:0.2935 20:0.2 21:0.91 22:-1 23:0.2857 24:1 
-0.004266114800985271 1:2 2:-1 3:1 4:4 5:26 6:0.4783 7:1 8:5 9:3 10:0.2174 11:0.087 12:0.3043 13:17 14:3 15:0.4902 16:0.2549 17:0.2353 18:0.2549 19:0.2549 20:0.2273 21:4 22:0.1707 23:-1 24:23 
-0.8364753303341278 1:3 2:5 3:1 4:1 5:21 6:0.5 7:1 8:1 9:4 10:0.1 11:0.3 12:0.4 13:17 14:1 15:0.4819 16:0.2289 17:0.241 18:0.241 19:0.2892 20:0.2105 21:1.38 22:0.1111 23:0.2973 24:7 
-0.2506291253070296 1:4 2:5 3:1 4:1 5:22 6:0.4762 7:1 8:1 9:4 10:0.0952 11:0.2857 12:0.4286 13:18 14:1 15:0.4819 16:0.2289 17:0.241 18:0.241 19:0.2892 20:0.2105 21:1.25 22:0.1111 23:0.3143 24:7 
-0.6073700339957747 1:2 2:5 3:-1 4:0 5:21 6:0.4286 7:1 8:1 9:4 10:0.0952 11:0.2381 12:0.4762 13:17 14:1 15:0.4783 16:0.2283 17:0.2391 18:0.2391 19:0.2935 20:0.2 21:1.25 22:-1 23:0.2609 24:2 
-0.7667221576155656 1:2 2:5 3:-1 4:0 5:23 6:0.5652 7:0 8:2 9:5 10:0.087 11:0.1304 12:0.3478 13:17 14:4 15:0.4857 16:0.2571 17:0.2476 18:0.2381 19:0.2571 20:0.2577 21:1 22:-1 23:0.2963 24:6 
-0.0113258722086307 1:2 2:-1 3:2 4:4 5:24 6:0.4348 7:1 8:5 9:3 10:0.3478 11:0.087 12:0.2174 13:12 14:-1 15:0.4375 16:0.3125 17:0.2083 18:0.2292 19:0.25 20:0.4 21:0.29 22:0.1429 23:-1 24:36 
-0.04302265079843582 1:1 2:-1 3:2 4:4 5:24 6:0.4545 7:2 8:5 9:2 10:0.3182 11:0.1364 12:0.2273 13:15 14:1 15:0.4483 16:0.2931 17:0.2069 18:0.2414 19:0.2586 20:0.32 21:0.22 22:0.1739 23:0 24:31 
-0.02259280183085073 1:1 2:4 3:2 4:4 5:21 6:0.381 7:2 8:4 9:2 10:0.1905 11:0.2857 12:0.4286 13:16 14:1 15:0.4333 16:0.3 17:0.2 18:0.2333 19:0.2667 20:0.3077 21:1.29 22:0.1818 23:0.6 24:30 
-0.01824871746958356 1:1 2:5 3:2 4:4 5:20 6:0.35 7:2 8:4 9:1 10:0.2 11:0.25 12:0.45 13:16 14:4 15:0.4333 16:0.3 17:0.2 18:0.2333 19:0.2667 20:0.3077 21:1 22:0.1818 23:0.6667 24:30 
-0.2696994896626226 1:1 2:2 3:-1 4:0 5:21 6:0.381 7:1 8:4 9:2 10:0.3333 11:0.2381 12:0.2857 13:16 14:3 15:0.3958 16:0.3021 17:0.1875 18:0.2083 19:0.3021 20:0.2381 21:0.22 22:0 23:0.2727 24:5 
-0.3530342270365011 1:4 2:2 3:4 4:1 5:22 6:0.5 7:1 8:2 9:3 10:0.1364 11:0.3182 12:0.3636 13:17 14:4 15:0.4571 16:0.2857 17:0.2143 18:0.2429 19:0.2571 20:0.2414 21:0.64 22:0.1875 23:0.2857 24:19 
-0.3496474881832811 1:4 2:-1 3:4 4:1 5:22 6:0.4091 7:1 8:2 9:4 10:0.2727 11:0.2273 12:0.3182 13:15 14:2 15:0.3793 16:0.3276 17:0.1724 18:0.2069 19:0.2931 20:0.3043 21:1.6 22:0.1364 23:0 24:25 
-0.2781143609563105 1:3 2:4 3:-1 4:0 5:24 6:0.3478 7:2 8:2 9:4 10:0.2609 11:0.087 12:0.3913 13:18 14:3 15:0.3736 16:0.2747 17:0.1868 18:0.1868 19:0.3516 20:0.2093 21:0.8 22:-1 23:0.2558 24:2 
-0.1376929036062105 1:3 2:3 3:1 4:1 5:22 6:0.4762 7:2 8:1 9:3 10:0.2857 11:0.3333 12:0.2381 13:19 14:1 15:0.4412 16:0.3382 17:0.1765 18:0.2647 19:0.2206 20:0.1613 21:0.73 22:0.0769 23:0.3 24:17 
-0.05581104605496701 1:1 2:-1 3:1 4:2 5:26 6:0.3333 7:0 8:3 9:5 10:0.4167 11:0.1667 12:0.25 13:18 14:2 15:0.34 16:0.42 17:0.14 18:0.2 19:0.24 20:0.1818 21:0.56 22:0.0909 23:-1 24:26 
-0.1615921437401233 1:2 2:3 3:-1 4:0 5:20 6:0.45 7:3 8:2 9:3 10:0.2 11:0.1 12:0.35 13:16 14:3 15:0.4124 16:0.3299 17:0.1753 18:0.2371 19:0.2577 20:0.1648 21:2 22:-1 23:0.1538 24:2 
-0.194563748537869 1:1 2:2 3:1 4:2 5:22 6:0.25 7:5 8:2 9:3 10:0.2 11:0.1 12:0.55 13:16 14:2 15:0.4118 16:0.1765 17:0.1471 18:0.2647 19:0.4118 20:0.2698 21:0.62 22:0.0952 23:0.3913 24:24 
-0.01114313563368348 1:3 2:2 3:1 4:2 5:20 6:0.5 7:5 8:2 9:3 10:0.15 11:0.45 12:0.35 13:14 14:1 15:0.4375 16:0.1562 17:0.1562 18:0.2812 19:0.4062 20:0.2881 21:0.8 22:0.087 23:0.3913 24:26 
-0.4326662306139945 1:4 2:3 3:-1 4:0 5:21 6:0.4286 7:1 8:1 9:3 10:0.2857 11:0.2381 12:0.2857 13:18 14:4 15:0.4146 16:0.3049 17:0.1951 18:0.2195 19:0.2805 20:0.1389 21:1.12 22:-1 23:0.1333 24:3 
-0.05994121589964252 1:3 2:3 3:-1 4:0 5:21 6:0.4286 7:1 8:3 9:3 10:0.3333 11:0.2381 12:0.2381 13:16 14:1 15:0.407 16:0.3023 17:0.186 18:0.2209 19:0.2907 20:0.1842 21:5 22:-1 23:0.1176 24:1 
-1 1:2 2:2 3:1 4:1 5:22 6:0.5714 7:1 8:2 9:2 10:0.2857 11:0.381 12:0.1429 13:19 14:3 15:0.4231 16:0.2179 17:0.1923 18:0.2308 19:0.359 20:0.1622 21:1.57 22:0.125 23:0.2258 24:10 
-0.1070136571036881 1:1 2:2 3:1 4:1 5:24 6:0.5 7:1 8:2 9:3 10:0.125 11:0.2083 12:0.375 13:19 14:1 15:0.4189 16:0.2162 17:0.1892 18:0.2297 19:0.3649 20:0.1714 21:0.5 22:0.1 23:0.1304 24:12 
-0.2150964175110771 1:4 2:2 3:1 4:1 5:21 6:0.5238 7:0 8:2 9:2 10:0.0952 11:0.1905 12:0.381 13:18 14:4 15:0.4231 16:0.2179 17:0.1923 18:0.2308 19:0.359 20:0.1622 21:0.45 22:0.125 23:0.2121 24:10 
-1 1:3 2:2 3:1 4:1 5:22 6:0.5455 7:1 8:2 9:2 10:0.0909 11:0.2273 12:0.3636 13:19 14:4 15:0.4231 16:0.2179 17:0.1923 18:0.2308 19:0.359 20:0.1622 21:0.64 22:0.125 23:0.2258 24:10 
-0.4213682818174505 1:4 2:2 3:1 4:1 5:22 6:0.4545 7:1 8:2 9:3 10:0.1364 11:0.2273 12:0.4091 13:17 14:1 15:0.3971 16:0.2206 17:0.1765 18:0.2206 19:0.3824 20:0.1875 21:0.75 22:0.0769 23:0.1429 24:15 
-0.316608248214945 1:4 2:2 3:1 4:1 5:23 6:0.5217 7:1 8:2 9:3 10:0.087 11:0.2174 12:0.3913 13:18 14:2 15:0.4079 16:0.2237 17:0.1842 18:0.2237 19:0.3684 20:0.1667 21:0.4 22:0.1111 23:0.1111 24:11 
-0.009504065384729912 1:4 2:2 3:1 4:1 5:20 6:0.5 7:1 8:2 9:3 10:0.1 11:0.25 12:0.4 13:15 14:1 15:0.3971 16:0.2206 17:0.1765 18:0.2206 19:0.3824 20:0.1875 21:0.5 22:0.0769 23:0.12 24:15 
-0.04851942890459168 1:4 2:3 3:2 4:2 5:30 6:0.4583 7:3 8:3 9:5 10:0.1667 11:0.125 12:0.375 13:22 14:3 15:0.4714 16:0.1714 17:0.2143 18:0.2571 19:0.3571 20:0.2308 21:0.88 22:0.2308 23:0.5385 24:18 
-1 1:1 2:4 3:2 4:2 5:22 6:0.5909 7:1 8:2 9:3 10:0.2727 11:0.4545 12:0.1364 13:18 14:4 15:0.473 16:0.1757 17:0.2162 18:0.2568 19:0.3514 20:0.2174 21:1.25 22:0.2727 23:0.4 24:16 
-0.4225041359636579 1:1 2:4 3:2 4:2 5:21 6:0.5714 7:1 8:2 9:3 10:0.2857 11:0.4286 12:0.1429 13:17 14:2 15:0.473 16:0.1757 17:0.2162 18:0.2568 19:0.3514 20:0.2174 21:1.43 22:0.2727 23:0.375 24:16 
-0.03413806653067596 1:4 2:1 3:2 4:3 5:30 6:0.4783 7:3 8:4 9:4 10:0.1304 11:0.1739 12:0.3913 13:20 14:1 15:0.4688 16:0.1562 17:0.2188 18:0.25 19:0.375 20:0.2203 21:0.3 22:0.25 23:0.25 24:21 
-0.02299041965006122 1:1 2:4 3:2 4:2 5:23 6:0.6087 7:2 8:2 9:3 10:0.2609 11:0.4783 12:0.1304 13:19 14:4 15:0.473 16:0.1757 17:0.2162 18:0.2568 19:0.3514 20:0.2174 21:1.43 22:0.2727 23:0.4286 24:16 
-0.07297577558611271 1:4 2:5 3:2 4:2 5:25 6:0.5 7:3 8:2 9:3 10:0.125 11:0.1667 12:0.375 13:21 14:1 15:0.4286 16:0.3095 17:0.1548 18:0.2738 19:0.2619 20:0.2105 21:1.11 22:0.1429 23:0.3333 24:18 
-0.08341633751880992 1:3 2:5 3:2 4:2 5:20 6:0.6 7:2 8:2 9:2 10:0.3 11:0.5 12:0.1 13:17 14:3 15:0.439 16:0.3049 17:0.1585 18:0.2805 19:0.2561 20:0.2162 21:1 22:0.1333 23:0.2941 24:19 
-0.2232244208358451 1:1 2:5 3:-1 4:0 5:21 6:0.55 7:1 8:2 9:2 10:0.4 11:0.4 12:0.05 13:18 14:2 15:0.4727 16:0.2909 17:0.1909 18:0.2818 19:0.2364 20:0.1961 21:0.45 22:0 23:0.2581 24:4 
-0.1575951496542672 1:1 2:2 3:2 4:3 5:23 6:0.4091 7:2 8:3 9:3 10:0.1818 11:0.2273 12:0.4091 13:17 14:1 15:0.3833 16:0.3333 17:0.1167 18:0.2667 19:0.2833 20:0.2692 21:0.4 22:0.1154 23:0.4286 24:30 
-0.04086101971330156 1:1 2:-1 3:2 4:3 5:30 6:0.5238 7:0 8:6 9:3 10:0.1905 11:0.2381 12:0.2857 13:14 14:2 15:0.4808 16:0.1731 17:0.2885 18:0.1923 19:0.3462 20:0.3171 21:0 22:0.2121 23:-1 24:21 
-0.01208742823217596 1:2 2:1 3:-1 4:0 5:32 6:0.5909 7:0 8:6 9:5 10:0.1818 11:0.2727 12:0.2273 13:17 14:3 15:0.5205 16:0.1507 17:0.3014 18:0.2192 19:0.3288 20:0.3226 21:0.67 22:0 23:0.2 24:10 
-0.06528694222784338 1:2 2:-1 3:2 4:2 5:31 6:0.5217 7:0 8:6 9:4 10:0.2174 11:0.2174 12:0.2609 13:14 14:-1 15:0.4815 16:0.1852 17:0.2963 18:0.1852 19:0.3333 20:0.3488 21:0 22:0.1613 23:-1 24:20 
-0.05818504403516998 1:2 2:1 3:-1 4:0 5:32 6:0.5909 7:0 8:6 9:5 10:0.1818 11:0.2727 12:0.2273 13:17 14:3 15:0.507 16:0.1549 17:0.2958 18:0.2113 19:0.338 20:0.3333 21:0.75 22:0 23:0.25 24:11 
-0.09673872243219274 1:1 2:-1 3:3 4:3 5:23 6:0.4091 7:1 8:2 9:3 10:0.3182 11:0.2273 12:0.2727 13:17 14:4 15:0.2542 16:0.3051 17:0.1186 18:0.1356 19:0.4407 20:0.2075 21:1.8 22:0.2273 23:0 24:25 
-0.03932331380884058 1:3 2:-1 3:3 4:3 5:22 6:0.2273 7:1 8:2 9:3 10:0.1818 11:0.0909 12:0.5909 13:16 14:1 15:0.2632 16:0.2982 17:0.1228 18:0.1404 19:0.4386 20:0.2157 21:0.67 22:0.2174 23:0 24:26 
-0.3414562183040911 1:4 2:-1 3:3 4:2 5:21 6:0.2381 7:2 8:2 9:4 10:0.1905 11:0.1429 12:0.5714 13:13 14:1 15:0.2769 16:0.2769 17:0.1231 18:0.1538 19:0.4462 20:0.2542 21:1 22:0.1579 23:0 24:22 
-0.1525189298545865 1:1 2:-1 3:3 4:3 5:21 6:0.4 7:1 8:2 9:3 10:0.3 11:0.25 12:0.3 13:15 14:3 15:0.2364 16:0.3091 17:0.1091 18:0.1273 19:0.4545 20:0.2245 21:1.8 22:0.2083 23:0 24:27 
-0.1040557225220028 1:1 2:4 3:-1 4:0 5:23 6:0.3478 7:2 8:3 9:2 10:0.3478 11:0.2174 12:0.3043 13:19 14:1 15:0.4762 16:0.2619 17:0.25 18:0.2262 19:0.2619 20:0.2432 21:3.5 22:-1 23:0.3571 24:1 
-0.03113109457189734 1:1 2:4 3:-1 4:0 5:22 6:0.4091 7:2 8:2 9:2 10:0.2727 11:0.1364 12:0.3182 13:19 14:3 15:0.4756 16:0.2561 17:0.2439 18:0.2317 19:0.2683 20:0.2222 21:0.57 22:-1 23:0.3571 24:2 
-0.5160232754561694 1:1 2:4 3:-1 4:0 5:20 6:0.4 7:2 8:1 9:1 10:0.25 11:0.15 12:0.35 13:19 14:3 15:0.4744 16:0.2564 17:0.2308 18:0.2436 19:0.2692 20:0.1765 21:1.29 22:-1 23:0.3571 24:4 
-0.1027784824670705 1:2 2:4 3:-1 4:0 5:21 6:0.4286 7:2 8:3 9:1 10:0.2857 11:0.1429 12:0.2857 13:18 14:1 15:0.4762 16:0.2619 17:0.25 18:0.2262 19:0.2619 20:0.2432 21:0.2 22:-1 23:0.375 24:1 
-0.1583742414874284 1:3 2:7 3:-1 4:0 5:20 6:0.6 7:1 8:2 9:4 10:0.15 11:0.5 12:0.25 13:13 14:4 15:0.4118 16:0.2588 17:0.1765 18:0.2353 19:0.3294 20:0.3418 21:0.75 22:0 23:0.3659 24:11 
-0.12991992360161 1:2 2:7 3:-1 4:0 5:27 6:0.4286 7:2 8:7 9:5 10:0.1429 11:0.1429 12:0.4286 13:13 14:4 15:0.4343 16:0.2323 17:0.1616 18:0.2727 19:0.3333 20:0.3978 21:2.5 22:-1 23:0.3333 24:2 
-0.4295382959791972 1:3 2:7 3:-1 4:0 5:21 6:0.619 7:2 8:4 9:4 10:0.1429 11:0.5238 12:0.2381 13:12 14:4 15:0.4409 16:0.2366 17:0.172 18:0.2688 19:0.3226 20:0.3563 21:0 22:-1 23:0.3725 24:5 
-0.08353958592753684 1:4 2:7 3:-1 4:0 5:23 6:0.6087 7:2 8:2 9:5 10:0.1304 11:0.5217 12:0.2609 13:15 14:4 15:0.4222 16:0.2444 17:0.1778 18:0.2444 19:0.3333 20:0.3333 21:1 22:-1 23:0.3659 24:8 
-0.04212306712699267 1:3 2:7 3:-1 4:0 5:24 6:0.6667 7:2 8:4 9:5 10:0.125 11:0.5833 12:0.2083 13:13 14:1 15:0.4409 16:0.2366 17:0.172 18:0.2688 19:0.3226 20:0.3563 21:0 22:-1 23:0.3333 24:5 
-0.02819340049004745 1:1 2:-1 3:2 4:5 5:22 6:0.2727 7:0 8:7 9:3 10:0.3182 11:0.2727 12:0.4091 13:12 14:1 15:0.3171 16:0.3659 17:0.1707 18:0.1463 19:0.3171 20:0.3143 21:0.8 22:0.3333 23:-1 24:34 
-0.05970221652573601 1:3 2:-1 3:2 4:4 5:28 6:0.35 7:0 8:7 9:5 10:0.4 11:0.05 12:0.25 13:14 14:-1 15:0.3265 16:0.3265 17:0.1633 18:0.1633 19:0.3469 20:0.3488 21:1 22:0.3 23:-1 24:30 
-0.3977881254738524 1:4 2:1 3:-1 4:0 5:22 6:0.5 7:2 8:2 9:3 10:0.15 11:0.35 12:0.35 13:17 14:3 15:0.5082 16:0.2459 17:0.1967 18:0.3115 19:0.2459 20:0.1429 21:1 22:0 23:0.2222 24:5 
-0.03731667539098377 1:4 2:1 3:-1 4:0 5:23 6:0.5238 7:3 8:2 9:4 10:0.2857 11:0.2857 12:0.1905 13:16 14:1 15:0.5362 16:0.2174 17:0.2174 18:0.3188 19:0.2464 20:0.1875 21:0.56 22:-1 23:0.1667 24:1 
-0.2390608535136151 1:3 2:1 3:-1 4:0 5:22 6:0.55 7:2 8:2 9:4 10:0.1 11:0.4 12:0.35 13:16 14:4 15:0.5254 16:0.2373 17:0.2034 18:0.322 19:0.2373 20:0.1481 21:0.7 22:0 23:0.125 24:6 
-0.003695205665841553 1:2 2:-1 3:1 4:2 5:26 6:0.3913 7:1 8:3 9:1 10:0.3043 11:0.2174 12:0.3043 13:23 14:2 15:0.3636 16:0.3273 17:0.1818 18:0.1818 19:0.3091 20:0.0588 21:1 22:0.069 23:0 24:32 
-1 1:4 2:3 3:1 4:2 5:20 6:0.5 7:1 8:-1 9:0 10:0.2 11:0.25 12:0.3 13:20 14:4 15:0.4157 16:0.2921 17:0.2022 18:0.2135 19:0.2921 20:0.0353 21:1.1 22:0.1667 23:0.0667 24:15 
-0.9062061921605973 1:1 2:3 3:-1 4:0 5:21 6:0.4762 7:0 8:1 9:2 10:0.2857 11:0.1905 12:0.2381 13:19 14:2 15:0.4312 16:0.2844 17:0.211 18:0.2202 19:0.2844 20:0.0667 21:0.89 22:0 23:0.0476 24:5 
-0.3114210366674795 1:1 2:3 3:-1 4:0 5:20 6:0.45 7:0 8:2 9:3 10:0.3 11:0.2 12:0.25 13:16 14:4 15:0.4103 16:0.2991 17:0.2051 18:0.2051 19:0.2906 20:0.0973 21:0.36 22:-1 23:0.0411 24:1 
-1 1:2 2:3 3:1 4:1 5:21 6:0.4762 7:1 8:1 9:1 10:0.2857 11:0.2857 12:0.2381 13:20 14:1 15:0.4301 16:0.2903 17:0.2043 18:0.2258 19:0.2796 20:0.0562 21:1.38 22:0.1 23:0.0638 24:13 
-0.01981695131487096 1:4 2:3 3:1 4:2 5:20 6:0.45 7:1 8:-1 9:0 10:0.3 11:0.3 12:0.25 13:20 14:1 15:0.4068 16:0.3051 17:0.2034 18:0.2034 19:0.2881 20:0.0545 21:0.73 22:0.0741 23:0.2 24:30 
-0.01220717661555049 1:4 2:-1 3:1 4:2 5:26 6:0.3913 7:1 8:3 9:1 10:0.3043 11:0.2609 12:0.3043 13:23 14:3 15:0.386 16:0.3158 17:0.193 18:0.193 19:0.2982 20:0.0566 21:0.9 22:0.0714 23:0 24:31 
-0.3166478108381701 1:1 2:3 3:-1 4:0 5:24 6:0.4167 7:1 8:1 9:1 10:0.3333 11:0.2083 12:0.25 13:23 14:2 15:0.4149 16:0.2979 17:0.2021 18:0.2128 19:0.2872 20:0.119 21:1.12 22:0 23:0.2222 24:7 
-0.4268153280453041 1:4 2:3 3:1 4:1 5:22 6:0.3636 7:1 8:1 9:1 10:0.2727 11:0.1364 12:0.3636 13:21 14:2 15:0.3919 16:0.2973 17:0.1892 18:0.2027 19:0.3108 20:0.125 21:1.25 22:0.0714 23:0.3 24:17 
-0.4588083996721398 1:2 2:3 3:1 4:1 5:21 6:0.4762 7:1 8:-1 9:0 10:0.2381 11:0.2381 12:0.2857 13:21 14:4 15:0.4333 16:0.2778 17:0.2111 18:0.2222 19:0.2889 20:0.1 21:0.83 22:0.1667 23:0.2105 24:9 
-1 1:2 2:3 3:1 4:1 5:20 6:0.5 7:1 8:-1 9:0 10:0.25 11:0.3 12:0.25 13:20 14:1 15:0.4205 16:0.2841 17:0.2045 18:0.2159 19:0.2955 20:0.1026 21:1.1 22:0.1429 23:0.2105 24:10 
-0.05408627069946314 1:4 2:3 3:1 4:1 5:22 6:0.5 7:1 8:1 9:1 10:0.2273 11:0.2727 12:0.2727 13:21 14:1 15:0.3974 16:0.2949 17:0.1923 18:0.2051 19:0.3077 20:0.1176 21:1 22:0.0833 23:0.25 24:15 
-0.9244065364940677 1:3 2:3 3:-1 4:0 5:20 6:0.4 7:1 8:1 9:1 10:0.35 11:0.3 12:0.25 13:19 14:1 15:0.4184 16:0.2959 17:0.2041 18:0.2143 19:0.2857 20:0.1136 21:1.43 22:0 23:0.1667 24:5 
-0.005788576227206401 1:4 2:3 3:-1 4:0 5:22 6:0.3182 7:1 8:2 9:2 10:0.3636 11:0.2273 12:0.3182 13:19 14:1 15:0.4151 16:0.2925 17:0.2075 18:0.2075 19:0.2925 20:0.1458 21:2 22:-1 23:0.1538 24:1 
-0.04801242070516764 1:3 2:-1 3:1 4:2 5:25 6:0.375 7:3 8:9 9:3 10:0.1667 11:0.1667 12:0.4583 13:12 14:4 15:0.4082 16:0.1429 17:0.2041 18:0.2041 19:0.449 20:0.4545 21:2 22:0.0606 23:-1 24:35 
-0.06136925402262206 1:1 2:4 3:1 4:1 5:21 6:0.4286 7:1 8:5 9:2 10:0.2857 11:0.2381 12:0.2857 13:15 14:2 15:0.4203 16:0.1739 17:0.2174 18:0.2029 19:0.4058 20:0.3438 21:0 22:0.0435 23:0.5 24:25 
-0.008642539985554719 1:3 2:7 3:1 4:1 5:23 6:0.3913 7:2 8:2 9:2 10:0.1739 11:0.1739 12:0.4348 13:20 14:2 15:0.4304 16:0.1772 17:0.2152 18:0.2152 19:0.3924 20:0.2973 21:2.25 22:0.0556 23:0.6 24:20 
-0.452645421301749 1:1 2:-1 3:-1 4:0 5:23 6:0.3913 7:1 8:1 9:1 10:0.3043 11:0.2609 12:0.3043 13:22 14:3 15:0.3725 16:0.3137 17:0.1765 18:0.1961 19:0.3137 20:0 21:0.89 22:0 23:-1 24:21 
-0.3068916964414889 1:4 2:-1 3:-1 4:0 5:20 6:0.4286 7:1 8:3 9:1 10:0.2857 11:0.2381 12:0.2857 13:17 14:4 15:0.4146 16:0.2927 17:0.1951 18:0.2195 19:0.2927 20:0 21:0.27 22:0 23:-1 24:26 
-0.1723139698563776 1:3 2:-1 3:-1 4:0 5:23 6:0.45 7:1 8:3 9:1 10:0.25 11:0.3 12:0.3 13:20 14:1 15:0.4043 16:0.2979 17:0.1915 18:0.2128 19:0.2979 20:0 21:0.33 22:0 23:-1 24:23 
-0.1485621317171927 1:4 2:1 3:-1 4:0 5:21 6:0.3333 7:1 8:-1 9:0 10:0.2857 11:0.1429 12:0.381 13:21 14:4 15:0.3818 16:0.3091 17:0.1818 18:0.2 19:0.3091 20:0 21:1 22:0 23:0.25 24:19 
-0.2524778758783997 1:4 2:1 3:-1 4:0 5:21 6:0.4762 7:1 8:-1 9:0 10:0.2381 11:0.2381 12:0.2857 13:21 14:4 15:0.427 16:0.2809 17:0.2022 18:0.2247 19:0.2921 20:0 21:1.22 22:-1 23:0.0476 24:2 
-0.1998810322946306 1:3 2:1 3:1 4:2 5:23 6:0.3913 7:2 8:-1 9:0 10:0.2609 11:0.1739 12:0.3478 13:23 14:2 15:0.4 16:0.2923 17:0.1846 18:0.2154 19:0.3077 20:0 21:1.12 22:0.0833 23:0.1429 24:28 
-0.03032835869736462 1:1 2:-1 3:1 4:2 5:24 6:0.3636 7:1 8:3 9:1 10:0.3636 11:0.1364 12:0.2727 13:21 14:2 15:0.3878 16:0.3061 17:0.1837 18:0.2041 19:0.3061 20:0 21:3 22:0.0625 23:-1 24:36 
-0.2829424657481162 1:1 2:1 3:1 4:1 5:20 6:0.55 7:1 8:1 9:1 10:0.25 11:0.25 12:0.2 13:19 14:1 15:0.4316 16:0.2842 17:0.2 18:0.2316 19:0.2842 20:0.0227 21:0.7 22:0.1111 23:0.04 24:13 
-0.0670761942895252 1:4 2:-1 3:1 4:2 5:20 6:0.4 7:1 8:3 9:1 10:0.3 11:0.2 12:0.3 13:17 14:4 15:0.4146 16:0.2927 17:0.1951 18:0.2195 19:0.2927 20:0 21:3.67 22:0.0556 23:-1 24:40 
-0.03866626526175807 1:3 2:-1 3:1 4:2 5:26 6:0.375 7:1 8:3 9:1 10:0.3333 11:0.1667 12:0.2917 13:23 14:2 15:0.3962 16:0.3019 17:0.1887 18:0.2075 19:0.3019 20:0 21:3 22:0.0667 23:-1 24:34 
-0.01854300336092155 1:4 2:-1 3:1 4:2 5:21 6:0.4091 7:1 8:3 9:1 10:0.3182 11:0.2273 12:0.2727 13:18 14:2 15:0.3953 16:0.3023 17:0.186 18:0.2093 19:0.3023 20:0 21:0.3 22:0.0571 23:-1 24:39 
-0.05806220967431104 1:4 2:1 3:-1 4:0 5:21 6:0.4286 7:0 8:1 9:2 10:0.2381 11:0.2857 12:0.3333 13:19 14:4 15:0.4312 16:0.2752 17:0.2018 18:0.2294 19:0.2936 20:0.0392 21:1.12 22:0 23:0.0323 24:6 
-0.02674260945849652 1:3 2:1 3:1 4:2 5:21 6:0.3333 7:1 8:-1 9:0 10:0.3333 11:0.1429 12:0.3333 13:21 14:2 15:0.3962 16:0.3019 17:0.1887 18:0.2075 19:0.3019 20:0 21:1 22:0.0667 23:0.3333 24:34 
-0.00471817902926862 1:3 2:-1 3:1 4:2 5:25 6:0.4091 7:1 8:3 9:1 10:0.2727 11:0.2727 12:0.3182 13:22 14:3 15:0.3725 16:0.3137 17:0.1765 18:0.1961 19:0.3137 20:0 21:0.33 22:0.0645 23:-1 24:35 
-0.01946784888954204 1:3 2:-1 3:1 4:2 5:26 6:0.5 7:3 8:9 9:3 10:0.125 11:0.2917 12:0.375 13:13 14:2 15:0.4314 16:0.1373 17:0.2157 18:0.2157 19:0.4314 20:0.4348 21:0.45 22:0.0625 23:-1 24:34 
-0.2226870231070262 1:4 2:8 3:1 4:1 5:21 6:0.4762 7:1 8:1 9:2 10:0.2857 11:0.2857 12:0.2381 13:19 14:3 15:0.4286 16:0.1818 17:0.2208 18:0.2078 19:0.3896 20:0.3056 21:0.6 22:0.0526 23:0.625 24:21 
-0.3794671700088698 1:4 2:9 3:-1 4:0 5:20 6:0.4 7:1 8:1 9:2 10:0.3 11:0.25 12:0.3 13:18 14:4 15:0.4359 16:0.2137 17:0.2137 18:0.2222 19:0.3504 20:0.2321 21:1.29 22:-1 23:0.3243 24:1 
-0.05015564590684172 1:4 2:2 3:1 4:2 5:20 6:0.35 7:2 8:9 9:1 10:0.15 11:0.15 12:0.5 13:11 14:2 15:0.4364 16:0.1455 17:0.2182 18:0.2182 19:0.4182 20:0.4 21:2.2 22:0.0667 23:0.4286 24:32 
-0.4651846816936319 1:1 2:9 3:-1 4:0 5:21 6:0.4762 7:1 8:1 9:2 10:0.2857 11:0.2381 12:0.2381 13:19 14:2 15:0.4476 16:0.2 17:0.219 18:0.2286 19:0.3524 20:0.24 21:1 22:0 23:0.3667 24:7 
-0.2421606347004033 1:2 2:9 3:-1 4:0 5:22 6:0.4545 7:1 8:1 9:2 10:0.2273 11:0.2727 12:0.3182 13:20 14:4 15:0.4414 16:0.2072 17:0.2162 18:0.2252 19:0.3514 20:0.2264 21:1.14 22:0 23:0.3438 24:4 
-0.1452287600520124 1:4 2:9 3:-1 4:0 5:23 6:0.4783 7:1 8:1 9:2 10:0.2609 11:0.2609 12:0.2609 13:21 14:1 15:0.4579 16:0.1963 17:0.2243 18:0.2336 19:0.3458 20:0.2353 21:0.88 22:0 23:0.3793 24:6 
-0.3002540179842277 1:3 2:9 3:-1 4:0 5:21 6:0.4286 7:1 8:1 9:1 10:0.2381 11:0.2857 12:0.3333 13:20 14:4 15:0.4414 16:0.2072 17:0.2162 18:0.2252 19:0.3514 20:0.2264 21:1.43 22:0 23:0.3636 24:4 
-0.05465749914036419 1:2 2:2 3:1 4:1 5:25 6:0.4348 7:1 8:9 9:2 10:0.2609 11:0.2174 12:0.3043 13:15 14:2 15:0.4203 16:0.1739 17:0.2174 18:0.2029 19:0.4058 20:0.3438 21:0 22:0.0435 23:0.3333 24:25 
-0.02414228615805293 1:2 2:2 3:1 4:2 5:22 6:0.4 7:1 8:9 9:1 10:0.25 11:0.25 12:0.35 13:13 14:4 15:0.4127 16:0.1746 17:0.2063 18:0.2063 19:0.4127 20:0.3448 21:0 22:0.0769 23:0.3333 24:28 
-0.01618944056279266 1:3 2:1 3:1 4:2 5:22 6:0.5 7:2 8:9 9:2 10:0.15 11:0.25 12:0.35 13:11 14:2 15:0.4082 16:0.1429 17:0.2041 18:0.2041 19:0.449 20:0.4545 21:0.8 22:0.0606 23:0.5 24:35 
-0.05048519339486246 1:1 2:2 3:1 4:2 5:23 6:0.3043 7:2 8:9 9:1 10:0.2174 11:0.087 12:0.4783 13:14 14:2 15:0.4127 16:0.1746 17:0.2063 18:0.2063 19:0.4127 20:0.3448 21:4.5 22:0.0769 23:0.375 24:28 
-0.01752769765665121 1:4 2:3 3:5 4:1 5:24 6:0.5833 7:1 8:4 9:5 10:0.125 11:0.2917 12:0.2917 13:13 14:4 15:0.4483 16:0.2069 17:0.2414 18:0.2069 19:0.3448 20:0.35 21:0 22:0.3913 23:0.2353 24:14 
-0.149752752716259 1:3 2:1 3:5 4:4 5:22 6:0.3636 7:3 8:3 9:3 10:0.2727 11:0.1818 12:0.3636 13:15 14:1 15:0.4286 16:0.2381 17:0.2063 18:0.2222 19:0.3333 20:0.25 21:1 22:0.4894 23:0.2 24:26 
-0.3921383665654105 1:3 2:3 3:-1 4:0 5:24 6:0.4167 7:1 8:5 9:4 10:0.25 11:0.0833 12:0.3333 13:12 14:3 15:0.4057 16:0.2547 17:0.2264 18:0.1792 19:0.3396 20:0.3737 21:1.75 22:0 23:0.2963 24:4 
-0.1510965871004585 1:4 2:3 3:5 4:2 5:22 6:0.4091 7:2 8:3 9:4 10:0.1364 11:0.1364 12:0.4545 13:15 14:3 15:0.4675 16:0.2208 17:0.2468 18:0.2208 19:0.3117 20:0.2857 21:0.67 22:0.5152 23:0.2857 24:19 
-0.1160908445100715 1:4 2:3 3:5 4:1 5:21 6:0.5714 7:1 8:4 9:4 10:0.0952 11:0.2857 12:0.3333 13:11 14:2 15:0.4483 16:0.2069 17:0.2414 18:0.2069 19:0.3448 20:0.35 21:0 22:0.3913 23:0.25 24:14 
-0.01217478072720677 1:4 2:3 3:5 4:1 5:20 6:0.55 7:1 8:4 9:4 10:0.1 11:0.25 12:0.35 13:10 14:1 15:0.4505 16:0.2088 17:0.2418 18:0.2088 19:0.3407 20:0.3333 21:1.67 22:0.4737 23:0.2174 24:12 
-0.2336405100432346 1:3 2:-1 3:5 4:5 5:25 6:0.5217 7:1 8:3 9:3 10:0.3043 11:0.3043 12:0.1739 13:18 14:2 15:0.6078 16:0.1765 17:0.2941 18:0.3137 19:0.2157 20:0.234 21:0.91 22:0.3818 23:-1 24:34 
-0.03538455383878116 1:2 2:2 3:5 4:1 5:28 6:0.6522 7:2 8:5 9:5 10:0 11:0.4783 12:0.3478 13:18 14:2 15:0.6471 16:0.1176 17:0.2941 18:0.3529 19:0.2353 20:0.284 21:1.57 22:0.4286 23:0.2903 24:14 
-0.009498706173605785 1:4 2:-1 3:5 4:4 5:27 6:0.7391 7:1 8:4 9:5 10:0.0435 11:0.4348 12:0.2174 13:15 14:1 15:0.6129 16:0.1452 17:0.2742 18:0.3387 19:0.2419 20:0.3103 21:1.2 22:0.3182 23:0 24:27 
-0.01186605802336967 1:3 2:-1 3:5 4:4 5:22 6:0.55 7:1 8:3 9:4 10:0.2 11:0.3 12:0.25 13:14 14:3 15:0.6111 16:0.1667 17:0.2963 18:0.3148 19:0.2222 20:0.24 21:1 22:0.3846 23:0 24:32 
-0.04322012808631483 1:3 2:-1 3:5 4:5 5:21 6:0.6667 7:1 8:3 9:4 10:0.0952 11:0.3333 12:0.2381 13:13 14:-1 15:0.6098 16:0.1707 17:0.2927 18:0.3171 19:0.2195 20:0.2973 21:0.62 22:0.3231 23:-1 24:39 
-0.01727007603128104 1:2 2:2 3:5 4:3 5:21 6:0.55 7:1 8:5 9:3 10:0.15 11:0.2 12:0.3 13:12 14:3 15:0.6176 16:0.1324 17:0.2794 18:0.3382 19:0.25 20:0.3125 21:1 22:0.3158 23:0.2308 24:23 
-0.02543409832204623 1:3 2:2 3:-1 4:0 5:24 6:0.5714 7:4 8:6 9:3 10:0.2381 11:0.2857 12:0.1905 13:15 14:1 15:0.6235 16:0.1176 17:0.2706 18:0.3529 19:0.2588 20:0.1948 21:1.1 22:0 23:0.1579 24:9 
-0.08633689118637841 1:3 2:-1 3:6 4:2 5:22 6:0.65 7:2 8:2 9:4 10:0.15 11:0.25 12:0.2 13:17 14:4 15:0.7059 16:0.0588 17:0.3137 18:0.3922 19:0.2353 20:0.1628 21:1.09 22:0.1905 23:0 24:30 
-0.283746039385967 1:3 2:2 3:-1 4:0 5:23 6:0.6 7:4 8:6 9:3 10:0.2 11:0.3 12:0.2 13:14 14:4 15:0.6386 16:0.1084 17:0.2771 18:0.3614 19:0.253 20:0.2 21:1.1 22:0 23:0.1579 24:10 
-0.05214789734894831 1:1 2:2 3:-1 4:0 5:30 6:0.5417 7:4 8:6 9:4 10:0.125 11:0.3333 12:0.3333 13:20 14:1 15:0.6092 16:0.1264 17:0.2644 18:0.3448 19:0.2644 20:0.1899 21:1 22:0 23:0.1724 24:8 
-0.8282032347090207 1:4 2:2 3:-1 4:0 5:22 6:0.6 7:3 8:6 9:2 10:0.2 11:0.3 12:0.2 13:14 14:3 15:0.6344 16:0.1183 17:0.2796 18:0.3548 19:0.2473 20:0.1765 21:0.91 22:-1 23:0.1429 24:5 
-0.02930757833456364 1:1 2:-1 3:2 4:3 5:23 6:0.4762 7:0 8:2 9:6 10:0.2381 11:0.2381 12:0.2857 13:15 14:2 15:0.5417 16:0.2292 17:0.2917 18:0.25 19:0.2292 20:0.25 21:0.8 22:0.1556 23:-1 24:26 
-0.3298613087528048 1:3 2:2 3:2 4:1 5:22 6:0.4545 7:2 8:2 9:5 10:0.2727 11:0.2273 12:0.2727 13:15 14:4 15:0.5 16:0.2571 17:0.2429 18:0.2571 19:0.2429 20:0.2258 21:0.83 22:0.1304 23:0.25 24:14 
-0.9310712489852091 1:4 2:2 3:2 4:2 5:21 6:0.381 7:2 8:2 9:4 10:0.3333 11:0.1905 12:0.2857 13:16 14:2 15:0.4923 16:0.2462 17:0.2462 18:0.2462 19:0.2615 20:0.193 21:1 22:0.2143 23:0.3 24:17 
-0.05887993633436693 1:4 2:-1 3:7 4:1 5:23 6:0.2857 7:2 8:2 9:5 10:0.4286 11:0.2857 12:0.2857 13:15 14:2 15:0.2759 16:0.2759 17:0.1207 18:0.1552 19:0.4483 20:0.2222 21:0.8 22:0.3 23:0 24:30 
-0.0804989802633851 1:3 2:-1 3:7 4:3 5:21 6:0.2857 7:2 8:2 9:3 10:0.4286 11:0.2857 12:0.2857 13:17 14:1 15:0.2609 16:0.3043 17:0.1304 18:0.1304 19:0.4348 20:0.1429 21:0.89 22:0.3462 23:0 24:37 
-0.03296994778367433 1:2 2:2 3:-1 4:0 5:26 6:0.3043 7:3 8:7 9:4 10:0.1304 11:0.087 12:0.5652 13:14 14:3 15:0.3375 16:0.2625 17:0.15 18:0.1875 19:0.4 20:0.3158 21:4.5 22:0 23:0.1724 24:18 
-0.04739643824085262 1:4 2:2 3:-1 4:0 5:22 6:0.3 7:2 8:7 9:3 10:0.1 11:0.1 12:0.6 13:11 14:3 15:0.3375 16:0.2625 17:0.15 18:0.1875 19:0.4 20:0.3158 21:4.5 22:0 23:0.1667 24:18 
-0.01350706610985555 1:1 2:-1 3:7 4:3 5:21 6:0.2381 7:1 8:2 9:3 10:0.4286 11:0.2381 12:0.3333 13:17 14:1 15:0.25 16:0.3182 17:0.1364 18:0.1136 19:0.4318 20:0.15 21:1 22:0.3333 23:-1 24:38 
-0.01669655959233565 1:1 2:2 3:-1 4:0 5:22 6:0.5 7:2 8:7 9:3 10:0.35 11:0.4 12:0.15 13:11 14:4 15:0.3375 16:0.2625 17:0.15 18:0.1875 19:0.4 20:0.3158 21:0.22 22:0 23:0.1667 24:18 
-0.1865517328003901 1:1 2:-1 3:7 4:1 5:25 6:0.2609 7:3 8:2 9:5 10:0.4348 11:0.2609 12:0.3043 13:17 14:2 15:0.2742 16:0.2742 17:0.1129 18:0.1613 19:0.4516 20:0.2069 21:0.8 22:0.3333 23:0 24:28 
-0.05110802580206461 1:3 2:2 3:5 4:1 5:24 6:0.3636 7:3 8:2 9:5 10:0.3636 11:0.3636 12:0.2727 13:16 14:4 15:0.3235 16:0.2647 17:0.1324 18:0.1912 19:0.4118 20:0.2188 21:1 22:0.3333 23:0.1818 24:24 
-0.3357525575819834 1:4 2:5 3:-1 4:0 5:23 6:0.2857 7:3 8:4 9:4 10:0.1905 11:0 12:0.5238 13:15 14:4 15:0.3165 16:0.3544 17:0.1646 18:0.1519 19:0.3291 20:0.3158 21:2.67 22:0 23:0.3714 24:8 
-0.1180176966496832 1:4 2:5 3:-1 4:0 5:22 6:0.35 7:1 8:4 9:4 10:0.2 11:0 12:0.45 13:14 14:1 15:0.3151 16:0.3699 17:0.1781 18:0.137 19:0.3151 20:0.3429 21:0.75 22:0 23:0.4194 24:11 
-0.1298627159555706 1:4 2:1 3:1 4:2 5:21 6:0.5 7:1 8:5 9:3 10:0.2 11:0 12:0.3 13:10 14:1 15:0.3571 16:0.375 17:0.1964 18:0.1607 19:0.2679 20:0.3962 21:0.83 22:0.0857 23:0.2 24:20 
-0.01900778020727389 1:1 2:5 3:-1 4:0 5:24 6:0.3043 7:2 8:4 9:4 10:0.4348 11:0.3043 12:0.2609 13:16 14:1 15:0.32 16:0.36 17:0.1733 18:0.1467 19:0.32 20:0.3333 21:1.67 22:0 23:0.4483 24:10 
-0.4530466684331813 1:3 2:2 3:4 4:5 5:22 6:0.6818 7:3 8:3 9:3 10:0.0909 11:0.3182 12:0.2273 13:15 14:3 15:0.5926 16:0.1852 17:0.2593 18:0.3333 19:0.2222 20:0.3333 21:1.29 22:0.3818 23:0.6 24:33 
-0.007926570268918699 1:3 2:2 3:4 4:4 5:24 6:0.6087 7:3 8:3 9:4 10:0.2609 11:0.3913 12:0.1304 13:16 14:4 15:0.5862 16:0.1724 17:0.2586 18:0.3276 19:0.2414 20:0.3455 21:0.89 22:0.3725 23:0.6 24:31 
-0.03552257865525134 1:1 2:3 3:-1 4:0 5:24 6:0.4348 7:2 8:4 9:4 10:0.3913 11:0.2609 12:0.1739 13:13 14:3 15:0.5664 16:0.1947 17:0.2301 18:0.3363 19:0.2389 20:0.3818 21:0.8 22:-1 23:0.3731 24:2 
