svm_type c_svc
kernel_type rbf
gamma 0.0434783
nr_class 2
total_sv 801
rho 0.738285
label 1 0
probA -4.46736
probB -0.0145797
nr_sv 163 638
SV
1 1:9 2:3 3:24 4:23 5:0.4348 6:2 7:2 8:0.2174 9:0.3478 10:0.087 11:0.3478 12:66 13:0.1304 14:1 15:0.4941 16:85 17:0.2118 18:0.1765 19:0.3176 20:0.2941 21:0.1951 22:1 23:0.3158 
1 1:9 2:3 3:22 4:22 5:0.3636 6:2 7:2 8:0.1818 9:0 10:0.3636 11:0.4545 12:7 13:0.1364 14:3 15:0.4557 16:79 17:0.2278 18:0.1519 19:0.3038 20:0.3165 21:0.2105 22:0.56 23:0.3529 
1 1:5 2:2 3:14 4:22 5:0.3636 6:3 7:2 8:0.2273 9:0 10:0.3636 11:0.4091 12:14 13:0.2093 14:4 15:0.4286 16:70 17:0.2286 18:0.1571 19:0.2714 20:0.3429 21:0.2812 22:0.33 23:0.4286 
1 1:9 2:2 3:18 4:22 5:0.3636 6:1 7:2 8:0.2727 9:0 10:0.3636 11:0.3636 12:8 13:0.0698 14:4 15:0.3974 16:78 17:0.2436 18:0.141 19:0.2564 20:0.359 21:0.1884 22:0.78 23:0.4286 
1 1:2 2:3 3:6 4:22 5:0.5 6:2 7:3 8:0.2727 9:0.2727 10:0.2273 11:0.2273 12:17 13:0.1818 14:3 15:0.5357 16:56 17:0.1964 18:0.2321 19:0.3036 20:0.2679 21:0.2453 22:0.8 23:0.6364 
0.1428514738986096 1:2 2:3 3:7 4:22 5:0.5455 6:2 7:3 8:0.1818 9:0.2727 10:0.2727 11:0.2727 12:52 13:0.1818 14:2 15:0.5172 16:58 17:0.2069 18:0.2241 19:0.2931 20:0.2759 21:0.2364 22:1.29 23:0.5385 
0.04949324820370971 1:3 2:1 3:6 4:22 5:0.5 6:2 7:5 8:0.2727 9:0.2273 10:0.2727 11:0.2273 12:17 13:0.3636 14:1 15:0.5574 16:61 17:0.2295 18:0.2131 19:0.3443 20:0.2131 21:0.3818 22:1.6 23:0.4545 
0.5658123220540389 1:-1 2:0 3:0 4:22 5:0.5909 6:2 7:1 8:0.2273 9:0.2727 10:0.3182 11:0.1818 12:15 13:0.0909 14:2 15:0.5357 16:56 17:0.2679 18:0.3036 19:0.2321 20:0.1964 21:0.0909 22:1 23:-1 
1 1:-1 2:0 3:2 4:25 5:0.5652 6:1 7:4 8:0.2609 9:0.2174 10:0.3478 11:0.1739 12:53 13:0.1064 14:4 15:0.5373 16:67 17:0.1791 18:0.2687 19:0.2687 20:0.2836 21:0.098 22:1.43 23:0 
1 1:-1 2:0 3:0 4:23 5:0.4783 6:2 7:3 8:0.1304 9:0.2609 10:0.2174 11:0.3913 12:12 13:0.1364 14:4 15:0.4815 16:54 17:0.2222 18:0.2593 19:0.2222 20:0.2963 21:0.1364 22:1.1 23:-1 
1 1:-1 2:0 3:2 4:25 5:0.4783 6:2 7:4 8:0.3043 9:0.1739 10:0.3043 11:0.2174 12:47 13:0.1739 14:2 15:0.4667 16:60 17:0.2333 18:0.25 19:0.2167 20:0.3 21:0.16 22:1.4 23:0 
0.04249853260059872 1:1 2:1 3:2 4:22 5:0.5455 6:2 7:4 8:0.1818 9:0.2727 10:0.2727 11:0.2727 12:12 13:0.2727 14:1 15:0.4912 16:57 17:0.2456 18:0.2281 19:0.2632 20:0.2632 21:0.2609 22:0.38 23:0.5 
1 1:3 2:1 3:5 4:22 5:0.5 6:2 7:3 8:0.2273 9:0.3182 10:0.1818 11:0.2727 12:17 13:0.1628 14:3 15:0.5357 16:56 17:0.1429 18:0.25 19:0.2857 20:0.3214 21:0.2308 22:1.1 23:0.5556 
0.6120335275055996 1:3 2:1 3:7 4:22 5:0.5238 6:2 7:4 8:0.1905 9:0.1905 10:0.3333 11:0.2857 12:54 13:0.2381 14:3 15:0.5254 16:59 17:0.1695 18:0.2542 19:0.2712 20:0.3051 21:0.2727 22:1 23:0.3846 
1 1:3 2:1 3:6 4:22 5:0.4545 6:6 7:2 8:0.2727 9:0.1818 10:0.2727 11:0.2727 12:45 13:0.3182 14:2 15:0.6167 16:60 17:0.1333 18:0.3167 19:0.3 20:0.25 21:0.3333 22:0.73 23:0.4 
0.3315805487568061 1:3 2:1 3:8 4:23 5:0.3478 6:1 7:3 8:0.4348 9:0.1304 10:0.2174 11:0.2174 12:54 13:0.1111 14:1 15:0.4308 16:65 17:0.2462 18:0.1846 19:0.2462 20:0.3231 21:0.1803 22:0.88 23:0.375 
0.7235841727338257 1:1 2:2 3:8 4:23 5:0.4348 6:2 7:5 8:0.3913 9:0.2174 10:0.2174 11:0.1739 12:48 13:0.3333 14:2 15:0.4444 16:63 17:0.2381 18:0.2063 19:0.2381 20:0.3175 21:0.2759 22:1.17 23:0.2 
0.4404241559253507 1:4 2:1 3:8 4:22 5:0.5909 6:2 7:2 8:0.1364 9:0.2273 10:0.3636 11:0.2727 12:19 13:0.1364 14:3 15:0.5667 16:60 17:0.2333 18:0.25 19:0.3167 20:0.2 21:0.1786 22:1 23:0.3333 
0.8059610247332804 1:4 2:1 3:11 4:21 5:0.4762 6:2 7:3 8:0.3333 9:0.2857 10:0.1905 11:0.1905 12:60 13:0.2381 14:3 15:0.5781 16:64 17:0.2344 18:0.2656 19:0.3125 20:0.1875 21:0.2333 22:1.17 23:0.2222 
0.5747671214788281 1:1 2:2 3:6 4:26 5:0.3478 6:3 7:2 8:0.1739 9:0.1739 10:0.1739 11:0.4783 12:12 13:0.1667 14:2 15:0.4844 16:64 17:0.2344 18:0.2188 19:0.2656 20:0.2812 21:0.1579 22:1 23:0.2727 
1 1:-1 2:0 3:3 4:24 5:0.5652 6:3 7:5 8:0.1739 9:0.1739 10:0.3913 11:0.2609 12:9 13:0.2889 14:2 15:0.6 16:65 17:0.2 18:0.2769 19:0.3231 20:0.2 21:0.2549 22:0.42 23:0 
0.9345109017488634 1:2 2:1 3:4 4:22 5:0.4545 6:1 7:3 8:0.3182 9:0.2273 10:0.2273 11:0.2273 12:44 13:0.1364 14:2 15:0.5333 16:60 17:0.1833 18:0.1833 19:0.35 20:0.2833 21:0.1923 22:0.73 23:0.5 
1 1:1 2:1 3:2 4:21 5:0.5714 6:1 7:4 8:0.0952 9:0.2381 10:0.3333 11:0.3333 12:9 13:0.1905 14:1 15:0.5 16:54 17:0.2037 18:0.1667 19:0.3333 20:0.2963 21:0.2174 22:1.17 23:0.5 
1 1:-1 2:0 3:3 4:25 5:0.2727 6:4 7:3 8:0.4091 9:0.1364 10:0.1364 11:0.3182 12:12 13:0.1739 14:2 15:0.3214 16:56 17:0.3571 18:0.1607 19:0.1607 20:0.3214 21:0.1538 22:1.17 23:0 
0.05373940314535094 1:4 2:1 3:8 4:23 5:0.3636 6:1 7:2 8:0.2727 9:0.1364 10:0.2273 11:0.3636 12:49 13:0.0667 14:4 15:0.3548 16:62 17:0.3387 18:0.1774 19:0.1774 20:0.3065 21:0.1379 22:0.82 23:0.3846 
0.09144860564364518 1:2 2:1 3:6 4:24 5:0.5217 6:2 7:3 8:0.087 9:0.3043 10:0.2174 11:0.3913 12:45 13:0.1489 14:2 15:0.5238 16:63 17:0.2063 18:0.254 19:0.2698 20:0.2698 21:0.1864 22:1.22 23:0.3333 
1 1:3 2:1 3:10 4:25 5:0.5217 6:4 7:4 8:0.1304 9:0.2174 10:0.3043 11:0.3478 12:54 13:0.25 14:1 15:0.5072 16:69 17:0.1884 18:0.2319 19:0.2754 20:0.3043 21:0.2308 22:0.71 23:0.1765 
0.6934710191057788 1:3 2:1 3:7 4:23 5:0.381 6:4 7:2 8:0.381 9:0.1905 10:0.1905 11:0.2381 12:55 13:0.2273 14:2 15:0.459 16:61 17:0.2787 18:0.1803 19:0.2787 20:0.2623 21:0.2632 22:1.11 23:0.3846 
1 1:2 2:2 3:7 4:24 5:0.3333 6:2 7:2 8:0.375 9:0.1667 10:0.1667 11:0.2917 12:49 13:0.087 14:3 15:0.4545 16:66 17:0.2424 18:0.2727 19:0.1818 20:0.303 21:0.1228 22:1.67 23:0.3846 
0.3424441354375856 1:2 2:2 3:8 4:23 5:0.4091 6:2 7:3 8:0.2727 9:0.1364 10:0.2727 11:0.3182 12:8 13:0.2 14:3 15:0.4918 16:61 17:0.2131 18:0.1803 19:0.3115 20:0.2951 21:0.2069 22:0.67 23:0.3333 
0.1510151251582803 1:1 2:2 3:6 4:24 5:0.5217 6:1 7:2 8:0.087 9:0.2609 10:0.2609 11:0.3913 12:47 13:0.0638 14:1 15:0.4921 16:63 17:0.2063 18:0.2222 19:0.2698 20:0.3016 21:0.0714 22:1.25 23:0.2727 
0.7989106002586411 1:2 2:1 3:7 4:23 5:0.5909 6:1 7:2 8:0.3182 9:0.2727 10:0.3182 11:0.0909 12:52 13:0.0667 14:2 15:0.5692 16:65 17:0.2 18:0.2769 19:0.2923 20:0.2308 21:0.1186 22:1.1 23:0.2857 
1 1:3 2:1 3:8 4:25 5:0.5455 6:3 7:4 8:0.2273 9:0.3636 10:0.1818 11:0.2273 12:52 13:0.234 14:1 15:0.4776 16:67 17:0.209 18:0.2836 19:0.194 20:0.3134 21:0.2459 22:5 23:0.2857 
1 1:3 2:1 3:8 4:23 5:0.4783 6:2 7:4 8:0.2609 9:0.2174 10:0.2609 11:0.2609 12:9 13:0.1628 14:1 15:0.4603 16:63 17:0.2222 18:0.2698 19:0.1905 20:0.3175 21:0.193 22:0.88 23:0.2857 
0.3597954024847647 1:3 2:2 3:9 4:23 5:0.5 6:3 7:3 8:0.2727 9:0.0909 10:0.4091 11:0.2273 12:54 13:0.2 14:2 15:0.5 16:66 17:0.1818 18:0.2727 19:0.2273 20:0.3182 21:0.2203 22:3.33 23:0.375 
1 1:-1 2:0 3:1 4:25 5:0.4348 6:3 7:5 8:0.3043 9:0.1304 10:0.3043 11:0.2609 12:18 13:0.2766 14:3 15:0.4603 16:63 17:0.2063 18:0.2381 19:0.2222 20:0.3333 21:0.2653 22:1 23:0 
1 1:-1 2:0 3:2 4:23 5:0.4091 6:2 7:5 8:0.1364 9:0.2727 10:0.1364 11:0.4545 12:58 13:0.2558 14:4 15:0.459 16:61 17:0.2131 18:0.2295 19:0.2295 20:0.3279 21:0.234 22:2.25 23:0 
0.3110785158243212 1:3 2:2 3:6 4:25 5:0.3913 6:3 7:5 8:0.3478 9:0.087 10:0.3043 11:0.2609 12:12 13:0.2766 14:4 15:0.4444 16:63 17:0.2063 18:0.2063 19:0.2381 20:0.3492 21:0.3214 22:1 23:0.6364 
0.6040686225337546 1:2 2:1 3:6 4:23 5:0.6364 6:2 7:5 8:0.2273 9:0.4091 10:0.2273 11:0.1364 12:45 13:0.2889 14:4 15:0.6935 16:62 17:0.1774 18:0.3871 19:0.3065 20:0.129 21:0.2857 22:0.56 23:0.2727 
1 1:-1 2:0 3:2 4:23 5:0.4348 6:2 7:4 8:0.3043 9:0.2174 10:0.2174 11:0.2609 12:17 13:0.2 14:2 15:0.4727 16:55 17:0.2182 18:0.2545 19:0.2182 20:0.3091 21:0.1837 22:0.88 23:0 
0.3026220891817873 1:-1 2:0 3:0 4:22 5:0.4091 6:2 7:2 8:0.1364 9:0.0455 10:0.3636 11:0.4545 12:11 13:0.1818 14:3 15:0.5 16:60 17:0.2167 18:0.2167 19:0.2833 20:0.2833 21:0.1818 22:0.6 23:-1 
0.3108197994803644 1:-1 2:0 3:2 4:22 5:0.5909 6:2 7:2 8:0.3636 9:0.3182 10:0.2727 11:0.0455 12:51 13:0.1818 14:3 15:0.5 16:64 17:0.2188 18:0.2188 19:0.2812 20:0.2812 21:0.1667 22:2 23:0 
1 1:-1 2:0 3:2 4:23 5:0.5217 6:1 7:4 8:0.1739 9:0.3478 10:0.1739 11:0.3043 12:7 13:0.1556 14:4 15:0.4576 16:59 17:0.2203 18:0.2034 19:0.2542 20:0.322 21:0.1429 22:1 23:0 
1 1:2 2:3 3:9 4:22 5:0.4286 6:3 7:3 8:0.2381 9:0.1905 10:0.2381 11:0.3333 12:49 13:0.2558 14:2 15:0.4531 16:64 17:0.25 18:0.2344 19:0.2188 20:0.2969 21:0.2881 22:2 23:0.4444 
0.5309860613536619 1:-1 2:0 3:0 4:25 5:0.4783 6:3 7:2 8:0.087 9:0.1739 10:0.3043 11:0.4348 12:16 13:0.1304 14:4 15:0.4138 16:58 17:0.2414 18:0.1897 19:0.2241 20:0.3448 21:0.1304 22:0.82 23:-1 
0.9580584941323849 1:-1 2:0 3:2 4:27 5:0.3913 6:3 7:3 8:0.3913 9:0.2174 10:0.1739 11:0.2174 12:53 13:0.2083 14:2 15:0.4375 16:64 17:0.2344 18:0.2031 19:0.2344 20:0.3281 21:0.1923 22:1 23:0 
0.9794773538485663 1:6 2:1 3:10 4:23 5:0.3636 6:3 7:2 8:0.3636 9:0 10:0.3636 11:0.2727 12:49 13:0.1556 14:1 15:0.4844 16:64 17:0.2656 18:0.1719 19:0.3125 20:0.25 21:0.2333 22:1 23:0.4667 
1 1:6 2:1 3:9 4:22 5:0.3182 6:2 7:4 8:0.2273 9:0.1818 10:0.1364 11:0.4545 12:18 13:0.1905 14:4 15:0.3621 16:58 17:0.3103 18:0.1207 19:0.2414 20:0.3276 21:0.2593 22:1.29 23:0.5 
0.6916447224119059 1:7 2:1 3:11 4:23 5:0.3182 6:2 7:4 8:0.4091 9:0.0455 10:0.2727 11:0.2727 12:57 13:0.2 14:3 15:0.375 16:64 17:0.3125 18:0.1406 19:0.2344 20:0.3125 21:0.2667 22:1.25 23:0.4667 
0.1673491026216162 1:1 2:1 3:6 4:22 5:0.4091 6:3 7:3 8:0.2727 9:0.2273 10:0.1818 11:0.3182 12:17 13:0.2093 14:4 15:0.3793 16:58 17:0.2759 18:0.1552 19:0.2241 20:0.3448 21:0.1852 22:1.43 23:0.0909 
0.3011794171044013 1:1 2:1 3:7 4:23 5:0.4091 6:2 7:4 8:0.2727 9:0.1364 10:0.2727 11:0.3182 12:55 13:0.2 14:4 15:0.4032 16:62 17:0.2742 18:0.1935 19:0.2097 20:0.3226 21:0.1724 22:2 23:0.0769 
0.2732058882537166 1:-1 2:0 3:3 4:23 5:0.5 6:2 7:3 8:0.2727 9:0.0909 10:0.4091 11:0.2273 12:47 13:0.1556 14:1 15:0.5246 16:61 17:0.2295 18:0.2459 19:0.2787 20:0.2459 21:0.1373 22:3 23:0 
1 1:4 2:1 3:6 4:23 5:0.5652 6:2 7:3 8:0.1304 9:0.3913 10:0.1739 11:0.3043 12:4 13:0.1739 14:3 15:0.5806 16:62 17:0.2097 18:0.3226 19:0.2581 20:0.2097 21:0.2759 22:0.62 23:0.6667 
0.570696570204146 1:-1 2:0 3:3 4:25 5:0.4348 6:3 7:4 8:0.3043 9:0.1304 10:0.3043 11:0.2609 12:16 13:0.1915 14:3 15:0.386 16:57 17:0.2456 18:0.1579 19:0.2281 20:0.3684 21:0.1698 22:0.57 23:0 
1 1:1 2:1 3:5 4:26 5:0.4783 6:3 7:4 8:0.3043 9:0.1304 10:0.3478 11:0.2174 12:18 13:0.2083 14:1 15:0.5082 16:61 17:0.2295 18:0.2295 19:0.2787 20:0.2623 21:0.193 22:0.57 23:0.1111 
1 1:1 2:2 3:5 4:23 5:0.5909 6:2 7:3 8:0.2273 9:0.1818 10:0.4091 11:0.1818 12:55 13:0.1556 14:3 15:0.5735 16:68 17:0.1912 18:0.2353 19:0.3382 20:0.2353 21:0.1698 22:1.11 23:0.4 
0.5088954621684094 1:1 2:1 3:5 4:25 5:0.4783 6:3 7:5 8:0.3043 9:0.2174 10:0.2609 11:0.2174 12:16 13:0.25 14:4 15:0.4746 16:59 17:0.2881 18:0.2034 19:0.2712 20:0.2373 21:0.2143 22:0.6 23:0.2 
0.0417465157099169 1:1 2:1 3:5 4:23 5:0.4348 6:1 7:4 8:0.3043 9:0.1739 10:0.2609 11:0.2609 12:10 13:0.1364 14:3 15:0.4035 16:57 17:0.2632 18:0.1579 19:0.2456 20:0.3333 21:0.1154 22:1 23:0.2 
1 1:1 2:2 3:6 4:26 5:0.5 6:4 7:3 8:0.1364 9:0.2273 10:0.2727 11:0.3636 12:51 13:0.2083 14:4 15:0.5312 16:64 17:0.2344 18:0.2344 19:0.2969 20:0.2344 21:0.193 22:1 23:0.2727 
0.8714738127447867 1:3 2:1 3:7 4:24 5:0.5217 6:3 7:3 8:0.2609 9:0.3043 10:0.2174 11:0.2174 12:17 13:0.2273 14:2 15:0.5333 16:60 17:0.2333 18:0.3 19:0.2333 20:0.2333 21:0.25 22:2 23:0.3333 
1 1:1 2:1 3:5 4:24 5:0.6087 6:1 7:4 8:0.1304 9:0.3478 10:0.2609 11:0.2609 12:19 13:0.1304 14:1 15:0.5902 16:61 17:0.1967 18:0.2787 19:0.3115 20:0.2131 21:0.1273 22:1.33 23:0.1111 
1 1:4 2:2 3:12 4:24 5:0.5 6:3 7:5 8:0.3182 9:0.1818 10:0.3182 11:0.1818 12:53 13:0.2558 14:3 15:0.5672 16:67 17:0.194 18:0.3134 19:0.2537 20:0.2388 21:0.2698 22:3.33 23:0.3 
1 1:4 2:2 3:10 4:26 5:0.6087 6:3 7:5 8:0.1304 9:0.3913 10:0.2174 11:0.2609 12:8 13:0.234 14:2 15:0.5672 16:67 17:0.194 18:0.3134 19:0.2537 20:0.2388 21:0.2698 22:1 23:0.375 
1 1:4 2:1 3:9 4:23 5:0.5217 6:3 7:2 8:0.2609 9:0.3043 10:0.2174 11:0.2174 12:50 13:0.2 14:1 15:0.5 16:66 17:0.2576 18:0.197 19:0.303 20:0.2424 21:0.2333 22:0.82 23:0.3333 
1 1:4 2:1 3:7 4:24 5:0.5652 6:3 7:2 8:0.087 9:0.1739 10:0.3913 11:0.3478 12:8 13:0.1915 14:1 15:0.4844 16:64 17:0.2656 18:0.1875 19:0.2969 20:0.25 21:0.2414 22:1 23:0.4545 
1 1:1 2:1 3:5 4:23 5:0.6522 6:1 7:4 8:0.2174 9:0.2174 10:0.4348 11:0.1304 12:19 13:0.1364 14:4 15:0.5789 16:57 17:0.193 18:0.2632 19:0.3158 20:0.2281 21:0.1321 22:1 23:0.1111 
1 1:2 2:3 3:11 4:22 5:0.5455 6:3 7:1 8:0.0909 9:0.3636 10:0.1818 11:0.3636 12:55 13:0.1364 14:4 15:0.5846 16:65 17:0.1692 18:0.3077 19:0.2769 20:0.2462 21:0.1613 22:1 23:0.3 
0.9729046799773751 1:2 2:3 3:7 4:22 5:0.5455 6:3 7:3 8:0.0455 9:0.3636 10:0.1818 11:0.4091 12:55 13:0.2273 14:2 15:0.5 16:60 17:0.15 18:0.2333 19:0.2667 20:0.35 21:0.2727 22:4 23:0.5385 
1 1:1 2:1 3:4 4:26 5:0.3636 6:4 7:4 8:0.3182 9:0.1364 10:0.2273 11:0.3182 12:16 13:0.25 14:2 15:0.4407 16:59 17:0.2542 18:0.2034 19:0.2373 20:0.3051 21:0.2222 22:0.5 23:0.25 
1 1:2 2:1 3:6 4:22 5:0.4762 6:2 7:3 8:0.2381 9:0.2857 10:0.1905 11:0.2857 12:50 13:0.2093 14:4 15:0.4923 16:65 17:0.1538 18:0.2308 19:0.2615 20:0.3538 21:0.2364 22:1.5 23:0.3333 
1 1:-1 2:0 3:5 4:26 5:0.4762 6:3 7:5 8:0.1905 9:0.2381 10:0.2381 11:0.3333 12:49 13:0.2766 14:4 15:0.5079 16:63 17:0.2381 18:0.2381 19:0.2698 20:0.254 21:0.2281 22:1.12 23:0 
0.9293989574568255 1:-1 2:0 3:6 4:23 5:0.5652 6:3 7:4 8:0.2609 9:0.3043 10:0.2609 11:0.1739 12:9 13:0.2683 14:4 15:0.4915 16:59 17:0.2373 18:0.2373 19:0.2542 20:0.2712 21:0.2075 22:2.5 23:0 
0.2274365865721791 1:1 2:2 3:3 4:23 5:0.5 6:4 7:2 8:0.0909 9:0.2273 10:0.2727 11:0.4091 12:55 13:0.2 14:1 15:0.5625 16:64 17:0.125 18:0.2188 19:0.3438 20:0.3125 21:0.2245 22:0.8 23:0.6667 
0.1465301352803436 1:3 2:1 3:8 4:23 5:0.3182 6:3 7:2 8:0.3636 9:0.1818 10:0.1364 11:0.3182 12:50 13:0.1556 14:1 15:0.4062 16:64 17:0.2031 18:0.1875 19:0.2188 20:0.3906 21:0.1724 22:1 23:0.2308 
0.6877643422776809 1:2 2:3 3:9 4:24 5:0.4348 6:2 7:4 8:0.3043 9:0.2174 10:0.2174 11:0.2609 12:54 13:0.1739 14:3 15:0.5 16:66 17:0.1818 18:0.2121 19:0.2879 20:0.3182 21:0.2131 22:1.14 23:0.4118 
0.3718370923376992 1:-1 2:0 3:4 4:23 5:0.4348 6:3 7:2 8:0.1739 9:0.1739 10:0.2609 11:0.3913 12:59 13:0.2273 14:3 15:0.4545 16:66 17:0.2424 18:0.2121 19:0.2424 20:0.303 21:0.1923 22:3 23:0 
0.844311414134947 1:3 2:2 3:8 4:24 5:0.4583 6:5 7:2 8:0.2917 9:0.25 10:0.2083 11:0.25 12:17 13:0.2174 14:2 15:0.5625 16:64 17:0.1719 18:0.2656 19:0.2969 20:0.2656 21:0.2542 22:0.7 23:0.4667 
0.2360830911418748 1:6 2:1 3:9 4:24 5:0.4167 6:3 7:2 8:0.3333 9:0.25 10:0.1667 11:0.25 12:13 13:0.1304 14:3 15:0.5 16:66 17:0.2121 18:0.2273 19:0.2727 20:0.2879 21:0.2581 22:0.7 23:0.625 
1 1:6 2:1 3:12 4:25 5:0.3913 6:3 7:2 8:0.1304 9:0.1304 10:0.2609 11:0.4783 12:60 13:0.1667 14:3 15:0.4865 16:74 17:0.2162 18:0.2297 19:0.2568 20:0.2973 21:0.2571 22:1.29 23:0.4545 
0.7836160762910759 1:3 2:1 3:5 4:23 5:0.3913 6:1 7:2 8:0.3478 9:0.2174 10:0.1739 11:0.2609 12:12 13:0.0667 14:1 15:0.4483 16:58 17:0.2586 18:0.1897 19:0.2586 20:0.2931 21:0.1481 22:0.7 23:0.5556 
0.8525005435349281 1:1 2:2 3:6 4:21 5:0.5714 6:3 7:2 8:0.2381 9:0.2381 10:0.3333 11:0.1905 12:9 13:0.2857 14:2 15:0.6034 16:58 17:0.2069 18:0.2759 19:0.3276 20:0.1897 21:0.2549 22:1 23:0.2727 
1 1:-1 2:0 3:0 4:22 5:0.3636 6:1 7:2 8:0.1818 9:0.0909 10:0.2727 11:0.4545 12:16 13:0.0909 14:4 15:0.463 16:54 17:0.2407 18:0.1296 19:0.3333 20:0.2963 21:0.0909 22:0.89 23:-1 
0.3643693317643654 1:1 2:1 3:7 4:22 5:0.4091 6:2 7:2 8:0.1364 9:0.1818 10:0.2273 11:0.4545 12:9 13:0.1364 14:3 15:0.5082 16:61 17:0.1475 18:0.1967 19:0.3115 20:0.3443 21:0.1228 22:0.9 23:0.0769 
0.780038548182044 1:1 2:1 3:6 4:27 5:0.5 6:4 7:5 8:0.0455 9:0.2273 10:0.2727 11:0.4545 12:59 13:0.3061 14:3 15:0.6818 16:66 17:0.0909 18:0.3636 19:0.3182 20:0.2273 21:0.2667 22:1.29 23:0.0909 
0.3057848927756998 1:-1 2:0 3:3 4:26 5:0.6957 6:2 7:5 8:0.2609 9:0.4348 10:0.2609 11:0.0435 12:17 13:0.2083 14:3 15:0.6452 16:62 17:0.1129 18:0.3548 19:0.2903 20:0.2419 21:0.1852 22:1.1 23:0 
1 1:1 2:1 3:8 4:23 5:0.5455 6:2 7:4 8:0 9:0.2273 10:0.3182 11:0.4545 12:59 13:0.2093 14:3 15:0.6364 16:66 17:0.1212 18:0.3485 19:0.2879 20:0.2424 21:0.1724 22:0.5 23:0.0667 
1 1:4 2:1 3:9 4:23 5:0.4091 6:4 7:2 8:0.1818 9:0.1818 10:0.2273 11:0.4091 12:54 13:0.2889 14:3 15:0.4697 16:66 17:0.197 18:0.2727 19:0.197 20:0.3333 21:0.3226 22:0.55 23:0.4118 
0.2448304598171919 1:-1 2:0 3:3 4:23 5:0.381 6:2 7:2 8:0.1905 9:0.0952 10:0.2857 11:0.4286 12:49 13:0.0909 14:4 15:0.3448 16:58 17:0.2759 18:0.1552 19:0.1897 20:0.3793 21:0.08 22:1.11 23:0 
0.7445713729516596 1:1 2:1 3:3 4:23 5:0.3636 6:3 7:2 8:0.1818 9:0.0909 10:0.2727 11:0.4545 12:52 13:0.1364 14:4 15:0.339 16:59 17:0.2542 18:0.1525 19:0.1864 20:0.4068 21:0.125 22:1.11 23:0.3333 
0.02822018086391485 1:-1 2:0 3:3 4:23 5:0.3913 6:2 7:4 8:0.2174 9:0.0435 10:0.3478 11:0.3913 12:53 13:0.2444 14:3 15:0.4 16:65 17:0.3077 18:0.2 19:0.2 20:0.2923 21:0.2157 22:1.4 23:0 
1 1:-1 2:0 3:4 4:23 5:0.4545 6:2 7:4 8:0.2273 9:0.2273 10:0.2273 11:0.3182 12:51 13:0.2 14:1 15:0.5397 16:63 17:0.1746 18:0.254 19:0.2857 20:0.2857 21:0.1698 22:0.7 23:0 
0.8954715606041551 1:1 2:3 3:7 4:22 5:0.4091 6:3 7:4 8:0.1364 9:0.0455 10:0.3636 11:0.4545 12:8 13:0.2558 14:2 15:0.4333 16:60 17:0.2 18:0.2333 19:0.2 20:0.3667 21:0.2453 22:0.75 23:0.3333 
0.09847390054901428 1:2 2:1 3:4 4:22 5:0.4545 6:2 7:4 8:0.1818 9:0.3636 10:0.0909 11:0.3636 12:16 13:0.2727 14:1 15:0.5263 16:57 17:0.1754 18:0.2632 19:0.2632 20:0.2982 21:0.2941 22:0.88 23:0.4286 
0.5830944947357145 1:1 2:1 3:2 4:22 5:0.4762 6:1 7:3 8:0.1905 9:0.3333 10:0.1429 11:0.3333 12:17 13:0.1163 14:3 15:0.5 16:56 17:0.2321 18:0.1964 19:0.3036 20:0.2679 21:0.1111 22:1.43 23:0.5 
1 1:1 2:1 3:3 4:21 5:0.4762 6:1 7:3 8:0.2381 9:0.1905 10:0.2857 11:0.2857 12:52 13:0.122 14:3 15:0.5 16:56 17:0.2321 18:0.1964 19:0.3036 20:0.2679 21:0.1111 22:0.86 23:0.3333 
1 1:2 2:3 3:12 4:25 5:0.6364 6:4 7:5 8:0.2727 9:0.1818 10:0.4545 11:0.0909 12:11 13:0.2444 14:3 15:0.6812 16:69 17:0.1159 18:0.3768 19:0.3043 20:0.2029 21:0.2424 22:1.17 23:0.3043 
1 1:-1 2:0 3:3 4:25 5:0.6957 6:3 7:4 8:0.087 9:0.5217 10:0.1739 11:0.2174 12:48 13:0.2174 14:3 15:0.7679 16:56 17:0.0893 18:0.375 19:0.3929 20:0.1429 21:0.1923 22:0.55 23:0 
1 1:-1 2:0 3:0 4:24 5:0.6957 6:3 7:4 8:0.1304 9:0.3478 10:0.3478 11:0.1739 12:13 13:0.1818 14:1 15:0.7222 16:54 17:0.1852 18:0.3148 19:0.4074 20:0.0926 21:0.1818 22:0.25 23:-1 
1 1:1 2:1 3:4 4:29 5:0.5455 6:7 7:2 8:0.2727 9:0.3182 10:0.2273 11:0.1818 12:61 13:0.2157 14:4 15:0.5 16:62 17:0.2097 18:0.2419 19:0.2581 20:0.2903 21:0.193 22:0.73 23:0.25 
0.8453102268783448 1:4 2:1 3:9 4:22 5:0.5 6:2 7:4 8:0.2727 9:0.3182 10:0.1818 11:0.2273 12:60 13:0.2273 14:1 15:0.4545 16:66 17:0.2424 18:0.2727 19:0.1818 20:0.303 21:0.2667 22:2.5 23:0.375 
1 1:2 2:1 3:6 4:26 5:0.5217 6:2 7:6 8:0.1739 9:0.3913 10:0.1304 11:0.3043 12:51 13:0.2083 14:4 15:0.5147 16:68 17:0.1912 18:0.2206 19:0.2941 20:0.2941 21:0.2333 22:0.8 23:0.3333 
1 1:-1 2:0 3:0 4:23 5:0.5455 6:3 7:4 8:0.1364 9:0.1818 10:0.3636 11:0.3182 12:42 13:0.3488 14:4 15:0.5102 16:49 17:0.1224 18:0.2041 19:0.3061 20:0.3673 21:0.2432 22:0.75 23:-1 
0.3440220020431904 1:4 2:1 3:8 4:22 5:0.5909 6:1 7:1 8:0.0909 9:0.1818 10:0.4091 11:0.3182 12:13 13:0.0455 14:2 15:0.5238 16:63 17:0.2222 18:0.2698 19:0.254 20:0.254 21:0.1525 22:1 23:0.4667 
1 1:1 2:4 3:13 4:28 5:0.5 6:4 7:5 8:0.3636 9:0.1364 10:0.3636 11:0.1364 12:11 13:0.2609 14:1 15:0.5263 16:76 17:0.25 18:0.2632 19:0.2632 20:0.2237 21:0.2239 22:1.1 23:0.2174 
1 1:2 2:1 3:5 4:22 5:0.7727 6:6 7:3 8:0.0909 9:0.4545 10:0.3182 11:0.1364 12:14 13:0.3514 14:3 15:0.6182 16:55 17:0.1818 18:0.2909 19:0.3273 20:0.2 21:0.3617 22:1 23:0.4 
1 1:1 2:1 3:3 4:28 5:0.4545 6:8 7:4 8:0.2273 9:0.2273 10:0.2273 11:0.3182 12:18 13:0.4 14:2 15:0.5 16:62 17:0.2419 18:0.2419 19:0.2581 20:0.2581 21:0.3929 22:0.57 23:0.3333 
1 1:-1 2:0 3:0 4:26 5:0.6364 6:4 7:4 8:0.0909 9:0.2273 10:0.4091 11:0.2727 12:48 13:0.1556 14:2 15:0.6545 16:55 17:0.1091 18:0.2182 19:0.4364 20:0.2364 21:0.1556 22:0.89 23:-1 
1 1:1 2:1 3:5 4:27 5:0.4348 6:4 7:5 8:0.1739 9:0.1739 10:0.2609 11:0.3913 12:10 13:0.25 14:3 15:0.4754 16:61 17:0.1639 18:0.1967 19:0.2787 20:0.3607 21:0.2143 22:1.75 23:0.2 
1 1:1 2:1 3:4 4:25 5:0.5 6:3 7:3 8:0.2727 9:0.4091 10:0.0909 11:0.2273 12:17 13:0.234 14:4 15:0.569 16:58 17:0.1897 18:0.3276 19:0.2414 20:0.2414 21:0.2075 22:0.91 23:0.25 
1 1:3 2:3 3:11 4:22 5:0.3636 6:4 7:4 8:0.1818 9:0.0455 10:0.3182 11:0.4545 12:49 13:0.3659 14:4 15:0.55 16:60 17:0.1333 18:0.1833 19:0.3667 20:0.3167 21:0.3333 22:0.44 23:0.3333 
1 1:3 2:2 3:8 4:28 5:0.7083 6:3 7:6 8:0 9:0.3333 10:0.375 11:0.2917 12:58 13:0.2549 14:1 15:0.6912 16:68 17:0.0882 18:0.3824 19:0.3088 20:0.2206 21:0.2698 22:0.89 23:0.4286 
1 1:1 2:2 3:3 4:24 5:0.5417 6:3 7:5 8:0.2917 9:0.25 10:0.2917 11:0.1667 12:15 13:0.2444 14:3 15:0.537 16:54 17:0.2222 18:0.2778 19:0.2593 20:0.2407 21:0.2653 22:1.14 23:0.6667 
0.882652723783338 1:4 2:2 3:10 4:22 5:0.5 6:5 7:4 8:0.1364 9:0.1818 10:0.3182 11:0.3636 12:13 13:0.3953 14:3 15:0.5397 16:63 17:0.1905 18:0.2698 19:0.2698 20:0.2698 21:0.3898 22:0.88 23:0.375 
1 1:3 2:2 3:15 4:23 5:0.3913 6:2 7:4 8:0.2174 9:0.087 10:0.3043 11:0.3913 12:54 13:0.2381 14:2 15:0.5753 16:73 17:0.1781 18:0.2192 19:0.3562 20:0.2466 21:0.2464 22:0.8 23:0.2593 
0.8297503612011417 1:1 2:2 3:8 4:22 5:0.6364 6:4 7:3 8:0.2273 9:0.3182 10:0.3182 11:0.1364 12:61 13:0.2727 14:4 15:0.5714 16:63 17:0.2222 18:0.3016 19:0.2698 20:0.2063 21:0.2414 22:0.29 23:0.25 
0.6211952323009913 1:-1 2:0 3:2 4:22 5:0.5909 6:2 7:3 8:0.1818 9:0.3182 10:0.2727 11:0.2273 12:12 13:0.1628 14:1 15:0.623 16:61 17:0.1803 18:0.3443 19:0.2787 20:0.1967 21:0.1489 22:2.75 23:0 
1 1:1 2:1 3:2 4:21 5:0.381 6:2 7:2 8:0.2381 9:0.1429 10:0.2381 11:0.381 12:54 13:0.1905 14:4 15:0.3284 16:67 17:0.3433 18:0.1642 19:0.1642 20:0.3284 21:0.1818 22:1.6 23:0.5 
0.9676448598162738 1:1 2:1 3:6 4:22 5:0.6667 6:3 7:3 8:0.0476 9:0.2857 10:0.381 11:0.2857 12:52 13:0.2093 14:1 15:0.6379 16:58 17:0.1034 18:0.3103 19:0.3276 20:0.2586 21:0.1852 22:0.27 23:0.0909 
1 1:-1 2:0 3:3 4:23 5:0.6522 6:4 7:3 8:0.3043 9:0.2174 10:0.4348 11:0.0435 12:44 13:0.2857 14:2 15:0.5714 16:56 17:0.1964 18:0.25 19:0.3214 20:0.2321 21:0.25 22:0.3 23:0 
1 1:2 2:3 3:13 4:24 5:0.75 6:2 7:4 8:0.125 9:0.375 10:0.375 11:0.125 12:62 13:0.2 14:3 15:0.6438 16:73 17:0.0959 18:0.3014 19:0.3425 20:0.2603 21:0.2754 22:1.22 23:0.4167 
1 1:2 2:3 3:10 4:25 5:0.5909 6:2 7:5 8:0.1818 9:0.2727 10:0.3182 11:0.2273 12:53 13:0.2174 14:4 15:0.6567 16:67 17:0.1791 18:0.2687 19:0.3881 20:0.1642 21:0.2812 22:0.5 23:0.5 
1 1:1 2:1 3:4 4:28 5:0.7826 6:5 7:5 8:0.087 9:0.3913 10:0.3913 11:0.1304 12:49 13:0.3061 14:3 15:0.75 16:60 17:0.0667 18:0.4 19:0.35 20:0.1833 21:0.2727 22:0.75 23:0.25 
1 1:1 2:2 3:7 4:28 5:0.7826 6:4 7:6 8:0.087 9:0.3478 10:0.4348 11:0.1304 12:51 13:0.2941 14:2 15:0.7164 16:67 17:0.1642 18:0.3284 19:0.3881 20:0.1194 21:0.2698 22:1.33 23:0.1667 
0.6105852605612918 1:-1 2:0 3:0 4:28 5:0.4348 6:5 7:4 8:0.3043 9:0.2609 10:0.1739 11:0.2609 12:11 13:0.3571 14:1 15:0.4912 16:57 17:0.2807 18:0.193 19:0.2982 20:0.2281 21:0.2174 22:3 23:-1 
0.972446201732685 1:2 2:2 3:9 4:22 5:0.5909 6:2 7:6 8:0.1364 9:0.2273 10:0.3636 11:0.2727 12:50 13:0.3023 14:4 15:0.6721 16:61 17:0.082 18:0.3279 19:0.3443 20:0.2459 21:0.2759 22:1 23:0.2941 
1 1:5 2:2 3:11 4:23 5:0.5455 6:2 7:5 8:0.1364 9:0.2727 10:0.2727 11:0.3182 12:9 13:0.3171 14:2 15:0.619 16:63 17:0.2063 18:0.254 19:0.3651 20:0.1746 21:0.3448 22:2 23:0.4737 
0.3256565955339955 1:1 2:1 3:4 4:23 5:0.5217 6:2 7:3 8:0.2609 9:0.3043 10:0.2174 11:0.2174 12:11 13:0.1739 14:1 15:0.4737 16:57 17:0.2807 18:0.2807 19:0.193 20:0.2456 21:0.1538 22:0.71 23:0.25 
1 1:2 2:2 3:10 4:24 5:0.75 6:7 7:2 8:0.125 9:0.2917 10:0.4583 11:0.125 12:61 13:0.3659 14:2 15:0.6935 16:62 17:0.1129 18:0.3387 19:0.3548 20:0.1935 21:0.2982 22:0 23:0.2222 
0.08011132549275289 1:1 2:2 3:6 4:22 5:0.619 6:1 7:4 8:0.1905 9:0.1905 10:0.4286 11:0.1905 12:9 13:0.1429 14:2 15:0.5902 16:61 17:0.2131 18:0.2459 19:0.3443 20:0.1967 21:0.1538 22:0.9 23:0.3333 
1 1:6 2:1 3:10 4:22 5:0.5455 6:1 7:3 8:0.1818 9:0.2727 10:0.2727 11:0.2727 12:50 13:0.1364 14:1 15:0.5821 16:67 17:0.194 18:0.2985 19:0.2836 20:0.2239 21:0.2698 22:2 23:0.5789 
1 1:-1 2:0 3:0 4:29 5:0.5652 6:6 7:4 8:0.087 9:0.3043 10:0.2609 11:0.3478 12:12 13:0.4483 14:2 15:0.5085 16:59 17:0.2373 18:0.2712 19:0.2373 20:0.2542 21:0.3043 22:4 23:-1 
1 1:1 2:1 3:4 4:26 5:0.6087 6:3 7:3 8:0.1739 9:0.1739 10:0.4348 11:0.2174 12:54 13:0.25 14:1 15:0.6885 16:61 17:0.1639 18:0.3115 19:0.377 20:0.1475 21:0.2222 22:0.83 23:0.25 
1 1:-1 2:0 3:6 4:22 5:0.5455 6:6 7:2 8:0.0455 9:0.2727 10:0.2727 11:0.4091 12:56 13:0.3846 14:3 15:0.5902 16:61 17:0.1475 18:0.2787 19:0.3115 20:0.2623 21:0.2941 22:0 23:0 
0.06915459618354181 1:-1 2:0 3:2 4:23 5:0.3636 6:2 7:4 8:0.3182 9:0.1364 10:0.2273 11:0.3182 12:18 13:0.2 14:3 15:0.4286 16:63 17:0.2857 18:0.2063 19:0.2222 20:0.2857 21:0.1837 22:1 23:0 
0.6806405969347936 1:1 2:1 3:4 4:26 5:0.6818 6:3 7:4 8:0.2273 9:0.4545 10:0.2273 11:0.0909 12:10 13:0.234 14:2 15:0.5938 16:64 17:0.1875 18:0.3281 19:0.2656 20:0.2188 21:0.2075 22:0.88 23:0.25 
0.9201921458080971 1:-1 2:0 3:0 4:23 5:0.5455 6:1 7:4 8:0.1364 9:0.4091 10:0.1364 11:0.3182 12:46 13:0.1556 14:3 15:0.4667 16:60 17:0.2333 18:0.2333 19:0.2333 20:0.3 21:0.1163 22:0.82 23:-1 
1 1:1 2:1 3:4 4:23 5:0.5 6:3 7:3 8:0.1818 9:0.3182 10:0.1818 11:0.3182 12:49 13:0.2444 14:3 15:0.4259 16:54 17:0.2222 18:0.2037 19:0.2222 20:0.3519 21:0.2157 22:0.56 23:0.25 
1 1:1 2:1 3:5 4:28 5:0.7273 6:6 7:3 8:0.1818 9:0.2727 10:0.4545 11:0.0909 12:13 13:0.2 14:4 15:0.5522 16:67 17:0.2239 18:0.2985 19:0.2537 20:0.2239 21:0.1864 22:1.09 23:0.1111 
0.7582065390071993 1:6 2:2 3:11 4:22 5:0.5455 6:2 7:3 8:0.3182 9:0.2273 10:0.3182 11:0.1364 12:10 13:0.2273 14:2 15:0.5781 16:64 17:0.2344 18:0.3281 19:0.25 20:0.1875 21:0.3 22:0.7 23:0.5 
1 1:1 2:2 3:9 4:27 5:0.7826 6:4 7:3 8:0.0435 9:0.1739 10:0.6087 11:0.1739 12:55 13:0.2245 14:3 15:0.7808 16:73 17:0.0822 18:0.3425 19:0.4384 20:0.137 21:0.2 22:3.33 23:0.125 
1 1:-1 2:0 3:0 4:24 5:0.7917 6:4 7:4 8:0.1667 9:0.2917 10:0.5 11:0.0417 12:20 13:0.2609 14:-1 15:0.7292 16:48 17:0.125 18:0.3333 19:0.3958 20:0.1458 21:0.2273 22:1.38 23:-1 
0.2746289614607155 1:1 2:1 3:3 4:24 5:0.6667 6:4 7:4 8:0.0833 9:0.2917 10:0.375 11:0.25 12:13 13:0.3478 14:2 15:0.614 16:57 17:0.1228 18:0.2632 19:0.3509 20:0.2632 21:0.3333 22:1 23:0.2 
1 1:4 2:1 3:7 4:29 5:0.5417 6:5 7:3 8:0.1667 9:0.2917 10:0.25 11:0.2917 12:12 13:0.283 14:4 15:0.5714 16:70 17:0.1857 18:0.3 19:0.2714 20:0.2429 21:0.3333 22:0.78 23:0.5385 
1 1:4 2:3 3:13 4:21 5:0.6667 6:3 7:3 8:0.2381 9:0.0952 10:0.5714 11:0.0952 12:57 13:0.2857 14:3 15:0.6269 16:67 17:0.1343 18:0.209 19:0.4179 20:0.2388 21:0.3125 22:1.83 23:0.4167 
1 1:-1 2:0 3:7 4:31 5:0.4091 6:5 7:4 8:0.3636 9:0.3182 10:0.0909 11:0.2273 12:14 13:0.3061 14:3 15:0.5507 16:69 17:0.1884 18:0.2464 19:0.3043 20:0.2609 21:0.2381 22:1 23:0 
1 1:-1 2:0 3:2 4:30 5:0.6522 6:7 7:3 8:0.1739 9:0.3043 10:0.3478 11:0.1739 12:53 13:0.2075 14:3 15:0.6721 16:61 17:0.1148 18:0.3115 19:0.3607 20:0.2131 21:0.193 22:0.73 23:0 
1 1:3 2:3 3:10 4:24 5:0.3636 6:2 7:2 8:0.3182 9:0.0455 10:0.3182 11:0.3182 12:60 13:0.087 14:3 15:0.4366 16:71 17:0.2394 18:0.1972 19:0.2394 20:0.3239 21:0.2188 22:0.9 23:0.6 
1 1:-1 2:0 3:2 4:27 5:0.5 6:5 7:4 8:0.0909 9:0.1364 10:0.3636 11:0.4091 12:47 13:0.3061 14:4 15:0.5246 16:61 17:0.1803 18:0.1967 19:0.3279 20:0.2951 21:0.283 22:1 23:0 
1 1:-1 2:0 3:4 4:23 5:0.5455 6:2 7:2 8:0.1818 9:0.2273 10:0.3182 11:0.2727 12:61 13:0.1111 14:2 15:0.5373 16:67 17:0.1791 18:0.2537 19:0.2836 20:0.2836 21:0.0943 22:1.11 23:0 
0.1457375730256193 1:1 2:1 3:3 4:25 5:0.7391 6:4 7:3 8:0.1739 9:0.2609 10:0.4783 11:0.087 12:14 13:0.234 14:4 15:0.7719 16:57 17:0.1053 18:0.4035 19:0.3684 20:0.1228 21:0.2453 22:0.91 23:0.3333 
0.3546146456262892 1:1 2:1 3:5 4:23 5:0.5652 6:4 7:2 8:0.3043 9:0.2609 10:0.3043 11:0.1304 12:49 13:0.1429 14:2 15:0.5079 16:63 17:0.3016 18:0.254 19:0.254 20:0.1905 21:0.12 22:0.91 23:0.2 
0.5578637751246022 1:-1 2:0 3:5 4:23 5:0.6667 6:2 7:3 8:0.2857 9:0.3333 10:0.3333 11:0.0476 12:52 13:0.1364 14:4 15:0.5484 16:62 17:0.1935 18:0.2258 19:0.3226 20:0.2581 21:0.1111 22:1.67 23:0 
1 1:2 2:3 3:9 4:24 5:0.7826 6:3 7:4 8:0.0435 9:0.2609 10:0.5217 11:0.1739 12:15 13:0.2174 14:2 15:0.7576 16:66 17:0.0758 18:0.303 19:0.4545 20:0.1667 21:0.2459 22:0.9 23:0.4118 
1 1:5 2:2 3:12 4:21 5:0.4286 6:4 7:3 8:0.2381 9:0.1429 10:0.2857 11:0.3333 12:12 13:0.2683 14:3 15:0.4627 16:67 17:0.2388 18:0.2239 19:0.2388 20:0.2985 21:0.3333 22:0.8 23:0.4545 
1 1:2 2:2 3:6 4:29 5:0.5417 6:2 7:6 8:0.125 9:0.0833 10:0.4583 11:0.3333 12:53 13:0.2308 14:2 15:0.5362 16:69 17:0.2174 18:0.2464 19:0.2899 20:0.2464 21:0.2581 22:0.82 23:0.5 
1 1:-1 2:0 3:0 4:25 5:0.4783 6:3 7:4 8:0.3478 9:0.3043 10:0.1739 11:0.1739 12:13 13:0.25 14:4 15:0.5714 16:49 17:0.2245 18:0.2449 19:0.3265 20:0.2041 21:0.1818 22:1.6 23:-1 
1 1:7 2:2 3:14 4:22 5:0.5 6:3 7:1 8:0.2273 9:0.2727 10:0.2273 11:0.2727 12:59 13:0.1364 14:3 15:0.4167 16:72 17:0.2639 18:0.2083 19:0.2083 20:0.3194 21:0.2063 22:1.1 23:0.4286 
1 1:-1 2:0 3:0 4:29 5:0.55 6:8 7:3 8:0.15 9:0.2 10:0.35 11:0.3 12:11 13:0.2917 14:1 15:0.5926 16:54 17:0.1111 18:0.2222 19:0.3704 20:0.2963 21:0.2917 22:0.7 23:-1 
1 1:9 2:2 3:15 4:23 5:0.3913 6:1 7:2 8:0.3043 9:0.0435 10:0.3478 11:0.3043 12:58 13:0.0667 14:2 15:0.4179 16:67 17:0.2836 18:0.2239 19:0.194 20:0.2985 21:0.1875 22:0.78 23:0.5238 
0.1764589836227017 1:1 2:1 3:4 4:23 5:0.5 6:1 7:5 8:0.3182 9:0.3182 10:0.1818 11:0.1818 12:12 13:0.2 14:4 15:0.5789 16:57 17:0.193 18:0.2632 19:0.3158 20:0.2281 21:0.2075 22:1.29 23:0.25 
0.03193667913923386 1:2 2:1 3:6 4:22 5:0.6818 6:1 7:4 8:0.1364 9:0.2727 10:0.4091 11:0.1818 12:48 13:0.1628 14:4 15:0.5932 16:59 17:0.1864 18:0.2712 19:0.322 20:0.2203 21:0.2 22:0.89 23:0.3333 
0.2516209887087409 1:1 2:1 3:3 4:24 5:0.4545 6:2 7:3 8:0.2727 9:0.2727 10:0.1818 11:0.2727 12:49 13:0.1304 14:2 15:0.4154 16:65 17:0.2462 18:0.2 19:0.2154 20:0.3385 21:0.12 22:2 23:0.3333 
1 1:3 2:1 3:8 4:23 5:0.3913 6:4 7:3 8:0.1739 9:0.0435 10:0.3478 11:0.4348 12:20 13:0.1707 14:1 15:0.4333 16:60 17:0.2667 18:0.1667 19:0.2667 20:0.3 21:0.2143 22:1.43 23:0.3333 
-0.192126548564029 1:1 2:1 3:3 4:34 5:0.5 6:9 7:3 8:0.125 9:0.125 10:0.375 11:0.375 12:14 13:0.2069 14:4 15:0.4462 16:65 17:0.2462 18:0.1538 19:0.2923 20:0.3077 21:0.1935 22:0.91 23:0.3333 
-0.07521085340966355 1:1 2:3 3:13 4:20 5:0.3 6:8 7:2 8:0.4 9:0.05 10:0.25 11:0.3 12:55 13:0.3125 14:3 15:0.4386 16:57 17:0.2456 18:0.1404 19:0.2982 20:0.3158 21:0.2222 22:0 23:0.1667 
-0.1218230155495828 1:1 2:1 3:7 4:20 5:0.5 6:9 7:2 8:0.35 9:0.15 10:0.35 11:0.15 12:49 13:0.3333 14:3 15:0.5111 16:45 17:0.2444 18:0.1778 19:0.3333 20:0.2444 21:0.2381 22:1 23:0.1429 
-0.02105172385609063 1:1 2:1 3:6 4:22 5:0.5 6:9 7:2 8:0.3182 9:0.1818 10:0.3182 11:0.1818 12:48 13:0.2941 14:4 15:0.5106 16:47 17:0.234 18:0.1702 19:0.3404 20:0.2553 21:0.2273 22:1 23:0.1667 
-0.4340263612166557 1:4 2:3 3:16 4:20 5:0.25 6:5 7:2 8:0.45 9:0.1 10:0.15 11:0.3 12:58 13:0.2 14:3 15:0.4286 16:63 17:0.254 18:0.1429 19:0.2857 20:0.3175 21:0.2 22:0 23:0.2593 
-0.06507955014206122 1:1 2:1 3:3 4:33 5:0.4783 6:9 7:3 8:0.1304 9:0.1304 10:0.3478 11:0.3913 12:15 13:0.2143 14:4 15:0.4286 16:63 17:0.254 18:0.1429 19:0.2857 20:0.3175 21:0.2 22:0.82 23:0.3333 
-0.08146609663556467 1:1 2:2 3:10 4:23 5:0.3478 6:9 7:2 8:0.3913 9:0.087 10:0.2609 11:0.2609 12:52 13:0.2973 14:3 15:0.4386 16:57 17:0.2456 18:0.1404 19:0.2982 20:0.3158 21:0.2222 22:0.83 23:0.1579 
-0.02514661304119923 1:1 2:1 3:5 4:21 5:0.5714 6:9 7:2 8:0.2857 9:0.2381 10:0.3333 11:0.1429 12:47 13:0.3125 14:4 15:0.5349 16:43 17:0.2326 18:0.186 19:0.3488 20:0.2326 21:0.25 22:1 23:0.2 
-0.7059946985106148 1:1 2:1 3:8 4:30 5:0.4 6:9 7:3 8:0.15 9:0.1 10:0.3 11:0.45 12:13 13:0.24 14:2 15:0.4328 16:67 17:0.2537 18:0.1493 19:0.2836 20:0.3134 21:0.1875 22:0.82 23:0.125 
-0.1554603233734984 1:-1 2:0 3:0 4:32 5:0.4762 6:9 7:4 8:0.1429 9:0.1429 10:0.3333 11:0.381 12:19 13:0.2593 14:1 15:0.4364 16:55 17:0.2545 18:0.1455 19:0.2909 20:0.3091 21:0.2308 22:1 23:-1 
-0.06558792182710473 1:1 2:1 3:3 4:24 5:0.5417 6:9 7:2 8:0.2917 9:0.2083 10:0.3333 11:0.1667 12:45 13:0.2632 14:3 15:0.5111 16:45 17:0.2444 18:0.1778 19:0.3333 20:0.2444 21:0.2381 22:1.22 23:0.3333 
-1 1:3 2:1 3:7 4:23 5:0.3478 6:5 7:1 8:0.2174 9:0 10:0.3478 11:0.4348 12:20 13:0.122 14:3 15:0.4237 16:59 17:0.2542 18:0.1695 19:0.2542 20:0.322 21:0.1698 22:2.25 23:0.3333 
-0.04563345716669252 1:5 2:2 3:26 4:24 5:0.6957 6:3 7:4 8:0.1304 9:0.2174 10:0.4783 11:0.1739 12:1 13:0.2444 14:2 15:0.5521 16:96 17:0.1667 18:0.2188 19:0.3333 20:0.2812 21:0.2222 22:0.89 23:0.2 
-0.0853956741142482 1:-1 2:0 3:0 4:24 5:0.5 6:5 7:3 8:0.1667 9:0.25 10:0.25 11:0.3333 12:28 13:0.3171 14:3 15:0.4884 16:43 17:0.2093 18:0.186 19:0.3023 20:0.3023 21:0.2432 22:1.5 23:-1 
-0.005519444705125828 1:5 2:2 3:28 4:21 5:0.7 6:3 7:3 8:0 9:0.35 10:0.35 11:0.3 12:77 13:0.25 14:3 15:0.5474 16:95 17:0.1684 18:0.2105 19:0.3368 20:0.2842 21:0.2135 22:0.62 23:0.1837 
-0.01659616923689441 1:-1 2:0 3:0 4:22 5:0.5 6:5 7:2 8:0.1818 9:0.2273 10:0.2727 11:0.3182 12:28 13:0.2432 14:4 15:0.4884 16:43 17:0.2093 18:0.186 19:0.3023 20:0.3023 21:0.2432 22:1 23:-1 
-0.02493639686098741 1:-1 2:0 3:0 4:27 5:0.35 6:5 7:3 8:0.35 9:0.1 10:0.25 11:0.3 12:54 13:0.2766 14:3 15:0.4286 16:49 17:0.2449 18:0.1633 19:0.2653 20:0.3265 21:0.2093 22:0.67 23:-1 
-0.3675054385180834 1:3 2:2 3:10 4:23 5:0.3478 6:6 7:2 8:0.3478 9:0.1739 10:0.1739 11:0.3043 12:57 13:0.2195 14:1 15:0.3846 16:65 17:0.2615 18:0.1385 19:0.2462 20:0.3538 21:0.2143 22:0 23:0.2941 
-0.1202909996264691 1:1 2:1 3:7 4:20 5:0.35 6:9 7:2 8:0.35 9:0.1 10:0.25 11:0.3 12:54 13:0.375 14:4 15:0.3774 16:53 17:0.2642 18:0.1321 19:0.2453 20:0.3585 21:0.2727 22:0 23:0.1429 
-0.3310134962073659 1:1 2:1 3:2 4:30 5:0.4091 6:9 7:2 8:0.2273 9:0 10:0.4091 11:0.3636 12:16 13:0.2308 14:1 15:0.381 16:63 17:0.2698 18:0.1429 19:0.2381 20:0.3492 21:0.2222 22:0.91 23:0.5 
-0.01686894636784875 1:1 2:1 3:3 4:22 5:0.4091 6:9 7:2 8:0.3182 9:0.1818 10:0.2273 11:0.2727 12:50 13:0.3333 14:3 15:0.3673 16:49 17:0.2653 18:0.1224 19:0.2449 20:0.3673 21:0.3 22:1.83 23:0.3333 
-0.1820682166260915 1:9 2:3 3:27 4:20 5:0.55 6:8 7:1 8:0.2 9:0 10:0.55 11:0.25 12:1 13:0.2727 14:1 15:0.4302 16:86 17:0.2326 18:0.1395 19:0.2907 20:0.3372 21:0.2727 22:0 23:0.3043 
-0.0143308207560707 1:1 2:1 3:5 4:23 5:0.3913 6:9 7:2 8:0.3478 9:0.1739 10:0.2174 11:0.2609 12:52 13:0.3158 14:3 15:0.3636 16:55 17:0.2727 18:0.1273 19:0.2364 20:0.3636 21:0.2609 22:0.67 23:0.2 
-0.3413075707860045 1:2 2:2 3:9 4:22 5:0.3636 6:7 7:2 8:0.3182 9:0.1818 10:0.1818 11:0.3182 12:56 13:0.2632 14:4 15:0.3934 16:61 17:0.2623 18:0.1475 19:0.2459 20:0.3443 21:0.2308 22:0 23:0.25 
-0.4991350881808611 1:1 2:2 3:8 4:22 5:0.3636 6:8 7:2 8:0.3636 9:0.1818 10:0.1818 11:0.2727 12:55 13:0.2973 14:1 15:0.4068 16:59 17:0.2542 18:0.1525 19:0.2542 20:0.339 21:0.24 22:0 23:0.2 
-0.02947506592269773 1:1 2:1 3:2 4:22 5:0.4545 6:9 7:2 8:0.2727 9:0.2273 10:0.2273 11:0.2727 12:49 13:0.3333 14:4 15:0.383 16:47 17:0.2553 18:0.1277 19:0.2553 20:0.3617 21:0.3158 22:1.57 23:0.5 
-1 1:4 2:2 3:11 4:23 5:0.3478 6:5 7:2 8:0.3478 9:0.1739 10:0.1739 11:0.3043 12:58 13:0.1905 14:4 15:0.3731 16:67 17:0.2687 18:0.1343 19:0.2388 20:0.3582 21:0.2069 22:0 23:0.3333 
-0.1669726668112637 1:9 2:3 3:24 4:23 5:0.5217 6:8 7:1 8:0.1739 9:0 10:0.5217 11:0.3043 12:1 13:0.2308 14:4 15:0.4302 16:86 17:0.2326 18:0.1395 19:0.2907 20:0.3372 21:0.2727 22:0 23:0.35 
-0.5790550005032575 1:1 2:1 3:2 4:28 5:0.45 6:9 7:2 8:0.2 9:0 10:0.45 11:0.35 12:18 13:0.25 14:1 15:0.4068 16:59 17:0.2542 18:0.1525 19:0.2542 20:0.339 21:0.24 22:0.91 23:0.5 
-1 1:3 2:2 3:10 4:22 5:0.3636 6:6 7:2 8:0.3636 9:0.1818 10:0.1818 11:0.2727 12:57 13:0.2308 14:3 15:0.381 16:63 17:0.2698 18:0.1429 19:0.2381 20:0.3492 21:0.2222 22:0 23:0.2941 
-0.6945956448893648 1:1 2:1 3:5 4:28 5:0.4 6:9 7:2 8:0.25 9:0 10:0.4 11:0.35 12:15 13:0.25 14:2 15:0.3846 16:65 17:0.2615 18:0.1385 19:0.2462 20:0.3538 21:0.2143 22:1.12 23:0.2 
-0.09927062081200609 1:5 2:2 3:13 4:21 5:0.5714 6:2 7:4 8:0.0476 9:0.1429 10:0.4286 11:0.381 12:63 13:0.2857 14:2 15:0.5616 16:73 17:0.2329 18:0.2192 19:0.3425 20:0.2055 21:0.3433 22:1 23:0.44 
-0.001123784397759306 1:5 2:4 3:22 4:23 5:0.6364 6:3 7:5 8:0.2727 9:0.4091 10:0.2273 11:0.0909 12:1 13:0.2889 14:4 15:0.5638 16:94 17:0.2447 18:0.234 19:0.3298 20:0.1915 21:0.3409 22:0.33 23:0.3953 
-0.7099572262353062 1:-1 2:0 3:8 4:20 5:0.6 6:2 7:2 8:0.1 9:0.2 10:0.4 11:0.3 12:57 13:0.1579 14:3 15:0.5455 16:66 17:0.2576 18:0.303 19:0.2424 20:0.197 21:0.1111 22:1.2 23:0 
-0.01345784022587553 1:-1 2:0 3:8 4:24 5:0.6 6:5 7:2 8:0.35 9:0.35 10:0.25 11:0.05 12:9 13:0.2273 14:4 15:0.5556 16:72 17:0.2639 18:0.3056 19:0.25 20:0.1806 21:0.1667 22:1.33 23:0 
-0.2146563257330781 1:-1 2:0 3:7 4:26 5:0.5909 6:5 7:2 8:0.3636 9:0.3636 10:0.2273 11:0.0455 12:8 13:0.2083 14:4 15:0.5676 16:74 17:0.2568 18:0.3108 19:0.2568 20:0.1757 21:0.1613 22:1.12 23:0 
-0.1263787935625237 1:-1 2:0 3:10 4:27 5:0.6087 6:5 7:2 8:0.3043 9:0.3913 10:0.2174 11:0.087 12:4 13:0.2 14:3 15:0.5976 16:82 17:0.2317 18:0.3171 19:0.2805 20:0.1707 21:0.1429 22:2.2 23:0 
-0.118503389205449 1:2 2:1 3:14 4:26 5:0.6818 6:5 7:2 8:0.2273 9:0.4545 10:0.2273 11:0.0909 12:1 13:0.25 14:2 15:0.5909 16:88 17:0.2386 18:0.3182 19:0.2727 20:0.1705 21:0.2105 22:0.3 23:0.1429 
-0.04236622551789229 1:2 2:1 3:17 4:22 5:0.6818 6:5 7:2 8:0.1364 9:0.1818 10:0.5 11:0.1818 12:66 13:0.25 14:2 15:0.593 16:86 17:0.2442 18:0.3256 19:0.2674 20:0.1628 21:0.1892 22:2.2 23:0.1176 
-0.02123969716307325 1:2 2:1 3:13 4:26 5:0.6818 6:5 7:2 8:0.2273 9:0.4545 10:0.2273 11:0.0909 12:2 13:0.2083 14:4 15:0.593 16:86 17:0.2442 18:0.3256 19:0.2674 20:0.1628 21:0.1892 22:0.5 23:0.1538 
-0.01809469893928822 1:-1 2:0 3:8 4:27 5:0.6522 6:5 7:2 8:0.3043 9:0.3913 10:0.2609 11:0.0435 12:6 13:0.2 14:4 15:0.5897 16:78 17:0.2436 18:0.3205 19:0.2692 20:0.1667 21:0.1515 22:2 23:0 
-0.02683176040682835 1:2 2:1 3:15 4:22 5:0.7273 6:5 7:1 8:0.0909 9:0.2273 10:0.5 11:0.1818 12:64 13:0.15 14:2 15:0.5976 16:82 17:0.2317 18:0.3171 19:0.2805 20:0.1707 21:0.1429 22:1 23:0.1333 
-0.0102145182530138 1:-1 2:0 3:0 4:23 5:0.5652 6:7 7:3 8:0.2174 9:0.3043 10:0.2609 11:0.2174 12:43 13:0.3778 14:-1 15:0.5319 16:47 17:0.1915 18:0.2766 19:0.2553 20:0.2766 21:0.0968 22:0 23:-1 
-0.05216538100191591 1:1 2:1 3:8 4:27 5:0.5 6:2 7:5 8:0.25 9:0.1667 10:0.3333 11:0.25 12:58 13:0.1429 14:2 15:0.5375 16:80 17:0.175 18:0.275 19:0.2625 20:0.2875 21:0.125 22:1.25 23:0.0667 
-0.009486074593235123 1:-1 2:0 3:0 4:21 5:0.55 6:6 7:2 8:0.25 9:0.25 10:0.3 11:0.2 12:45 13:0.3171 14:4 15:0.5111 16:45 17:0.2 18:0.2444 19:0.2667 20:0.2889 21:0.0345 22:0 23:-1 
-0.1443574766075723 1:4 2:2 3:15 4:20 5:0.5 6:3 7:4 8:0.2 9:0.25 10:0.25 11:0.3 12:12 13:0.3158 14:2 15:0.4225 16:71 17:0.2535 18:0.2113 19:0.2113 20:0.3239 21:0.303 22:1 23:0.3333 
-0.02320631366534878 1:4 2:2 3:13 4:25 5:0.3478 6:3 7:4 8:0.3043 9:0.1739 10:0.1739 11:0.3478 12:63 13:0.2917 14:3 15:0.4416 16:77 17:0.2468 18:0.2208 19:0.2208 20:0.3117 21:0.3056 22:1.43 23:0.3846 
-0.02032780180359099 1:-1 2:0 3:0 4:20 5:0.35 6:4 7:3 8:0.35 9:0.2 10:0.15 11:0.3 12:49 13:0.35 14:3 15:0.4146 16:41 17:0.2439 18:0.2195 19:0.1951 20:0.3415 21:0.2778 22:0.43 23:-1 
-0.2966042764347058 1:3 2:2 3:13 4:22 5:0.5714 6:2 7:3 8:0.1905 9:0.2381 10:0.3333 11:0.2381 12:60 13:0.1429 14:4 15:0.5634 16:71 17:0.1549 18:0.2676 19:0.2958 20:0.2817 21:0.2239 22:1 23:0.36 
-0.1444999641217766 1:4 2:1 3:13 4:21 5:0.6667 6:6 7:2 8:0.0476 9:0.4286 10:0.2381 11:0.2857 12:1 13:0.4286 14:2 15:0.6528 16:72 17:0.1111 18:0.3472 19:0.3056 20:0.2361 21:0.3636 22:4 23:0.25 
-0.07052864176671508 1:-1 2:0 3:0 4:22 5:0.55 6:6 7:2 8:0.2 9:0.3 10:0.25 11:0.25 12:41 13:0.4286 14:4 15:0.625 16:48 17:0.125 18:0.3333 19:0.2917 20:0.25 21:0.4286 22:1.5 23:-1 
-0.0270444926007459 1:-1 2:0 3:0 4:20 5:0.5238 6:6 7:2 8:0.2857 9:0.3333 10:0.1905 11:0.1905 12:44 13:0.4 14:3 15:0.5122 16:41 17:0.1707 18:0.2683 19:0.2439 20:0.3171 21:0.1429 22:0 23:-1 
-0.2044403806793556 1:1 2:3 3:15 4:22 5:0.5455 6:2 7:4 8:0.3182 9:0.2273 10:0.3182 11:0.1364 12:55 13:0.3023 14:1 15:0.52 16:75 17:0.2 18:0.24 19:0.28 20:0.28 21:0.2286 22:0.64 23:0.1724 
-0.004244077087344268 1:-1 2:0 3:0 4:26 5:0.4167 6:2 7:5 8:0.125 9:0.2083 10:0.2083 11:0.4583 12:14 13:0.24 14:4 15:0.3922 16:51 17:0.2745 18:0.1765 19:0.2157 20:0.3333 21:0.1739 22:1.2 23:-1 
-0.09936892259259958 1:1 2:4 3:19 4:20 5:0.65 6:2 7:5 8:0.25 9:0.25 10:0.4 11:0.1 12:59 13:0.3333 14:1 15:0.5385 16:78 17:0.1923 18:0.2564 19:0.2821 20:0.2692 21:0.2329 22:0.67 23:0.1667 
-0.02475743855318552 1:1 2:4 3:14 4:26 5:0.625 6:3 7:3 8:0.2083 9:0.375 10:0.25 11:0.1667 12:1 13:0.2 14:1 15:0.5732 16:82 17:0.2317 18:0.2561 19:0.3171 20:0.1951 21:0.2 22:0.33 23:0.2593 
-0.03769593239182693 1:-1 2:0 3:0 4:23 5:0.4348 6:2 7:5 8:0.3913 9:0.1304 10:0.3043 11:0.1739 12:43 13:0.2093 14:4 15:0.5208 16:48 17:0.2917 18:0.2292 19:0.2917 20:0.1875 21:0.1707 22:1.25 23:-1 
-0.01459776655433692 1:4 2:3 3:27 4:20 5:0.85 6:3 7:3 8:0 9:0.5 10:0.35 11:0.15 12:2 13:0.2821 14:1 15:0.6667 16:93 17:0.172 18:0.3226 19:0.3441 20:0.1613 21:0.236 22:0.62 23:0.2 
-0.1030477965384358 1:1 2:1 3:4 4:20 5:0.5 6:3 7:3 8:0.2 9:0.15 10:0.35 11:0.3 12:25 13:0.2432 14:3 15:0.5208 16:48 17:0.2708 18:0.2292 19:0.2917 20:0.2083 21:0.2273 22:2.5 23:0.1429 
-0.06035086740739775 1:-1 2:0 3:0 4:27 5:0.5417 6:4 7:4 8:0.3333 9:0.2917 10:0.25 11:0.125 12:51 13:0.24 14:-1 15:0.5577 16:52 17:0.25 18:0.25 19:0.3077 20:0.1923 21:0.2083 22:0.89 23:-1 
-0.1126272272024345 1:2 2:1 3:5 4:21 5:0.5238 6:2 7:3 8:0.1905 9:0.1429 10:0.381 11:0.2857 12:23 13:0.2 14:3 15:0.5577 16:52 17:0.25 18:0.25 19:0.3077 20:0.1923 21:0.2083 22:1.8 23:0.25 
-0.0007411670051032513 1:4 2:3 3:25 4:23 5:0.7727 6:3 7:3 8:0.1364 9:0.3636 10:0.4091 11:0.0909 12:74 13:0.2889 14:1 15:0.6526 16:95 17:0.1684 18:0.3158 19:0.3368 20:0.1789 21:0.2527 22:5 23:0.2174 
-0.02292338673197264 1:1 2:2 3:13 4:20 5:0.5 6:5 7:3 8:0.2 9:0.15 10:0.35 11:0.3 12:2 13:0.4211 14:4 15:0.4868 16:76 17:0.2763 18:0.2632 19:0.2237 20:0.2368 21:0.3125 22:0 23:0.1538 
-0.02162386347159205 1:1 2:1 3:10 4:24 5:0.4583 6:6 7:4 8:0.2083 9:0.125 10:0.3333 11:0.3333 12:1 13:0.4348 14:2 15:0.4872 16:78 17:0.2692 18:0.2564 19:0.2308 20:0.2436 21:0.3333 22:0 23:0.1 
-0.009898269223719086 1:-1 2:0 3:0 4:20 5:0.3333 6:5 7:4 8:0.5238 9:0.1905 10:0.1429 11:0.1429 12:20 13:0.4 14:2 15:0.4524 16:42 17:0.3333 18:0.2857 19:0.1667 20:0.2143 21:0.2 22:5 23:-1 
-0.04990252310090884 1:2 2:5 3:19 4:23 5:0.6364 6:3 7:4 8:0.0909 9:0.2273 10:0.4091 11:0.2727 12:1 13:0.2273 14:1 15:0.4556 16:90 17:0.2778 18:0.2444 19:0.2111 20:0.2667 21:0.2405 22:0.18 23:0.2973 
-0.03286681251324358 1:1 2:5 3:17 4:22 5:0.5714 6:1 7:4 8:0.1429 9:0.2381 10:0.3333 11:0.2857 12:4 13:0.1429 14:4 15:0.4524 16:84 17:0.2857 18:0.2619 19:0.1905 20:0.2619 21:0.1781 22:1.12 23:0.2727 
-0.05765126729891056 1:1 2:3 3:11 4:24 5:0.5652 6:2 7:5 8:0.1739 9:0.2174 10:0.3478 11:0.2609 12:8 13:0.2174 14:4 15:0.4737 16:76 17:0.2763 18:0.2763 19:0.1974 20:0.25 21:0.2 22:0.88 23:0.2381 
-0.08426311986675618 1:2 2:5 3:18 4:24 5:0.3913 6:3 7:4 8:0.3478 9:0.2174 10:0.1739 11:0.2609 12:68 13:0.2174 14:4 15:0.4556 16:90 17:0.2778 18:0.2444 19:0.2111 20:0.2667 21:0.2405 22:5 23:0.3143 
-0.05086723119478913 1:-1 2:0 3:0 4:23 5:0.2727 6:2 7:3 8:0.1364 9:0.1364 10:0.1364 11:0.5909 12:17 13:0.1818 14:-1 15:0.413 16:46 17:0.1957 18:0.1739 19:0.2391 20:0.3913 21:0.1429 22:1.14 23:-1 
-0.0294134352669349 1:-1 2:0 3:0 4:20 5:0.6 6:2 7:2 8:0.2 9:0.2 10:0.4 11:0.2 12:41 13:0.1579 14:4 15:0.4524 16:42 17:0.1667 18:0.1905 19:0.2619 20:0.381 21:0.1579 22:1.5 23:-1 
-0.01930380802801045 1:3 2:3 3:20 4:24 5:0.4783 6:3 7:3 8:0.087 9:0.2609 10:0.2174 11:0.4348 12:1 13:0.2174 14:1 15:0.5402 16:87 17:0.2069 18:0.2529 19:0.2874 20:0.2529 21:0.175 22:3 23:0.1667 
-0.01643564556910645 1:2 2:4 3:22 4:20 5:0.7 6:1 7:4 8:0.2 9:0.2 10:0.5 11:0.1 12:68 13:0.2 14:4 15:0.5176 16:85 17:0.2118 18:0.2235 19:0.2941 20:0.2706 21:0.175 22:1.14 23:0.1905 
-0.01817179345105659 1:1 2:3 3:11 4:24 5:0.625 6:2 7:4 8:0.125 9:0.25 10:0.375 11:0.25 12:10 13:0.2083 14:4 15:0.493 16:71 17:0.2254 18:0.2254 19:0.2676 20:0.2817 21:0.1818 22:1.29 23:0.2 
-0.3931380294303525 1:3 2:2 3:9 4:21 5:0.65 6:2 7:1 8:0.25 9:0.4 10:0.25 11:0.1 12:61 13:0.0732 14:3 15:0.6389 16:72 17:0.1389 18:0.375 19:0.2639 20:0.2222 21:0.1724 22:0.82 23:0.4118 
-0.1659449572322315 1:3 2:2 3:10 4:28 5:0.75 6:4 7:2 8:0.2083 9:0.4583 10:0.2917 11:0.0417 12:62 13:0.1538 14:2 15:0.6706 16:85 17:0.1176 18:0.3765 19:0.2941 20:0.2118 21:0.2113 22:1.11 23:0.3684 
-0.06457750416848515 1:3 2:2 3:9 4:23 5:0.6818 6:2 7:1 8:0.2273 9:0.4091 10:0.2727 11:0.0909 12:61 13:0.0667 14:2 15:0.6579 16:76 17:0.1316 18:0.3816 19:0.2763 20:0.2105 21:0.1613 22:0.82 23:0.4118 
-0.0675631787005347 1:1 2:1 3:6 4:26 5:0.7083 6:3 7:2 8:0.2083 9:0.4167 10:0.2917 11:0.0833 12:59 13:0.16 14:2 15:0.6579 16:76 17:0.1316 18:0.3816 19:0.2763 20:0.2105 21:0.1613 22:0.36 23:0.1667 
-0.00542213508887157 1:1 2:2 3:7 4:23 5:0.5652 6:2 7:2 8:0.1304 9:0.2174 10:0.3478 11:0.3043 12:9 13:0.1556 14:2 15:0.6389 16:72 17:0.1389 18:0.375 19:0.2639 20:0.2222 21:0.1724 22:2.75 23:0.2308 
-0.0484623538104096 1:2 2:3 3:9 4:20 5:0.65 6:1 7:2 8:0.1 9:0.25 10:0.4 11:0.25 12:3 13:0.1 14:3 15:0.5606 16:66 17:0.1818 18:0.2121 19:0.3485 20:0.2576 21:0.2069 22:1.12 23:0.4444 
-0.2085959782050716 1:2 2:2 3:8 4:21 5:0.6667 6:1 7:3 8:0.0952 9:0.2857 10:0.381 11:0.2381 12:3 13:0.1429 14:3 15:0.5606 16:66 17:0.1818 18:0.2121 19:0.3485 20:0.2576 21:0.2069 22:1.5 23:0.375 
-1 1:2 2:2 3:8 4:21 5:0.4762 6:1 7:3 8:0.3333 9:0.2381 10:0.2381 11:0.1905 12:48 13:0.1429 14:1 15:0.5606 16:66 17:0.1818 18:0.2121 19:0.3485 20:0.2576 21:0.2069 22:0.67 23:0.375 
-0.4725176052988156 1:2 2:2 3:8 4:22 5:0.4545 6:2 7:3 8:0.3182 9:0.2273 10:0.2273 11:0.2273 12:48 13:0.1818 14:4 15:0.5441 16:68 17:0.1912 18:0.2059 19:0.3382 20:0.2647 21:0.2333 22:1 23:0.375 
-0.1676350288434951 1:4 2:1 3:15 4:23 5:0.5455 6:2 7:3 8:0.1818 9:0.1364 10:0.4091 11:0.2727 12:56 13:0.1364 14:4 15:0.4133 16:75 17:0.2933 18:0.1733 19:0.24 20:0.2933 21:0.1549 22:0.8 23:0.1852 
-0.006725244864627408 1:-1 2:0 3:8 4:24 5:0.5652 6:2 7:5 8:0.1304 9:0.2609 10:0.3043 11:0.3043 12:4 13:0.2444 14:2 15:0.5467 16:75 17:0.2 18:0.3067 19:0.24 20:0.2533 21:0.1803 22:1.33 23:0 
-0.1200884449329613 1:-1 2:0 3:0 4:20 5:0.6 6:2 7:4 8:0.15 9:0.3 10:0.3 11:0.25 12:37 13:0.2821 14:-1 15:0.5366 16:41 17:0.2195 18:0.2683 19:0.2683 20:0.2439 21:0.2432 22:1.25 23:-1 
-0.07032278732866434 1:-1 2:0 3:0 4:20 5:0.4762 6:2 7:4 8:0.2857 9:0.2381 10:0.2381 11:0.2381 12:16 13:0.2821 14:1 15:0.5366 16:41 17:0.2195 18:0.2683 19:0.2683 20:0.2439 21:0.2432 22:0.8 23:-1 
-0.4960950303170765 1:-1 2:0 3:1 4:27 5:0.5455 6:4 7:4 8:0.0909 9:0.1818 10:0.3636 11:0.3636 12:48 13:0.2653 14:3 15:0.4909 16:55 17:0.1818 18:0.2182 19:0.2727 20:0.3273 21:0.2549 22:1.43 23:0 
-0.0123183165089213 1:1 2:1 3:4 4:20 5:0.5 6:4 7:3 8:0.2 9:0.3 10:0.2 11:0.3 12:19 13:0.2778 14:4 15:0.5106 16:47 17:0.1702 18:0.2128 19:0.2979 20:0.3191 21:0.2558 22:1.2 23:0.1429 
-0.05724113388687029 1:-1 2:0 3:0 4:26 5:0.5 6:7 7:3 8:0.2083 9:0.2083 10:0.2917 11:0.2917 12:48 13:0.3878 14:-1 15:0.54 16:50 17:0.14 18:0.3 19:0.24 20:0.32 21:0.1429 22:0 23:-1 
-0.1059673947946004 1:6 2:2 3:18 4:24 5:0.4583 6:2 7:5 8:0.375 9:0.2917 10:0.1667 11:0.1667 12:59 13:0.2917 14:2 15:0.5244 16:82 17:0.1951 18:0.2439 19:0.2805 20:0.2805 21:0.3077 22:0.5 23:0.3333 
-0.05780025075607533 1:6 2:3 3:22 4:20 5:0.4 6:2 7:4 8:0.2 9:0.1 10:0.3 11:0.4 12:1 13:0.25 14:1 15:0.5244 16:82 17:0.1951 18:0.2439 19:0.2805 20:0.2805 21:0.3077 22:0.89 23:0.3684 
-0.07663495726127566 1:6 2:3 3:22 4:20 5:0.55 6:2 7:4 8:0.25 9:0.35 10:0.2 11:0.2 12:63 13:0.25 14:2 15:0.5244 16:82 17:0.1951 18:0.2439 19:0.2805 20:0.2805 21:0.3077 22:1.12 23:0.3684 
-0.02240334502854138 1:-1 2:0 3:0 4:21 5:0.5 6:2 7:4 8:0.2727 9:0.2273 10:0.2727 11:0.2273 12:37 13:0.25 14:3 15:0.4146 16:41 17:0.2439 18:0.122 19:0.2927 20:0.3415 21:0.2105 22:1.25 23:-1 
-0.1190944824674644 1:-1 2:0 3:0 4:24 5:0.381 6:2 7:4 8:0.1905 9:0.0476 10:0.3333 11:0.4286 12:15 13:0.2174 14:4 15:0.4255 16:47 17:0.234 18:0.1277 19:0.2979 20:0.3404 21:0.1818 22:1.4 23:-1 
-0.1706084254665838 1:2 2:3 3:15 4:22 5:0.6818 6:2 7:3 8:0.0909 9:0.3182 10:0.3636 11:0.2273 12:53 13:0.2727 14:3 15:0.5205 16:73 17:0.2055 18:0.1781 19:0.3425 20:0.274 21:0.2286 22:2 23:0.2143 
-0.0007699101264406205 1:2 2:3 3:16 4:21 5:0.6667 6:2 7:3 8:0.0952 9:0.2857 10:0.381 11:0.2381 12:54 13:0.2857 14:3 15:0.5205 16:73 17:0.2055 18:0.1781 19:0.3425 20:0.274 21:0.2286 22:1.4 23:0.2 
-0.008719126374850561 1:2 2:3 3:15 4:23 5:0.6957 6:3 7:3 8:0.087 9:0.3478 10:0.3478 11:0.2174 12:53 13:0.3043 14:3 15:0.5333 16:75 17:0.2 18:0.1867 19:0.3467 20:0.2667 21:0.25 22:5 23:0.2143 
-0.02452345265629297 1:1 2:1 3:3 4:20 5:0.5 6:2 7:3 8:0.3 9:0.2 10:0.3 11:0.2 12:41 13:0.2105 14:1 15:0.4444 16:45 17:0.2222 18:0.1333 19:0.3111 20:0.3333 21:0.1905 22:0.8 23:0.3333 
-0.01128077582927634 1:-1 2:0 3:0 4:24 5:0.4783 6:1 7:3 8:0.1304 9:0.2174 10:0.2609 11:0.3913 12:41 13:0.087 14:3 15:0.451 16:51 17:0.2353 18:0.1961 19:0.2549 20:0.3137 21:0.0455 22:0.45 23:-1 
-0.063499248393624 1:1 2:2 3:16 4:20 5:0.65 6:1 7:3 8:0.2 9:0.4 10:0.25 11:0.15 12:1 13:0.1282 14:4 15:0.52 16:75 17:0.1867 18:0.24 19:0.28 20:0.2933 21:0.0882 22:1 23:0.0968 
-0.02069388408446372 1:2 2:3 3:17 4:21 5:0.5714 6:3 7:1 8:0.0476 9:0.3333 10:0.2381 11:0.381 12:1 13:0.1429 14:4 15:0.6049 16:81 17:0.1975 18:0.2963 19:0.3086 20:0.1975 21:0.1733 22:0.38 23:0.2121 
-0.004728321751394267 1:-1 2:0 3:0 4:20 5:0.6 6:2 7:4 8:0.3 9:0.3 10:0.3 11:0.1 12:42 13:0.2821 14:-1 15:0.6098 16:41 17:0.1951 18:0.3171 19:0.2927 20:0.1951 21:0.2 22:0.71 23:-1 
-0.0008793180977152738 1:-1 2:0 3:1 4:22 5:0.5 6:2 7:3 8:0.0455 9:0.2727 10:0.2273 11:0.4545 12:16 13:0.1628 14:4 15:0.549 16:51 17:0.2157 18:0.2745 19:0.2745 20:0.2353 21:0.1556 22:1.8 23:0 
-0.1328381662231691 1:2 2:3 3:17 4:27 5:0.625 6:2 7:5 8:0.2917 9:0.2083 10:0.4167 11:0.0833 12:68 13:0.2157 14:3 15:0.6044 16:91 17:0.1868 18:0.3077 19:0.2967 20:0.2088 21:0.2289 22:1.17 23:0.25 
-0.02146418355336118 1:-1 2:0 3:0 4:20 5:0.5 6:2 7:4 8:0.3 9:0.15 10:0.35 11:0.2 12:21 13:0.2632 14:4 15:0.4524 16:42 17:0.2381 18:0.2143 19:0.2381 20:0.3095 21:0.2632 22:0.71 23:-1 
-0.06687090240688769 1:1 2:2 3:13 4:27 5:0.4167 6:2 7:5 8:0.2917 9:0.125 10:0.2917 11:0.2917 12:7 13:0.2157 14:2 15:0.4096 16:83 17:0.2771 18:0.1807 19:0.2289 20:0.3133 21:0.1733 22:1.12 23:0.0833 
-0.04205730512436268 1:1 2:3 3:19 4:27 5:0.5 6:3 7:5 8:0.1667 9:0.125 10:0.375 11:0.3333 12:1 13:0.28 14:4 15:0.4255 16:94 17:0.266 18:0.1915 19:0.234 20:0.3085 21:0.2093 22:0.2 23:0.1111 
-0.008382635721131848 1:1 2:2 3:18 4:21 5:0.4286 6:2 7:5 8:0.2857 9:0.2381 10:0.1905 11:0.2857 12:68 13:0.2821 14:3 15:0.3951 16:81 17:0.284 18:0.1728 19:0.2222 20:0.321 21:0.1781 22:1.33 23:0.0588 
-0.03363299889615078 1:1 2:3 3:20 4:26 5:0.4783 6:3 7:5 8:0.1739 9:0.1304 10:0.3478 11:0.3478 12:1 13:0.2917 14:2 15:0.4255 16:94 17:0.266 18:0.1915 19:0.234 20:0.3085 21:0.2093 22:0.22 23:0.1053 
-0.2613266707714679 1:1 2:1 3:11 4:21 5:0.3 6:1 7:4 8:0.35 9:0.05 10:0.25 11:0.35 12:13 13:0.15 14:4 15:0.3333 16:69 17:0.3333 18:0.1594 19:0.1739 20:0.3333 21:0.1148 22:1 23:0.0476 
-0.5482363429624995 1:1 2:1 3:11 4:21 5:0.25 6:1 7:4 8:0.35 9:0.25 10:0 11:0.4 12:62 13:0.15 14:2 15:0.3333 16:69 17:0.3333 18:0.1594 19:0.1739 20:0.3333 21:0.1148 22:1.29 23:0.0476 
-0.01441083170278081 1:-1 2:0 3:0 4:22 5:0.65 6:3 7:3 8:0.1 9:0.4 10:0.25 11:0.25 12:22 13:0.2683 14:1 15:0.5714 16:42 17:0.1429 18:0.2857 19:0.2857 20:0.2857 21:0.1429 22:5 23:-1 
-0.0360095239275522 1:2 2:3 3:15 4:24 5:0.5217 6:4 7:4 8:0.2174 9:0.3478 10:0.1739 11:0.2609 12:70 13:0.2273 14:4 15:0.4943 16:87 17:0.1954 18:0.2529 19:0.2414 20:0.3103 21:0.2329 22:1 23:0.2414 
-0.0193826927866545 1:2 2:4 3:21 4:21 5:0.5 6:4 7:4 8:0.3 9:0.3 10:0.2 11:0.2 12:76 13:0.2632 14:2 15:0.4946 16:93 17:0.1935 18:0.2473 19:0.2473 20:0.3118 21:0.2405 22:0.5 23:0.2195 
-0.0385110638581956 1:1 2:3 3:14 4:22 5:0.5238 6:4 7:4 8:0.2381 9:0.3333 10:0.1905 11:0.2381 12:69 13:0.2683 14:2 15:0.4756 16:82 17:0.2073 18:0.2439 19:0.2317 20:0.3171 21:0.2353 22:0.89 23:0.1852 
-0.00435783794409083 1:2 2:4 3:21 4:23 5:0.5 6:4 7:4 8:0.1 9:0.25 10:0.25 11:0.4 12:1 13:0.3333 14:2 15:0.5052 16:97 17:0.1856 18:0.268 19:0.2371 20:0.3093 21:0.2771 22:0.75 23:0.2195 
-0.01205765839883783 1:1 2:1 3:8 4:24 5:0.4583 6:4 7:4 8:0.2083 9:0.375 10:0.0833 11:0.3333 12:63 13:0.3043 14:2 15:0.4667 16:75 17:0.2133 18:0.2533 19:0.2133 20:0.32 21:0.2459 22:0.89 23:0.0667 
-0.01462213051514819 1:2 2:3 3:17 4:24 5:0.5217 6:4 7:4 8:0.2609 9:0.3913 10:0.1304 11:0.2174 12:72 13:0.2273 14:4 15:0.4945 16:91 17:0.1978 18:0.2527 19:0.2418 20:0.3077 21:0.2208 22:1.12 23:0.2121 
-0.00514632229424412 1:2 2:3 3:17 4:22 5:0.5238 6:4 7:4 8:0.2381 9:0.381 10:0.1429 11:0.2381 12:72 13:0.25 14:4 15:0.4943 16:87 17:0.1954 18:0.2529 19:0.2414 20:0.3103 21:0.2329 22:1.12 23:0.2121 
-0.01614243413882696 1:1 2:2 3:12 4:21 5:0.4762 6:4 7:3 8:0.2381 9:0.3333 10:0.1429 11:0.2857 12:67 13:0.3 14:4 15:0.4805 16:77 17:0.2078 18:0.2597 19:0.2208 20:0.3117 21:0.2381 22:0.4 23:0.1304 
-0.1464017823821361 1:2 2:3 3:16 4:27 5:0.5417 6:4 7:5 8:0.0833 9:0.2083 10:0.3333 11:0.375 12:2 13:0.28 14:4 15:0.5053 16:95 17:0.1895 18:0.2632 19:0.2421 20:0.3053 21:0.2593 22:0.56 23:0.2258 
-0.08844534279275225 1:2 2:4 3:23 4:21 5:0.55 6:4 7:4 8:0.3 9:0.35 10:0.2 11:0.15 12:78 13:0.3684 14:3 15:0.5052 16:97 17:0.1856 18:0.268 19:0.2371 20:0.3093 21:0.2771 22:0 23:0.2 
-0.03731176935157911 1:-1 2:0 3:0 4:23 5:0.25 6:2 7:3 8:0.2083 9:0 10:0.25 11:0.5417 12:19 13:0.1818 14:-1 15:0.3043 16:46 17:0.3261 18:0.1087 19:0.1957 20:0.3696 21:0.1429 22:1.5 23:-1 
-0.08423245303797072 1:2 2:2 3:9 4:26 5:0.4167 6:2 7:3 8:0.2083 9:0.1667 10:0.25 11:0.375 12:7 13:0.102 14:1 15:0.359 16:78 17:0.3077 18:0.1667 19:0.1923 20:0.3333 21:0.1385 22:0.89 23:0.3333 
-0.03174131237848399 1:-1 2:0 3:0 4:23 5:0.25 6:6 7:2 8:0.5 9:0.2083 10:0.0417 11:0.25 12:45 13:0.3478 14:-1 15:0.2979 16:47 17:0.3404 18:0.1277 19:0.1702 20:0.3617 21:0.1176 22:0 23:-1 
-0.01228739669756835 1:2 2:2 3:16 4:25 5:0.4583 6:3 7:4 8:0.25 9:0.25 10:0.2083 11:0.2917 12:67 13:0.234 14:3 15:0.3778 16:90 17:0.2889 18:0.1889 19:0.1889 20:0.3333 21:0.1948 22:3 23:0.1875 
-0.5480902558924566 1:-1 2:0 3:0 4:24 5:0.5217 6:3 7:5 8:0.2609 9:0.2174 10:0.3043 11:0.2174 12:21 13:0.2609 14:-1 15:0.5417 16:48 17:0.2083 18:0.3125 19:0.2292 20:0.25 21:0.2273 22:1.17 23:-1 
-0.02461534324555107 1:-1 2:0 3:0 4:23 5:0.5909 6:2 7:5 8:0.2727 9:0.3182 10:0.2727 11:0.1364 12:37 13:0.3182 14:-1 15:0.6522 16:46 17:0.2174 18:0.3913 19:0.2609 20:0.1304 21:0.25 22:1 23:-1 
-0.07564114278617994 1:-1 2:0 3:0 4:25 5:0.5833 6:2 7:6 8:0.25 9:0.2917 10:0.2917 11:0.1667 12:37 13:0.375 14:-1 15:0.64 16:50 17:0.2 18:0.36 19:0.28 20:0.16 21:0.3182 22:1.5 23:-1 
-0.03002659255500244 1:-1 2:0 3:0 4:24 5:0.6087 6:2 7:6 8:0.2609 9:0.3043 10:0.3043 11:0.1304 12:37 13:0.3478 14:-1 15:0.6458 16:48 17:0.2083 18:0.375 19:0.2708 20:0.1458 21:0.2857 22:1.5 23:-1 
-0.07260266802946881 1:-1 2:0 3:0 4:25 5:0.6087 6:2 7:6 8:0.2174 9:0.3043 10:0.3043 11:0.1739 12:38 13:0.375 14:3 15:0.64 16:50 17:0.2 18:0.36 19:0.28 20:0.16 21:0.3182 22:1.5 23:-1 
-0.4990595270954986 1:-1 2:0 3:0 4:23 5:0.6957 6:2 7:5 8:0.1304 9:0.3913 10:0.3043 11:0.1739 12:11 13:0.3182 14:2 15:0.64 16:50 17:0.2 18:0.36 19:0.28 20:0.16 21:0.3182 22:0.67 23:-1 
-0.009593450039973014 1:-1 2:0 3:8 4:23 5:0.4783 6:2 7:3 8:0.1304 9:0.1739 10:0.3043 11:0.3913 12:2 13:0.2609 14:3 15:0.5641 16:78 17:0.1795 18:0.2692 19:0.2949 20:0.2564 21:0.1935 22:1.2 23:0 
-0.05176792810648732 1:-1 2:0 3:8 4:23 5:0.6957 6:2 7:3 8:0.2609 9:0.4348 10:0.2609 11:0.0435 12:57 13:0.2609 14:2 15:0.5641 16:78 17:0.1795 18:0.2692 19:0.2949 20:0.2564 21:0.1935 22:0.83 23:0 
-0.04536995913163712 1:2 2:1 3:12 4:20 5:0.5 6:3 7:2 8:0.1 9:0.15 10:0.35 11:0.4 12:1 13:0.25 14:1 15:0.5625 16:80 17:0.1875 18:0.2625 19:0.3 20:0.25 21:0.2188 22:0.33 23:0.1667 
-0.1032034482347464 1:-1 2:0 3:0 4:21 5:0.4286 6:7 7:2 8:0.0952 9:0.0952 10:0.3333 11:0.4762 12:19 13:0.4286 14:4 15:0.4773 16:44 17:0.2273 18:0.2045 19:0.2727 20:0.2955 21:0.1429 22:5 23:-1 
-0.006574569470086333 1:-1 2:0 3:0 4:21 5:0.5238 6:7 7:2 8:0.381 9:0.2857 10:0.2381 11:0.0952 12:42 13:0.4286 14:4 15:0.4773 16:44 17:0.2273 18:0.2045 19:0.2727 20:0.2955 21:0.1429 22:0 23:-1 
-0.0388753044932771 1:-1 2:0 3:0 4:20 5:0.5 6:4 7:2 8:0.4 9:0.25 10:0.25 11:0.1 12:45 13:0.3 14:1 15:0.4792 16:48 17:0.2292 18:0.2083 19:0.2708 20:0.2917 21:0.125 22:0 23:-1 
-0.02349805431586542 1:-1 2:0 3:10 4:21 5:0.4762 6:2 7:3 8:0.1429 9:0.1905 10:0.2857 11:0.381 12:2 13:0.2857 14:1 15:0.5641 16:78 17:0.1795 18:0.2692 19:0.2949 20:0.2564 21:0.1935 22:1.5 23:0 
-0.02616925095275861 1:1 2:2 3:11 4:20 5:0.6 6:2 7:3 8:0.15 9:0.4 10:0.2 11:0.25 12:1 13:0.2 14:1 15:0.4648 16:71 17:0.2113 18:0.2254 19:0.2394 20:0.3239 21:0.1803 22:0.8 23:0.1429 
-0.03748996117070143 1:-1 2:0 3:0 4:21 5:0.4 6:2 7:5 8:0.35 9:0.15 10:0.25 11:0.25 12:39 13:0.3659 14:4 15:0.4524 16:42 17:0.2857 18:0.2381 19:0.2143 20:0.2619 21:0.2973 22:1 23:-1 
-0.003290673075210448 1:1 2:3 3:13 4:26 5:0.6522 6:2 7:4 8:0.0435 9:0.3043 10:0.3478 11:0.3043 12:6 13:0.1837 14:1 15:0.5412 16:85 17:0.1647 18:0.2471 19:0.2941 20:0.2941 21:0.1667 22:1 23:0.2 
-0.02965594630772594 1:2 2:4 3:24 4:20 5:0.45 6:3 7:4 8:0.35 9:0.15 10:0.3 11:0.2 12:76 13:0.3333 14:4 15:0.4947 16:95 17:0.2105 18:0.2316 19:0.2632 20:0.2947 21:0.2195 22:4 23:0.1556 
-0.02952945993719663 1:1 2:3 3:11 4:25 5:0.5652 6:2 7:3 8:0.0435 9:0.2609 10:0.3043 11:0.3913 12:8 13:0.1667 14:1 15:0.5375 16:80 17:0.175 18:0.25 19:0.2875 20:0.2875 21:0.1642 22:1.22 23:0.2381 
-0.06650622534461503 1:3 2:1 3:12 4:28 5:0.5 6:4 7:4 8:0.2917 9:0.2083 10:0.2917 11:0.2083 12:61 13:0.28 14:1 15:0.4881 16:84 17:0.2024 18:0.2381 19:0.25 20:0.3095 21:0.25 22:0.71 23:0.1818 
-0.0128219947418181 1:2 2:2 3:15 4:24 5:0.5 6:1 7:4 8:0.25 9:0.1667 10:0.3333 11:0.25 12:62 13:0.1667 14:4 15:0.5059 16:85 17:0.2118 18:0.2353 19:0.2706 20:0.2824 21:0.1948 22:1.8 23:0.2414 
-0.01302780145464839 1:2 2:1 3:4 4:21 5:0.4 6:4 7:2 8:0.4 9:0.05 10:0.35 11:0.2 12:43 13:0.2632 14:2 15:0.4583 16:48 17:0.2917 18:0.1667 19:0.2917 20:0.25 21:0.2727 22:0 23:0.3333 
-0.02559480984003581 1:-1 2:0 3:0 4:23 5:0.4783 6:6 7:3 8:0.3043 9:0.087 10:0.3913 11:0.2174 12:37 13:0.35 14:-1 15:0.4762 16:42 17:0.2857 18:0.1667 19:0.3095 20:0.2381 21:0.3158 22:0.75 23:-1 
-0.06210078951043663 1:6 2:2 3:19 4:20 5:0.5 6:1 7:2 8:0.2 9:0.3 10:0.2 11:0.3 12:1 13:0.1 14:4 15:0.5132 16:76 17:0.25 18:0.1842 19:0.3289 20:0.2368 21:0.2222 22:0.89 23:0.375 
-0.4400758041980464 1:-1 2:0 3:0 4:28 5:0.4583 6:6 7:3 8:0.25 9:0.2917 10:0.1667 11:0.2917 12:13 13:0.28 14:-1 15:0.4615 16:52 17:0.2885 18:0.1731 19:0.2885 20:0.25 21:0.25 22:1.5 23:-1 
-0.04098266445078333 1:6 2:2 3:17 4:22 5:0.4545 6:1 7:2 8:0.2273 9:0.2727 10:0.1818 11:0.3182 12:1 13:0.0909 14:4 15:0.5132 16:76 17:0.25 18:0.1842 19:0.3289 20:0.2368 21:0.2222 22:1 23:0.4286 
-0.09774405589459756 1:2 2:1 3:4 4:23 5:0.4091 6:4 7:2 8:0.3636 9:0.0455 10:0.3636 11:0.2273 12:43 13:0.2381 14:4 15:0.4615 16:52 17:0.2885 18:0.1731 19:0.2885 20:0.25 21:0.25 22:0 23:0.3333 
-0.023159696330056 1:-1 2:0 3:0 4:25 5:0.4583 6:6 7:3 8:0.3333 9:0.0833 10:0.375 11:0.2083 12:38 13:0.3182 14:4 15:0.4783 16:46 17:0.2826 18:0.1739 19:0.3043 20:0.2391 21:0.2857 22:0.67 23:-1 
-0.2813461758311154 1:6 2:2 3:16 4:23 5:0.4348 6:1 7:2 8:0.2609 9:0.0435 10:0.3913 11:0.3043 12:54 13:0.087 14:2 15:0.5132 16:76 17:0.25 18:0.1842 19:0.3289 20:0.2368 21:0.2222 22:1 23:0.4615 
-0.6016670716058286 1:-1 2:0 3:0 4:28 5:0.4348 6:6 7:3 8:0.2609 9:0.2609 10:0.1739 11:0.3043 12:13 13:0.28 14:3 15:0.4615 16:52 17:0.2885 18:0.1731 19:0.2885 20:0.25 21:0.25 22:1.5 23:-1 
-0.04143414573652179 1:-1 2:0 3:0 4:28 5:0.35 6:7 7:4 8:0.4 9:0.05 10:0.3 11:0.25 12:53 13:0.2917 14:4 15:0.3462 16:52 17:0.3269 18:0.1154 19:0.2308 20:0.3269 21:0.2917 22:1.11 23:-1 
-0.0015401500862457 1:7 2:2 3:18 4:24 5:0.4583 6:2 7:4 8:0.2083 9:0.2083 10:0.25 11:0.3333 12:7 13:0.2083 14:4 15:0.4375 16:80 17:0.2875 18:0.175 19:0.2625 20:0.275 21:0.2368 22:2.75 23:0.2857 
-0.2039909573066904 1:7 2:3 3:22 4:23 5:0.5652 6:1 7:3 8:0.2609 9:0.1739 10:0.3913 11:0.1739 12:67 13:0.1304 14:1 15:0.4767 16:86 17:0.2674 18:0.1977 19:0.2791 20:0.2558 21:0.2195 22:0.55 23:0.3333 
-0.24893034178351 1:7 2:3 3:19 4:21 5:0.4762 6:1 7:4 8:0.2381 9:0.2381 10:0.2381 11:0.2857 12:9 13:0.1905 14:4 15:0.4342 16:76 17:0.2895 18:0.1711 19:0.2632 20:0.2763 21:0.25 22:1.33 23:0.3333 
-0.01428269455946164 1:7 2:4 3:27 4:20 5:0.6 6:2 7:3 8:0.15 9:0.25 10:0.35 11:0.25 12:72 13:0.2 14:3 15:0.4778 16:90 17:0.2667 18:0.2111 19:0.2667 20:0.2556 21:0.2558 22:1.5 23:0.3043 
-0.008889295250925251 1:7 2:3 3:19 4:24 5:0.5 6:1 7:4 8:0.2083 9:0.25 10:0.25 11:0.2917 12:6 13:0.1667 14:4 15:0.4512 16:82 17:0.2805 18:0.1829 19:0.2683 20:0.2683 21:0.2308 22:1.83 23:0.3333 
-0.03163057721350943 1:7 2:3 3:22 4:21 5:0.5238 6:1 7:3 8:0.2381 9:0.2857 10:0.2381 11:0.2381 12:6 13:0.1429 14:1 15:0.4512 16:82 17:0.2805 18:0.1829 19:0.2683 20:0.2683 21:0.2308 22:1.83 23:0.3333 
-0.004370943142499461 1:-1 2:0 3:0 4:21 5:0.3333 6:3 7:5 8:0.2381 9:0.2381 10:0.0952 11:0.4286 12:25 13:0.3 14:-1 15:0.3095 16:42 17:0.3095 18:0.119 19:0.1905 20:0.381 21:0.2632 22:0.29 23:-1 
-0.01357518797729529 1:1 2:3 3:16 4:23 5:0.6364 6:3 7:4 8:0.0909 9:0.3636 10:0.2727 11:0.2727 12:7 13:0.2444 14:3 15:0.5063 16:79 17:0.2278 18:0.2152 19:0.2911 20:0.2658 21:0.2 22:4.5 23:0.1333 
-0.06650075490503131 1:1 2:3 3:14 4:25 5:0.625 6:3 7:4 8:0.125 9:0.375 10:0.25 11:0.25 12:7 13:0.2245 14:1 15:0.5063 16:79 17:0.2278 18:0.2152 19:0.2911 20:0.2658 21:0.2 22:1.8 23:0.1538 
-0.0108724772335698 1:1 2:4 3:17 4:21 5:0.4762 6:2 7:1 8:0.2381 9:0.2381 10:0.2381 11:0.2857 12:64 13:0.0952 14:4 15:0.4231 16:78 17:0.2692 18:0.2051 19:0.2179 20:0.3077 21:0.1351 22:0.9 23:0.1875 
-0.001591154451342589 1:-1 2:0 3:0 4:22 5:0.2857 6:1 7:5 8:0.3333 9:0.0476 10:0.2381 11:0.381 12:47 13:0.1905 14:-1 15:0.3409 16:44 17:0.3182 18:0.1818 19:0.1591 20:0.3409 21:0.15 22:0.78 23:-1 
-0.09459641876675279 1:1 2:4 3:24 4:20 5:0.55 6:3 7:2 8:0.2 9:0.2 10:0.35 11:0.25 12:1 13:0.25 14:2 15:0.4444 16:90 17:0.2556 18:0.2222 19:0.2222 20:0.3 21:0.186 22:0.2 23:0.1304 
-0.07532287280900443 1:1 2:4 3:21 4:23 5:0.5652 6:3 7:2 8:0.2174 9:0.3478 10:0.2174 11:0.2174 12:68 13:0.2174 14:1 15:0.4444 16:90 17:0.2556 18:0.2222 19:0.2222 20:0.3 21:0.186 22:5 23:0.15 
-0.07433981355550807 1:1 2:4 3:20 4:20 5:0.55 6:2 7:1 8:0.15 9:0.2 10:0.35 11:0.3 12:5 13:0.1 14:1 15:0.439 16:82 17:0.2561 18:0.2073 19:0.2317 20:0.3049 21:0.1282 22:0.9 23:0.1579 
-0.009751757868258886 1:-1 2:0 3:10 4:22 5:0.5455 6:2 7:4 8:0.1364 9:0.4545 10:0.0909 11:0.3182 12:2 13:0.2558 14:2 15:0.5342 16:73 17:0.2055 18:0.2603 19:0.274 20:0.2603 21:0.1746 22:0.67 23:0 
-0.05175926282251486 1:-1 2:0 3:9 4:24 5:0.5417 6:3 7:4 8:0.125 9:0.4167 10:0.125 11:0.3333 12:1 13:0.2766 14:4 15:0.5333 16:75 17:0.2 18:0.2533 19:0.28 20:0.2667 21:0.2 22:0.33 23:0 
-0.1295126707186087 1:-1 2:0 3:9 4:24 5:0.6522 6:3 7:4 8:0.1739 9:0.1739 10:0.4783 11:0.1739 12:53 13:0.2766 14:4 15:0.5333 16:75 17:0.2 18:0.2533 19:0.28 20:0.2667 21:0.2 22:4 23:0 
-0.01267915460302108 1:-1 2:0 3:9 4:23 5:0.5652 6:2 7:4 8:0.1304 9:0.4348 10:0.1304 11:0.3043 12:2 13:0.2444 14:4 15:0.5342 16:73 17:0.2055 18:0.2603 19:0.274 20:0.2603 21:0.1746 22:0.67 23:0 
-0.1667360515908381 1:-1 2:0 3:0 4:23 5:0.5 6:3 7:2 8:0.3182 9:0.1364 10:0.3636 11:0.1818 12:41 13:0.1556 14:4 15:0.5102 16:49 17:0.2449 18:0.2245 19:0.2857 20:0.2449 21:0.0256 22:0.33 23:-1 
-0.0162434192801978 1:-1 2:0 3:0 4:23 5:0.6522 6:5 7:2 8:0.1739 9:0.3478 10:0.3043 11:0.1739 12:37 13:0.2609 14:2 15:0.58 16:50 17:0.22 18:0.3 19:0.28 20:0.2 21:0.2609 22:0.67 23:-1 
-0.05689801121791009 1:-1 2:0 3:0 4:20 5:0.5238 6:5 7:3 8:0.2857 9:0.2857 10:0.2381 11:0.1905 12:14 13:0.35 14:3 15:0.619 16:42 17:0.2143 18:0.3333 19:0.2857 20:0.1667 21:0.3158 22:1.33 23:-1 
-0.06994859927883504 1:-1 2:0 3:0 4:21 5:0.7273 6:5 7:3 8:0.1364 9:0.3636 10:0.3636 11:0.1364 12:35 13:0.3333 14:4 15:0.6364 16:44 17:0.2045 18:0.3409 19:0.2955 20:0.1591 21:0.3 22:0.75 23:-1 
-0.009723131131303795 1:-1 2:0 3:0 4:20 5:0.7 6:5 7:2 8:0.15 9:0.4 10:0.3 11:0.15 12:37 13:0.3 14:4 15:0.6364 16:44 17:0.2045 18:0.3409 19:0.2955 20:0.1591 21:0.3 22:0.75 23:-1 
-0.05378578223295157 1:-1 2:0 3:0 4:23 5:0.7083 6:5 7:3 8:0.1667 9:0.3333 10:0.375 11:0.125 12:35 13:0.3043 14:1 15:0.6042 16:48 17:0.2083 18:0.3125 19:0.2917 20:0.1875 21:0.2727 22:0.86 23:-1 
-0.04342649392229736 1:-1 2:0 3:0 4:24 5:0.5 6:5 7:3 8:0.25 9:0.2917 10:0.2083 11:0.25 12:10 13:0.2917 14:3 15:0.58 16:50 17:0.22 18:0.3 19:0.28 20:0.2 21:0.2609 22:1.5 23:-1 
-0.0787040345315792 1:-1 2:0 3:0 4:20 5:0.6 6:5 7:2 8:0.2 9:0.35 10:0.25 11:0.2 12:13 13:0.3 14:3 15:0.6364 16:44 17:0.2045 18:0.3409 19:0.2955 20:0.1591 21:0.3 22:1.33 23:-1 
-0.09777566185642503 1:1 2:3 3:16 4:29 5:0.5833 6:4 7:4 8:0.25 9:0.2917 10:0.2917 11:0.1667 12:3 13:0.283 14:4 15:0.4713 16:87 17:0.2529 18:0.1954 19:0.2759 20:0.2759 21:0.2289 22:1 23:0.1333 
-0.01581529729112404 1:1 2:3 3:22 4:20 5:0.55 6:3 7:4 8:0.2 9:0.2 10:0.35 11:0.25 12:67 13:0.2973 14:3 15:0.4819 16:83 17:0.2289 18:0.2048 19:0.2771 20:0.2892 21:0.1899 22:1.17 23:0.0952 
-0.116588805607178 1:1 2:3 3:23 4:24 5:0.4583 6:6 7:4 8:0.3333 9:0.1667 10:0.2917 11:0.2083 12:68 13:0.4419 14:4 15:0.4725 16:91 17:0.2527 18:0.2088 19:0.2637 20:0.2747 21:0.2644 22:5 23:0.0909 
-0.01393451713328721 1:-1 2:0 3:0 4:21 5:0.4 6:1 7:3 8:0.2 9:0.2 10:0.2 11:0.4 12:46 13:0.1 14:4 15:0.4091 16:44 17:0.2045 18:0.1591 19:0.25 20:0.3864 21:0.1 22:0.6 23:-1 
-0.09487479327205872 1:1 2:3 3:25 4:21 5:0.4762 6:5 7:4 8:0.381 9:0.1429 10:0.3333 11:0.1429 12:70 13:0.4595 14:4 15:0.4607 16:89 17:0.2584 18:0.191 19:0.2697 20:0.2809 21:0.2471 22:4 23:0.0833 
-0.07486815047331861 1:-1 2:0 3:0 4:21 5:0.5 6:2 7:4 8:0.2 9:0.2 10:0.3 11:0.3 12:49 13:0.1579 14:4 15:0.5238 16:42 17:0.1905 18:0.2143 19:0.3095 20:0.2857 21:0.1579 22:1.33 23:-1 
-0.0524741213186814 1:-1 2:0 3:0 4:20 5:0.55 6:5 7:2 8:0.1 9:0.2 10:0.35 11:0.35 12:41 13:0.3 14:4 15:0.5854 16:41 17:0.0976 18:0.2927 19:0.2927 20:0.3171 21:0.0667 22:0 23:-1 
-0.07992475540890215 1:2 2:3 3:15 4:21 5:0.5714 6:1 7:5 8:0.1905 9:0.381 10:0.1905 11:0.2381 12:1 13:0.2195 14:1 15:0.5595 16:84 17:0.1905 18:0.2262 19:0.3333 20:0.25 21:0.2174 22:0.62 23:0.2667 
-0.09451953140374789 1:2 2:3 3:11 4:25 5:0.5417 6:1 7:5 8:0.2083 9:0.1667 10:0.375 11:0.25 12:61 13:0.1837 14:4 15:0.5595 16:84 17:0.1905 18:0.2262 19:0.3333 20:0.25 21:0.2174 22:2 23:0.3636 
-0.05957804999976085 1:2 2:3 3:15 4:21 5:0.55 6:1 7:5 8:0.2 9:0.15 10:0.4 11:0.25 12:65 13:0.2195 14:4 15:0.5595 16:84 17:0.1905 18:0.2262 19:0.3333 20:0.25 21:0.2174 22:2 23:0.2667 
-0.05121177786917357 1:2 2:3 3:13 4:23 5:0.5652 6:1 7:5 8:0.1739 9:0.3478 10:0.2174 11:0.2609 12:1 13:0.2 14:4 15:0.5595 16:84 17:0.1905 18:0.2262 19:0.3333 20:0.25 21:0.2174 22:0.62 23:0.3077 
-0.01392868085335184 1:1 2:3 3:14 4:23 5:0.4348 6:6 7:3 8:0.2609 9:0.1304 10:0.3043 11:0.3043 12:1 13:0.25 14:3 15:0.4058 16:69 17:0.2319 18:0.1449 19:0.2609 20:0.3623 21:0.1875 22:0 23:0.1538 
-0.0433001505912548 1:1 2:3 3:15 4:22 5:0.4545 6:6 7:3 8:0.2273 9:0.1364 10:0.3182 11:0.3182 12:1 13:0.2632 14:4 15:0.4058 16:69 17:0.2319 18:0.1449 19:0.2609 20:0.3623 21:0.1875 22:0 23:0.1429 
-0.02836522519621102 1:1 2:3 3:16 4:20 5:0.5 6:5 7:3 8:0.2 9:0.15 10:0.35 11:0.3 12:2 13:0.2571 14:4 15:0.4118 16:68 17:0.2353 18:0.1471 19:0.2647 20:0.3529 21:0.1746 22:0 23:0.1333 
-0.1469097982800039 1:1 2:3 3:17 4:20 5:0.45 6:6 7:3 8:0.2 9:0.15 10:0.3 11:0.35 12:1 13:0.2941 14:2 15:0.4058 16:69 17:0.2319 18:0.1449 19:0.2609 20:0.3623 21:0.1875 22:0 23:0.125 
-0.8544116719944621 1:1 2:3 3:11 4:20 5:0.35 6:1 7:2 8:0.2 9:0.2 10:0.15 11:0.45 12:50 13:0.1 14:1 15:0.4127 16:63 17:0.254 18:0.1587 19:0.254 20:0.3333 21:0.1034 22:1.11 23:0.2 
-0.02638017003330908 1:-1 2:0 3:0 4:28 5:0.4348 6:3 7:5 8:0.3043 9:0.3043 10:0.1304 11:0.2609 12:50 13:0.32 14:2 15:0.5192 16:52 17:0.25 18:0.3077 19:0.2115 20:0.2308 21:0.2917 22:0.71 23:-1 
-0.08554642847628607 1:-1 2:0 3:0 4:22 5:0.6087 6:3 7:4 8:0.1304 9:0.3478 10:0.2609 11:0.2609 12:26 13:0.3333 14:-1 15:0.5366 16:41 17:0.2195 18:0.3171 19:0.2195 20:0.2439 21:0.2973 22:0.8 23:-1 
-0.05777903518967223 1:1 2:4 3:22 4:20 5:0.75 6:2 7:3 8:0.1 9:0.55 10:0.2 11:0.15 12:6 13:0.1795 14:3 15:0.6395 16:86 17:0.1744 18:0.314 19:0.3256 20:0.186 21:0.15 22:1.71 23:0.122 
-0.02150617174769446 1:1 2:2 3:13 4:26 5:0.5417 6:2 7:5 8:0.25 9:0.1667 10:0.375 11:0.2083 12:65 13:0.1837 14:2 15:0.6125 16:80 17:0.1875 18:0.3 19:0.3125 20:0.2 21:0.1622 22:0.92 23:0.12 
-0.01685976678638851 1:-1 2:0 3:0 4:23 5:0.5714 6:1 7:4 8:0.0952 9:0.3333 10:0.2381 11:0.3333 12:25 13:0.1163 14:1 15:0.5918 16:49 17:0.1837 18:0.2653 19:0.3265 20:0.2245 21:0.1163 22:1 23:-1 
-0.05871722099776044 1:1 2:5 3:26 4:21 5:0.8095 6:3 7:3 8:0.0952 9:0.5714 10:0.2381 11:0.0952 12:1 13:0.2683 14:3 15:0.6562 16:96 17:0.1667 18:0.3438 19:0.3125 20:0.1771 21:0.2 22:0.25 23:0.1429 
-0.02906586608954041 1:1 2:4 3:25 4:20 5:0.8 6:2 7:4 8:0.1 9:0.55 10:0.25 11:0.1 12:3 13:0.2308 14:3 15:0.6413 16:92 17:0.1739 18:0.3261 19:0.3152 20:0.1848 21:0.1628 22:1 23:0.1064 
-0.1944560174417645 1:4 2:3 3:16 4:27 5:0.7083 6:10 7:5 8:0.1667 9:0.4583 10:0.25 11:0.125 12:1 13:0.48 14:3 15:0.5926 16:81 17:0.1852 18:0.3333 19:0.2593 20:0.2222 21:0.4026 22:0 23:0.2593 
-0.1240433045444121 1:4 2:3 3:19 4:23 5:0.7 6:9 7:4 8:0.15 9:0.5 10:0.2 11:0.15 12:2 13:0.4884 14:4 15:0.5823 16:79 17:0.1899 18:0.3165 19:0.2658 20:0.2278 21:0.3867 22:0 23:0.25 
-0.043932399694392 1:-1 2:0 3:0 4:27 5:0.5455 6:4 7:6 8:0.2727 9:0.2727 10:0.2727 11:0.1818 12:43 13:0.2917 14:-1 15:0.56 16:50 17:0.18 18:0.32 19:0.24 20:0.26 21:0.2609 22:1.4 23:-1 
-1 1:1 2:1 3:4 4:24 5:0.625 6:4 7:4 8:0.125 9:0.375 10:0.25 11:0.25 12:13 13:0.2558 14:1 15:0.5556 16:54 17:0.1852 18:0.3148 19:0.2407 20:0.2593 21:0.24 22:1.17 23:0.1429 
-0.1842220017041112 1:-1 2:0 3:2 4:28 5:0.5 6:4 7:6 8:0.3182 9:0.2273 10:0.2727 11:0.1818 12:47 13:0.2653 14:4 15:0.5614 16:57 17:0.193 18:0.3158 19:0.2456 20:0.2456 21:0.2453 22:1 23:0 
-0.002324845190025793 1:2 2:4 3:20 4:25 5:0.5 6:2 7:5 8:0.2917 9:0.25 10:0.25 11:0.2083 12:70 13:0.2653 14:1 15:0.4891 16:92 17:0.2283 18:0.2609 19:0.2283 20:0.2826 21:0.2558 22:1.6 23:0.2432 
-0.6260088995097892 1:2 2:3 3:13 4:23 5:0.5 6:2 7:4 8:0.3636 9:0.2273 10:0.2727 11:0.1364 12:63 13:0.2 14:3 15:0.4595 16:74 17:0.2703 18:0.2432 19:0.2162 20:0.2703 21:0.2059 22:0.8 23:0.2174 
-0.3433639362675821 1:2 2:2 3:14 4:24 5:0.7143 6:3 7:4 8:0.2381 9:0.1905 10:0.5238 11:0.0476 12:12 13:0.2 14:3 15:0.6081 16:74 17:0.1892 18:0.2838 19:0.3243 20:0.2027 21:0.1714 22:1.12 23:0.12 
-0.03229659780330733 1:2 2:3 3:17 4:21 5:0.5714 6:3 7:3 8:0.1429 9:0.3333 10:0.2381 11:0.2857 12:65 13:0.1795 14:2 15:0.6081 16:74 17:0.1892 18:0.2838 19:0.3243 20:0.2027 21:0.1714 22:3 23:0.1613 
-0.03761006663257417 1:-1 2:0 3:0 4:26 5:0.5417 6:2 7:5 8:0.1667 9:0.25 10:0.2917 11:0.2917 12:49 13:0.1837 14:-1 15:0.549 16:51 17:0.2157 18:0.2549 19:0.2941 20:0.2353 21:0.1489 22:1 23:-1 
-0.09753187086313891 1:2 2:3 3:21 4:20 5:0.7 6:3 7:3 8:0.1 9:0.45 10:0.25 11:0.2 12:69 13:0.1892 14:2 15:0.6375 16:80 17:0.175 18:0.3 19:0.3375 20:0.1875 21:0.1579 22:0.67 23:0.1282 
-0.05010587479420473 1:2 2:4 3:20 4:20 5:0.55 6:2 7:2 8:0.2 9:0.2 10:0.35 11:0.25 12:64 13:0.2 14:4 15:0.5949 16:79 17:0.1772 18:0.2911 19:0.3038 20:0.2278 21:0.1842 22:0.8 23:0.2105 
-0.007938460514561643 1:-1 2:0 3:0 4:23 5:0.6957 6:3 7:4 8:0.087 9:0.4348 10:0.2609 11:0.2174 12:44 13:0.2727 14:1 15:0.6444 16:45 17:0.1333 18:0.3556 19:0.2889 20:0.2222 21:0.2381 22:4 23:-1 
-0.01650896769579236 1:-1 2:0 3:0 4:21 5:0.7273 6:2 7:4 8:0.0909 9:0.4545 10:0.2727 11:0.1818 12:43 13:0.25 14:4 15:0.6829 16:41 17:0.122 18:0.3659 19:0.3171 20:0.1951 21:0.2105 22:1.6 23:-1 
-0.09071111930820759 1:1 2:1 3:2 4:20 5:0.75 6:3 7:3 8:0.05 9:0.5 10:0.25 11:0.2 12:46 13:0.2632 14:1 15:0.6744 16:43 17:0.1163 18:0.3721 19:0.3023 20:0.2093 21:0.25 22:4 23:0.5 
-0.07241065407989898 1:3 2:4 3:24 4:20 5:0.55 6:3 7:2 8:0.25 9:0.2 10:0.35 11:0.2 12:68 13:0.25 14:2 15:0.5862 16:87 17:0.1839 18:0.2759 19:0.3103 20:0.2299 21:0.2381 22:4.5 23:0.2609 
-0.05671228756677554 1:2 2:4 3:13 4:24 5:0.4583 6:3 7:3 8:0.2917 9:0.2917 10:0.1667 11:0.25 12:9 13:0.1915 14:2 15:0.52 16:75 17:0.16 18:0.24 19:0.28 20:0.32 21:0.2286 22:0.88 23:0.36 
-0.06473392601360148 1:2 2:5 3:17 4:25 5:0.5417 6:3 7:2 8:0.0833 9:0.1667 10:0.375 11:0.375 12:65 13:0.1429 14:4 15:0.5294 16:85 17:0.1529 18:0.2353 19:0.2941 20:0.3176 21:0.2 22:0.89 23:0.3333 
-0.2047011454129452 1:-1 2:0 3:0 4:21 5:0.4762 6:2 7:3 8:0.1429 9:0.1429 10:0.3333 11:0.381 12:13 13:0.2195 14:4 15:0.451 16:51 17:0.1373 18:0.1961 19:0.2549 20:0.4118 21:0.2195 22:1.8 23:-1 
-1 1:-1 2:0 3:0 4:22 5:0.5 6:2 7:3 8:0.1364 9:0.1818 10:0.3182 11:0.3636 12:12 13:0.2093 14:4 15:0.4717 16:53 17:0.1321 18:0.2075 19:0.2642 20:0.3962 21:0.2093 22:1.8 23:-1 
-0.04037909934798258 1:-1 2:0 3:0 4:22 5:0.4762 6:2 7:3 8:0.1905 9:0.1905 10:0.2857 11:0.3333 12:44 13:0.2093 14:1 15:0.4717 16:53 17:0.1321 18:0.2075 19:0.2642 20:0.3962 21:0.2093 22:0.56 23:-1 
-0.41010286293235 1:-1 2:0 3:0 4:23 5:0.4545 6:3 7:4 8:0.1364 9:0.2273 10:0.2273 11:0.4091 12:41 13:0.3333 14:4 15:0.4694 16:49 17:0.1224 18:0.2041 19:0.2653 20:0.4082 21:0.2308 22:0.33 23:-1 
-0.00799751943468846 1:-1 2:0 3:0 4:25 5:0.4 6:3 7:4 8:0.3 9:0.15 10:0.25 11:0.3 12:42 13:0.2444 14:4 15:0.4894 16:47 17:0.2553 18:0.2553 19:0.234 20:0.2553 21:0.1707 22:0.57 23:-1 
-0.003439148179681746 1:3 2:1 3:15 4:20 5:0.6 6:2 7:5 8:0.25 9:0.3 10:0.3 11:0.15 12:3 13:0.3158 14:3 15:0.507 16:71 17:0.2254 18:0.2394 19:0.2676 20:0.2676 21:0.2308 22:0.88 23:0.1111 
-0.009921691832451311 1:3 2:1 3:14 4:23 5:0.4762 6:3 7:5 8:0.1429 9:0.1905 10:0.2857 11:0.381 12:55 13:0.3636 14:2 15:0.5067 16:75 17:0.2133 18:0.24 19:0.2667 20:0.28 21:0.2754 22:3.67 23:0.12 
-0.03793274701987425 1:4 2:3 3:16 4:22 5:0.6818 6:3 7:3 8:0.2273 9:0.2273 10:0.4545 11:0.0909 12:1 13:0.2093 14:4 15:0.5747 16:87 17:0.1379 18:0.2414 19:0.3333 20:0.2874 21:0.2778 22:0.18 23:0.4194 
-0.01338701178569801 1:3 2:2 3:17 4:25 5:0.45 6:6 7:3 8:0.2 9:0.3 10:0.15 11:0.35 12:2 13:0.3333 14:1 15:0.4568 16:81 17:0.2099 18:0.1852 19:0.2716 20:0.3333 21:0.2533 22:2.67 23:0.1333 
-0.1191708061942872 1:-1 2:0 3:0 4:25 5:0.4762 6:3 7:4 8:0.2381 9:0.2857 10:0.1905 11:0.2857 12:43 13:0.3043 14:4 15:0.4375 16:48 17:0.1667 18:0.2083 19:0.2292 20:0.3958 21:0.2381 22:0.71 23:-1 
-0.05197195367721861 1:2 2:2 3:14 4:20 5:0.6 6:3 7:1 8:0.1 9:0.4 10:0.2 11:0.3 12:2 13:0.15 14:1 15:0.5 16:74 17:0.1757 18:0.2027 19:0.2973 20:0.3243 21:0.1385 22:3.67 23:0.1852 
-0.07930642197420269 1:-1 2:0 3:0 4:21 5:0.4286 6:2 7:5 8:0.2381 9:0.2381 10:0.1905 11:0.3333 12:45 13:0.3333 14:-1 15:0.4634 16:41 17:0.2195 18:0.1707 19:0.2927 20:0.3171 21:0.2571 22:1.25 23:-1 
-1 1:1 2:1 3:2 4:25 5:0.5417 6:2 7:4 8:0.125 9:0.1667 10:0.375 11:0.3333 12:16 13:0.25 14:3 15:0.4727 16:55 17:0.2 18:0.2182 19:0.2545 20:0.3273 21:0.24 22:1.8 23:0.5 
-0.00133611246647065 1:2 2:5 3:19 4:20 5:0.5 6:1 7:3 8:0.25 9:0.2 10:0.3 11:0.25 12:63 13:0.1282 14:2 15:0.5256 16:78 17:0.1667 18:0.2308 19:0.2949 20:0.3077 21:0.2055 22:0.88 23:0.3333 
-1 1:1 2:1 3:3 4:24 5:0.5217 6:2 7:4 8:0.1304 9:0.1739 10:0.3478 11:0.3478 12:16 13:0.2609 14:2 15:0.4727 16:55 17:0.2 18:0.2182 19:0.2545 20:0.3273 21:0.24 22:1.8 23:0.3333 
-0.02218090370561686 1:2 2:4 3:18 4:24 5:0.4583 6:2 7:4 8:0.2083 9:0.1667 10:0.2917 11:0.3333 12:62 13:0.1915 14:1 15:0.5238 16:84 17:0.1548 18:0.2262 19:0.2976 20:0.3214 21:0.2152 22:0.71 23:0.2941 
-0.0105386128500976 1:2 2:5 3:20 4:22 5:0.5 6:1 7:3 8:0.1818 9:0.1818 10:0.3182 11:0.3182 12:64 13:0.1163 14:1 15:0.5238 16:84 17:0.1548 18:0.2262 19:0.2976 20:0.3214 21:0.2152 22:1.29 23:0.3684 
-0.06604005645470229 1:3 2:1 3:19 4:20 5:0.6 6:3 7:3 8:0.2 9:0.15 10:0.45 11:0.2 12:74 13:0.2308 14:4 15:0.5169 16:89 17:0.2247 18:0.2472 19:0.2697 20:0.2584 21:0.1733 22:0.91 23:0.1111 
-0.08701971026244791 1:-1 2:0 3:12 4:22 5:0.6 6:3 7:3 8:0.25 9:0.4 10:0.2 11:0.15 12:9 13:0.2857 14:1 15:0.5 16:80 17:0.225 18:0.2375 19:0.2625 20:0.275 21:0.1818 22:1.14 23:0 
-0.01505768242726136 1:3 2:1 3:17 4:20 5:0.55 6:3 7:3 8:0.2 9:0.15 10:0.4 11:0.25 12:72 13:0.2308 14:2 15:0.4941 16:85 17:0.2353 18:0.2353 19:0.2588 20:0.2706 21:0.1831 22:1.14 23:0.125 
-0.0640645828814575 1:-1 2:0 3:10 4:24 5:0.5417 6:3 7:3 8:0.125 9:0.25 10:0.2917 11:0.3333 12:65 13:0.2609 14:2 15:0.5 16:80 17:0.225 18:0.2375 19:0.2625 20:0.275 21:0.1818 22:0.62 23:0 
-0.02131675822449199 1:3 2:1 3:17 4:22 5:0.619 6:3 7:3 8:0.1905 9:0.4762 10:0.1429 11:0.1905 12:5 13:0.2093 14:4 15:0.5169 16:89 17:0.2247 18:0.2472 19:0.2697 20:0.2584 21:0.1733 22:1.38 23:0.125 
-0.02945076091180438 1:3 2:1 3:17 4:25 5:0.5833 6:3 7:4 8:0.2083 9:0.4167 10:0.1667 11:0.2083 12:2 13:0.2653 14:4 15:0.4947 16:95 17:0.2421 18:0.2316 19:0.2632 20:0.2632 21:0.2099 22:0.62 23:0.125 
-0.03101234769689026 1:3 2:1 3:19 4:22 5:0.5455 6:3 7:4 8:0.2727 9:0.1364 10:0.4091 11:0.1818 12:74 13:0.2558 14:1 15:0.5054 16:93 17:0.2366 18:0.2366 19:0.2688 20:0.2581 21:0.1899 22:1.25 23:0.1111 
-0.02342322489801024 1:3 2:1 3:15 4:20 5:0.55 6:3 7:3 8:0.15 9:0.2 10:0.35 11:0.3 12:70 13:0.2308 14:2 15:0.4938 16:81 17:0.2346 18:0.2346 19:0.2593 20:0.2716 21:0.194 22:1.12 23:0.1429 
-0.02645425963286586 1:3 2:1 3:20 4:21 5:0.5714 6:3 7:4 8:0.2857 9:0.1429 10:0.4286 11:0.1429 12:75 13:0.2683 14:1 15:0.5054 16:93 17:0.2366 18:0.2366 19:0.2688 20:0.2581 21:0.1899 22:1.38 23:0.1053 
-0.06407839688082249 1:-1 2:0 3:11 4:22 5:0.5455 6:3 7:3 8:0.1364 9:0.2273 10:0.3182 11:0.3182 12:66 13:0.2857 14:3 15:0.5 16:78 17:0.2308 18:0.2436 19:0.2564 20:0.2692 21:0.1875 22:0.22 23:0 
-0.07485795728179478 1:-1 2:0 3:12 4:24 5:0.619 6:3 7:4 8:0.2381 9:0.4286 10:0.1905 11:0.1429 12:8 13:0.2889 14:1 15:0.506 16:83 17:0.2289 18:0.241 19:0.2651 20:0.2651 21:0.1884 22:1.57 23:0 
-0.05838879918571169 1:3 2:1 3:15 4:24 5:0.5833 6:3 7:3 8:0.1667 9:0.1667 10:0.4167 11:0.25 12:70 13:0.1915 14:4 15:0.5169 16:89 17:0.2247 18:0.2472 19:0.2697 20:0.2584 21:0.1733 22:0.82 23:0.1429 
-0.02571343065082146 1:-1 2:0 3:0 4:20 5:0.55 6:4 7:2 8:0.25 9:0.3 10:0.25 11:0.2 12:51 13:0.3158 14:1 15:0.4545 16:44 17:0.25 18:0.2045 19:0.25 20:0.2955 21:0.1333 22:0 23:-1 
-0.02932492367206934 1:5 2:3 3:26 4:21 5:0.5 6:1 7:4 8:0.1 9:0.3 10:0.2 11:0.4 12:75 13:0.1707 14:4 15:0.5914 16:93 17:0.172 18:0.2581 19:0.3333 20:0.2366 21:0.2273 22:1 23:0.3061 
-0.01957957902892188 1:5 2:3 3:27 4:20 5:0.6 6:1 7:4 8:0.25 9:0.1 10:0.5 11:0.15 12:2 13:0.1795 14:4 15:0.5914 16:93 17:0.172 18:0.2581 19:0.3333 20:0.2366 21:0.2273 22:0.89 23:0.2941 
-1 1:-1 2:0 3:3 4:27 5:0.3913 6:6 7:2 8:0.2609 9:0.1304 10:0.2609 11:0.3478 12:53 13:0.28 14:4 15:0.4833 16:60 17:0.2333 18:0.2333 19:0.25 20:0.2833 21:0.25 22:0 23:0 
-0.2582894507919347 1:-1 2:0 3:2 4:28 5:0.4167 6:6 7:2 8:0.25 9:0.125 10:0.2917 11:0.3333 12:52 13:0.2692 14:4 15:0.4833 16:60 17:0.2333 18:0.2333 19:0.25 20:0.2833 21:0.25 22:0.33 23:0 
-0.7722406919658045 1:3 2:1 3:6 4:23 5:0.4783 6:3 7:2 8:0.3043 9:0.2609 10:0.2174 11:0.2174 12:17 13:0.2273 14:3 15:0.5 16:58 17:0.2241 18:0.2414 19:0.2586 20:0.2759 21:0.2593 22:4.5 23:0.4 
-0.01116611180197884 1:-1 2:0 3:0 4:21 5:0.5714 6:6 7:2 8:0.1905 9:0.2857 10:0.2857 11:0.2381 12:26 13:0.3 14:2 15:0.5476 16:42 17:0.1905 18:0.2381 19:0.3095 20:0.2619 21:0.2632 22:1.25 23:-1 
-0.05823325743974135 1:1 2:3 3:16 4:23 5:0.6087 6:3 7:3 8:0.1739 9:0.2609 10:0.3478 11:0.2174 12:61 13:0.2174 14:4 15:0.5181 16:83 17:0.241 18:0.2169 19:0.3012 20:0.241 21:0.1622 22:5 23:0.1333 
-0.02666101993761622 1:1 2:3 3:18 4:21 5:0.5714 6:3 7:3 8:0.1905 9:0.2857 10:0.2857 11:0.2381 12:63 13:0.2381 14:4 15:0.5181 16:83 17:0.241 18:0.2169 19:0.3012 20:0.241 21:0.1622 22:5 23:0.1176 
-0.01878407940235332 1:2 2:4 3:14 4:25 5:0.4583 6:1 7:5 8:0.0833 9:0.2917 10:0.1667 11:0.4583 12:59 13:0.1304 14:4 15:0.5122 16:82 17:0.2439 18:0.2195 19:0.2927 20:0.2439 21:0.1594 22:1.14 23:0.28 
-0.01979028234849169 1:1 2:1 3:16 4:21 5:0.5238 6:2 7:3 8:0.1429 9:0.1905 10:0.3333 11:0.3333 12:1 13:0.1707 14:1 15:0.4699 16:83 17:0.253 18:0.1566 19:0.3133 20:0.2771 21:0.1233 22:0.7 23:0.0625 
-0.07350331382380831 1:-1 2:0 3:6 4:24 5:0.5 6:2 7:3 8:0.125 9:0.125 10:0.375 11:0.375 12:8 13:0.1667 14:1 15:0.4714 16:70 17:0.2429 18:0.1429 19:0.3286 20:0.2857 21:0.1333 22:0.5 23:0 
-0.2576779760892 1:-1 2:0 3:6 4:23 5:0.5217 6:2 7:3 8:0.2609 9:0.2609 10:0.2609 11:0.2174 12:54 13:0.1739 14:4 15:0.4853 16:68 17:0.2353 18:0.1471 19:0.3382 20:0.2794 21:0.1379 22:2 23:0 
-1 1:-1 2:0 3:6 4:22 5:0.5455 6:1 7:3 8:0.2727 9:0.2727 10:0.2727 11:0.1818 12:54 13:0.1364 14:4 15:0.4848 16:66 17:0.2424 18:0.1515 19:0.3333 20:0.2727 21:0.1071 22:1.25 23:0 
-0.03010268528438347 1:-1 2:0 3:1 4:21 5:0.5 6:2 7:2 8:0.2 9:0.1 10:0.4 11:0.3 12:43 13:0.122 14:4 15:0.5106 16:47 17:0.1489 18:0.1915 19:0.3191 20:0.3404 21:0.1163 22:1.43 23:0 
-0.01212904189031971 1:-1 2:0 3:0 4:27 5:0.5833 6:4 7:5 8:0 9:0.25 10:0.3333 11:0.4167 12:50 13:0.3469 14:-1 15:0.6863 16:51 17:0.0784 18:0.3529 19:0.3333 20:0.2353 21:0.2889 22:0.55 23:-1 
-0.006790513280781944 1:2 2:4 3:23 4:20 5:0.7 6:1 7:3 8:0.1 9:0.4 10:0.3 11:0.2 12:3 13:0.1282 14:4 15:0.6667 16:90 17:0.1111 18:0.3556 19:0.3111 20:0.2222 21:0.1707 22:0.89 23:0.2093 
-0.002345247440422827 1:-1 2:0 3:0 4:24 5:0.6667 6:2 7:4 8:0.2381 9:0.381 10:0.2857 11:0.0952 12:22 13:0.2 14:1 15:0.6226 16:53 17:0.1132 18:0.3396 19:0.283 20:0.2642 21:0.2 22:1 23:-1 
-0.04420317853562879 1:4 2:2 3:15 4:24 5:0.6087 6:4 7:1 8:0.0435 9:0.2174 10:0.3913 11:0.3478 12:60 13:0.1489 14:4 15:0.5375 16:80 17:0.1625 18:0.2875 19:0.25 20:0.3 21:0.2632 22:1 23:0.4483 
-0.5015560487401269 1:-1 2:0 3:1 4:25 5:0.3333 6:4 7:3 8:0.25 9:0.2083 10:0.125 11:0.4167 12:46 13:0.375 14:4 15:0.4259 16:54 17:0.2222 18:0.2593 19:0.1667 20:0.3519 21:0.36 22:0.4 23:0 
-1 1:-1 2:0 3:1 4:25 5:0.4583 6:4 7:3 8:0.25 9:0.2917 10:0.1667 11:0.2917 12:16 13:0.375 14:3 15:0.4259 16:54 17:0.2222 18:0.2593 19:0.1667 20:0.3519 21:0.36 22:1 23:0 
-0.04710522281379842 1:1 2:3 3:11 4:24 5:0.3333 6:1 7:2 8:0.2083 9:0 10:0.3333 11:0.4583 12:55 13:0.0435 14:4 15:0.4231 16:78 17:0.2436 18:0.1795 19:0.2436 20:0.3333 21:0.0769 22:1.29 23:0.2381 
-0.006864619185025905 1:1 2:3 3:11 4:22 5:0.4286 6:1 7:1 8:0.3333 9:0.3333 10:0.0952 11:0.2381 12:2 13:0.0233 14:2 15:0.4267 16:75 17:0.2533 18:0.1867 19:0.24 20:0.32 21:0.0645 22:1.11 23:0.2381 
-0.001719834947015608 1:1 2:3 3:14 4:20 5:0.35 6:1 7:1 8:0.25 9:0 10:0.35 11:0.4 12:58 13:0.0256 14:4 15:0.4286 16:77 17:0.2468 18:0.1818 19:0.2468 20:0.3247 21:0.0625 22:0.78 23:0.1852 
-0.01523084354840339 1:2 2:3 3:15 4:20 5:0.65 6:2 7:2 8:0.2 9:0.4 10:0.25 11:0.15 12:2 13:0.15 14:4 15:0.4458 16:83 17:0.2771 18:0.2048 19:0.241 20:0.2771 21:0.1884 22:1.11 23:0.2414 
-0.01094806669346182 1:1 2:3 3:16 4:25 5:0.3333 6:2 7:5 8:0.25 9:0.2083 10:0.125 11:0.4167 12:2 13:0.3061 14:1 15:0.375 16:88 17:0.2614 18:0.1818 19:0.1932 20:0.3636 21:0.2208 22:1.25 23:0.1333 
-0.04935044516768076 1:1 2:4 3:16 4:20 5:0.4 6:3 7:4 8:0.15 9:0.15 10:0.25 11:0.45 12:1 13:0.4359 14:1 15:0.4324 16:74 17:0.2162 18:0.2297 19:0.2027 20:0.3514 21:0.3134 22:0.25 23:0.2 
-0.03049912428773536 1:1 2:4 3:15 4:21 5:0.45 6:3 7:4 8:0.3 9:0.3 10:0.15 11:0.25 12:55 13:0.4146 14:1 15:0.4324 16:74 17:0.2162 18:0.2297 19:0.2027 20:0.3514 21:0.3134 22:5 23:0.2143 
-0.09278526012063441 1:1 2:4 3:13 4:23 5:0.4545 6:3 7:4 8:0.3182 9:0.3182 10:0.1364 11:0.2273 12:53 13:0.3778 14:1 15:0.4324 16:74 17:0.2162 18:0.2297 19:0.2027 20:0.3514 21:0.3134 22:5 23:0.25 
-0.0205578120396277 1:-1 2:0 3:0 4:23 5:0.4762 6:3 7:6 8:0.2857 9:0.4286 10:0.0476 11:0.2381 12:39 13:0.3023 14:-1 15:0.4318 16:44 17:0.2045 18:0.2273 19:0.2045 20:0.3636 21:0.1892 22:0.25 23:-1 
-0.8492183173258769 1:1 2:2 3:9 4:22 5:0.5238 6:2 7:3 8:0.1905 9:0.1429 10:0.381 11:0.2857 12:58 13:0.1429 14:2 15:0.5652 16:69 17:0.2029 18:0.2319 19:0.3333 20:0.2319 21:0.1379 22:0.73 23:0.2222 
-0.07965450541307802 1:4 2:5 3:26 4:20 5:0.65 6:1 7:6 8:0.3 9:0.3 10:0.35 11:0.05 12:2 13:0.2222 14:2 15:0.7176 16:85 17:0.1176 18:0.3882 19:0.3294 20:0.1647 21:0.2439 22:0.75 23:0.2917 
-0.6949305873787767 1:1 2:2 3:5 4:24 5:0.7826 6:4 7:5 8:0.0435 9:0.5652 10:0.2174 11:0.1739 12:51 13:0.2727 14:1 15:0.7455 16:55 17:0.0727 18:0.4 19:0.3455 20:0.1818 21:0.2692 22:0.89 23:0.4 
-0.07499582367934346 1:4 2:5 3:23 4:24 5:0.7083 6:2 7:6 8:0.25 9:0.2917 10:0.4167 11:0.0417 12:1 13:0.2273 14:2 15:0.7126 16:87 17:0.1264 18:0.3793 19:0.3333 20:0.1609 21:0.2619 22:0.5 23:0.3333 
-1 1:1 2:1 3:4 4:27 5:0.625 6:4 7:5 8:0.2083 9:0.1667 10:0.4583 11:0.1667 12:17 13:0.28 14:2 15:0.6949 16:59 17:0.1017 18:0.3729 19:0.322 20:0.2034 21:0.25 22:1.17 23:0.25 
-0.08439676172429625 1:4 2:5 3:27 4:20 5:0.65 6:2 7:6 8:0.3 9:0.25 10:0.4 11:0.05 12:1 13:0.2778 14:3 15:0.7126 16:87 17:0.1264 18:0.3793 19:0.3333 20:0.1609 21:0.2619 22:0.86 23:0.28 
-0.2070881904944944 1:1 2:1 3:4 4:26 5:0.6522 6:4 7:5 8:0.1739 9:0.1739 10:0.4783 11:0.1739 12:18 13:0.2917 14:2 15:0.7193 16:57 17:0.0877 18:0.386 19:0.3333 20:0.193 21:0.2593 22:1.33 23:0.25 
-1 1:2 2:2 3:6 4:24 5:0.6667 6:4 7:4 8:0.1905 9:0.1429 10:0.5238 11:0.1429 12:18 13:0.2273 14:4 15:0.7193 16:57 17:0.0877 18:0.386 19:0.3333 20:0.193 21:0.2593 22:1 23:0.5 
-0.02239183407693317 1:5 2:4 3:24 4:21 5:0.5238 6:3 7:4 8:0.3333 9:0.381 10:0.1429 11:0.1429 12:73 13:0.3333 14:4 15:0.5269 16:93 17:0.1935 18:0.2366 19:0.2903 20:0.2796 21:0.3563 22:4.5 23:0.3778 
-0.4747145460907751 1:3 2:2 3:13 4:21 5:0.85 6:4 7:3 8:0.1 9:0.25 10:0.6 11:0.05 12:9 13:0.2432 14:2 15:0.7656 16:64 17:0.0938 18:0.3594 19:0.4062 20:0.1406 21:0.2333 22:0.33 23:0.2174 
-0.6899585936498327 1:3 2:2 3:12 4:24 5:0.8 6:4 7:3 8:0.1 9:0.55 10:0.25 11:0.1 12:55 13:0.2093 14:2 15:0.75 16:68 17:0.1029 18:0.3529 19:0.3971 20:0.1471 21:0.2188 22:0.9 23:0.2381 
-0.2388148273195889 1:3 2:2 3:11 4:28 5:0.7917 6:4 7:3 8:0.0833 9:0.5417 10:0.25 11:0.125 12:54 13:0.1765 14:3 15:0.7703 16:74 17:0.0946 18:0.3649 19:0.4054 20:0.1351 21:0.2 22:1 23:0.2632 
-0.7082323466186553 1:3 2:2 3:12 4:22 5:0.8571 6:4 7:3 8:0.0952 9:0.2381 10:0.619 11:0.0476 12:9 13:0.2308 14:4 15:0.7656 16:64 17:0.0938 18:0.3594 19:0.4062 20:0.1406 21:0.2333 22:0.22 23:0.2381 
-0.7722517267780415 1:1 2:1 3:6 4:27 5:0.6957 6:3 7:4 8:0.1304 9:0.2609 10:0.4348 11:0.1739 12:52 13:0.1837 14:3 15:0.7465 16:71 17:0.1408 18:0.3239 19:0.4225 20:0.1127 21:0.1803 22:1.11 23:0.1667 
-1 1:1 2:1 3:6 4:25 5:0.6667 6:3 7:4 8:0.1429 9:0.2381 10:0.4286 11:0.1905 12:52 13:0.2 14:2 15:0.7313 16:67 17:0.1493 18:0.3134 19:0.4179 20:0.1194 21:0.193 22:1.25 23:0.1667 
-1 1:1 2:1 3:6 4:24 5:0.7391 6:3 7:4 8:0.1304 9:0.3913 10:0.3478 11:0.1304 12:7 13:0.2093 14:1 15:0.7231 16:65 17:0.1538 18:0.3077 19:0.4154 20:0.1231 21:0.2 22:0.5 23:0.1667 
-0.1654009668783527 1:7 2:3 3:27 4:26 5:0.5417 6:3 7:4 8:0.2917 9:0.375 10:0.1667 11:0.1667 12:77 13:0.24 14:1 15:0.52 16:100 17:0.21 18:0.28 19:0.24 20:0.27 21:0.2421 22:3.33 23:0.2766 
-0.1297512311113558 1:7 2:3 3:22 4:21 5:0.5714 6:2 7:2 8:0.1429 9:0.2857 10:0.2857 11:0.2857 12:11 13:0.1 14:3 15:0.5125 16:80 17:0.2125 18:0.2625 19:0.25 20:0.275 21:0.2 22:0.89 23:0.3514 
-0.08028870455217611 1:7 2:3 3:23 4:21 5:0.619 6:2 7:2 8:0.1429 9:0.2857 10:0.3333 11:0.2381 12:10 13:0.1 14:1 15:0.5122 16:82 17:0.2073 18:0.2561 19:0.2561 20:0.2805 21:0.1948 22:0.78 23:0.3333 
-0.1959290746113222 1:7 2:3 3:32 4:21 5:0.619 6:3 7:4 8:0.0476 9:0.3333 10:0.2857 11:0.3333 12:1 13:0.3 14:2 15:0.52 16:100 17:0.21 18:0.28 19:0.24 20:0.27 21:0.2421 22:0.38 23:0.2281 
-0.1086356977442273 1:7 2:2 3:16 4:26 5:0.5417 6:2 7:3 8:0.25 9:0.3333 10:0.2083 11:0.2083 12:66 13:0.16 14:2 15:0.5 16:78 17:0.2179 18:0.2564 19:0.2436 20:0.2821 21:0.2055 22:0.86 23:0.36 
-0.1822744012649065 1:7 2:3 3:22 4:20 5:0.55 6:2 7:2 8:0.15 9:0.25 10:0.3 11:0.3 12:12 13:0.1053 14:3 15:0.5 16:78 17:0.2179 18:0.2564 19:0.2436 20:0.2821 21:0.2055 22:0.78 23:0.3514 
-0.1190273431345599 1:-1 2:0 3:0 4:28 5:0.4545 6:7 7:3 8:0.3636 9:0.2727 10:0.1818 11:0.1818 12:55 13:0.3061 14:-1 15:0.46 16:50 17:0.22 18:0.22 19:0.24 20:0.32 21:0.2444 22:0.44 23:-1 
-0.00741341194497723 1:7 2:3 3:20 4:25 5:0.4783 6:2 7:2 8:0.3043 9:0.2609 10:0.2174 11:0.2174 12:70 13:0.0833 14:4 15:0.5 16:84 17:0.2143 18:0.25 19:0.25 20:0.2857 21:0.1899 22:1.11 23:0.3939 
-0.06590592160636674 1:7 2:3 3:18 4:26 5:0.5 6:2 7:3 8:0.25 9:0.2917 10:0.2083 11:0.25 12:68 13:0.12 14:4 15:0.5122 16:82 17:0.2073 18:0.2561 19:0.2561 20:0.2805 21:0.1948 22:1.29 23:0.3793 
-0.01373520466866396 1:7 2:3 3:31 4:21 5:0.619 6:2 7:4 8:0.0476 9:0.3333 10:0.2857 11:0.3333 12:2 13:0.25 14:4 15:0.5102 16:98 17:0.2143 18:0.2755 19:0.2347 20:0.2755 21:0.2258 22:0.45 23:0.2364 
-0.1524425995371524 1:-1 2:0 3:0 4:26 5:0.45 6:7 7:3 8:0.4 9:0.25 10:0.2 11:0.15 12:55 13:0.3333 14:-1 15:0.4348 16:46 17:0.2391 18:0.2174 19:0.2174 20:0.3261 21:0.2683 22:0.44 23:-1 
-0.06384285741547656 1:7 2:3 3:25 4:26 5:0.5 6:2 7:4 8:0.2917 9:0.3333 10:0.1667 11:0.2083 12:75 13:0.16 14:2 15:0.5 16:96 17:0.2188 18:0.2604 19:0.2396 20:0.2812 21:0.2088 22:2 23:0.3023 
-0.08052812239216661 1:7 2:3 3:18 4:22 5:0.55 6:2 7:2 8:0.2 9:0.35 10:0.2 11:0.25 12:68 13:0.0952 14:4 15:0.5135 16:74 17:0.2027 18:0.2568 19:0.2568 20:0.2838 21:0.1884 22:0.82 23:0.3793 
-0.07102355431136996 1:4 2:4 3:28 4:20 5:0.4 6:2 7:3 8:0.15 9:0.25 10:0.15 11:0.45 12:79 13:0.2632 14:4 15:0.449 16:98 17:0.2347 18:0.2449 19:0.2041 20:0.3163 21:0.2391 22:0.8 23:0.2222 
-0.06245546596342264 1:-1 2:0 3:1 4:20 5:0.6 6:4 7:4 8:0.1 9:0.35 10:0.25 11:0.3 12:26 13:0.3158 14:1 15:0.5217 16:46 17:0.1957 18:0.3043 19:0.2174 20:0.2826 21:0.3 22:0.5 23:0 
-0.02471703321008203 1:-1 2:0 3:0 4:23 5:0.3913 6:3 7:5 8:0.2174 9:0.087 10:0.3043 11:0.3913 12:18 13:0.3778 14:-1 15:0.4681 16:47 17:0.2128 18:0.2128 19:0.2553 20:0.3191 21:0.2821 22:3.33 23:-1 
-0.06069105444003377 1:-1 2:0 3:0 4:23 5:0.5 6:2 7:5 8:0.1818 9:0.1364 10:0.3636 11:0.3182 12:15 13:0.2727 14:1 15:0.4808 16:52 17:0.1923 18:0.2115 19:0.2692 20:0.3269 21:0.2727 22:1.14 23:-1 
-0.674203311847243 1:-1 2:0 3:0 4:26 5:0.5 6:2 7:6 8:0.1667 9:0.3333 10:0.1667 11:0.3333 12:45 13:0.2653 14:2 15:0.4912 16:57 17:0.193 18:0.2105 19:0.2807 20:0.3158 21:0.2653 22:0.7 23:-1 
-1 1:1 2:1 3:6 4:21 5:0.5 6:3 7:3 8:0.1 9:0.15 10:0.35 11:0.4 12:8 13:0.25 14:4 15:0.4921 16:63 17:0.127 18:0.1905 19:0.3016 20:0.381 21:0.2157 22:0.89 23:0.0909 
-1 1:1 2:1 3:5 4:24 5:0.4783 6:3 7:3 8:0.1304 9:0.2609 10:0.2174 11:0.3913 12:50 13:0.2174 14:3 15:0.4627 16:67 17:0.1493 18:0.1791 19:0.2836 20:0.3881 21:0.2 22:1.22 23:0.1111 
-1 1:1 2:1 3:6 4:22 5:0.5238 6:3 7:3 8:0.0952 9:0.2857 10:0.2381 11:0.381 12:51 13:0.2381 14:4 15:0.4769 16:65 17:0.1385 18:0.1846 19:0.2923 20:0.3846 21:0.2075 22:1.29 23:0.0909 
-1 1:-1 2:0 3:4 4:24 5:0.5217 6:3 7:4 8:0.087 9:0.2609 10:0.2609 11:0.3913 12:49 13:0.2444 14:4 15:0.4769 16:65 17:0.1385 18:0.1846 19:0.2923 20:0.3846 21:0.2075 22:1.14 23:0 
-1 1:1 2:1 3:6 4:21 5:0.55 6:3 7:3 8:0.1 9:0.3 10:0.25 11:0.35 12:51 13:0.25 14:1 15:0.4921 16:63 17:0.127 18:0.1905 19:0.3016 20:0.381 21:0.2157 22:1.12 23:0.0909 
-1 1:-1 2:0 3:4 4:22 5:0.5 6:3 7:4 8:0.1 9:0.15 10:0.35 11:0.4 12:9 13:0.2683 14:1 15:0.4918 16:61 17:0.1311 18:0.1967 19:0.2951 20:0.377 21:0.2245 22:0.73 23:0 
-0.04875847581479674 1:-1 2:0 3:0 4:20 5:0.6 6:4 7:2 8:0.3 9:0.45 10:0.15 11:0.1 12:45 13:0.2308 14:-1 15:0.5122 16:41 17:0.2683 18:0.2927 19:0.2195 20:0.2195 21:0.1892 22:0.7 23:-1 
-0.05210640778901278 1:-1 2:0 3:2 4:20 5:0.5 6:4 7:1 8:0.25 9:0.15 10:0.35 11:0.25 12:21 13:0.1795 14:3 15:0.5106 16:47 17:0.2553 18:0.2766 19:0.234 20:0.234 21:0.1628 22:5 23:0 
-0.02578031008874018 1:-1 2:0 3:0 4:20 5:0.4286 6:4 7:2 8:0.2381 9:0.1429 10:0.2857 11:0.3333 12:24 13:0.2308 14:1 15:0.5122 16:41 17:0.2683 18:0.2927 19:0.2195 20:0.2195 21:0.1892 22:1.43 23:-1 
-0.02316934680201699 1:4 2:1 3:14 4:23 5:0.5217 6:1 7:2 8:0.2609 9:0.3043 10:0.2174 11:0.2174 12:60 13:0.087 14:4 15:0.5195 16:77 17:0.2208 18:0.2727 19:0.2468 20:0.2597 21:0.1507 22:1 23:0.2593 
-0.4809357021028121 1:1 2:2 3:6 4:26 5:0.4762 6:4 7:6 8:0.3333 9:0.0476 10:0.4286 11:0.1905 12:19 13:0.2558 14:1 15:0.5082 16:61 17:0.2623 18:0.2623 19:0.2459 20:0.2295 21:0.2308 22:0.83 23:0.2727 
-0.1523833497287166 1:4 2:7 3:25 4:26 5:0.5833 6:6 7:3 8:0.3333 9:0.2083 10:0.375 11:0.0833 12:2 13:0.3478 14:2 15:0.5368 16:95 17:0.2526 18:0.2842 19:0.2526 20:0.2105 21:0.3023 22:0 23:0.2857 
-0.0488470310146772 1:1 2:6 3:21 4:27 5:0.5455 6:4 7:4 8:0.3636 9:0.1818 10:0.3636 11:0.0909 12:5 13:0.3333 14:2 15:0.5281 16:89 17:0.2584 18:0.2697 19:0.2584 20:0.2135 21:0.25 22:0.71 23:0.1892 
-0.1480904121520449 1:4 2:7 3:29 4:23 5:0.5714 6:7 7:3 8:0.3333 9:0.2381 10:0.3333 11:0.0952 12:1 13:0.45 14:4 15:0.5361 16:97 17:0.2577 18:0.2887 19:0.2474 20:0.2062 21:0.3182 22:0 23:0.24 
-0.04936101030504594 1:4 2:7 3:25 4:23 5:0.5714 6:4 7:3 8:0.3333 9:0.1905 10:0.381 11:0.0952 12:5 13:0.25 14:2 15:0.5281 16:89 17:0.2584 18:0.2697 19:0.2584 20:0.2135 21:0.25 22:0.56 23:0.2857 
-0.09053912587048198 1:2 2:7 3:23 4:25 5:0.5238 6:4 7:4 8:0.1429 9:0.381 10:0.1429 11:0.3333 12:73 13:0.3023 14:1 15:0.5281 16:89 17:0.2584 18:0.2697 19:0.2584 20:0.2135 21:0.25 22:2.5 23:0.2308 
-0.1270885543993623 1:1 2:6 3:20 4:28 5:0.5652 6:4 7:4 8:0.3478 9:0.1739 10:0.3913 11:0.087 12:5 13:0.3191 14:4 15:0.5281 16:89 17:0.2584 18:0.2697 19:0.2584 20:0.2135 21:0.25 22:0.62 23:0.2 
-0.8207236480084905 1:1 2:2 3:6 4:23 5:0.4762 6:4 7:5 8:0.2381 9:0.4762 10:0 11:0.2857 12:58 13:0.2308 14:3 15:0.5088 16:57 17:0.2632 18:0.2632 19:0.2456 20:0.2281 21:0.2083 22:1.22 23:0.2727 
-0.01305383160831858 1:4 2:7 3:28 4:22 5:0.55 6:5 7:3 8:0.35 9:0.25 10:0.3 11:0.1 12:3 13:0.3684 14:4 15:0.5376 16:93 17:0.2581 18:0.2903 19:0.2473 20:0.2043 21:0.2857 22:0 23:0.25 
-0.08850615195898333 1:-1 2:0 3:0 4:23 5:0.4286 6:4 7:6 8:0.3333 9:0.2857 10:0.1429 11:0.2381 12:49 13:0.3171 14:3 15:0.5 16:42 17:0.2619 18:0.2381 19:0.2619 20:0.2381 21:0.1515 22:0 23:-1 
-0.1017636343834469 1:2 2:7 3:23 4:24 5:0.55 6:4 7:4 8:0.1 9:0.4 10:0.15 11:0.35 12:73 13:0.2683 14:3 15:0.5287 16:87 17:0.2529 18:0.2759 19:0.2529 20:0.2184 21:0.2308 22:1 23:0.2308 
-0.9732193901131488 1:1 2:3 3:7 4:28 5:0.4783 6:4 7:5 8:0.3043 9:0.0435 10:0.4348 11:0.2174 12:16 13:0.2609 14:1 15:0.4923 16:65 17:0.2615 18:0.2462 19:0.2462 20:0.2462 21:0.25 22:0.22 23:0.3333 
-1 1:1 2:3 3:7 4:26 5:0.5238 6:4 7:5 8:0.2857 9:0.0476 10:0.4762 11:0.1905 12:18 13:0.2558 14:1 15:0.5161 16:62 17:0.2581 18:0.2581 19:0.2581 20:0.2258 21:0.2453 22:0.33 23:0.3333 
-0.03676964931839361 1:3 2:2 3:15 4:24 5:0.7917 6:6 7:4 8:0.0833 9:0.4167 10:0.375 11:0.125 12:2 13:0.4 14:2 15:0.6234 16:77 17:0.1429 18:0.2597 19:0.3636 20:0.2338 21:0.3623 22:4 23:0.3103 
-0.07697319022119498 1:8 2:3 3:26 4:20 5:0.45 6:2 7:3 8:0.3 9:0.1 10:0.35 11:0.25 12:75 13:0.25 14:2 15:0.5 16:92 17:0.2174 18:0.2174 19:0.2826 20:0.2826 21:0.3256 22:0.71 23:0.3913 
-0.1032717267222677 1:8 2:3 3:20 4:21 5:0.4286 6:2 7:2 8:0.2381 9:0.2857 10:0.1429 11:0.3333 12:8 13:0.1905 14:2 15:0.4878 16:82 17:0.2317 18:0.2317 19:0.2561 20:0.2805 21:0.3421 22:0.8 23:0.5294 
-0.03241142233337461 1:8 2:3 3:25 4:20 5:0.45 6:2 7:2 8:0.2 9:0.25 10:0.2 11:0.35 12:4 13:0.2 14:1 15:0.4889 16:90 17:0.2222 18:0.2222 19:0.2667 20:0.2889 21:0.3095 22:1.12 23:0.4091 
-0.279446982538019 1:8 2:2 3:16 4:24 5:0.4167 6:2 7:3 8:0.25 9:0.2083 10:0.2083 11:0.3333 12:9 13:0.25 14:4 15:0.475 16:80 17:0.2375 18:0.225 19:0.25 20:0.2875 21:0.3514 22:1 23:0.5385 
-0.3029981819235046 1:8 2:3 3:19 4:22 5:0.4545 6:2 7:2 8:0.2273 9:0.2727 10:0.1818 11:0.3182 12:8 13:0.1818 14:3 15:0.4878 16:82 17:0.2317 18:0.2317 19:0.2561 20:0.2805 21:0.3421 22:0.73 23:0.5625 
-0.1401193388311236 1:8 2:3 3:28 4:20 5:0.45 6:3 7:3 8:0.3 9:0.05 10:0.4 11:0.25 12:77 13:0.35 14:1 15:0.5104 16:96 17:0.2188 18:0.2188 19:0.2917 20:0.2708 21:0.3556 22:2.5 23:0.36 
-0.1751483507539355 1:8 2:2 3:16 4:21 5:0.4286 6:2 7:3 8:0.2857 9:0.1905 10:0.2381 11:0.2857 12:12 13:0.2381 14:4 15:0.473 16:74 17:0.2432 18:0.2297 19:0.2432 20:0.2838 21:0.3529 22:1.2 23:0.5385 
-0.1167004423748626 1:8 2:3 3:23 4:24 5:0.4583 6:2 7:3 8:0.1667 9:0.25 10:0.2083 11:0.375 12:2 13:0.25 14:3 15:0.5 16:94 17:0.2234 18:0.2234 19:0.2766 20:0.2766 21:0.3409 22:0.5 23:0.45 
-0.04654016564345259 1:8 2:3 3:25 4:23 5:0.4783 6:3 7:3 8:0.3043 9:0.087 10:0.3913 11:0.2174 12:74 13:0.3043 14:1 15:0.5104 16:96 17:0.2188 18:0.2188 19:0.2917 20:0.2708 21:0.3556 22:4 23:0.4091 
-0.7410380938148282 1:1 2:1 3:8 4:27 5:0.5652 6:4 7:5 8:0.087 9:0.2174 10:0.3478 11:0.3478 12:56 13:0.1915 14:2 15:0.6389 16:72 17:0.125 18:0.25 19:0.3889 20:0.2361 21:0.1613 22:1.43 23:0.0667 
-1 1:1 2:1 3:6 4:26 5:0.6364 6:4 7:4 8:0.0909 9:0.2727 10:0.3636 11:0.2727 12:54 13:0.1739 14:2 15:0.6567 16:67 17:0.1194 18:0.2537 19:0.403 20:0.2239 21:0.1579 22:1 23:0.0909 
-1 1:1 2:1 3:8 4:24 5:0.6 6:4 7:4 8:0.1 9:0.25 10:0.35 11:0.3 12:56 13:0.1905 14:2 15:0.6567 16:67 17:0.1194 18:0.2537 19:0.403 20:0.2239 21:0.1579 22:1 23:0.0667 
-0.08600261104081877 1:4 2:2 3:21 4:20 5:0.5 6:3 7:5 8:0 9:0.15 10:0.35 11:0.5 12:65 13:0.2973 14:4 15:0.619 16:84 17:0.131 18:0.2262 19:0.3929 20:0.25 21:0.2162 22:4.5 23:0.1351 
-0.03752990714289439 1:1 2:2 3:12 4:27 5:0.625 6:3 7:6 8:0.25 9:0.3333 10:0.2917 11:0.125 12:3 13:0.2083 14:3 15:0.625 16:80 17:0.1375 18:0.2375 19:0.3875 20:0.2375 21:0.1714 22:3.5 23:0.0909 
-0.05426435862202675 1:2 2:3 3:12 4:28 5:0.6667 6:4 7:4 8:0.125 9:0.2083 10:0.4583 11:0.2083 12:2 13:0.2941 14:1 15:0.5195 16:77 17:0.1688 18:0.1948 19:0.3247 20:0.3117 21:0.2778 22:0.5 23:0.3043 
-0.03633707042899939 1:2 2:3 3:13 4:28 5:0.7083 6:4 7:5 8:0.125 9:0.25 10:0.4583 11:0.1667 12:1 13:0.3333 14:1 15:0.5316 16:79 17:0.1646 18:0.2152 19:0.3165 20:0.3038 21:0.2973 22:0.62 23:0.28 
-0.03196704651908094 1:-1 2:0 3:0 4:22 5:0.4545 6:4 7:4 8:0.1818 9:0.1364 10:0.3182 11:0.3636 12:39 13:0.35 14:-1 15:0.439 16:41 17:0.1707 18:0.1951 19:0.2439 20:0.3902 21:0.2778 22:3 23:-1 
-0.7700079419158072 1:3 2:2 3:13 4:22 5:0.4545 6:3 7:3 8:0.2273 9:0.3636 10:0.0909 11:0.3182 12:11 13:0.3182 14:3 15:0.5714 16:70 17:0.1857 18:0.3143 19:0.2571 20:0.2429 21:0.2615 22:0.83 23:0.2174 
-0.05169260939550382 1:3 2:5 3:18 4:23 5:0.4091 6:4 7:5 8:0.2727 9:0.0909 10:0.3182 11:0.3182 12:56 13:0.3023 14:2 15:0.5733 16:75 17:0.1467 18:0.2133 19:0.36 20:0.28 21:0.3056 22:0.88 23:0.3548 
-0.1032161357017313 1:1 2:1 3:4 4:20 5:0.45 6:3 7:4 8:0.1 9:0.1 10:0.35 11:0.45 12:42 13:0.2941 14:4 15:0.5349 16:43 17:0.1163 18:0.1628 19:0.3721 20:0.3488 21:0.25 22:0.33 23:0.25 
-0.01636643046056249 1:3 2:5 3:18 4:21 5:0.4 6:4 7:4 8:0.25 9:0.1 10:0.3 11:0.35 12:56 13:0.2821 14:2 15:0.5634 16:71 17:0.1408 18:0.1972 19:0.3662 20:0.2958 21:0.2941 22:0.64 23:0.3548 
-0.1247861797450843 1:-1 2:0 3:0 4:26 5:0.5 6:3 7:6 8:0.2 9:0.15 10:0.35 11:0.3 12:17 13:0.3478 14:4 15:0.4894 16:47 17:0.1277 18:0.1489 19:0.3404 20:0.383 21:0.3182 22:0.5 23:-1 
-0.05204787282519403 1:1 2:1 3:5 4:21 5:0.381 6:3 7:5 8:0.0952 9:0.0476 10:0.3333 11:0.5238 12:43 13:0.3889 14:2 15:0.4894 16:47 17:0.1277 18:0.1489 19:0.3404 20:0.383 21:0.3182 22:0.75 23:0.2 
-0.01277123232510576 1:3 2:5 3:21 4:21 5:0.7 6:4 7:4 8:0.15 9:0.4 10:0.3 11:0.15 12:2 13:0.35 14:3 15:0.5714 16:77 17:0.1558 18:0.2208 19:0.3506 20:0.2727 21:0.3243 22:0.83 23:0.3333 
-0.07537665521315469 1:1 2:1 3:3 4:24 5:0.4583 6:3 7:5 8:0.0833 9:0.125 10:0.3333 11:0.4583 12:41 13:0.381 14:3 15:0.5102 16:49 17:0.1224 18:0.1633 19:0.3469 20:0.3673 21:0.3478 22:3 23:0.3333 
-0.04274324354656331 1:3 2:5 3:18 4:25 5:0.4167 6:4 7:5 8:0.2917 9:0.0833 10:0.3333 11:0.2917 12:56 13:0.3617 14:3 15:0.5696 16:79 17:0.1646 18:0.2152 19:0.3544 20:0.2658 21:0.3421 22:2.33 23:0.3548 
-0.02235670486558933 1:3 2:5 3:19 4:24 5:0.4348 6:4 7:4 8:0.2609 9:0.087 10:0.3478 11:0.3043 12:57 13:0.3478 14:3 15:0.5696 16:79 17:0.1646 18:0.2152 19:0.3544 20:0.2658 21:0.3421 22:3 23:0.375 
-0.100341088423352 1:3 2:4 3:24 4:25 5:0.6957 6:6 7:6 8:0 9:0.3478 10:0.3478 11:0.3043 12:72 13:0.4583 14:2 15:0.6809 16:94 17:0.0957 18:0.3723 19:0.3085 20:0.2234 21:0.3483 22:2 23:0.2558 
-0.1305715774091844 1:3 2:5 3:27 4:21 5:0.7 6:6 7:4 8:0 9:0.4 10:0.3 11:0.3 12:74 13:0.4634 14:2 15:0.6848 16:92 17:0.0978 18:0.3804 19:0.3043 20:0.2174 21:0.3333 22:0.75 23:0.25 
-0.1191025162513181 1:3 2:4 3:23 4:20 5:0.65 6:6 7:4 8:0.15 9:0.35 10:0.3 11:0.2 12:7 13:0.4737 14:4 15:0.6707 16:82 17:0.0976 18:0.3902 19:0.2805 20:0.2317 21:0.3506 22:0.71 23:0.2683 
