svm_type c_svc
kernel_type rbf
gamma 0.0434783
nr_class 2
total_sv 269
rho 0.607145
label 1 0
probA -6.46316
probB -1.92797
nr_sv 57 212
SV
1 1:8 2:3 3:18 4:23 5:0.3636 6:1 7:3 8:0.2273 9:0 10:0.3636 11:0.4091 12:15 13:0.1111 14:3 15:0.3867 16:75 17:0.2933 18:0.1467 19:0.24 20:0.32 21:0.2222 22:0.78 23:0.4483 
1 1:2 2:1 3:7 4:21 5:0.5 6:2 7:5 8:0.2 9:0.3 10:0.2 11:0.3 12:29 13:0.2683 14:4 15:0.5 16:58 17:0.2241 18:0.2414 19:0.2586 20:0.2759 21:0.2593 22:0.75 23:0.2308 
1 1:5 2:2 3:12 4:21 5:0.3 6:3 7:2 8:0.4 9:0 10:0.3 11:0.3 12:67 13:0.1707 14:4 15:0.4531 16:64 17:0.25 18:0.2188 19:0.2344 20:0.2969 21:0.2203 22:1.14 23:0.4 
0.4408352438035963 1:2 2:1 3:7 4:24 5:0.3182 6:2 7:3 8:0.1818 9:0.2273 10:0.0909 11:0.5 12:69 13:0.1556 14:2 15:0.3846 16:65 17:0.2769 18:0.2308 19:0.1538 20:0.3385 21:0.1579 22:1.29 23:0.1667 
0.8105675134291954 1:1 2:2 3:7 4:22 5:0.45 6:3 7:3 8:0.2 9:0.2 10:0.25 11:0.35 12:62 13:0.1707 14:4 15:0.5263 16:57 17:0.2281 18:0.2982 19:0.2281 20:0.2456 21:0.1538 22:0.45 23:0.2308 
0.5652034859426588 1:5 2:2 3:8 4:23 5:0.4545 6:1 7:4 8:0.1818 9:0.2727 10:0.1818 11:0.3636 12:19 13:0.1556 14:2 15:0.4333 16:60 17:0.2 18:0.2333 19:0.2 20:0.3667 21:0.2364 22:0.8 23:0.6667 
0.9253103824108921 1:-1 2:0 3:3 4:23 5:0.4545 6:1 7:5 8:0.1818 9:0.2273 10:0.2273 11:0.3636 12:17 13:0.1818 14:3 15:0.4138 16:58 17:0.2586 18:0.2069 19:0.2069 20:0.3276 21:0.16 22:1.14 23:0 
0.3161065894559124 1:2 2:1 3:5 4:22 5:0.4545 6:2 7:3 8:0.2273 9:0.2727 10:0.1818 11:0.3182 12:16 13:0.1628 14:2 15:0.4576 16:59 17:0.2542 18:0.2203 19:0.2373 20:0.2881 21:0.1765 22:0.8 23:0.25 
0.2802306849397452 1:1 2:1 3:4 4:23 5:0.5 6:2 7:5 8:0.4091 9:0.1818 10:0.3182 11:0.0909 12:63 13:0.2727 14:4 15:0.4915 16:59 17:0.2542 18:0.2542 19:0.2373 20:0.2542 21:0.24 22:0.78 23:0.25 
0.5662482626096529 1:-1 2:0 3:3 4:22 5:0.5 6:3 7:4 8:0.3636 9:0.1364 10:0.3636 11:0.1364 12:62 13:0.2727 14:4 15:0.4833 16:60 17:0.25 18:0.2167 19:0.2667 20:0.2667 21:0.24 22:0.7 23:0 
0.5430142752505479 1:-1 2:0 3:5 4:25 5:0.4545 6:4 7:4 8:0.2273 9:0.2273 10:0.2273 11:0.3182 12:57 13:0.2174 14:4 15:0.3871 16:62 17:0.2419 18:0.1935 19:0.1935 20:0.371 21:0.1786 22:1.14 23:0 
1 1:-1 2:0 3:4 4:25 5:0.5 6:4 7:4 8:0.1818 9:0.2273 10:0.2727 11:0.3182 12:67 13:0.2609 14:4 15:0.4032 16:62 17:0.2097 18:0.1935 19:0.2097 20:0.3871 21:0.2222 22:1.14 23:0 
0.3064526527509012 1:-1 2:0 3:4 4:22 5:0.2857 6:1 7:3 8:0.2857 9:0.0476 10:0.2381 11:0.4286 12:57 13:0.1163 14:4 15:0.3729 16:59 17:0.3051 18:0.1864 19:0.1864 20:0.322 21:0.098 22:0.7 23:0 
1 1:3 2:1 3:7 4:22 5:0.4545 6:2 7:3 8:0.3182 9:0.3182 10:0.1364 11:0.2273 12:46 13:0.1905 14:3 15:0.4737 16:57 17:0.2105 18:0.2456 19:0.2281 20:0.3158 21:0.2075 22:0.83 23:0.2727 
0.7729819102889237 1:-1 2:0 3:2 4:23 5:0.3913 6:2 7:3 8:0.2609 9:0.2174 10:0.1739 11:0.3478 12:23 13:0.1556 14:4 15:0.3559 16:59 17:0.322 18:0.1695 19:0.1864 20:0.322 21:0.1429 22:0.67 23:0 
1 1:12 2:2 3:20 4:21 5:0.5238 6:1 7:3 8:0.381 9:0.2857 10:0.2381 11:0.0952 12:13 13:0.122 14:4 15:0.5405 16:74 17:0.2297 18:0.3378 19:0.2027 20:0.2297 21:0.2857 22:0.8 23:0.5172 
1 1:1 2:2 3:5 4:22 5:0.5 6:2 7:2 8:0.3636 9:0.2273 10:0.2727 11:0.1364 12:43 13:0.1163 14:3 15:0.4211 16:57 17:0.2982 18:0.193 19:0.2281 20:0.2807 21:0.12 22:2.75 23:0.3333 
0.3481568553117642 1:1 2:1 3:4 4:22 5:0.4545 6:1 7:2 8:0.3636 9:0.1364 10:0.3182 11:0.1818 12:58 13:0.0909 14:2 15:0.4754 16:61 17:0.2295 18:0.1967 19:0.2787 20:0.2951 21:0.08 22:0.73 23:0.25 
0.5296547397489808 1:-1 2:0 3:5 4:26 5:0.4348 6:3 7:4 8:0.2609 9:0.2174 10:0.2174 11:0.3043 12:60 13:0.1667 14:2 15:0.4219 16:64 17:0.2656 18:0.2188 19:0.2031 20:0.3125 21:0.1379 22:1.67 23:0 
1 1:-1 2:0 3:6 4:24 5:0.5455 6:3 7:4 8:0.1818 9:0.3182 10:0.2273 11:0.2727 12:47 13:0.1818 14:3 15:0.4839 16:62 17:0.2419 18:0.2581 19:0.2258 20:0.2742 21:0.1429 22:1 23:0 
1 1:4 2:2 3:9 4:21 5:0.5714 6:1 7:3 8:0.1905 9:0.2381 10:0.3333 11:0.2381 12:37 13:0.1 14:4 15:0.5455 16:55 17:0.2182 18:0.2727 19:0.2727 20:0.2364 21:0.1538 22:0.7 23:0.4286 
1 1:-1 2:0 3:2 4:21 5:0.5714 6:1 7:2 8:0.1905 9:0.2381 10:0.3333 11:0.2381 12:55 13:0.0732 14:4 15:0.4909 16:55 17:0.2545 18:0.2545 19:0.2364 20:0.2545 21:0.0667 22:0.82 23:0 
1 1:1 2:2 3:10 4:28 5:0.3478 6:5 7:3 8:0.3043 9:0.1739 10:0.1739 11:0.3478 12:60 13:0.2157 14:3 15:0.48 16:75 17:0.2267 18:0.2533 19:0.2267 20:0.2933 21:0.1765 22:0.9 23:0.1579 
0.01602994471906066 1:1 2:1 3:7 4:23 5:0.3636 6:1 7:3 8:0.2273 9:0.0909 10:0.2727 11:0.4091 12:53 13:0.1111 14:4 15:0.3548 16:62 17:0.3065 18:0.1613 19:0.1935 20:0.3387 21:0.1034 22:0.55 23:0.0769 
0.6468794432500078 1:1 2:3 3:7 4:23 5:0.45 6:4 7:2 8:0.2 9:0.15 10:0.3 11:0.35 12:64 13:0.2093 14:1 15:0.5082 16:61 17:0.1967 18:0.2131 19:0.2951 20:0.2951 21:0.2222 22:1.12 23:0.3846 
0.9717061472639017 1:3 2:2 3:6 4:23 5:0.3913 6:2 7:3 8:0.3043 9:0.1739 10:0.2174 11:0.3043 12:29 13:0.1739 14:1 15:0.3871 16:62 17:0.2419 18:0.1613 19:0.2258 20:0.371 21:0.2364 22:0.9 23:0.6364 
0.4165068210592114 1:-1 2:0 3:4 4:23 5:0.4091 6:2 7:5 8:0.2273 9:0.1364 10:0.2727 11:0.3636 12:58 13:0.2889 14:4 15:0.4 16:65 17:0.2615 18:0.1692 19:0.2308 20:0.3385 21:0.2453 22:1.29 23:0 
1 1:4 2:1 3:9 4:23 5:0.4091 6:3 7:2 8:0.3182 9:0.1818 10:0.2273 11:0.2727 12:50 13:0.1364 14:4 15:0.4677 16:62 17:0.2581 18:0.2419 19:0.2258 20:0.2742 21:0.1724 22:1 23:0.2857 
0.6932440577670214 1:1 2:1 3:3 4:23 5:0.5217 6:2 7:4 8:0.1739 9:0.3043 10:0.2174 11:0.3043 12:27 13:0.2444 14:3 15:0.4828 16:58 17:0.2414 18:0.2414 19:0.2414 20:0.2759 21:0.2245 22:0.8 23:0.3333 
1 1:1 2:1 3:5 4:22 5:0.5238 6:2 7:3 8:0.0952 9:0.1905 10:0.3333 11:0.381 12:52 13:0.1429 14:2 15:0.4386 16:57 17:0.2807 18:0.2105 19:0.2281 20:0.2807 21:0.12 22:1 23:0.2 
0.7960140049876272 1:3 2:1 3:7 4:23 5:0.5455 6:2 7:5 8:0.3182 9:0.3182 10:0.2273 11:0.1364 12:17 13:0.2889 14:4 15:0.5312 16:64 17:0.2812 18:0.2656 19:0.2656 20:0.1875 21:0.3103 22:0.71 23:0.3846 
0.2366281894430368 1:1 2:1 3:4 4:23 5:0.4545 6:2 7:5 8:0.1818 9:0.2273 10:0.2273 11:0.3636 12:23 13:0.2889 14:1 15:0.4667 16:60 17:0.2333 18:0.2167 19:0.25 20:0.3 21:0.2549 22:0.8 23:0.25 
0.8411040482962718 1:1 2:1 3:4 4:25 5:0.6364 6:4 7:4 8:0.1818 9:0.3636 10:0.2727 11:0.1818 12:24 13:0.2727 14:4 15:0.5714 16:63 17:0.2063 18:0.2698 19:0.3016 20:0.2222 21:0.24 22:0.7 23:0.25 
1 1:-1 2:0 3:2 4:21 5:0.4286 6:2 7:3 8:0.2857 9:0.2381 10:0.1905 11:0.2857 12:38 13:0.2 14:4 15:0.4792 16:48 17:0.25 18:0.1667 19:0.3125 20:0.2708 21:0.1818 22:1 23:0 
0.1150377931926556 1:3 2:2 3:7 4:24 5:0.3478 6:1 7:4 8:0.3913 9:0.0435 10:0.3043 11:0.2609 12:25 13:0.1304 14:2 15:0.4516 16:62 17:0.2903 18:0.2097 19:0.2419 20:0.2581 21:0.193 22:0.88 23:0.5385 
0.633120951537284 1:2 2:2 3:8 4:24 5:0.5833 6:3 7:4 8:0.25 9:0.375 10:0.2083 11:0.1667 12:16 13:0.2174 14:4 15:0.4918 16:61 17:0.2787 18:0.2623 19:0.2295 20:0.2295 21:0.2069 22:1.43 23:0.2857 
1 1:9 2:2 3:20 4:24 5:0.3043 6:1 7:4 8:0.3043 9:0.1739 10:0.1304 11:0.3913 12:73 13:0.1304 14:1 15:0.4643 16:84 17:0.2738 18:0.25 19:0.2143 20:0.2619 21:0.2308 22:1 23:0.375 
0.3358463452652827 1:1 2:4 3:10 4:22 5:0.4545 6:1 7:3 8:0.1818 9:0.3636 10:0.0909 11:0.3636 12:67 13:0.1364 14:3 15:0.5231 16:65 17:0.1692 18:0.2615 19:0.2615 20:0.3077 21:0.1667 22:0.67 23:0.3333 
1 1:3 2:2 3:9 4:23 5:0.5909 6:3 7:4 8:0.0909 9:0.2273 10:0.3636 11:0.3182 12:25 13:0.2273 14:4 15:0.5152 16:66 17:0.197 18:0.2576 19:0.2576 20:0.2879 21:0.2542 22:0.67 23:0.4118 
0.03678739886070531 1:1 2:2 3:6 4:21 5:0.5238 6:3 7:4 8:0.2381 9:0.1905 10:0.3333 11:0.2381 12:26 13:0.2683 14:4 15:0.4262 16:61 17:0.2951 18:0.2131 19:0.2131 20:0.2787 21:0.24 22:0.6 23:0.2727 
0.9300075544022752 1:1 2:1 3:3 4:22 5:0.4286 6:2 7:3 8:0.2857 9:0.2857 10:0.1429 11:0.2857 12:63 13:0.1628 14:2 15:0.4697 16:66 17:0.1818 18:0.2576 19:0.2121 20:0.3485 21:0.1489 22:1.25 23:0.3333 
0.6970624403760977 1:3 2:2 3:9 4:21 5:0.5 6:2 7:4 8:0.3 9:0.15 10:0.35 11:0.2 12:59 13:0.2195 14:4 15:0.55 16:60 17:0.1833 18:0.2667 19:0.2833 20:0.2667 21:0.2364 22:1 23:0.375 
1 1:4 2:1 3:9 4:25 5:0.5455 6:2 7:3 8:0.2273 9:0.3182 10:0.2273 11:0.2273 12:71 13:0.1489 14:2 15:0.5541 16:74 17:0.1622 18:0.2568 19:0.2973 20:0.2838 21:0.2188 22:1 23:0.4118 
0.9720682875860353 1:4 2:2 3:12 4:23 5:0.4286 6:2 7:3 8:0.3333 9:0.2381 10:0.1905 11:0.2381 12:63 13:0.1818 14:3 15:0.4493 16:69 17:0.2464 18:0.2174 19:0.2319 20:0.3043 21:0.2615 22:2 23:0.4286 
0.6586971678318966 1:2 2:3 3:12 4:22 5:0.5238 6:2 7:3 8:0.0952 9:0.2857 10:0.2381 11:0.381 12:67 13:0.1905 14:2 15:0.5294 16:68 17:0.1618 18:0.2206 19:0.3088 20:0.3088 21:0.1803 22:1 23:0.2381 
0.9473656480797081 1:3 2:2 3:10 4:24 5:0.5217 6:1 7:5 8:0.2174 9:0.3043 10:0.2174 11:0.2609 12:62 13:0.1739 14:2 15:0.4638 16:69 17:0.2319 18:0.2464 19:0.2174 20:0.3043 21:0.1935 22:0.88 23:0.3333 
0.7154699708323788 1:2 2:2 3:9 4:22 5:0.4091 6:2 7:4 8:0.2727 9:0.2273 10:0.1818 11:0.3182 12:55 13:0.2093 14:4 15:0.4762 16:63 17:0.254 18:0.2381 19:0.2381 20:0.2698 21:0.2069 22:0.8 23:0.2941 
0.2877876318269244 1:2 2:1 3:5 4:24 5:0.4545 6:2 7:6 8:0.3182 9:0.1364 10:0.3182 11:0.2273 12:67 13:0.2609 14:4 15:0.4603 16:63 17:0.2222 18:0.2063 19:0.254 20:0.3175 21:0.2727 22:1.17 23:0.3333 
0.5667518319689436 1:1 2:2 3:7 4:24 5:0.5217 6:2 7:5 8:0.3478 9:0.2174 10:0.3043 11:0.1304 12:58 13:0.2174 14:4 15:0.5303 16:66 17:0.2121 18:0.2879 19:0.2424 20:0.2576 21:0.193 22:1.17 23:0.2308 
0.321923315578412 1:1 2:1 3:4 4:24 5:0.5417 6:2 7:3 8:0.25 9:0.3333 10:0.2083 11:0.2083 12:18 13:0.1304 14:1 15:0.4921 16:63 17:0.254 18:0.2381 19:0.254 20:0.254 21:0.1321 22:0.58 23:0.1429 
0.1681770029413584 1:2 2:3 3:11 4:23 5:0.5217 6:2 7:4 8:0.2609 9:0.3043 10:0.2174 11:0.2174 12:62 13:0.2093 14:4 15:0.5385 16:65 17:0.2154 18:0.2923 19:0.2462 20:0.2462 21:0.2 22:0.62 23:0.2632 
0.04011137846117393 1:3 2:2 3:7 4:22 5:0.5 6:3 7:5 8:0.2727 9:0.1364 10:0.3636 11:0.2273 12:24 13:0.3023 14:4 15:0.4921 16:63 17:0.2698 18:0.2222 19:0.2698 20:0.2381 21:0.3333 22:1 23:0.5385 
0.9788639801438614 1:1 2:1 3:5 4:22 5:0.3636 6:3 7:3 8:0.3636 9:0.1364 10:0.2273 11:0.2727 12:49 13:0.2727 14:1 15:0.3968 16:63 17:0.254 18:0.1587 19:0.2381 20:0.3492 21:0.2453 22:3.5 23:0.1111 
1 1:6 2:2 3:10 4:21 5:0.3333 6:2 7:2 8:0.3333 9:0 10:0.3333 11:0.3333 12:21 13:0.122 14:4 15:0.4 16:60 17:0.2333 18:0.2 19:0.2 20:0.3667 21:0.2364 22:1.25 23:0.625 
0.9689070862009243 1:-1 2:0 3:2 4:23 5:0.3913 6:4 7:2 8:0.2609 9:0.2174 10:0.1739 11:0.3478 12:17 13:0.2 14:1 15:0.4262 16:61 17:0.2459 18:0.2295 19:0.1967 20:0.3279 21:0.1837 22:0.9 23:0 
0.3335413707498012 1:1 2:3 3:10 4:24 5:0.5 6:3 7:4 8:0.2273 9:0.1364 10:0.3636 11:0.2727 12:61 13:0.1818 14:2 15:0.5077 16:65 17:0.2462 18:0.2308 19:0.2769 20:0.2462 21:0.1667 22:1.25 23:0.2222 
1 1:2 2:2 3:7 4:22 5:0.55 6:2 7:5 8:0.25 9:0.3 10:0.25 11:0.2 12:71 13:0.2381 14:4 15:0.4921 16:63 17:0.2381 18:0.2698 19:0.2222 20:0.2698 21:0.2593 22:1.11 23:0.4286 
-0.1690039596342434 1:8 2:3 3:26 4:23 5:0.5455 6:3 7:4 8:0.2273 9:0.3182 10:0.2273 11:0.2273 12:75 13:0.2727 14:1 15:0.4444 16:90 17:0.2667 18:0.2 19:0.2444 20:0.2889 21:0.2644 22:1.67 23:0.2889 
-0.2736216088299259 1:-1 2:0 3:0 4:28 5:0.3333 6:8 7:3 8:0.381 9:0.1429 10:0.1905 11:0.2857 12:56 13:0.2653 14:3 15:0.32 16:50 17:0.36 18:0.14 19:0.18 20:0.32 21:0.234 22:0.56 23:-1 
-0.2731926794040567 1:8 2:3 3:27 4:21 5:0.6 6:2 7:4 8:0.15 9:0.35 10:0.25 11:0.25 12:76 13:0.25 14:1 15:0.4432 16:88 17:0.2614 18:0.2045 19:0.2386 20:0.2955 21:0.2471 22:1.25 23:0.2766 
-0.1285734766961251 1:2 2:6 3:28 4:22 5:0.5238 6:4 7:3 8:0.2857 9:0.2381 10:0.2857 11:0.1905 12:8 13:0.2105 14:3 15:0.5 16:96 17:0.2292 18:0.2396 19:0.2604 20:0.2708 21:0.2391 22:0.91 23:0.2593 
-0.1564909897423365 1:2 2:6 3:28 4:26 5:0.4762 6:4 7:4 8:0.1429 9:0.1905 10:0.2857 11:0.381 12:87 13:0.2174 14:1 15:0.5096 16:104 17:0.2212 18:0.25 19:0.2596 20:0.2692 21:0.24 22:1.38 23:0.2593 
-0.01082032811906955 1:2 2:4 3:22 4:29 5:0.5417 6:4 7:5 8:0.1667 9:0.25 10:0.2917 11:0.2917 12:81 13:0.2308 14:1 15:0.5102 16:98 17:0.2245 18:0.2449 19:0.2653 20:0.2653 21:0.234 22:1 23:0.2381 
-0.187458689835709 1:1 2:5 3:26 4:21 5:0.45 6:1 7:4 8:0.45 9:0.25 10:0.2 11:0.1 12:79 13:0.15 14:1 15:0.4737 16:95 17:0.2737 18:0.2211 19:0.2526 20:0.2526 21:0.1364 22:1 23:0.16 
-0.1694167685481534 1:1 2:4 3:24 4:25 5:0.375 6:1 7:6 8:0.4583 9:0.2083 10:0.1667 11:0.1667 12:77 13:0.2083 14:2 15:0.4545 16:99 17:0.2929 18:0.2121 19:0.2424 20:0.2525 21:0.1522 22:1 23:0.1304 
-0.1474219490573507 1:1 2:4 3:22 4:21 5:0.4 6:1 7:4 8:0.5 9:0.15 10:0.25 11:0.1 12:75 13:0.1707 14:3 15:0.4545 16:88 17:0.2841 18:0.2159 19:0.2386 20:0.2614 21:0.1358 22:0.7 23:0.1429 
-0.01582546300904022 1:5 2:3 3:24 4:22 5:0.5 6:4 7:2 8:0.1364 9:0.4091 10:0.0909 11:0.3636 12:10 13:0.1707 14:1 15:0.4598 16:87 17:0.2414 18:0.2299 19:0.2299 20:0.2989 21:0.2195 22:0.8 23:0.3023 
-0.632923289532336 1:5 2:3 3:20 4:20 5:0.5 6:1 7:2 8:0.1 9:0.35 10:0.15 11:0.4 12:16 13:0.0769 14:3 15:0.4545 16:77 17:0.2468 18:0.2208 19:0.2338 20:0.2987 21:0.1944 22:1 23:0.3714 
-0.2238300951558194 1:5 2:3 3:21 4:24 5:0.3333 6:4 7:2 8:0.4286 9:0.0476 10:0.2857 11:0.2381 12:75 13:0.1556 14:2 15:0.4471 16:85 17:0.2471 18:0.2235 19:0.2235 20:0.3059 21:0.225 22:1.29 23:0.3514 
-0.04228390986484137 1:2 2:3 3:15 4:21 5:0.4762 6:3 7:3 8:0.1905 9:0.3333 10:0.1429 11:0.3333 12:66 13:0.25 14:4 15:0.5333 16:75 17:0.24 18:0.2933 19:0.24 20:0.2267 21:0.2239 22:2.5 23:0.1852 
-0.4347675009912908 1:1 2:2 3:11 4:26 5:0.4167 6:3 7:4 8:0.25 9:0.2917 10:0.125 11:0.3333 12:64 13:0.25 14:3 15:0.5195 16:77 17:0.2468 18:0.2857 19:0.2338 20:0.2338 21:0.2174 22:4.5 23:0.1429 
-0.2397328781059665 1:2 2:3 3:24 4:22 5:0.5714 6:3 7:3 8:0.0952 9:0.3333 10:0.2381 11:0.3333 12:84 13:0.2093 14:3 15:0.4787 16:94 17:0.2447 18:0.266 19:0.2128 20:0.2766 21:0.186 22:1 23:0.1628 
-0.2007398242105516 1:-1 2:0 3:0 4:23 5:0.381 6:2 7:3 8:0.2857 9:0.1905 10:0.1905 11:0.3333 12:62 13:0.1707 14:3 15:0.3469 16:49 17:0.3061 18:0.2245 19:0.1224 20:0.3469 21:0.1707 22:2.5 23:-1 
-0.27353401163247 1:-1 2:0 3:0 4:22 5:0.381 6:3 7:3 8:0.2857 9:0.1905 10:0.1905 11:0.3333 12:58 13:0.25 14:-1 15:0.3571 16:42 17:0.2857 18:0.2143 19:0.1429 20:0.3571 21:0.1176 22:0.2 23:-1 
-0.1882006783887566 1:3 2:5 3:27 4:27 5:0.5455 6:6 7:3 8:0.1364 9:0.4091 10:0.1364 11:0.3182 12:5 13:0.2174 14:2 15:0.5152 16:99 17:0.2424 18:0.2828 19:0.2323 20:0.2424 21:0.1915 22:0.8 23:0.2 
-0.1545462217009478 1:3 2:5 3:26 4:20 5:0.55 6:2 7:2 8:0.1 9:0.35 10:0.2 11:0.35 12:8 13:0.0811 14:1 15:0.5114 16:88 17:0.2273 18:0.2727 19:0.2386 20:0.2614 21:0.1325 22:0.91 23:0.2083 
-0.3364654648759286 1:1 2:1 3:8 4:24 5:0.4348 6:2 7:5 8:0.2174 9:0.1739 10:0.2609 11:0.3478 12:13 13:0.2609 14:1 15:0.4085 16:71 17:0.2676 18:0.1831 19:0.2254 20:0.3239 21:0.2131 22:1.17 23:0.0667 
-0.1587526843282922 1:5 2:3 3:20 4:24 5:0.4583 6:3 7:5 8:0.2083 9:0.2083 10:0.25 11:0.3333 12:6 13:0.2444 14:2 15:0.4337 16:83 17:0.241 18:0.2289 19:0.2048 20:0.3253 21:0.2308 22:0.62 23:0.2571 
-0.1054881170706004 1:-1 2:0 3:0 4:26 5:0.381 6:5 7:4 8:0.1905 9:0.2381 10:0.1429 11:0.4286 12:25 13:0.2766 14:4 15:0.375 16:48 17:0.2083 18:0.2083 19:0.1667 20:0.4167 21:0.2093 22:2 23:-1 
-0.8195156953788506 1:1 2:1 3:10 4:22 5:0.7619 6:2 7:3 8:0.0476 9:0.3333 10:0.4286 11:0.1905 12:60 13:0.2093 14:4 15:0.5915 16:71 17:0.1549 18:0.2676 19:0.3239 20:0.2535 21:0.1746 22:0.73 23:0.1 
-0.1892257835552404 1:1 2:1 3:11 4:24 5:0.5 6:2 7:4 8:0.125 9:0.25 10:0.25 11:0.375 12:7 13:0.2766 14:2 15:0.5714 16:77 17:0.1558 18:0.2468 19:0.3247 20:0.2727 21:0.2174 22:1 23:0.0909 
-0.1022296996929405 1:-1 2:0 3:0 4:21 5:0.4545 6:3 7:3 8:0.1364 9:0.1364 10:0.3182 11:0.4091 12:24 13:0.2683 14:-1 15:0.5581 16:43 17:0.1628 18:0.2326 19:0.3256 20:0.2791 21:0.1429 22:3.5 23:-1 
-0.2305056950114839 1:1 2:4 3:19 4:24 5:0.5417 6:3 7:3 8:0.2917 9:0.25 10:0.2917 11:0.1667 12:68 13:0.3191 14:4 15:0.4505 16:91 17:0.2747 18:0.2198 19:0.2308 20:0.2747 21:0.253 22:1.1 23:0.1667 
-0.1776083337116545 1:1 2:3 3:16 4:25 5:0.5217 6:3 7:4 8:0.2609 9:0.2609 10:0.2609 11:0.2174 12:3 13:0.3333 14:1 15:0.4483 16:87 17:0.2759 18:0.2184 19:0.2299 20:0.2759 21:0.2658 22:0.78 23:0.1613 
-0.1319498192413579 1:2 2:2 3:18 4:22 5:0.4545 6:3 7:3 8:0.2727 9:0.1818 10:0.2727 11:0.2727 12:66 13:0.2727 14:3 15:0.4824 16:85 17:0.2471 18:0.2353 19:0.2471 20:0.2706 21:0.2208 22:0.78 23:0.1515 
-0.03056001416561169 1:2 2:3 3:21 4:23 5:0.5217 6:3 7:4 8:0.2609 9:0.2609 10:0.2609 11:0.2174 12:69 13:0.2727 14:2 15:0.4945 16:91 17:0.2527 18:0.2418 19:0.2527 20:0.2527 21:0.2289 22:2 23:0.1795 
-0.1073782777454859 1:2 2:4 3:21 4:20 5:0.5 6:3 7:4 8:0.1 9:0.35 10:0.15 11:0.4 12:12 13:0.3333 14:3 15:0.4699 16:83 17:0.2651 18:0.241 19:0.2289 20:0.2651 21:0.2432 22:1.67 23:0.2 
-0.1876215555015966 1:3 2:4 3:27 4:21 5:0.4762 6:5 7:2 8:0.2381 9:0.3333 10:0.1429 11:0.2857 12:1 13:0.2973 14:1 15:0.4752 16:101 17:0.2574 18:0.2277 19:0.2475 20:0.2673 21:0.2527 22:1.33 23:0.2222 
-0.0282999180300097 1:1 2:3 3:16 4:23 5:0.4783 6:5 7:3 8:0.1304 9:0.3478 10:0.1304 11:0.3913 12:10 13:0.3333 14:1 15:0.4643 16:84 17:0.2619 18:0.2262 19:0.2381 20:0.2738 21:0.2703 22:2.33 23:0.1875 
-0.02424389968154191 1:1 2:3 3:15 4:24 5:0.4583 6:5 7:3 8:0.125 9:0.3333 10:0.125 11:0.4167 12:10 13:0.3182 14:3 15:0.4643 16:84 17:0.2619 18:0.2262 19:0.2381 20:0.2738 21:0.2703 22:1.4 23:0.2 
-0.1693261485688426 1:1 2:3 3:15 4:21 5:0.4286 6:4 7:4 8:0.0476 9:0.381 10:0.0476 11:0.5238 12:11 13:0.3158 14:1 15:0.4521 16:73 17:0.2603 18:0.2329 19:0.2192 20:0.2877 21:0.2537 22:0 23:0.1724 
-0.02973695068972705 1:2 2:5 3:23 4:21 5:0.4762 6:4 7:3 8:0.0476 9:0.381 10:0.0952 11:0.4762 12:3 13:0.2105 14:3 15:0.4607 16:89 17:0.2584 18:0.2472 19:0.2135 20:0.2809 21:0.2289 22:0.78 23:0.2444 
-0.08740668008500121 1:1 2:3 3:12 4:21 5:0.4762 6:2 7:4 8:0.0476 9:0.4286 10:0.0476 11:0.4762 12:14 13:0.2195 14:2 15:0.4714 16:70 17:0.2714 18:0.2429 19:0.2286 20:0.2571 21:0.2188 22:0.78 23:0.2174 
-0.06221892558430824 1:-1 2:0 3:0 4:25 5:0.5217 6:4 7:3 8:0.2174 9:0.2174 10:0.3043 11:0.2609 12:49 13:0.2174 14:-1 15:0.4167 16:48 17:0.25 18:0.2083 19:0.2083 20:0.3333 21:0.1429 22:0.71 23:-1 
-0.1496956857900763 1:4 2:1 3:15 4:24 5:0.3913 6:3 7:5 8:0.2609 9:0.3043 10:0.087 11:0.3478 12:8 13:0.2273 14:3 15:0.4286 16:77 17:0.2468 18:0.2208 19:0.2078 20:0.3247 21:0.2113 22:0.33 23:0.1852 
-0.02774243766862947 1:4 2:1 3:17 4:23 5:0.4091 6:4 7:5 8:0.2727 9:0.3182 10:0.0909 11:0.3182 12:7 13:0.2857 14:1 15:0.4304 16:79 17:0.2405 18:0.2278 19:0.2025 20:0.3291 21:0.2329 22:0 23:0.1613 
-0.03905449028221555 1:4 2:2 3:23 4:21 5:0.4762 6:4 7:4 8:0.1429 9:0.381 10:0.0952 11:0.381 12:12 13:0.3333 14:3 15:0.4607 16:89 17:0.2022 18:0.236 19:0.2247 20:0.3371 21:0.2346 22:2 23:0.1429 
-0.1091242858858686 1:4 2:2 3:22 4:22 5:0.5 6:4 7:4 8:0.1364 9:0.4091 10:0.0909 11:0.3636 12:12 13:0.3171 14:1 15:0.4607 16:89 17:0.2022 18:0.236 19:0.2247 20:0.3371 21:0.2346 22:1.67 23:0.15 
-0.08727774678357959 1:4 2:1 3:14 4:22 5:0.4286 6:2 7:5 8:0.1905 9:0.3333 10:0.0952 11:0.381 12:20 13:0.2195 14:3 15:0.4595 16:74 17:0.1892 18:0.2297 19:0.2297 20:0.3514 21:0.2121 22:0.67 23:0.2 
-0.2133906090553725 1:3 2:2 3:13 4:20 5:0.55 6:2 7:3 8:0.15 9:0.35 10:0.2 11:0.3 12:15 13:0.1795 14:3 15:0.4789 16:71 17:0.2535 18:0.2535 19:0.2254 20:0.2676 21:0.1935 22:1.8 23:0.28 
-0.1956544487314132 1:1 2:3 3:20 4:24 5:0.5833 6:3 7:3 8:0.1667 9:0.5 10:0.0833 11:0.25 12:1 13:0.2889 14:4 15:0.4348 16:92 17:0.25 18:0.25 19:0.1848 20:0.3152 21:0.2143 22:0.3 23:0.1282 
-0.4423678516314029 1:5 2:2 3:15 4:20 5:0.45 6:5 7:2 8:0.35 9:0.3 10:0.15 11:0.2 12:54 13:0.2353 14:4 15:0.4531 16:64 17:0.2344 18:0.2344 19:0.2188 20:0.3125 21:0.2667 22:3.33 23:0.3077 
-0.3292764786972177 1:5 2:2 3:21 4:23 5:0.4286 6:5 7:3 8:0.381 9:0.2381 10:0.1905 11:0.1905 12:60 13:0.3684 14:2 15:0.475 16:80 17:0.25 18:0.225 19:0.25 20:0.275 21:0.2895 22:1.25 23:0.2105 
-0.2639251484542165 1:5 2:2 3:17 4:26 5:0.375 6:5 7:3 8:0.4167 9:0.2083 10:0.1667 11:0.2083 12:56 13:0.3182 14:2 15:0.4615 16:78 17:0.2564 18:0.2179 19:0.2436 20:0.2821 21:0.2973 22:1.8 23:0.2667 
-0.1149274230526648 1:1 2:3 3:19 4:20 5:0.5 6:3 7:3 8:0.2 9:0.35 10:0.15 11:0.3 12:16 13:0.2308 14:1 15:0.4691 16:81 17:0.2593 18:0.2469 19:0.2222 20:0.2716 21:0.1733 22:1.83 23:0.1111 
-0.1943658634154934 1:1 2:4 3:25 4:29 5:0.5 6:4 7:4 8:0.3333 9:0.2083 10:0.2917 11:0.1667 12:84 13:0.2308 14:3 15:0.4528 16:106 17:0.2547 18:0.2453 19:0.2075 20:0.2925 21:0.18 22:0.33 23:0.125 
-0.04413354526752444 1:2 2:2 3:14 4:24 5:0.5 6:5 7:3 8:0.2917 9:0.3333 10:0.1667 11:0.2083 12:10 13:0.2444 14:1 15:0.4756 16:82 17:0.2683 18:0.2317 19:0.2439 20:0.2561 21:0.2222 22:0.89 23:0.1852 
-0.1408822752316097 1:2 2:3 3:22 4:25 5:0.625 6:5 7:4 8:0.125 9:0.4583 10:0.1667 11:0.25 12:2 13:0.3182 14:4 15:0.5052 16:97 17:0.2371 18:0.2474 19:0.2577 20:0.2577 21:0.2414 22:1 23:0.1628 
-0.3878423330149294 1:12 2:2 3:30 4:21 5:0.619 6:3 7:5 8:0.2857 9:0.4286 10:0.1905 11:0.0952 12:3 13:0.2632 14:2 15:0.5604 16:91 17:0.2308 18:0.3516 19:0.2088 20:0.2088 21:0.2874 22:0.4 23:0.3061 
-0.198092090009264 1:1 2:1 3:4 4:30 5:0.45 6:12 7:3 8:0.4 9:0.25 10:0.2 11:0.15 12:20 13:0.3469 14:3 15:0.55 16:60 17:0.2167 18:0.35 19:0.2 20:0.2333 21:0.3214 22:0.71 23:0.1429 
-0.2682831627424725 1:-1 2:0 3:2 4:33 5:0.4348 6:12 7:4 8:0.4348 9:0.2609 10:0.1739 11:0.1304 12:19 13:0.3333 14:3 15:0.5323 16:62 17:0.2258 18:0.3387 19:0.1935 20:0.2419 21:0.3103 22:1 23:0 
-0.2853799907518533 1:-1 2:0 3:0 4:21 5:0.35 6:3 7:2 8:0.25 9:0.25 10:0.1 11:0.4 12:15 13:0.1707 14:4 15:0.381 16:42 17:0.3333 18:0.1667 19:0.2143 20:0.2857 21:0.0286 22:3 23:-1 
-0.336962067254743 1:1 2:2 3:12 4:23 5:0.5455 6:2 7:4 8:0.3182 9:0.3636 10:0.1818 11:0.1364 12:50 13:0.1628 14:4 15:0.4648 16:71 17:0.2676 18:0.2254 19:0.2394 20:0.2676 21:0.125 22:1.25 23:0.1304 
-0.4940920928858281 1:-1 2:0 3:0 4:23 5:0.4348 6:3 7:2 8:0.4348 9:0.1304 10:0.3043 11:0.1304 12:36 13:0.1556 14:2 15:0.3913 16:46 17:0.3261 18:0.1739 19:0.2174 20:0.2826 21:0.0256 22:0.33 23:-1 
-0.2041964290112463 1:1 2:2 3:16 4:27 5:0.5417 6:4 7:4 8:0.2083 9:0.2917 10:0.25 11:0.25 12:5 13:0.2157 14:1 15:0.5 16:92 17:0.2391 18:0.2391 19:0.2609 20:0.2609 21:0.1605 22:1.11 23:0.125 
-0.05203131969772003 1:1 2:2 3:12 4:23 5:0.55 6:4 7:3 8:0.1 9:0.35 10:0.2 11:0.35 12:13 13:0.2093 14:3 15:0.5 16:76 17:0.2237 18:0.2368 19:0.2632 20:0.2763 21:0.1692 22:0.78 23:0.1667 
-0.05353651978100481 1:1 2:3 3:21 4:22 5:0.5 6:4 7:3 8:0.2273 9:0.2727 10:0.2273 11:0.2727 12:75 13:0.2195 14:1 15:0.5 16:92 17:0.2391 18:0.2391 19:0.2609 20:0.2609 21:0.1605 22:1 23:0.1429 
-0.05522894482346149 1:3 2:1 3:20 4:24 5:0.4762 6:3 7:5 8:0.2381 9:0.1429 10:0.3333 11:0.2857 12:72 13:0.2273 14:3 15:0.4943 16:87 17:0.2299 18:0.2644 19:0.2299 20:0.2759 21:0.1605 22:0.64 23:0.0811 
-0.1289062305739701 1:3 2:1 3:17 4:23 5:0.4 6:3 7:5 8:0.2 9:0.15 10:0.25 11:0.4 12:69 13:0.2381 14:3 15:0.4684 16:79 17:0.2405 18:0.2532 19:0.2152 20:0.2911 21:0.1781 22:0.88 23:0.0968 
-0.01229829735758214 1:3 2:2 3:22 4:21 5:0.5238 6:3 7:4 8:0.2857 9:0.4286 10:0.0952 11:0.1905 12:7 13:0.2308 14:1 15:0.4824 16:85 17:0.2353 18:0.2588 19:0.2235 20:0.2824 21:0.1646 22:1.43 23:0.1 
-0.1138176848592877 1:3 2:1 3:16 4:24 5:0.4583 6:8 7:3 8:0.375 9:0.25 10:0.2083 11:0.1667 12:55 13:0.2821 14:3 15:0.4667 16:75 17:0.28 18:0.24 19:0.2267 20:0.2533 21:0.2174 22:1.12 23:0.1333 
-0.4444161543677646 1:-1 2:0 3:0 4:25 5:0.4783 6:3 7:4 8:0.2609 9:0.3478 10:0.1304 11:0.2609 12:39 13:0.234 14:2 15:0.449 16:49 17:0.2653 18:0.2653 19:0.1837 20:0.2857 21:0.1628 22:0.5 23:-1 
-0.1482535619963951 1:3 2:1 3:15 4:24 5:0.4167 6:8 7:3 8:0.4167 9:0.2083 10:0.2083 11:0.1667 12:54 13:0.2821 14:3 15:0.4521 16:73 17:0.2877 18:0.2329 19:0.2192 20:0.2603 21:0.2239 22:1.6 23:0.1429 
-0.1119825018776867 1:-1 2:0 3:0 4:24 5:0.5417 6:5 7:4 8:0.2083 9:0.2083 10:0.3333 11:0.25 12:28 13:0.2381 14:4 15:0.5116 16:43 17:0.2558 18:0.2791 19:0.2326 20:0.2326 21:0.2 22:0.89 23:-1 
-0.2898289294189773 1:1 2:1 3:3 4:21 5:0.5238 6:5 7:3 8:0.2381 9:0.1905 10:0.3333 11:0.2381 12:31 13:0.2222 14:4 15:0.5116 16:43 17:0.2558 18:0.2791 19:0.2326 20:0.2326 21:0.2 22:0.56 23:0.3333 
-0.216611802531738 1:1 2:2 3:15 4:21 5:0.381 6:10 7:1 8:0.2381 9:0.1905 10:0.1905 11:0.381 12:8 13:0.3125 14:3 15:0.4366 16:71 17:0.2958 18:0.2254 19:0.2113 20:0.2676 21:0.2131 22:0 23:0.1034 
-0.1845384951892473 1:1 2:2 3:14 4:21 5:0.4286 6:9 7:1 8:0.2381 9:0.2381 10:0.1905 11:0.3333 12:9 13:0.2727 14:4 15:0.4429 16:70 17:0.3 18:0.2286 19:0.2143 20:0.2571 21:0.2 22:0 23:0.1111 
-0.3107142929597255 1:1 2:1 3:10 4:34 5:0.5 6:10 7:3 8:0.3333 9:0.2083 10:0.2917 11:0.1667 12:63 13:0.2727 14:1 15:0.4524 16:84 17:0.2976 18:0.2262 19:0.2262 20:0.25 21:0.2162 22:2.33 23:0.0526 
-0.1092586409822629 1:1 2:3 3:17 4:27 5:0.3636 6:5 7:3 8:0.3636 9:0.1818 10:0.1818 11:0.2727 12:67 13:0.2245 14:3 15:0.4828 16:87 17:0.2184 18:0.2529 19:0.2299 20:0.2989 21:0.175 22:0.86 23:0.1515 
-0.1262984414809933 1:-1 2:0 3:0 4:22 5:0.5909 6:3 7:3 8:0.2273 9:0.2273 10:0.3636 11:0.1818 12:26 13:0.2093 14:4 15:0.5227 16:44 17:0.2045 18:0.2727 19:0.25 20:0.2727 21:0.0811 22:4.5 23:-1 
-0.4846857450117621 1:1 2:2 3:12 4:30 5:0.381 6:10 7:3 8:0.2857 9:0.1429 10:0.2381 11:0.3333 12:58 13:0.2941 14:4 15:0.3718 16:78 17:0.2821 18:0.2051 19:0.1667 20:0.3462 21:0.2432 22:2.25 23:0.1304 
-0.08722280715327461 1:-1 2:0 3:0 4:23 5:0.3333 6:1 7:4 8:0.2381 9:0.0476 10:0.2857 11:0.4286 12:47 13:0.1364 14:1 15:0.3333 16:48 17:0.3125 18:0.1458 19:0.1875 20:0.3542 21:0.1364 22:1.43 23:-1 
-0.2195472365331659 1:-1 2:0 3:0 4:21 5:0.381 6:1 7:5 8:0.3333 9:0.2381 10:0.1429 11:0.2857 12:23 13:0.2 14:1 15:0.3095 16:42 17:0.3333 18:0.1429 19:0.1667 20:0.3571 21:0.1579 22:0.88 23:-1 
-0.3618515158217916 1:1 2:3 3:13 4:24 5:0.5 6:10 7:2 8:0.125 9:0.1667 10:0.3333 11:0.375 12:16 13:0.4667 14:4 15:0.44 16:75 17:0.24 18:0.1867 19:0.2533 20:0.32 21:0.3529 22:0.22 23:0.2 
-0.1878339308150621 1:2 2:4 3:21 4:24 5:0.4348 6:10 7:3 8:0.1304 9:0.1739 10:0.2609 11:0.4348 12:9 13:0.5 14:2 15:0.4667 16:90 17:0.2111 18:0.1889 19:0.2778 20:0.3222 21:0.3494 22:0.67 23:0.2195 
-0.2153215561193973 1:2 2:4 3:20 4:23 5:0.4348 6:10 7:2 8:0.1304 9:0.1304 10:0.3043 11:0.4348 12:10 13:0.4884 14:3 15:0.4598 16:87 17:0.2184 18:0.1839 19:0.2759 20:0.3218 21:0.35 22:0.56 23:0.2308 
-0.03494844617889169 1:2 2:5 3:20 4:23 5:0.5455 6:2 7:2 8:0.2727 9:0.3636 10:0.1818 11:0.1818 12:72 13:0.1111 14:3 15:0.4824 16:85 17:0.2588 18:0.2471 19:0.2353 20:0.2588 21:0.15 22:1 23:0.2432 
-0.03012851371248529 1:2 2:5 3:24 4:24 5:0.5417 6:2 7:3 8:0.1667 9:0.25 10:0.2917 11:0.2917 12:4 13:0.1556 14:1 15:0.4731 16:93 17:0.2581 18:0.2366 19:0.2366 20:0.2688 21:0.1591 22:0.64 23:0.2 
-0.1978675159043371 1:3 2:2 3:16 4:20 5:0.4 6:3 7:4 8:0.35 9:0.2 10:0.2 11:0.25 12:22 13:0.3333 14:1 15:0.4133 16:75 17:0.24 18:0.1867 19:0.2267 20:0.3467 21:0.2647 22:1.29 23:0.2258 
-0.2721677770330356 1:3 2:5 3:32 4:24 5:0.625 6:4 7:4 8:0.0833 9:0.2917 10:0.3333 11:0.2917 12:2 13:0.3333 14:4 15:0.4486 16:107 17:0.2243 18:0.2056 19:0.243 20:0.3271 21:0.3 22:0 23:0.3016 
-0.1236324060295565 1:3 2:2 3:17 4:20 5:0.4 6:3 7:5 8:0.35 9:0.15 10:0.25 11:0.25 12:21 13:0.3684 14:3 15:0.4211 16:76 17:0.2368 18:0.1842 19:0.2368 20:0.3421 21:0.2754 22:1.5 23:0.2121 
-0.1771019767146578 1:1 2:2 3:15 4:22 5:0.6364 6:7 7:5 8:0.1364 9:0.2273 10:0.0909 11:0.2273 12:5 13:0.4595 14:2 15:0.4744 16:78 17:0.2308 18:0.1667 19:0.2179 20:0.2949 21:0.303 22:0 23:0.1034 
-0.1739961682673877 1:-1 2:0 3:0 4:22 5:0.3636 6:4 7:3 8:0.3636 9:0.2273 10:0.1364 11:0.2727 12:24 13:0.3023 14:1 15:0.383 16:47 17:0.2766 18:0.1489 19:0.234 20:0.3404 21:0.1429 22:5 23:-1 
-0.3072421863420622 1:-1 2:0 3:10 4:30 5:0.4762 6:10 7:6 8:0.2381 9:0.1905 10:0.2857 11:0.2857 12:64 13:0.4902 14:1 15:0.494 16:83 17:0.2289 18:0.1687 19:0.2048 20:0.2771 21:0.3521 22:1.33 23:0 
-0.2292101540106094 1:4 2:2 3:17 4:22 5:0.4286 6:3 7:2 8:0.0952 9:0.2381 10:0.1905 11:0.4762 12:3 13:0.2093 14:1 15:0.4868 16:76 17:0.2237 18:0.25 19:0.2368 20:0.2895 21:0.1944 22:1.2 23:0.1724 
-0.1374330576228279 1:4 2:2 3:16 4:22 5:0.4545 6:3 7:2 8:0.3636 9:0.2273 10:0.2273 11:0.1818 12:56 13:0.1628 14:3 15:0.4865 16:74 17:0.2297 18:0.2432 19:0.2432 20:0.2838 21:0.1714 22:0.88 23:0.1852 
-0.2299281929994565 1:-1 2:0 3:0 4:26 5:0.4286 6:4 7:3 8:0.2857 9:0.1905 10:0.2381 11:0.2857 12:45 13:0.2174 14:3 15:0.48 16:50 17:0.26 18:0.26 19:0.22 20:0.26 21:0.2174 22:1.11 23:-1 
-0.07522191742444552 1:2 2:6 3:29 4:21 5:0.4286 6:6 7:2 8:0.2381 9:0.2381 10:0.1905 11:0.3333 12:3 13:0.2778 14:4 15:0.48 16:100 17:0.24 18:0.23 19:0.25 20:0.28 21:0.2747 22:0.9 23:0.2982 
-0.04806505932318487 1:2 2:6 3:30 4:21 5:0.381 6:6 7:2 8:0.2857 9:0.1905 10:0.1905 11:0.3333 12:2 13:0.2778 14:3 15:0.4706 16:102 17:0.2451 18:0.2255 19:0.2451 20:0.2843 21:0.2688 22:1.29 23:0.2881 
-0.2262953642126266 1:2 2:4 3:21 4:29 5:0.5652 6:6 7:4 8:0.2174 9:0.2174 10:0.3478 11:0.2174 12:80 13:0.3077 14:1 15:0.48 16:100 17:0.24 18:0.23 19:0.25 20:0.28 21:0.2747 22:1 23:0.2683 
-0.4904624388181901 1:1 2:2 3:11 4:22 5:0.5455 6:2 7:3 8:0.1818 9:0.1364 10:0.4091 11:0.2727 12:57 13:0.2093 14:4 15:0.5072 16:69 17:0.2609 18:0.2609 19:0.2464 20:0.2319 21:0.1613 22:0.5 23:0.1429 
-0.1232911243099548 1:-1 2:0 3:0 4:25 5:0.6087 6:3 7:6 8:0.2609 9:0.2609 10:0.3478 11:0.1304 12:24 13:0.375 14:4 15:0.58 16:50 17:0.26 18:0.3 19:0.28 20:0.16 21:0.3182 22:1.8 23:-1 
-0.2247909211947588 1:3 2:2 3:13 4:23 5:0.6957 6:2 7:4 8:0.1739 9:0.3043 10:0.3913 11:0.1304 12:64 13:0.2444 14:2 15:0.6053 16:76 17:0.2368 18:0.3026 19:0.3026 20:0.1579 21:0.2571 22:0.42 23:0.28 
-0.1875621418106894 1:-1 2:0 3:0 4:21 5:0.55 6:3 7:5 8:0.3 9:0.25 10:0.3 11:0.15 12:28 13:0.4 14:-1 15:0.5238 16:42 17:0.2857 18:0.2619 19:0.2619 20:0.1905 21:0.3333 22:1 23:-1 
-0.1506447485101983 1:3 2:5 3:19 4:21 5:0.5714 6:2 7:2 8:0.2381 9:0.3333 10:0.2381 11:0.1905 12:4 13:0.122 14:2 15:0.6235 16:85 17:0.2 18:0.3294 19:0.2941 20:0.1765 21:0.2368 22:1.22 23:0.4054 
-0.5772934030984865 1:2 2:4 3:13 4:20 5:0.7 6:3 7:2 8:0.05 9:0.4 10:0.3 11:0.25 12:63 13:0.25 14:3 15:0.6111 16:72 17:0.2222 18:0.3333 19:0.2778 20:0.1667 21:0.2698 22:0.3 23:0.36 
-0.007177556201891474 1:2 2:5 3:16 4:22 5:0.5909 6:2 7:3 8:0.2727 9:0.3182 10:0.2727 11:0.1364 12:6 13:0.1628 14:2 15:0.6296 16:81 17:0.1975 18:0.3333 19:0.2963 20:0.1728 21:0.25 22:1.57 23:0.4194 
-0.0819255138741319 1:1 2:2 3:12 4:23 5:0.6087 6:2 7:5 8:0.1304 9:0.3478 10:0.2609 11:0.2609 12:15 13:0.3182 14:4 15:0.5405 16:74 17:0.2027 18:0.2703 19:0.2703 20:0.2568 21:0.2308 22:1.2 23:0.1304 
-0.2075567730539296 1:4 2:4 3:26 4:26 5:0.5417 6:2 7:4 8:0.3333 9:0.125 10:0.4167 11:0.125 12:84 13:0.1837 14:3 15:0.5849 16:106 17:0.1981 18:0.283 19:0.3019 20:0.217 21:0.2043 22:0.62 23:0.2609 
-0.1413940626008879 1:-1 2:0 3:0 4:27 5:0.5833 6:6 7:4 8:0.25 9:0.2083 10:0.375 11:0.1667 12:56 13:0.3878 14:-1 15:0.6 16:50 17:0.24 18:0.3 19:0.3 20:0.16 21:0.1892 22:0 23:-1 
-0.01495905364910355 1:-1 2:0 3:0 4:26 5:0.5417 6:6 7:4 8:0.2917 9:0.2083 10:0.3333 11:0.1667 12:55 13:0.375 14:-1 15:0.5918 16:49 17:0.2449 18:0.3061 19:0.2857 20:0.1633 21:0.1667 22:0 23:-1 
-0.1012992502869617 1:2 2:4 3:24 4:26 5:0.4583 6:2 7:4 8:0.2083 9:0.125 10:0.3333 11:0.3333 12:77 13:0.2245 14:2 15:0.53 16:100 17:0.24 18:0.26 19:0.27 20:0.23 21:0.1915 22:1.25 23:0.1556 
-0.1287289794696329 1:2 2:2 3:16 4:22 5:0.5 6:6 7:2 8:0.2273 9:0.3636 10:0.1364 11:0.2727 12:52 13:0.3333 14:3 15:0.5072 16:69 17:0.2464 18:0.2174 19:0.2899 20:0.2464 21:0.2615 22:1.12 23:0.1875 
-0.1769157139177336 1:2 2:2 3:18 4:21 5:0.5714 6:6 7:2 8:0.2381 9:0.4286 10:0.1429 11:0.1905 12:54 13:0.3548 14:4 15:0.5211 16:71 17:0.2394 18:0.2254 19:0.2958 20:0.2394 21:0.2537 22:0.73 23:0.1667 
-1 1:2 2:1 3:9 4:22 5:0.5455 6:5 7:3 8:0.3182 9:0.3636 10:0.1818 11:0.1364 12:45 13:0.2432 14:1 15:0.5085 16:59 17:0.2542 18:0.2034 19:0.3051 20:0.2373 21:0.2364 22:1.17 23:0.2222 
-0.1727348906730692 1:-1 2:0 3:0 4:24 5:0.4545 6:3 7:5 8:0.2727 9:0.1364 10:0.3182 11:0.2727 12:33 13:0.2889 14:1 15:0.5 16:46 17:0.2609 18:0.2391 19:0.2609 20:0.2391 21:0.2195 22:3.33 23:-1 
-0.08564302398481669 1:3 2:6 3:34 4:20 5:0.5 6:4 7:3 8:0.2 9:0.2 10:0.3 11:0.3 12:2 13:0.2778 14:2 15:0.4904 16:104 17:0.2788 18:0.2212 19:0.2692 20:0.2308 21:0.2323 22:0.33 23:0.2308 
-0.005534470917436942 1:3 2:4 3:18 4:25 5:0.4583 6:2 7:4 8:0.3333 9:0.0833 10:0.375 11:0.2083 12:13 13:0.1915 14:1 15:0.5 16:84 17:0.2619 18:0.2262 19:0.2738 20:0.2381 21:0.2152 22:0.7 23:0.2941 
-0.1046648135167496 1:3 2:7 3:35 4:21 5:0.45 6:5 7:3 8:0.4 9:0.25 10:0.2 11:0.15 12:1 13:0.3684 14:2 15:0.4679 16:109 17:0.2752 18:0.211 19:0.2569 20:0.2569 21:0.3069 22:0 23:0.2698 
-0.1934421399433948 1:3 2:4 3:25 4:25 5:0.65 6:3 7:4 8:0.2 9:0.2 10:0.45 11:0.15 12:84 13:0.2889 14:3 15:0.4592 16:98 17:0.2857 18:0.2143 19:0.2449 20:0.2551 21:0.2444 22:0.6 23:0.2 
-0.4271621374934004 1:3 2:2 3:11 4:24 5:0.3636 6:2 7:6 8:0.3182 9:0.1364 10:0.2273 11:0.3182 12:21 13:0.2558 14:2 15:0.4507 16:71 17:0.2676 18:0.2113 19:0.2394 20:0.2817 21:0.2698 22:1 23:0.3 
-0.2095377944188699 1:3 2:5 3:24 4:22 5:0.5909 6:5 7:3 8:0.1818 9:0.2273 10:0.3636 11:0.2273 12:69 13:0.3182 14:2 15:0.5056 16:89 17:0.2472 18:0.2584 19:0.2472 20:0.2472 21:0.2791 22:0.88 23:0.2727 
-0.05039364246300717 1:3 2:4 3:22 4:23 5:0.5909 6:5 7:2 8:0.1818 9:0.2727 10:0.3182 11:0.2273 12:68 13:0.3333 14:1 15:0.5057 16:87 17:0.2414 18:0.2644 19:0.2414 20:0.2529 21:0.2619 22:0.4 23:0.2195 
-0.1731453838852397 1:3 2:5 3:23 4:21 5:0.4762 6:5 7:2 8:0.2381 9:0.2381 10:0.2381 11:0.2857 12:4 13:0.3333 14:2 15:0.5176 16:85 17:0.2353 18:0.2706 19:0.2471 20:0.2471 21:0.2683 22:2 23:0.2381 
-0.1588355161527298 1:-1 2:0 3:0 4:25 5:0.4348 6:3 7:6 8:0.3043 9:0.2174 10:0.2174 11:0.2609 12:50 13:0.2889 14:4 15:0.46 16:50 17:0.26 18:0.2 19:0.26 20:0.28 21:0.2558 22:0.62 23:-1 
-0.08235844386927049 1:3 2:5 3:26 4:25 5:0.4762 6:4 7:3 8:0.2381 9:0.1429 10:0.3333 11:0.2857 12:78 13:0.1739 14:1 15:0.3918 16:97 17:0.2887 18:0.2062 19:0.1856 20:0.3196 21:0.2174 22:0.89 23:0.2917 
-0.2304391467856768 1:1 2:3 3:19 4:25 5:0.4348 6:3 7:3 8:0.3478 9:0.1739 10:0.2609 11:0.2174 12:78 13:0.2889 14:1 15:0.427 16:89 17:0.2921 18:0.2135 19:0.2135 20:0.2809 21:0.2099 22:4.5 23:0.1111 
-0.1548900976265816 1:-1 2:0 3:0 4:25 5:0.3043 6:2 7:4 8:0.3913 9:0.1304 10:0.1739 11:0.3043 12:59 13:0.1667 14:2 15:0.3077 16:52 17:0.3462 18:0.1346 19:0.1731 20:0.3462 21:0.0909 22:0.44 23:-1 
-0.4453301511399116 1:-1 2:0 3:5 4:28 5:0.5 6:9 7:4 8:0.3 9:0.15 10:0.35 11:0.2 12:22 13:0.3191 14:1 15:0.4762 16:63 17:0.2857 18:0.254 19:0.2222 20:0.2381 21:0.2632 22:1.4 23:0 
-0.2996581447343568 1:-1 2:0 3:0 4:31 5:0.5833 6:9 7:4 8:0.1667 9:0.2917 10:0.2917 11:0.25 12:26 13:0.3208 14:-1 15:0.4909 16:55 17:0.2727 18:0.2545 19:0.2364 20:0.2364 21:0.2653 22:1.33 23:-1 
-0.2215452956776205 1:-1 2:0 3:0 4:31 5:0.5652 6:9 7:3 8:0.2174 9:0.2609 10:0.3043 11:0.2174 12:24 13:0.2453 14:1 15:0.4915 16:59 17:0.2712 18:0.2542 19:0.2373 20:0.2373 21:0.2453 22:0.83 23:-1 
-0.1830182212543164 1:1 2:7 3:29 4:23 5:0.6087 6:3 7:5 8:0.1304 9:0.1739 10:0.4348 11:0.2609 12:4 13:0.2 14:4 15:0.5657 16:99 17:0.1414 18:0.2727 19:0.2929 20:0.2929 21:0.1915 22:0.2 23:0.2143 
-0.1552085226829412 1:1 2:5 3:16 4:26 5:0.5 6:1 7:5 8:0.125 9:0.375 10:0.125 11:0.375 12:73 13:0.16 14:3 15:0.5422 16:83 17:0.1566 18:0.2771 19:0.2651 20:0.3012 21:0.1795 22:1.14 23:0.2667 
-0.174510703842188 1:1 2:7 3:29 4:27 5:0.619 6:3 7:6 8:0.0952 9:0.381 10:0.2381 11:0.2857 12:86 13:0.1915 14:4 15:0.566 16:106 17:0.1415 18:0.2736 19:0.2925 20:0.2925 21:0.1881 22:1.25 23:0.2143 
-0.0244139600860039 1:3 2:5 3:28 4:23 5:0.6522 6:3 7:3 8:0.087 9:0.2174 10:0.4348 11:0.2609 12:6 13:0.2857 14:2 15:0.55 16:100 17:0.19 18:0.26 19:0.29 20:0.26 21:0.2688 22:0.25 23:0.283 
-0.01010865727024117 1:3 2:6 3:33 4:22 5:0.6818 6:7 7:2 8:0.1364 9:0.2273 10:0.4545 11:0.1818 12:2 13:0.3333 14:3 15:0.5481 16:104 17:0.1923 18:0.2596 19:0.2885 20:0.2596 21:0.299 22:0 23:0.3016 
-0.246696323257636 1:3 2:6 3:35 4:20 5:0.65 6:7 7:2 8:0.15 9:0.25 10:0.4 11:0.2 12:2 13:0.375 14:2 15:0.5481 16:104 17:0.1923 18:0.2596 19:0.2885 20:0.2596 21:0.299 22:0 23:0.2836 
-0.1230741246310331 1:3 2:4 3:18 4:22 5:0.4286 6:2 7:4 8:0.2857 9:0.2381 10:0.1905 11:0.2857 12:78 13:0.2558 14:1 15:0.4651 16:86 17:0.2558 18:0.2326 19:0.2326 20:0.2791 21:0.2533 22:0.7 23:0.2941 
-0.03777105128810263 1:3 2:3 3:14 4:20 5:0.5 6:2 7:4 8:0.2 9:0.15 10:0.35 11:0.3 12:19 13:0.2821 14:3 15:0.4667 16:75 17:0.2533 18:0.24 19:0.2267 20:0.28 21:0.2812 22:0.75 23:0.3333 
-0.01719623684870851 1:3 2:5 3:24 4:24 5:0.5 6:6 7:4 8:0.1667 9:0.3333 10:0.1667 11:0.3333 12:5 13:0.3659 14:4 15:0.4479 16:96 17:0.2604 18:0.2396 19:0.2083 20:0.2917 21:0.2941 22:0.5 23:0.2609 
-0.3142574626125118 1:1 2:2 3:11 4:26 5:0.5833 6:4 7:3 8:0.1667 9:0.2917 10:0.2917 11:0.25 12:70 13:0.24 14:3 15:0.5227 16:88 17:0.1364 18:0.2614 19:0.2614 20:0.3409 21:0.1884 22:0.5 23:0.1429 
-0.2098968926835131 1:1 2:2 3:10 4:23 5:0.5238 6:4 7:3 8:0.1905 9:0.2857 10:0.2381 11:0.2857 12:69 13:0.2727 14:2 15:0.5 16:80 17:0.15 18:0.2625 19:0.2375 20:0.35 21:0.2131 22:1 23:0.1579 
-0.1612437389688721 1:1 2:3 3:13 4:21 5:0.5714 6:4 7:3 8:0.0476 9:0.2381 10:0.3333 11:0.381 12:9 13:0.25 14:1 15:0.5122 16:82 17:0.1463 18:0.2683 19:0.2439 20:0.3415 21:0.2063 22:0.71 23:0.2 
-0.1195363006467056 1:-1 2:0 3:0 4:23 5:0.5238 6:2 7:5 8:0.2857 9:0.3333 10:0.1905 11:0.1905 12:58 13:0.2558 14:-1 15:0.5455 16:44 17:0.2045 18:0.25 19:0.2955 20:0.25 21:0.1795 22:0.56 23:-1 
-0.1849471548973982 1:2 2:5 3:26 4:20 5:0.6 6:5 7:3 8:0.25 9:0.3 10:0.3 11:0.15 12:11 13:0.2778 14:4 15:0.5455 16:88 17:0.2045 18:0.2614 19:0.2841 20:0.25 21:0.2048 22:0.82 23:0.1837 
-0.244059777860366 1:2 2:5 3:30 4:27 5:0.4545 6:5 7:6 8:0.0909 9:0.3182 10:0.1364 11:0.4545 12:87 13:0.3333 14:1 15:0.5185 16:108 17:0.2037 18:0.25 19:0.2685 20:0.2778 21:0.2233 22:0.71 23:0.1579 
-0.1549713475467225 1:3 2:5 3:27 4:22 5:0.4 6:2 7:4 8:0.45 9:0.2 10:0.2 11:0.15 12:76 13:0.2195 14:4 15:0.5053 16:95 17:0.2316 18:0.2632 19:0.2421 20:0.2632 21:0.2222 22:0.8 23:0.2549 
-0.2230972160678051 1:1 2:4 3:15 4:25 5:0.375 6:4 7:4 8:0.375 9:0.125 10:0.25 11:0.25 12:64 13:0.3061 14:4 15:0.4643 16:84 17:0.2857 18:0.2262 19:0.2381 20:0.25 21:0.2533 22:1.4 23:0.2143 
-0.1503923596461111 1:1 2:4 3:18 4:20 5:0.6 6:4 7:4 8:0.1 9:0.4 10:0.2 11:0.3 12:6 13:0.3846 14:1 15:0.4625 16:80 17:0.2875 18:0.225 19:0.2375 20:0.25 21:0.2676 22:0 23:0.1765 
-0.05626817901194411 1:1 2:4 3:13 4:23 5:0.5652 6:2 7:4 8:0.1304 9:0.4348 10:0.1304 11:0.3043 12:8 13:0.2444 14:3 15:0.4737 16:76 17:0.2895 18:0.2368 19:0.2368 20:0.2368 21:0.2239 22:0.5 23:0.25 
-0.07422262170449787 1:-1 2:0 3:0 4:23 5:0.5 6:5 7:3 8:0.2083 9:0.2083 10:0.2917 11:0.2917 12:52 13:0.3043 14:-1 15:0.5106 16:47 17:0.234 18:0.2766 19:0.234 20:0.2553 21:0.1111 22:0 23:-1 
-0.1130651655955622 1:1 2:2 3:15 4:24 5:0.6087 6:2 7:5 8:0.1739 9:0.2609 10:0.3478 11:0.2174 12:10 13:0.1628 14:4 15:0.5732 16:82 17:0.2073 18:0.3049 19:0.2683 20:0.2195 21:0.1268 22:1.33 23:0.1333 
-0.1099774327630826 1:1 2:3 3:21 4:22 5:0.619 6:2 7:5 8:0.1429 9:0.3333 10:0.2857 11:0.2381 12:6 13:0.1579 14:4 15:0.5506 16:89 17:0.2135 18:0.2921 19:0.2584 20:0.236 21:0.1282 22:0.78 23:0.1429 
-0.1341032504176774 1:4 2:3 3:20 4:21 5:0.6 6:2 7:2 8:0.2 9:0.3 10:0.3 11:0.2 12:79 13:0.122 14:4 15:0.6092 16:87 17:0.1494 18:0.2874 19:0.3218 20:0.2414 21:0.1948 22:0.33 23:0.2778 
-0.8390126368781704 1:-1 2:0 3:0 4:27 5:0.5417 6:4 7:4 8:0.1667 9:0.3333 10:0.2083 11:0.2917 12:62 13:0.28 14:3 15:0.5333 16:60 17:0.1667 18:0.25 19:0.2833 20:0.3 21:0.28 22:0.89 23:-1 
-0.1858622177545899 1:4 2:4 3:22 4:20 5:0.7 6:1 7:2 8:0.1 9:0.3 10:0.4 11:0.2 12:11 13:0.0769 14:4 15:0.5955 16:89 17:0.1573 18:0.2809 19:0.3146 20:0.2472 21:0.1899 22:1.14 23:0.3 
-0.1556983205637237 1:1 2:1 3:2 4:22 5:0.5 6:3 7:3 8:0.1 9:0.25 10:0.25 11:0.4 12:51 13:0.2195 14:2 15:0.4792 16:48 17:0.1875 18:0.2292 19:0.25 20:0.3333 21:0.2093 22:0.67 23:0.5 
-0.04872568960403709 1:4 2:2 3:17 4:27 5:0.5652 6:2 7:4 8:0.2609 9:0.2609 10:0.3043 11:0.1739 12:68 13:0.2 14:2 15:0.5294 16:85 17:0.2118 18:0.2588 19:0.2706 20:0.2588 21:0.2346 22:0.58 23:0.2903 
-0.1703033567031948 1:-1 2:0 3:0 4:25 5:0.5217 6:4 7:5 8:0.1739 9:0.2609 10:0.2609 11:0.3043 12:26 13:0.3333 14:-1 15:0.4255 16:47 17:0.2766 18:0.1915 19:0.234 20:0.2979 21:0.3023 22:0.67 23:-1 
-0.01085867343783114 1:2 2:5 3:22 4:24 5:0.5909 6:3 7:4 8:0.3636 9:0.2727 10:0.3182 11:0.0455 12:9 13:0.1905 14:1 15:0.5402 16:87 17:0.1839 18:0.2299 19:0.3103 20:0.2759 21:0.2 22:0.62 23:0.25 
-0.3268554216763098 1:-1 2:0 3:0 4:29 5:0.6364 6:3 7:6 8:0.0909 9:0.2727 10:0.3636 11:0.2727 12:27 13:0.3208 14:4 15:0.5556 16:54 17:0.1296 18:0.2222 19:0.3333 20:0.3148 21:0.234 22:2.67 23:-1 
-0.4671572977017234 1:1 2:1 3:2 4:24 5:0.6 6:2 7:5 8:0.1 9:0.25 10:0.35 11:0.3 12:28 13:0.2558 14:3 15:0.5385 16:52 17:0.1346 18:0.2115 19:0.3269 20:0.3269 21:0.2444 22:0.7 23:0.5 
-0.3220196006009582 1:2 2:6 3:36 4:20 5:0.35 6:3 7:4 8:0.15 9:0.25 10:0.1 11:0.5 12:2 13:0.3333 14:2 15:0.4732 16:112 17:0.2232 18:0.2321 19:0.2411 20:0.3036 21:0.2264 22:0.6 23:0.1642 
-0.159189481487306 1:1 2:4 3:20 4:23 5:0.5238 6:4 7:2 8:0.2381 9:0.1905 10:0.3333 11:0.2381 12:81 13:0.2273 14:2 15:0.4598 16:87 17:0.2299 18:0.2299 19:0.2299 20:0.3103 21:0.1852 22:0.89 23:0.1351 
-0.3777043793609011 1:1 2:3 3:14 4:23 5:0.4286 6:3 7:3 8:0.2857 9:0.1905 10:0.2381 11:0.2857 12:75 13:0.2093 14:2 15:0.4667 16:75 17:0.24 18:0.24 19:0.2267 20:0.2933 21:0.1884 22:1 23:0.1538 
-0.2348815694690968 1:-1 2:0 3:0 4:21 5:0.4091 6:3 7:4 8:0.2727 9:0.3182 10:0.0909 11:0.3182 12:49 13:0.35 14:-1 15:0.3902 16:41 17:0.2439 18:0.2195 19:0.1707 20:0.3659 21:0.2353 22:0.29 23:-1 
-0.04367517790912919 1:3 2:4 3:20 4:25 5:0.5833 6:2 7:5 8:0.25 9:0.2083 10:0.375 11:0.1667 12:5 13:0.1915 14:3 15:0.5111 16:90 17:0.2 18:0.2667 19:0.2444 20:0.2889 21:0.2048 22:1.11 23:0.2632 
-0.1616393701263114 1:2 2:4 3:15 4:23 5:0.3043 6:3 7:3 8:0.2609 9:0.1739 10:0.1304 11:0.4348 12:61 13:0.2273 14:2 15:0.4342 16:76 17:0.2632 18:0.2237 19:0.2105 20:0.3026 21:0.2394 22:3.5 23:0.3103 
-0.2275413135988978 1:2 2:4 3:15 4:27 5:0.4167 6:3 7:4 8:0.2917 9:0.1667 10:0.25 11:0.2917 12:5 13:0.2549 14:3 15:0.4458 16:83 17:0.2651 18:0.2169 19:0.2289 20:0.2892 21:0.2564 22:0.5 23:0.3103 
-0.1863340015460255 1:-1 2:0 3:0 4:22 5:0.5 6:2 7:5 8:0.2727 9:0.2727 10:0.2273 11:0.2273 12:46 13:0.2381 14:4 15:0.5111 16:45 17:0.2667 18:0.2667 19:0.2444 20:0.2222 21:0.2 22:0.6 23:-1 
-0.1548521642859937 1:2 2:6 3:28 4:21 5:0.65 6:3 7:3 8:0.05 9:0.3 10:0.35 11:0.3 12:5 13:0.1795 14:4 15:0.6022 16:93 17:0.1613 18:0.3011 19:0.3011 20:0.2366 21:0.1778 22:0.73 23:0.2075 
-0.0435530990285832 1:1 2:1 3:2 4:22 5:0.7619 6:2 7:5 8:0 9:0.3333 10:0.4286 11:0.2381 12:29 13:0.2195 14:3 15:0.6522 16:46 17:0.1087 18:0.3478 19:0.3043 20:0.2391 21:0.2093 22:0.75 23:0.5 
-0.06977021282692233 1:-1 2:0 3:0 4:24 5:0.7727 6:2 7:6 8:0 9:0.3636 10:0.4091 11:0.2273 12:29 13:0.2444 14:4 15:0.6522 16:46 17:0.1087 18:0.3478 19:0.3043 20:0.2391 21:0.2093 22:0.75 23:-1 
-0.01702162773938887 1:3 2:3 3:18 4:22 5:0.6818 6:1 7:4 8:0.0455 9:0.5 10:0.1818 11:0.2727 12:15 13:0.1429 14:1 15:0.5238 16:84 17:0.2024 18:0.2381 19:0.2857 20:0.2738 21:0.2105 22:1.22 23:0.2941 
-0.1581273005555252 1:3 2:3 3:17 4:24 5:0.6667 6:1 7:4 8:0.0417 9:0.5 10:0.1667 11:0.2917 12:14 13:0.1304 14:1 15:0.5349 16:86 17:0.1977 18:0.2442 19:0.2907 20:0.2674 21:0.2051 22:1.5 23:0.3125 
-0.1892716666952415 1:3 2:4 3:22 4:21 5:0.65 6:1 7:4 8:0.25 9:0.1 10:0.55 11:0.1 12:82 13:0.15 14:2 15:0.5393 16:89 17:0.2022 18:0.2472 19:0.2921 20:0.2584 21:0.2099 22:0.78 23:0.2683 
-0.1876113741970734 1:2 2:4 3:18 4:25 5:0.625 6:4 7:4 8:0.2083 9:0.4167 10:0.2083 11:0.1667 12:12 13:0.234 14:1 15:0.4607 16:89 17:0.236 18:0.236 19:0.2247 20:0.3034 21:0.225 22:0.22 23:0.2571 
-0.1761482685265758 1:1 2:4 3:15 4:23 5:0.5217 6:1 7:4 8:0.2174 9:0.3478 10:0.1739 11:0.2609 12:16 13:0.1364 14:2 15:0.4625 16:80 17:0.2375 18:0.225 19:0.2375 20:0.3 21:0.1549 22:1.14 23:0.2414 
-0.02855808271972671 1:1 2:4 3:15 4:24 5:0.5 6:1 7:4 8:0.2083 9:0.3333 10:0.1667 11:0.2917 12:15 13:0.1304 14:2 15:0.4512 16:82 17:0.2439 18:0.2195 19:0.2317 20:0.3049 21:0.1507 22:1.43 23:0.2414 
-0.03218181347141388 1:2 2:4 3:25 4:21 5:0.4762 6:7 7:3 8:0 9:0.3333 10:0.1429 11:0.5238 12:8 13:0.375 14:2 15:0.5169 16:89 17:0.1573 18:0.2472 19:0.2697 20:0.3258 21:0.2308 22:0.38 23:0.1667 
-0.1158547067784417 1:2 2:5 3:27 4:22 5:0.4545 6:7 7:2 8:0 9:0.3182 10:0.1364 11:0.5455 12:5 13:0.3529 14:3 15:0.5263 16:95 17:0.1474 18:0.2526 19:0.2737 20:0.3263 21:0.2381 22:0.67 23:0.1923 
-0.06389187036674437 1:1 2:4 3:22 4:22 5:0.619 6:1 7:4 8:0.0476 9:0.4286 10:0.1905 11:0.3333 12:5 13:0.1429 14:3 15:0.5699 16:93 17:0.1828 18:0.2581 19:0.3118 20:0.2473 21:0.122 22:1.2 23:0.1429 
-0.3002626713417667 1:-1 2:0 3:0 4:21 5:0.5 6:1 7:4 8:0.25 9:0.15 10:0.35 11:0.25 12:56 13:0.15 14:2 15:0.5306 16:49 17:0.1837 18:0.2245 19:0.3061 20:0.2857 21:0.1053 22:0.6 23:-1 
-0.05421623450182889 1:1 2:4 3:24 4:22 5:0.619 6:1 7:5 8:0.0952 9:0.381 10:0.2381 11:0.2857 12:3 13:0.1905 14:3 15:0.567 16:97 17:0.1856 18:0.2577 19:0.3093 20:0.2474 21:0.1395 22:1.14 23:0.1304 
-0.1194330679397803 1:2 2:4 3:22 4:25 5:0.4167 6:5 7:2 8:0.3333 9:0.1667 10:0.25 11:0.25 12:76 13:0.2609 14:1 15:0.4947 16:95 17:0.2105 18:0.2526 19:0.2421 20:0.2947 21:0.2184 22:1.8 23:0.1707 
-0.2665695895626903 1:2 2:4 3:23 4:27 5:0.5833 6:5 7:2 8:0.1667 9:0.3333 10:0.25 11:0.25 12:2 13:0.24 14:1 15:0.4851 16:101 17:0.2178 18:0.2475 19:0.2376 20:0.297 21:0.2043 22:0.9 23:0.1628 
-0.1297352727400243 1:1 2:5 3:24 4:21 5:0.5 6:5 7:4 8:0.35 9:0.2 10:0.3 11:0.15 12:74 13:0.4 14:4 15:0.5109 16:92 17:0.2065 18:0.2935 19:0.2174 20:0.2826 21:0.253 22:0.89 23:0.1556 
-0.115019127223185 1:1 2:5 3:24 4:23 5:0.5 6:5 7:5 8:0.3182 9:0.2273 10:0.2727 11:0.1818 12:74 13:0.3953 14:4 15:0.5158 16:95 17:0.2 18:0.2947 19:0.2211 20:0.2842 21:0.2558 22:1.33 23:0.1556 
-0.2050233224354347 1:2 2:2 3:12 4:25 5:0.4091 6:4 7:3 8:0.3636 9:0.1818 10:0.2273 11:0.2273 12:70 13:0.1915 14:2 15:0.5128 16:78 17:0.2051 18:0.2692 19:0.2436 20:0.2821 21:0.2 22:2.25 23:0.2174 
-0.07195339316450568 1:2 2:3 3:17 4:20 5:0.5 6:4 7:2 8:0.05 9:0.4 10:0.1 11:0.45 12:14 13:0.2105 14:2 15:0.5128 16:78 17:0.2051 18:0.2692 19:0.2436 20:0.2821 21:0.2 22:0 23:0.1875 
-0.07211683366168618 1:2 2:2 3:16 4:23 5:0.5714 6:4 7:3 8:0.2381 9:0.2381 10:0.3333 11:0.1905 12:70 13:0.2727 14:2 15:0.5238 16:84 17:0.2262 18:0.2619 19:0.2619 20:0.25 21:0.2162 22:3.67 23:0.1333 
-0.1487945907375694 1:-1 2:0 3:0 4:23 5:0.5217 6:4 7:4 8:0.3043 9:0.3478 10:0.1739 11:0.1739 12:50 13:0.3 14:3 15:0.5122 16:41 17:0.2439 18:0.2927 19:0.2195 20:0.2439 21:0.2222 22:1 23:-1 
-0.1987921603687847 1:4 2:4 3:22 4:27 5:0.5 6:3 7:4 8:0.1667 9:0.125 10:0.375 11:0.3333 12:73 13:0.2157 14:1 15:0.5435 16:92 17:0.1957 18:0.2935 19:0.25 20:0.2609 21:0.2184 22:1.5 23:0.2632 
-0.09904535869971162 1:4 2:3 3:17 4:27 5:0.5833 6:3 7:4 8:0.125 9:0.25 10:0.3333 11:0.2917 12:68 13:0.2 14:1 15:0.5488 16:82 17:0.1951 18:0.2927 19:0.2561 20:0.2561 21:0.1948 22:0.8 23:0.2414 
-0.03118840582810218 1:3 2:6 3:27 4:24 5:0.5714 6:3 7:5 8:0.1429 9:0.1905 10:0.381 11:0.2857 12:5 13:0.2683 14:2 15:0.57 16:100 17:0.22 18:0.27 19:0.3 20:0.21 21:0.2967 22:1.25 23:0.3462 
-0.160090980548214 1:3 2:4 3:15 4:27 5:0.6818 6:3 7:6 8:0.2273 9:0.4545 10:0.2273 11:0.0909 12:74 13:0.3061 14:2 15:0.5529 16:85 17:0.2353 18:0.2588 19:0.2941 20:0.2118 21:0.3158 22:0.92 23:0.3793 
-0.2232917196095801 1:3 2:5 3:21 4:26 5:0.7273 6:3 7:6 8:0.1818 9:0.4545 10:0.2727 11:0.0909 12:79 13:0.3191 14:4 15:0.5745 16:94 17:0.2234 18:0.2766 19:0.2979 20:0.2021 21:0.2941 22:0.25 23:0.3 
-0.2226897239852785 1:1 2:4 3:23 4:21 5:0.4762 6:2 7:5 8:0.2381 9:0.2857 10:0.1905 11:0.2857 12:1 13:0.2683 14:1 15:0.4167 16:96 17:0.25 18:0.2083 19:0.2083 20:0.3333 21:0.2093 22:0.88 23:0.1556 
-0.05512886835982762 1:1 2:3 3:13 4:20 5:0.4 6:2 7:3 8:0.05 9:0.25 10:0.15 11:0.55 12:12 13:0.2 14:2 15:0.4133 16:75 17:0.24 18:0.2133 19:0.2 20:0.3467 21:0.2 22:0.67 23:0.2 
-0.07159765764336851 1:1 2:3 3:15 4:22 5:0.4762 6:2 7:4 8:0.3333 9:0.1905 10:0.2857 11:0.1905 12:69 13:0.2093 14:1 15:0.4024 16:82 17:0.2561 18:0.2073 19:0.1951 20:0.3415 21:0.1944 22:0.6 23:0.1724 
-0.3589203304966819 1:-1 2:0 3:0 4:20 5:0.3 6:4 7:4 8:0.3 9:0.1 10:0.2 11:0.4 12:40 13:0.3846 14:1 15:0.3902 16:41 17:0.2683 18:0.1463 19:0.2439 20:0.3415 21:0.2258 22:0 23:-1 
-0.223525880199265 1:-1 2:0 3:0 4:21 5:0.45 6:3 7:4 8:0.3 9:0.2 10:0.25 11:0.25 12:17 13:0.3171 14:3 15:0.4 16:45 17:0.2667 18:0.1556 19:0.2444 20:0.3333 21:0.2 22:2.67 23:-1 
-0.2714625970469762 1:1 2:2 3:13 4:21 5:0.619 6:3 7:3 8:0.0952 9:0.3333 10:0.2857 11:0.2857 12:1 13:0.3171 14:1 15:0.4605 16:76 17:0.2368 18:0.2105 19:0.25 20:0.3026 21:0.2424 22:1.2 23:0.12 
-0.07116955910564542 1:3 2:4 3:28 4:22 5:0.5909 6:4 7:3 8:0.0909 9:0.5 10:0.0909 11:0.3182 12:3 13:0.4 14:2 15:0.4951 16:103 17:0.2039 18:0.2621 19:0.233 20:0.301 21:0.3053 22:0 23:0.2364 
-0.04455459637895779 1:3 2:3 3:25 4:22 5:0.5909 6:4 7:4 8:0.0909 9:0.4545 10:0.1364 11:0.3182 12:6 13:0.3 14:2 15:0.5052 16:97 17:0.2165 18:0.2577 19:0.2474 20:0.2784 21:0.2584 22:1 23:0.2245 
-0.417093326044995 1:6 2:3 3:20 4:25 5:0.5714 6:4 7:3 8:0.1429 9:0.381 10:0.1905 11:0.2857 12:71 13:0.2174 14:2 15:0.4235 16:85 17:0.2471 18:0.2235 19:0.2 20:0.3294 21:0.25 22:0.7 23:0.3333 
-0.2113209890190845 1:6 2:4 3:24 4:24 5:0.4583 6:4 7:3 8:0.3333 9:0.25 10:0.2083 11:0.2083 12:4 13:0.1818 14:2 15:0.4444 16:90 17:0.2444 18:0.2333 19:0.2111 20:0.3111 21:0.2471 22:0.8 23:0.3488 
-0.2945376661706731 1:6 2:4 3:23 4:20 5:0.5 6:4 7:2 8:0.3 9:0.2 10:0.3 11:0.2 12:9 13:0.1892 14:4 15:0.4444 16:81 17:0.2346 18:0.2346 19:0.2099 20:0.321 21:0.2632 22:0.6 23:0.3659 
-0.1312342554552694 1:-1 2:0 3:0 4:21 5:0.5 6:5 7:3 8:0.3 9:0.25 10:0.25 11:0.2 12:49 13:0.4146 14:4 15:0.4651 16:43 17:0.2558 18:0.2791 19:0.186 20:0.2791 21:0.2258 22:0 23:-1 
-0.2913382795767103 1:3 2:2 3:16 4:27 5:0.5652 6:8 7:3 8:0.2174 9:0.2609 10:0.3043 11:0.2174 12:3 13:0.32 14:2 15:0.5269 16:93 17:0.2258 18:0.2688 19:0.2581 20:0.2473 21:0.284 22:1.14 23:0.2258 
-0.09948444385478182 1:-1 2:0 3:0 4:23 5:0.4348 6:5 7:3 8:0.3043 9:0.2174 10:0.2174 11:0.2609 12:48 13:0.4222 14:-1 15:0.4255 16:47 17:0.2553 18:0.2553 19:0.1702 20:0.3191 21:0.2571 22:0 23:-1 
-0.2532767649537502 1:2 2:5 3:18 4:22 5:0.4762 6:2 7:4 8:0.2381 9:0.1429 10:0.3333 11:0.2857 12:67 13:0.1707 14:4 15:0.5132 16:76 17:0.2368 18:0.2368 19:0.2763 20:0.25 21:0.1831 22:0.88 23:0.25 
-0.7964478465410483 1:1 2:1 3:3 4:25 5:0.5217 6:3 7:5 8:0.3043 9:0.1739 10:0.3478 11:0.1739 12:54 13:0.2 14:2 15:0.463 16:54 17:0.2963 18:0.2222 19:0.2407 20:0.2407 21:0.1837 22:0.8 23:0.3333 
-0.2095535343884564 1:-1 2:0 3:0 4:24 5:0.5 6:3 7:6 8:0.3182 9:0.2727 10:0.2273 11:0.1818 12:62 13:0.3913 14:4 15:0.449 16:49 17:0.2653 18:0.2449 19:0.2041 20:0.2857 21:0.3 22:0.29 23:-1 
-0.200511076545099 1:2 2:4 3:17 4:24 5:0.5 6:5 7:4 8:0.25 9:0.3333 10:0.1667 11:0.25 12:16 13:0.2889 14:3 15:0.4881 16:84 17:0.2619 18:0.2738 19:0.2143 20:0.25 21:0.28 22:1.6 23:0.3125 
-0.1864786343828527 1:2 2:3 3:14 4:25 5:0.5 6:5 7:5 8:0.3182 9:0.2727 10:0.2273 11:0.1818 12:76 13:0.3191 14:2 15:0.4625 16:80 17:0.275 18:0.2625 19:0.2 20:0.2625 21:0.2958 22:1.5 23:0.3077 
-0.09472640245097637 1:2 2:4 3:24 4:23 5:0.4348 6:5 7:2 8:0.1739 9:0.2174 10:0.2174 11:0.3913 12:10 13:0.2195 14:3 15:0.3696 16:92 17:0.3043 18:0.1413 19:0.2283 20:0.3261 21:0.1954 22:1.43 23:0.2083 
-0.2322415871422937 1:1 2:2 3:12 4:29 5:0.4583 6:5 7:4 8:0.375 9:0.125 10:0.3333 11:0.1667 12:72 13:0.283 14:2 15:0.3375 16:80 17:0.325 18:0.125 19:0.2125 20:0.3375 21:0.2267 22:1.25 23:0.1667 
-0.1869137030643918 1:1 2:4 3:23 4:30 5:0.4762 6:5 7:4 8:0.2857 9:0.1429 10:0.3333 11:0.2381 12:83 13:0.2941 14:2 15:0.37 16:100 17:0.3 18:0.15 19:0.22 20:0.33 21:0.2211 22:0.7 23:0.1739 
