svm_type c_svc
kernel_type rbf
gamma 0.0416667
nr_class 2
total_sv 290
rho 0.755828
label 1 0
probA -2.1721
probB 0.152849
nr_sv 107 183
SV
1 1:4 2:1 3:-1 4:0 5:20 6:0.45 7:0 8:2 9:2 10:0.2 11:0.15 12:0.35 13:17 14:4 15:0.3881 16:0.2239 17:0.194 18:0.194 19:0.3881 20:0.16 21:1.43 22:-1 23:0.3333 24:2 
1 1:4 2:1 3:-1 4:0 5:20 6:0.45 7:1 8:2 9:3 10:0.2 11:0.15 12:0.35 13:16 14:2 15:0.3077 16:0.3077 17:0.1231 18:0.1846 19:0.3846 20:0.1379 21:1 22:0 23:0.1 24:5 
1 1:4 2:1 3:-1 4:0 5:20 6:0.45 7:1 8:2 9:3 10:0.2 11:0.15 12:0.35 13:16 14:2 15:0.3077 16:0.3231 17:0.1231 18:0.1846 19:0.3692 20:0.1429 21:1 22:0 23:0.1111 24:5 
1 1:2 2:1 3:1 4:1 5:21 6:0.4762 7:1 8:2 9:3 10:0.3333 11:0.2857 12:0.1905 13:17 14:1 15:0.3284 16:0.3582 17:0.194 18:0.1343 19:0.3134 20:0.1538 21:1.43 22:0.1111 23:0.1667 24:11 
1 1:2 2:1 3:1 4:1 5:21 6:0.4762 7:1 8:2 9:3 10:0.3333 11:0.2857 12:0.1905 13:17 14:1 15:0.3284 16:0.3731 17:0.194 18:0.1343 19:0.2985 20:0.1724 21:1.43 22:0.1 23:0.2222 24:12 
1 1:4 2:4 3:-1 4:0 5:21 6:0.45 7:1 8:1 9:2 10:0.2 11:0.05 12:0.35 13:19 14:3 15:0.4944 16:0.1798 17:0.236 18:0.2584 19:0.3258 20:0.1084 21:1 22:-1 23:0.1628 24:4 
1 1:4 2:3 3:-1 4:0 5:21 6:0.45 7:1 8:1 9:3 10:0.2 11:0.05 12:0.35 13:18 14:3 15:0.5172 16:0.1839 17:0.2529 18:0.2644 19:0.2989 20:0.1463 21:1.29 22:-1 23:0.2273 24:4 
1 1:4 2:13 3:-1 4:0 5:21 6:0.45 7:1 8:2 9:4 10:0.2 11:0.05 12:0.35 13:16 14:3 15:0.4831 16:0.2022 17:0.2584 18:0.2247 19:0.3146 20:0.2791 21:2.25 22:0 23:0.375 24:4 
1 1:4 2:4 3:-1 4:0 5:21 6:0.45 7:1 8:1 9:3 10:0.2 11:0.05 12:0.35 13:18 14:3 15:0.4831 16:0.2022 17:0.2584 18:0.2247 19:0.3146 20:0.1667 21:1.29 22:-1 23:0.2609 24:4 
1 1:4 2:8 3:-1 4:0 5:22 6:0.45 7:3 8:1 9:3 10:0.2 11:0.05 12:0.35 13:19 14:3 15:0.4835 16:0.1868 17:0.2418 18:0.2418 19:0.3297 20:0.225 21:1.29 22:0 23:0.4 24:4 
1 1:2 2:2 3:-1 4:0 5:20 6:0.55 7:0 8:2 9:2 10:0.2 11:0.05 12:0.25 13:17 14:3 15:0.4366 16:0.2394 17:0.2254 18:0.2113 19:0.3239 20:0.1692 21:0.78 22:0 23:0.2308 24:3 
0.7889148349943265 1:4 2:1 3:5 4:1 5:22 6:0.4286 7:0 8:1 9:2 10:0.4286 11:0.2857 12:0.1429 13:20 14:4 15:0.4167 16:0.2738 17:0.2024 18:0.2143 19:0.3095 20:0.0959 21:0.64 22:0.3333 23:0.2121 24:15 
0.9580534803772274 1:4 2:5 3:3 4:1 5:22 6:0.4286 7:0 8:4 9:2 10:0.4286 11:0.2857 12:0.1429 13:17 14:4 15:0.4359 16:0.2308 17:0.2051 18:0.2308 19:0.3333 20:0.25 21:0 22:0.25 23:0.3939 24:14 
0.04018166009941282 1:4 2:2 3:-1 4:0 5:21 6:0.619 7:2 8:2 9:2 10:0.0952 11:0.2381 12:0.2857 13:18 14:1 15:0.6 16:0.175 17:0.3 18:0.3 19:0.225 20:0.2105 21:0.73 22:0 23:0.2941 24:11 
1 1:3 2:2 3:-1 4:0 5:21 6:0.5238 7:3 8:2 9:2 10:0.2857 11:0.3333 12:0.1905 13:18 14:1 15:0.5833 16:0.1786 17:0.2857 18:0.2976 19:0.2381 20:0.2 21:1.11 22:0 23:0.2632 24:9 
1 1:4 2:2 3:-1 4:0 5:21 6:0.619 7:2 8:2 9:2 10:0.0952 11:0.2381 12:0.2857 13:18 14:1 15:0.6 16:0.15 17:0.3 18:0.3 19:0.25 20:0.2105 21:0.73 22:0 23:0.2941 24:11 
1 1:3 2:2 3:-1 4:0 5:21 6:0.5238 7:3 8:2 9:2 10:0.2857 11:0.3333 12:0.1905 13:18 14:1 15:0.5833 16:0.1548 17:0.2857 18:0.2976 19:0.2619 20:0.2 21:1.11 22:0 23:0.2632 24:9 
0.9067993598826272 1:4 2:2 3:-1 4:0 5:21 6:0.619 7:2 8:2 9:2 10:0.1429 11:0.2381 12:0.2381 13:17 14:4 15:0.5122 16:0.2195 17:0.2195 18:0.2927 19:0.2683 20:0.1842 21:0.73 22:0 23:0.1765 24:11 
1 1:3 2:2 3:-1 4:0 5:21 6:0.6667 7:2 8:2 9:2 10:0.2381 11:0.5238 12:0.0952 13:17 14:3 15:0.5349 16:0.2093 17:0.2326 18:0.3023 19:0.2558 20:0.175 21:0.91 22:0 23:0.1579 24:9 
0.8484561050679859 1:4 2:9 3:1 4:1 5:21 6:0.4762 7:0 8:1 9:3 10:0.2857 11:0.1429 12:0.2381 13:18 14:1 15:0.4432 16:0.2614 17:0.25 18:0.1932 19:0.2955 20:0.253 21:0.91 22:0.0769 23:0.3953 24:11 
0.9584305204237794 1:4 2:11 3:1 4:2 5:21 6:0.619 7:1 8:1 9:2 10:0.2857 11:0.4286 12:0.0952 13:19 14:4 15:0.5075 16:0.2388 17:0.2687 18:0.2388 19:0.2537 20:0.2381 21:1 22:0.2857 23:0.5238 24:11 
1 1:1 2:6 3:-1 4:0 5:22 6:0.4762 7:1 8:1 9:2 10:0.2381 11:0.2381 12:0.2857 13:20 14:1 15:0.4658 16:0.2466 17:0.2329 18:0.2329 19:0.2877 20:0.2121 21:1.12 22:0 23:0.52 24:9 
1 1:1 2:2 3:1 4:1 5:22 6:0.4762 7:1 8:1 9:2 10:0.2381 11:0.2381 12:0.2857 13:20 14:1 15:0.4156 16:0.2727 17:0.2208 18:0.1948 19:0.3117 20:0.1111 21:1.12 22:0.2 23:0.2 24:9 
1 1:1 2:8 3:5 4:2 5:22 6:0.5455 7:0 8:1 9:4 10:0.2727 11:0.3182 12:0.1818 13:18 14:4 15:0.4302 16:0.2442 17:0.1744 18:0.2558 19:0.3256 20:0.3333 21:1.25 22:0.4074 23:0.55 24:16 
1 1:3 2:5 3:-1 4:0 5:21 6:0.55 7:1 8:3 9:2 10:0.15 11:0.2 12:0.3 13:17 14:1 15:0.5376 16:0.1828 17:0.2366 18:0.3011 19:0.2796 20:0.2809 21:3.33 22:0 23:0.375 24:9 
1 1:4 2:5 3:-1 4:0 5:22 6:0.5238 7:0 8:1 9:3 10:0.2857 11:0.2381 12:0.1905 13:19 14:1 15:0.4712 16:0.2404 17:0.2212 18:0.25 19:0.2885 20:0.2165 21:1 22:0 23:0.3448 24:3 
1 1:3 2:1 3:3 4:1 5:21 6:0.4286 7:2 8:1 9:1 10:0.2381 11:0.2857 12:0.3333 13:20 14:4 15:0.3827 16:0.321 17:0.1605 18:0.2222 19:0.2963 20:0.0857 21:0.78 22:0.3333 23:0.2 24:13 
0.5207246540278888 1:4 2:1 3:3 4:1 5:21 6:0.5238 7:2 8:1 9:1 10:0.2381 11:0.2381 12:0.2381 13:20 14:1 15:0.4118 16:0.3059 17:0.1765 18:0.2353 19:0.2824 20:0.0811 21:1 22:0.4286 23:0.1765 24:11 
1 1:4 2:1 3:-1 4:0 5:21 6:0.4762 7:1 8:2 9:1 10:0.2381 11:0.2381 12:0.2857 13:19 14:4 15:0.44 16:0.2667 17:0.2133 18:0.2267 19:0.2933 20:0.1389 21:1 22:-1 23:0.25 24:10 
1 1:4 2:5 3:-1 4:0 5:21 6:0.4762 7:2 8:1 9:2 10:0.2381 11:0.2381 12:0.2857 13:19 14:4 15:0.4324 16:0.2883 17:0.1982 18:0.2342 19:0.2793 20:0.1887 21:0.78 22:-1 23:0.2727 24:2 
1 1:4 2:3 3:3 4:1 5:21 6:0.4762 7:2 8:2 9:2 10:0.1905 11:0.3333 12:0.3333 13:18 14:1 15:0.4026 16:0.2468 17:0.1818 18:0.2208 19:0.3506 20:0.2059 21:1.6 22:0.2222 23:0.3571 24:14 
0.6070575332957369 1:4 2:2 3:3 4:1 5:21 6:0.4762 7:2 8:1 9:1 10:0.2381 11:0.2381 12:0.2857 13:20 14:3 15:0.4198 16:0.2593 17:0.1975 18:0.2222 19:0.321 20:0.1467 21:1 22:0.3333 23:0.2727 24:10 
1 1:4 2:-1 3:3 4:4 5:21 6:0.4286 7:1 8:2 9:3 10:0.1905 11:0.2381 12:0.381 13:16 14:2 15:0.4032 16:0.2097 17:0.1613 18:0.2419 19:0.3871 20:0.1923 21:2 22:0.2444 23:0 24:27 
1 1:4 2:-1 3:2 4:2 5:21 6:0.4286 7:1 8:2 9:3 10:0.1905 11:0.2381 12:0.381 13:16 14:2 15:0.4194 16:0.2097 17:0.1935 18:0.2258 19:0.371 20:0.1923 21:2 22:0.2308 23:0 24:16 
1 1:4 2:2 3:2 4:1 5:22 6:0.5 7:1 8:1 9:3 10:0.2273 11:0.3182 12:0.2727 13:19 14:3 15:0.4937 16:0.2658 17:0.2278 18:0.2658 19:0.2405 20:0.1507 21:1.25 22:0.0769 23:0.2 24:18 
0.09961419838302363 1:1 2:5 3:1 4:2 5:22 6:0.619 7:1 8:1 9:2 10:0.2857 11:0.381 12:0.0952 13:20 14:3 15:0.4545 16:0.2159 17:0.2045 18:0.25 19:0.3295 20:0.253 21:0.75 22:0.25 23:0.4762 24:11 
0.8464214213115938 1:1 2:3 3:-1 4:0 5:22 6:0.381 7:0 8:1 9:3 10:0.1905 11:0.1429 12:0.4286 13:19 14:3 15:0.4507 16:0.2254 17:0.2676 18:0.1831 19:0.3239 20:0.1818 21:1.29 22:0 23:0.36 24:9 
1 1:1 2:2 3:-1 4:0 5:22 6:0.381 7:0 8:1 9:3 10:0.1905 11:0.1429 12:0.4286 13:19 14:3 15:0.4714 16:0.2143 17:0.2571 18:0.2143 19:0.3143 20:0.1579 21:1.29 22:0 23:0.375 24:9 
1 1:4 2:4 3:2 4:2 5:20 6:0.55 7:1 8:3 9:1 10:0.1 11:0.15 12:0.35 13:17 14:4 15:0.4583 16:0.2222 17:0.25 18:0.2083 19:0.3194 20:0.2188 21:0.91 22:0.2593 23:0.3333 24:17 
0.6166102412405771 1:4 2:7 3:2 4:2 5:20 6:0.55 7:1 8:3 9:1 10:0.1 11:0.15 12:0.35 13:17 14:4 15:0.4028 16:0.25 17:0.2222 18:0.1806 19:0.3472 20:0.3333 21:0.91 22:0.2593 23:0.6154 24:17 
1 1:3 2:6 3:2 4:2 5:21 6:0.5238 7:0 8:3 9:2 10:0.3333 11:0.2857 12:0.1429 13:17 14:1 15:0.5676 16:0.1892 17:0.2973 18:0.2703 19:0.2432 20:0.2571 21:0.9 22:0.4 23:0.3571 24:13 
0.7178731762837635 1:4 2:7 3:-1 4:0 5:21 6:0.5714 7:3 8:-1 9:0 10:0.0952 11:0.381 12:0.3333 13:21 14:4 15:0.5068 16:0.274 17:0.3151 18:0.1918 19:0.2192 20:0.2 21:0.82 22:0 23:0.5652 24:5 
1 1:4 2:7 3:-1 4:0 5:21 6:0.4286 7:3 8:2 9:1 10:0.3333 11:0.1429 12:0.2381 13:19 14:4 15:0.5316 16:0.2532 17:0.3165 18:0.2152 19:0.2152 20:0.2113 21:1.8 22:-1 23:0.4194 24:1 
0.9252790495287648 1:2 2:2 3:4 4:3 5:21 6:0.6667 7:1 8:1 9:2 10:0.2857 11:0.4762 12:0.0476 13:19 14:1 15:0.5316 16:0.2278 17:0.2658 18:0.2658 19:0.2405 20:0.1233 21:1.1 22:0.36 23:0.1613 24:16 
1 1:1 2:2 3:4 4:2 5:21 6:0.619 7:1 8:1 9:3 10:0.0952 11:0.1905 12:0.2857 13:18 14:1 15:0.5422 16:0.2289 17:0.2651 18:0.2771 19:0.2289 20:0.1429 21:1.25 22:0.3333 23:0.1429 24:14 
1 1:4 2:3 3:-1 4:0 5:22 6:0.5455 7:2 8:2 9:3 10:0.1364 11:0 12:0.3182 13:18 14:4 15:0.4795 16:0.1918 17:0.2192 18:0.2603 19:0.3288 20:0.1803 21:1 22:0 23:0.2222 24:5 
0.9847512955308585 1:4 2:6 3:1 4:1 5:23 6:0.6364 7:2 8:1 9:3 10:0.1364 11:0.5455 12:0.2273 13:20 14:3 15:0.5385 16:0.2198 17:0.2637 18:0.2747 19:0.2418 20:0.2 21:1.12 22:0.25 23:0.3171 24:6 
0.543183418228335 1:1 2:6 3:2 4:1 5:21 6:0.55 7:2 8:1 9:2 10:0.2 11:0.1 12:0.25 13:19 14:4 15:0.5287 16:0.2299 17:0.2644 18:0.2644 19:0.2414 20:0.1852 21:1.43 22:0.3333 23:0.3171 24:8 
1 1:1 2:1 3:1 4:1 5:26 6:0.381 7:1 8:5 9:3 10:0.381 11:0.2857 12:0.2381 13:17 14:4 15:0.3947 16:0.3421 17:0.2105 18:0.1842 19:0.2632 20:0.2353 21:1.29 22:0.0769 23:0.1429 24:15 
0.8538094686219941 1:4 2:5 3:-1 4:0 5:21 6:0.3333 7:2 8:3 9:2 10:0.3333 11:0.1905 12:0.3333 13:17 14:4 15:0.4 16:0.3333 17:0.2111 18:0.1889 19:0.2667 20:0.2195 21:1.29 22:0 23:0.25 24:8 
1 1:3 2:5 3:1 4:2 5:22 6:0.5 7:1 8:1 9:3 10:0.1364 11:0.4091 12:0.3636 13:19 14:2 15:0.4286 16:0.2597 17:0.1948 18:0.2338 19:0.3117 20:0.1667 21:1.43 22:0.1304 23:0.3125 24:15 
1 1:1 2:4 3:2 4:4 5:22 6:0.5 7:0 8:2 9:3 10:0.1818 11:0.0909 12:0.3182 13:18 14:4 15:0.4478 16:0.2239 17:0.2388 18:0.209 19:0.3284 20:0.2069 21:1.12 22:0.1351 23:0.4118 24:25 
1 1:4 2:4 3:2 4:3 5:23 6:0.5714 7:0 8:2 9:4 10:0.1429 11:0.4286 12:0.2857 13:18 14:4 15:0.4861 16:0.2083 17:0.25 18:0.2361 19:0.3056 20:0.2063 21:0.8 22:0.125 23:0.3333 24:22 
1 1:4 2:5 3:-1 4:0 5:24 6:0.375 7:1 8:6 9:2 10:0.1667 11:0.25 12:0.4583 13:13 14:4 15:0.3478 16:0.2065 17:0.1413 18:0.2065 19:0.4457 20:0.3882 21:0.91 22:-1 23:0.35 24:4 
1 1:4 2:5 3:-1 4:0 5:24 6:0.375 7:1 8:6 9:2 10:0.1667 11:0.25 12:0.4583 13:13 14:2 15:0.3587 16:0.2065 17:0.1522 18:0.2065 19:0.4348 20:0.3864 21:0.91 22:-1 23:0.3171 24:3 
1 1:1 2:5 3:-1 4:0 5:24 6:0.4583 7:1 8:4 9:4 10:0.3333 11:0.1667 12:0.2083 13:15 14:1 15:0.3864 16:0.3295 17:0.125 18:0.2614 19:0.2841 20:0.3012 21:0.29 22:0 23:0.3 24:4 
1 1:3 2:9 3:2 4:2 5:22 6:0.5238 7:0 8:2 9:3 10:0.2381 11:0.4286 12:0.2381 13:18 14:4 15:0.4058 16:0.2464 17:0.2029 18:0.2029 19:0.3478 20:0.2812 21:1.22 22:0.25 23:0.5652 24:22 
1 1:4 2:9 3:2 4:1 5:22 6:0.4091 7:0 8:2 9:4 10:0.3182 11:0.0455 12:0.2727 13:17 14:3 15:0.3973 16:0.2603 17:0.1918 18:0.2055 19:0.3425 20:0.2941 21:0.88 22:0.2 23:0.4815 24:20 
1 1:4 2:1 3:2 4:2 5:23 6:0.5455 7:1 8:2 9:3 10:0.2727 11:0.4545 12:0.1818 13:19 14:3 15:0.4754 16:0.2951 17:0.1967 18:0.2787 19:0.2295 20:0.125 21:0.9 22:0.1176 23:0.3333 24:25 
1 1:4 2:1 3:2 4:2 5:23 6:0.5455 7:1 8:2 9:3 10:0.1364 11:0.0909 12:0.3182 13:19 14:2 15:0.5077 16:0.2769 17:0.2154 18:0.2923 19:0.2154 20:0.1154 21:0.7 22:0.1333 23:0.2 24:23 
0.5990933625330783 1:3 2:5 3:2 4:1 5:23 6:0.5 7:0 8:2 9:3 10:0.2273 11:0.4091 12:0.2727 13:18 14:4 15:0.4222 16:0.2667 17:0.2111 18:0.2111 19:0.3111 20:0.2658 21:1 22:0.1667 23:0.4054 24:14 
0.8570982141802557 1:4 2:5 3:1 4:1 5:23 6:0.6364 7:0 8:2 9:4 10:0.2273 11:0.1364 12:0.1364 13:17 14:4 15:0.4149 16:0.2766 17:0.2128 18:0.2021 19:0.3085 20:0.2771 21:1.25 22:0.1 23:0.3659 24:12 
1 1:4 2:12 3:-1 4:0 5:20 6:0.5 7:1 8:2 9:2 10:0.15 11:0.15 12:0.35 13:17 14:4 15:0.3868 16:0.2736 17:0.1981 18:0.1887 19:0.3396 20:0.2353 21:0.8 22:-1 23:0.2903 24:1 
0.7690618807700831 1:4 2:1 3:-1 4:0 5:21 6:0.381 7:0 8:1 9:1 10:0.2857 11:0.3333 12:0.3333 13:20 14:1 15:0.3467 16:0.3067 17:0.1733 18:0.1733 19:0.3467 20:0.0278 21:1 22:0 23:0.0625 24:13 
1 1:2 2:5 3:1 4:1 5:24 6:0.5909 7:3 8:2 9:3 10:0.0909 11:0.1364 12:0.3182 13:20 14:3 15:0.6702 16:0.117 17:0.2979 18:0.3723 19:0.2128 20:0.2184 21:1.5 22:0.1111 23:0.3488 24:11 
1 1:2 2:1 3:1 4:1 5:22 6:0.7273 7:1 8:1 9:4 10:0.1364 11:0.2273 12:0.1364 13:18 14:4 15:0.5738 16:0.2131 17:0.3115 18:0.2623 19:0.2131 20:0.1579 21:1.12 22:0.1 23:0.1429 24:12 
0.9658338724443889 1:4 2:3 3:2 4:1 5:22 6:0.4545 7:2 8:1 9:1 10:0.2273 11:0.2727 12:0.3182 13:21 14:1 15:0.3608 16:0.3196 17:0.1443 18:0.2165 19:0.3196 20:0.0989 21:1 22:0.4 23:0.1667 24:7 
0.7710183761248087 1:4 2:3 3:1 4:1 5:22 6:0.4545 7:2 8:1 9:2 10:0.2273 11:0.2727 12:0.3182 13:20 14:1 15:0.3505 16:0.3093 17:0.1443 18:0.2062 19:0.3402 20:0.1209 21:1 22:0.2 23:0.1667 24:7 
1 1:3 2:-1 3:-1 4:0 5:21 6:0.4762 7:0 8:1 9:1 10:0.381 11:0.4286 12:0.1429 13:20 14:4 15:0.4821 16:0.2679 17:0.2321 18:0.25 19:0.25 20:0.0385 21:1.57 22:0 23:0 24:15 
1 1:3 2:-1 3:2 4:1 5:21 6:0.4762 7:2 8:1 9:1 10:0.381 11:0.4286 12:0.1429 13:20 14:4 15:0.4464 16:0.2679 17:0.1964 18:0.25 19:0.2857 20:0.0385 21:1.29 22:0.1176 23:0 24:22 
1 1:4 2:1 3:1 4:1 5:21 6:0.2857 7:0 8:1 9:1 10:0.381 11:0.1905 12:0.3333 13:20 14:2 15:0.3636 16:0.2857 17:0.1688 18:0.1948 19:0.3506 20:0.0704 21:1 22:0.0833 23:0.1034 24:18 
1 1:4 2:-1 3:3 4:1 5:22 6:0.2727 7:0 8:1 9:1 10:0.4545 11:0.1818 12:0.2727 13:21 14:4 15:0.2958 16:0.338 17:0.1408 18:0.1549 19:0.3662 20:0.0154 21:0.89 22:0.3333 23:0 24:15 
1 1:2 2:5 3:-1 4:0 5:21 6:0.381 7:0 8:2 9:2 10:0.2857 11:0.1429 12:0.3333 13:17 14:4 15:0.4 16:0.26 17:0.17 18:0.23 19:0.34 20:0.2043 21:1 22:0 23:0.2453 24:5 
1 1:2 2:-1 3:1 4:1 5:22 6:0.5455 7:2 8:1 9:2 10:0.3636 11:0.1818 12:0.0909 13:20 14:4 15:0.5192 16:0.2308 17:0.2308 18:0.2885 19:0.25 20:0.0833 21:1.38 22:0.0909 23:0 24:12 
1 1:4 2:-1 3:2 4:1 5:23 6:0.6818 7:2 8:3 9:4 10:0.2273 11:0.3182 12:0.0909 13:16 14:2 15:0.68 16:0.12 17:0.28 18:0.4 19:0.2 20:0.2174 21:0.38 22:0.2222 23:0 24:13 
1 1:4 2:-1 3:2 4:1 5:23 6:0.6818 7:2 8:3 9:4 10:0.2273 11:0.3182 12:0.0909 13:16 14:2 15:0.68 16:0.12 17:0.28 18:0.4 19:0.2 20:0.2174 21:0.38 22:0.2222 23:0 24:13 
1 1:4 2:2 3:1 4:1 5:24 6:0.3182 7:0 8:3 9:2 10:0.4091 11:0.2273 12:0.2727 13:20 14:4 15:0.3256 16:0.3372 17:0.1395 18:0.186 19:0.3372 20:0.1646 21:1.12 22:0.0769 23:0.2778 24:15 
0.5450150556101797 1:3 2:2 3:-1 4:0 5:21 6:0.381 7:0 8:1 9:1 10:0.1905 11:0.2857 12:0.4286 13:20 14:1 15:0.3511 16:0.3191 17:0.1915 18:0.1596 19:0.3298 20:0.0488 21:1.11 22:0 23:0.05 24:9 
1 1:2 2:2 3:2 4:1 5:21 6:0.619 7:0 8:3 9:3 10:0.2381 11:0.381 12:0.1429 13:15 14:4 15:0.5647 16:0.2118 17:0.2353 18:0.3294 19:0.2235 20:0.2468 21:1.4 22:0.25 23:0.2 24:10 
0.333777141307747 1:4 2:3 3:2 4:1 5:22 6:0.3636 7:0 8:1 9:1 10:0.2273 11:0.0909 12:0.4091 13:21 14:4 15:0.369 16:0.2738 17:0.1667 18:0.2024 19:0.3571 20:0.0864 21:0.9 22:0.2222 23:0.2 24:17 
1 1:4 2:-1 3:1 4:2 5:21 6:0.4286 7:0 8:5 9:1 10:0.4286 11:0.2381 12:0.1429 13:16 14:4 15:0.3594 16:0.3281 17:0.1875 18:0.1719 19:0.3125 20:0.1667 21:0.91 22:0.0909 23:0 24:29 
1 1:2 2:5 3:1 4:1 5:22 6:0.4762 7:2 8:2 9:3 10:0.2381 11:0.2381 12:0.2857 13:18 14:3 15:0.5 16:0.1705 17:0.25 18:0.25 19:0.3295 20:0.1951 21:2.25 22:0.04 23:0.25 24:16 
1 1:4 2:6 3:-1 4:0 5:21 6:0.381 7:1 8:1 9:1 10:0.4286 11:0.2381 12:0.1905 13:20 14:4 15:0.3253 16:0.3373 17:0.1566 18:0.1687 19:0.3373 20:0.1053 21:1.11 22:-1 23:0.2222 24:16 
1 1:2 2:3 3:-1 4:0 5:22 6:0.4762 7:2 8:2 9:4 10:0.2857 11:0.2857 12:0.2381 13:17 14:4 15:0.4237 16:0.322 17:0.1695 18:0.2542 19:0.2542 20:0.2075 21:0.88 22:0 23:0.2727 24:10 
1 1:4 2:2 3:-1 4:0 5:21 6:0.4286 7:1 8:1 9:3 10:0.2381 11:0.1905 12:0.3333 13:18 14:3 15:0.4255 16:0.3085 17:0.2021 18:0.2234 19:0.266 20:0.186 21:0.89 22:-1 23:0.2273 24:2 
1 1:1 2:2 3:3 4:2 5:21 6:0.4286 7:0 8:1 9:2 10:0.381 11:0.1429 12:0.1905 13:19 14:1 15:0.4348 16:0.3188 17:0.2029 18:0.2319 19:0.2464 20:0.1481 21:0.7 22:0.2667 23:0.4286 24:17 
0.412980848911886 1:4 2:2 3:4 4:1 5:20 6:0.45 7:0 8:1 9:2 10:0.3 11:0.1 12:0.25 13:18 14:1 15:0.4478 16:0.2388 17:0.2388 18:0.209 19:0.3134 20:0.25 21:0.8 22:0.4444 23:0.5385 24:11 
1 1:4 2:1 3:5 4:2 5:21 6:0.4286 7:2 8:1 9:2 10:0.2857 11:0.2381 12:0.2857 13:19 14:4 15:0.4068 16:0.2373 17:0.1864 18:0.2203 19:0.3559 20:0.0741 21:0.9 22:0.2632 23:0.1429 24:31 
1 1:4 2:-1 3:4 4:4 5:21 6:0.2857 7:0 8:-1 9:0 10:0.1905 11:0.2381 12:0.5238 13:21 14:4 15:0.2333 16:0.3833 17:0.1167 18:0.1167 19:0.3833 20:0 21:1.12 22:0.2075 23:0 24:31 
1 1:1 2:1 3:1 4:2 5:21 6:0.4286 7:0 8:-1 9:0 10:0.1905 11:0.2857 12:0.381 13:21 14:3 15:0.4386 16:0.2982 17:0.2281 18:0.2105 19:0.2632 20:0 21:0.89 22:0.0909 23:0.5 24:24 
1 1:3 2:3 3:4 4:3 5:21 6:0.4762 7:0 8:2 9:1 10:0.1905 11:0.0952 12:0.3333 13:19 14:3 15:0.5 16:0.2436 17:0.2692 18:0.2308 19:0.2564 20:0.1304 21:0.45 22:0.3333 23:0.2414 24:21 
1 1:3 2:3 3:4 4:3 5:21 6:0.5238 7:0 8:2 9:1 10:0.2857 11:0.3333 12:0.1905 13:19 14:1 15:0.4756 16:0.2561 17:0.2561 18:0.2195 19:0.2683 20:0.1233 21:1.57 22:0.3793 23:0.2121 24:19 
1 1:4 2:1 3:2 4:1 5:21 6:0.3333 7:0 8:2 9:1 10:0.381 11:0.2381 12:0.2857 13:19 14:4 15:0.3718 16:0.3077 17:0.1923 18:0.1795 19:0.3205 20:0.0938 21:1.12 22:0.2857 23:0.0909 24:22 
1 1:1 2:11 3:-1 4:0 5:21 6:0.3333 7:0 8:1 9:2 10:0.4286 11:0.1429 12:0.2381 13:19 14:4 15:0.3061 16:0.4286 17:0.1633 18:0.1429 19:0.2653 20:0.2889 21:0.7 22:0 23:0.4583 24:10 
1 1:4 2:-1 3:-1 4:0 5:21 6:0.3333 7:0 8:1 9:1 10:0.3333 11:0.1905 12:0.3333 13:20 14:1 15:0.3333 16:0.3182 17:0.1515 18:0.1818 19:0.3485 20:0.0323 21:1.11 22:0 23:0 24:17 
1 1:2 2:3 3:-1 4:0 5:21 6:0.381 7:0 8:-1 9:0 10:0.3333 11:0.1905 12:0.2857 13:21 14:1 15:0.381 16:0.3095 17:0.2024 18:0.1786 19:0.3095 20:0.0633 21:0.91 22:0 23:0.1795 24:18 
1 1:1 2:1 3:13 4:2 5:21 6:0.2381 7:0 8:-1 9:0 10:0.3333 11:0.1429 12:0.4286 13:21 14:4 15:0.2319 16:0.3768 17:0.1159 18:0.1159 19:0.3913 20:0 21:1 22:0.5152 23:0.0769 24:25 
0.02720492747731082 1:4 2:4 3:-1 4:0 5:21 6:0.381 7:0 8:-1 9:0 10:0.2381 11:0.1429 12:0.381 13:21 14:4 15:0.3021 16:0.3646 17:0.125 18:0.1771 19:0.3333 20:0.1868 21:0.82 22:0 23:0.3725 24:11 
1 1:1 2:1 3:-1 4:0 5:21 6:0.381 7:0 8:-1 9:0 10:0.2381 11:0.1905 12:0.381 13:21 14:3 15:0.3559 16:0.322 17:0.1864 18:0.1695 19:0.322 20:0 21:0.9 22:0 23:0.1667 24:12 
0.01498434263288708 1:1 2:5 3:1 4:1 5:22 6:0.5238 7:1 8:1 9:3 10:0.2381 11:0.381 12:0.2381 13:19 14:4 15:0.4512 16:0.2805 17:0.2439 18:0.2073 19:0.2683 20:0.2051 21:0.9 22:0.1429 23:0.3143 24:12 
0.03810761591611993 1:4 2:4 3:-1 4:0 5:21 6:0.2381 7:0 8:-1 9:0 10:0.4286 11:0.1905 12:0.3333 13:21 14:4 15:0.3222 16:0.3333 17:0.1333 18:0.1889 19:0.3444 20:0.0602 21:0.9 22:0 23:0.1628 24:12 
0.6263394368639355 1:3 2:-1 3:-1 4:0 5:21 6:0.4286 7:1 8:-1 9:0 10:0.2381 11:0.2857 12:0.3333 13:21 14:4 15:0.3194 16:0.3333 17:0.1528 18:0.1667 19:0.3472 20:0 21:1 22:0 23:0 24:14 
0.5058799724748994 1:4 2:5 3:-1 4:0 5:20 6:0.45 7:0 8:-1 9:0 10:0.25 11:0.25 12:0.3 13:20 14:1 15:0.3542 16:0.2396 17:0.1562 18:0.1979 19:0.4062 20:0.1605 21:0.9 22:0 23:0.3488 24:6 
1 1:4 2:3 3:-1 4:0 5:22 6:0.4762 7:0 8:1 9:1 10:0.3333 11:0.0476 12:0.1905 13:21 14:1 15:0.4487 16:0.2436 17:0.1795 18:0.2692 19:0.3077 20:0.1111 21:1.29 22:0 23:0.2143 24:11 
1 1:3 2:2 3:3 4:1 5:21 6:0.4762 7:3 8:2 9:3 10:0.1905 11:0.4286 12:0.3333 13:17 14:4 15:0.4643 16:0.2262 17:0.2024 18:0.2619 19:0.3095 20:0.175 21:0.8 22:0.25 23:0.1579 24:11 
1 1:1 2:2 3:2 4:2 5:21 6:0.55 7:1 8:1 9:4 10:0.2 11:0.35 12:0.25 13:17 14:4 15:0.3735 16:0.2651 17:0.2048 18:0.1687 19:0.3614 20:0.1549 21:1.12 22:0.2727 23:0.1333 24:14 
1 1:4 2:2 3:-1 4:0 5:21 6:0.3333 7:2 8:2 9:2 10:0.4762 11:0.1429 12:0.1905 13:18 14:4 15:0.3 16:0.3833 17:0.1333 18:0.1667 19:0.3167 20:0.1698 21:2.25 22:-1 23:0.3846 24:2 
-0.4111476912112551 1:4 2:-1 3:2 4:1 5:21 6:0.4762 7:0 8:5 9:3 10:0.0952 11:0.0952 12:0.4286 13:14 14:1 15:0.4082 16:0.2041 17:0.2245 18:0.1837 19:0.3878 20:0.125 21:0 22:0.2222 23:-1 24:11 
-0.02074169202402895 1:4 2:-1 3:2 4:1 5:24 6:0.2917 7:3 8:3 9:3 10:0.2083 11:0.125 12:0.5 13:19 14:3 15:0.2857 16:0.3061 17:0.102 18:0.1837 19:0.4082 20:0.0952 21:0.2 22:0.1818 23:-1 24:13 
-0.00861417995612824 1:1 2:-1 3:2 4:1 5:24 6:0.2174 7:3 8:3 9:3 10:0.4348 11:0.1739 12:0.3478 13:19 14:3 15:0.2857 16:0.3061 17:0.102 18:0.1837 19:0.4082 20:0.0952 21:5 22:0.1818 23:-1 24:13 
-0.3307622227714715 1:4 2:-1 3:2 4:1 5:23 6:0.2381 7:3 8:3 9:3 10:0.4286 11:0.1905 12:0.3333 13:18 14:4 15:0.2979 16:0.2979 17:0.1064 18:0.1915 19:0.4043 20:0.1 21:5 22:0.1667 23:-1 24:14 
-1 1:3 2:1 3:2 4:1 5:20 6:0.25 7:2 8:1 9:2 10:0.45 11:0.2 12:0.3 13:18 14:1 15:0.3137 16:0.3137 17:0.1176 18:0.1961 19:0.3725 20:0.0952 21:1.25 22:0.2 23:0.5 24:12 
-1 1:4 2:1 3:2 4:1 5:20 6:0.25 7:2 8:1 9:2 10:0.4 11:0.2 12:0.35 13:18 14:4 15:0.3019 16:0.3208 17:0.1132 18:0.1887 19:0.3774 20:0.0909 21:1.12 22:0.2222 23:0.3333 24:11 
-1 1:4 2:1 3:-1 4:0 5:20 6:0.4 7:0 8:2 9:3 10:0.25 11:0.15 12:0.35 13:16 14:3 15:0.3176 16:0.3647 17:0.1765 18:0.1412 19:0.3176 20:0.1429 21:1.14 22:-1 23:0.125 24:2 
-1 1:2 2:4 3:-1 4:0 5:23 6:0.5909 7:1 8:2 9:3 10:0.1364 11:0.0455 12:0.2727 13:19 14:3 15:0.5333 16:0.1467 17:0.2533 18:0.28 19:0.32 20:0.1304 21:1.6 22:0 23:0.1538 24:11 
-1 1:4 2:4 3:-1 4:0 5:23 6:0.619 7:1 8:2 9:3 10:0.1429 11:0.5714 12:0.2381 13:19 14:1 15:0.5333 16:0.1467 17:0.2533 18:0.28 19:0.32 20:0.1304 21:0.64 22:0 23:0.1538 24:11 
-0.1500177623436627 1:4 2:3 3:1 4:1 5:24 6:0.5652 7:2 8:2 9:4 10:0.1304 11:0.4348 12:0.3043 13:19 14:2 15:0.5455 16:0.1667 17:0.2727 18:0.2727 19:0.2879 20:0.1803 21:1.12 22:0.0476 23:0.2941 24:14 
-0.3980872209168452 1:4 2:11 3:1 4:2 5:24 6:0.4783 7:3 8:2 9:4 10:0.1739 11:0.3478 12:0.3478 13:17 14:2 15:0.4848 16:0.1818 17:0.2576 18:0.2273 19:0.3333 20:0.3333 21:0.62 22:0.1111 23:0.619 24:16 
-1 1:2 2:13 3:1 4:1 5:21 6:0.5 7:2 8:2 9:3 10:0.15 11:0.05 12:0.35 13:17 14:3 15:0.5067 16:0.1733 17:0.2667 18:0.24 19:0.32 20:0.3056 21:0.89 22:0.1111 23:0.5294 24:11 
-0.1823103392597718 1:4 2:12 3:1 4:2 5:23 6:0.5 7:3 8:2 9:4 10:0.1818 11:0.3636 12:0.3182 13:17 14:2 15:0.4848 16:0.1818 17:0.2576 18:0.2273 19:0.3333 20:0.3333 21:0.88 22:0.1111 23:0.6364 24:16 
-1 1:4 2:4 3:-1 4:0 5:24 6:0.5455 7:0 8:2 9:4 10:0.2273 11:0.4545 12:0.2273 13:19 14:1 15:0.4935 16:0.1948 17:0.2727 18:0.2208 19:0.3117 20:0.1944 21:0.7 22:0 23:0.3103 24:10 
-1 1:3 2:8 3:-1 4:0 5:23 6:0.6522 7:3 8:1 9:3 10:0.1739 11:0.5217 12:0.1739 13:20 14:1 15:0.4937 16:0.1772 17:0.2532 18:0.2405 19:0.3291 20:0.2647 21:1.29 22:0 23:0.6154 24:10 
-0.3924723822639002 1:2 2:-1 3:-1 4:0 5:23 6:0.4783 7:1 8:2 9:5 10:0.2174 11:0.1304 12:0.3043 13:16 14:3 15:0.3962 16:0.2453 17:0.2075 18:0.1887 19:0.3585 20:0.234 21:1.6 22:0 23:0 24:12 
-0.3969308901265502 1:4 2:-1 3:2 4:1 5:23 6:0.4091 7:1 8:2 9:5 10:0.1818 11:0.2727 12:0.4091 13:16 14:-1 15:0.3696 16:0.2391 17:0.1957 18:0.1739 19:0.3913 20:0.2 21:2.5 22:0.1111 23:-1 24:16 
-0.2918050658029346 1:4 2:1 3:-1 4:0 5:23 6:0.3636 7:0 8:6 9:2 10:0.3182 11:0.3182 12:0.3182 13:16 14:4 15:0.4105 16:0.2632 17:0.1895 18:0.2211 19:0.3263 20:0.1429 21:0.78 22:0 23:0.1489 24:7 
-0.5256313598420648 1:3 2:1 3:6 4:1 5:23 6:0.4286 7:1 8:1 9:3 10:0.4286 11:0.3333 12:0.1429 13:20 14:4 15:0.4328 16:0.2687 17:0.209 18:0.2239 19:0.2985 20:0.1071 21:1 22:0.1875 23:0.2857 24:24 
-0.1097478021273776 1:1 2:1 3:6 4:2 5:21 6:0.45 7:0 8:2 9:4 10:0.4 11:0.3 12:0.15 13:16 14:3 15:0.4464 16:0.25 17:0.2321 18:0.2143 19:0.3036 20:0.2 21:1.43 22:0.1628 23:0.3333 24:30 
-0.3043661765544464 1:4 2:1 3:6 4:2 5:20 6:0.5 7:0 8:2 9:4 10:0.05 11:0.1 12:0.45 13:15 14:1 15:0.4655 16:0.2414 17:0.2414 18:0.2241 19:0.2931 20:0.1915 21:0.7 22:0.1707 23:0.2 24:29 
-0.09163615492712997 1:2 2:-1 3:7 4:2 5:20 6:0.5 7:1 8:5 9:3 10:0.1 11:0.2 12:0.4 13:13 14:3 15:0.4444 16:0.2 17:0.2222 18:0.2222 19:0.3556 20:0.3333 21:0.8 22:0.1837 23:-1 24:33 
-1 1:4 2:5 3:-1 4:0 5:25 6:0.381 7:0 8:7 9:3 10:0.2857 11:0.3333 12:0.3333 13:13 14:1 15:0.4444 16:0.2121 17:0.2222 18:0.2222 19:0.3434 20:0.2903 21:0.89 22:-1 23:0.2453 24:1 
-0.002784275172323038 1:1 2:-1 3:6 4:2 5:22 6:0.5217 7:1 8:3 9:4 10:0.1304 11:0.1304 12:0.3478 13:15 14:-1 15:0.4667 16:0.2444 17:0.2667 18:0.2 19:0.2889 20:0.1892 21:0.2 22:0.1373 23:-1 24:34 
-0.1900206954149353 1:1 2:-1 3:6 4:2 5:22 6:0.5 7:1 8:2 9:3 10:0.0909 11:0.0909 12:0.4091 13:18 14:4 15:0.4737 16:0.2456 17:0.2632 18:0.2105 19:0.2807 20:0.1429 21:0.4 22:0.1795 23:0 24:28 
-0.2697030527109909 1:2 2:-1 3:2 4:3 5:23 6:0.4091 7:0 8:2 9:4 10:0.4091 11:0.0909 12:0.1818 13:17 14:4 15:0.4583 16:0.2292 17:0.2083 18:0.25 19:0.3125 20:0.15 21:2.2 22:0.1489 23:-1 24:29 
-0.8977729522933946 1:3 2:1 3:1 4:1 5:21 6:0.619 7:3 8:2 9:2 10:0.1905 11:0.4762 12:0.1905 13:17 14:4 15:0.6143 16:0.1429 17:0.3 18:0.3143 19:0.2429 20:0.2121 21:0.45 22:0.125 23:0.25 24:16 
-0.1168497649444978 1:4 2:-1 3:1 4:3 5:23 6:0.7727 7:2 8:2 9:4 10:0 11:0.5 12:0.2273 13:17 14:2 15:0.541 16:0.1803 17:0.2623 18:0.2787 19:0.2787 20:0.1765 21:1.57 22:0.1429 23:0 24:23 
-1 1:3 2:2 3:-1 4:0 5:20 6:0.7 7:1 8:3 9:2 10:0.1 11:0.3 12:0.2 13:15 14:3 15:0.5312 16:0.2292 17:0.2292 18:0.3021 19:0.2396 20:0.2 21:0.18 22:-1 23:0.1923 24:3 
-0.284311654702539 1:3 2:-1 3:2 4:2 5:20 6:0.45 7:2 8:2 9:2 10:0.2 11:0.2 12:0.35 13:17 14:1 15:0.44 16:0.24 17:0.2 18:0.24 19:0.32 20:0.1364 21:0.91 22:0.1905 23:0 24:27 
-1 1:1 2:5 3:3 4:2 5:21 6:0.4762 7:0 8:2 9:3 10:0.3333 11:0.1429 12:0.1905 13:17 14:1 15:0.4474 16:0.2632 17:0.2632 18:0.1842 19:0.2895 20:0.2113 21:0.36 22:0.2414 23:0.2903 24:17 
-0.1734841630028448 1:1 2:5 3:3 4:2 5:23 6:0.5217 7:0 8:2 9:4 10:0.1304 11:0.2174 12:0.3478 13:18 14:1 15:0.4167 16:0.2778 17:0.25 18:0.1667 19:0.3056 20:0.2239 21:1 22:0.2121 23:0.3043 24:19 
-0.06873171978844365 1:1 2:1 3:1 4:3 5:29 6:0.4 7:0 8:9 9:4 10:0.5 11:0.15 12:0.1 13:16 14:3 15:0.3387 16:0.3065 17:0.2097 18:0.129 19:0.3548 20:0.2982 21:1.5 22:0.1282 23:0.2 24:24 
-0.6774068126683107 1:1 2:9 3:1 4:2 5:21 6:0.4762 7:0 8:2 9:4 10:0.1429 11:0.1905 12:0.381 13:16 14:1 15:0.3889 16:0.2778 17:0.2361 18:0.1528 19:0.3333 20:0.2836 21:1.14 22:0.1034 23:0.4074 24:19 
-0.09291125402457488 1:3 2:-1 3:1 4:3 5:24 6:0.5 7:1 8:11 9:2 10:0.3333 11:0.2917 12:0.1667 13:12 14:1 15:0.5111 16:0.2444 17:0.2667 18:0.2444 19:0.2444 20:0.3171 21:1.6 22:0.1667 23:0 24:22 
-0.6735870499393825 1:3 2:11 3:-1 4:0 5:23 6:0.6087 7:2 8:2 9:4 10:0.1739 11:0.3913 12:0.2174 13:18 14:3 15:0.5301 16:0.2169 17:0.2771 18:0.253 19:0.253 20:0.2658 21:0.45 22:-1 23:0.3714 24:2 
-0.1330658137692035 1:3 2:-1 3:1 4:3 5:22 6:0.4545 7:0 8:11 9:2 10:0.3636 11:0.2273 12:0.1818 13:10 14:2 15:0.5116 16:0.2558 17:0.2791 18:0.2326 19:0.2326 20:0.3333 21:4.5 22:0.1579 23:0 24:23 
-1 1:4 2:6 3:-1 4:0 5:22 6:0.5909 7:2 8:2 9:3 10:0.1364 11:0.1818 12:0.2727 13:18 14:3 15:0.5897 16:0.1538 17:0.3462 18:0.2436 19:0.2564 20:0.2533 21:1.25 22:0 23:0.3939 24:4 
-0.2794354510926516 1:4 2:6 3:-1 4:0 5:24 6:0.5833 7:3 8:2 9:4 10:0.2083 11:0.375 12:0.2083 13:18 14:4 15:0.5732 16:0.1585 17:0.3293 18:0.2439 19:0.2683 20:0.2658 21:0.45 22:-1 23:0.3714 24:1 
-1 1:2 2:6 3:-1 4:0 5:22 6:0.5909 7:2 8:2 9:3 10:0.2273 11:0.3636 12:0.1818 13:18 14:3 15:0.5897 16:0.1538 17:0.3462 18:0.2436 19:0.2564 20:0.2533 21:0.8 22:0 23:0.3939 24:4 
-0.9823701624435307 1:2 2:-1 3:1 4:2 5:23 6:0.4783 7:1 8:2 9:2 10:0.2174 11:0.1739 12:0.3043 13:20 14:3 15:0.4127 16:0.2857 17:0.2222 18:0.1905 19:0.3016 20:0.102 21:1.22 22:0.1667 23:0 24:16 
-0.7911338558592943 1:3 2:-1 3:1 4:2 5:21 6:0.4762 7:1 8:2 9:2 10:0.2381 11:0.1905 12:0.2857 13:18 14:3 15:0.4068 16:0.2881 17:0.2203 18:0.1864 19:0.3051 20:0.1111 21:1.22 22:0.1429 23:0 24:18 
-0.06908910497463634 1:3 2:2 3:5 4:3 5:24 6:0.5455 7:0 8:9 9:3 10:0.1364 11:0.3182 12:0.3182 13:13 14:4 15:0.4167 16:0.2361 17:0.1528 18:0.2639 19:0.3472 20:0.3731 21:2.67 22:0.3171 23:0.3333 24:23 
-0.8354682241141316 1:4 2:9 3:-1 4:0 5:23 6:0.5 7:1 8:5 9:4 10:0.1364 11:0.1818 12:0.3636 13:15 14:3 15:0.4476 16:0.2095 17:0.181 18:0.2667 19:0.3429 20:0.38 21:1.4 22:0 23:0.4386 24:6 
-0.09557673629262731 1:2 2:1 3:5 4:4 5:24 6:0.3478 7:0 8:9 9:3 10:0.1739 11:0.2609 12:0.4783 13:12 14:1 15:0.3833 16:0.2333 17:0.1333 18:0.25 19:0.3833 20:0.4182 21:0.7 22:0.283 23:0.3333 24:29 
-0.08227453706951161 1:2 2:-1 3:3 4:4 5:29 6:0.5 7:2 8:5 9:5 10:0.1667 11:0.2917 12:0.3333 13:16 14:2 15:0.4528 16:0.283 17:0.1887 18:0.2642 19:0.2642 20:0.3043 21:0.25 22:0.1321 23:-1 24:31 
-1 1:4 2:5 3:1 4:2 5:22 6:0.5238 7:1 8:3 9:3 10:0.1905 11:0.381 12:0.2857 13:17 14:1 15:0.4634 16:0.2439 17:0.2073 18:0.2561 19:0.2927 20:0.2533 21:0.8 22:0.0833 23:0.4054 24:14 
-1 1:3 2:1 3:-1 4:0 5:20 6:0.45 7:1 8:3 9:2 10:0.3 11:0.15 12:0.25 13:16 14:3 15:0.3918 16:0.3402 17:0.1753 18:0.2165 19:0.268 20:0.1395 21:2 22:0 23:0.125 24:5 
-0.2873834771962879 1:4 2:1 3:2 4:3 5:20 6:0.3 7:4 8:2 9:1 10:0.35 11:0.15 12:0.35 13:18 14:3 15:0.3462 16:0.3077 17:0.1538 18:0.1923 19:0.3462 20:0.125 21:1.12 22:0.1489 23:0.25 24:27 
-0.3776810937998703 1:4 2:2 3:-1 4:0 5:22 6:0.3333 7:1 8:2 9:4 10:0.2857 11:0.1429 12:0.381 13:17 14:1 15:0.3663 16:0.297 17:0.1584 18:0.2079 19:0.3366 20:0.1546 21:1 22:-1 23:0.1111 24:2 
-0.08363998513953437 1:3 2:-1 3:2 4:1 5:25 6:0.375 7:1 8:1 9:4 10:0.4583 11:0.0833 12:0.1667 13:21 14:3 15:0.4118 16:0.2745 17:0.2157 18:0.1961 19:0.3137 20:0.125 21:1.57 22:0.1667 23:-1 24:23 
-0.09731418504768803 1:1 2:1 3:5 4:4 5:21 6:0.2857 7:1 8:4 9:2 10:0.4762 11:0.2381 12:0.2381 13:16 14:2 15:0.2826 16:0.3913 17:0.1304 18:0.1522 19:0.3261 20:0.1707 21:0 22:0.2 23:0.5 24:36 
-0.1129358332217721 1:2 2:1 3:3 4:1 5:24 6:0.4583 7:1 8:2 9:4 10:0.1667 11:0.2083 12:0.375 13:18 14:4 15:0.4348 16:0.2319 17:0.2029 18:0.2319 19:0.3333 20:0.2333 21:0.5 22:0.1538 23:0.2857 24:18 
-0.4514264950262971 1:2 2:1 3:3 4:2 5:21 6:0.381 7:1 8:2 9:3 10:0.3333 11:0 12:0.2857 13:17 14:4 15:0.3636 16:0.2909 17:0.2 18:0.1636 19:0.3455 20:0.1837 21:1.11 22:0.1579 23:0.1429 24:25 
-1 1:3 2:2 3:2 4:2 5:24 6:0.5 7:1 8:3 9:3 10:0.2083 11:0.2917 12:0.2917 13:19 14:3 15:0.4545 16:0.1818 17:0.2159 18:0.2386 19:0.3636 20:0.2308 21:0.88 22:0.1579 23:0.2667 24:12 
-1 1:1 2:2 3:1 4:1 5:21 6:0.4286 7:1 8:2 9:3 10:0.2381 11:0.2381 12:0.3333 13:16 14:2 15:0.4324 16:0.1892 17:0.2027 18:0.2297 19:0.3784 20:0.2188 21:0.8 22:0.1429 23:0.1818 24:10 
-0.1340582216322839 1:3 2:2 3:-1 4:0 5:23 6:0.4783 7:2 8:2 9:3 10:0.2174 11:0.3478 12:0.3043 13:19 14:3 15:0.4659 16:0.1818 17:0.2273 18:0.2386 19:0.3523 20:0.2051 21:0.88 22:-1 23:0.25 24:1 
-1 1:4 2:2 3:2 4:1 5:21 6:0.7143 7:1 8:1 9:1 10:0.1429 11:0.1905 12:0.1429 13:20 14:3 15:0.5258 16:0.2474 17:0.2474 18:0.2784 19:0.2268 20:0.1209 21:0.73 22:0.25 23:0.1837 24:9 
-1 1:2 2:2 3:2 4:1 5:21 6:0.7 7:1 8:1 9:2 10:0.15 11:0.2 12:0.15 13:19 14:3 15:0.5165 16:0.2527 17:0.2418 18:0.2747 19:0.2308 20:0.1294 21:0.91 22:0.1429 23:0.1818 24:12 
-0.1592972103315653 1:3 2:2 3:1 4:2 5:27 6:0.5909 7:0 8:5 9:4 10:0.2727 11:0.4091 12:0.1364 13:17 14:4 15:0.473 16:0.2027 17:0.2162 18:0.2568 19:0.3243 20:0.3043 21:2.67 22:0.1333 23:0.3636 24:18 
-1 1:3 2:3 3:-1 4:0 5:21 6:0.5714 7:0 8:1 9:3 10:0.3333 11:0.381 12:0.0952 13:18 14:2 15:0.4881 16:0.2143 17:0.2738 18:0.2143 19:0.2976 20:0.1646 21:1.14 22:-1 23:0.25 24:2 
-0.969536574260171 1:4 2:1 3:1 4:1 5:21 6:0.4 7:1 8:2 9:3 10:0.15 11:0.15 12:0.45 13:17 14:1 15:0.5 16:0.1964 17:0.2679 18:0.2321 19:0.3036 20:0.1628 21:0.36 22:0.0769 23:0.5 24:16 
-0.7114522596616354 1:4 2:1 3:2 4:3 5:23 6:0.5 7:1 8:4 9:2 10:0.1818 11:0.1364 12:0.3182 13:17 14:4 15:0.4483 16:0.2241 17:0.2414 18:0.2069 19:0.3276 20:0.24 21:0.56 22:0.2195 23:0.2 24:25 
-0.02977275344716863 1:4 2:1 3:2 4:2 5:21 6:0.4762 7:1 8:7 9:2 10:0.2381 11:0.3333 12:0.2857 13:11 14:1 15:0.3833 16:0.25 17:0.2167 18:0.1667 19:0.3667 20:0.4074 21:0 22:0.1795 23:0.1667 24:24 
-1 1:4 2:5 3:2 4:3 5:24 6:0.4545 7:0 8:3 9:4 10:0.2273 11:0.2727 12:0.3182 13:17 14:3 15:0.5 16:0.2097 17:0.2581 18:0.2419 19:0.2903 20:0.2759 21:0.8 22:0.3125 23:0.3846 24:19 
-0.979870282188557 1:2 2:6 3:-1 4:0 5:22 6:0.7727 7:0 8:2 9:4 10:0.0455 11:0.3182 12:0.1818 13:16 14:3 15:0.5652 16:0.1848 17:0.3043 18:0.2609 19:0.25 20:0.2955 21:1.4 22:0 23:0.3182 24:4 
-0.03740013774139779 1:1 2:-1 3:-1 4:0 5:24 6:0.5 7:2 8:7 9:2 10:0.3333 11:0.1667 12:0.1667 13:14 14:-1 15:0.5306 16:0.2857 17:0.3673 18:0.1633 19:0.1837 20:0.3171 21:0.33 22:0 23:-1 24:17 
-0.2046322390784437 1:1 2:-1 3:4 4:5 5:22 6:0.4286 7:3 8:2 9:3 10:0.1429 11:0.1429 12:0.4286 13:17 14:2 15:0.4222 16:0.2667 17:0.2 18:0.2222 19:0.3111 20:0.1282 21:0.4 22:0.2203 23:-1 24:33 
-0.3585141907335888 1:3 2:2 3:4 4:4 5:21 6:0.619 7:2 8:1 9:2 10:0.1429 11:0.1905 12:0.2381 13:19 14:1 15:0.4921 16:0.254 17:0.2381 18:0.254 19:0.254 20:0.1228 21:0.91 22:0.2683 23:0.2 24:24 
-1 1:4 2:-1 3:1 4:1 5:22 6:0.35 7:2 8:3 9:3 10:0.15 11:0.05 12:0.5 13:16 14:3 15:0.386 16:0.2281 17:0.1579 18:0.2281 19:0.386 20:0.2 21:1 22:0.0909 23:0 24:13 
-0.3643906020313404 1:3 2:-1 3:1 4:2 5:21 6:0.5238 7:2 8:3 9:2 10:0.2857 11:0.4286 12:0.1905 13:16 14:1 15:0.3889 16:0.2222 17:0.1481 18:0.2407 19:0.3889 20:0.1905 21:1.6 22:0.12 23:0 24:14 
-0.2078454264603549 1:3 2:1 3:2 4:1 5:30 6:0.6522 7:2 8:6 9:5 10:0.087 11:0.4348 12:0.2609 13:19 14:2 15:0.507 16:0.2394 17:0.2535 18:0.2535 19:0.2535 20:0.2308 21:1.22 22:0.1429 23:0.0769 24:16 
-0.1344777987823416 1:4 2:2 3:2 4:1 5:24 6:0.4783 7:2 8:6 9:4 10:0.3478 11:0.1304 12:0.1739 13:15 14:4 15:0.507 16:0.2394 17:0.2535 18:0.2535 19:0.2535 20:0.2308 21:3 22:0.1429 23:0.1304 24:16 
-0.03071310614857206 1:4 2:5 3:-1 4:0 5:27 6:0.5417 7:1 8:2 9:6 10:0.25 11:0.1667 12:0.2083 13:20 14:4 15:0.451 16:0.2549 17:0.2157 18:0.2353 19:0.2941 20:0.1753 21:0.75 22:-1 23:0.2 24:1 
-0.07312758891977005 1:1 2:1 3:2 4:5 5:20 6:0.35 7:0 8:4 9:3 10:0.3 11:0.15 12:0.35 13:13 14:3 15:0.4 16:0.24 17:0.22 18:0.18 19:0.36 20:0.2683 21:1.8 22:0.1111 23:0.3333 24:34 
-0.003665249793588363 1:4 2:1 3:2 4:4 5:23 6:0.3913 7:0 8:4 9:4 10:0.2609 11:0.1304 12:0.3478 13:15 14:3 15:0.4151 16:0.2264 17:0.2264 18:0.1887 19:0.3585 20:0.2727 21:0.88 22:0.098 23:0.5 24:32 
-0.3285826508749126 1:3 2:1 3:4 4:1 5:23 6:0.3182 7:1 8:5 9:3 10:0.3636 11:0.1818 12:0.3182 13:11 14:4 15:0.3514 16:0.2162 17:0.1351 18:0.2162 19:0.4324 20:0.3731 21:1.25 22:0.4444 23:0.2 24:13 
-0.05969419340421642 1:4 2:-1 3:4 4:3 5:27 6:0.375 7:2 8:5 9:4 10:0.3333 11:0.3333 12:0.2917 13:15 14:1 15:0.3137 16:0.4118 17:0.0784 18:0.2353 19:0.2745 20:0.3478 21:0.5 22:0.2308 23:-1 24:24 
-0.06365629661118381 1:1 2:1 3:4 4:3 5:21 6:0.45 7:2 8:5 9:3 10:0.35 11:0.4 12:0.2 13:11 14:1 15:0.3265 16:0.4082 17:0.0816 18:0.2449 19:0.2653 20:0.3636 21:0.5 22:0.2195 23:0.25 24:25 
-1 1:4 2:4 3:1 4:1 5:21 6:0.5 7:1 8:3 9:3 10:0.15 11:0.05 12:0.35 13:16 14:3 15:0.3951 16:0.2716 17:0.2099 18:0.1852 19:0.3333 20:0.1795 21:4.5 22:0.1429 23:0.2 24:9 
-0.1798768231319004 1:3 2:-1 3:2 4:2 5:33 6:0.4167 7:0 8:9 9:5 10:0.3333 11:0.375 12:0.25 13:18 14:4 15:0.3729 16:0.2542 17:0.1864 18:0.1864 19:0.3729 20:0.3333 21:1.6 22:0.1765 23:-1 24:27 
-0.1739378676265822 1:2 2:1 3:2 4:4 5:21 6:0.3333 7:0 8:9 9:2 10:0.2381 11:0.0952 12:0.4286 13:11 14:4 15:0.3333 16:0.2857 17:0.1667 18:0.1667 19:0.381 20:0.3514 21:0.75 22:0.2157 23:0.5 24:36 
-0.01332824196866834 1:4 2:1 3:2 4:2 5:30 6:0.4091 7:0 8:9 9:4 10:0.3182 11:0.3636 12:0.2727 13:17 14:2 15:0.3607 16:0.2623 17:0.1803 18:0.1803 19:0.377 20:0.3214 21:2 22:0.1875 23:0.3333 24:26 
-1 1:3 2:5 3:2 4:2 5:21 6:0.619 7:1 8:2 9:2 10:0.0952 11:0.1429 12:0.2857 13:17 14:4 15:0.4051 16:0.2658 17:0.2025 18:0.2025 19:0.3291 20:0.2941 21:0.73 22:0.1429 23:0.5172 24:20 
-0.1949267167137585 1:2 2:1 3:2 4:2 5:23 6:0.2174 7:0 8:12 9:2 10:0.5217 11:0.1304 12:0.2609 13:10 14:4 15:0.26 16:0.34 17:0.16 18:0.1 19:0.4 20:0.3478 21:4.5 22:0.1111 23:0.1667 24:30 
-1 1:2 2:7 3:2 4:1 5:23 6:0.3913 7:1 8:5 9:2 10:0.3913 11:0.2174 12:0.2174 13:16 14:2 15:0.3293 16:0.3049 17:0.1829 18:0.1463 19:0.3659 20:0.2308 21:0 22:0.1818 23:0.2821 24:13 
-0.05519190541467014 1:3 2:3 3:2 4:1 5:22 6:0.3182 7:1 8:9 9:2 10:0.5 11:0.1818 12:0.1818 13:11 14:2 15:0.2917 16:0.3194 17:0.1667 18:0.125 19:0.3889 20:0.2647 21:0 22:0.125 23:0.2 24:18 
-1 1:3 2:9 3:-1 4:0 5:20 6:0.5 7:0 8:1 9:2 10:0.35 11:0.3 12:0.15 13:18 14:3 15:0.3861 16:0.3465 17:0.198 18:0.1881 19:0.2673 20:0.234 21:1.12 22:-1 23:0.3571 24:1 
-0.1280096926485441 1:2 2:-1 3:1 4:2 5:30 6:0.3913 7:2 8:9 9:3 10:0.2609 11:0.1304 12:0.3478 13:17 14:1 15:0.3333 16:0.3684 17:0.1579 18:0.1754 19:0.2982 20:0.32 21:3.33 22:0.0952 23:-1 24:23 
-1 1:1 2:1 3:-1 4:0 5:21 6:0.4762 7:0 8:1 9:1 10:0.2857 11:0.0952 12:0.2381 13:20 14:4 15:0.3678 16:0.2989 17:0.1839 18:0.1839 19:0.3333 20:0.0238 21:1.11 22:0 23:0.0455 24:7 
-0.6724114644994703 1:1 2:3 3:2 4:1 5:24 6:0.3913 7:1 8:2 9:3 10:0.3043 11:0.1304 12:0.3043 13:20 14:4 15:0.4096 16:0.3012 17:0.1566 18:0.253 19:0.2892 20:0.1429 21:0.8 22:0.1667 23:0.1875 24:14 
-1 1:2 2:4 3:2 4:1 5:22 6:0.5 7:1 8:2 9:2 10:0.3 11:0.35 12:0.2 13:19 14:2 15:0.4096 16:0.3012 17:0.1566 18:0.253 19:0.2892 20:0.1429 21:1 22:0.1667 23:0.2222 24:14 
-1 1:2 2:3 3:2 4:1 5:24 6:0.5455 7:1 8:2 9:3 10:0.2727 11:0.3636 12:0.1818 13:20 14:3 15:0.4096 16:0.3012 17:0.1566 18:0.253 19:0.2892 20:0.1429 21:1.25 22:0.1667 23:0.1875 24:14 
-1 1:2 2:4 3:2 4:1 5:22 6:0.381 7:1 8:2 9:2 10:0.2857 11:0.0952 12:0.3333 13:19 14:2 15:0.3951 16:0.3086 17:0.1481 18:0.2469 19:0.2963 20:0.1467 21:1 22:0.1538 23:0.2353 24:15 
-1 1:4 2:-1 3:-1 4:0 5:21 6:0.4286 7:1 8:1 9:1 10:0.0952 11:0.0952 12:0.4762 13:20 14:3 15:0.4706 16:0.2647 17:0.2206 18:0.25 19:0.2647 20:0.0312 21:1 22:0 23:0 24:9 
-0.7658233651224966 1:4 2:-1 3:2 4:1 5:24 6:0.4167 7:0 8:1 9:1 10:0.0833 11:0.0833 12:0.5 13:23 14:1 15:0.4079 16:0.2895 17:0.1842 18:0.2237 19:0.3026 20:0.0278 21:0.9 22:0.2857 23:0 24:12 
-1 1:3 2:-1 3:2 4:1 5:20 6:0.4 7:0 8:1 9:1 10:0.55 11:0.4 12:0.05 13:19 14:4 15:0.4189 16:0.2838 17:0.1892 18:0.2297 19:0.2973 20:0.0286 21:1.11 22:0.25 23:0 24:13 
-0.3730474747602106 1:4 2:-1 3:1 4:1 5:24 6:0.3478 7:0 8:1 9:3 10:0.3913 11:0.1304 12:0.2609 13:21 14:3 15:0.381 16:0.2698 17:0.1746 18:0.2063 19:0.3492 20:0.0877 21:0.6 22:0.0526 23:0 24:25 
-1 1:4 2:1 3:-1 4:0 5:23 6:0.2609 7:1 8:1 9:2 10:0.2174 11:0.2174 12:0.5217 13:21 14:4 15:0.3505 16:0.2887 17:0.1649 18:0.1856 19:0.3608 20:0.0769 21:0.86 22:0 23:0.0667 24:8 
-1 1:3 2:1 3:-1 4:0 5:21 6:0.2857 7:1 8:1 9:2 10:0.2381 11:0.2381 12:0.4762 13:19 14:1 15:0.3636 16:0.2828 17:0.1717 18:0.1919 19:0.3535 20:0.0753 21:1.17 22:0 23:0.0588 24:7 
-0.1069322208282246 1:4 2:-1 3:3 4:2 5:22 6:0.2727 7:2 8:-1 9:0 10:0.5 11:0.1818 12:0.2273 13:22 14:2 15:0.25 16:0.3654 17:0.1154 18:0.1346 19:0.3846 20:0 21:0.89 22:0.1892 23:0 24:25 
-1 1:3 2:-1 3:3 4:2 5:22 6:0.3182 7:1 8:-1 9:0 10:0.5455 11:0.1818 12:0.1364 13:22 14:4 15:0.3167 16:0.3333 17:0.15 18:0.1667 19:0.35 20:0 21:1.22 22:0.2414 23:0 24:21 
-0.06004386408025934 1:4 2:-1 3:2 4:2 5:29 6:0.4545 7:4 8:5 9:5 10:0.2727 11:0.1818 12:0.2727 13:17 14:3 15:0.4423 16:0.2692 17:0.1923 18:0.25 19:0.2885 20:0.2444 21:3 22:0.1481 23:-1 24:29 
-0.01483780707881394 1:1 2:-1 3:-1 4:0 5:21 6:0.2857 7:2 8:1 9:3 10:0.2857 11:0.2381 12:0.4286 13:18 14:4 15:0.4762 16:0.254 17:0.2063 18:0.2698 19:0.2698 20:0.0847 21:0.78 22:-1 23:0 24:4 
-1 1:4 2:3 3:-1 4:0 5:22 6:0.6667 7:3 8:2 9:3 10:0.0476 11:0.4762 12:0.2857 13:18 14:3 15:0.7206 16:0.0882 17:0.2794 18:0.4412 19:0.1912 20:0.2188 21:0.91 22:-1 23:0.3636 24:4 
-1 1:3 2:3 3:-1 4:0 5:21 6:0.7 7:2 8:2 9:3 10:0.05 11:0.5 12:0.25 13:17 14:3 15:0.7273 16:0.0909 17:0.2879 18:0.4394 19:0.1818 20:0.2258 21:1 22:0 23:0.3636 24:5 
-1 1:3 2:3 3:-1 4:0 5:23 6:0.8182 7:3 8:2 9:3 10:0.1364 11:0.4545 12:0.0455 13:19 14:4 15:0.7273 16:0.0909 17:0.2879 18:0.4394 19:0.1818 20:0.2258 21:0.91 22:0 23:0.4444 24:5 
-1 1:4 2:3 3:-1 4:0 5:21 6:0.65 7:3 8:2 9:3 10:0.05 11:0.45 12:0.3 13:17 14:2 15:0.7097 16:0.0968 17:0.2742 18:0.4355 19:0.1935 20:0.2414 21:0.5 22:0 23:0.4444 24:7 
-0.6966837737310246 1:4 2:2 3:1 4:2 5:24 6:0.4167 7:1 8:3 9:3 10:0.3333 11:0.1667 12:0.25 13:18 14:3 15:0.3538 16:0.3231 17:0.1538 18:0.2 19:0.3231 20:0.2069 21:1.67 22:0.0638 23:0.3333 24:26 
-0.1293999721553782 1:2 2:-1 3:3 4:3 5:24 6:0.3333 7:2 8:3 9:4 10:0.375 11:0.1667 12:0.2917 13:16 14:4 15:0.3191 16:0.3191 17:0.1064 18:0.2128 19:0.3617 20:0.2 21:4.5 22:0.1077 23:-1 24:36 
-1 1:4 2:3 3:-1 4:0 5:21 6:0.2381 7:0 8:1 9:2 10:0.3333 11:0.1429 12:0.4286 13:19 14:1 15:0.3056 16:0.3519 17:0.1389 18:0.1667 19:0.3426 20:0.1485 21:0.88 22:0 23:0.2258 24:4 
-0.04304253289894253 1:4 2:-1 3:1 4:1 5:21 6:0.2857 7:1 8:5 9:2 10:0.2381 11:0.1429 12:0.4762 13:14 14:1 15:0.2857 16:0.3333 17:0.1667 18:0.119 19:0.381 20:0.0667 21:0 22:0.0323 23:-1 24:35 
-0.1830956058527769 1:1 2:2 3:-1 4:0 5:20 6:0.4 7:0 8:1 9:1 10:0.4 11:0.1 12:0.2 13:19 14:4 15:0.3472 16:0.3194 17:0.1944 18:0.1528 19:0.3333 20:0.0667 21:0.7 22:0 23:0.1 24:20 
-1 1:1 2:2 3:-1 4:0 5:21 6:0.4286 7:0 8:1 9:1 10:0.2381 11:0.2857 12:0.3333 13:20 14:1 15:0.3553 16:0.3158 17:0.1974 18:0.1579 19:0.3289 20:0.0625 21:1.29 22:0 23:0.0909 24:18 
-1 1:4 2:2 3:4 4:2 5:22 6:0.5909 7:1 8:1 9:2 10:0.1364 11:0.3182 12:0.2727 13:20 14:1 15:0.5714 16:0.2063 17:0.2381 18:0.3333 19:0.2222 20:0.1636 21:0.82 22:0.3684 23:0.4545 24:21 
-1 1:3 2:3 3:-1 4:0 5:20 6:0.45 7:2 8:2 9:2 10:0.1 11:0.15 12:0.45 13:17 14:3 15:0.39 16:0.25 17:0.17 18:0.22 19:0.36 20:0.1134 21:1.43 22:0 23:0.1333 24:9 
-1 1:3 2:3 3:-1 4:0 5:23 6:0.5217 7:2 8:2 9:2 10:0.087 11:0.1739 12:0.3913 13:20 14:1 15:0.402 16:0.2451 17:0.1765 18:0.2255 19:0.3529 20:0.1111 21:1 22:-1 23:0.1429 24:8 
-0.1489437313169786 1:1 2:1 3:2 4:2 5:24 6:0.3636 7:3 8:3 9:2 10:0.1364 11:0.1364 12:0.5 13:20 14:2 15:0.3725 16:0.2549 17:0.1569 18:0.2157 19:0.3725 20:0.125 21:1.12 22:0.098 23:0.5 24:34 
-1 1:1 2:5 3:-1 4:0 5:21 6:0.4762 7:1 8:1 9:2 10:0.2381 11:0.1429 12:0.2857 13:19 14:1 15:0.3571 16:0.3265 17:0.1837 18:0.1735 19:0.3163 20:0.1489 21:0.82 22:0 23:0.1923 24:12 
-0.309967410813606 1:1 2:5 3:-1 4:0 5:23 6:0.3913 7:1 8:1 9:2 10:0.3913 11:0.2609 12:0.2174 13:21 14:1 15:0.3646 16:0.3229 17:0.1875 18:0.1771 19:0.3125 20:0.1522 21:0.9 22:0 23:0.2174 24:13 
-1 1:4 2:5 3:-1 4:0 5:21 6:0.4762 7:1 8:1 9:2 10:0.1429 11:0.1905 12:0.381 13:19 14:1 15:0.3587 16:0.3261 17:0.1848 18:0.1739 19:0.3152 20:0.1591 21:1 22:0 23:0.2174 24:15 
-1 1:1 2:5 3:1 4:1 5:21 6:0.5238 7:4 8:2 9:1 10:0.1905 11:0.2381 12:0.2857 13:19 14:3 15:0.4906 16:0.1792 17:0.2358 18:0.2547 19:0.3302 20:0.16 21:0.8 22:0.1429 23:0.2069 24:6 
-0.4314142052826018 1:2 2:5 3:-1 4:0 5:22 6:0.5238 7:4 8:2 9:2 10:0.1905 11:0.2381 12:0.2857 13:19 14:3 15:0.4954 16:0.1835 17:0.2385 18:0.2569 19:0.3211 20:0.165 21:0.9 22:0 23:0.2 24:5 
-0.5680144725959548 1:1 2:5 3:1 4:1 5:20 6:0.5 7:4 8:2 9:1 10:0.2 11:0.25 12:0.3 13:18 14:3 15:0.4906 16:0.1792 17:0.2358 18:0.2547 19:0.3302 20:0.16 21:0.8 22:0.1429 23:0.2 24:6 
-0.153231234853433 1:4 2:-1 3:1 4:1 5:27 6:0.3 7:0 8:6 9:2 10:0.45 11:0.1 12:0.25 13:18 14:4 15:0.3061 16:0.3469 17:0.1429 18:0.1633 19:0.3469 20:0.1429 21:3.33 22:0.0588 23:-1 24:33 
-0.4480641876533532 1:4 2:1 3:1 4:1 5:21 6:0.3333 7:0 8:6 9:1 10:0.3333 11:0.1905 12:0.3333 13:15 14:2 15:0.3091 16:0.3455 17:0.1455 18:0.1636 19:0.3455 20:0.125 21:0.22 22:0.0714 23:0.1429 24:30 
-1 1:1 2:1 3:1 4:1 5:22 6:0.3182 7:3 8:4 9:2 10:0.1364 11:0.0909 12:0.5455 13:17 14:4 15:0.3519 16:0.2778 17:0.1667 18:0.1852 19:0.3704 20:0.1837 21:0.44 22:0.1 23:0.25 24:12 
-0.8368105496547006 1:4 2:1 3:1 4:1 5:22 6:0.3182 7:4 8:4 9:2 10:0.1364 11:0.0909 12:0.5455 13:17 14:1 15:0.3654 16:0.2692 17:0.1731 18:0.1923 19:0.3654 20:0.1915 21:0.86 22:0.0909 23:0.3333 24:13 
-1 1:1 2:1 3:1 4:1 5:22 6:0.4545 7:0 8:1 9:5 10:0.4091 11:0.2273 12:0.1364 13:17 14:3 15:0.4143 16:0.3429 17:0.2 18:0.2143 19:0.2429 20:0.2258 21:1.4 22:0.0833 23:0.2222 24:14 
-1 1:1 2:2 3:1 4:1 5:20 6:0.45 7:0 8:1 9:4 10:0.15 11:0.25 12:0.4 13:16 14:2 15:0.4143 16:0.3429 17:0.2 18:0.2143 19:0.2429 20:0.2258 21:1 22:0.0833 23:0.2727 24:14 
-1 1:4 2:2 3:2 4:1 5:21 6:0.4286 7:1 8:1 9:4 10:0.0952 11:0.2857 12:0.4762 13:17 14:3 15:0.4253 16:0.2874 17:0.1954 18:0.2299 19:0.2874 20:0.1667 21:1.14 22:0.3333 23:0.1875 24:8 
-1 1:4 2:2 3:5 4:1 5:20 6:0.35 7:0 8:2 9:3 10:0.35 11:0.25 12:0.3 13:16 14:3 15:0.434 16:0.2453 17:0.2264 18:0.2075 19:0.3208 20:0.28 21:0.88 22:0.3125 23:0.6667 24:18 
-0.7744851962068071 1:2 2:1 3:5 4:1 5:20 6:0.5 7:1 8:3 9:1 10:0.25 11:0.25 12:0.25 13:17 14:3 15:0.4146 16:0.2439 17:0.2073 18:0.2073 19:0.3415 20:0.1169 21:1.43 22:0.2941 23:0.15 24:19 
-1 1:4 2:1 3:5 4:1 5:24 6:0.4583 7:2 8:3 9:1 10:0.2917 11:0.25 12:0.25 13:21 14:4 15:0.3936 16:0.2553 17:0.1915 18:0.2021 19:0.3511 20:0.1011 21:1.25 22:0.4545 23:0.1364 24:13 
-0.0120446194317902 1:3 2:-1 3:1 4:1 5:25 6:0.381 7:2 8:5 9:3 10:0.1905 11:0.0952 12:0.4286 13:12 14:1 15:0.4464 16:0.3214 17:0.1429 18:0.3036 19:0.2321 20:0.44 21:0 22:0.0385 23:0 24:29 
-0.0426217329454617 1:2 2:7 3:1 4:1 5:22 6:0.4286 7:1 8:3 9:2 10:0.4286 11:0.3333 12:0.1429 13:17 14:1 15:0.4054 16:0.3243 17:0.1486 18:0.2568 19:0.2703 20:0.2647 21:0.82 22:0.0303 23:0.4286 24:20 
-0.5508935857137797 1:1 2:7 3:1 4:1 5:22 6:0.5 7:2 8:3 9:3 10:0.3 11:0.45 12:0.2 13:16 14:4 15:0.4194 16:0.3226 17:0.1452 18:0.2742 19:0.2581 20:0.3214 21:0.9 22:0.0222 23:0.6471 24:26 
-0.04244378550335635 1:2 2:-1 3:1 4:1 5:30 6:0.375 7:2 8:7 9:4 10:0.2083 11:0.0417 12:0.4167 13:17 14:1 15:0.4333 16:0.3167 17:0.15 18:0.2833 19:0.25 20:0.3333 21:0.33 22:0.0213 23:0 24:27 
-0.5503517613832998 1:2 2:-1 3:2 4:4 5:21 6:0.2857 7:0 8:2 9:1 10:0.4286 11:0.0476 12:0.2857 13:19 14:3 15:0.2027 16:0.3919 17:0.1081 18:0.0946 19:0.4054 20:0.0286 21:2.5 22:0.2308 23:0 24:23 
-1 1:1 2:1 3:1 4:1 5:22 6:0.3636 7:0 8:1 9:1 10:0.3182 11:0.1818 12:0.3182 13:21 14:2 15:0.4156 16:0.3117 17:0.2208 18:0.1948 19:0.2727 20:0.0312 21:0.7 22:0.0769 23:0.0909 24:14 
-1 1:2 2:1 3:-1 4:0 5:20 6:0.4 7:0 8:1 9:2 10:0.3 11:0.15 12:0.3 13:18 14:1 15:0.4302 16:0.3023 17:0.2209 18:0.2093 19:0.2674 20:0.0411 21:1.29 22:0 23:0.0556 24:9 
-1 1:4 2:1 3:1 4:2 5:21 6:0.381 7:0 8:-1 9:0 10:0.3333 11:0.1905 12:0.2857 13:21 14:3 15:0.4133 16:0.3067 17:0.2133 18:0.2 19:0.28 20:0 21:1.11 22:0.2 23:0.0909 24:15 
-0.1895900354713737 1:2 2:1 3:4 4:4 5:25 6:0.4583 7:1 8:3 9:1 10:0.25 11:0.125 12:0.2917 13:22 14:2 15:0.4844 16:0.2656 17:0.25 18:0.2344 19:0.25 20:0.0909 21:1.11 22:0.3191 23:0.25 24:28 
-0.343011864947705 1:2 2:1 3:4 4:4 5:21 6:0.55 7:0 8:3 9:1 10:0.25 11:0.05 12:0.2 13:18 14:1 15:0.5147 16:0.25 17:0.2647 18:0.25 19:0.2353 20:0.0847 21:2.2 22:0.3488 23:0.1 24:26 
-0.07493282757117393 1:1 2:3 3:-1 4:0 5:20 6:0.5 7:1 8:4 9:4 10:0.2 11:0.2 12:0.3 13:11 14:4 15:0.4783 16:0.2696 17:0.2609 18:0.2174 19:0.2522 20:0.2264 21:1.2 22:-1 23:0.1549 24:1 
-1 1:4 2:3 3:2 4:2 5:21 6:0.381 7:1 8:1 9:2 10:0.381 11:0.3333 12:0.2381 13:19 14:3 15:0.4091 16:0.3182 17:0.197 18:0.2121 19:0.2727 20:0.1765 21:1 22:0.2308 23:0.6364 24:20 
-0.3854463892363783 1:3 2:3 3:-1 4:0 5:21 6:0.3333 7:1 8:3 9:3 10:0.2857 11:0.2857 12:0.381 13:15 14:3 15:0.4105 16:0.3053 17:0.2 18:0.2105 19:0.2842 20:0.225 21:5 22:-1 23:0.2558 24:4 
-0.2078862416573963 1:4 2:-1 3:2 4:3 5:23 6:0.4783 7:1 8:6 9:3 10:0.2609 11:0.3478 12:0.2609 13:13 14:4 15:0.4583 16:0.2917 17:0.2083 18:0.25 19:0.25 20:0.2121 21:0 22:0.1818 23:-1 24:29 
-0.06051247705903153 1:2 2:-1 3:2 4:2 5:21 6:0.2727 7:0 8:4 9:4 10:0.4091 11:0.0909 12:0.3182 13:12 14:4 15:0.2381 16:0.3333 17:0.0952 18:0.1429 19:0.4286 20:0.3684 21:0.83 22:0.1071 23:-1 24:32 
-0.8744309054936379 1:3 2:2 3:1 4:2 5:21 6:0.381 7:2 8:1 9:2 10:0.2857 11:0.1429 12:0.3333 13:19 14:3 15:0.3793 16:0.2414 17:0.1552 18:0.2241 19:0.3793 20:0.1481 21:0.78 22:0.1667 23:0.3333 24:22 
-0.05231381536661104 1:4 2:-1 3:1 4:2 5:24 6:0.375 7:2 8:2 9:3 10:0.25 11:0.125 12:0.375 13:20 14:2 15:0.4 16:0.2333 17:0.1667 18:0.2333 19:0.3667 20:0.1429 21:0.4 22:0.1818 23:0 24:21 
-0.2759692018783138 1:2 2:2 3:-1 4:0 5:22 6:0.4545 7:1 8:7 9:2 10:0.2273 11:0.2727 12:0.3182 13:13 14:2 15:0.404 16:0.2727 17:0.1919 18:0.2121 19:0.3232 20:0.2 21:0 22:-1 23:0.125 24:8 
-1 1:4 2:1 3:-1 4:0 5:24 6:0.4583 7:1 8:2 9:3 10:0.2917 11:0.2917 12:0.25 13:18 14:4 15:0.3936 16:0.2872 17:0.1915 18:0.2021 19:0.3191 20:0.15 21:0.36 22:-1 23:0.0588 24:13 
-0.4288582457641684 1:4 2:-1 3:2 4:1 5:23 6:0.3043 7:2 8:2 9:2 10:0.3478 11:0.2174 12:0.3478 13:20 14:3 15:0.3594 16:0.3125 17:0.1875 18:0.1719 19:0.3281 20:0.12 21:0.4 22:0.1429 23:0 24:29 
-0.399685766651033 1:4 2:11 3:-1 4:0 5:22 6:0.3182 7:0 8:1 9:2 10:0.3636 11:0.0909 12:0.3182 13:20 14:2 15:0.319 16:0.4138 17:0.1724 18:0.1466 19:0.2672 20:0.2593 21:1.14 22:-1 23:0.375 24:1 
-0.1102554795146906 1:1 2:11 3:-1 4:0 5:20 6:0.35 7:0 8:1 9:1 10:0.35 11:0.1 12:0.3 13:19 14:2 15:0.3158 16:0.4123 17:0.1667 18:0.1491 19:0.2719 20:0.2453 21:0.9 22:-1 23:0.3636 24:2 
-0.3632596313927368 1:4 2:-1 3:-1 4:0 5:21 6:0.3333 7:0 8:1 9:1 10:0.2857 11:0.2381 12:0.381 13:20 14:2 15:0.3462 16:0.3077 17:0.1538 18:0.1923 19:0.3462 20:0.0417 21:0.89 22:0 23:0 24:24 
-0.261343214915071 1:4 2:1 3:-1 4:0 5:22 6:0.3636 7:0 8:9 9:1 10:0.3182 11:0.1818 12:0.3182 13:13 14:3 15:0.358 16:0.2963 17:0.1605 18:0.1975 19:0.3457 20:0.1429 21:0 22:-1 23:0.0476 24:5 
-0.2695053801004753 1:1 2:2 3:-1 4:0 5:20 6:0.35 7:0 8:1 9:1 10:0.3 11:0.15 12:0.35 13:19 14:4 15:0.3929 16:0.3036 17:0.2143 18:0.1786 19:0.3036 20:0.098 21:0.67 22:0 23:0.3846 24:32 
-0.2414131272272571 1:4 2:3 3:-1 4:0 5:22 6:0.3182 7:0 8:-1 9:0 10:0.3636 11:0.1818 12:0.3182 13:22 14:1 15:0.3235 16:0.3382 17:0.1765 18:0.1471 19:0.3382 20:0.0794 21:0.73 22:0 23:0.3333 24:26 
-0.02942167768889621 1:2 2:3 3:-1 4:0 5:25 6:0.3913 7:0 8:6 9:1 10:0.3043 11:0.087 12:0.3043 13:19 14:1 15:0.4038 16:0.3077 17:0.2308 18:0.1731 19:0.2885 20:0.1515 21:0 22:-1 23:0.1321 24:7 
-0.1496615281094058 1:1 2:1 3:5 4:2 5:23 6:0.2174 7:0 8:8 9:1 10:0.4783 11:0.1304 12:0.3043 13:15 14:4 15:0.2222 16:0.4074 17:0.1111 18:0.1111 19:0.3704 20:0.1026 21:0 22:0.4286 23:0.0476 24:15 
-0.09368856569337183 1:1 2:1 3:3 4:2 5:21 6:0.2381 7:0 8:10 9:1 10:0.4762 11:0.1429 12:0.2857 13:11 14:4 15:0.2169 16:0.4217 17:0.1084 18:0.1084 19:0.3614 20:0.125 21:0 22:0.3684 23:0.04 24:13 
-0.9048801652725402 1:3 2:4 3:-1 4:0 5:21 6:0.4286 7:0 8:3 9:1 10:0.2381 11:0.1905 12:0.3333 13:18 14:3 15:0.319 16:0.3534 17:0.1379 18:0.181 19:0.3276 20:0.2072 21:0.33 22:-1 23:0.2676 24:1 
-0.1791498996442447 1:4 2:-1 3:4 4:1 5:22 6:0.3636 7:3 8:4 9:4 10:0.2727 11:0.3182 12:0.3636 13:14 14:-1 15:0.25 16:0.3636 17:0.0682 18:0.1818 19:0.3864 20:0.2821 21:0.56 22:0.0909 23:-1 24:38 
-0.1108228433939368 1:1 2:4 3:-1 4:0 5:23 6:0.4348 7:0 8:1 9:1 10:0.3043 11:0.2174 12:0.2609 13:22 14:2 15:0.3036 16:0.3571 17:0.1339 18:0.1696 19:0.3393 20:0.1776 21:1.25 22:-1 23:0.3016 24:3 
-0.1492171879691868 1:2 2:1 3:-1 4:0 5:20 6:0.2 7:0 8:1 9:1 10:0.45 11:0.1 12:0.35 13:19 14:1 15:0.3125 16:0.3375 17:0.1625 18:0.15 19:0.35 20:0.0137 21:1.5 22:-1 23:0.0556 24:1 
-0.7225379361257239 1:4 2:-1 3:-1 4:0 5:23 6:0.3913 7:0 8:3 9:1 10:0.2609 11:0.1739 12:0.3478 13:20 14:1 15:0.4043 16:0.2979 17:0.2128 18:0.1915 19:0.2979 20:0 21:3.33 22:0 23:-1 24:18 
-0.7686566740709885 1:4 2:1 3:-1 4:0 5:21 6:0.2857 7:0 8:-1 9:0 10:0.381 11:0.0952 12:0.3333 13:21 14:4 15:0.3425 16:0.3288 17:0.1781 18:0.1644 19:0.3288 20:0 21:1 22:0 23:0.0769 24:5 
-0.2374639833736765 1:4 2:5 3:1 4:1 5:22 6:0.5714 7:1 8:1 9:4 10:0.2381 11:0.381 12:0.1905 13:18 14:1 15:0.4714 16:0.2714 17:0.2571 18:0.2143 19:0.2571 20:0.2424 21:0.73 22:0.0526 23:0.4167 24:19 
-0.06695524045771128 1:4 2:1 3:-1 4:0 5:21 6:0.35 7:1 8:4 9:2 10:0.2 11:0.2 12:0.45 13:16 14:3 15:0.3889 16:0.2963 17:0.1481 18:0.2407 19:0.3148 20:0.1064 21:0 22:0 23:0.1667 24:30 
-0.7670315929550164 1:2 2:4 3:-1 4:0 5:23 6:0.3636 7:0 8:1 9:1 10:0.1818 11:0.1818 12:0.4545 13:22 14:4 15:0.3649 16:0.3108 17:0.1486 18:0.2162 19:0.3243 20:0.0746 21:1.11 22:0 23:0.25 24:20 
-0.4496262496057752 1:1 2:-1 3:-1 4:0 5:21 6:0.2381 7:1 8:-1 9:0 10:0.3333 11:0.2381 12:0.4286 13:21 14:4 15:0.2115 16:0.3846 17:0.0962 18:0.1154 19:0.4038 20:0 21:1 22:0 23:0 24:24 
-0.04846240651670455 1:4 2:-1 3:1 4:2 5:26 6:0.3636 7:1 8:8 9:1 10:0.2273 11:0.1364 12:0.4091 13:18 14:1 15:0.3704 16:0.3148 17:0.2222 18:0.1481 19:0.3148 20:0.24 21:0.9 22:0.0625 23:0 24:19 
-0.1059057076798007 1:1 2:-1 3:1 4:2 5:21 6:0.3333 7:0 8:8 9:1 10:0.4286 11:0.0952 12:0.2381 13:13 14:4 15:0.36 16:0.32 17:0.22 18:0.14 19:0.32 20:0.2609 21:5 22:0.0556 23:0 24:21 
-1 1:3 2:5 3:-1 4:0 5:22 6:0.2273 7:1 8:2 9:1 10:0.2727 11:0.2273 12:0.5 13:20 14:2 15:0.2604 16:0.3229 17:0.1354 18:0.125 19:0.4167 20:0.1364 21:1.67 22:-1 23:0.1818 24:1 
-0.2313186212977165 1:4 2:2 3:-1 4:0 5:22 6:0.2273 7:0 8:3 9:1 10:0.3182 11:0.1818 12:0.4545 13:19 14:1 15:0.3 16:0.2667 17:0.1833 18:0.1167 19:0.4333 20:0.1538 21:0.2 22:0 23:0.25 24:19 
-0.001721697263598266 1:3 2:-1 3:-1 4:0 5:24 6:0.25 7:0 8:5 9:1 10:0.25 11:0.2083 12:0.5 13:19 14:4 15:0.3103 16:0.2586 17:0.1897 18:0.1207 19:0.431 20:0.16 21:0.27 22:0 23:0 24:20 
-0.1963511359658576 1:4 2:-1 3:3 4:3 5:23 6:0.4545 7:1 8:2 9:5 10:0.2727 11:0.2273 12:0.2727 13:17 14:1 15:0.5 16:0.2174 17:0.2391 18:0.2609 19:0.2826 20:0.1905 21:1.12 22:0.1852 23:-1 24:30 
-0.2708386949540123 1:2 2:1 3:2 4:4 5:22 6:0.35 7:1 8:2 9:3 10:0.2 11:0.05 12:0.45 13:18 14:4 15:0.3478 16:0.2899 17:0.1884 18:0.1594 19:0.3623 20:0.1228 21:0.89 22:0.2778 23:0.125 24:21 
-0.3680806661366587 1:3 2:2 3:-1 4:0 5:23 6:0.4091 7:0 8:2 9:5 10:0.2273 11:0.2727 12:0.3636 13:17 14:3 15:0.3333 16:0.2952 17:0.1714 18:0.1619 19:0.3714 20:0.1828 21:1.22 22:-1 23:0.125 24:3 
-0.3403082731114211 1:4 2:-1 3:-1 4:0 5:23 6:0.35 7:2 8:3 9:3 10:0.35 11:0.2 12:0.3 13:17 14:1 15:0.3261 16:0.3696 17:0.1522 18:0.1739 19:0.3043 20:0.1282 21:3 22:0 23:-1 24:9 
-0.7008482392074018 1:3 2:-1 3:-1 4:0 5:22 6:0.3478 7:2 8:3 9:3 10:0.3913 11:0.1739 12:0.2609 13:16 14:4 15:0.3409 16:0.3636 17:0.1591 18:0.1818 19:0.2955 20:0.1351 21:0.43 22:0 23:-1 24:10 
