svm_type c_svc
kernel_type rbf
gamma 0.0416667
nr_class 2
total_sv 3
rho 0.461755
label 1 0
probA 1.79214
probB 2.20696
nr_sv 1 2
SV
1 1:1 2:3 3:-1 4:0 5:21 6:0.3333 7:0 8:1 9:2 10:0.3333 11:0.1905 12:0.3333 13:19 14:1 15:0.2639 16:0.3472 17:0.1111 18:0.1528 19:0.3889 20:0.1014 21:1.12 22:0 23:0.1724 24:9 
-0.5108151030445174 1:4 2:1 3:1 4:1 5:24 6:0.375 7:2 8:3 9:2 10:0.2917 11:0.25 12:0.3333 13:20 14:4 15:0.3103 16:0.3103 17:0.1207 18:0.1897 19:0.3793 20:0.0909 21:0.67 22:0.125 23:0.1667 24:16 
-0.4891848969554826 1:3 2:1 3:1 4:1 5:21 6:0.381 7:3 8:3 9:2 10:0.2381 11:0.2857 12:0.381 13:17 14:4 15:0.3043 16:0.3043 17:0.1087 18:0.1957 19:0.3913 20:0.1163 21:1 22:0.0714 23:0.3333 24:22 
