svm_type c_svc
kernel_type rbf
gamma 0.0416667
nr_class 2
total_sv 120
rho 0.88235
label 1 0
probA -4.96798
probB -1.80031
nr_sv 15 105
SV
1 1:4 2:3 3:-1 4:0 5:21 6:0.4762 7:0 8:2 9:3 10:0.1905 11:0.3333 12:0.3333 13:16 14:4 15:0.7033 16:0.1319 17:0.3736 18:0.3297 19:0.1648 20:0.186 21:0.5 22:-1 23:0.1915 24:1 
1 1:4 2:3 3:-1 4:0 5:22 6:0.5714 7:0 8:2 9:3 10:0.1905 11:0.1905 12:0.2381 13:17 14:2 15:0.7033 16:0.1319 17:0.3736 18:0.3297 19:0.1648 20:0.186 21:1.17 22:-1 23:0.2 24:1 
1 1:2 2:5 3:2 4:1 5:24 6:0.625 7:1 8:3 9:2 10:0.1667 11:0.375 12:0.2083 13:19 14:4 15:0.5934 16:0.1758 17:0.2967 18:0.2967 19:0.2308 20:0.2471 21:0.8 22:0.4 23:0.2973 24:14 
1 1:1 2:2 3:2 4:1 5:24 6:0.5455 7:0 8:3 9:4 10:0.0909 11:0.2727 12:0.3636 13:16 14:4 15:0.3731 16:0.3881 17:0.194 18:0.1791 19:0.2388 20:0.3 21:1 22:0.0968 23:0.375 24:26 
1 1:3 2:-1 3:-1 4:0 5:21 6:0.4762 7:3 8:3 9:4 10:0.1905 11:0.2857 12:0.3333 13:15 14:3 15:0.4286 16:0.254 17:0.2381 18:0.1905 19:0.3175 20:0.2157 21:4.5 22:0 23:0 24:19 
1 1:4 2:6 3:-1 4:0 5:23 6:0.5 7:1 8:1 9:2 10:0.3182 11:0.3182 12:0.1818 13:21 14:2 15:0.6327 16:0.1735 17:0.3163 18:0.3163 19:0.1939 20:0.1702 21:1.22 22:0 23:0.2653 24:6 
1 1:3 2:3 3:2 4:1 5:21 6:0.4762 7:0 8:1 9:2 10:0.2857 11:0.2381 12:0.2381 13:19 14:2 15:0.6709 16:0.1899 17:0.3544 18:0.3165 19:0.1392 20:0.1579 21:1.14 22:0.5 23:0.2973 24:18 
1 1:1 2:2 3:-1 4:0 5:24 6:0.4583 7:1 8:1 9:2 10:0.3333 11:0.2917 12:0.2083 13:22 14:3 15:0.4124 16:0.3093 17:0.1959 18:0.2165 19:0.2784 20:0.0989 21:1.29 22:0 23:0.1163 24:8 
1 1:1 2:2 3:1 4:1 5:24 6:0.4583 7:0 8:3 9:1 10:0.3333 11:0.2917 12:0.2083 13:21 14:2 15:0.4536 16:0.299 17:0.2268 18:0.2268 19:0.2474 20:0.225 21:1 22:0.25 23:0.4118 24:8 
1 1:4 2:1 3:-1 4:0 5:24 6:0.4286 7:1 8:4 9:2 10:0.2857 11:0.3333 12:0.2857 13:19 14:4 15:0.4318 16:0.2841 17:0.2045 18:0.2273 19:0.2841 20:0.1268 21:0.7 22:0 23:0.1429 24:14 
1 1:1 2:1 3:1 4:1 5:24 6:0.375 7:0 8:2 9:4 10:0.2083 11:0.2083 12:0.4167 13:18 14:2 15:0.4138 16:0.2414 17:0.1839 18:0.2299 19:0.3448 20:0.1463 21:1.4 22:0.2 23:0.0556 24:17 
1 1:4 2:1 3:-1 4:0 5:20 6:0.3 7:1 8:2 9:2 10:0.3 11:0.15 12:0.4 13:17 14:3 15:0.3763 16:0.3226 17:0.1398 18:0.2366 19:0.3011 20:0.0909 21:0.78 22:0 23:0.0714 24:8 
1 1:4 2:3 3:-1 4:0 5:21 6:0.5238 7:2 8:1 9:2 10:0.1429 11:0.1429 12:0.3333 13:19 14:1 15:0.5882 16:0.1882 17:0.3059 18:0.2824 19:0.2235 20:0.1646 21:0.89 22:0 23:0.2432 24:17 
1 1:2 2:4 3:-1 4:0 5:21 6:0.4286 7:1 8:-1 9:0 10:0.3333 11:0.2381 12:0.2381 13:21 14:4 15:0.413 16:0.2609 17:0.1739 18:0.2391 19:0.3261 20:0.1395 21:1 22:0 23:0.2727 24:10 
1 1:1 2:7 3:1 4:1 5:23 6:0.3333 7:0 8:2 9:1 10:0.5238 11:0.1429 12:0.1429 13:21 14:4 15:0.4433 16:0.2371 17:0.2062 18:0.2371 19:0.3196 20:0.2 21:1.6 22:0.25 23:0.3478 24:6 
-0.5346650116039111 1:3 2:2 3:-1 4:0 5:25 6:0.7826 7:0 8:3 9:3 10:0.1304 11:0.3478 12:0.087 13:19 14:3 15:0.7763 16:0.1053 17:0.4079 18:0.3684 19:0.1184 20:0.1831 21:1.2 22:0 23:0.2 24:9 
-0.009146064982680282 1:2 2:2 3:-1 4:0 5:20 6:0.6 7:0 8:3 9:3 10:0.2 11:0.35 12:0.2 13:14 14:2 15:0.7917 16:0.0972 17:0.4167 18:0.375 19:0.1111 20:0.194 21:2.2 22:0 23:0.1613 24:11 
-0.3620282876947534 1:2 2:2 3:-1 4:0 5:25 6:0.8261 7:0 8:3 9:3 10:0.087 11:0.3478 12:0.087 13:19 14:4 15:0.7973 16:0.0946 17:0.4189 18:0.3784 19:0.1081 20:0.1884 21:1.09 22:0 23:0.2174 24:10 
-0.6042198316898841 1:3 2:1 3:1 4:1 5:24 6:0.85 7:0 8:3 9:4 10:0.1 11:0.35 12:0.05 13:17 14:3 15:0.8 16:0.1 17:0.4333 18:0.3667 19:0.1 20:0.2 21:2.4 22:0.0714 23:0.2308 24:17 
-0.08961230535958069 1:2 2:2 3:-1 4:0 5:23 6:0.6957 7:0 8:3 9:3 10:0.1304 11:0.3913 12:0.1739 13:17 14:2 15:0.803 16:0.0909 17:0.4242 18:0.3788 19:0.1061 20:0.2131 21:0.5 22:0 23:0.2632 24:14 
-0.01118479077048826 1:3 2:2 3:-1 4:0 5:24 6:0.7083 7:0 8:3 9:3 10:0.125 11:0.4167 12:0.1667 13:18 14:2 15:0.8088 16:0.0882 17:0.4265 18:0.3824 19:0.1029 20:0.2063 21:0.75 22:0 23:0.2632 24:13 
-0.03027667126138858 1:1 2:5 3:3 4:3 5:23 6:0.6087 7:1 8:1 9:1 10:0.1739 11:0.3043 12:0.2174 13:22 14:3 15:0.5915 16:0.2113 17:0.3099 18:0.2817 19:0.1972 20:0.1692 21:1 22:0.4667 23:0.5 24:24 
-0.07341376444792758 1:4 2:-1 3:3 4:3 5:20 6:0.55 7:0 8:5 9:3 10:0.25 11:0.05 12:0.2 13:12 14:4 15:0.6098 16:0.2195 17:0.3415 18:0.2683 19:0.1707 20:0.3143 21:1.6 22:0.2333 23:-1 24:39 
-0.002733295351776554 1:3 2:5 3:3 4:3 5:22 6:0.5909 7:2 8:1 9:1 10:0.1818 11:0.3636 12:0.2273 13:21 14:3 15:0.589 16:0.2055 17:0.3014 18:0.2877 19:0.2055 20:0.1642 21:1.25 22:0.5 23:0.4167 24:23 
-0.02262545395096783 1:2 2:5 3:-1 4:0 5:20 6:0.6 7:1 8:3 9:4 10:0.15 11:0.35 12:0.25 13:12 14:3 15:0.6078 16:0.1863 17:0.3039 18:0.3039 19:0.2059 20:0.2708 21:1.22 22:-1 23:0.193 24:8 
-0.04417716425120754 1:4 2:-1 3:3 4:3 5:27 6:0.5714 7:1 8:5 9:2 10:0.1905 11:0.3333 12:0.2381 13:21 14:3 15:0.5714 16:0.2222 17:0.3016 18:0.2698 19:0.2063 20:0.193 21:0 22:0.3684 23:0 24:28 
-0.4689367175231384 1:2 2:5 3:-1 4:0 5:22 6:0.7273 7:1 8:3 9:3 10:0.0909 11:0.4091 12:0.1818 13:15 14:3 15:0.604 16:0.1881 17:0.3069 18:0.297 19:0.2079 20:0.2632 21:0.82 22:-1 23:0.2157 24:1 
-0.05198088995246516 1:3 2:-1 3:3 4:3 5:20 6:0.6 7:1 8:5 9:2 10:0.25 11:0.2 12:0.15 13:14 14:3 15:0.6383 16:0.1915 17:0.3404 18:0.2979 19:0.1702 20:0.2683 21:5 22:0.2593 23:0 24:36 
-0.0425662034757365 1:4 2:5 3:3 4:3 5:21 6:0.5714 7:1 8:1 9:1 10:0.1905 11:0.2381 12:0.2381 13:20 14:3 15:0.5574 16:0.2295 17:0.2951 18:0.2623 19:0.2131 20:0.2 21:0.91 22:0.35 23:0.7143 24:29 
-0.01252895841110923 1:1 2:-1 3:3 4:3 5:23 6:0.5652 7:1 8:5 9:2 10:0.3043 11:0.1739 12:0.1304 13:17 14:1 15:0.5882 16:0.2157 17:0.3137 18:0.2745 19:0.1961 20:0.2444 21:2 22:0.28 23:-1 24:34 
-0.07083894514438722 1:3 2:3 3:-1 4:0 5:25 6:0.6087 7:1 8:3 9:4 10:0.1304 11:0.3043 12:0.2609 13:16 14:3 15:0.4 16:0.3625 17:0.1875 18:0.2125 19:0.2375 20:0.2877 21:1.71 22:0 23:0.2857 24:19 
-0.1165428462114791 1:2 2:3 3:-1 4:0 5:34 6:0.5833 7:1 8:9 9:4 10:0.25 11:0.2083 12:0.1667 13:18 14:1 15:0.4167 16:0.3704 17:0.2037 18:0.213 19:0.213 20:0.3069 21:0.71 22:-1 23:0.2609 24:1 
-0.5194517255636582 1:2 2:3 3:-1 4:0 5:23 6:0.6818 7:1 8:2 9:3 10:0.0909 11:0.3636 12:0.2273 13:18 14:4 15:0.449 16:0.3265 17:0.2143 18:0.2347 19:0.2245 20:0.2308 21:1.12 22:-1 23:0.3061 24:10 
-0.211118385857624 1:2 2:3 3:-1 4:0 5:23 6:0.6364 7:1 8:3 9:3 10:0.2727 11:0.3182 12:0.0909 13:16 14:3 15:0.4545 16:0.3295 17:0.2159 18:0.2386 19:0.2159 20:0.2593 21:1.71 22:0 23:0.3 24:15 
-0.3239002749539062 1:4 2:3 3:-1 4:0 5:22 6:0.619 7:1 8:2 9:3 10:0.0952 11:0.3333 12:0.2857 13:17 14:2 15:0.4444 16:0.3232 17:0.2121 18:0.2323 19:0.2323 20:0.2391 21:1 22:-1 23:0.3208 24:9 
-0.2297953194946713 1:3 2:3 3:-1 4:0 5:23 6:0.5455 7:1 8:3 9:4 10:0.2727 11:0.2727 12:0.1818 13:14 14:2 15:0.4 16:0.3625 17:0.1875 18:0.2125 19:0.2375 20:0.2877 21:1.17 22:0 23:0.25 24:19 
-0.179219378122885 1:3 2:3 3:-1 4:0 5:26 6:0.625 7:1 8:3 9:4 10:0.125 11:0.3333 12:0.25 13:17 14:3 15:0.4545 16:0.3295 17:0.2159 18:0.2386 19:0.2159 20:0.2593 21:0.42 22:0 23:0.2353 24:15 
-0.08306761037697794 1:4 2:3 3:-1 4:0 5:21 6:0.3333 7:3 8:1 9:4 10:0.1429 11:0.1905 12:0.5238 13:17 14:2 15:0.4211 16:0.25 17:0.2237 18:0.1974 19:0.3289 20:0.1875 21:1.17 22:-1 23:0.25 24:12 
-0.04706432607712022 1:1 2:-1 3:1 4:1 5:20 6:0.4 7:1 8:3 9:4 10:0.25 11:0.15 12:0.35 13:12 14:4 15:0.413 16:0.2609 17:0.2609 18:0.1522 19:0.3261 20:0.2941 21:0.5 22:0.0345 23:-1 24:28 
-0.04577583934058255 1:4 2:3 3:-1 4:0 5:21 6:0.381 7:2 8:10 9:1 10:0.1429 11:0.1905 12:0.4762 13:11 14:2 15:0.4118 16:0.2588 17:0.2235 18:0.1882 19:0.3294 20:0.2877 21:0 22:-1 23:0.2683 24:3 
-0.04495339287188938 1:4 2:-1 3:1 4:1 5:23 6:0.3913 7:2 8:4 9:4 10:0.2609 11:0.1739 12:0.3478 13:14 14:3 15:0.4 16:0.26 17:0.24 18:0.16 19:0.34 20:0.2632 21:0 22:0.04 23:-1 24:26 
-0.07250213810683673 1:4 2:-1 3:1 4:1 5:21 6:0.4762 7:1 8:4 9:4 10:0.2857 11:0.1905 12:0.2381 13:12 14:4 15:0.413 16:0.2609 17:0.2609 18:0.1522 19:0.3261 20:0.2941 21:5 22:0.0345 23:-1 24:28 
-0.05650766260236542 1:3 2:3 3:-1 4:0 5:24 6:0.4167 7:2 8:11 9:2 10:0.1667 11:0.25 12:0.4167 13:12 14:3 15:0.4186 16:0.2558 17:0.2209 18:0.1977 19:0.3256 20:0.2973 21:0 22:-1 23:0.2632 24:2 
-0.02382414641477119 1:4 2:-1 3:1 4:1 5:23 6:0.3333 7:1 8:5 9:4 10:0.25 11:0.125 12:0.4167 13:13 14:-1 15:0.3958 16:0.2708 17:0.25 18:0.1458 19:0.3333 20:0.2778 21:0 22:0.037 23:-1 24:27 
-0.008921138214043656 1:1 2:3 3:-1 4:0 5:20 6:0.4 7:3 8:6 9:2 10:0.15 11:0.25 12:0.45 13:13 14:1 15:0.4198 16:0.2593 17:0.2222 18:0.1975 19:0.321 20:0.2464 21:0 22:-1 23:0.2778 24:7 
-0.03400932567556117 1:3 2:3 3:-1 4:0 5:21 6:0.381 7:3 8:3 9:3 10:0.0952 11:0.2381 12:0.5238 13:16 14:4 15:0.4359 16:0.2436 17:0.2308 18:0.2051 19:0.3205 20:0.2121 21:0.33 22:-1 23:0.2857 24:10 
-0.02392814774024058 1:4 2:3 3:-1 4:0 5:22 6:0.3636 7:3 8:7 9:2 10:0.1364 11:0.2273 12:0.5 13:14 14:4 15:0.4146 16:0.2561 17:0.2195 18:0.1951 19:0.3293 20:0.2571 21:0 22:-1 23:0.2941 24:6 
-0.1125419681259725 1:4 2:3 3:1 4:2 5:24 6:0.625 7:1 8:6 9:3 10:0.125 11:0.2917 12:0.25 13:16 14:3 15:0.6557 16:0.1639 17:0.3279 18:0.3279 19:0.1803 20:0.2281 21:0.56 22:0.0732 23:0.2 24:25 
-0.01414006600370798 1:3 2:3 3:1 4:2 5:28 6:0.6364 7:2 8:6 9:3 10:0.2273 11:0.3182 12:0.1364 13:20 14:2 15:0.6812 16:0.1449 17:0.3333 18:0.3478 19:0.1739 20:0.2 21:2.2 22:0.0909 23:0.2 24:21 
-0.0286573896904579 1:3 2:3 3:1 4:2 5:20 6:0.7 7:1 8:6 9:3 10:0.15 11:0.35 12:0.15 13:12 14:1 15:0.7018 16:0.1404 17:0.3509 18:0.3509 19:0.1579 20:0.2453 21:0 22:0.0667 23:0.1579 24:27 
-0.01224819807328558 1:2 2:-1 3:1 4:3 5:22 6:0.6818 7:2 8:6 9:3 10:0.1364 11:0.2727 12:0.1818 13:12 14:3 15:0.7045 16:0.1364 17:0.3636 18:0.3409 19:0.1591 20:0.3 21:0.25 22:0.069 23:0 24:34 
-0.6807779550271668 1:2 2:6 3:1 4:1 5:22 6:0.6818 7:1 8:1 9:3 10:0.0909 11:0.3636 12:0.2273 13:19 14:1 15:0.6506 16:0.1566 17:0.3253 18:0.3253 19:0.1928 20:0.1899 21:0.6 22:0.0526 23:0.2973 24:14 
-0.07008112720589413 1:1 2:-1 3:1 4:2 5:31 6:0.6522 7:2 8:6 9:5 10:0.1739 11:0.3913 12:0.1739 13:19 14:-1 15:0.6909 16:0.1455 17:0.3455 18:0.3455 19:0.1636 20:0.2549 21:1.25 22:0.0638 23:-1 24:28 
-0.01708609412668281 1:2 2:3 3:1 4:2 5:20 6:0.7 7:1 8:6 9:3 10:0.15 11:0.25 12:0.15 13:12 14:2 15:0.6939 16:0.1429 17:0.3469 18:0.3469 19:0.1633 20:0.2889 21:1.38 22:0.0566 23:0.2727 24:31 
-0.5528594104735778 1:1 2:6 3:1 4:1 5:26 6:0.5 7:1 8:1 9:3 10:0.2917 11:0.25 12:0.2083 13:23 14:3 15:0.6207 16:0.1724 17:0.3103 18:0.3103 19:0.2069 20:0.1807 21:0.91 22:0.0667 23:0.3333 24:12 
-0.02995460809382815 1:1 2:-1 3:2 4:2 5:28 6:0.8182 7:0 8:3 9:6 10:0.0909 11:0.5 12:0.0909 13:19 14:1 15:0.75 16:0.1538 17:0.4038 18:0.3462 19:0.0962 20:0.2245 21:1.11 22:0.1429 23:-1 24:32 
-0.02409729222951034 1:2 2:3 3:2 4:2 5:23 6:0.6522 7:0 8:2 9:3 10:0.1739 11:0.2174 12:0.1739 13:19 14:4 15:0.7206 16:0.1618 17:0.3824 18:0.3382 19:0.1176 20:0.1692 21:0.55 22:0.2632 23:0.3043 24:24 
-0.4917618092658628 1:1 2:2 3:2 4:2 5:22 6:0.6364 7:0 8:2 9:4 10:0.1818 11:0.2273 12:0.1818 13:17 14:4 15:0.7258 16:0.1613 17:0.3871 18:0.3387 19:0.1129 20:0.1864 21:0.6 22:0.2 23:0.3 24:27 
-0.2003011701008273 1:1 2:1 3:2 4:2 5:25 6:0.7 7:0 8:3 9:5 10:0.2 11:0.4 12:0.1 13:17 14:3 15:0.7069 16:0.1724 17:0.3793 18:0.3276 19:0.1207 20:0.2 21:1 22:0.1724 23:0.1667 24:29 
-0.04167983236163152 1:2 2:1 3:2 4:2 5:28 6:0.7391 7:0 8:3 9:5 10:0.1739 11:0.3913 12:0.087 13:20 14:3 15:0.7258 16:0.1613 17:0.3871 18:0.3387 19:0.1129 20:0.1864 21:1.11 22:0.2 23:0.2 24:27 
-0.00600922799009315 1:3 2:1 3:2 4:2 5:26 6:0.7143 7:0 8:3 9:5 10:0.1905 11:0.4286 12:0.0952 13:18 14:3 15:0.7167 16:0.1667 17:0.3833 18:0.3333 19:0.1167 20:0.193 21:1.11 22:0.1852 23:0.1667 24:28 
-0.0179701261064567 1:4 2:-1 3:1 4:2 5:20 6:0.35 7:0 8:2 9:3 10:0.35 11:0.35 12:0.3 13:15 14:4 15:0.3171 16:0.3659 17:0.1463 18:0.1707 19:0.3171 20:0.1429 21:2.5 22:0.0625 23:-1 24:36 
-0.0009386123442954545 1:4 2:-1 3:1 4:2 5:25 6:0.4583 7:0 8:2 9:2 10:0.3333 11:0 12:0.2083 13:22 14:2 15:0.3651 16:0.3333 17:0.1746 18:0.1905 19:0.3016 20:0.0877 21:1.11 22:0.0952 23:0 24:25 
-0.1724599844630621 1:2 2:2 3:1 4:2 5:21 6:0.4762 7:1 8:-1 9:0 10:0.2857 11:0.1429 12:0.2381 13:21 14:2 15:0.3636 16:0.3247 17:0.1688 18:0.1948 19:0.3117 20:0.0704 21:1.22 22:0.1429 23:0.1724 24:18 
-0.001335004598170916 1:2 2:2 3:1 4:1 5:24 6:0.5 7:1 8:1 9:1 10:0.2917 11:0.2083 12:0.2083 13:23 14:2 15:0.3735 16:0.3253 17:0.1687 18:0.2048 19:0.3012 20:0.0909 21:1.57 22:0.0909 23:0.1724 24:15 
-0.7575187022551211 1:4 2:2 3:-1 4:0 5:23 6:0.4783 7:1 8:2 9:3 10:0.2609 11:0.1739 12:0.2609 13:19 14:4 15:0.4299 16:0.2991 17:0.2056 18:0.2243 19:0.271 20:0.1089 21:0.5 22:-1 23:0.0877 24:2 
-0.1635418737325721 1:4 2:2 3:-1 4:0 5:23 6:0.5238 7:1 8:3 9:3 10:0.2857 11:0.3333 12:0.1905 13:18 14:1 15:0.4312 16:0.3028 17:0.2018 18:0.2294 19:0.2661 20:0.1262 21:1.12 22:-1 23:0.0847 24:1 
-0.06441363202845209 1:4 2:-1 3:1 4:2 5:22 6:0.3182 7:0 8:2 9:3 10:0.3182 11:0 12:0.3636 13:17 14:-1 15:0.3333 16:0.3556 17:0.1556 18:0.1778 19:0.3111 20:0.1282 21:0.4 22:0.0667 23:-1 24:34 
-0.2282620485553971 1:2 2:2 3:3 4:2 5:21 6:0.4762 7:0 8:2 9:2 10:0.2857 11:0.1905 12:0.2381 13:18 14:4 15:0.4557 16:0.2911 17:0.2278 18:0.2278 19:0.2532 20:0.1935 21:0.67 22:0.3077 23:0.3636 24:17 
-0.2003582094923863 1:1 2:1 3:3 4:2 5:24 6:0.4167 7:1 8:2 9:4 10:0.3333 11:0.0417 12:0.25 13:18 14:2 15:0.4478 16:0.2985 17:0.2239 18:0.2239 19:0.2537 20:0.24 21:0.89 22:0.2105 23:0.5 24:23 
-0.1394467041477056 1:2 2:1 3:3 4:2 5:24 6:0.5417 7:0 8:2 9:3 10:0.2083 11:0.3333 12:0.25 13:19 14:1 15:0.4557 16:0.2911 17:0.2278 18:0.2278 19:0.2532 20:0.1935 21:1.8 22:0.3077 23:0.25 24:17 
-0.1675559493725792 1:1 2:1 3:3 4:2 5:22 6:0.5455 7:0 8:2 9:3 10:0.2273 11:0.3636 12:0.2273 13:17 14:1 15:0.4416 16:0.2987 17:0.2208 18:0.2208 19:0.2597 20:0.2 21:3 22:0.2857 23:0.2222 24:18 
-0.1724462316015523 1:4 2:1 3:2 4:2 5:24 6:0.4583 7:0 8:2 9:4 10:0.2917 11:0.2083 12:0.25 13:19 14:2 15:0.4458 16:0.3012 17:0.2169 18:0.2289 19:0.253 20:0.2121 21:0.86 22:0.2727 23:0.3 24:15 
-0.01478801914106241 1:2 2:-1 3:3 4:2 5:23 6:0.4783 7:1 8:2 9:5 10:0.3478 11:0 12:0.1739 13:16 14:1 15:0.459 16:0.2951 17:0.2295 18:0.2295 19:0.2459 20:0.2727 21:0.8 22:0.1818 23:-1 24:26 
-0.03730833527772494 1:2 2:1 3:3 4:2 5:20 6:0.6 7:0 8:2 9:3 10:0.15 11:0.4 12:0.25 13:15 14:1 15:0.4789 16:0.2817 17:0.2394 18:0.2394 19:0.2394 20:0.2222 21:2.2 22:0.2353 23:0.25 24:21 
-0.01186934315326163 1:1 2:1 3:3 4:2 5:20 6:0.55 7:1 8:2 9:3 10:0.15 11:0.45 12:0.3 13:15 14:2 15:0.4478 16:0.2985 17:0.2239 18:0.2239 19:0.2537 20:0.24 21:1.5 22:0.2105 23:0.3333 24:23 
-0.03738928881498717 1:1 2:1 3:3 4:2 5:20 6:0.45 7:0 8:2 9:3 10:0.3 11:0.15 12:0.25 13:15 14:4 15:0.4789 16:0.2817 17:0.2394 18:0.2394 19:0.2394 20:0.2222 21:0.45 22:0.2353 23:0.25 24:21 
-0.1662739960680984 1:1 2:1 3:3 4:2 5:24 6:0.5 7:0 8:2 9:3 10:0.2083 11:0.3333 12:0.2917 13:19 14:4 15:0.4416 16:0.2987 17:0.2208 18:0.2208 19:0.2597 20:0.2 21:2.25 22:0.2857 23:0.2857 24:18 
-0.04671165810369488 1:4 2:-1 3:1 4:1 5:25 6:0.4091 7:0 8:8 9:3 10:0.3182 11:0 12:0.2727 13:12 14:4 15:0.4167 16:0.2917 17:0.2083 18:0.2083 19:0.2917 20:0.2258 21:0 22:0.04 23:-1 24:34 
-0.04682296777535044 1:1 2:1 3:1 4:1 5:24 6:0.4762 7:0 8:4 9:2 10:0.3333 11:0.0476 12:0.1905 13:19 14:2 15:0.4062 16:0.2969 17:0.2031 18:0.2031 19:0.2969 20:0.1489 21:0.89 22:0.0588 23:0.5 24:26 
-0.04128475630732651 1:4 2:-1 3:1 4:1 5:26 6:0.45 7:0 8:8 9:3 10:0.2 11:0.45 12:0.35 13:13 14:4 15:0.4 16:0.3 17:0.2 18:0.2 19:0.3 20:0.2121 21:3 22:0.0417 23:-1 24:33 
-1 1:1 2:4 3:-1 4:0 5:23 6:0.4783 7:1 8:3 9:2 10:0.3043 11:0.1739 12:0.2174 13:19 14:1 15:0.4455 16:0.2772 17:0.2079 18:0.2376 19:0.2772 20:0.1429 21:0.3 22:-1 23:0.2093 24:6 
-0.005229045218844228 1:3 2:4 3:-1 4:0 5:21 6:0.4762 7:1 8:8 9:2 10:0.2381 11:0.2857 12:0.2857 13:12 14:4 15:0.4434 16:0.2736 17:0.1981 18:0.2453 19:0.283 20:0.191 21:0 22:-1 23:0.1579 24:1 
-0.04126496051404878 1:1 2:1 3:2 4:4 5:20 6:0.4 7:3 8:2 9:1 10:0.3 11:0 12:0.3 13:18 14:3 15:0.4468 16:0.2128 17:0.1915 18:0.2553 19:0.3404 20:0.0952 21:1.6 22:0.2 23:0.5 24:37 
-0.0461172639872246 1:2 2:-1 3:2 4:5 5:21 6:0.4286 7:3 8:1 9:2 10:0.3333 11:0 12:0.2381 13:19 14:3 15:0.4444 16:0.2222 17:0.2 18:0.2444 19:0.3333 20:0.05 21:0.75 22:0.2308 23:-1 24:38 
-0.00247835536526457 1:2 2:1 3:1 4:2 5:23 6:0.5217 7:1 8:2 9:3 10:0.087 11:0.4348 12:0.3913 13:18 14:4 15:0.4507 16:0.2254 17:0.1972 18:0.2535 19:0.3239 20:0.1515 21:0.8 22:0.1538 23:0.0909 24:25 
-0.6382700684741912 1:3 2:2 3:-1 4:0 5:21 6:0.3333 7:0 8:2 9:4 10:0.2857 11:0.0952 12:0.381 13:16 14:2 15:0.4021 16:0.2577 17:0.1856 18:0.2165 19:0.3402 20:0.1522 21:2.25 22:-1 23:0.1154 24:1 
-0.01434063517645367 1:3 2:1 3:2 4:4 5:20 6:0.65 7:3 8:2 9:1 10:0 11:0.65 12:0.35 13:18 14:4 15:0.4545 16:0.2182 17:0.2 18:0.2545 19:0.3273 20:0.08 21:1 22:0.2381 23:0.1667 24:33 
-0.01202275200736635 1:1 2:1 3:2 4:4 5:22 6:0.4091 7:3 8:2 9:1 10:0.3182 11:0 12:0.2727 13:20 14:3 15:0.434 16:0.2264 17:0.1887 18:0.2453 19:0.3396 20:0.0833 21:1.29 22:0.2273 23:0.3333 24:34 
-0.05376870176298865 1:3 2:-1 3:2 4:4 5:24 6:0.5417 7:3 8:2 9:2 10:0.125 11:0.5417 12:0.3333 13:20 14:4 15:0.4694 16:0.2041 17:0.2041 18:0.2653 19:0.3265 20:0.0909 21:1.5 22:0.2083 23:-1 24:36 
-0.0855559157926457 1:4 2:1 3:1 4:1 5:22 6:0.2727 7:1 8:2 9:1 10:0.3182 11:0.0909 12:0.4091 13:20 14:2 15:0.36 16:0.32 17:0.12 18:0.24 19:0.32 20:0.0833 21:0.6 22:0.0714 23:0.3333 24:17 
-0.05649354358740051 1:1 2:1 3:1 4:1 5:22 6:0.3636 7:1 8:2 9:1 10:0.3636 11:0.3182 12:0.2727 13:20 14:1 15:0.3506 16:0.3247 17:0.1169 18:0.2338 19:0.3247 20:0.08 21:1.12 22:0.0769 23:0.25 24:16 
-0.2418348274392107 1:2 2:1 3:1 4:1 5:20 6:0.45 7:0 8:2 9:1 10:0.3 11:0.3 12:0.25 13:18 14:1 15:0.3768 16:0.3188 17:0.1304 18:0.2464 19:0.3043 20:0.0952 21:2 22:0.0588 23:0.5 24:20 
-0.3968822568183756 1:1 2:1 3:1 4:1 5:24 6:0.25 7:1 8:2 9:1 10:0.3333 11:0.0833 12:0.4167 13:22 14:2 15:0.3418 16:0.3291 17:0.1139 18:0.2278 19:0.3291 20:0.0769 21:0.8 22:0.0833 23:0.3333 24:15 
-0.5669506925471407 1:4 2:1 3:1 4:1 5:21 6:0.2381 7:1 8:2 9:1 10:0.3333 11:0.0476 12:0.4286 13:19 14:2 15:0.36 16:0.32 17:0.12 18:0.24 19:0.32 20:0.0833 21:0.67 22:0.0714 23:0.25 24:17 
-0.4710433036074536 1:3 2:1 3:-1 4:0 5:20 6:0.55 7:1 8:2 9:3 10:0.3 11:0.2 12:0.15 13:16 14:3 15:0.4038 16:0.3077 17:0.1635 18:0.2404 19:0.2885 20:0.0909 21:0.5 22:-1 23:0.05 24:2 
-0.4159024742068776 1:4 2:1 3:1 4:1 5:20 6:0.4 7:1 8:2 9:1 10:0.25 11:0.35 12:0.35 13:18 14:3 15:0.358 16:0.321 17:0.1235 18:0.2346 19:0.321 20:0.0741 21:1 22:0.0909 23:0.125 24:14 
-0.04812315267582218 1:1 2:-1 3:2 4:2 5:24 6:0.2917 7:1 8:8 9:1 10:0.4167 11:0.125 12:0.2917 13:16 14:1 15:0.3729 16:0.322 17:0.1356 18:0.2373 19:0.3051 20:0 21:0 22:0.1364 23:-1 24:25 
-0.08111971110499323 1:4 2:-1 3:2 4:2 5:24 6:0.25 7:1 8:12 9:1 10:0.375 11:0.0833 12:0.375 13:12 14:2 15:0.3529 16:0.3333 17:0.1176 18:0.2353 19:0.3137 20:0 21:0 22:0.1154 23:-1 24:29 
-0.02467557539956474 1:4 2:-1 3:1 4:2 5:21 6:0.45 7:1 8:3 9:3 10:0.25 11:0.35 12:0.3 13:14 14:4 15:0.5581 16:0.2093 17:0.3023 18:0.2558 19:0.2326 20:0.2432 21:0.5 22:0.0769 23:-1 24:38 
-0.04576826166407246 1:2 2:-1 3:-1 4:0 5:26 6:0.4583 7:1 8:4 9:3 10:0.3333 11:0.25 12:0.2083 13:19 14:4 15:0.4464 16:0.2321 17:0.1786 18:0.2679 19:0.3214 20:0.24 21:0.73 22:0 23:-1 24:28 
-0.2591006922544722 1:3 2:4 3:-1 4:0 5:21 6:0.5238 7:2 8:1 9:1 10:0.3333 11:0.3333 12:0.1429 13:20 14:4 15:0.4444 16:0.2361 17:0.1806 18:0.2639 19:0.3194 20:0.1818 21:0.78 22:0 23:0.4167 24:20 
-0.060843846512377 1:4 2:4 3:-1 4:0 5:22 6:0.5 7:2 8:2 9:1 10:0.3636 11:0.3182 12:0.1364 13:20 14:1 15:0.4706 16:0.2206 17:0.1912 18:0.2794 19:0.3088 20:0.1935 21:0.36 22:0 23:0.4444 24:22 
-0.06577862486330176 1:2 2:-1 3:-1 4:0 5:23 6:0.4286 7:1 8:4 9:3 10:0.3333 11:0.2857 12:0.2381 13:16 14:4 15:0.4464 16:0.2321 17:0.1786 18:0.2679 19:0.3214 20:0.24 21:0.36 22:0 23:0 24:28 
-0.04368772841526809 1:4 2:4 3:-1 4:0 5:20 6:0.35 7:2 8:2 9:2 10:0.2 11:0.2 12:0.45 13:17 14:1 15:0.4333 16:0.2333 17:0.1667 18:0.2667 19:0.3333 20:0.2222 21:1.5 22:0 23:0.4286 24:26 
-0.2356785104986612 1:4 2:4 3:-1 4:0 5:23 6:0.381 7:2 8:2 9:1 10:0.1429 11:0.1905 12:0.4762 13:21 14:3 15:0.4324 16:0.2432 17:0.1757 18:0.2568 19:0.3243 20:0.1765 21:2.25 22:0 23:0.3636 24:19 
-0.1339890533706279 1:4 2:4 3:-1 4:0 5:24 6:0.5 7:2 8:2 9:1 10:0.3333 11:0.2917 12:0.1667 13:22 14:4 15:0.4474 16:0.2368 17:0.1842 18:0.2632 19:0.3158 20:0.1714 21:0.44 22:0 23:0.3636 24:18 
-0.06128847300826205 1:4 2:4 3:-1 4:0 5:22 6:0.3636 7:0 8:8 9:1 10:0.3636 11:0.0909 12:0.2727 13:14 14:1 15:0.4057 16:0.283 17:0.1981 18:0.2075 19:0.3113 20:0.24 21:0 22:-1 23:0.2 24:1 
-0.03416745217519536 1:2 2:1 3:1 4:1 5:31 6:0.4783 7:0 8:7 9:4 10:0.2174 11:0.3043 12:0.3043 13:19 14:3 15:0.52 16:0.1867 17:0.24 18:0.28 19:0.2933 20:0.2647 21:2.2 22:0.0667 23:0.25 24:17 
-0.02326154821057195 1:4 2:1 3:1 4:1 5:30 6:0.5455 7:1 8:7 9:5 10:0.1364 11:0.3182 12:0.3182 13:17 14:3 15:0.5082 16:0.1803 17:0.2295 18:0.2787 19:0.3115 20:0.3333 21:0.88 22:0.0455 23:0.5 24:24 
-0.008831070595360219 1:2 2:2 3:1 4:1 5:21 6:0.5714 7:0 8:6 9:2 10:0.1429 11:0.2381 12:0.2857 13:13 14:4 15:0.52 16:0.1867 17:0.24 18:0.28 19:0.2933 20:0.2647 21:0 22:0.0667 23:0.2941 24:17 
-0.05875198065395405 1:3 2:-1 3:1 4:1 5:31 6:0.5217 7:2 8:7 9:6 10:0.1739 11:0.3478 12:0.3043 13:15 14:2 15:0.5273 16:0.1636 17:0.2364 18:0.2909 19:0.3091 20:0.375 21:2.5 22:0.04 23:-1 24:27 
-0.02997422128806422 1:1 2:2 3:1 4:1 5:29 6:0.4091 7:0 8:7 9:2 10:0.3182 11:0.2273 12:0.2727 13:20 14:4 15:0.4699 16:0.2169 17:0.2169 18:0.253 19:0.3133 20:0.2368 21:0.8 22:0.0909 23:0.3333 24:13 
-0.05427911046254305 1:1 2:1 3:2 4:2 5:24 6:0.5 7:1 8:7 9:4 10:0.2083 11:0.2083 12:0.2917 13:13 14:4 15:0.5294 16:0.1765 17:0.2549 18:0.2745 19:0.2941 20:0.3182 21:1 22:0.1111 23:0.3333 24:29 
-0.2095643510853618 1:1 2:2 3:1 4:1 5:27 6:0.4 7:0 8:7 9:2 10:0.3 11:0.25 12:0.3 13:18 14:3 15:0.4815 16:0.2099 17:0.2222 18:0.2593 19:0.3086 20:0.2432 21:0.9 22:0.0833 23:0.3103 24:14 
-0.1029507075353296 1:3 2:1 3:1 4:1 5:24 6:0.5417 7:0 8:7 9:4 10:0.1667 11:0.25 12:0.2917 13:12 14:4 15:0.5254 16:0.1695 17:0.2373 18:0.2881 19:0.3051 20:0.3462 21:1 22:0.0435 23:0.2857 24:25 
-0.03297259180401732 1:1 2:1 3:1 4:1 5:29 6:0.4762 7:1 8:7 9:4 10:0.1905 11:0.3333 12:0.3333 13:17 14:3 15:0.4925 16:0.194 17:0.2239 18:0.2687 19:0.3134 20:0.3 21:1.8 22:0.0526 23:0.3333 24:21 
-0.01832833238863484 1:1 2:2 3:1 4:1 5:30 6:0.3913 7:0 8:7 9:2 10:0.3478 11:0.2174 12:0.2609 13:21 14:2 15:0.4699 16:0.2169 17:0.2169 18:0.253 19:0.3133 20:0.2368 21:0.8 22:0.0909 23:0.36 24:13 
-0.04955277016088024 1:2 2:1 3:1 4:1 5:28 6:0.55 7:1 8:7 9:5 10:0.15 11:0.3 12:0.3 13:15 14:2 15:0.5254 16:0.1695 17:0.2373 18:0.2881 19:0.3051 20:0.3462 21:0.71 22:0.0435 23:0.3333 24:25 
-0.04674983176340743 1:3 2:1 3:2 4:2 5:20 6:0.55 7:1 8:7 9:3 10:0.15 11:0.25 12:0.3 13:10 14:3 15:0.5319 16:0.1702 17:0.2553 18:0.2766 19:0.2979 20:0.35 21:4 22:0.1034 23:0.4 24:31 
