svm_type c_svc
kernel_type rbf
gamma 0.0434783
nr_class 2
total_sv 6
rho 0.281717
label 1 0
probA 0.774146
probB 1.2114
nr_sv 2 4
SV
1 1:-1 2:0 3:1 4:20 5:0.45 6:2 7:2 8:0.1 9:0.25 10:0.2 11:0.45 12:13 13:0.15 14:3 15:0.5185 16:54 17:0.1667 18:0.2593 19:0.2593 20:0.3148 21:0.1429 22:1.5 23:0 
1 1:-1 2:0 3:2 4:22 5:0.5909 6:2 7:2 8:0.2273 9:0.2727 10:0.3182 11:0.1818 12:48 13:0.1364 14:4 15:0.5167 16:60 17:0.1667 18:0.25 19:0.2667 20:0.3167 21:0.125 22:0.56 23:0 
-0.5419486591354924 1:2 2:1 3:13 4:20 5:0.5 6:6 7:2 8:0.15 9:0.35 10:0.15 11:0.35 12:1 13:0.35 14:3 15:0.5385 16:78 17:0.1795 18:0.2821 19:0.2564 20:0.2821 21:0.2727 22:0 23:0.1538 
-0.3838418526370707 1:2 2:1 3:10 4:21 5:0.5238 6:4 7:2 8:0.1429 9:0.2857 10:0.2381 11:0.3333 12:3 13:0.2381 14:3 15:0.527 16:74 17:0.1892 18:0.2703 19:0.2568 20:0.2838 21:0.2258 22:0 23:0.2 
-0.7180763203323013 1:-1 2:0 3:0 4:22 5:0.6364 6:5 7:3 8:0.1364 9:0.3182 10:0.3182 11:0.2273 12:41 13:0.3636 14:4 15:0.5652 16:46 17:0.1304 18:0.2826 19:0.2826 20:0.3043 21:0.1765 22:0 23:-1 
-0.3561331678951357 1:2 2:1 3:9 4:23 5:0.5217 6:5 7:2 8:0.1304 9:0.3043 10:0.2174 11:0.3478 12:2 13:0.2609 14:4 15:0.5263 16:76 17:0.1842 18:0.2763 19:0.25 20:0.2895 21:0.25 22:0 23:0.2222 
