svm_type c_svc
kernel_type rbf
gamma 0.0416667
nr_class 2
total_sv 160
rho 0.879867
label 1 0
probA -4.0012
probB -0.589945
nr_sv 35 125
SV
0.4225820280069509 1:4 2:2 3:1 4:1 5:22 6:0.4091 7:0 8:2 9:2 10:0.2727 11:0.0455 12:0.3182 13:19 14:2 15:0.4217 16:0.2289 17:0.1807 18:0.241 19:0.3494 20:0.1781 21:0.5 22:0.0667 23:0.2667 24:12 
1 1:3 2:4 3:2 4:1 5:21 6:0.7619 7:1 8:1 9:1 10:0 11:0.4762 12:0.2381 13:20 14:4 15:0.6812 16:0.1449 17:0.3623 18:0.3188 19:0.1739 20:0.1692 21:0.75 22:0.2 23:0.3913 24:22 
1 1:4 2:2 3:2 4:2 5:23 6:0.5714 7:2 8:2 9:3 10:0.2857 11:0.3333 12:0.1429 13:19 14:1 15:0.493 16:0.2113 17:0.2535 18:0.2394 19:0.2958 20:0.1471 21:1 22:0.3 23:0.2308 24:15 
1 1:4 2:8 3:1 4:1 5:22 6:0.4545 7:2 8:3 9:1 10:0.2273 11:0.2273 12:0.3182 13:19 14:3 15:0.4432 16:0.2614 17:0.2159 18:0.2273 19:0.2955 20:0.3095 21:0.82 22:0.1111 23:0.5122 24:16 
1 1:2 2:1 3:-1 4:0 5:21 6:0.4286 7:0 8:1 9:2 10:0.381 11:0.0952 12:0.1905 13:19 14:4 15:0.475 16:0.275 17:0.25 18:0.225 19:0.25 20:0.1169 21:1 22:0 23:0.1892 24:5 
1 1:4 2:1 3:-1 4:0 5:20 6:0.4 7:0 8:1 9:2 10:0.2 11:0.3 12:0.4 13:18 14:1 15:0.4878 16:0.2683 17:0.2561 18:0.2317 19:0.2439 20:0.1139 21:1 22:0 23:0.1707 24:4 
1 1:4 2:2 3:2 4:3 5:21 6:0.5714 7:0 8:2 9:2 10:0.0476 11:0.3333 12:0.381 13:17 14:3 15:0.5696 16:0.2025 17:0.2532 18:0.3165 19:0.2278 20:0.2 21:0.82 22:0.2632 23:0.2121 24:13 
1 1:2 2:3 3:2 4:2 5:22 6:0.4762 7:1 8:1 9:1 10:0.4762 11:0.2857 12:0.0476 13:21 14:2 15:0.5 16:0.2353 17:0.2647 18:0.2353 19:0.2647 20:0.1 21:1 22:0.3 23:0.2941 24:17 
0.2321797364730437 1:3 2:3 3:2 4:2 5:21 6:0.4762 7:1 8:-1 9:0 10:0 11:0.1905 12:0.5238 13:21 14:1 15:0.5 16:0.2361 17:0.2639 18:0.2361 19:0.2639 20:0.0938 21:1.1 22:0.375 23:0.2727 24:15 
1 1:4 2:1 3:-1 4:0 5:24 6:0.5714 7:0 8:3 9:2 10:0.1905 11:0.4286 12:0.2381 13:19 14:4 15:0.55 16:0.1667 17:0.3 18:0.25 19:0.2833 20:0.1481 21:1 22:0 23:0.1111 24:21 
0.22415584534023 1:4 2:4 3:3 4:1 5:21 6:0.4286 7:0 8:2 9:2 10:0.1905 11:0.0952 12:0.381 13:18 14:1 15:0.5122 16:0.2073 17:0.2805 18:0.2317 19:0.2805 20:0.2308 21:0.7 22:0.3333 23:0.3333 24:15 
1 1:2 2:1 3:-1 4:0 5:21 6:0.4762 7:2 8:1 9:1 10:0.1429 11:0.1905 12:0.381 13:20 14:1 15:0.4691 16:0.2593 17:0.2222 18:0.2469 19:0.2716 20:0.0526 21:1.38 22:0 23:0.1111 24:11 
0.8330294328519831 1:4 2:1 3:3 4:3 5:21 6:0.381 7:0 8:1 9:2 10:0.2381 11:0.2857 12:0.381 13:19 14:1 15:0.4545 16:0.2597 17:0.2338 18:0.2208 19:0.2857 20:0.1081 21:1.12 22:0.3043 23:0.1765 24:15 
1 1:4 2:3 3:-1 4:0 5:22 6:0.5909 7:0 8:2 9:2 10:0.2727 11:0.1818 12:0.1364 13:19 14:3 15:0.5222 16:0.2222 17:0.3 18:0.2222 19:0.2556 20:0.1852 21:1 22:0 23:0.3 24:4 
1 1:3 2:4 3:-1 4:0 5:21 6:0.4762 7:0 8:2 9:1 10:0.2857 11:0.2381 12:0.2381 13:19 14:4 15:0.5205 16:0.274 17:0.274 18:0.2466 19:0.2055 20:0.1884 21:1.1 22:0 23:0.3333 24:14 
0.6944372068365511 1:4 2:4 3:-1 4:0 5:21 6:0.4286 7:0 8:2 9:1 10:0.2857 11:0.2381 12:0.2857 13:19 14:2 15:0.5063 16:0.2785 17:0.2658 18:0.2405 19:0.2152 20:0.1733 21:0.9 22:-1 23:0.2727 24:11 
1 1:1 2:4 3:3 4:2 5:21 6:0.5238 7:2 8:1 9:1 10:0.2857 11:0.2381 12:0.1905 13:20 14:2 15:0.4667 16:0.24 17:0.1867 18:0.28 19:0.2933 20:0.1831 21:1 22:0.2727 23:0.3793 24:19 
1 1:4 2:3 3:-1 4:0 5:21 6:0.2857 7:0 8:1 9:2 10:0.2857 11:0.2857 12:0.4286 13:19 14:1 15:0.3608 16:0.3402 17:0.1237 18:0.2371 19:0.299 20:0.2308 21:1 22:-1 23:0.3469 24:9 
1 1:4 2:12 3:1 4:1 5:21 6:0.5238 7:1 8:-1 9:0 10:0.3333 11:0.2381 12:0.1429 13:21 14:3 15:0.5227 16:0.25 17:0.2955 18:0.2273 19:0.2273 20:0.2289 21:0.83 22:0.3333 23:0.4884 24:5 
1 1:4 2:1 3:2 4:3 5:21 6:0.381 7:2 8:1 9:1 10:0.2381 11:0.3333 12:0.381 13:20 14:1 15:0.3038 16:0.3165 17:0.1266 18:0.1772 19:0.3797 20:0.0811 21:1.29 22:0.25 23:0.1765 24:21 
1 1:3 2:-1 3:-1 4:0 5:21 6:0.619 7:1 8:1 9:2 10:0.2381 11:0.4762 12:0.1429 13:19 14:3 15:0.65 16:0.1375 17:0.3125 18:0.3375 19:0.2125 20:0.0571 21:0.8 22:0 23:0 24:13 
1 1:1 2:1 3:2 4:1 5:21 6:0.4286 7:1 8:-1 9:0 10:0.1429 11:0.1905 12:0.4286 13:21 14:3 15:0.4795 16:0.274 17:0.2192 18:0.2603 19:0.2466 20:0.0571 21:0.82 22:0.3333 23:0.2 24:14 
1 1:1 2:1 3:-1 4:0 5:22 6:0.3333 7:1 8:2 9:1 10:0.4762 11:0.1905 12:0.1905 13:20 14:1 15:0.5 16:0.2692 17:0.2179 18:0.2821 19:0.2308 20:0.0933 21:1.25 22:0 23:0.1765 24:11 
1 1:1 2:-1 3:-1 4:0 5:21 6:0.4286 7:0 8:1 9:1 10:0.4762 11:0.2857 12:0.0952 13:20 14:2 15:0.4595 16:0.2568 17:0.2297 18:0.2162 19:0.2838 20:0.0357 21:0.64 22:0 23:0 24:21 
0.9091744543321393 1:4 2:-1 3:1 4:1 5:21 6:0.5714 7:1 8:-1 9:0 10:0.1429 11:0.381 12:0.2857 13:21 14:3 15:0.5238 16:0.2262 17:0.25 18:0.2738 19:0.25 20:0 21:1 22:0.1667 23:0 24:11 
1 1:4 2:-1 3:1 4:1 5:21 6:0.5238 7:1 8:-1 9:0 10:0.2857 11:0.1905 12:0.1905 13:21 14:4 15:0.5238 16:0.2262 17:0.25 18:0.2738 19:0.25 20:0 21:1 22:0.1667 23:0 24:11 
1 1:2 2:3 3:1 4:1 5:23 6:0.55 7:0 8:1 9:3 10:0.4 11:0.35 12:0.05 13:20 14:3 15:0.5926 16:0.1975 17:0.284 18:0.3086 19:0.2099 20:0.1842 21:1.38 22:0.0909 23:0.3529 24:13 
0.9794240085177156 1:2 2:3 3:4 4:1 5:22 6:0.4762 7:0 8:1 9:2 10:0.4286 11:0.2857 12:0.0952 13:20 14:2 15:0.4945 16:0.2418 17:0.2527 18:0.2418 19:0.2637 20:0.2273 21:0.64 22:0.4 23:0.4043 24:12 
1 1:4 2:3 3:-1 4:0 5:21 6:0.4286 7:0 8:2 9:2 10:0.4762 11:0.2857 12:0.0952 13:18 14:2 15:0.4634 16:0.1951 17:0.2317 18:0.2317 19:0.3415 20:0.2329 21:0.64 22:0 23:0.3939 24:11 
1 1:4 2:2 3:2 4:2 5:22 6:0.5238 7:1 8:2 9:3 10:0.381 11:0.3333 12:0.0952 13:18 14:4 15:0.525 16:0.2125 17:0.2625 18:0.2625 19:0.2625 20:0.2105 21:0.45 22:0.3333 23:0.2727 24:14 
0.8321845338171014 1:4 2:2 3:-1 4:0 5:21 6:0.619 7:1 8:1 9:2 10:0.0952 11:0.2381 12:0.2857 13:19 14:3 15:0.5714 16:0.1905 17:0.2619 18:0.3095 19:0.2381 20:0.1316 21:0.73 22:0 23:0.1765 24:13 
1 1:4 2:2 3:-1 4:0 5:21 6:0.619 7:3 8:1 9:1 10:0.0952 11:0.2381 12:0.2857 13:20 14:3 15:0.622 16:0.1707 17:0.3049 18:0.3171 19:0.2073 20:0.1795 21:0.73 22:0 23:0.3333 24:15 
1 1:4 2:8 3:1 4:1 5:21 6:0.619 7:0 8:2 9:3 10:0.1429 11:0.1905 12:0.2381 13:16 14:3 15:0.5446 16:0.1786 17:0.2679 18:0.2768 19:0.2768 20:0.3396 21:0.67 22:0.5 23:0.4062 24:4 
0.09412851354599058 1:4 2:3 3:1 4:1 5:21 6:0.4762 7:0 8:1 9:3 10:0.2857 11:0.1905 12:0.2381 13:18 14:2 15:0.4651 16:0.2674 17:0.2326 18:0.2326 19:0.2674 20:0.2267 21:1.43 22:0.1111 23:0.3889 24:12 
1 1:4 2:10 3:-1 4:0 5:20 6:0.6 7:0 8:2 9:4 10:0.15 11:0.2 12:0.25 13:14 14:2 15:0.5049 16:0.2233 17:0.233 18:0.2718 19:0.2718 20:0.3878 21:1.6 22:0 23:0.4667 24:6 
-0.8835434942088367 1:4 2:2 3:-1 4:0 5:21 6:0.45 7:1 8:1 9:2 10:0.35 11:0.2 12:0.2 13:19 14:4 15:0.4184 16:0.2347 17:0.1837 18:0.2347 19:0.3469 20:0.1591 21:1.11 22:-1 23:0.25 24:4 
-0.0304401110335396 1:4 2:-1 3:2 4:1 5:23 6:0.7083 7:1 8:4 9:4 10:0.125 11:0.375 12:0.1667 13:15 14:-1 15:0.7111 16:0.1333 17:0.4 18:0.3111 19:0.1556 20:0.2683 21:1 22:0.0909 23:-1 24:34 
-1 1:1 2:4 3:-1 4:0 5:23 6:0.5652 7:3 8:2 9:1 10:0.3043 11:0.2174 12:0.1304 13:21 14:2 15:0.6517 16:0.1573 17:0.3371 18:0.3146 19:0.191 20:0.1765 21:1.11 22:-1 23:0.2821 24:12 
-1 1:4 2:4 3:-1 4:0 5:22 6:0.6364 7:2 8:2 9:1 10:0.0909 11:0.4545 12:0.2727 13:20 14:2 15:0.6706 16:0.1529 17:0.3529 18:0.3176 19:0.1765 20:0.1852 21:0.91 22:0 23:0.2973 24:14 
-0.9620184126722174 1:3 2:2 3:-1 4:0 5:21 6:0.5238 7:1 8:2 9:3 10:0.3333 11:0.2857 12:0.1429 13:17 14:2 15:0.5176 16:0.2 17:0.2588 18:0.2588 19:0.2824 20:0.1951 21:0.6 22:0 23:0.2381 24:8 
-0.01172332107099635 1:4 2:-1 3:2 4:3 5:21 6:0.5 7:4 8:2 9:4 10:0.3182 11:0.1818 12:0.1818 13:15 14:3 15:0.5122 16:0.1951 17:0.2683 18:0.2439 19:0.2927 20:0.2105 21:0.67 22:0.16 23:-1 24:30 
-0.05471418473170198 1:3 2:1 3:2 4:3 5:22 6:0.6 7:3 8:2 9:3 10:0.25 11:0.4 12:0.15 13:18 14:1 15:0.5085 16:0.2034 17:0.2542 18:0.2542 19:0.2881 20:0.1429 21:1.29 22:0.25 23:0.25 24:21 
-0.05154150632485853 1:3 2:7 3:3 4:2 5:20 6:0.45 7:1 8:2 9:3 10:0.2 11:0.4 12:0.35 13:16 14:4 15:0.4444 16:0.2698 17:0.2222 18:0.2222 19:0.2857 20:0.3559 21:0.67 22:0.1628 23:0.7 24:29 
-0.3362349923562392 1:1 2:8 3:-1 4:0 5:24 6:0.4348 7:1 8:3 9:3 10:0.2609 11:0.2174 12:0.3043 13:18 14:1 15:0.4444 16:0.2685 17:0.213 18:0.2315 19:0.287 20:0.2885 21:2 22:-1 23:0.3559 24:5 
-0.05778760653514321 1:2 2:-1 3:3 4:2 5:24 6:0.3913 7:0 8:8 9:4 10:0.3913 11:0.1304 12:0.2174 13:12 14:4 15:0.4286 16:0.2857 17:0.2245 18:0.2041 19:0.2857 20:0.4667 21:0.62 22:0.1228 23:-1 24:36 
-0.2972571804689674 1:3 2:8 3:3 4:2 5:23 6:0.4545 7:1 8:2 9:2 10:0.2727 11:0.1818 12:0.2727 13:20 14:4 15:0.4658 16:0.2603 17:0.2329 18:0.2329 19:0.274 20:0.3043 21:1.22 22:0.2121 23:0.6667 24:24 
-0.04088853343114403 1:3 2:6 3:3 4:2 5:20 6:0.5 7:1 8:2 9:3 10:0.2 11:0.45 12:0.3 13:15 14:1 15:0.459 16:0.2623 17:0.2295 18:0.2295 19:0.2787 20:0.3684 21:0.44 22:0.1556 23:0.6667 24:30 
-0.0579171224045292 1:4 2:1 3:3 4:2 5:21 6:0.5238 7:0 8:7 9:3 10:0.1429 11:0.4286 12:0.3333 13:11 14:4 15:0.4717 16:0.2642 17:0.2453 18:0.2264 19:0.2642 20:0.4286 21:0 22:0.1321 23:0.25 24:34 
-0.08765691659540334 1:3 2:8 3:3 4:2 5:25 6:0.4583 7:2 8:2 9:2 10:0.2917 11:0.2083 12:0.25 13:22 14:3 15:0.4667 16:0.2533 17:0.2267 18:0.24 19:0.28 20:0.2958 21:1.11 22:0.2258 23:0.7273 24:23 
-0.8300849323062442 1:3 2:1 3:1 4:1 5:23 6:0.3636 7:0 8:1 9:3 10:0.1818 11:0.2727 12:0.4545 13:20 14:4 15:0.4429 16:0.2857 17:0.2286 18:0.2143 19:0.2714 20:0.1045 21:1.22 22:0.125 23:0.1667 24:10 
-0.1484345117630105 1:4 2:1 3:1 4:2 5:22 6:0.5909 7:0 8:1 9:3 10:0.1818 11:0.1364 12:0.2273 13:19 14:1 15:0.5 16:0.26 17:0.28 18:0.22 19:0.24 20:0.1064 21:1.12 22:0.1111 23:0.3333 24:20 
-1 1:4 2:1 3:1 4:1 5:22 6:0.3333 7:0 8:1 9:3 10:0.1905 11:0.2381 12:0.4762 13:19 14:4 15:0.4429 16:0.2857 17:0.2286 18:0.2143 19:0.2714 20:0.1045 21:0.89 22:0.125 23:0.1538 24:10 
-0.9331725897638068 1:1 2:1 3:1 4:2 5:21 6:0.4762 7:0 8:1 9:2 10:0.2857 11:0.0952 12:0.2381 13:19 14:3 15:0.4464 16:0.2857 17:0.25 18:0.1964 19:0.2679 20:0.0943 21:0.73 22:0.1333 23:0.2857 24:17 
-0.03205798073128168 1:2 2:1 3:1 4:1 5:24 6:0.3913 7:0 8:1 9:3 10:0.2174 11:0.2609 12:0.3913 13:21 14:1 15:0.4559 16:0.2794 17:0.2353 18:0.2206 19:0.2647 20:0.1077 21:1 22:0.1111 23:0.2 24:11 
-1 1:2 2:1 3:1 4:1 5:23 6:0.3636 7:0 8:1 9:3 10:0.2273 11:0.2273 12:0.4091 13:20 14:2 15:0.4394 16:0.2879 17:0.2273 18:0.2121 19:0.2727 20:0.1111 21:1.11 22:0.1 23:0.2 24:12 
-1 1:1 2:1 3:1 4:1 5:21 6:0.4286 7:0 8:1 9:3 10:0.381 11:0.1429 12:0.1905 13:18 14:2 15:0.4531 16:0.2812 17:0.2344 18:0.2188 19:0.2656 20:0.1148 21:1 22:0.0909 23:0.1818 24:13 
-0.7724650454832184 1:1 2:1 3:1 4:1 5:23 6:0.4348 7:0 8:1 9:3 10:0.3913 11:0.1739 12:0.1739 13:20 14:3 15:0.4394 16:0.2879 17:0.2273 18:0.2121 19:0.2727 20:0.1111 21:0.9 22:0.1 23:0.2 24:12 
-0.01250292758630807 1:2 2:-1 3:2 4:5 5:20 6:0.6 7:1 8:2 9:3 10:0.2 11:0.25 12:0.2 13:16 14:4 15:0.6279 16:0.2093 17:0.2558 18:0.3721 19:0.1628 20:0.1795 21:1.11 22:0.2364 23:-1 24:32 
-0.3746957289956727 1:3 2:3 3:-1 4:0 5:20 6:0.5 7:1 8:2 9:2 10:0.4 11:0.3 12:0.1 13:17 14:4 15:0.5341 16:0.2159 17:0.2727 18:0.2614 19:0.25 20:0.15 21:1.12 22:-1 23:0.15 24:7 
-0.009820184011590637 1:4 2:3 3:-1 4:0 5:26 6:0.5 7:1 8:5 9:3 10:0.0455 11:0.2273 12:0.4545 13:18 14:4 15:0.5426 16:0.2234 17:0.2766 18:0.266 19:0.234 20:0.2093 21:1.33 22:-1 23:0.1579 24:2 
-0.01113970344746995 1:1 2:-1 3:2 4:2 5:22 6:0.5455 7:0 8:3 9:3 10:0.2727 11:0.1818 12:0.1818 13:15 14:-1 15:0.5682 16:0.2045 17:0.3182 18:0.25 19:0.2273 20:0.1667 21:3.33 22:0.1364 23:-1 24:29 
-0.0659390997287955 1:1 2:-1 3:2 4:3 5:20 6:0.3333 7:4 8:3 9:4 10:0.2857 11:0.1905 12:0.381 13:12 14:-1 15:0.4524 16:0.2381 17:0.2381 18:0.2143 19:0.3095 20:0.3684 21:0.29 22:0.1273 23:-1 24:32 
-0.1380422967194442 1:3 2:3 3:-1 4:0 5:23 6:0.5217 7:1 8:2 9:2 10:0.2609 11:0.2609 12:0.2174 13:20 14:4 15:0.4845 16:0.2474 17:0.2474 18:0.2371 19:0.268 20:0.2258 21:1 22:-1 23:0.3333 24:1 
-0.3020953554904734 1:4 2:3 3:-1 4:0 5:23 6:0.5 7:1 8:2 9:3 10:0.2273 11:0.2727 12:0.2727 13:19 14:2 15:0.4624 16:0.2581 17:0.2366 18:0.2258 19:0.2796 20:0.236 21:0.64 22:0 23:0.3182 24:6 
-0.3795690802582974 1:2 2:3 3:-1 4:0 5:21 6:0.5238 7:1 8:2 9:2 10:0.2857 11:0.2381 12:0.1905 13:18 14:1 15:0.4737 16:0.2526 17:0.2421 18:0.2316 19:0.2737 20:0.2308 21:1 22:0 23:0.32 24:5 
-0.2863325709837189 1:3 2:3 3:-1 4:0 5:20 6:0.55 7:1 8:2 9:2 10:0.3 11:0.3 12:0.15 13:17 14:1 15:0.4845 16:0.2474 17:0.2474 18:0.2371 19:0.268 20:0.2258 21:0.9 22:-1 23:0.2963 24:1 
-0.3653591171037265 1:3 2:2 3:2 4:2 5:22 6:0.5 7:3 8:3 9:2 10:0.1818 11:0.3182 12:0.3182 13:18 14:3 15:0.4242 16:0.2727 17:0.2273 18:0.197 19:0.303 20:0.2581 21:0.9 22:0.1613 23:0.4444 24:20 
-0.2527300966130001 1:3 2:3 3:-1 4:0 5:21 6:0.6 7:1 8:2 9:2 10:0.15 11:0.35 12:0.25 13:18 14:4 15:0.4737 16:0.2526 17:0.2421 18:0.2316 19:0.2737 20:0.2308 21:0.82 22:0 23:0.32 24:5 
-1 1:4 2:1 3:-1 4:0 5:23 6:0.5 7:0 8:3 9:2 10:0.1 11:0.45 12:0.4 13:18 14:2 15:0.527 16:0.1892 17:0.2838 18:0.2432 19:0.2838 20:0.1176 21:1.67 22:0 23:0.04 24:14 
-0.07860016987657648 1:4 2:3 3:-1 4:0 5:21 6:0.4286 7:0 8:10 9:1 10:0.2381 11:0.1429 12:0.3333 13:11 14:2 15:0.5222 16:0.2 17:0.3 18:0.2222 19:0.2778 20:0.2143 21:0 22:-1 23:0.1538 24:1 
-0.03904268698013431 1:4 2:2 3:-1 4:0 5:26 6:0.5217 7:0 8:8 9:2 10:0.2609 11:0.2609 12:0.2174 13:15 14:2 15:0.5341 16:0.2045 17:0.3068 18:0.2273 19:0.2614 20:0.1951 21:0 22:-1 23:0.122 24:3 
-0.01739542516268926 1:1 2:-1 3:1 4:3 5:22 6:0.4762 7:2 8:4 9:3 10:0.2381 11:0.2857 12:0.2857 13:14 14:4 15:0.4889 16:0.1778 17:0.2444 18:0.2444 19:0.3333 20:0.2632 21:4.5 22:0.102 23:-1 24:33 
-0.002470528850524683 1:1 2:1 3:1 4:1 5:20 6:0.55 7:1 8:4 9:4 10:0.35 11:0.3 12:0.1 13:13 14:4 15:0.4918 16:0.2131 17:0.2623 18:0.2295 19:0.2951 20:0.2593 21:1 22:0.0303 23:0.125 24:25 
-0.05714350539933401 1:3 2:4 3:-1 4:0 5:23 6:0.5 7:0 8:6 9:3 10:0.25 11:0.25 12:0.25 13:15 14:4 15:0.5049 16:0.2524 17:0.2718 18:0.233 19:0.2427 20:0.2708 21:0.25 22:-1 23:0.2857 24:1 
-0.03644905639681546 1:3 2:-1 3:1 4:3 5:27 6:0.5417 7:1 8:4 9:4 10:0.2917 11:0.3333 12:0.1667 13:18 14:2 15:0.5273 16:0.2 17:0.3091 18:0.2182 19:0.2727 20:0.25 21:5 22:0.1282 23:-1 24:27 
-0.02071979576156258 1:3 2:1 3:-1 4:0 5:23 6:0.4783 7:2 8:1 9:2 10:0.087 11:0.3043 12:0.4348 13:21 14:3 15:0.5082 16:0.2459 17:0.2459 18:0.2623 19:0.2459 20:0.0714 21:1.22 22:0 23:0.1667 24:21 
-1 1:3 2:1 3:-1 4:0 5:21 6:0.5714 7:2 8:1 9:2 10:0.4286 11:0.381 12:0 13:19 14:4 15:0.5072 16:0.2464 17:0.2464 18:0.2609 19:0.2464 20:0.0625 21:1.67 22:0 23:0.0833 24:17 
-0.05797318672326219 1:1 2:1 3:-1 4:0 5:24 6:0.4167 7:2 8:1 9:2 10:0.125 11:0.25 12:0.4583 13:22 14:2 15:0.4915 16:0.2542 17:0.2373 18:0.2542 19:0.2542 20:0.0741 21:1.11 22:0 23:0.25 24:22 
-0.1445843492725163 1:4 2:1 3:-1 4:0 5:21 6:0.4762 7:2 8:1 9:2 10:0.0952 11:0.2857 12:0.4286 13:19 14:1 15:0.5273 16:0.2364 17:0.2545 18:0.2727 19:0.2364 20:0.08 21:1.25 22:0 23:0.2 24:24 
-0.04504557436249831 1:2 2:1 3:-1 4:0 5:20 6:0.55 7:1 8:1 9:2 10:0.35 11:0.2 12:0.1 13:18 14:2 15:0.5098 16:0.2549 17:0.2549 18:0.2549 19:0.2353 20:0.087 21:0.9 22:0 23:0.25 24:26 
-0.1982028938385866 1:4 2:1 3:3 4:4 5:22 6:0.4091 7:1 8:1 9:2 10:0.2273 11:0.3636 12:0.3636 13:20 14:2 15:0.4407 16:0.2542 17:0.2203 18:0.2203 19:0.3051 20:0.1071 21:0.9 22:0.2195 23:0.2857 24:24 
-0.05211047819225416 1:3 2:-1 3:3 4:5 5:23 6:0.5 7:1 8:1 9:3 10:0.1667 11:0.0833 12:0.3333 13:20 14:-1 15:0.4468 16:0.2553 17:0.2128 18:0.234 19:0.2979 20:0.0909 21:0.78 22:0.2075 23:-1 24:30 
-0.4301429490871369 1:4 2:1 3:2 4:2 5:25 6:0.5 7:1 8:3 9:3 10:0.25 11:0.4167 12:0.25 13:19 14:1 15:0.5079 16:0.2063 17:0.2857 18:0.2222 19:0.2857 20:0.1852 21:0.75 22:0.1613 23:0.4 24:18 
-1 1:3 2:1 3:2 4:2 5:23 6:0.55 7:0 8:3 9:2 10:0.2 11:0.1 12:0.25 13:18 14:4 15:0.4928 16:0.2174 17:0.2754 18:0.2174 19:0.2899 20:0.1667 21:1 22:0.2 23:0.2632 24:15 
-0.007842885460647844 1:2 2:-1 3:2 4:3 5:22 6:0.4091 7:1 8:4 9:4 10:0.1818 11:0.1364 12:0.4091 13:13 14:-1 15:0.439 16:0.2195 17:0.2683 18:0.1707 19:0.3415 20:0.1875 21:0 22:0.1698 23:-1 24:29 
-1 1:4 2:1 3:2 4:2 5:20 6:0.5 7:0 8:3 9:2 10:0.25 11:0.45 12:0.25 13:15 14:1 15:0.4928 16:0.2174 17:0.2754 18:0.2174 19:0.2899 20:0.1667 21:0.2 22:0.2 23:0.2 24:14 
-0.06012839593253911 1:3 2:1 3:1 4:1 5:24 6:0.5217 7:0 8:3 9:3 10:0.2609 11:0.4348 12:0.2174 13:17 14:1 15:0.5 16:0.2222 17:0.2917 18:0.2083 19:0.2778 20:0.2063 21:0.71 22:0.0909 23:0.2381 24:13 
-0.02644824005681642 1:4 2:-1 3:-1 4:0 5:21 6:0.5 7:0 8:4 9:3 10:0.1 11:0.15 12:0.4 13:14 14:4 15:0.5283 16:0.283 17:0.283 18:0.2453 19:0.1887 20:0.2653 21:0.5 22:0 23:0 24:24 
-0.3125057697805202 1:3 2:-1 3:-1 4:0 5:24 6:0.5652 7:0 8:4 9:3 10:0.087 11:0.2174 12:0.3478 13:17 14:4 15:0.5283 16:0.283 17:0.283 18:0.2453 19:0.1887 20:0.2653 21:2.75 22:0 23:0 24:24 
-0.8936288267197643 1:4 2:4 3:-1 4:0 5:21 6:0.4762 7:0 8:2 9:2 10:0.2857 11:0.1905 12:0.2381 13:18 14:2 15:0.4923 16:0.2923 17:0.2615 18:0.2308 19:0.2154 20:0.2131 21:1.12 22:0 23:0.3684 24:18 
-0.02000775960631904 1:3 2:-1 3:2 4:1 5:20 6:0.6 7:0 8:4 9:3 10:0.1 11:0.2 12:0.3 13:14 14:-1 15:0.5366 16:0.2927 17:0.2927 18:0.2439 19:0.1707 20:0.2432 21:0.89 22:0.1053 23:-1 24:30 
-0.07009986842327896 1:3 2:4 3:3 4:2 5:23 6:0.4545 7:2 8:1 9:3 10:0.2273 11:0.2273 12:0.3182 13:20 14:4 15:0.4921 16:0.2222 17:0.1905 18:0.3016 19:0.2857 20:0.2203 21:1.43 22:0.1765 23:0.5714 24:25 
-0.06019091348161355 1:1 2:4 3:-1 4:0 5:21 6:0.45 7:1 8:5 9:3 10:0.25 11:0.35 12:0.3 13:12 14:4 15:0.4706 16:0.2451 17:0.1863 18:0.2843 19:0.2843 20:0.2449 21:0 22:-1 23:0.2063 24:2 
-0.1315306752320061 1:4 2:4 3:-1 4:0 5:24 6:0.5217 7:3 8:3 9:3 10:0.1739 11:0.3478 12:0.3043 13:19 14:1 15:0.4731 16:0.2366 17:0.1828 18:0.2903 19:0.2903 20:0.2135 21:0.7 22:0 23:0.2558 24:9 
-0.0008894547384553407 1:2 2:4 3:3 4:2 5:20 6:0.55 7:1 8:1 9:3 10:0.25 11:0.3 12:0.2 13:17 14:4 15:0.4912 16:0.2281 17:0.193 18:0.2982 19:0.2807 20:0.2453 21:1 22:0.15 23:0.5714 24:28 
-0.03569086363336858 1:4 2:4 3:-1 4:0 5:26 6:0.4 7:2 8:6 9:3 10:0.3 11:0.15 12:0.3 13:16 14:4 15:0.4615 16:0.25 17:0.1827 18:0.2788 19:0.2885 20:0.26 21:1.14 22:-1 23:0.2364 24:1 
-0.008381328840859879 1:4 2:-1 3:1 4:2 5:27 6:0.4167 7:0 8:3 9:4 10:0.3333 11:0.25 12:0.25 13:17 14:1 15:0.3898 16:0.339 17:0.1017 18:0.2881 19:0.2712 20:0.3208 21:0.5 22:0.1053 23:0 24:28 
-0.05917664331324413 1:4 2:3 3:1 4:2 5:25 6:0.3043 7:0 8:3 9:2 10:0.4348 11:0.1304 12:0.2609 13:20 14:2 15:0.3623 16:0.3478 17:0.1014 18:0.2609 19:0.2899 20:0.2698 21:1.11 22:0.1429 23:0.6 24:23 
-0.004636514551743076 1:3 2:-1 3:1 4:2 5:22 6:0.4091 7:0 8:3 9:4 10:0.2273 11:0.3182 12:0.3636 13:12 14:4 15:0.3878 16:0.3469 17:0.0816 18:0.3061 19:0.2653 20:0.3953 21:0.4 22:0.0833 23:0 24:33 
-0.002927398494860413 1:4 2:-1 3:3 4:3 5:20 6:0.4 7:1 8:3 9:3 10:0.2 11:0.3 12:0.4 13:13 14:1 15:0.3721 16:0.3488 17:0.093 18:0.2791 19:0.2791 20:0.2973 21:2 22:0.1852 23:-1 24:36 
-0.04863258535164475 1:1 2:1 3:1 4:1 5:30 6:0.45 7:0 8:12 9:3 10:0.35 11:0.25 12:0.2 13:15 14:2 15:0.5323 16:0.2581 17:0.3226 18:0.2097 19:0.2097 20:0.3333 21:0.8 22:0.0625 23:0.2 24:18 
-0.005999249891482767 1:3 2:1 3:1 4:1 5:30 6:0.5 7:0 8:12 9:3 10:0.3 11:0.3 12:0.2 13:15 14:2 15:0.5345 16:0.2586 17:0.3276 18:0.2069 19:0.2069 20:0.3585 21:0.8 22:0.0556 23:0.3333 24:20 
-0.04663667481944268 1:1 2:1 3:1 4:1 5:31 6:0.4762 7:1 8:12 9:2 10:0.3333 11:0.2857 12:0.1905 13:17 14:4 15:0.5278 16:0.25 17:0.3056 18:0.2222 19:0.2222 20:0.2836 21:0.56 22:0.0909 23:0.1765 24:13 
-0.02839761784983538 1:3 2:1 3:1 4:1 5:32 6:0.5 7:0 8:12 9:3 10:0.3182 11:0.3182 12:0.1818 13:17 14:2 15:0.5323 16:0.2581 17:0.3226 18:0.2097 19:0.2097 20:0.3333 21:0.8 22:0.0625 23:0.3333 24:18 
-0.08163530560615311 1:1 2:1 3:1 4:1 5:34 6:0.5 7:1 8:12 9:2 10:0.3333 11:0.2917 12:0.1667 13:20 14:4 15:0.5278 16:0.25 17:0.3056 18:0.2222 19:0.2222 20:0.2836 21:0.89 22:0.0909 23:0.2727 24:13 
-0.07378904405624848 1:4 2:-1 3:1 4:1 5:30 6:0.45 7:0 8:12 9:4 10:0.25 11:0.25 12:0.3 13:13 14:4 15:0.54 16:0.26 17:0.34 18:0.2 19:0.2 20:0.4222 21:0.5 22:0.0455 23:-1 24:24 
-0.0128311904981486 1:1 2:1 3:1 4:1 5:30 6:0.5 7:0 8:12 9:2 10:0.3 11:0.3 12:0.2 13:16 14:4 15:0.5469 16:0.25 17:0.3281 18:0.2188 19:0.2031 20:0.322 21:0.8 22:0.0667 23:0.2727 24:17 
-0.01951424735884162 1:3 2:1 3:1 4:1 5:33 6:0.4783 7:0 8:12 9:3 10:0.3478 11:0.3043 12:0.1739 13:18 14:4 15:0.5303 16:0.2576 17:0.3182 18:0.2121 19:0.2121 20:0.3115 21:0.8 22:0.0714 23:0.25 24:16 
-0.03950710289921314 1:4 2:-1 3:1 4:1 5:31 6:0.4762 7:0 8:12 9:4 10:0.2857 11:0.2857 12:0.2381 13:15 14:3 15:0.537 16:0.2593 17:0.3333 18:0.2037 19:0.2037 20:0.3878 21:0.8 22:0.05 23:-1 24:22 
-0.2733756123527124 1:4 2:9 3:1 4:1 5:21 6:0.5238 7:1 8:3 9:2 10:0.2381 11:0.1429 12:0.2381 13:16 14:2 15:0.5143 16:0.2571 17:0.3 18:0.2143 19:0.2286 20:0.2923 21:4.5 22:0.0833 23:0.4615 24:14 
-0.1746915863872056 1:3 2:1 3:-1 4:0 5:23 6:0.5217 7:3 8:2 9:3 10:0.1739 11:0.1739 12:0.3043 13:19 14:1 15:0.3592 16:0.2913 17:0.1553 18:0.2039 19:0.3495 20:0.1429 21:1.8 22:0 23:0.1481 24:9 
-0.0488590003925453 1:3 2:1 3:2 4:3 5:22 6:0.3182 7:1 8:1 9:3 10:0.4091 11:0.1364 12:0.2727 13:19 14:4 15:0.2642 16:0.3396 17:0.1132 18:0.1509 19:0.3962 20:0.125 21:0.9 22:0.1379 23:0.3333 24:34 
-0.06199993491008075 1:1 2:-1 3:2 4:3 5:21 6:0.2273 7:1 8:2 9:4 10:0.4091 11:0.1364 12:0.3636 13:16 14:-1 15:0.2326 16:0.3488 17:0.093 18:0.1395 19:0.4186 20:0.1579 21:0.57 22:0.1176 23:-1 24:39 
-0.03134450714968105 1:1 2:-1 3:2 4:3 5:20 6:0.25 7:1 8:2 9:4 10:0.25 11:0.15 12:0.5 13:15 14:1 15:0.2439 16:0.3415 17:0.0976 18:0.1463 19:0.4146 20:0.1667 21:1.75 22:0.1143 23:-1 24:40 
-0.004411793602472543 1:4 2:1 3:2 4:3 5:20 6:0.3 7:0 8:1 9:3 10:0.3 11:0.2 12:0.4 13:17 14:1 15:0.2642 16:0.3396 17:0.1132 18:0.1509 19:0.3962 20:0.125 21:1.11 22:0.1379 23:0.2 24:34 
-0.07244904452112559 1:4 2:-1 3:2 4:3 5:20 6:0.25 7:1 8:1 9:4 10:0.4 11:0.15 12:0.35 13:16 14:4 15:0.2326 16:0.3488 17:0.093 18:0.1395 19:0.4186 20:0.1579 21:0.86 22:0.1176 23:-1 24:39 
-0.01016897304680033 1:2 2:-1 3:1 4:2 5:23 6:0.5833 7:3 8:4 9:1 10:0.0833 11:0.2083 12:0.3333 13:19 14:-1 15:0.5833 16:0.1458 17:0.2917 18:0.2917 19:0.2708 20:0 21:0 22:0.0909 23:-1 24:29 
-0.08401441394064194 1:3 2:-1 3:1 4:1 5:20 6:0.65 7:4 8:1 9:1 10:0.1 11:0.3 12:0.25 13:19 14:1 15:0.6167 16:0.1333 17:0.2833 18:0.3333 19:0.25 20:0.04 21:1.38 22:0.0625 23:0 24:23 
-0.330192474847346 1:1 2:1 3:2 4:1 5:21 6:0.4762 7:1 8:1 9:1 10:0.3333 11:0.381 12:0.1905 13:20 14:4 15:0.5254 16:0.2542 17:0.2373 18:0.2881 19:0.2203 20:0.0714 21:0.88 22:0.1304 23:0.25 24:21 
-0.9030966129540152 1:4 2:1 3:2 4:1 5:23 6:0.4783 7:1 8:1 9:1 10:0.1739 11:0.1739 12:0.3478 13:22 14:3 15:0.5082 16:0.2623 17:0.2295 18:0.2787 19:0.2295 20:0.069 21:0.8 22:0.1429 23:0.2857 24:20 
-0.06276655355779744 1:4 2:1 3:2 4:1 5:22 6:0.5455 7:1 8:1 9:1 10:0.1364 11:0.1818 12:0.3182 13:21 14:3 15:0.5636 16:0.2364 17:0.2545 18:0.3091 19:0.2 20:0.0769 21:1 22:0.1111 23:0.4 24:23 
-0.5667417016185048 1:1 2:1 3:2 4:1 5:22 6:0.5455 7:1 8:1 9:1 10:0.1818 11:0.1818 12:0.2727 13:21 14:1 15:0.5439 16:0.2456 17:0.2456 18:0.2982 19:0.2105 20:0.0741 21:0.82 22:0.12 23:0.3333 24:22 
-0.5962773399599037 1:4 2:1 3:-1 4:0 5:22 6:0.4091 7:0 8:-1 9:0 10:0.1364 11:0.1364 12:0.4545 13:22 14:1 15:0.4545 16:0.2614 17:0.2273 18:0.2159 19:0.2841 20:0.0286 21:1.11 22:0 23:0.0769 24:14 
-1 1:2 2:1 3:-1 4:0 5:21 6:0.4762 7:0 8:2 9:1 10:0.3333 11:0.3333 12:0.1905 13:19 14:1 15:0.4468 16:0.266 17:0.2234 18:0.2128 19:0.2872 20:0.0526 21:2.25 22:-1 23:0.0556 24:10 
-0.05841317199924537 1:4 2:-1 3:-1 4:0 5:24 6:0.5 7:0 8:6 9:2 10:0.375 11:0.2083 12:0.125 13:17 14:3 15:0.4444 16:0.2593 17:0.2222 18:0.2037 19:0.2963 20:0.0556 21:0 22:0 23:-1 24:31 
-0.06101778043190158 1:1 2:1 3:-1 4:0 5:21 6:0.381 7:0 8:-1 9:0 10:0.1905 11:0.0952 12:0.4286 13:21 14:1 15:0.4348 16:0.2717 17:0.2174 18:0.2065 19:0.2935 20:0.027 21:1 22:-1 23:0.0625 24:1 
-0.4838665375103102 1:1 2:1 3:-1 4:0 5:21 6:0.381 7:0 8:-1 9:0 10:0.4286 11:0.2857 12:0.1905 13:21 14:1 15:0.4348 16:0.2717 17:0.2174 18:0.2065 19:0.2935 20:0.027 21:1 22:-1 23:0.0625 24:12 
-0.04532542214915345 1:4 2:-1 3:-1 4:0 5:22 6:0.4545 7:0 8:1 9:1 10:0.4091 11:0.2273 12:0.1364 13:21 14:2 15:0.4194 16:0.2742 17:0.2097 18:0.1935 19:0.3065 20:0.0455 21:1.11 22:0 23:-1 24:27 
-0.05228709503850206 1:1 2:1 3:-1 4:0 5:23 6:0.3478 7:0 8:-1 9:0 10:0.1739 11:0.087 12:0.4783 13:23 14:2 15:0.4348 16:0.2717 17:0.2174 18:0.2065 19:0.2935 20:0.027 21:1.12 22:-1 23:0.0714 24:1 
-1 1:4 2:1 3:-1 4:0 5:21 6:0.381 7:0 8:-1 9:0 10:0.1429 11:0.0952 12:0.4762 13:21 14:2 15:0.4545 16:0.2614 17:0.2273 18:0.2159 19:0.2841 20:0.0286 21:1.25 22:0 23:0.0714 24:14 
-0.9497250809184574 1:1 2:1 3:-1 4:0 5:20 6:0.4 7:0 8:-1 9:0 10:0.45 11:0.3 12:0.15 13:20 14:1 15:0.4444 16:0.2667 17:0.2222 18:0.2111 19:0.2889 20:0.0278 21:0.9 22:0 23:0.0625 24:13 
-0.53353676410033 1:3 2:-1 3:-1 4:0 5:21 6:0.5714 7:0 8:1 9:2 10:0.2381 11:0.3333 12:0.1905 13:19 14:1 15:0.5306 16:0.2245 17:0.2347 18:0.2959 19:0.2449 20:0.0426 21:0.7 22:-1 23:0 24:4 
-0.02454514474119184 1:1 2:-1 3:1 4:1 5:22 6:0.4545 7:3 8:1 9:1 10:0.2727 11:0.1364 12:0.2727 13:21 14:4 15:0.5217 16:0.2174 17:0.2391 18:0.2826 19:0.2609 20:0 21:0.55 22:0.04 23:-1 24:30 
-0.01769609652007982 1:1 2:-1 3:1 4:1 5:21 6:0.45 7:3 8:1 9:1 10:0.25 11:0.15 12:0.3 13:20 14:3 15:0.5 16:0.2273 17:0.2273 18:0.2727 19:0.2727 20:0 21:0.6 22:0.0385 23:-1 24:31 
-0.446628005696097 1:1 2:-1 3:1 4:1 5:20 6:0.65 7:2 8:-1 9:0 10:0.1 11:0.45 12:0.25 13:20 14:2 15:0.5143 16:0.2286 17:0.2429 18:0.2714 19:0.2571 20:0 21:1.1 22:0.0769 23:0 24:18 
-0.1247199930439028 1:4 2:-1 3:1 4:1 5:20 6:0.55 7:2 8:-1 9:0 10:0.3 11:0.15 12:0.15 13:20 14:2 15:0.4828 16:0.2414 17:0.2241 18:0.2586 19:0.2759 20:0 21:1.11 22:0.0526 23:0 24:24 
-0.2426404888105466 1:1 2:-1 3:-1 4:0 5:21 6:0.5238 7:0 8:1 9:1 10:0.2381 11:0.2857 12:0.2381 13:20 14:3 15:0.5208 16:0.2292 17:0.2396 18:0.2812 19:0.25 20:0.0217 21:0.9 22:-1 23:0 24:5 
-0.1850493774002032 1:3 2:3 3:1 4:3 5:20 6:0.6 7:0 8:2 9:2 10:0.05 11:0.2 12:0.35 13:17 14:1 15:0.6 16:0.1846 17:0.2923 18:0.3077 19:0.2154 20:0.2 21:0.6 22:0.1111 23:0.3636 24:22 
-0.03024368756106506 1:1 2:3 3:4 4:3 5:20 6:0.5 7:2 8:2 9:3 10:0.3 11:0.3 12:0.2 13:14 14:1 15:0.5385 16:0.2308 17:0.2692 18:0.2692 19:0.2308 20:0.3469 21:1 22:0.1864 23:0.6364 24:32 
-0.5510051779236773 1:1 2:3 3:4 4:2 5:22 6:0.4286 7:1 8:2 9:3 10:0.4286 11:0.2857 12:0.1429 13:18 14:4 15:0.4935 16:0.2468 17:0.2468 18:0.2468 19:0.2597 20:0.2432 21:1.12 22:0.2941 23:0.3939 24:19 
-0.01163360193555972 1:2 2:1 3:4 4:3 5:25 6:0.5833 7:2 8:3 9:4 10:0.25 11:0.3333 12:0.1667 13:16 14:2 15:0.5556 16:0.2222 17:0.2778 18:0.2778 19:0.2222 20:0.3333 21:1.6 22:0.193 23:0.5 24:31 
-0.002536374893942521 1:4 2:-1 3:2 4:2 5:20 6:0.5 7:1 8:3 9:4 10:0.15 11:0.3 12:0.35 13:13 14:3 15:0.5217 16:0.1304 17:0.2609 18:0.2609 19:0.3478 20:0.2973 21:0.88 22:0.1429 23:-1 24:29 
-0.07471678883404713 1:4 2:2 3:1 4:1 5:20 6:0.5 7:0 8:2 9:4 10:0.2 11:0.1 12:0.3 13:15 14:3 15:0.5052 16:0.2268 17:0.268 18:0.2371 19:0.268 20:0.2258 21:1.8 22:0.5 23:0.2222 24:5 
-0.09268993252833492 1:4 2:2 3:-1 4:0 5:22 6:0.5455 7:0 8:2 9:5 10:0.1818 11:0.1818 12:0.2727 13:14 14:1 15:0.5243 16:0.2136 17:0.2621 18:0.2621 19:0.2621 20:0.2525 21:3 22:-1 23:0.2069 24:1 
-0.007841010256078768 1:1 2:-1 3:2 4:5 5:20 6:0.55 7:0 8:2 9:4 10:0.05 11:0.4 12:0.4 13:15 14:1 15:0.6 16:0.1778 17:0.2889 18:0.3111 19:0.2222 20:0.2195 21:0.73 22:0.25 23:0 24:32 
-0.02883114379704984 1:2 2:-1 3:1 4:1 5:26 6:0.5 7:3 8:3 9:5 10:0.25 11:0.25 12:0.25 13:18 14:1 15:0.5192 16:0.2115 17:0.2115 18:0.3077 19:0.2692 20:0.1818 21:0.22 22:0.05 23:-1 24:29 
-0.01931587321346078 1:3 2:-1 3:1 4:1 5:20 6:0.7 7:0 8:2 9:4 10:0.25 11:0.25 12:0.05 13:14 14:4 15:0.6042 16:0.2083 17:0.3125 18:0.2917 19:0.1875 20:0.2727 21:1.22 22:0.0556 23:0 24:32 
-0.05064804158092684 1:1 2:2 3:-1 4:0 5:23 6:0.619 7:0 8:10 9:2 10:0.1905 11:0.1429 12:0.1905 13:12 14:3 15:0.598 16:0.1863 17:0.3235 18:0.2745 19:0.2157 20:0.3265 21:0 22:-1 23:0.2222 24:4 
-0.02890936773084767 1:1 2:1 3:2 4:4 5:26 6:0.5 7:3 8:8 9:3 10:0.2917 11:0.2917 12:0.2083 13:13 14:3 15:0.4853 16:0.2206 17:0.2353 18:0.25 19:0.2941 20:0.4194 21:0.88 22:0.25 23:0.1667 24:26 
-0.1690606403805467 1:4 2:8 3:1 4:2 5:23 6:0.6087 7:2 8:2 9:4 10:0.1304 11:0.3913 12:0.2609 13:16 14:1 15:0.5312 16:0.1875 17:0.2604 18:0.2708 19:0.2812 20:0.3778 21:0.86 22:0.2 23:0.4667 24:12 
-0.05918560148618444 1:2 2:-1 3:2 4:6 5:23 6:0.4783 7:2 8:8 9:3 10:0.0435 11:0.1739 12:0.4783 13:12 14:2 15:0.451 16:0.2549 17:0.2549 18:0.1961 19:0.2941 20:0.4667 21:0.4 22:0.2615 23:-1 24:35 
-0.6311027903558584 1:4 2:8 3:1 4:3 5:21 6:0.6667 7:2 8:2 9:3 10:0.1429 11:0.4286 12:0.1905 13:16 14:4 15:0.5426 16:0.1915 17:0.266 18:0.2766 19:0.266 20:0.3636 21:0.9 22:0.2727 23:0.4894 24:13 
-0.310546390628226 1:3 2:8 3:2 4:3 5:23 6:0.6087 7:3 8:3 9:3 10:0.1304 11:0.3913 12:0.2609 13:16 14:2 15:0.5357 16:0.2024 17:0.2619 18:0.2738 19:0.2619 20:0.3846 21:0.67 22:0.25 23:0.5152 24:18 
-0.3418263941292563 1:4 2:8 3:1 4:2 5:24 6:0.625 7:2 8:2 9:3 10:0.125 11:0.4167 12:0.25 13:18 14:4 15:0.53 16:0.19 17:0.26 18:0.27 19:0.28 20:0.3617 21:0.5 22:0.25 23:0.4894 24:10 
-0.04695711905101824 1:1 2:-1 3:2 4:3 5:23 6:0.4783 7:1 8:5 9:4 10:0.3043 11:0.2174 12:0.2174 13:12 14:3 15:0.4681 16:0.2553 17:0.234 18:0.234 19:0.2766 20:0.3333 21:5 22:0.125 23:-1 24:32 
-0.04986079822311965 1:4 2:8 3:2 4:3 5:23 6:0.5217 7:1 8:2 9:4 10:0.1739 11:0.3043 12:0.3043 13:16 14:2 15:0.4557 16:0.2532 17:0.2152 18:0.2405 19:0.2911 20:0.4054 21:0.5 22:0.2857 23:0.6129 24:18 
-0.075622380374553 1:4 2:2 3:2 4:5 5:23 6:0.4091 7:1 8:10 9:3 10:0.3182 11:0.1818 12:0.2727 13:11 14:1 15:0.4035 16:0.2807 17:0.1754 18:0.2281 19:0.3158 20:0.4231 21:1.67 22:0.32 23:0.3333 24:29 
-0.09472300842174598 1:1 2:-1 3:2 4:5 5:29 6:0.4583 7:2 8:10 9:4 10:0.1667 11:0.2917 12:0.375 13:14 14:4 15:0.4182 16:0.2727 17:0.1818 18:0.2364 19:0.3091 20:0.44 21:0.88 22:0.3077 23:-1 24:30 
-0.06449576754106717 1:2 2:3 3:2 4:4 5:25 6:0.4583 7:1 8:10 9:3 10:0.2917 11:0.25 12:0.25 13:12 14:3 15:0.4615 16:0.2615 17:0.2 18:0.2615 19:0.2769 20:0.4333 21:2 22:0.2857 23:0.3333 24:25 
-0.01662960195380996 1:3 2:-1 3:2 4:5 5:21 6:0.55 7:1 8:3 9:4 10:0.05 11:0.35 12:0.4 13:15 14:1 15:0.5 16:0.2391 17:0.2609 18:0.2391 19:0.2609 20:0.2308 21:4 22:0.1803 23:-1 24:34 
