svm_type c_svc
kernel_type rbf
gamma 0.0434783
nr_class 2
total_sv 689
rho 0.644713
label 1 0
probA -5.26617
probB -0.996097
nr_sv 153 536
SV
1 1:7 2:1 3:13 4:23 5:0.3636 6:3 7:2 8:0.2273 9:0.3182 10:0.0455 11:0.4091 12:61 13:0.2 14:3 15:0.44 16:75 17:0.2133 18:0.1867 19:0.2533 20:0.3467 21:0.2836 22:1.12 23:0.4545 
0.7053165886195679 1:1 2:1 3:3 4:21 5:0.4762 6:2 7:3 8:0.1905 9:0.381 10:0.0952 11:0.3333 12:56 13:0.1905 14:3 15:0.3881 16:67 17:0.2985 18:0.1642 19:0.2239 20:0.3134 21:0.1739 22:2.25 23:0.3333 
1 1:6 2:4 3:20 4:23 5:0.4091 6:2 7:2 8:0.1818 9:0.3182 10:0.0909 11:0.4091 12:68 13:0.1111 14:3 15:0.4268 16:82 17:0.2195 18:0.1341 19:0.2927 20:0.3537 21:0.2405 22:0.9 23:0.4444 
1 1:7 2:3 3:19 4:23 5:0.4545 6:1 7:2 8:0.1818 9:0.3636 10:0.0909 11:0.3636 12:63 13:0.0667 14:1 15:0.4557 16:79 17:0.2532 18:0.1519 19:0.3038 20:0.2911 21:0.1892 22:1 23:0.4194 
1 1:2 2:2 3:10 4:29 5:0.4091 6:7 7:2 8:0.2727 9:0.0455 10:0.3636 11:0.3182 12:9 13:0.1765 14:4 15:0.4459 16:74 17:0.2568 18:0.1486 19:0.2973 20:0.2973 21:0.1884 22:1 23:0.3 
1 1:3 2:2 3:13 4:23 5:0.3182 6:2 7:4 8:0.3182 9:0 10:0.3182 11:0.3636 12:11 13:0.1818 14:2 15:0.4203 16:69 17:0.2319 18:0.1884 19:0.2319 20:0.3478 21:0.2 22:0.78 23:0.2381 
1 1:3 2:3 3:16 4:23 5:0.3636 6:2 7:3 8:0.2273 9:0.3182 10:0.0455 11:0.4091 12:61 13:0.2 14:1 15:0.4533 16:75 17:0.2133 18:0.2133 19:0.24 20:0.3333 21:0.2113 22:1.12 23:0.2308 
1 1:9 2:2 3:19 4:22 5:0.3182 6:1 7:1 8:0.2727 9:0 10:0.3182 11:0.4091 12:11 13:0.0233 14:4 15:0.3467 16:75 17:0.2667 18:0.12 19:0.2267 20:0.3867 21:0.1429 22:0.78 23:0.3793 
1 1:9 2:2 3:21 4:22 5:0.381 6:3 7:1 8:0.2381 9:0.3333 10:0.0476 11:0.381 12:67 13:0.1163 14:3 15:0.3671 16:79 17:0.2658 18:0.1392 19:0.2278 20:0.3671 21:0.1892 22:2.25 23:0.3333 
1 1:1 2:2 3:9 4:30 5:0.4091 6:8 7:3 8:0.1364 9:0.0455 10:0.3636 11:0.4545 12:11 13:0.2157 14:4 15:0.52 16:75 17:0.16 18:0.1867 19:0.3333 20:0.32 21:0.1818 22:1 23:0.1765 
1 1:8 2:3 3:19 4:23 5:0.5909 6:1 7:2 8:0.1364 9:0.3636 10:0.2273 11:0.2727 12:67 13:0.0667 14:4 15:0.5432 16:81 17:0.1481 18:0.1975 19:0.3457 20:0.3086 21:0.1667 22:0.9 23:0.3793 
0.4019761690735597 1:-1 2:0 3:0 4:23 5:0.3043 6:2 7:1 8:0.3043 9:0.2609 10:0.0435 11:0.3913 12:2 13:0.0667 14:2 15:0.3559 16:59 17:0.339 18:0.1695 19:0.1864 20:0.3051 21:0.0667 22:1 23:-1 
0.390831342831621 1:-1 2:0 3:2 4:25 5:0.4783 6:2 7:4 8:0.3043 9:0.1739 10:0.3043 11:0.2174 12:48 13:0.1304 14:4 15:0.4677 16:62 17:0.2097 18:0.2097 19:0.2581 20:0.3226 21:0.12 22:2 23:0 
1 1:-1 2:0 3:1 4:24 5:0.4348 6:3 7:3 8:0.3478 9:0.1304 10:0.3043 11:0.2174 12:11 13:0.2609 14:4 15:0.4286 16:56 17:0.2857 18:0.1786 19:0.25 20:0.2857 21:0.25 22:0.57 23:0 
0.3916078817247142 1:-1 2:0 3:3 4:23 5:0.4545 6:3 7:3 8:0.2273 9:0.2273 10:0.2273 11:0.3182 12:46 13:0.2727 14:3 15:0.4483 16:58 17:0.2759 18:0.1897 19:0.2586 20:0.2759 21:0.24 22:3.33 23:0 
0.4843660726869927 1:3 2:1 3:7 4:22 5:0.4091 6:1 7:3 8:0.2727 9:0.2273 10:0.1818 11:0.3182 12:28 13:0.1163 14:2 15:0.3833 16:60 17:0.3 18:0.1667 19:0.2167 20:0.3167 21:0.1786 22:0.89 23:0.3846 
1 1:3 2:1 3:9 4:21 5:0.4 6:1 7:3 8:0.3 9:0.1 10:0.3 11:0.3 12:69 13:0.122 14:4 15:0.371 16:62 17:0.3065 18:0.1613 19:0.2097 20:0.3226 21:0.1724 22:1.14 23:0.2941 
1 1:-1 2:0 3:0 4:27 5:0.4545 6:5 7:3 8:0.1818 9:0.0455 10:0.4091 11:0.3636 12:11 13:0.2963 14:4 15:0.4 16:55 17:0.2909 18:0.2 19:0.2 20:0.3091 21:0.1364 22:5 23:-1 
0.7410237302423274 1:1 2:1 3:3 4:21 5:0.3333 6:2 7:2 8:0.4286 9:0.2857 10:0.0476 11:0.2381 12:46 13:0.1429 14:4 15:0.4035 16:57 17:0.2807 18:0.193 19:0.2105 20:0.3158 21:0.1304 22:2.25 23:0.3333 
0.4914881805755592 1:2 2:2 3:8 4:30 5:0.5455 6:9 7:4 8:0.2273 9:0.2727 10:0.2727 11:0.2273 12:51 13:0.3077 14:4 15:0.4583 16:72 17:0.2222 18:0.2639 19:0.1944 20:0.3194 21:0.2923 22:1.8 23:0.3333 
0.6698471839621674 1:2 2:2 3:10 4:29 5:0.619 6:11 7:4 8:0.1429 9:0.1905 10:0.4286 11:0.2381 12:51 13:0.48 14:3 15:0.4857 16:70 17:0.2 18:0.2714 19:0.2143 20:0.3143 21:0.403 22:1.67 23:0.2632 
0.1855213591267467 1:4 2:1 3:7 4:20 5:0.35 6:2 7:2 8:0.2 9:0.2 10:0.15 11:0.45 12:12 13:0.15 14:2 15:0.4035 16:57 17:0.2632 18:0.2105 19:0.193 20:0.3333 21:0.2453 22:1.12 23:0.5385 
0.6420754694188361 1:2 2:1 3:5 4:21 5:0.619 6:3 7:3 8:0.1905 9:0.2857 10:0.3333 11:0.1905 12:6 13:0.25 14:2 15:0.5185 16:54 17:0.2037 18:0.2593 19:0.2593 20:0.2778 21:0.28 22:1.6 23:0.4 
1 1:2 2:2 3:7 4:21 5:0.5714 6:3 7:3 8:0.2381 9:0.1905 10:0.381 11:0.1905 12:30 13:0.25 14:2 15:0.5536 16:56 17:0.2321 18:0.2143 19:0.3393 20:0.2143 21:0.2549 22:1.6 23:0.3846 
0.9760232815477544 1:-1 2:0 3:2 4:21 5:0.5714 6:2 7:3 8:0 9:0.2381 10:0.3333 11:0.4286 12:1 13:0.1905 14:3 15:0.5161 16:62 17:0.2258 18:0.3065 19:0.2097 20:0.2581 21:0.1739 22:1.29 23:0 
1 1:4 2:1 3:9 4:22 5:0.4091 6:2 7:3 8:0.3636 9:0.1364 10:0.2727 11:0.2273 12:51 13:0.1818 14:1 15:0.4 16:65 17:0.2923 18:0.1538 19:0.2462 20:0.3077 21:0.2203 22:0.7 23:0.3333 
0.6070191152593014 1:-1 2:0 3:0 4:22 5:0.4762 6:2 7:2 8:0.2381 9:0.2857 10:0.1905 11:0.2857 12:51 13:0.1163 14:1 15:0.4068 16:59 17:0.3051 18:0.2034 19:0.2034 20:0.2881 21:0.1163 22:2.75 23:-1 
0.4322571866868666 1:-1 2:0 3:0 4:23 5:0.3043 6:2 7:1 8:0.1739 9:0.1304 10:0.1739 11:0.5217 12:11 13:0.0667 14:4 15:0.3729 16:59 17:0.2373 18:0.1864 19:0.1864 20:0.3898 21:0.0667 22:1 23:-1 
1 1:-1 2:0 3:2 4:23 5:0.4762 6:3 7:4 8:0.2381 9:0.2857 10:0.1905 11:0.2857 12:58 13:0.2727 14:2 15:0.5429 16:70 17:0.2286 18:0.2857 19:0.2571 20:0.2286 21:0.25 22:1.33 23:0 
1 1:3 2:1 3:9 4:22 5:0.5455 6:3 7:4 8:0.1818 9:0.3182 10:0.2273 11:0.2727 12:46 13:0.3182 14:4 15:0.4921 16:63 17:0.2857 18:0.2381 19:0.254 20:0.2222 21:0.2881 22:1.17 23:0.2 
1 1:-1 2:0 3:0 4:22 5:0.5 6:3 7:2 8:0.2273 9:0.2273 10:0.2727 11:0.2727 12:15 13:0.2273 14:1 15:0.4821 16:56 17:0.2857 18:0.2679 19:0.2143 20:0.2321 21:0.2273 22:0.22 23:-1 
0.1963439290732077 1:-1 2:0 3:2 4:21 5:0.4762 6:3 7:2 8:0.381 9:0.2857 10:0.1905 11:0.1429 12:51 13:0.2381 14:1 15:0.4655 16:58 17:0.2931 18:0.2586 19:0.2069 20:0.2414 21:0.2174 22:2.25 23:0 
1 1:2 2:1 3:7 4:28 5:0.5652 6:5 7:2 8:0.3478 9:0.3043 10:0.2609 11:0.087 12:50 13:0.1373 14:1 15:0.5217 16:69 17:0.2029 18:0.2609 19:0.2609 20:0.2754 21:0.1429 22:0.91 23:0.1667 
1 1:6 2:2 3:11 4:20 5:0.4 6:1 7:2 8:0.45 9:0.25 10:0.15 11:0.15 12:9 13:0.0769 14:4 15:0.4262 16:61 17:0.3115 18:0.2131 19:0.2131 20:0.2623 21:0.2414 22:0.8 23:0.619 
1 1:2 2:1 3:5 4:21 5:0.3 6:3 7:2 8:0.35 9:0.1 10:0.2 11:0.35 12:41 13:0.1053 14:3 15:0.3455 16:55 17:0.3273 18:0.1455 19:0.2 20:0.3273 21:0.1489 22:4.5 23:0.3333 
0.9242839442545698 1:-1 2:0 3:1 4:29 5:0.3478 6:5 7:3 8:0.3043 9:0.1304 10:0.2174 11:0.3478 12:4 13:0.1765 14:3 15:0.4098 16:61 17:0.2951 18:0.1967 19:0.2131 20:0.2951 21:0.1698 22:1.43 23:0 
1 1:1 2:1 3:3 4:21 5:0.4762 6:1 7:3 8:0.2381 9:0.2381 10:0.2381 11:0.2857 12:57 13:0.1429 14:2 15:0.5088 16:57 17:0.2632 18:0.2807 19:0.2281 20:0.2281 21:0.1304 22:1 23:0.3333 
1 1:-1 2:0 3:3 4:26 5:0.4167 6:1 7:6 8:0.25 9:0.25 10:0.1667 11:0.3333 12:15 13:0.1837 14:3 15:0.4615 16:65 17:0.3231 18:0.2615 19:0.2 20:0.2154 21:0.1636 22:0.78 23:0 
1 1:1 2:1 3:6 4:24 5:0.4783 6:2 7:5 8:0.3478 9:0.2609 10:0.2174 11:0.1739 12:58 13:0.2174 14:4 15:0.4627 16:67 17:0.3134 18:0.2687 19:0.194 20:0.2239 21:0.193 22:1.2 23:0.0909 
1 1:3 2:1 3:7 4:22 5:0.4091 6:1 7:2 8:0.3182 9:0.1818 10:0.2273 11:0.2727 12:29 13:0.0698 14:2 15:0.4444 16:63 17:0.2063 18:0.2222 19:0.2222 20:0.3492 21:0.1579 22:0.8 23:0.4286 
1 1:3 2:1 3:7 4:23 5:0.4091 6:2 7:2 8:0.1818 9:0.2273 10:0.1818 11:0.4091 12:71 13:0.1111 14:4 15:0.4462 16:65 17:0.2 18:0.2308 19:0.2154 20:0.3538 21:0.1864 22:1.25 23:0.4286 
1 1:1 2:1 3:3 4:24 5:0.4545 6:1 7:3 8:0.3182 9:0.1818 10:0.2727 11:0.2273 12:11 13:0.0667 14:1 15:0.45 16:60 17:0.2833 18:0.2333 19:0.2167 20:0.2667 21:0.0612 22:0.91 23:0.3333 
1 1:1 2:1 3:3 4:23 5:0.5 6:1 7:3 8:0.1364 9:0.2727 10:0.2273 11:0.3636 12:48 13:0.0698 14:4 15:0.4655 16:58 17:0.2759 18:0.2414 19:0.2241 20:0.2586 21:0.0638 22:1 23:0.3333 
1 1:-1 2:0 3:2 4:30 5:0.55 6:10 7:3 8:0.15 9:0.2 10:0.35 11:0.3 12:41 13:0.32 14:1 15:0.431 16:58 17:0.2759 18:0.2069 19:0.2241 20:0.2931 21:0.2963 22:1.67 23:0 
1 1:1 2:1 3:4 4:25 5:0.4545 6:3 7:3 8:0.2727 9:0.2727 10:0.1818 11:0.2727 12:19 13:0.1556 14:3 15:0.4655 16:58 17:0.2759 18:0.2414 19:0.2241 20:0.2586 21:0.1373 22:0.9 23:0.25 
0.750769260701909 1:1 2:2 3:7 4:24 5:0.4091 6:3 7:3 8:0.2727 9:0.2273 10:0.1818 11:0.3182 12:57 13:0.1818 14:1 15:0.4839 16:62 17:0.2581 18:0.2419 19:0.2419 20:0.2581 21:0.1636 22:1.43 23:0.2308 
0.0667726660973066 1:2 2:2 3:5 4:23 5:0.3913 6:2 7:1 8:0.1304 9:0.1304 10:0.2609 11:0.4783 12:2 13:0.087 14:2 15:0.3833 16:60 17:0.2833 18:0.15 19:0.2333 20:0.3333 21:0.1321 22:1 23:0.5556 
0.1886038999571486 1:-1 2:0 3:2 4:22 5:0.5909 6:2 7:3 8:0.1818 9:0.3636 10:0.2273 11:0.2273 12:42 13:0.2273 14:1 15:0.5 16:60 17:0.2667 18:0.2167 19:0.2833 20:0.2333 21:0.2083 22:1.8 23:0 
0.3731849628673495 1:-1 2:0 3:1 4:21 5:0.4286 6:2 7:3 8:0.2381 9:0.1905 10:0.2381 11:0.3333 12:6 13:0.2381 14:4 15:0.5 16:56 17:0.2679 18:0.2143 19:0.2857 20:0.2321 21:0.2273 22:0.67 23:0 
0.6451483510701144 1:-1 2:0 3:0 4:23 5:0.3636 6:3 7:2 8:0.2727 9:0.1818 10:0.1818 11:0.3636 12:6 13:0.1364 14:1 15:0.4643 16:56 17:0.2857 18:0.2143 19:0.25 20:0.25 21:0.1364 22:0.9 23:-1 
0.5323367843022278 1:-1 2:0 3:0 4:22 5:0.4545 6:1 7:2 8:0.2273 9:0.2273 10:0.2273 11:0.3182 12:51 13:0.0698 14:4 15:0.3651 16:63 17:0.3016 18:0.1587 19:0.2063 20:0.3333 21:0.0698 22:1.11 23:-1 
0.7214752920270734 1:4 2:1 3:9 4:31 5:0.381 6:11 7:3 8:0.1905 9:0.2381 10:0.1429 11:0.4286 12:52 13:0.3462 14:1 15:0.4444 16:72 17:0.2778 18:0.2639 19:0.1806 20:0.2778 21:0.3529 22:1 23:0.375 
0.3739196288186153 1:6 2:1 3:9 4:22 5:0.4545 6:4 7:2 8:0.3636 9:0.1818 10:0.2727 11:0.1818 12:11 13:0.2093 14:4 15:0.4677 16:62 17:0.1935 18:0.2097 19:0.2581 20:0.3387 21:0.3103 22:0.73 23:0.6 
1 1:1 2:2 3:5 4:23 5:0.5217 6:1 7:3 8:0.2174 9:0.3478 10:0.1739 11:0.2609 12:17 13:0.0909 14:3 15:0.4833 16:60 17:0.25 18:0.2333 19:0.25 20:0.2667 21:0.098 22:0.7 23:0.3333 
0.2676209023491909 1:1 2:2 3:7 4:24 5:0.5455 6:1 7:4 8:0.2273 9:0.2273 10:0.3182 11:0.2273 12:58 13:0.1111 14:4 15:0.5231 16:65 17:0.2308 18:0.2615 19:0.2615 20:0.2462 21:0.1071 22:1 23:0.2308 
1 1:-1 2:0 3:1 4:22 5:0.3182 6:2 7:3 8:0.2273 9:0.1818 10:0.1364 11:0.4545 12:19 13:0.1818 14:2 15:0.4107 16:56 17:0.2857 18:0.1786 19:0.2321 20:0.3036 21:0.1739 22:1 23:0 
0.5602129626498707 1:2 2:1 3:4 4:22 5:0.5 6:3 7:4 8:0.2727 9:0.1818 10:0.3182 11:0.2273 12:41 13:0.2558 14:3 15:0.4262 16:61 17:0.3115 18:0.1639 19:0.2623 20:0.2623 21:0.2941 22:4 23:0.5 
1 1:-1 2:0 3:1 4:21 5:0.4762 6:2 7:3 8:0.2857 9:0.1905 10:0.2857 11:0.2381 12:17 13:0.1905 14:4 15:0.4423 16:52 17:0.2115 18:0.1923 19:0.25 20:0.3462 21:0.1818 22:0.6 23:0 
0.6402769655885294 1:-1 2:0 3:3 4:22 5:0.4545 6:2 7:3 8:0.1818 9:0.1364 10:0.3182 11:0.3636 12:50 13:0.1818 14:1 15:0.4655 16:58 17:0.2069 18:0.2069 19:0.2586 20:0.3276 21:0.16 22:0.9 23:0 
1 1:4 2:1 3:7 4:22 5:0.3333 6:1 7:3 8:0.3333 9:0.1429 10:0.1905 11:0.3333 12:16 13:0.1163 14:1 15:0.4068 16:59 17:0.322 18:0.2203 19:0.1864 20:0.2712 21:0.2 22:1.12 23:0.5 
1 1:5 2:1 3:9 4:20 5:0.4 6:1 7:2 8:0.3 9:0.2 10:0.2 11:0.3 12:55 13:0.0769 14:3 15:0.4068 16:59 17:0.322 18:0.2203 19:0.1864 20:0.2712 21:0.2 22:0.78 23:0.5 
0.8124463610349615 1:3 2:1 3:7 4:32 5:0.5 6:10 7:4 8:0.2273 9:0.3182 10:0.1818 11:0.2727 12:51 13:0.3333 14:1 15:0.4366 16:71 17:0.2817 18:0.1972 19:0.2394 20:0.2817 21:0.3433 22:5 23:0.3846 
1 1:-1 2:0 3:2 4:31 5:0.5455 6:9 7:4 8:0.2273 9:0.3636 10:0.1818 11:0.2273 12:50 13:0.3208 14:3 15:0.4493 16:69 17:0.3043 18:0.2319 19:0.2174 20:0.2464 21:0.2982 22:5 23:0 
0.795158877018478 1:2 2:1 3:6 4:29 5:0.4286 6:8 7:2 8:0.381 9:0.2381 10:0.1905 11:0.1905 12:50 13:0.28 14:2 15:0.4091 16:66 17:0.3182 18:0.1818 19:0.2273 20:0.2727 21:0.2903 22:2 23:0.3333 
0.2143478709645676 1:-1 2:0 3:1 4:23 5:0.4286 6:2 7:2 8:0.381 9:0.2857 10:0.1429 11:0.1905 12:48 13:0.1364 14:2 15:0.3966 16:58 17:0.2586 18:0.2241 19:0.1724 20:0.3448 21:0.1304 22:2 23:0 
0.7751231416598359 1:2 2:1 3:6 4:23 5:0.5 6:3 7:3 8:0.3182 9:0.0909 10:0.4091 11:0.1818 12:63 13:0.2 14:3 15:0.5156 16:64 17:0.2031 18:0.2812 19:0.2344 20:0.2812 21:0.2143 22:0.89 23:0.2727 
0.6334269127541865 1:-1 2:0 3:1 4:20 5:0.55 6:1 7:1 8:0.05 9:0.25 10:0.3 11:0.4 12:41 13:0.05 14:2 15:0.5357 16:56 17:0.1964 18:0.2679 19:0.2679 20:0.2679 21:0.0476 22:0.82 23:0 
0.1901731297712888 1:-1 2:0 3:2 4:24 5:0.2273 6:2 7:2 8:0.4091 9:0.2273 10:0 11:0.3636 12:47 13:0.1111 14:4 15:0.2373 16:59 17:0.322 18:0.1186 19:0.1186 20:0.4407 21:0.102 22:2.25 23:0 
0.6609466091399225 1:5 2:1 3:9 4:23 5:0.5909 6:2 7:5 8:0.2727 9:0.4091 10:0.1818 11:0.1364 12:41 13:0.2444 14:4 15:0.5323 16:62 17:0.1935 18:0.2258 19:0.3065 20:0.2742 21:0.2759 22:0.64 23:0.3846 
1 1:-1 2:0 3:2 4:27 5:0.6364 6:5 7:5 8:0.1364 9:0.0909 10:0.5455 11:0.2273 12:4 13:0.3061 14:4 15:0.5439 16:57 17:0.193 18:0.2281 19:0.3158 20:0.2632 21:0.283 22:1.71 23:0 
0.4816783950349309 1:3 2:1 3:6 4:22 5:0.5909 6:2 7:4 8:0.1364 9:0.1364 10:0.4545 11:0.2727 12:3 13:0.2273 14:4 15:0.5439 16:57 17:0.193 18:0.2456 19:0.2982 20:0.2632 21:0.2453 22:1.57 23:0.3333 
0.5244083027051311 1:3 2:1 3:9 4:22 5:0.5 6:2 7:5 8:0.2727 9:0.3182 10:0.1818 11:0.2273 12:41 13:0.2558 14:4 15:0.5484 16:62 17:0.1774 18:0.2419 19:0.3065 20:0.2742 21:0.2414 22:0.71 23:0.2 
1 1:-1 2:0 3:2 4:20 5:0.4 6:2 7:2 8:0.35 9:0.2 10:0.2 11:0.25 12:41 13:0.1053 14:1 15:0.4074 16:54 17:0.3148 18:0.1481 19:0.2593 20:0.2778 21:0.0952 22:0.89 23:0 
0.3667115752161086 1:-1 2:0 3:2 4:23 5:0.3913 6:1 7:3 8:0.2609 9:0.1739 10:0.2174 11:0.3478 12:47 13:0.1111 14:4 15:0.4603 16:63 17:0.2063 18:0.2381 19:0.2222 20:0.3333 21:0.102 22:1 23:0 
0.2703408355506595 1:1 2:1 3:5 4:21 5:0.381 6:1 7:3 8:0.2857 9:0.1905 10:0.1905 11:0.3333 12:23 13:0.122 14:4 15:0.3621 16:58 17:0.2931 18:0.1724 19:0.1897 20:0.3448 21:0.102 22:1.25 23:0.2 
0.04300781616514981 1:1 2:1 3:5 4:23 5:0.4091 6:2 7:4 8:0.2727 9:0.1364 10:0.2727 11:0.3182 12:61 13:0.2 14:4 15:0.3871 16:62 17:0.2742 18:0.1774 19:0.2097 20:0.3387 21:0.1698 22:2 23:0.2 
0.01937391906827254 1:-1 2:0 3:2 4:25 5:0.5455 6:3 7:4 8:0.1818 9:0.4091 10:0.1364 11:0.2727 12:8 13:0.234 14:2 15:0.5088 16:57 17:0.2632 18:0.2982 19:0.2105 20:0.2281 21:0.2157 22:0.5 23:0 
0.8667833109141629 1:1 2:2 3:6 4:22 5:0.4286 6:3 7:3 8:0.2857 9:0.1905 10:0.2381 11:0.2857 12:49 13:0.1905 14:4 15:0.4576 16:59 17:0.2881 18:0.1864 19:0.2712 20:0.2542 21:0.1923 22:5 23:0.3333 
0.7468129479872744 1:1 2:1 3:3 4:22 5:0.5455 6:3 7:1 8:0.0909 9:0.3182 10:0.2273 11:0.3636 12:20 13:0.1364 14:4 15:0.541 16:61 17:0.2459 18:0.3279 19:0.2131 20:0.2131 21:0.125 22:1.1 23:0.3333 
0.09343969506277902 1:2 2:2 3:9 4:23 5:0.4545 6:1 7:2 8:0.2273 9:0.1364 10:0.3182 11:0.3182 12:50 13:0.0667 14:3 15:0.4286 16:63 17:0.254 18:0.2063 19:0.2222 20:0.3175 21:0.1 22:1.43 23:0.2941 
0.2887049707119573 1:3 2:2 3:9 4:21 5:0.4762 6:1 7:3 8:0.2857 9:0.1905 10:0.2857 11:0.2381 12:11 13:0.122 14:4 15:0.3729 16:59 17:0.3051 18:0.1864 19:0.1864 20:0.322 21:0.1636 22:0.6 23:0.2857 
0.8214578227585578 1:3 2:2 3:10 4:22 5:0.3333 6:1 7:3 8:0.3333 9:0.1905 10:0.1429 11:0.3333 12:51 13:0.1163 14:4 15:0.3968 16:63 17:0.2857 18:0.1905 19:0.2063 20:0.3175 21:0.1525 22:0.78 23:0.25 
0.6649928922520552 1:-1 2:0 3:1 4:22 5:0.4091 6:4 7:3 8:0.3182 9:0.1818 10:0.2273 11:0.2727 12:10 13:0.1795 14:2 15:0.3818 16:55 17:0.3455 18:0.2364 19:0.1455 20:0.2727 21:0.1707 22:0 23:0 
1 1:-1 2:0 3:2 4:27 5:0.4091 6:4 7:4 8:0.2273 9:0.2727 10:0.1364 11:0.3636 12:49 13:0.2245 14:3 15:0.4179 16:67 17:0.2985 18:0.2537 19:0.1642 20:0.2836 21:0.2075 22:1.5 23:0 
1 1:-1 2:0 3:0 4:22 5:0.5 6:2 7:4 8:0.2727 9:0.3636 10:0.1364 11:0.2273 12:27 13:0.2273 14:1 15:0.4138 16:58 17:0.3448 18:0.1897 19:0.2241 20:0.2414 21:0.2273 22:0.8 23:-1 
1 1:-1 2:0 3:3 4:21 5:0.381 6:2 7:4 8:0.2857 9:0.1905 10:0.1905 11:0.3333 12:66 13:0.2381 14:3 15:0.4194 16:62 17:0.3387 18:0.1935 19:0.2258 20:0.2419 21:0.2083 22:1.14 23:0 
0.8089462898281672 1:3 2:2 3:10 4:22 5:0.3636 6:4 7:2 8:0.2727 9:0.2273 10:0.1364 11:0.3636 12:11 13:0.15 14:2 15:0.4677 16:62 17:0.2742 18:0.2097 19:0.2581 20:0.2581 21:0.2069 22:0 23:0.3333 
1 1:1 2:1 3:3 4:22 5:0.4286 6:3 7:2 8:0.3333 9:0.1905 10:0.2381 11:0.2381 12:66 13:0.1628 14:1 15:0.4828 16:58 17:0.2414 18:0.2586 19:0.2241 20:0.2759 21:0.1489 22:0.5 23:0.3333 
1 1:1 2:2 3:8 4:27 5:0.4783 6:4 7:4 8:0.1304 9:0.2174 10:0.2609 11:0.3913 12:41 13:0.2766 14:-1 15:0.4127 16:63 17:0.2222 18:0.1905 19:0.2222 20:0.3651 21:0.2333 22:5 23:0.2 
0.881776608835793 1:-1 2:0 3:3 4:27 5:0.4286 6:6 7:2 8:0.2381 9:0.2857 10:0.1429 11:0.3333 12:41 13:0.2 14:-1 15:0.4746 16:59 17:0.2542 18:0.2373 19:0.2373 20:0.2712 21:0.1765 22:3.33 23:0 
0.3593001182109321 1:-1 2:0 3:2 4:22 5:0.4762 6:2 7:3 8:0.2857 9:0.2857 10:0.1905 11:0.2381 12:41 13:0.1 14:4 15:0.4138 16:58 17:0.2759 18:0.1724 19:0.2414 20:0.3103 21:0.0909 22:1.5 23:0 
0.1514551441680619 1:1 2:1 3:4 4:23 5:0.4762 6:1 7:2 8:0.1905 9:0.2381 10:0.2381 11:0.3333 12:61 13:0.0455 14:4 15:0.4462 16:65 17:0.1846 18:0.1846 19:0.2615 20:0.3692 21:0.04 22:0.82 23:0.25 
0.2844971549151454 1:3 2:1 3:6 4:21 5:0.4762 6:2 7:2 8:0.3333 9:0.2857 10:0.1905 11:0.1905 12:27 13:0.1905 14:2 15:0.4667 16:60 17:0.25 18:0.2833 19:0.1833 20:0.2833 21:0.2593 22:1.8 23:0.5 
1 1:3 2:2 3:12 4:21 5:0.4286 6:2 7:2 8:0.1905 9:0.2381 10:0.1905 11:0.381 12:72 13:0.1905 14:4 15:0.4722 16:72 17:0.25 18:0.2778 19:0.1944 20:0.2778 21:0.2727 22:1.8 23:0.4167 
0.437252168200931 1:1 2:2 3:6 4:22 5:0.5 6:3 7:3 8:0.2273 9:0.2273 10:0.2727 11:0.2727 12:42 13:0.2273 14:3 15:0.4839 16:62 17:0.2581 18:0.2419 19:0.2419 20:0.2581 21:0.2075 22:1.43 23:0.2727 
1 1:3 2:2 3:7 4:23 5:0.4783 6:4 7:3 8:0.1739 9:0.1304 10:0.3478 11:0.3478 12:16 13:0.2093 14:2 15:0.569 16:58 17:0.2069 18:0.3103 19:0.2586 20:0.2241 21:0.2453 22:1 23:0.5 
1 1:1 2:1 3:4 4:28 5:0.5 6:5 7:3 8:0.1818 9:0.1364 10:0.3636 11:0.3182 12:16 13:0.1837 14:4 15:0.5167 16:60 17:0.25 18:0.2167 19:0.3 20:0.2333 21:0.1636 22:1.11 23:0.25 
0.1461059682485664 1:-1 2:0 3:2 4:23 5:0.7143 6:2 7:4 8:0.1429 9:0.3333 10:0.381 11:0.1429 12:58 13:0.1818 14:3 15:0.7344 16:64 17:0.0938 18:0.3906 19:0.3438 20:0.1719 21:0.1667 22:1.6 23:0 
1 1:-1 2:0 3:3 4:23 5:0.6957 6:3 7:3 8:0.1739 9:0.1739 10:0.5217 11:0.1304 12:28 13:0.2444 14:3 15:0.7818 16:55 17:0.0909 18:0.4 19:0.3818 20:0.1273 21:0.2157 22:1.33 23:0 
1 1:1 2:1 3:4 4:24 5:0.6364 6:3 7:3 8:0.3182 9:0.0455 10:0.5909 11:0.0455 12:11 13:0.1739 14:3 15:0.614 16:57 17:0.193 18:0.2632 19:0.3509 20:0.193 21:0.1538 22:1.12 23:0.25 
0.2779851622440018 1:3 2:2 3:9 4:21 5:0.619 6:1 7:2 8:0.0476 9:0.5714 10:0.0476 11:0.3333 12:49 13:0.0952 14:3 15:0.6393 16:61 17:0.1803 18:0.2787 19:0.3607 20:0.1803 21:0.1429 22:0.91 23:0.375 
0.2384044433430397 1:-1 2:0 3:5 4:24 5:0.6087 6:2 7:4 8:0.087 9:0.2609 10:0.3478 11:0.3043 12:55 13:0.2174 14:4 15:0.6452 16:62 17:0.0968 18:0.3226 19:0.3226 20:0.2581 21:0.1786 22:0.62 23:0 
1 1:5 2:1 3:7 4:23 5:0.6087 6:2 7:4 8:0.2174 9:0.1739 10:0.4348 11:0.1739 12:19 13:0.1628 14:3 15:0.6 16:60 17:0.2167 18:0.25 19:0.35 20:0.1833 21:0.2593 22:0.75 23:0.6364 
0.9389285303347801 1:1 2:1 3:4 4:25 5:0.5714 6:4 7:4 8:0.1905 9:0.1905 10:0.381 11:0.2381 12:28 13:0.2609 14:2 15:0.5263 16:57 17:0.193 18:0.2281 19:0.2982 20:0.2807 21:0.2308 22:0.7 23:0.25 
1 1:4 2:2 3:10 4:22 5:0.5455 6:2 7:4 8:0.1364 9:0.2273 10:0.3182 11:0.3182 12:66 13:0.2727 14:2 15:0.5556 16:63 17:0.1746 18:0.2222 19:0.3333 20:0.2698 21:0.2759 22:3 23:0.375 
1 1:3 2:1 3:6 4:24 5:0.4783 6:3 7:5 8:0.2174 9:0.1304 10:0.3478 11:0.3043 12:16 13:0.3617 14:2 15:0.4507 16:71 17:0.1831 18:0.2254 19:0.2254 20:0.3662 21:0.3684 22:0.5 23:0.4 
1 1:2 2:2 3:10 4:22 5:0.4286 6:2 7:5 8:0.1905 9:0.2857 10:0.1429 11:0.381 12:12 13:0.3023 14:4 15:0.4853 16:68 17:0.2794 18:0.2941 19:0.1912 20:0.2353 21:0.2787 22:0.62 23:0.3 
0.1759871734365444 1:1 2:1 3:4 4:21 5:0.4286 6:1 7:1 8:0.381 9:0.0952 10:0.3333 11:0.1905 12:5 13:0.0244 14:3 15:0.4833 16:60 17:0.2833 18:0.1833 19:0.3 20:0.2333 21:0.0417 22:0.9 23:0.1429 
0.2832131382471915 1:2 2:1 3:7 4:24 5:0.619 6:2 7:5 8:0.2381 9:0.3333 10:0.2857 11:0.1429 12:56 13:0.2444 14:1 15:0.5484 16:62 17:0.1774 18:0.2097 19:0.3387 20:0.2742 21:0.2414 22:1.57 23:0.2308 
1 1:2 2:2 3:10 4:35 5:0.65 6:6 7:4 8:0.15 9:0.05 10:0.6 11:0.2 12:10 13:0.2727 14:3 15:0.6582 16:79 17:0.1392 18:0.3418 19:0.3165 20:0.2025 21:0.2603 22:1 23:0.2222 
1 1:5 2:2 3:12 4:21 5:0.4762 6:1 7:2 8:0.2857 9:0.1429 10:0.3333 11:0.2381 12:15 13:0.0952 14:3 15:0.5231 16:65 17:0.3231 18:0.2615 19:0.2615 20:0.1538 21:0.2459 22:1 23:0.5789 
1 1:5 2:2 3:13 4:23 5:0.4783 6:1 7:3 8:0.2609 9:0.3043 10:0.1739 11:0.2609 12:60 13:0.1111 14:2 15:0.5286 16:70 17:0.3 18:0.2571 19:0.2714 20:0.1714 21:0.2424 22:1.6 23:0.5238 
1 1:4 2:6 3:29 4:25 5:0.4762 6:6 7:4 8:0.2857 9:0.2381 10:0.2381 11:0.2381 12:87 13:0.3913 14:1 15:0.4608 16:102 17:0.2745 18:0.2059 19:0.2549 20:0.2647 21:0.3535 22:1 23:0.3455 
0.8468458957865789 1:1 2:1 3:4 4:27 5:0.5455 6:4 7:3 8:0.2273 9:0.1818 10:0.3636 11:0.2273 12:43 13:0.2245 14:1 15:0.5167 16:60 17:0.2333 18:0.25 19:0.2667 20:0.25 21:0.2 22:1.11 23:0.25 
0.5207958143135047 1:3 2:2 3:8 4:21 5:0.619 6:2 7:3 8:0.2381 9:0.4286 10:0.1905 11:0.1429 12:7 13:0.2 14:1 15:0.5179 16:56 17:0.2321 18:0.25 19:0.2679 20:0.25 21:0.2157 22:1.12 23:0.3846 
0.2957518997009103 1:2 2:1 3:5 4:23 5:0.7727 6:1 7:4 8:0.0455 9:0.4091 10:0.3636 11:0.1818 12:11 13:0.1364 14:2 15:0.7586 16:58 17:0.1552 18:0.3966 19:0.3621 20:0.0862 21:0.1538 22:0.45 23:0.25 
0.8800255961630751 1:1 2:2 3:6 4:22 5:0.4762 6:6 7:2 8:0.1429 9:0.2381 10:0.2381 11:0.381 12:11 13:0.3488 14:4 15:0.4833 16:60 17:0.2 18:0.2833 19:0.2 20:0.3167 21:0.3208 22:2.5 23:0.3333 
1 1:1 2:1 3:6 4:30 5:0.4091 6:9 7:2 8:0.3636 9:0.3182 10:0.0909 11:0.2273 12:2 13:0.2549 14:2 15:0.4848 16:66 17:0.2424 18:0.2121 19:0.2727 20:0.2727 21:0.2258 22:1.4 23:0.0909 
1 1:1 2:1 3:5 4:25 5:0.4545 6:3 7:2 8:0.0909 9:0.2273 10:0.2273 11:0.4545 12:1 13:0.1915 14:4 15:0.4032 16:62 17:0.1935 18:0.1935 19:0.2097 20:0.4032 21:0.1636 22:0.9 23:0.2 
0.4017559334420981 1:1 2:1 3:2 4:22 5:0.4545 6:1 7:3 8:0.1818 9:0.1364 10:0.3182 11:0.3636 12:2 13:0.0952 14:1 15:0.386 16:57 17:0.2281 18:0.2105 19:0.1754 20:0.386 21:0.0909 22:1.29 23:0.5 
0.3931549876173553 1:4 2:2 3:10 4:23 5:0.3913 6:4 7:3 8:0.3478 9:0.1739 10:0.2174 11:0.2609 12:41 13:0.2093 14:4 15:0.4 16:60 17:0.3 18:0.2 19:0.2 20:0.3 21:0.2281 22:0.88 23:0.375 
0.7756246685152186 1:1 2:1 3:4 4:29 5:0.4091 6:5 7:3 8:0.1818 9:0.2727 10:0.1364 11:0.4091 12:4 13:0.2549 14:2 15:0.4 16:60 17:0.3 18:0.2 19:0.2 20:0.3 21:0.2281 22:1.14 23:0.25 
0.395427608677246 1:1 2:1 3:3 4:24 5:0.4545 6:2 7:2 8:0.1818 9:0.2273 10:0.2273 11:0.3636 12:61 13:0.087 14:2 15:0.4923 16:65 17:0.2462 18:0.1846 19:0.3077 20:0.2615 21:0.08 22:1.12 23:0.3333 
0.6684796156838577 1:-1 2:0 3:1 4:23 5:0.4783 6:2 7:1 8:0.3043 9:0.2609 10:0.2174 11:0.2174 12:11 13:0.0455 14:3 15:0.5 16:62 17:0.2419 18:0.1935 19:0.3065 20:0.2581 21:0.0435 22:0.9 23:0 
0.5414300917131885 1:-1 2:0 3:2 4:23 5:0.4762 6:2 7:1 8:0.1429 9:0.1905 10:0.2857 11:0.381 12:53 13:0.0455 14:1 15:0.5156 16:64 17:0.2344 18:0.2031 19:0.3125 20:0.25 21:0.0417 22:0.9 23:0 
1 1:6 2:1 3:10 4:24 5:0.5 6:3 7:3 8:0.1818 9:0.1818 10:0.3182 11:0.3182 12:41 13:0.2093 14:3 15:0.4426 16:61 17:0.3115 18:0.2131 19:0.2295 20:0.2459 21:0.2632 22:3.33 23:0.4286 
0.5000974937545001 1:-1 2:0 3:2 4:23 5:0.5 6:2 7:3 8:0.2727 9:0.1364 10:0.3636 11:0.2273 12:18 13:0.1556 14:1 15:0.4035 16:57 17:0.3158 18:0.193 19:0.2105 20:0.2807 21:0.1429 22:0.89 23:0 
0.2928544887168959 1:1 2:1 3:3 4:21 5:0.3333 6:1 7:1 8:0.2857 9:0.1905 10:0.1429 11:0.381 12:11 13:0.0244 14:4 15:0.4333 16:60 17:0.2333 18:0.2167 19:0.2167 20:0.3333 21:0.0222 22:0.8 23:0.3333 
0.7111358433698952 1:-1 2:0 3:2 4:25 5:0.4091 6:3 7:3 8:0.1818 9:0.1818 10:0.2273 11:0.4091 12:41 13:0.1739 14:3 15:0.4333 16:60 17:0.2667 18:0.2 19:0.2333 20:0.3 21:0.16 22:1 23:0 
0.05240430528397495 1:2 2:2 3:9 4:29 5:0.45 6:11 7:2 8:0.2 9:0.2 10:0.25 11:0.35 12:51 13:0.3469 14:3 15:0.4857 16:70 17:0.1714 18:0.1571 19:0.3286 20:0.3429 21:0.3333 22:1.8 23:0.2941 
0.7964174571481994 1:6 2:1 3:9 4:23 5:0.5 6:2 7:3 8:0.0909 9:0.1364 10:0.3636 11:0.4091 12:11 13:0.0952 14:1 15:0.4516 16:62 17:0.2742 18:0.1613 19:0.2903 20:0.2742 21:0.2414 22:0.67 23:0.625 
1 1:1 2:1 3:3 4:25 5:0.4783 6:2 7:5 8:0.2174 9:0.1304 10:0.3478 11:0.3043 12:41 13:0.3043 14:3 15:0.5472 16:53 17:0.1887 18:0.2264 19:0.3208 20:0.2642 21:0.28 22:2.2 23:0.3333 
1 1:2 2:1 3:6 4:22 5:0.4286 6:2 7:3 8:0.2381 9:0.2381 10:0.1905 11:0.3333 12:50 13:0.1628 14:4 15:0.4 16:65 17:0.2769 18:0.1385 19:0.2615 20:0.3231 21:0.2 22:1 23:0.3333 
1 1:1 2:1 3:4 4:28 5:0.6087 6:5 7:4 8:0.1739 9:0.1739 10:0.4348 11:0.2174 12:13 13:0.24 14:2 15:0.459 16:61 17:0.2623 18:0.2459 19:0.2131 20:0.2787 21:0.2143 22:1.25 23:0.25 
0.6957830036534546 1:1 2:1 3:5 4:24 5:0.4545 6:2 7:4 8:0.2727 9:0.0909 10:0.3636 11:0.2727 12:11 13:0.1818 14:2 15:0.4576 16:59 17:0.2881 18:0.1864 19:0.2712 20:0.2542 21:0.1538 22:0.64 23:0.2 
0.2151445622647951 1:2 2:2 3:9 4:30 5:0.619 6:11 7:3 8:0.2381 9:0.381 10:0.2381 11:0.1429 12:52 13:0.3725 14:1 15:0.4861 16:72 17:0.2639 18:0.2361 19:0.25 20:0.25 21:0.3231 22:3.67 23:0.25 
1 1:1 2:2 3:3 4:28 5:0.4348 6:3 7:4 8:0.2174 9:0.3478 10:0.087 11:0.3478 12:2 13:0.1373 14:1 15:0.4032 16:62 17:0.2258 18:0.1774 19:0.2258 20:0.371 21:0.1636 22:1.57 23:0.6667 
0.8034082530076094 1:2 2:2 3:8 4:23 5:0.3478 6:3 7:3 8:0.2609 9:0.087 10:0.2609 11:0.3913 12:41 13:0.122 14:-1 15:0.4032 16:62 17:0.2258 18:0.1774 19:0.2258 20:0.371 21:0.1636 22:0.45 23:0.375 
0.04017130918320613 1:1 2:1 3:5 4:21 5:0.4762 6:1 7:3 8:0.2857 9:0.2381 10:0.2381 11:0.2381 12:41 13:0.122 14:3 15:0.5254 16:59 17:0.2542 18:0.2712 19:0.2542 20:0.2203 21:0.1373 22:1 23:0.2 
0.1439061535109777 1:-1 2:0 3:2 4:22 5:0.5 6:1 7:3 8:0.1818 9:0.2727 10:0.2273 11:0.3182 12:4 13:0.1364 14:1 15:0.5179 16:56 17:0.25 18:0.2679 19:0.25 20:0.2321 21:0.125 22:1.14 23:0 
0.4287314242030199 1:2 2:1 3:6 4:26 5:0.5238 6:4 7:4 8:0.1429 9:0.1429 10:0.381 11:0.3333 12:51 13:0.2766 14:4 15:0.4921 16:63 17:0.2063 18:0.2222 19:0.2698 20:0.3016 21:0.2881 22:1.1 23:0.3333 
0.1087301852872247 1:2 2:2 3:8 4:22 5:0.4545 6:2 7:3 8:0.1818 9:0.1818 10:0.2727 11:0.3636 12:44 13:0.1818 14:3 15:0.4667 16:60 17:0.2333 18:0.25 19:0.2167 20:0.3 21:0.193 22:1.12 23:0.3333 
0.3039853304930276 1:1 2:1 3:4 4:21 5:0.5238 6:2 7:3 8:0.3333 9:0.2381 10:0.2857 11:0.1429 12:57 13:0.1905 14:3 15:0.4576 16:59 17:0.2542 18:0.2373 19:0.2203 20:0.2881 21:0.1667 22:1.25 23:0.25 
0.3652504536675553 1:1 2:2 3:5 4:22 5:0.4091 6:2 7:3 8:0.1818 9:0.1364 10:0.2727 11:0.4091 12:19 13:0.2273 14:3 15:0.4167 16:60 17:0.2167 18:0.15 19:0.2667 20:0.3667 21:0.2157 22:0.56 23:0.3333 
1 1:2 2:1 3:5 4:22 5:0.2727 6:3 7:2 8:0.2727 9:0.0455 10:0.2273 11:0.4545 12:13 13:0.1707 14:1 15:0.2545 16:55 17:0.3455 18:0.1091 19:0.1455 20:0.4 21:0.2157 22:0.25 23:0.4 
0.04562547764259381 1:2 2:1 3:7 4:25 5:0.3636 6:4 7:3 8:0.2727 9:0.2273 10:0.1364 11:0.3636 12:51 13:0.234 14:3 15:0.3231 16:65 17:0.3077 18:0.1231 19:0.2 20:0.3692 21:0.2459 22:1.12 23:0.2857 
1 1:3 2:1 3:8 4:21 5:0.4762 6:4 7:2 8:0.381 9:0.0952 10:0.381 11:0.1429 12:1 13:0.25 14:3 15:0.4915 16:59 17:0.2881 18:0.2034 19:0.2881 20:0.2203 21:0.2727 22:3 23:0.3333 
0.0105323201994568 1:3 2:1 3:8 4:23 5:0.5238 6:4 7:3 8:0.1905 9:0.2857 10:0.2381 11:0.2857 12:41 13:0.2857 14:-1 15:0.4918 16:61 17:0.2951 18:0.1967 19:0.2951 20:0.2131 21:0.2982 22:1 23:0.3333 
0.04360600974246909 1:-1 2:0 3:2 4:23 5:0.3043 6:4 7:3 8:0.3478 9:0.1304 10:0.1739 11:0.3478 12:41 13:0.2727 14:2 15:0.3621 16:58 17:0.2931 18:0.1207 19:0.2414 20:0.3448 21:0.25 22:1.14 23:0 
0.272744974139827 1:-1 2:0 3:0 4:24 5:0.4783 6:4 7:2 8:0.3043 9:0.1304 10:0.3478 11:0.2174 12:6 13:0.234 14:4 15:0.3684 16:57 17:0.2807 18:0.1228 19:0.2456 20:0.3509 21:0.234 22:1.11 23:-1 
1 1:1 2:1 3:3 4:22 5:0.5 6:2 7:3 8:0.2727 9:0.3636 10:0.1364 11:0.2273 12:18 13:0.1818 14:4 15:0.4364 16:55 17:0.3091 18:0.2182 19:0.2182 20:0.2545 21:0.1667 22:2.2 23:0.3333 
1 1:1 2:1 3:4 4:22 5:0.4545 6:2 7:3 8:0.2273 9:0.1364 10:0.3182 11:0.3182 12:52 13:0.1818 14:3 15:0.4211 16:57 17:0.3158 18:0.2105 19:0.2105 20:0.2632 21:0.16 22:0.5 23:0.25 
1 1:3 2:2 3:6 4:22 5:0.4091 6:2 7:4 8:0.1364 9:0.0909 10:0.3182 11:0.4545 12:23 13:0.2558 14:4 15:0.4643 16:56 17:0.1607 18:0.1607 19:0.3036 20:0.375 21:0.2941 22:0.67 23:0.6 
-0.305076232081477 1:7 2:1 3:20 4:22 5:0.381 6:3 7:4 8:0.1905 9:0.2381 10:0.1429 11:0.4286 12:68 13:0.3333 14:2 15:0.4302 16:86 17:0.2093 18:0.1744 19:0.2558 20:0.3605 21:0.3077 22:1.29 23:0.2778 
-0.1072290595629772 1:7 2:1 3:22 4:23 5:0.5 6:3 7:5 8:0.1364 9:0.2727 10:0.2273 11:0.3636 12:70 13:0.3488 14:3 15:0.4505 16:91 17:0.1978 18:0.1868 19:0.2637 20:0.3516 21:0.3012 22:2 23:0.25 
-0.07668445593606381 1:-1 2:0 3:0 4:24 5:0.375 6:7 7:1 8:0.3333 9:0.25 10:0.125 11:0.2917 12:48 13:0.2273 14:4 15:0.4038 16:52 17:0.25 18:0.1923 19:0.2115 20:0.3462 21:0.2273 22:1.22 23:-1 
-0.421925083499496 1:-1 2:0 3:3 4:27 5:0.3478 6:7 7:2 8:0.2174 9:0 10:0.3478 11:0.4348 12:14 13:0.28 14:2 15:0.4219 16:64 17:0.2344 18:0.1875 19:0.2344 20:0.3438 21:0.25 22:2.5 23:0 
-0.1304810478614186 1:7 2:1 3:23 4:21 5:0.5 6:3 7:4 8:0.15 9:0.1 10:0.4 11:0.35 12:1 13:0.35 14:2 15:0.4444 16:90 17:0.2 18:0.1778 19:0.2667 20:0.3556 21:0.2927 22:1.11 23:0.2381 
-0.6054428431422783 1:-1 2:0 3:2 4:24 5:0.35 6:7 7:1 8:0.2 9:0 10:0.35 11:0.45 12:18 13:0.2273 14:2 15:0.4107 16:56 17:0.25 18:0.1964 19:0.2143 20:0.3393 21:0.2083 22:2 23:0 
-0.213936930806503 1:-1 2:0 3:0 4:26 5:0.4091 6:7 7:1 8:0.1818 9:0.0455 10:0.3636 11:0.4091 12:18 13:0.2083 14:4 15:0.4107 16:56 17:0.25 18:0.1964 19:0.2143 20:0.3393 21:0.2083 22:0.91 23:-1 
-0.03967997141942279 1:-1 2:0 3:0 4:25 5:0.3333 6:7 7:2 8:0.1905 9:0.0476 10:0.2857 11:0.4762 12:22 13:0.3478 14:2 15:0.3958 16:48 17:0.25 18:0.1875 19:0.2083 20:0.3542 21:0.25 22:3 23:-1 
-0.02304169035463719 1:1 2:1 3:12 4:20 5:0.55 6:2 7:4 8:0.05 9:0.35 10:0.2 11:0.4 12:65 13:0.2632 14:1 15:0.4321 16:81 17:0.2593 18:0.1852 19:0.2469 20:0.3086 21:0.1667 22:1.6 23:0.0833 
-0.06448340931364427 1:1 2:1 3:12 4:24 5:0.5417 6:3 7:4 8:0.0417 9:0.3333 10:0.2083 11:0.4167 12:65 13:0.2444 14:1 15:0.4432 16:88 17:0.25 18:0.1932 19:0.25 20:0.3068 21:0.1642 22:1 23:0.0833 
-0.05746959551393259 1:1 2:2 3:16 4:21 5:0.4762 6:3 7:4 8:0.0952 9:0.2381 10:0.2381 11:0.4286 12:69 13:0.2632 14:1 15:0.4382 16:89 17:0.2584 18:0.191 19:0.2472 20:0.3034 21:0.1765 22:0.88 23:0.125 
-0.2091440227592857 1:1 2:1 3:9 4:26 5:0.4783 6:3 7:4 8:0.2174 9:0.1304 10:0.3478 11:0.3043 12:2 13:0.2245 14:2 15:0.4302 16:86 17:0.2558 18:0.186 19:0.2442 20:0.314 21:0.1692 22:1 23:0.1111 
-0.1269511097815686 1:-1 2:0 3:0 4:20 5:0.45 6:8 7:1 8:0.4 9:0.2 10:0.25 11:0.15 12:46 13:0.4 14:1 15:0.3778 16:45 17:0.3556 18:0.1556 19:0.2222 20:0.2667 21:0 22:0 23:-1 
-0.07861887303694252 1:1 2:1 3:14 4:23 5:0.5217 6:3 7:5 8:0.087 9:0.3043 10:0.2174 11:0.3913 12:67 13:0.2857 14:1 15:0.4382 16:89 17:0.2584 18:0.191 19:0.2472 20:0.3034 21:0.1765 22:0.88 23:0.0714 
-0.06850311145518551 1:1 2:1 3:11 4:22 5:0.5455 6:3 7:4 8:0.0455 9:0.3636 10:0.1818 11:0.4091 12:64 13:0.2683 14:1 15:0.4268 16:82 17:0.2561 18:0.1829 19:0.2439 20:0.3171 21:0.1803 22:4 23:0.0909 
-0.03990546110599318 1:1 2:2 3:15 4:20 5:0.5 6:3 7:3 8:0.05 9:0.25 10:0.25 11:0.45 12:68 13:0.2432 14:1 15:0.4302 16:86 17:0.2558 18:0.186 19:0.2442 20:0.314 21:0.1692 22:1.4 23:0.1333 
-0.05919969457281123 1:-1 2:0 3:0 4:26 5:0.4762 6:6 7:4 8:0.1905 9:0 10:0.4762 11:0.3333 12:25 13:0.3333 14:4 15:0.4082 16:49 17:0.2449 18:0.1224 19:0.2857 20:0.3469 21:0.3043 22:1.29 23:-1 
-0.02102142815774041 1:1 2:2 3:8 4:25 5:0.4545 6:6 7:3 8:0.1364 9:0 10:0.4545 11:0.4091 12:18 13:0.3617 14:4 15:0.3968 16:63 17:0.2381 18:0.1111 19:0.2857 20:0.3651 21:0.3 22:1.8 23:0.2 
-0.1581959141219267 1:1 2:1 3:2 4:20 5:0.4 6:6 7:3 8:0.25 9:0.25 10:0.15 11:0.35 12:50 13:0.3889 14:4 15:0.439 16:41 17:0.2195 18:0.122 19:0.3171 20:0.3415 21:0.3684 22:1.22 23:0.5 
-0.06020141653249993 1:1 2:1 3:3 4:20 5:0.4 6:6 7:3 8:0.3 9:0.25 10:0.15 11:0.3 12:51 13:0.3889 14:1 15:0.4186 16:43 17:0.2326 18:0.1163 19:0.3023 20:0.3488 21:0.35 22:1 23:0.3333 
-0.08717605316868507 1:6 2:4 3:26 4:24 5:0.5 6:6 7:3 8:0.1667 9:0.0417 10:0.4583 11:0.3333 12:1 13:0.3023 14:2 15:0.4239 16:92 17:0.2174 18:0.1304 19:0.2935 20:0.3587 21:0.3034 22:0 23:0.3333 
-0.6880132693341777 1:2 2:3 3:10 4:27 5:0.4167 6:6 7:2 8:0.1667 9:0 10:0.4167 11:0.4167 12:14 13:0.2549 14:4 15:0.4225 16:71 17:0.2254 18:0.1268 19:0.2958 20:0.3521 21:0.2647 22:2 23:0.3684 
-0.7380808331646374 1:1 2:2 3:8 4:23 5:0.45 6:6 7:3 8:0.15 9:0 10:0.45 11:0.4 12:20 13:0.3953 14:4 15:0.4068 16:59 17:0.2373 18:0.1186 19:0.2881 20:0.3559 21:0.3214 22:1 23:0.2 
-0.04528382127422129 1:-1 2:0 3:0 4:25 5:0.4286 6:6 7:4 8:0.1905 9:0 10:0.4286 11:0.381 12:26 13:0.3478 14:4 15:0.383 16:47 17:0.2553 18:0.1064 19:0.2766 20:0.3617 21:0.3182 22:1.14 23:-1 
-0.02276306245544555 1:1 2:1 3:4 4:21 5:0.4286 6:7 7:3 8:0.381 9:0.1905 10:0.2381 11:0.1905 12:48 13:0.3714 14:4 15:0.4348 16:46 17:0.2826 18:0.1304 19:0.3043 20:0.2826 21:0.3171 22:1.14 23:0.25 
-0.2415638678170135 1:7 2:4 3:25 4:21 5:0.5 6:1 7:1 8:0.15 9:0.3 10:0.2 11:0.35 12:69 13:0.0244 14:3 15:0.4598 16:87 17:0.2529 18:0.1609 19:0.2989 20:0.2874 21:0.1707 22:1 23:0.3488 
-0.1228536944135586 1:7 2:4 3:25 4:20 5:0.45 6:1 7:1 8:0.3 9:0.05 10:0.4 11:0.25 12:3 13:0.0256 14:2 15:0.4471 16:85 17:0.2588 18:0.1529 19:0.2941 20:0.2941 21:0.175 22:0.9 23:0.3488 
-0.1870083750545799 1:-1 2:0 3:0 4:31 5:0.5 6:7 7:4 8:0.2083 9:0.0833 10:0.4167 11:0.2917 12:18 13:0.3091 14:1 15:0.4286 16:56 17:0.2857 18:0.1429 19:0.2857 20:0.2857 21:0.2549 22:2.5 23:-1 
-0.6952138390942537 1:1 2:1 3:5 4:27 5:0.4 6:7 7:3 8:0.2 9:0.05 10:0.35 11:0.4 12:16 13:0.2766 14:2 15:0.45 16:60 17:0.2667 18:0.15 19:0.3 20:0.2833 21:0.2364 22:2 23:0.2 
-0.02367265397571076 1:1 2:1 3:2 4:27 5:0.45 6:7 7:3 8:0.2 9:0.1 10:0.35 11:0.35 12:19 13:0.2766 14:4 15:0.4444 16:54 17:0.2778 18:0.1481 19:0.2963 20:0.2778 21:0.2653 22:1 23:0.5 
-0.05148271556051067 1:7 2:4 3:24 4:21 5:0.4762 6:1 7:1 8:0.2857 9:0.0476 10:0.4286 11:0.2381 12:3 13:0.0244 14:4 15:0.4471 16:85 17:0.2588 18:0.1529 19:0.2941 20:0.2941 21:0.175 22:0.9 23:0.3659 
-0.1165264525013118 1:2 2:2 3:10 4:20 5:0.4 6:7 7:2 8:0.4 9:0.2 10:0.2 11:0.2 12:54 13:0.2727 14:4 15:0.4286 16:56 17:0.2857 18:0.1429 19:0.2857 20:0.2857 21:0.2549 22:0 23:0.3 
-0.07749000431358331 1:1 2:1 3:4 4:22 5:0.4091 6:7 7:3 8:0.4091 9:0.1818 10:0.2273 11:0.1818 12:48 13:0.3514 14:4 15:0.4167 16:48 17:0.2917 18:0.125 19:0.2917 20:0.2917 21:0.3023 22:1.14 23:0.25 
-0.1134068785268467 1:7 2:4 3:24 4:23 5:0.4783 6:1 7:2 8:0.2609 9:0.087 10:0.3913 11:0.2609 12:1 13:0.0455 14:4 15:0.4545 16:88 17:0.25 18:0.1591 19:0.2955 20:0.2955 21:0.1807 22:0.8 23:0.3659 
-0.7156784557532145 1:1 2:1 3:4 4:29 5:0.4091 6:7 7:3 8:0.2273 9:0.0455 10:0.3636 11:0.3636 12:15 13:0.2549 14:3 15:0.4355 16:62 17:0.2742 18:0.1452 19:0.2903 20:0.2903 21:0.2281 22:1.12 23:0.25 
-1 1:3 2:1 3:8 4:23 5:0.3 6:2 7:4 8:0.3 9:0 10:0.3 11:0.4 12:16 13:0.1628 14:2 15:0.4167 16:60 17:0.25 18:0.2 19:0.2167 20:0.3333 21:0.1786 22:0.78 23:0.2308 
-0.4741857335588176 1:3 2:1 3:8 4:20 5:0.3 6:2 7:3 8:0.4 9:0.2 10:0.1 11:0.3 12:53 13:0.1351 14:3 15:0.4074 16:54 17:0.2593 18:0.2037 19:0.2037 20:0.3333 21:0.16 22:0.44 23:0.2308 
-1 1:3 2:1 3:6 4:24 5:0.3333 6:2 7:3 8:0.3333 9:0 10:0.3333 11:0.3333 12:17 13:0.1111 14:2 15:0.4138 16:58 17:0.2586 18:0.2069 19:0.2069 20:0.3276 21:0.1481 22:1 23:0.3333 
-0.1774306402628889 1:3 2:4 3:22 4:26 5:0.375 6:2 7:4 8:0.2917 9:0.2083 10:0.1667 11:0.3333 12:67 13:0.2083 14:2 15:0.4444 16:90 17:0.2333 18:0.2 19:0.2444 20:0.3222 21:0.2093 22:1.8 23:0.2105 
-0.4503348386587777 1:3 2:1 3:7 4:26 5:0.3913 6:2 7:4 8:0.2609 9:0 10:0.3913 11:0.3478 12:14 13:0.1837 14:4 15:0.4375 16:64 17:0.2344 18:0.2031 19:0.2344 20:0.3281 21:0.2 22:0.5 23:0.2727 
-0.07973150519343795 1:-1 2:0 3:0 4:24 5:0.4545 6:3 7:5 8:0.2727 9:0.3636 10:0.0909 11:0.2727 12:46 13:0.2381 14:-1 15:0.4545 16:44 17:0.2273 18:0.2273 19:0.2273 20:0.3182 21:0.2 22:1.29 23:-1 
-1 1:3 2:1 3:8 4:24 5:0.3333 6:2 7:4 8:0.2857 9:0 10:0.3333 11:0.381 12:15 13:0.2 14:2 15:0.4194 16:62 17:0.2419 18:0.1935 19:0.2258 20:0.3387 21:0.2069 22:0.56 23:0.2308 
-0.6970731103005603 1:3 2:1 3:5 4:26 5:0.3478 6:2 7:4 8:0.3043 9:0 10:0.3478 11:0.3478 12:16 13:0.1429 14:2 15:0.4167 16:60 17:0.25 18:0.2 19:0.2167 20:0.3333 21:0.1786 22:0.7 23:0.4286 
-1 1:3 2:1 3:7 4:23 5:0.35 6:2 7:3 8:0.3 9:0 10:0.35 11:0.35 12:17 13:0.1163 14:4 15:0.4138 16:58 17:0.2586 18:0.2069 19:0.2069 20:0.3276 21:0.1481 22:0.9 23:0.2727 
-0.1361595541740291 1:5 2:2 3:13 4:22 5:0.2727 6:4 7:1 8:0.4091 9:0.1364 10:0.1364 11:0.3182 12:59 13:0.1 14:4 15:0.3125 16:64 17:0.2969 18:0.1094 19:0.2031 20:0.3906 21:0.1525 22:0 23:0.3333 
-0.009905974559620494 1:1 2:1 3:4 4:31 5:0.3636 6:9 7:1 8:0.2727 9:0 10:0.3636 11:0.3636 12:17 13:0.1698 14:1 15:0.3125 16:64 17:0.2969 18:0.1094 19:0.2031 20:0.3906 21:0.1525 22:0.73 23:0.25 
-0.2297214806439535 1:9 2:2 3:27 4:24 5:0.45 6:4 7:2 8:0.2 9:0.3 10:0.15 11:0.35 12:73 13:0.2273 14:4 15:0.3913 16:92 17:0.25 18:0.1522 19:0.2391 20:0.3587 21:0.2184 22:1.29 23:0.2444 
-0.235599747930421 1:1 2:1 3:6 4:20 5:0.35 6:9 7:1 8:0.35 9:0.15 10:0.2 11:0.3 12:52 13:0.2903 14:3 15:0.3261 16:46 17:0.2826 18:0.1087 19:0.2174 20:0.3913 21:0.2195 22:0.62 23:0.1667 
-0.1011685339082868 1:2 2:2 3:10 4:21 5:0.3333 6:7 7:1 8:0.4286 9:0.1905 10:0.1429 11:0.2381 12:56 13:0.2 14:1 15:0.3393 16:56 17:0.2857 18:0.125 19:0.2143 20:0.375 21:0.1765 22:0 23:0.2222 
-0.4001478674873817 1:7 2:2 3:15 4:21 5:0.2381 6:2 7:1 8:0.4286 9:0.1429 10:0.0952 11:0.3333 12:61 13:0.05 14:3 15:0.3182 16:66 17:0.2879 18:0.1061 19:0.2121 20:0.3939 21:0.1475 22:0.5 23:0.3913 
-0.2035485577416284 1:2 2:2 3:10 4:23 5:0.3043 6:7 7:1 8:0.4348 9:0.1739 10:0.1304 11:0.2609 12:56 13:0.1795 14:3 15:0.3167 16:60 17:0.3 18:0.1167 19:0.2 20:0.3833 21:0.1636 22:0 23:0.2222 
-0.1679725566879991 1:1 2:1 3:8 4:21 5:0.3333 6:9 7:1 8:0.4286 9:0.1429 10:0.1905 11:0.2381 12:54 13:0.2727 14:1 15:0.3269 16:52 17:0.2885 18:0.1154 19:0.2115 20:0.3846 21:0.1915 22:0 23:0.125 
-0.2763198615668733 1:-1 2:0 3:0 4:33 5:0.3636 6:9 7:2 8:0.2727 9:0 10:0.3636 11:0.3636 12:20 13:0.2281 14:4 15:0.3276 16:58 17:0.2931 18:0.1207 19:0.2069 20:0.3793 21:0.1698 22:2.25 23:-1 
-0.1846187107946382 1:4 2:3 3:13 4:20 5:0.45 6:4 7:2 8:0.35 9:0.25 10:0.2 11:0.2 12:61 13:0.1667 14:4 15:0.5156 16:64 17:0.1719 18:0.1875 19:0.3281 20:0.3125 21:0.2 22:0 23:0.3333 
-0.01438299104668951 1:1 2:1 3:4 4:21 5:0.6 6:8 7:3 8:0.2 9:0.25 10:0.35 11:0.2 12:53 13:0.3333 14:4 15:0.5833 16:48 17:0.125 18:0.2083 19:0.375 20:0.2917 21:0.2821 22:1 23:0.25 
-0.1151062924550327 1:1 2:2 3:7 4:28 5:0.45 6:8 7:2 8:0.1 9:0.05 10:0.4 11:0.45 12:15 13:0.2083 14:3 15:0.5294 16:68 17:0.1618 18:0.1912 19:0.3382 20:0.3088 21:0.1864 22:1.11 23:0.2308 
-0.08649764928886557 1:1 2:1 3:2 4:31 5:0.5217 6:8 7:3 8:0.087 9:0.087 10:0.4348 11:0.3913 12:17 13:0.2075 14:3 15:0.5156 16:64 17:0.1719 18:0.1875 19:0.3281 20:0.3125 21:0.2 22:0.75 23:0.5 
-0.5846398555042746 1:1 2:2 3:8 4:24 5:0.5 6:8 7:2 8:0.2917 9:0.2083 10:0.2917 11:0.2083 12:56 13:0.25 14:1 15:0.5323 16:62 17:0.1613 18:0.1935 19:0.3387 20:0.3065 21:0.2075 22:0.2 23:0.2 
-0.05437925022174517 1:1 2:1 3:5 4:21 5:0.55 6:8 7:3 8:0.25 9:0.2 10:0.35 11:0.2 12:54 13:0.3333 14:4 15:0.56 16:50 17:0.14 18:0.2 19:0.36 20:0.3 21:0.2683 22:0.8 23:0.2 
-0.2465989057574654 1:1 2:1 3:6 4:24 5:0.5217 6:8 7:3 8:0.2609 9:0.2174 10:0.3043 11:0.2174 12:55 13:0.2821 14:4 15:0.5345 16:58 17:0.1552 18:0.1897 19:0.3448 20:0.3103 21:0.2245 22:0.56 23:0.1667 
-0.03531643878691152 1:8 2:4 3:27 4:21 5:0.619 6:4 7:2 8:0.1429 9:0.1905 10:0.4286 11:0.2381 12:2 13:0.1579 14:1 15:0.5556 16:90 17:0.1444 18:0.2111 19:0.3444 20:0.3 21:0.2099 22:0 23:0.2889 
-0.202610853056193 1:3 2:3 3:12 4:23 5:0.5217 6:5 7:2 8:0.3043 9:0.2609 10:0.2609 11:0.1739 12:60 13:0.1707 14:3 15:0.5294 16:68 17:0.1618 18:0.1912 19:0.3382 20:0.3088 21:0.1864 22:0 23:0.3 
-0.1697802493687196 1:8 2:4 3:28 4:20 5:0.65 6:4 7:2 8:0.15 9:0.2 10:0.45 11:0.2 12:2 13:0.1667 14:3 15:0.5556 16:90 17:0.1444 18:0.2111 19:0.3444 20:0.3 21:0.2099 22:0 23:0.2766 
-0.1435789812925334 1:-1 2:0 3:0 4:20 5:0.4 6:6 7:2 8:0.4 9:0.1 10:0.3 11:0.2 12:32 13:0.3846 14:-1 15:0.3659 16:41 17:0.3415 18:0.1707 19:0.1951 20:0.2927 21:0.1111 22:0 23:-1 
-0.009861970035218685 1:-1 2:0 3:0 4:23 5:0.3913 6:6 7:2 8:0.4348 9:0.087 10:0.3043 11:0.1739 12:32 13:0.3333 14:-1 15:0.3617 16:47 17:0.3404 18:0.1702 19:0.1915 20:0.2979 21:0.0909 22:0 23:-1 
-0.01882926486902363 1:-1 2:0 3:0 4:21 5:0.4 6:6 7:2 8:0.4 9:0.1 10:0.3 11:0.2 12:33 13:0.3659 14:4 15:0.3953 16:43 17:0.3256 18:0.186 19:0.2093 20:0.2791 21:0.1034 22:0 23:-1 
-0.02761941444338257 1:-1 2:0 3:0 4:22 5:0.381 6:6 7:2 8:0.4286 9:0.0952 10:0.2857 11:0.1905 12:33 13:0.3488 14:4 15:0.3778 16:45 17:0.3333 18:0.1778 19:0.2 20:0.2889 21:0.0968 22:0 23:-1 
-1 1:-1 2:0 3:5 4:21 5:0.2 6:3 7:2 8:0.45 9:0 10:0.2 11:0.35 12:44 13:0.1579 14:4 15:0.3387 16:62 17:0.3387 18:0.1613 19:0.1774 20:0.3226 21:0.125 22:3 23:0 
-0.4617404459151921 1:2 2:1 3:7 4:21 5:0.1905 6:5 7:2 8:0.381 9:0 10:0.1905 11:0.4286 12:45 13:0.2432 14:4 15:0.2812 16:64 17:0.3594 18:0.1406 19:0.1406 20:0.3594 21:0.24 22:5 23:0.2308 
-0.6069203284923895 1:2 2:1 3:7 4:20 5:0.35 6:2 7:1 8:0.15 9:0.15 10:0.2 11:0.5 12:1 13:0.1 14:2 15:0.4 16:65 17:0.2769 18:0.1385 19:0.2615 20:0.3231 21:0.1321 22:0.8 23:0.2308 
-0.3364217411183796 1:2 2:1 3:7 4:22 5:0.3636 6:2 7:2 8:0.3636 9:0.0909 10:0.2727 11:0.2727 12:46 13:0.1429 14:2 15:0.403 16:67 17:0.2687 18:0.1343 19:0.2687 20:0.3284 21:0.1636 22:2.5 23:0.2308 
-0.04530344325985947 1:2 2:1 3:9 4:20 5:0.35 6:2 7:2 8:0.4 9:0.1 10:0.25 11:0.25 12:48 13:0.1579 14:2 15:0.403 16:67 17:0.2687 18:0.1343 19:0.2687 20:0.3284 21:0.1636 22:1.25 23:0.1765 
-0.180168660711555 1:1 2:1 3:14 4:21 5:0.5 6:3 7:4 8:0.3 9:0.15 10:0.35 11:0.2 12:59 13:0.2432 14:1 15:0.4868 16:76 17:0.1974 18:0.2237 19:0.2632 20:0.3158 21:0.1562 22:3.5 23:0.037 
-0.1120309220242843 1:1 2:1 3:11 4:26 5:0.4545 6:5 7:4 8:0.1364 9:0.3182 10:0.1364 11:0.4091 12:1 13:0.2766 14:4 15:0.475 16:80 17:0.2125 18:0.2125 19:0.2625 20:0.3125 21:0.2059 22:0.22 23:0.0476 
-0.1750877738080447 1:1 2:1 3:10 4:24 5:0.381 6:5 7:3 8:0.2381 9:0.1905 10:0.1905 11:0.381 12:52 13:0.4091 14:2 15:0.4225 16:71 17:0.2817 18:0.169 19:0.2535 20:0.2958 21:0.3016 22:0.5 23:0.0526 
-0.04201738552845241 1:1 2:2 3:11 4:24 5:0.381 6:6 7:3 8:0.2381 9:0.2381 10:0.1429 11:0.381 12:53 13:0.4091 14:2 15:0.4384 16:73 17:0.274 18:0.1918 19:0.2466 20:0.2877 21:0.3231 22:2 23:0.1429 
-0.1433105115774848 1:-1 2:0 3:0 4:20 5:0.4762 6:3 7:3 8:0.2381 9:0.1905 10:0.2857 11:0.2857 12:18 13:0.3333 14:-1 15:0.439 16:41 17:0.2683 18:0.1707 19:0.2683 20:0.2927 21:0.2121 22:4.5 23:-1 
-0.006397907136963202 1:3 2:2 3:17 4:23 5:0.4091 6:1 7:3 8:0.2727 9:0.0909 10:0.3182 11:0.3182 12:77 13:0.1111 14:3 15:0.3537 16:82 17:0.2927 18:0.1463 19:0.2073 20:0.3537 21:0.1538 22:1.29 23:0.2121 
-0.1912328281174521 1:3 2:4 3:31 4:23 5:0.2609 6:1 7:5 8:0.3043 9:0.087 10:0.1739 11:0.4348 12:3 13:0.1818 14:1 15:0.3426 16:108 17:0.3148 18:0.1481 19:0.1944 20:0.3426 21:0.1731 22:0.88 23:0.1667 
-0.1827688275435275 1:3 2:2 3:20 4:22 5:0.4286 6:1 7:3 8:0.2857 9:0.0476 10:0.381 11:0.2857 12:80 13:0.1163 14:4 15:0.3721 16:86 17:0.2791 18:0.1512 19:0.2209 20:0.3488 21:0.1463 22:1 23:0.1795 
-0.03502920877472422 1:3 2:4 3:28 4:23 5:0.2174 6:1 7:4 8:0.2609 9:0.087 10:0.1304 11:0.5217 12:6 13:0.1556 14:3 15:0.3398 16:103 17:0.3107 18:0.1456 19:0.1942 20:0.3495 21:0.1717 22:0.88 23:0.1852 
-0.1833782208614163 1:3 2:3 3:25 4:23 5:0.2609 6:1 7:4 8:0.2609 9:0.1739 10:0.087 11:0.4783 12:9 13:0.1739 14:3 15:0.3367 16:98 17:0.3163 18:0.1429 19:0.1939 20:0.3469 21:0.1702 22:0.75 23:0.1667 
-0.1576333099612115 1:3 2:3 3:25 4:20 5:0.3 6:1 7:3 8:0.25 9:0.2 10:0.1 11:0.45 12:12 13:0.15 14:3 15:0.3587 16:92 17:0.2935 18:0.1522 19:0.2065 20:0.3478 21:0.1591 22:0.88 23:0.1667 
-0.2359590997349795 1:3 2:4 3:28 4:21 5:0.3333 6:1 7:3 8:0.4286 9:0.1429 10:0.1905 11:0.2381 12:87 13:0.1429 14:1 15:0.35 16:100 17:0.31 18:0.15 19:0.2 20:0.34 21:0.1667 22:1.14 23:0.1852 
-0.1595980892029916 1:1 2:1 3:9 4:24 5:0.6522 6:2 7:6 8:0.087 9:0.3913 10:0.2609 11:0.2609 12:7 13:0.2609 14:3 15:0.5 16:76 17:0.2632 18:0.25 19:0.25 20:0.2368 21:0.2188 22:0.89 23:0.1111 
-0.01948828810867324 1:2 2:1 3:11 4:25 5:0.625 6:2 7:6 8:0.125 9:0.4167 10:0.2083 11:0.25 12:4 13:0.234 14:2 15:0.5185 16:81 17:0.2593 18:0.2593 19:0.2593 20:0.2222 21:0.2174 22:0.67 23:0.1818 
-0.03534888187235994 1:2 2:1 3:10 4:22 5:0.619 6:2 7:4 8:0.2857 9:0.1905 10:0.4286 11:0.0952 12:61 13:0.1905 14:2 15:0.5 16:74 17:0.2568 18:0.2432 19:0.2568 20:0.2432 21:0.1935 22:0.82 23:0.2 
-1 1:1 2:1 3:2 4:25 5:0.5 6:2 7:4 8:0.2917 9:0.25 10:0.25 11:0.2083 12:45 13:0.1667 14:4 15:0.4737 16:57 17:0.2456 18:0.2456 19:0.2281 20:0.2807 21:0.16 22:0.45 23:0.5 
-0.2562703178290071 1:1 2:1 3:4 4:21 5:0.4286 6:2 7:4 8:0.2381 9:0.1905 10:0.2381 11:0.3333 12:16 13:0.2683 14:1 15:0.42 16:50 17:0.22 18:0.2 19:0.22 20:0.36 21:0.234 22:1.17 23:0.25 
-0.04572106222915526 1:1 2:1 3:3 4:21 5:0.381 6:2 7:3 8:0.2381 9:0.1905 10:0.1905 11:0.381 12:17 13:0.2195 14:4 15:0.4167 16:48 17:0.2292 18:0.2083 19:0.2083 20:0.3542 21:0.2 22:0.88 23:0.3333 
-0.04356795058121422 1:1 2:1 3:4 4:22 5:0.5238 6:2 7:4 8:0.1905 9:0.2381 10:0.2857 11:0.2857 12:46 13:0.3023 14:2 15:0.4231 16:52 17:0.2115 18:0.1923 19:0.2308 20:0.3654 21:0.2653 22:1.2 23:0.25 
-0.09016658220717007 1:1 2:1 3:3 4:20 5:0.4 6:2 7:3 8:0.2 9:0.2 10:0.2 11:0.4 12:18 13:0.2308 14:4 15:0.4348 16:46 17:0.2174 18:0.2174 19:0.2174 20:0.3478 21:0.2093 22:1 23:0.3333 
-0.00831686294028202 1:5 2:2 3:18 4:20 5:0.5 6:2 7:2 8:0.25 9:0.2 10:0.3 11:0.25 12:60 13:0.15 14:1 15:0.4937 16:79 17:0.2152 18:0.2405 19:0.2532 20:0.2911 21:0.2533 22:1.12 23:0.3714 
-0.003352485261828348 1:5 2:1 3:15 4:20 5:0.4 6:2 7:3 8:0.2 9:0.25 10:0.15 11:0.4 12:4 13:0.25 14:3 15:0.4795 16:73 17:0.2192 18:0.2329 19:0.2466 20:0.3014 21:0.2754 22:1 23:0.3103 
-0.1493199928336958 1:5 2:1 3:14 4:24 5:0.4167 6:2 7:3 8:0.1667 9:0.2083 10:0.2083 11:0.4167 12:1 13:0.2083 14:2 15:0.4937 16:79 17:0.2152 18:0.2405 19:0.2532 20:0.2911 21:0.2533 22:2 23:0.3333 
-0.2879451594357035 1:5 2:2 3:17 4:21 5:0.4762 6:2 7:2 8:0.2857 9:0.1905 10:0.2857 11:0.2381 12:59 13:0.1429 14:1 15:0.4937 16:79 17:0.2152 18:0.2405 19:0.2532 20:0.2911 21:0.2533 22:1.12 23:0.3939 
-0.1445819831204402 1:3 2:4 3:25 4:27 5:0.5 6:5 7:4 8:0.05 9:0.3 10:0.2 11:0.45 12:83 13:0.2766 14:3 15:0.5979 16:97 17:0.1753 18:0.2577 19:0.3402 20:0.2268 21:0.2609 22:0.45 23:0.2766 
-0.09611853697168771 1:3 2:4 3:20 4:25 5:0.55 6:5 7:3 8:0 9:0.3 10:0.25 11:0.45 12:78 13:0.2444 14:1 15:0.5882 16:85 17:0.1765 18:0.2471 19:0.3412 20:0.2353 21:0.275 22:1.1 23:0.3514 
-0.08099577039138738 1:3 2:4 3:26 4:21 5:0.7619 6:5 7:3 8:0.1429 9:0.2857 10:0.4762 11:0.0952 12:11 13:0.2973 14:4 15:0.5843 16:89 17:0.1798 18:0.2472 19:0.3371 20:0.236 21:0.2619 22:1.6 23:0.2653 
-0.0763895682596885 1:3 2:4 3:20 4:20 5:0.8 6:2 7:3 8:0.1 9:0.2 10:0.6 11:0.1 12:18 13:0.1795 14:2 15:0.557 16:79 17:0.1899 18:0.2152 19:0.3418 20:0.2532 21:0.2432 22:0.64 23:0.3514 
-0.07162958105834959 1:2 2:4 3:19 4:22 5:0.7727 6:2 7:4 8:0.0909 9:0.1818 10:0.5909 11:0.1364 12:17 13:0.2381 14:1 15:0.5625 16:80 17:0.1875 18:0.2125 19:0.35 20:0.25 21:0.2533 22:0.56 23:0.3143 
-0.07528906160733281 1:2 2:3 3:16 4:21 5:0.7143 6:3 7:3 8:0.1429 9:0.1905 10:0.5238 11:0.1429 12:21 13:0.2857 14:4 15:0.5541 16:74 17:0.2027 18:0.2162 19:0.3378 20:0.2432 21:0.2464 22:2.67 23:0.2414 
-0.1406876756241404 1:3 2:5 3:28 4:20 5:0.75 6:5 7:4 8:0.15 9:0.3 10:0.45 11:0.1 12:10 13:0.2941 14:2 15:0.5889 16:90 17:0.1778 18:0.2444 19:0.3444 20:0.2333 21:0.2706 22:1.14 23:0.283 
-0.1825111809882919 1:2 2:3 3:17 4:20 5:0.7 6:3 7:3 8:0.15 9:0.15 10:0.55 11:0.15 12:21 13:0.3 14:3 15:0.5541 16:74 17:0.2027 18:0.2162 19:0.3378 20:0.2432 21:0.2464 22:2.67 23:0.2258 
-0.165024707844258 1:3 2:4 3:23 4:29 5:0.5 6:5 7:4 8:0.0455 9:0.3182 10:0.1818 11:0.4545 12:81 13:0.2549 14:3 15:0.5979 16:97 17:0.1753 18:0.2577 19:0.3402 20:0.2268 21:0.2609 22:0.91 23:0.3023 
-0.174534700042176 1:-1 2:0 3:0 4:22 5:0.6364 6:4 7:4 8:0.2273 9:0.4545 10:0.1818 11:0.1364 12:36 13:0.3636 14:4 15:0.5769 16:52 17:0.1923 18:0.3462 19:0.2308 20:0.2308 21:0.2222 22:0 23:-1 
-0.06400059316657537 1:-1 2:0 3:0 4:20 5:0.4 6:3 7:4 8:0.2 9:0.2 10:0.2 11:0.4 12:12 13:0.3333 14:-1 15:0.3659 16:41 17:0.2683 18:0.1463 19:0.2195 20:0.3659 21:0.2973 22:0.8 23:-1 
-1 1:-1 2:0 3:0 4:25 5:0.4167 6:3 7:3 8:0.125 9:0.25 10:0.1667 11:0.4583 12:6 13:0.2245 14:4 15:0.3585 16:53 17:0.283 18:0.1509 19:0.2075 20:0.3585 21:0.2245 22:2 23:-1 
-0.02745440707151916 1:4 2:2 3:15 4:24 5:0.4583 6:2 7:4 8:0.3333 9:0.1667 10:0.2917 11:0.2083 12:57 13:0.1915 14:3 15:0.45 16:80 17:0.2625 18:0.2 19:0.25 20:0.2875 21:0.2162 22:0.5 23:0.2593 
-0.07322164451347982 1:1 2:1 3:9 4:24 5:0.4167 6:2 7:3 8:0.25 9:0.2917 10:0.125 11:0.3333 12:59 13:0.2083 14:1 15:0.4198 16:81 17:0.284 18:0.1975 19:0.2222 20:0.2963 21:0.1692 22:1.43 23:0.0588 
-0.08575352926602255 1:-1 2:0 3:0 4:22 5:0.3043 6:5 7:4 8:0.4783 9:0.1739 10:0.1304 11:0.2174 12:10 13:0.4091 14:-1 15:0.3696 16:46 17:0.3478 18:0.2174 19:0.1522 20:0.2826 21:0.2353 22:5 23:-1 
-0.09638445526740162 1:-1 2:0 3:0 4:20 5:0.35 6:5 7:4 8:0.5 9:0.2 10:0.15 11:0.15 12:12 13:0.4 14:4 15:0.4048 16:42 17:0.3095 18:0.2381 19:0.1667 20:0.2857 21:0.2 22:5 23:-1 
-0.09680932213207696 1:-1 2:0 3:0 4:20 5:0.3333 6:5 7:4 8:0.4762 9:0.1905 10:0.1429 11:0.1905 12:12 13:0.4 14:-1 15:0.4048 16:42 17:0.3095 18:0.2381 19:0.1667 20:0.2857 21:0.2 22:5 23:-1 
-0.004979054519112125 1:-1 2:0 3:0 4:21 5:0.2857 6:4 7:4 8:0.5238 9:0.1905 10:0.0952 11:0.1905 12:10 13:0.381 14:4 15:0.3696 16:46 17:0.3478 18:0.2174 19:0.1522 20:0.2826 21:0.2353 22:5 23:-1 
-0.02966400009562757 1:2 2:3 3:14 4:20 5:0.3 6:5 7:3 8:0.1 9:0.1 10:0.2 11:0.6 12:1 13:0.2353 14:4 15:0.3288 16:73 17:0.2877 18:0.1096 19:0.2192 20:0.3836 21:0.2333 22:0 23:0.2857 
-0.09807188848266861 1:-1 2:0 3:0 4:23 5:0.2273 6:6 7:4 8:0.2273 9:0.0909 10:0.1364 11:0.5455 12:17 13:0.4667 14:4 15:0.3043 16:46 17:0.3043 18:0.087 19:0.2174 20:0.3913 21:0.2727 22:5 23:-1 
-0.02281809983366434 1:-1 2:0 3:0 4:23 5:0.5217 6:2 7:4 8:0.3043 9:0.2609 10:0.2609 11:0.1739 12:38 13:0.3023 14:-1 15:0.4 16:45 17:0.2222 18:0.2 19:0.2 20:0.3778 21:0.2308 22:0.62 23:-1 
-0.1284000534571429 1:-1 2:0 3:0 4:21 5:0.6 6:2 7:4 8:0.25 9:0.3 10:0.3 11:0.15 12:39 13:0.3333 14:4 15:0.439 16:41 17:0.1951 18:0.2195 19:0.2195 20:0.3659 21:0.2571 22:0.83 23:-1 
-0.6451926176439478 1:-1 2:0 3:6 4:27 5:0.55 6:7 7:2 8:0.25 9:0.15 10:0.4 11:0.2 12:54 13:0.234 14:1 15:0.411 16:73 17:0.2055 18:0.2055 19:0.2055 20:0.3836 21:0.1864 22:1.43 23:0 
-0.1360986156665154 1:-1 2:0 3:9 4:24 5:0.375 6:7 7:2 8:0.0833 9:0.1667 10:0.2083 11:0.5417 12:1 13:0.2683 14:3 15:0.411 16:73 17:0.2055 18:0.2055 19:0.2055 20:0.3836 21:0.1864 22:0 23:0 
-0.2775409521431695 1:-1 2:0 3:6 4:23 5:0.3478 6:3 7:2 8:0.087 9:0.1739 10:0.1739 11:0.5652 12:5 13:0.1429 14:4 15:0.3971 16:68 17:0.2206 18:0.1912 19:0.2059 20:0.3824 21:0.1111 22:0.2 23:0 
-0.1985063358826374 1:-1 2:0 3:0 4:20 5:0.25 6:6 7:2 8:0.25 9:0.15 10:0.1 11:0.5 12:20 13:0.3846 14:4 15:0.3171 16:41 17:0.2683 18:0.1951 19:0.122 20:0.4146 21:0.1111 22:5 23:-1 
-0.1136870186330201 1:2 2:4 3:14 4:23 5:0.4348 6:5 7:4 8:0.3478 9:0.1304 10:0.3043 11:0.2174 12:48 13:0.3659 14:1 15:0.4429 16:70 17:0.2429 18:0.1143 19:0.3286 20:0.3143 21:0.3231 22:5 23:0.3077 
-0.1507190949845308 1:2 2:5 3:15 4:20 5:0.45 6:3 7:4 8:0.35 9:0.15 10:0.3 11:0.2 12:49 13:0.2973 14:1 15:0.4412 16:68 17:0.2353 18:0.1176 19:0.3235 20:0.3235 21:0.3016 22:2.33 23:0.3571 
-0.02657846136185095 1:1 2:4 3:12 4:22 5:0.4545 6:2 7:5 8:0.3182 9:0.1818 10:0.2727 11:0.2273 12:46 13:0.3333 14:1 15:0.4328 16:67 17:0.2388 18:0.1194 19:0.3134 20:0.3284 21:0.2903 22:0.6 23:0.2727 
-0.1375055085155849 1:-1 2:0 3:0 4:21 5:0.2857 6:2 7:5 8:0.2381 9:0.0952 10:0.1905 11:0.4762 12:33 13:0.35 14:-1 15:0.3659 16:41 17:0.2439 18:0.0976 19:0.2683 20:0.3902 21:0.2778 22:0.67 23:-1 
-0.1355804871358024 1:-1 2:0 3:0 4:21 5:0.45 6:2 7:5 8:0.25 9:0.1 10:0.35 11:0.3 12:13 13:0.35 14:4 15:0.3659 16:41 17:0.2439 18:0.0976 19:0.2683 20:0.3902 21:0.2778 22:1.5 23:-1 
-0.07738563118181502 1:3 2:1 3:9 4:23 5:0.5 6:2 7:4 8:0.2727 9:0.3182 10:0.1818 11:0.2273 12:64 13:0.2444 14:2 15:0.5238 16:84 17:0.2143 18:0.2738 19:0.25 20:0.2619 21:0.2581 22:1.43 23:0.2941 
-0.03814254837201842 1:-1 2:0 3:0 4:24 5:0.3913 6:7 7:3 8:0.3043 9:0.3043 10:0.087 11:0.3043 12:49 13:0.4468 14:3 15:0.4909 16:55 17:0.2545 18:0.2909 19:0.2 20:0.2545 21:0.2121 22:0 23:-1 
-0.1340084758783661 1:3 2:1 3:9 4:31 5:0.5 6:8 7:5 8:0.0833 9:0.125 10:0.375 11:0.4167 12:1 13:0.3704 14:4 15:0.5161 16:93 17:0.2151 18:0.2903 19:0.2258 20:0.2688 21:0.3521 22:0.5 23:0.2941 
-0.1092918637765328 1:-1 2:0 3:0 4:25 5:0.4167 6:8 7:3 8:0.2917 9:0.3333 10:0.0833 11:0.2917 12:48 13:0.4694 14:3 15:0.4909 16:55 17:0.2545 18:0.2909 19:0.2 20:0.2545 21:0.2121 22:0 23:-1 
-0.1218048303299108 1:3 2:1 3:9 4:23 5:0.5217 6:2 7:4 8:0.087 9:0.1304 10:0.3913 11:0.3913 12:2 13:0.2444 14:4 15:0.5238 16:84 17:0.2143 18:0.2738 19:0.25 20:0.2619 21:0.2581 22:0.7 23:0.2941 
-0.01975104489214707 1:3 2:1 3:11 4:21 5:0.5 6:2 7:4 8:0.3 9:0.3 10:0.2 11:0.2 12:66 13:0.2683 14:2 15:0.5238 16:84 17:0.2143 18:0.2738 19:0.25 20:0.2619 21:0.2581 22:1 23:0.2381 
-0.1172848636188372 1:3 2:1 3:11 4:20 5:0.55 6:2 7:4 8:0.05 9:0.15 10:0.4 11:0.4 12:3 13:0.2821 14:2 15:0.5366 16:82 17:0.2073 18:0.2805 19:0.2561 20:0.2561 21:0.2667 22:1.14 23:0.2381 
-0.09998106326888712 1:3 2:1 3:12 4:23 5:0.5 6:3 7:5 8:0.2727 9:0.3182 10:0.1818 11:0.2273 12:67 13:0.3333 14:2 15:0.5172 16:87 17:0.2184 18:0.2759 19:0.2414 20:0.2644 21:0.2923 22:4 23:0.2174 
-0.1722804797828975 1:3 2:1 3:10 4:30 5:0.5217 6:8 7:5 8:0.0435 9:0.1304 10:0.3913 11:0.4348 12:1 13:0.3846 14:4 15:0.5161 16:93 17:0.2151 18:0.2903 19:0.2258 20:0.2688 21:0.3521 22:0.62 23:0.2632 
-0.03755344945500177 1:-1 2:0 3:0 4:23 5:0.381 6:3 7:4 8:0.381 9:0.1429 10:0.2381 11:0.2381 12:14 13:0.3023 14:-1 15:0.4222 16:45 17:0.3111 18:0.2 19:0.2222 20:0.2667 21:0.2683 22:0.29 23:-1 
-0.07729744227997262 1:-1 2:0 3:0 4:23 5:0.4348 6:3 7:4 8:0.2609 9:0.2174 10:0.2174 11:0.3043 12:36 13:0.3023 14:3 15:0.4222 16:45 17:0.3111 18:0.2 19:0.2222 20:0.2667 21:0.2683 22:3.5 23:-1 
-0.221750550796048 1:3 2:2 3:13 4:28 5:0.5455 6:8 7:4 8:0.2273 9:0.3182 10:0.2273 11:0.2273 12:1 13:0.44 14:4 15:0.4935 16:77 17:0.2727 18:0.2597 19:0.2338 20:0.2338 21:0.3699 22:0.45 23:0.2174 
-0.05640258335666868 1:-1 2:0 3:8 4:23 5:0.5652 6:3 7:3 8:0.1304 9:0.1739 10:0.3913 11:0.3043 12:6 13:0.3043 14:1 15:0.473 16:74 17:0.2703 18:0.2297 19:0.2432 20:0.2568 21:0.2258 22:0.56 23:0 
-0.3170007162359793 1:-1 2:0 3:8 4:21 5:0.5238 6:3 7:3 8:0.3333 9:0.2857 10:0.2381 11:0.1429 12:57 13:0.3333 14:3 15:0.4571 16:70 17:0.2857 18:0.2286 19:0.2286 20:0.2571 21:0.2414 22:2.25 23:0 
-0.07100810733570324 1:2 2:1 3:15 4:20 5:0.5 6:3 7:2 8:0.15 9:0.15 10:0.35 11:0.35 12:2 13:0.25 14:3 15:0.4878 16:82 17:0.2561 18:0.2317 19:0.2561 20:0.2561 21:0.2 22:1.43 23:0.1333 
-0.02501013558142221 1:2 2:1 3:13 4:20 5:0.5 6:3 7:2 8:0.15 9:0.15 10:0.35 11:0.35 12:4 13:0.25 14:1 15:0.4744 16:78 17:0.2692 18:0.2308 19:0.2436 20:0.2564 21:0.2121 22:0.91 23:0.1538 
-0.0819593679893494 1:2 2:3 3:15 4:20 5:0.45 6:1 7:4 8:0.3 9:0.3 10:0.15 11:0.25 12:58 13:0.1579 14:3 15:0.4868 16:76 17:0.2237 18:0.1974 19:0.2895 20:0.2895 21:0.1692 22:1 23:0.2414 
-0.1358622256178861 1:1 2:2 3:10 4:25 5:0.5417 6:1 7:6 8:0.25 9:0.2917 10:0.25 11:0.2083 12:54 13:0.1915 14:3 15:0.4868 16:76 17:0.2237 18:0.1974 19:0.2895 20:0.2895 21:0.1692 22:1 23:0.2 
-0.03211564358846447 1:1 2:1 3:9 4:24 5:0.5217 6:2 7:6 8:0.2174 9:0.2609 10:0.2609 11:0.2609 12:53 13:0.2444 14:3 15:0.4861 16:72 17:0.2222 18:0.1944 19:0.2917 20:0.2917 21:0.1803 22:0.62 23:0.1111 
-0.3038018163351804 1:-1 2:0 3:0 4:26 5:0.5 6:2 7:2 8:0.2917 9:0.2917 10:0.2083 11:0.2083 12:45 13:0.08 14:2 15:0.4821 16:56 17:0.2143 18:0.2321 19:0.25 20:0.3036 21:0.08 22:0.82 23:-1 
-0.5262780546780121 1:-1 2:0 3:1 4:22 5:0.4091 6:2 7:2 8:0.1818 9:0.1818 10:0.2273 11:0.4091 12:16 13:0.0952 14:4 15:0.46 16:50 17:0.22 18:0.22 19:0.24 20:0.32 21:0.0909 22:1.8 23:0 
-0.5954707340530908 1:-1 2:0 3:1 4:31 5:0.5417 6:5 7:3 8:0.2917 9:0.2917 10:0.25 11:0.1667 12:46 13:0.1636 14:2 15:0.5079 16:63 17:0.2063 18:0.254 19:0.254 20:0.2857 21:0.1579 22:0.91 23:0 
-0.04085672078665406 1:6 2:2 3:18 4:21 5:0.4286 6:9 7:2 8:0.381 9:0.2381 10:0.1905 11:0.1905 12:1 13:0.3714 14:4 15:0.4225 16:71 17:0.3099 18:0.2113 19:0.2113 20:0.2676 21:0.3529 22:0 23:0.3714 
-0.1301627558034042 1:6 2:2 3:17 4:20 5:0.4 6:7 7:2 8:0.45 9:0.25 10:0.15 11:0.15 12:3 13:0.2727 14:4 15:0.4328 16:67 17:0.3134 18:0.2239 19:0.209 20:0.2537 21:0.3125 22:0 23:0.3939 
-0.06166326543793168 1:1 2:1 3:2 4:20 5:0.35 6:6 7:2 8:0.5 9:0.2 10:0.15 11:0.15 12:18 13:0.3333 14:3 15:0.4318 16:44 17:0.3182 18:0.2045 19:0.2273 20:0.25 21:0.3171 22:2.33 23:0.5 
-0.009008644326373013 1:1 2:1 3:2 4:23 5:0.4545 6:6 7:2 8:0.1364 9:0.1818 10:0.2727 11:0.4091 12:43 13:0.2889 14:1 15:0.42 16:50 17:0.32 18:0.2 19:0.22 20:0.26 21:0.2766 22:0.33 23:0.5 
-0.1611816216844482 1:1 2:2 3:9 4:24 5:0.625 6:1 7:2 8:0.125 9:0.25 10:0.375 11:0.25 12:63 13:0.0833 14:1 15:0.5733 16:75 17:0.2133 18:0.2933 19:0.28 20:0.2133 21:0.0938 22:0.64 23:0.2222 
-0.1027358124448579 1:1 2:3 3:10 4:21 5:0.619 6:1 7:1 8:0.2381 9:0.3333 10:0.2857 11:0.1429 12:14 13:0.0476 14:1 15:0.5493 16:71 17:0.2254 18:0.2817 19:0.2676 20:0.2254 21:0.1 22:1 23:0.3 
-0.1871023265597191 1:1 2:3 3:11 4:24 5:0.6667 6:1 7:1 8:0.2083 9:0.3333 10:0.3333 11:0.125 12:10 13:0.0417 14:4 15:0.5696 16:79 17:0.2152 18:0.2911 19:0.2785 20:0.2152 21:0.0882 22:1.1 23:0.2727 
-0.1266157704502194 1:1 2:3 3:17 4:21 5:0.619 6:1 7:1 8:0.1429 9:0.1905 10:0.4286 11:0.2381 12:71 13:0.0476 14:2 15:0.5765 16:85 17:0.2118 18:0.2941 19:0.2824 20:0.2118 21:0.0811 22:0.91 23:0.1765 
-0.08887055108557018 1:1 2:3 3:15 4:24 5:0.7083 6:1 7:2 8:0.1667 9:0.3333 10:0.375 11:0.125 12:6 13:0.0638 14:4 15:0.5814 16:86 17:0.2093 18:0.2907 19:0.2907 20:0.2093 21:0.0933 22:0.73 23:0.2 
-0.0287636826979551 1:1 2:3 3:12 4:20 5:0.7 6:1 7:1 8:0.15 9:0.4 10:0.3 11:0.15 12:13 13:0.05 14:4 15:0.5616 16:73 17:0.2192 18:0.2877 19:0.274 20:0.2192 21:0.0968 22:1 23:0.25 
-0.08039737565656073 1:1 2:3 3:20 4:22 5:0.6667 6:1 7:2 8:0.1429 9:0.2381 10:0.4286 11:0.1905 12:74 13:0.0698 14:3 15:0.587 16:92 17:0.2065 18:0.2935 19:0.2935 20:0.2065 21:0.0864 22:0.73 23:0.15 
-0.06309031718025761 1:1 2:3 3:12 4:24 5:0.6667 6:1 7:1 8:0.125 9:0.2917 10:0.375 11:0.2083 12:66 13:0.0417 14:1 15:0.5802 16:81 17:0.2099 18:0.2963 19:0.284 20:0.2099 21:0.0857 22:1 23:0.25 
-0.08626819498435717 1:1 2:3 3:19 4:22 5:0.6667 6:1 7:2 8:0.1429 9:0.2381 10:0.4286 11:0.1905 12:73 13:0.0698 14:1 15:0.6 16:90 17:0.2 18:0.3 19:0.3 20:0.2 21:0.0886 22:0.73 23:0.1579 
-0.7761416232206734 1:-1 2:0 3:0 4:23 5:0.4762 6:1 7:5 8:0.2857 9:0.2381 10:0.2381 11:0.2381 12:21 13:0.1628 14:1 15:0.4717 16:53 17:0.3396 18:0.283 19:0.1887 20:0.1887 21:0.1628 22:0.64 23:-1 
-0.02529890968133022 1:-1 2:0 3:0 4:20 5:0.5 6:3 7:4 8:0.35 9:0.35 10:0.15 11:0.15 12:49 13:0.2632 14:2 15:0.4762 16:42 17:0.3333 18:0.2857 19:0.1905 20:0.1905 21:0.125 22:0.38 23:-1 
-0.02407217665770653 1:1 2:4 3:19 4:23 5:0.4783 6:2 7:4 8:0.3478 9:0.2174 10:0.2609 11:0.1739 12:70 13:0.2174 14:1 15:0.4725 16:91 17:0.2967 18:0.2418 19:0.2308 20:0.2308 21:0.1852 22:1.17 23:0.1429 
-0.3460801878709332 1:-1 2:0 3:0 4:24 5:0.4348 6:1 7:5 8:0.3478 9:0.2609 10:0.1739 11:0.2174 12:52 13:0.1556 14:2 15:0.4545 16:55 17:0.3455 18:0.2727 19:0.1818 20:0.2 21:0.1556 22:1.14 23:-1 
-0.069595374283125 1:-1 2:0 3:0 4:23 5:0.4783 6:3 7:2 8:0.2174 9:0.2609 10:0.2174 11:0.3043 12:35 13:0.1739 14:1 15:0.4615 16:52 17:0.1923 18:0.2308 19:0.2308 20:0.3462 21:0.1739 22:2 23:-1 
-0.3412728059952488 1:3 2:3 3:34 4:22 5:0.5455 6:4 7:4 8:0.1818 9:0.2273 10:0.3182 11:0.2727 12:2 13:0.4146 14:4 15:0.4737 16:114 17:0.2105 18:0.2456 19:0.2281 20:0.3158 21:0.2593 22:1.67 23:0.1642 
-0.2296885544079051 1:3 2:2 3:20 4:27 5:0.5217 6:3 7:4 8:0.1304 9:0.3043 10:0.2174 11:0.3478 12:84 13:0.24 14:4 15:0.4896 16:96 17:0.1771 18:0.25 19:0.2396 20:0.3333 21:0.2222 22:1.67 23:0.2 
-0.1991876735653231 1:3 2:1 3:15 4:23 5:0.4783 6:2 7:4 8:0.2609 9:0.3043 10:0.1739 11:0.2609 12:20 13:0.1818 14:3 15:0.475 16:80 17:0.1875 18:0.25 19:0.225 20:0.3375 21:0.1892 22:0.86 23:0.2 
-0.07628216968989489 1:-1 2:0 3:0 4:23 5:0.4348 6:3 7:3 8:0.1739 9:0.2174 10:0.2174 11:0.3913 12:62 13:0.2609 14:4 15:0.4583 16:48 17:0.1875 18:0.2292 19:0.2292 20:0.3542 21:0.1905 22:0.56 23:-1 
-0.08806493607271595 1:-1 2:0 3:0 4:24 5:0.4167 6:3 7:3 8:0.2083 9:0.2083 10:0.2083 11:0.375 12:62 13:0.25 14:2 15:0.44 16:50 17:0.2 18:0.22 19:0.22 20:0.36 21:0.1818 22:0.56 23:-1 
-0.1716468964603663 1:-1 2:0 3:1 4:21 5:0.4286 6:3 7:2 8:0.1905 9:0.1905 10:0.2381 11:0.381 12:65 13:0.1905 14:2 15:0.44 16:50 17:0.2 18:0.22 19:0.22 20:0.36 21:0.1818 22:0.33 23:0 
-0.1515154852233024 1:3 2:2 3:28 4:22 5:0.5 6:3 7:5 8:0.1818 9:0.2727 10:0.2273 11:0.3182 12:8 13:0.4 14:2 15:0.4608 16:102 17:0.2157 18:0.2353 19:0.2255 20:0.3235 21:0.25 22:1 23:0.1429 
-0.134125108518928 1:3 2:2 3:19 4:21 5:0.5238 6:2 7:3 8:0.2381 9:0.2857 10:0.2381 11:0.2381 12:18 13:0.1795 14:4 15:0.4819 16:83 17:0.1807 18:0.253 19:0.2289 20:0.3373 21:0.1948 22:0.6 23:0.2105 
-0.2475940923684578 1:-1 2:0 3:0 4:20 5:0.45 6:3 7:3 8:0.2 9:0.2 10:0.25 11:0.35 12:62 13:0.3 14:1 15:0.4762 16:42 17:0.1667 18:0.2381 19:0.2381 20:0.3571 21:0.2222 22:0.62 23:-1 
-0.02546256455678419 1:5 2:1 3:14 4:24 5:0.4167 6:9 7:2 8:0.2917 9:0.25 10:0.1667 11:0.2917 12:3 13:0.3333 14:1 15:0.4571 16:70 17:0.2143 18:0.2143 19:0.2429 20:0.3286 21:0.2903 22:0 23:0.2174 
-0.845899910950648 1:-1 2:0 3:1 4:28 5:0.5652 6:5 7:2 8:0.1739 9:0.3043 10:0.2609 11:0.2609 12:50 13:0.1765 14:4 15:0.459 16:61 17:0.2295 18:0.1967 19:0.2623 20:0.3115 21:0.1698 22:1 23:0 
-0.2779139682651847 1:10 2:1 3:14 4:20 5:0.4 6:2 7:2 8:0.25 9:0.2 10:0.2 11:0.35 12:1 13:0.15 14:4 15:0.4032 16:62 17:0.2903 18:0.1935 19:0.2097 20:0.3065 21:0.2759 22:0.64 23:0.5556 
-0.1973478865440929 1:7 2:1 3:11 4:23 5:0.3478 6:3 7:3 8:0.3478 9:0.1739 10:0.1739 11:0.3043 12:1 13:0.2093 14:4 15:0.4032 16:62 17:0.2903 18:0.1935 19:0.2097 20:0.3065 21:0.2759 22:2.33 23:0.4667 
-0.1134550317687269 1:-1 2:0 3:0 4:27 5:0.5455 6:3 7:4 8:0.1364 9:0.3182 10:0.2273 11:0.3182 12:23 13:0.2653 14:3 15:0.5 16:50 17:0.26 18:0.26 19:0.24 20:0.24 21:0.1628 22:4.5 23:-1 
-0.07433339366239021 1:-1 2:0 3:0 4:25 5:0.6 6:3 7:4 8:0.15 9:0.35 10:0.25 11:0.25 12:25 13:0.2889 14:3 15:0.5435 16:46 17:0.2391 18:0.2826 19:0.2609 20:0.2174 21:0.1795 22:5 23:-1 
-0.2606027269285206 1:3 2:4 3:19 4:22 5:0.5909 6:2 7:2 8:0.1818 9:0.3182 10:0.2727 11:0.2273 12:67 13:0.1364 14:4 15:0.561 16:82 17:0.2195 18:0.2927 19:0.2683 20:0.2195 21:0.1733 22:1.11 23:0.2727 
-0.1057177319887253 1:3 2:4 3:19 4:21 5:0.5714 6:2 7:2 8:0.1905 9:0.2857 10:0.2857 11:0.2381 12:67 13:0.1429 14:3 15:0.55 16:80 17:0.225 18:0.2875 19:0.2625 20:0.225 21:0.1781 22:1.11 23:0.2727 
-0.1540822529159003 1:3 2:4 3:27 4:20 5:0.6 6:6 7:3 8:0.3 9:0.3 10:0.3 11:0.1 12:1 13:0.3529 14:4 15:0.5568 16:88 17:0.2273 18:0.2841 19:0.2727 20:0.2159 21:0.2346 22:0 23:0.1837 
-0.1709125760848445 1:2 2:2 3:11 4:20 5:0.3 6:3 7:2 8:0.45 9:0.15 10:0.15 11:0.25 12:45 13:0.1892 14:4 15:0.381 16:63 17:0.2857 18:0.1587 19:0.2222 20:0.3333 21:0.1786 22:2 23:0.2381 
-0.1401626991484031 1:-1 2:0 3:0 4:21 5:0.5455 6:2 7:3 8:0.1818 9:0.3182 10:0.2273 11:0.2727 12:31 13:0.1795 14:4 15:0.4634 16:41 17:0.2195 18:0.2195 19:0.2439 20:0.3171 21:0.0857 22:0.5 23:-1 
-0.02369369086857239 1:2 2:1 3:17 4:20 5:0.5 6:6 7:3 8:0.3 9:0.2 10:0.3 11:0.2 12:2 13:0.3529 14:3 15:0.4857 16:70 17:0.2143 18:0.2 19:0.2857 20:0.3 21:0.2121 22:0 23:0.0625 
-0.1110152407123438 1:-1 2:0 3:0 4:20 5:0.45 6:2 7:2 8:0.15 9:0.25 10:0.2 11:0.4 12:19 13:0.1053 14:4 15:0.4524 16:42 17:0.2143 18:0.2143 19:0.2381 20:0.3333 21:0.1053 22:0.7 23:-1 
-0.07045055915439527 1:1 2:1 3:9 4:24 5:0.5 6:3 7:3 8:0.25 9:0.1667 10:0.3333 11:0.25 12:60 13:0.1364 14:4 15:0.378 16:82 17:0.3049 18:0.1585 19:0.2195 20:0.3171 21:0.129 22:2.67 23:0.1111 
-0.008015653345326217 1:-1 2:0 3:0 4:22 5:0.2727 6:8 7:3 8:0.3636 9:0.1818 10:0.0909 11:0.3636 12:43 13:0.4419 14:2 15:0.2979 16:47 17:0.3404 18:0.1277 19:0.1702 20:0.3617 21:0.1111 22:0 23:-1 
-0.1172430841715 1:1 2:1 3:11 4:20 5:0.5 6:1 7:3 8:0.2 9:0.15 10:0.35 11:0.3 12:62 13:0.1053 14:4 15:0.375 16:80 17:0.3 18:0.1625 19:0.2125 20:0.325 21:0.1 22:1 23:0.0909 
-0.147679044569855 1:-1 2:0 3:7 4:21 5:0.4 6:1 7:3 8:0.35 9:0.25 10:0.15 11:0.25 12:4 13:0.122 14:4 15:0.36 16:75 17:0.32 18:0.16 19:0.2 20:0.32 21:0.0909 22:1 23:0 
-0.2286395482434496 1:-1 2:0 3:6 4:22 5:0.4091 6:1 7:3 8:0.2727 9:0.1364 10:0.2727 11:0.3182 12:57 13:0.1163 14:4 15:0.36 16:75 17:0.32 18:0.16 19:0.2 20:0.32 21:0.0909 22:0.86 23:0 
-0.2945024444732747 1:1 2:1 3:10 4:32 5:0.45 6:12 7:3 8:0.25 9:0.25 10:0.2 11:0.3 12:1 13:0.3077 14:1 15:0.3913 16:92 17:0.2826 18:0.1848 19:0.2065 20:0.3261 21:0.25 22:0.73 23:0.1 
-0.2248342134920059 1:-1 2:0 3:6 4:24 5:0.3913 6:1 7:3 8:0.3478 9:0.2174 10:0.1739 11:0.2609 12:2 13:0.1064 14:1 15:0.3797 16:79 17:0.3038 18:0.1646 19:0.2152 20:0.3165 21:0.0847 22:1.33 23:0 
-0.1599875246396878 1:-1 2:0 3:7 4:24 5:0.4583 6:1 7:4 8:0.25 9:0.1667 10:0.2917 11:0.2917 12:58 13:0.1304 14:4 15:0.375 16:80 17:0.3 18:0.1625 19:0.2125 20:0.325 21:0.1 22:0.88 23:0 
-0.06669286026476816 1:-1 2:0 3:8 4:22 5:0.4286 6:1 7:3 8:0.2857 9:0.2381 10:0.1905 11:0.2857 12:2 13:0.1163 14:4 15:0.3797 16:79 17:0.3038 18:0.1646 19:0.2152 20:0.3165 21:0.0847 22:1 23:0 
-0.05621530577069124 1:-1 2:0 3:2 4:22 5:0.3636 6:4 7:3 8:0.3636 9:0.1364 10:0.2273 11:0.2727 12:17 13:0.2857 14:4 15:0.36 16:50 17:0.36 18:0.2 19:0.16 20:0.28 21:0.2609 22:5 23:0 
-0.09131917723674371 1:-1 2:0 3:0 4:24 5:0.4286 6:6 7:3 8:0.2857 9:0.0952 10:0.3333 11:0.2857 12:19 13:0.4222 14:4 15:0.4468 16:47 17:0.1915 18:0.1915 19:0.2553 20:0.3617 21:0.3953 22:0 23:-1 
-0.03488155119651356 1:6 2:1 3:16 4:24 5:0.5 6:10 7:2 8:0.2917 9:0.25 10:0.25 11:0.2083 12:2 13:0.4737 14:4 15:0.493 16:71 17:0.1831 18:0.2254 19:0.2676 20:0.3239 21:0.403 22:0 23:0.3103 
-0.08385828525924485 1:-1 2:0 3:0 4:21 5:0.5238 6:6 7:3 8:0.0952 9:0.2857 10:0.2381 11:0.381 12:42 13:0.3333 14:4 15:0.439 16:41 17:0.1951 18:0.1707 19:0.2683 20:0.3659 21:0.2973 22:1.33 23:-1 
-0.04775076555626739 1:-1 2:0 3:0 4:25 5:0.3913 6:6 7:3 8:0.3043 9:0.087 10:0.3043 11:0.3043 12:18 13:0.4043 14:-1 15:0.4286 16:49 17:0.2041 18:0.1837 19:0.2449 20:0.3673 21:0.3778 22:0.25 23:-1 
-0.09021784243914732 1:-1 2:0 3:0 4:24 5:0.4091 6:6 7:3 8:0.2727 9:0.0909 10:0.3182 11:0.3182 12:19 13:0.4222 14:-1 15:0.4468 16:47 17:0.1915 18:0.1915 19:0.2553 20:0.3617 21:0.3953 22:0 23:-1 
-0.08207370844102227 1:1 2:4 3:21 4:24 5:0.5909 6:2 7:5 8:0.1364 9:0.4091 10:0.1818 11:0.2727 12:2 13:0.2093 14:4 15:0.5444 16:90 17:0.2222 18:0.2667 19:0.2778 20:0.2333 21:0.1605 22:0.6 23:0.15 
-0.07508568587928646 1:1 2:4 3:24 4:22 5:0.6 6:3 7:5 8:0.2 9:0.4 10:0.2 11:0.2 12:1 13:0.2821 14:3 15:0.5326 16:92 17:0.2391 18:0.2609 19:0.2717 20:0.2283 21:0.1807 22:0.43 23:0.1304 
-0.02133473978645201 1:1 2:4 3:15 4:25 5:0.5417 6:2 7:3 8:0.1667 9:0.4583 10:0.0833 11:0.2917 12:6 13:0.125 14:3 15:0.5301 16:83 17:0.2169 18:0.253 19:0.2771 20:0.253 21:0.1351 22:0.6 23:0.2143 
-0.1113100871380579 1:2 2:3 3:20 4:20 5:0.5 6:3 7:2 8:0.35 9:0.15 10:0.35 11:0.15 12:72 13:0.2 14:4 15:0.4556 16:90 17:0.2667 18:0.1889 19:0.2667 20:0.2778 21:0.2 22:4.5 23:0.2 
-0.07459062212580848 1:2 2:3 3:16 4:20 5:0.55 6:1 7:1 8:0.1 9:0.3 10:0.25 11:0.35 12:6 13:0.05 14:3 15:0.4512 16:82 17:0.2683 18:0.1951 19:0.2561 20:0.2805 21:0.1389 22:0.9 23:0.25 
-0.1150019700472629 1:2 2:3 3:18 4:22 5:0.5 6:3 7:2 8:0.3636 9:0.1818 10:0.3182 11:0.1364 12:70 13:0.1818 14:4 15:0.4556 16:90 17:0.2667 18:0.1889 19:0.2667 20:0.2778 21:0.2 22:5 23:0.2222 
-0.165112486631536 1:1 2:2 3:14 4:25 5:0.5417 6:5 7:4 8:0.2917 9:0.2917 10:0.25 11:0.1667 12:1 13:0.3061 14:1 15:0.4588 16:85 17:0.2235 18:0.2118 19:0.2471 20:0.3176 21:0.2468 22:0 23:0.1429 
-0.02638177453517101 1:2 2:2 3:17 4:22 5:0.5238 6:5 7:3 8:0.2857 9:0.2381 10:0.2857 11:0.1905 12:1 13:0.3023 14:3 15:0.4588 16:85 17:0.2235 18:0.2118 19:0.2471 20:0.3176 21:0.2468 22:0 23:0.1765 
-0.1472247720369951 1:5 2:2 3:16 4:21 5:0.381 6:1 7:3 8:0.1429 9:0.0952 10:0.2857 11:0.4762 12:8 13:0.122 14:3 15:0.4324 16:74 17:0.2973 18:0.2297 19:0.2027 20:0.2703 21:0.2 22:1.17 23:0.3103 
-0.02083759038362193 1:-1 2:0 3:0 4:21 5:0.4286 6:5 7:4 8:0.3333 9:0.1905 10:0.2381 11:0.2381 12:45 13:0.3333 14:4 15:0.4146 16:41 17:0.3415 18:0.2439 19:0.1707 20:0.2439 21:0.2973 22:1.17 23:-1 
-0.07750161437112525 1:5 2:3 3:20 4:24 5:0.4167 6:2 7:3 8:0.2083 9:0.0417 10:0.375 11:0.375 12:1 13:0.1915 14:1 15:0.4432 16:88 17:0.2727 18:0.2386 19:0.2045 20:0.2841 21:0.2381 22:0.67 23:0.2973 
-0.6616420323495946 1:5 2:2 3:19 4:21 5:0.5 6:2 7:3 8:0.25 9:0.4 10:0.1 11:0.25 12:65 13:0.1707 14:3 15:0.4125 16:80 17:0.3 18:0.225 19:0.1875 20:0.2875 21:0.2105 22:1.17 23:0.2571 
-1 1:3 2:2 3:13 4:20 5:0.5 6:4 7:3 8:0.25 9:0.25 10:0.25 11:0.25 12:8 13:0.2353 14:4 15:0.4194 16:62 17:0.2903 18:0.1613 19:0.2581 20:0.2903 21:0.2414 22:0 23:0.25 
-0.1715472801937641 1:-1 2:0 3:0 4:27 5:0.4167 6:3 7:5 8:0.375 9:0.2083 10:0.2083 11:0.2083 12:43 13:0.24 14:-1 15:0.4231 16:52 17:0.2885 18:0.1731 19:0.25 20:0.2885 21:0.2083 22:0.57 23:-1 
-0.08933885821836293 1:-1 2:0 3:11 4:20 5:0.35 6:5 7:3 8:0.3 9:0.25 10:0.1 11:0.35 12:4 13:0.3514 14:2 15:0.4085 16:71 17:0.2676 18:0.2394 19:0.169 20:0.3239 21:0.2203 22:1.6 23:0 
-0.06602463896906335 1:2 2:2 3:17 4:23 5:0.5238 6:4 7:3 8:0.0952 9:0.1905 10:0.3333 11:0.381 12:1 13:0.3 14:1 15:0.4868 16:76 17:0.2632 18:0.2368 19:0.25 20:0.25 21:0.2286 22:0 23:0.1333 
-0.09004101700121515 1:2 2:1 3:12 4:26 5:0.4583 6:4 7:4 8:0.2083 9:0.125 10:0.3333 11:0.3333 12:3 13:0.2609 14:1 15:0.4865 16:74 17:0.2703 18:0.2297 19:0.2568 20:0.2432 21:0.2059 22:1.25 23:0.0909 
-0.1117802380970143 1:-1 2:0 3:0 4:25 5:0.5217 6:3 7:4 8:0.2609 9:0.2609 10:0.2609 11:0.2174 12:41 13:0.2727 14:1 15:0.5 16:46 17:0.2609 18:0.2609 19:0.2391 20:0.2391 21:0.2 22:3 23:-1 
-0.2535752132560388 1:3 2:2 3:14 4:21 5:0.5238 6:2 7:3 8:0.3333 9:0.1429 10:0.381 11:0.1429 12:70 13:0.1905 14:2 15:0.5395 16:76 17:0.1842 18:0.2895 19:0.25 20:0.2763 21:0.2353 22:1 23:0.3077 
-0.2576934127822825 1:3 2:2 3:15 4:34 5:0.5417 6:11 7:4 8:0.2917 9:0.125 10:0.4167 11:0.1667 12:71 13:0.3448 14:1 15:0.5638 16:94 17:0.1702 18:0.2979 19:0.266 20:0.266 21:0.3256 22:0.75 23:0.2857 
-0.0100233078307721 1:3 2:3 3:22 4:21 5:0.6667 6:5 7:3 8:0.0952 9:0.381 10:0.2857 11:0.2381 12:7 13:0.2973 14:1 15:0.5747 16:87 17:0.1724 18:0.2874 19:0.2874 20:0.2529 21:0.2658 22:0 23:0.2381 
-0.262413094346105 1:3 2:2 3:18 4:31 5:0.5714 6:11 7:4 8:0.2381 9:0.1429 10:0.4286 11:0.1905 12:74 13:0.3846 14:1 15:0.5638 16:94 17:0.1702 18:0.2979 19:0.266 20:0.266 21:0.3256 22:0.88 23:0.2353 
-0.108727414378058 1:-1 2:0 3:0 4:22 5:0.5238 6:3 7:4 8:0.2381 9:0.1905 10:0.3333 11:0.2381 12:54 13:0.381 14:1 15:0.5455 16:44 17:0.1818 18:0.3182 19:0.2273 20:0.2727 21:0.2778 22:0.5 23:-1 
-0.05275808275755868 1:3 2:3 3:23 4:23 5:0.6957 6:8 7:3 8:0.0435 9:0.4348 10:0.2609 11:0.2609 12:4 13:0.3684 14:4 15:0.5778 16:90 17:0.1667 18:0.3 19:0.2778 20:0.2556 21:0.2927 22:0 23:0.2273 
-0.07809412507423227 1:-1 2:0 3:0 4:25 5:0.5417 6:3 7:4 8:0.125 9:0.4167 10:0.125 11:0.3333 12:28 13:0.3333 14:2 15:0.52 16:50 17:0.2 18:0.3 19:0.22 20:0.28 21:0.2381 22:2.33 23:-1 
-0.007244148269088745 1:-1 2:0 3:0 4:20 5:0.5 6:6 7:1 8:0.1 9:0.25 10:0.25 11:0.4 12:34 13:0.3 14:1 15:0.5 16:42 17:0.1905 18:0.2381 19:0.2619 20:0.3095 21:0 22:0 23:-1 
-0.03289000474908294 1:-1 2:0 3:0 4:20 5:0.5 6:5 7:1 8:0.1 9:0.25 10:0.25 11:0.4 12:35 13:0.25 14:2 15:0.4773 16:44 17:0.2045 18:0.2273 19:0.25 20:0.3182 21:0 22:0 23:-1 
-0.2959205715559148 1:-1 2:0 3:7 4:20 5:0.6 6:2 7:3 8:0.15 9:0.2 10:0.4 11:0.25 12:47 13:0.1579 14:4 15:0.5606 16:66 17:0.197 18:0.2727 19:0.2879 20:0.2424 21:0.1154 22:2 23:0 
-1 1:2 2:1 3:8 4:22 5:0.2727 6:2 7:1 8:0.4091 9:0.2273 10:0.0455 11:0.3182 12:51 13:0.0698 14:4 15:0.2687 16:67 17:0.3134 18:0.1343 19:0.1343 20:0.4179 21:0.0877 22:0.8 23:0.1429 
-0.03455021519379455 1:2 2:1 3:8 4:25 5:0.2917 6:3 7:2 8:0.25 9:0.0833 10:0.2083 11:0.4583 12:3 13:0.1304 14:1 15:0.2714 16:70 17:0.3143 18:0.1429 19:0.1286 20:0.4143 21:0.1333 22:0.38 23:0.1429 
-0.08137064531199045 1:5 2:2 3:12 4:20 5:0.65 6:2 7:4 8:0.1 9:0.1 10:0.55 11:0.25 12:1 13:0.2308 14:2 15:0.5323 16:62 17:0.1935 18:0.2258 19:0.3065 20:0.2742 21:0.2759 22:1 23:0.3684 
-0.5429003318163075 1:5 2:1 3:9 4:23 5:0.6087 6:2 7:5 8:0.1304 9:0.087 10:0.5217 11:0.2609 12:1 13:0.2444 14:2 15:0.5323 16:62 17:0.1935 18:0.2258 19:0.3065 20:0.2742 21:0.2759 22:1.14 23:0.3846 
-1 1:-1 2:0 3:3 4:29 5:0.625 6:5 7:6 8:0.125 9:0.0833 10:0.5417 11:0.25 12:1 13:0.3077 14:2 15:0.5323 16:62 17:0.1935 18:0.2258 19:0.3065 20:0.2742 21:0.2759 22:1 23:0 
-1 1:5 2:1 3:10 4:25 5:0.5417 6:3 7:6 8:0.2083 9:0.375 10:0.1667 11:0.25 12:42 13:0.3043 14:4 15:0.5077 16:65 17:0.1846 18:0.2154 19:0.2923 20:0.3077 21:0.3115 22:2.5 23:0.3333 
-0.2042659408231303 1:5 2:2 3:11 4:24 5:0.5652 6:3 7:5 8:0.1739 9:0.3913 10:0.1739 11:0.2609 12:43 13:0.2727 14:4 15:0.5077 16:65 17:0.1846 18:0.2154 19:0.2923 20:0.3077 21:0.3115 22:4 23:0.4118 
-0.03608882993731877 1:5 2:2 3:13 4:22 5:0.5714 6:3 7:5 8:0.1905 9:0.381 10:0.1905 11:0.2381 12:45 13:0.3 14:4 15:0.5077 16:65 17:0.1846 18:0.2154 19:0.2923 20:0.3077 21:0.3115 22:4.5 23:0.3333 
-0.1571794524149283 1:-1 2:0 3:1 4:24 5:0.5714 6:3 7:5 8:0.1905 9:0.1429 10:0.4286 11:0.2381 12:6 13:0.2889 14:2 15:0.5294 16:51 17:0.1961 18:0.2353 19:0.2941 20:0.2745 21:0.2766 22:0.89 23:0 
-0.1792498078756924 1:1 2:1 3:3 4:20 5:0.45 6:2 7:4 8:0.3 9:0.3 10:0.15 11:0.25 12:35 13:0.2632 14:3 15:0.5319 16:47 17:0.2128 18:0.234 19:0.2979 20:0.2553 21:0.2558 22:0.44 23:0.2 
-0.07964499271781096 1:-1 2:0 3:0 4:20 5:0.45 6:5 7:3 8:0.25 9:0.35 10:0.1 11:0.3 12:34 13:0.35 14:4 15:0.4878 16:41 17:0.1707 18:0.2927 19:0.1951 20:0.3415 21:0.1333 22:0 23:-1 
-0.05751825509989983 1:1 2:1 3:14 4:20 5:0.4 6:3 7:4 8:0.3 9:0.05 10:0.35 11:0.3 12:59 13:0.2778 14:3 15:0.4615 16:78 17:0.2051 18:0.2051 19:0.2564 20:0.3333 21:0.1875 22:4.5 23:0.0714 
-0.01648749435426056 1:1 2:1 3:8 4:23 5:0.4545 6:2 7:3 8:0.2273 9:0.2273 10:0.2273 11:0.3182 12:1 13:0.1556 14:2 15:0.4533 16:75 17:0.2133 18:0.2133 19:0.24 20:0.3333 21:0.1475 22:0.7 23:0.125 
-0.1308187550450787 1:1 2:1 3:10 4:24 5:0.4167 6:3 7:4 8:0.25 9:0.0833 10:0.3333 11:0.3333 12:55 13:0.2273 14:3 15:0.4615 16:78 17:0.2051 18:0.2051 19:0.2564 20:0.3333 21:0.1875 22:4.5 23:0.1 
-0.01770794226654719 1:1 2:1 3:7 4:23 5:0.3913 6:2 7:3 8:0.2609 9:0.1304 10:0.2609 11:0.3478 12:52 13:0.1556 14:3 15:0.4521 16:73 17:0.2192 18:0.2192 19:0.2329 20:0.3288 21:0.1525 22:1.43 23:0.1429 
-0.5287202247145369 1:1 2:1 3:9 4:22 5:0.4091 6:2 7:5 8:0.3182 9:0.1364 10:0.2727 11:0.2727 12:45 13:0.2683 14:2 15:0.4697 16:66 17:0.2576 18:0.2273 19:0.2424 20:0.2727 21:0.2069 22:1.6 23:0.0588 
-0.1017331046180008 1:1 2:4 3:24 4:22 5:0.6364 6:8 7:3 8:0.1364 9:0.4091 10:0.2273 11:0.2273 12:3 13:0.4444 14:1 15:0.4667 16:90 17:0.2444 18:0.2444 19:0.2222 20:0.2889 21:0.2593 22:0 23:0.1489 
-0.05991850456199276 1:1 2:3 3:12 4:22 5:0.5 6:2 7:3 8:0.2273 9:0.2727 10:0.2273 11:0.2727 12:67 13:0.2273 14:2 15:0.4189 16:74 17:0.2568 18:0.2027 19:0.2162 20:0.3243 21:0.2 22:1.8 23:0.2174 
-0.08917417656969609 1:1 2:4 3:17 4:20 5:0.55 6:2 7:2 8:0.05 9:0.25 10:0.3 11:0.4 12:12 13:0.2 14:4 15:0.4375 16:80 17:0.25 18:0.2125 19:0.225 20:0.3125 21:0.1831 22:0.89 23:0.2121 
-0.03655897818059962 1:-1 2:0 3:0 4:21 5:0.25 6:4 7:4 8:0.35 9:0.05 10:0.2 11:0.4 12:53 13:0.3171 14:2 15:0.2857 16:42 17:0.3333 18:0.1429 19:0.1429 20:0.381 21:0.1515 22:0 23:-1 
-0.03435717727973356 1:1 2:2 3:10 4:25 5:0.375 6:4 7:3 8:0.2917 9:0.1667 10:0.2083 11:0.3333 12:1 13:0.2 14:1 15:0.3699 16:73 17:0.3014 18:0.1781 19:0.1918 20:0.3288 21:0.1613 22:0 23:0.1579 
-0.004322591518138155 1:1 2:4 3:14 4:21 5:0.4 6:3 7:2 8:0.35 9:0.2 10:0.2 11:0.25 12:4 13:0.2105 14:1 15:0.4571 16:70 17:0.2857 18:0.1857 19:0.2714 20:0.2571 21:0.2063 22:0.33 23:0.2593 
-0.004784222986141288 1:-1 2:0 3:0 4:21 5:0.55 6:1 7:4 8:0.2 9:0.2 10:0.35 11:0.25 12:43 13:0.1707 14:4 15:0.5 16:46 17:0.2391 18:0.1739 19:0.3261 20:0.2609 21:0.1282 22:0.36 23:-1 
-0.05058777696432192 1:1 2:4 3:16 4:22 5:0.4286 6:6 7:2 8:0.3333 9:0.2381 10:0.1905 11:0.2381 12:1 13:0.2973 14:3 15:0.4521 16:73 17:0.2877 18:0.1918 19:0.2603 20:0.2603 21:0.2424 22:0 23:0.2258 
-0.105268311991799 1:-1 2:0 3:0 4:23 5:0.5833 6:6 7:2 8:0.25 9:0.375 10:0.2083 11:0.1667 12:50 13:0.3913 14:-1 15:0.5319 16:47 17:0.2553 18:0.3404 19:0.1915 20:0.2128 21:0.1765 22:0 23:-1 
-0.08949093656323789 1:-1 2:0 3:0 4:21 5:0.5714 6:4 7:2 8:0.2857 9:0.3333 10:0.2381 11:0.1429 12:53 13:0.3333 14:4 15:0.5319 16:47 17:0.2553 18:0.3404 19:0.1915 20:0.2128 21:0.1765 22:0 23:-1 
-0.04826261359077039 1:3 2:2 3:21 4:22 5:0.5455 6:6 7:2 8:0.1364 9:0.2273 10:0.3182 11:0.3182 12:2 13:0.2105 14:1 15:0.5275 16:91 17:0.2418 18:0.2857 19:0.2418 20:0.2308 21:0.1795 22:0 23:0.1905 
-0.07732804212079951 1:3 2:2 3:19 4:20 5:0.5 6:2 7:2 8:0.1 9:0.2 10:0.3 11:0.4 12:6 13:0.1053 14:1 15:0.5172 16:87 17:0.2414 18:0.2874 19:0.2299 20:0.2414 21:0.1351 22:0.36 23:0.2105 
-0.08963933077207616 1:-1 2:0 3:0 4:22 5:0.4286 6:6 7:2 8:0.2857 9:0.2381 10:0.1905 11:0.2857 12:28 13:0.4091 14:2 15:0.5111 16:45 17:0.2667 18:0.3333 19:0.1778 20:0.2222 21:0.1875 22:3 23:-1 
-0.06619657409880751 1:2 2:3 3:18 4:22 5:0.4545 6:7 7:2 8:0.1818 9:0.1818 10:0.2727 11:0.3636 12:1 13:0.2432 14:3 15:0.4444 16:72 17:0.2361 18:0.1944 19:0.25 20:0.3194 21:0.1884 22:0 23:0.1765 
-1 1:1 2:1 3:3 4:27 5:0.4583 6:3 7:4 8:0.2917 9:0.1667 10:0.2917 11:0.25 12:11 13:0.16 14:3 15:0.3729 16:59 17:0.3051 18:0.1864 19:0.1864 20:0.322 21:0.1636 22:0.6 23:0.2 
-1 1:1 2:1 3:4 4:24 5:0.3333 6:3 7:3 8:0.375 9:0.2083 10:0.125 11:0.2917 12:45 13:0.1556 14:1 15:0.3929 16:56 17:0.2857 18:0.1964 19:0.1964 20:0.3214 21:0.1538 22:0.22 23:0.1429 
-1 1:1 2:1 3:3 4:24 5:0.5238 6:3 7:3 8:0.1905 9:0.1905 10:0.3333 11:0.2857 12:14 13:0.1556 14:3 15:0.4074 16:54 17:0.2778 18:0.2037 19:0.2037 20:0.3148 21:0.16 22:1 23:0.2 
-0.1196491632074046 1:2 2:4 3:22 4:21 5:0.4286 6:2 7:3 8:0.1905 9:0.3333 10:0.0952 11:0.381 12:85 13:0.2 14:3 15:0.4286 16:98 17:0.3061 18:0.2143 19:0.2143 20:0.2653 21:0.2143 22:2.2 23:0.2273 
-0.1675571830480898 1:2 2:4 3:27 4:20 5:0.4 6:3 7:3 8:0.2 9:0.3 10:0.1 11:0.4 12:90 13:0.2432 14:4 15:0.4381 16:105 17:0.3048 18:0.219 19:0.219 20:0.2571 21:0.2088 22:1 23:0.1852 
-0.2370762109528702 1:2 2:4 3:23 4:24 5:0.4583 6:3 7:3 8:0.2083 9:0.375 10:0.0833 11:0.3333 12:86 13:0.2 14:4 15:0.4381 16:105 17:0.3048 18:0.219 19:0.219 20:0.2571 21:0.2088 22:1.38 23:0.2174 
-0.1741056248516215 1:2 2:3 3:20 4:20 5:0.4 6:2 7:3 8:0.4 9:0.15 10:0.25 11:0.2 12:9 13:0.2 14:2 15:0.4255 16:94 17:0.3191 18:0.2128 19:0.2128 20:0.2553 21:0.2 22:1.14 23:0.2 
-0.2543377902499056 1:2 2:4 3:28 4:21 5:0.3333 6:3 7:4 8:0.2857 9:0.2381 10:0.0952 11:0.381 12:91 13:0.2632 14:2 15:0.4259 16:108 17:0.3148 18:0.213 19:0.213 20:0.2593 21:0.2128 22:1 23:0.1786 
-0.2047874332379218 1:1 2:2 3:14 4:23 5:0.5217 6:2 7:4 8:0.3043 9:0.2174 10:0.3043 11:0.1739 12:12 13:0.2609 14:4 15:0.4545 16:88 17:0.3068 18:0.2273 19:0.2273 20:0.2386 21:0.2162 22:0.8 23:0.1429 
-0.2588078829629091 1:2 2:4 3:22 4:24 5:0.4762 6:3 7:3 8:0.3333 9:0.1429 10:0.3333 11:0.1905 12:6 13:0.2 14:4 15:0.4272 16:103 17:0.3107 18:0.2136 19:0.2136 20:0.2621 21:0.2135 22:0.91 23:0.2273 
-0.1988140897681336 1:1 2:2 3:12 4:21 5:0.5714 6:2 7:3 8:0.2857 9:0.2381 10:0.3333 11:0.1429 12:16 13:0.1905 14:3 15:0.4625 16:80 17:0.3125 18:0.225 19:0.2375 20:0.225 21:0.1818 22:1.6 23:0.1667 
-0.0755908623170358 1:2 2:4 3:22 4:22 5:0.4091 6:3 7:3 8:0.2273 9:0.3182 10:0.0909 11:0.3636 12:85 13:0.2195 14:3 15:0.4242 16:99 17:0.3131 18:0.2121 19:0.2121 20:0.2626 21:0.2235 22:3.67 23:0.2273 
-0.1263181823639974 1:2 2:3 3:16 4:20 5:0.55 6:2 7:3 8:0.25 9:0.4 10:0.15 11:0.2 12:79 13:0.2 14:1 15:0.4651 16:86 17:0.3023 18:0.2326 19:0.2326 20:0.2326 21:0.2222 22:2.2 23:0.25 
-0.4444724777708838 1:1 2:2 3:11 4:20 5:0.55 6:2 7:3 8:0.3 9:0.35 10:0.2 11:0.15 12:74 13:0.2 14:1 15:0.4605 16:76 17:0.3158 18:0.2237 19:0.2368 20:0.2237 21:0.1935 22:1 23:0.1818 
-0.1941073192264089 1:1 2:2 3:14 4:21 5:0.5238 6:2 7:4 8:0.2857 9:0.4286 10:0.0952 11:0.1905 12:77 13:0.2857 14:4 15:0.4643 16:84 17:0.3095 18:0.2381 19:0.2262 20:0.2262 21:0.2286 22:1 23:0.1429 
-0.154008379667527 1:3 2:2 3:16 4:24 5:0.5417 6:12 7:2 8:0.2083 9:0.375 10:0.1667 11:0.25 12:3 13:0.3889 14:4 15:0.5 16:70 17:0.2429 18:0.2571 19:0.2429 20:0.2571 21:0.303 22:0 23:0.2 
-0.05248659793205095 1:3 2:3 3:17 4:23 5:0.5 6:3 7:3 8:0.2727 9:0.3182 10:0.1818 11:0.2273 12:15 13:0.2273 14:3 15:0.5 16:86 17:0.2674 18:0.2558 19:0.2442 20:0.2326 21:0.2267 22:0.56 23:0.2727 
-0.1545940739856072 1:3 2:3 3:18 4:20 5:0.55 6:3 7:2 8:0.3 9:0.15 10:0.4 11:0.15 12:80 13:0.1795 14:1 15:0.506 16:83 17:0.253 18:0.253 19:0.253 20:0.241 21:0.1944 22:1 23:0.2571 
-0.08439346961447471 1:3 2:3 3:23 4:24 5:0.5455 6:3 7:5 8:0.3182 9:0.2727 10:0.2727 11:0.1364 12:85 13:0.2727 14:1 15:0.5 16:98 17:0.2653 18:0.2551 19:0.2449 20:0.2347 21:0.2184 22:0.78 23:0.2 
-0.05143395970249323 1:3 2:3 3:22 4:23 5:0.4545 6:3 7:4 8:0.2727 9:0.2273 10:0.2273 11:0.2727 12:10 13:0.2558 14:3 15:0.4947 16:95 17:0.2632 18:0.2526 19:0.2421 20:0.2421 21:0.2143 22:0.89 23:0.2093 
-0.1078482532833363 1:3 2:5 3:31 4:21 5:0.55 6:2 7:4 8:0.25 9:0.2 10:0.35 11:0.2 12:4 13:0.1892 14:3 15:0.5094 16:106 17:0.2642 18:0.2547 19:0.2547 20:0.2264 21:0.2211 22:0.6 23:0.2667 
-0.1126915879057559 1:-1 2:0 3:0 4:23 5:0.4545 6:5 7:3 8:0.2727 9:0.2727 10:0.1818 11:0.2727 12:59 13:0.3778 14:1 15:0.4783 16:46 17:0.2391 18:0.2609 19:0.2174 20:0.2826 21:0.2 22:0 23:-1 
-0.08703621918832585 1:3 2:3 3:25 4:24 5:0.5 6:3 7:5 8:0.3182 9:0.2273 10:0.2727 11:0.1818 12:7 13:0.2727 14:1 15:0.5 16:102 17:0.2647 18:0.2549 19:0.2451 20:0.2353 21:0.2088 22:2.2 23:0.1837 
-0.08135108141905123 1:-1 2:0 3:0 4:20 5:0.45 6:2 7:5 8:0.2 9:0.15 10:0.3 11:0.35 12:19 13:0.3158 14:4 15:0.4762 16:42 17:0.2619 18:0.2143 19:0.2619 20:0.2619 21:0.2353 22:4 23:-1 
-0.003600577601006016 1:-1 2:0 3:0 4:24 5:0.3043 6:4 7:4 8:0.2174 9:0.087 10:0.2174 11:0.4783 12:9 13:0.2093 14:4 15:0.3409 16:44 17:0.2727 18:0.1591 19:0.1818 20:0.3864 21:0.1707 22:1.17 23:-1 
-0.01361613419190469 1:-1 2:0 3:0 4:27 5:0.4167 6:4 7:4 8:0.2917 9:0.25 10:0.1667 11:0.2917 12:32 13:0.1837 14:-1 15:0.38 16:50 17:0.26 18:0.18 19:0.2 20:0.36 21:0.1489 22:0.75 23:-1 
-0.1277939951840525 1:1 2:1 3:2 4:25 5:0.3333 6:4 7:3 8:0.25 9:0.125 10:0.2083 11:0.4167 12:6 13:0.1556 14:1 15:0.38 16:50 17:0.26 18:0.18 19:0.2 20:0.36 21:0.1489 22:0.89 23:0.5 
-0.09661141037860249 1:1 2:1 3:2 4:21 5:0.3 6:4 7:2 8:0.25 9:0.1 10:0.2 11:0.45 12:10 13:0.1351 14:1 15:0.3333 16:42 17:0.2857 18:0.1429 19:0.1905 20:0.381 21:0.1282 22:1 23:0.5 
-0.04073868223558036 1:-1 2:0 3:0 4:23 5:0.5217 6:6 7:2 8:0.3043 9:0.3043 10:0.2174 11:0.1739 12:10 13:0.3 14:4 15:0.5 16:42 17:0.2381 18:0.2143 19:0.2857 20:0.2619 21:0.1765 22:3 23:-1 
-0.07971802423679419 1:-1 2:0 3:0 4:23 5:0.5417 6:6 7:2 8:0.2917 9:0.2917 10:0.25 11:0.1667 12:10 13:0.3 14:-1 15:0.5 16:42 17:0.2381 18:0.2143 19:0.2857 20:0.2619 21:0.1765 22:3 23:-1 
-0.07255753492434956 1:-1 2:0 3:0 4:25 5:0.45 6:6 7:2 8:0.2 9:0.15 10:0.3 11:0.35 12:34 13:0.2727 14:-1 15:0.5 16:46 17:0.2391 18:0.2174 19:0.2826 20:0.2609 21:0.1579 22:0.3 23:-1 
-0.114651525329073 1:-1 2:0 3:0 4:27 5:0.4091 6:6 7:2 8:0.2727 9:0.1364 10:0.2727 11:0.3182 12:34 13:0.25 14:-1 15:0.46 16:50 17:0.26 18:0.2 19:0.26 20:0.28 21:0.1429 22:0.33 23:-1 
-0.08857809271759812 1:-1 2:0 3:0 4:26 5:0.45 6:6 7:2 8:0.25 9:0.15 10:0.3 11:0.3 12:35 13:0.2609 14:4 15:0.4792 16:48 17:0.25 18:0.2083 19:0.2708 20:0.2708 21:0.15 22:0.33 23:-1 
-0.1119841607735786 1:-1 2:0 3:0 4:24 5:0.5417 6:6 7:2 8:0.2917 9:0.2917 10:0.25 11:0.1667 12:9 13:0.2857 14:4 15:0.5227 16:44 17:0.2273 18:0.2273 19:0.2955 20:0.25 21:0.1667 22:3.33 23:-1 
-0.2407766197407574 1:2 2:1 3:9 4:25 5:0.5417 6:2 7:5 8:0.2917 9:0.25 10:0.2917 11:0.1667 12:47 13:0.234 14:4 15:0.5 16:70 17:0.2286 18:0.2571 19:0.2429 20:0.2714 21:0.2188 22:1.4 23:0.1765 
-0.04065234353803825 1:1 2:2 3:10 4:24 5:0.5417 6:1 7:3 8:0.2083 9:0.1667 10:0.375 11:0.25 12:10 13:0.0667 14:2 15:0.4805 16:77 17:0.1818 18:0.1948 19:0.2857 20:0.3377 21:0.0645 22:0.83 23:0.1579 
-0.1121345016123481 1:-1 2:0 3:0 4:24 5:0.4545 6:7 7:3 8:0.0909 9:0.2727 10:0.1818 11:0.4545 12:51 13:0.3478 14:4 15:0.4255 16:47 17:0.1702 18:0.1702 19:0.2553 20:0.4043 21:0.0625 22:0 23:-1 
-0.08700137519865769 1:1 2:2 3:13 4:26 5:0.5217 6:2 7:3 8:0.2609 9:0.2174 10:0.3043 11:0.2174 12:69 13:0.102 14:4 15:0.4828 16:87 17:0.1954 18:0.1954 19:0.2874 20:0.3218 21:0.0833 22:1 23:0.12 
-0.0315390108982346 1:-1 2:0 3:0 4:24 5:0.5417 6:2 7:5 8:0.2083 9:0.0417 10:0.5 11:0.25 12:10 13:0.3182 14:-1 15:0.5652 16:46 17:0.1957 18:0.2391 19:0.3261 20:0.2391 21:0.25 22:2.2 23:-1 
-0.04365110410609889 1:-1 2:0 3:0 4:21 5:0.5455 6:2 7:4 8:0.1818 9:0.0455 10:0.5 11:0.2727 12:12 13:0.3333 14:-1 15:0.5854 16:41 17:0.1707 18:0.2439 19:0.3415 20:0.2439 21:0.2571 22:1.2 23:-1 
-0.07498816099823415 1:-1 2:0 3:0 4:24 5:0.5909 6:2 7:5 8:0.1818 9:0.4545 10:0.1364 11:0.2273 12:34 13:0.3182 14:-1 15:0.5652 16:46 17:0.1957 18:0.2391 19:0.3261 20:0.2391 21:0.25 22:0.62 23:-1 
-0.1898177598119844 1:2 2:1 3:5 4:20 5:0.55 6:2 7:3 8:0.2 9:0.35 10:0.2 11:0.25 12:65 13:0.25 14:1 15:0.5 16:56 17:0.2321 18:0.3036 19:0.1964 20:0.2679 21:0.28 22:0.45 23:0.4 
-1 1:1 2:1 3:4 4:21 5:0.5714 6:2 7:3 8:0.1905 9:0.3333 10:0.2381 11:0.2381 12:64 13:0.2857 14:1 15:0.5 16:56 17:0.2321 18:0.3036 19:0.1964 20:0.2679 21:0.28 22:0.45 23:0.25 
-0.08898517360956205 1:3 2:2 3:18 4:24 5:0.4583 6:2 7:3 8:0.2917 9:0.25 10:0.2083 11:0.25 12:12 13:0.25 14:4 15:0.4667 16:90 17:0.2444 18:0.2556 19:0.2111 20:0.2889 21:0.2619 22:1.6 23:0.2778 
-0.001007272122021508 1:-1 2:0 3:2 4:20 5:0.55 6:3 7:3 8:0.2 9:0.35 10:0.2 11:0.25 12:62 13:0.35 14:2 15:0.48 16:50 17:0.24 18:0.3 19:0.18 20:0.28 21:0.3182 22:0.6 23:0 
-0.07842564884092681 1:3 2:3 3:20 4:23 5:0.4783 6:2 7:2 8:0.2609 9:0.2609 10:0.2174 11:0.2609 12:11 13:0.1739 14:2 15:0.4783 16:92 17:0.2391 18:0.2609 19:0.2174 20:0.2826 21:0.2558 22:1.1 23:0.35 
-0.04615779386298116 1:-1 2:0 3:3 4:21 5:0.5238 6:3 7:3 8:0.2381 9:0.2857 10:0.2381 11:0.2381 12:63 13:0.3333 14:3 15:0.4815 16:54 17:0.2407 18:0.2963 19:0.1852 20:0.2778 21:0.2917 22:0.2 23:0 
-0.1989020714035207 1:3 2:3 3:30 4:20 5:0.45 6:5 7:3 8:0.15 9:0.25 10:0.2 11:0.4 12:4 13:0.4211 14:2 15:0.4808 16:104 17:0.2308 18:0.2692 19:0.2115 20:0.2885 21:0.3061 22:1.25 23:0.2333 
-0.7275558241412972 1:-1 2:0 3:3 4:21 5:0.4286 6:3 7:3 8:0.3333 9:0.2857 10:0.1429 11:0.2381 12:30 13:0.3333 14:2 15:0.4815 16:54 17:0.2407 18:0.2963 19:0.1852 20:0.2778 21:0.2917 22:5 23:0 
-0.1822318830590328 1:3 2:3 3:15 4:21 5:0.5238 6:4 7:2 8:0.1429 9:0.1429 10:0.381 11:0.3333 12:10 13:0.3333 14:2 15:0.5714 16:70 17:0.1857 18:0.3 19:0.2714 20:0.2429 21:0.2923 22:1.8 23:0.2857 
-0.4431307587120948 1:3 2:3 3:13 4:24 5:0.5 6:4 7:3 8:0.1667 9:0.125 10:0.375 11:0.3333 12:9 13:0.3333 14:3 15:0.5694 16:72 17:0.1944 18:0.3056 19:0.2639 20:0.2361 21:0.3134 22:0.9 23:0.3333 
-0.09711824708226598 1:4 2:4 3:23 4:21 5:0.6 6:4 7:3 8:0.15 9:0.4 10:0.2 11:0.25 12:68 13:0.25 14:4 15:0.6 16:85 17:0.1765 18:0.3176 19:0.2824 20:0.2235 21:0.275 22:1.25 23:0.3333 
-0.5657672300840957 1:3 2:3 3:14 4:24 5:0.5714 6:4 7:3 8:0.2381 9:0.4286 10:0.1429 11:0.1905 12:61 13:0.3333 14:3 15:0.5811 16:74 17:0.1892 18:0.3108 19:0.2703 20:0.2297 21:0.3043 22:0.89 23:0.3077 
-0.04780985520282053 1:4 2:4 3:24 4:22 5:0.619 6:4 7:3 8:0.0952 9:0.4286 10:0.1905 11:0.2857 12:69 13:0.3333 14:2 15:0.5955 16:89 17:0.1685 18:0.3258 19:0.2697 20:0.236 21:0.3095 22:3.67 23:0.3182 
-0.0649539465098667 1:5 2:3 3:22 4:24 5:0.619 6:2 7:3 8:0.1905 9:0.0952 10:0.5238 11:0.1905 12:4 13:0.1163 14:1 15:0.5595 16:84 17:0.2262 18:0.2381 19:0.3214 20:0.2143 21:0.1646 22:1.09 23:0.2632 
-0.01196066432874438 1:-1 2:0 3:0 4:23 5:0.4783 6:5 7:3 8:0.3043 9:0.2609 10:0.2174 11:0.2174 12:43 13:0.3 14:-1 15:0.4878 16:41 17:0.2683 18:0.1951 19:0.2927 20:0.2439 21:0.2222 22:0.5 23:-1 
-0.1681065117436362 1:5 2:3 3:20 4:26 5:0.625 6:2 7:3 8:0.2083 9:0.4583 10:0.1667 11:0.1667 12:64 13:0.1064 14:3 15:0.5595 16:84 17:0.2262 18:0.2381 19:0.3214 20:0.2143 21:0.1646 22:1.33 23:0.2941 
-0.02391007108523736 1:5 2:4 3:25 4:22 5:0.7 6:2 7:2 8:0.15 9:0.5 10:0.2 11:0.15 12:69 13:0.1 14:3 15:0.5698 16:86 17:0.2209 18:0.2442 19:0.3256 20:0.2093 21:0.1605 22:1.22 23:0.2558 
-0.5082094327680742 1:5 2:3 3:17 4:24 5:0.5909 6:2 7:2 8:0.2273 9:0.4091 10:0.1818 11:0.1818 12:61 13:0.0667 14:3 15:0.5263 16:76 17:0.25 18:0.2237 19:0.3026 20:0.2237 21:0.1549 22:1.1 23:0.3571 
-0.6204513764478174 1:5 2:3 3:19 4:23 5:0.5714 6:2 7:2 8:0.2381 9:0.4286 10:0.1429 11:0.1905 12:63 13:0.0698 14:3 15:0.5385 16:78 17:0.2436 18:0.2308 19:0.3077 20:0.2179 21:0.1507 22:0.91 23:0.3125 
-0.309161919886038 1:5 2:3 3:15 4:26 5:0.5833 6:2 7:2 8:0.25 9:0.4167 10:0.1667 11:0.1667 12:59 13:0.0612 14:3 15:0.5263 16:76 17:0.25 18:0.2237 19:0.3026 20:0.2237 21:0.1549 22:1.1 23:0.4167 
-0.1404164882179665 1:2 2:2 3:17 4:22 5:0.7273 6:2 7:5 8:0.1818 9:0.1818 10:0.5455 11:0.0909 12:1 13:0.2857 14:4 15:0.7111 16:90 17:0.1 18:0.3889 19:0.3222 20:0.1889 21:0.2162 22:0.45 23:0.125 
-0.01798658948970805 1:1 2:1 3:11 4:23 5:0.7826 6:2 7:5 8:0.1304 9:0.1739 10:0.6087 11:0.087 12:6 13:0.2727 14:2 15:0.7317 16:82 17:0.0854 18:0.3902 19:0.3415 20:0.1829 21:0.2121 22:1 23:0.0909 
-0.1114469968282717 1:1 2:1 3:11 4:26 5:0.6667 6:2 7:5 8:0.0417 9:0.4583 10:0.2083 11:0.2917 12:67 13:0.24 14:2 15:0.7045 16:88 17:0.1023 18:0.375 19:0.3295 20:0.1932 21:0.1944 22:1.1 23:0.0909 
-0.1266415880794247 1:1 2:1 3:8 4:25 5:0.6957 6:2 7:5 8:0.0435 9:0.4783 10:0.2174 11:0.2609 12:64 13:0.25 14:3 15:0.725 16:80 17:0.0875 18:0.3875 19:0.3375 20:0.1875 21:0.2188 22:3.67 23:0.125 
-0.06475377035943204 1:2 2:2 3:18 4:20 5:0.7 6:2 7:5 8:0.2 9:0.1 10:0.6 11:0.1 12:2 13:0.2821 14:3 15:0.7079 16:89 17:0.1011 18:0.382 19:0.3258 20:0.191 21:0.2055 22:0.88 23:0.1176 
-0.3354201426951386 1:2 2:1 3:9 4:24 5:0.75 6:3 7:3 8:0.2083 9:0.1667 10:0.5833 11:0.0417 12:21 13:0.2174 14:2 15:0.8088 16:68 17:0.0882 18:0.3971 19:0.4118 20:0.1029 21:0.2188 22:0.55 23:0.2222 
-0.1347032638001675 1:2 2:1 3:9 4:23 5:0.7391 6:3 7:3 8:0.2174 9:0.1739 10:0.5652 11:0.0435 12:22 13:0.1818 14:2 15:0.803 16:66 17:0.0909 18:0.4091 19:0.3939 20:0.1061 21:0.1935 22:0.82 23:0.2222 
-0.08951081498598785 1:2 2:1 3:14 4:22 5:0.7273 6:3 7:3 8:0.2273 9:0.1364 10:0.5909 11:0.0455 12:18 13:0.2381 14:3 15:0.8243 16:74 17:0.0811 18:0.4054 19:0.4189 20:0.0946 21:0.2 22:3 23:0.1429 
-0.2999058676296827 1:3 2:3 3:29 4:22 5:0.8 6:3 7:4 8:0.1 9:0.3 10:0.5 11:0.1 12:86 13:0.2821 14:4 15:0.82 16:100 17:0.08 18:0.42 19:0.4 20:0.1 21:0.2292 22:0.75 23:0.193 
-0.216074431219194 1:3 2:3 3:28 4:26 5:0.8261 6:3 7:4 8:0.0435 9:0.5217 10:0.3043 11:0.1304 12:3 13:0.234 14:2 15:0.7925 16:106 17:0.0943 18:0.4057 19:0.3868 20:0.1132 21:0.2157 22:1.11 23:0.2 
-0.3051427987011822 1:3 2:3 3:28 4:26 5:0.75 6:3 7:4 8:0.1667 9:0.2917 10:0.4583 11:0.0833 12:85 13:0.234 14:2 15:0.7925 16:106 17:0.0943 18:0.4057 19:0.3868 20:0.1132 21:0.2157 22:0.9 23:0.2 
-0.3521158315223991 1:3 2:4 3:37 4:21 5:0.7 6:3 7:4 8:0.2 9:0.25 10:0.45 11:0.1 12:93 13:0.2778 14:2 15:0.8036 16:112 17:0.0893 18:0.4107 19:0.3929 20:0.1071 21:0.2222 22:1 23:0.1944 
-0.08532549078846043 1:2 2:2 3:16 4:24 5:0.7083 6:2 7:4 8:0.2083 9:0.2083 10:0.5 11:0.0833 12:14 13:0.234 14:2 15:0.8171 16:82 17:0.0732 18:0.4024 19:0.4146 20:0.1098 21:0.2051 22:1.8 23:0.1613 
-0.08462366535672816 1:3 2:2 3:16 4:20 5:0.65 6:1 7:2 8:0.35 9:0.05 10:0.6 11:0 12:3 13:0.1 14:2 15:0.6301 16:73 17:0.1781 18:0.274 19:0.3562 20:0.1918 21:0.1176 22:1.25 23:0.2 
-0.3143700738792737 1:1 2:1 3:3 4:21 5:0.6667 6:3 7:3 8:0.0952 9:0.4762 10:0.1905 11:0.2381 12:43 13:0.2 14:1 15:0.6531 16:49 17:0.1837 18:0.2857 19:0.3673 20:0.1633 21:0.1818 22:0.25 23:0.3333 
-0.02758482235963299 1:1 2:1 3:2 4:20 5:0.7 6:3 7:2 8:0.1 9:0.5 10:0.2 11:0.2 12:42 13:0.1579 14:3 15:0.6444 16:45 17:0.2 18:0.2667 19:0.3778 20:0.1556 21:0.15 22:0.45 23:0.5 
-0.1089126847183605 1:2 2:2 3:21 4:20 5:0.6 6:3 7:4 8:0.2 9:0.3 10:0.3 11:0.2 12:70 13:0.2432 14:3 15:0.619 16:84 17:0.131 18:0.3214 19:0.2976 20:0.25 21:0.2051 22:3.5 23:0.1707 
-0.08589501845718944 1:2 2:1 3:12 4:25 5:0.5417 6:2 7:4 8:0.125 9:0.3333 10:0.2083 11:0.3333 12:8 13:0.1667 14:4 15:0.6154 16:78 17:0.1282 18:0.3077 19:0.3077 20:0.2564 21:0.1667 22:1.8 23:0.1667 
-0.2761237569801304 1:5 2:3 3:20 4:20 5:0.55 6:2 7:3 8:0.1 9:0.15 10:0.4 11:0.35 12:9 13:0.1667 14:2 15:0.5897 16:78 17:0.1923 18:0.2436 19:0.3462 20:0.2179 21:0.2222 22:0.62 23:0.2778 
-0.04225912238944927 1:5 2:3 3:22 4:20 5:0.55 6:2 7:3 8:0.1 9:0.15 10:0.4 11:0.35 12:7 13:0.1667 14:4 15:0.5854 16:82 17:0.1951 18:0.2439 19:0.3415 20:0.2195 21:0.2105 22:1.25 23:0.25 
-0.03223743993473083 1:5 2:3 3:20 4:26 5:0.5909 6:2 7:4 8:0.1818 9:0.4091 10:0.1818 11:0.2273 12:71 13:0.2083 14:4 15:0.5778 16:90 17:0.1889 18:0.2333 19:0.3444 20:0.2333 21:0.2381 22:2 23:0.2778 
-0.2755587279600569 1:5 2:3 3:16 4:20 5:0.65 6:2 7:2 8:0.15 9:0.2 10:0.45 11:0.2 12:13 13:0.1053 14:3 15:0.5972 16:72 17:0.2083 18:0.25 19:0.3472 20:0.1944 21:0.2121 22:1 23:0.3571 
-0.0276792568595186 1:5 2:4 3:23 4:20 5:0.6 6:2 7:3 8:0.1 9:0.15 10:0.45 11:0.3 12:6 13:0.1892 14:4 15:0.5833 16:84 17:0.1905 18:0.2381 19:0.3452 20:0.2262 21:0.2308 22:0.73 23:0.2683 
-0.09311828540323648 1:5 2:3 3:19 4:25 5:0.619 6:2 7:4 8:0.1429 9:0.4286 10:0.1905 11:0.2381 12:70 13:0.2174 14:4 15:0.5814 16:86 17:0.186 18:0.2326 19:0.3488 20:0.2326 21:0.25 22:2.2 23:0.2941 
-0.14677963633826 1:5 2:4 3:26 4:22 5:0.5909 6:2 7:4 8:0.0909 9:0.1364 10:0.4545 11:0.3182 12:1 13:0.3171 14:3 15:0.5851 16:94 17:0.1809 18:0.2553 19:0.3298 20:0.234 21:0.2727 22:0.83 23:0.234 
-0.04644440087706968 1:5 2:3 3:18 4:24 5:0.5417 6:2 7:3 8:0.1667 9:0.125 10:0.4167 11:0.2917 12:7 13:0.1364 14:2 15:0.5854 16:82 17:0.1951 18:0.2439 19:0.3415 20:0.2195 21:0.2105 22:1 23:0.3125 
-0.3786825301136976 1:5 2:3 3:16 4:26 5:0.6818 6:2 7:3 8:0.1364 9:0.4545 10:0.2273 11:0.1818 12:67 13:0.125 14:3 15:0.5854 16:82 17:0.1951 18:0.2439 19:0.3415 20:0.2195 21:0.2105 22:1.1 23:0.3571 
-0.09608113754983222 1:-1 2:0 3:0 4:27 5:0.5217 6:4 7:4 8:0.1739 9:0.1304 10:0.3913 11:0.3043 12:31 13:0.28 14:3 15:0.5098 16:51 17:0.1961 18:0.2353 19:0.2745 20:0.2941 21:0.2174 22:2 23:-1 
-0.1517463044564226 1:4 2:4 3:25 4:21 5:0.7 6:2 7:5 8:0.15 9:0.45 10:0.25 11:0.15 12:12 13:0.3333 14:2 15:0.6023 16:88 17:0.1591 18:0.2614 19:0.3409 20:0.2386 21:0.2771 22:0.86 23:0.2609 
-0.1903738939595355 1:4 2:4 3:20 4:24 5:0.6957 6:2 7:5 8:0.1304 9:0.3913 10:0.3043 11:0.1739 12:14 13:0.2766 14:4 15:0.6047 16:86 17:0.1512 18:0.2558 19:0.3488 20:0.2442 21:0.2593 22:1.57 23:0.2778 
-0.2085197786063073 1:4 2:3 3:19 4:21 5:0.6667 6:2 7:4 8:0.0476 9:0.1429 10:0.5238 11:0.2857 12:75 13:0.3333 14:4 15:0.5949 16:79 17:0.1519 18:0.2532 19:0.3418 20:0.2532 21:0.2703 22:0.45 23:0.2353 
-0.1378590523350358 1:4 2:4 3:20 4:20 5:0.7 6:2 7:4 8:0.15 9:0.4 10:0.3 11:0.15 12:17 13:0.3 14:4 15:0.5949 16:79 17:0.1519 18:0.2532 19:0.3418 20:0.2532 21:0.2703 22:1.57 23:0.2778 
-0.2987587996335361 1:4 2:6 3:33 4:21 5:0.7 6:8 7:3 8:0.05 9:0.4 10:0.3 11:0.25 12:4 13:0.3333 14:3 15:0.602 16:98 17:0.1531 18:0.2551 19:0.3469 20:0.2449 21:0.3118 22:0.56 23:0.3226 
-0.1652400256990242 1:4 2:3 3:17 4:23 5:0.6522 6:2 7:4 8:0.0435 9:0.1739 10:0.4783 11:0.3043 12:73 13:0.3043 14:4 15:0.5949 16:79 17:0.1519 18:0.2532 19:0.3418 20:0.2532 21:0.2703 22:0.45 23:0.2667 
-0.1022432877411572 1:4 2:4 3:28 4:21 5:0.8 6:5 7:5 8:0.05 9:0.4 10:0.4 11:0.15 12:9 13:0.4444 14:4 15:0.6154 16:91 17:0.1538 18:0.2527 19:0.3626 20:0.2308 21:0.3023 22:0 23:0.2308 
-0.6152289162290979 1:4 2:5 3:30 4:28 5:0.7 6:8 7:5 8:0.2 9:0.3 10:0.4 11:0.1 12:86 13:0.3478 14:1 15:0.619 16:105 17:0.1524 18:0.2667 19:0.3524 20:0.2286 21:0.3 22:0.67 23:0.2857 
-0.1408554025517489 1:4 2:5 3:29 4:24 5:0.6957 6:8 7:5 8:0.0435 9:0.3913 10:0.3043 11:0.2609 12:5 13:0.4359 14:4 15:0.5938 16:96 17:0.1562 18:0.25 19:0.3438 20:0.25 21:0.3187 22:0.67 23:0.2593 
-0.1403073629383274 1:4 2:4 3:28 4:24 5:0.7391 6:8 7:5 8:0.0435 9:0.3913 10:0.3478 11:0.2174 12:6 13:0.4872 14:4 15:0.6064 16:94 17:0.1489 18:0.2553 19:0.3511 20:0.2447 21:0.3258 22:0 23:0.2308 
-0.2004975254930465 1:-1 2:0 3:0 4:26 5:0.5417 6:4 7:4 8:0.125 9:0.4583 10:0.0833 11:0.3333 12:55 13:0.4694 14:2 15:0.4545 16:55 17:0.1636 18:0.2364 19:0.2182 20:0.3818 21:0.3659 22:0 23:-1 
-0.1650237458401681 1:4 2:3 3:20 4:23 5:0.4091 6:5 7:3 8:0.1818 9:0.1818 10:0.2273 11:0.4091 12:4 13:0.3333 14:2 15:0.4583 16:96 17:0.1875 18:0.2292 19:0.2292 20:0.3542 21:0.3659 22:1.25 23:0.4054 
-0.1894876694614303 1:4 2:3 3:19 4:24 5:0.5417 6:5 7:4 8:0.25 9:0.2917 10:0.25 11:0.2083 12:76 13:0.3617 14:2 15:0.4583 16:96 17:0.1875 18:0.2292 19:0.2292 20:0.3542 21:0.3659 22:0.5 23:0.3714 
-0.1795894401105199 1:4 2:2 3:16 4:24 5:0.3913 6:5 7:4 8:0.2609 9:0.1304 10:0.2609 11:0.3478 12:7 13:0.4043 14:1 15:0.4444 16:90 17:0.1889 18:0.2222 19:0.2222 20:0.3667 21:0.3947 22:1.6 23:0.3793 
-1 1:-1 2:0 3:0 4:22 5:0.5238 6:4 7:3 8:0.1429 9:0.0476 10:0.4762 11:0.3333 12:24 13:0.3659 14:4 15:0.4545 16:55 17:0.1636 18:0.2364 19:0.2182 20:0.3818 21:0.3659 22:0.62 23:-1 
-0.1971458785641874 1:4 2:4 3:24 4:22 5:0.5714 6:5 7:3 8:0.2381 9:0.2857 10:0.2857 11:0.1905 12:81 13:0.381 14:1 15:0.4851 16:101 17:0.1782 18:0.2475 19:0.2376 20:0.3366 21:0.3793 22:1.25 23:0.3778 
-0.1320100707155007 1:4 2:1 3:13 4:23 5:0.4783 6:5 7:4 8:0.2609 9:0.2609 10:0.2174 11:0.2609 12:70 13:0.4667 14:3 15:0.4337 16:83 17:0.2048 18:0.2169 19:0.2169 20:0.3614 21:0.3913 22:0.25 23:0.25 
-0.1419270596295038 1:4 2:2 3:18 4:20 5:0.5 6:5 7:4 8:0.25 9:0.3 10:0.2 11:0.25 12:75 13:0.4359 14:4 15:0.4535 16:86 17:0.1977 18:0.2326 19:0.2209 20:0.3488 21:0.3889 22:0.62 23:0.3333 
-0.1690045538323799 1:4 2:4 3:23 4:20 5:0.55 6:5 7:2 8:0.25 9:0.25 10:0.3 11:0.2 12:80 13:0.3333 14:2 15:0.4583 16:96 17:0.1875 18:0.2292 19:0.2292 20:0.3542 21:0.3659 22:1.1 23:0.3953 
-0.1669138241021229 1:4 2:2 3:17 4:20 5:0.45 6:5 7:3 8:0.25 9:0.15 10:0.3 11:0.3 12:9 13:0.4 14:4 15:0.4471 16:85 17:0.2 18:0.2235 19:0.2235 20:0.3529 21:0.3803 22:2.2 23:0.3548 
-0.1136643661879452 1:-1 2:0 3:0 4:27 5:0.5 6:3 7:5 8:0.25 9:0.375 10:0.125 11:0.25 12:19 13:0.3208 14:2 15:0.463 16:54 17:0.2963 18:0.2778 19:0.1852 20:0.2407 21:0.234 22:1.67 23:-1 
-0.05112028743633726 1:2 2:4 3:19 4:24 5:0.4583 6:3 7:5 8:0.3333 9:0.2083 10:0.25 11:0.2083 12:1 13:0.3333 14:1 15:0.4556 16:90 17:0.2889 18:0.2556 19:0.2 20:0.2556 21:0.2771 22:1 23:0.2432 
-1 1:1 2:1 3:3 4:23 5:0.3913 6:2 7:4 8:0.3913 9:0.087 10:0.3043 11:0.2174 12:51 13:0.2444 14:3 15:0.4821 16:56 17:0.2857 18:0.2857 19:0.1964 20:0.2321 21:0.2245 22:1 23:0.3333 
-1 1:1 2:1 3:4 4:22 5:0.4762 6:2 7:4 8:0.2381 9:0.3333 10:0.1429 11:0.2857 12:18 13:0.2558 14:3 15:0.4821 16:56 17:0.2857 18:0.2857 19:0.1964 20:0.2321 21:0.2245 22:1.2 23:0.25 
-0.06159987643444439 1:-1 2:0 3:0 4:21 5:0.5 6:3 7:4 8:0.2 9:0.35 10:0.15 11:0.3 12:25 13:0.3171 14:2 15:0.4524 16:42 17:0.3095 18:0.2857 19:0.1667 20:0.2381 21:0.2 22:2.33 23:-1 
-1 1:1 2:1 3:4 4:22 5:0.3636 6:2 7:4 8:0.4091 9:0.0909 10:0.2727 11:0.2273 12:52 13:0.2558 14:3 15:0.4821 16:56 17:0.2857 18:0.2857 19:0.1964 20:0.2321 21:0.2245 22:0.83 23:0.25 
-0.08012391420089585 1:1 2:1 3:2 4:20 5:0.3 6:2 7:3 8:0.4 9:0.05 10:0.25 11:0.3 12:50 13:0.1795 14:2 15:0.4375 16:48 17:0.3125 18:0.2708 19:0.1667 20:0.25 21:0.1707 22:0.56 23:0.5 
-0.08562337794980786 1:-1 2:0 3:0 4:23 5:0.4286 6:3 7:3 8:0.2381 9:0.2381 10:0.1905 11:0.3333 12:39 13:0.1818 14:3 15:0.5 16:50 17:0.28 18:0.18 19:0.32 20:0.22 21:0.0526 22:0.22 23:-1 
-0.2383996654929832 1:2 2:3 3:16 4:28 5:0.5417 6:6 7:5 8:0.1667 9:0.25 10:0.2917 11:0.2917 12:63 13:0.3462 14:4 15:0.5176 16:85 17:0.2 18:0.2 19:0.3176 20:0.2824 21:0.3086 22:5 23:0.2414 
-0.2100259088065284 1:2 2:2 3:13 4:24 5:0.6087 6:2 7:5 8:0.2174 9:0.3043 10:0.3043 11:0.1739 12:60 13:0.234 14:3 15:0.5405 16:74 17:0.1892 18:0.2162 19:0.3243 20:0.2703 21:0.2286 22:0.8 23:0.2174 
