svm_type c_svc
kernel_type rbf
gamma 0.0416667
nr_class 2
total_sv 55
rho 0.921125
label 1 0
probA -1.5539
probB 1.31117
nr_sv 5 50
SV
1 1:4 2:3 3:1 4:1 5:23 6:0.5 7:0 8:1 9:3 10:0.4 11:0.35 12:0.1 13:20 14:3 15:0.4568 16:0.2469 17:0.2346 18:0.2222 19:0.2963 20:0.1688 21:1.25 22:0.2 23:0.2727 24:9 
1 1:4 2:4 3:3 4:2 5:21 6:0.619 7:3 8:2 9:2 10:0.0952 11:0.2381 12:0.2857 13:18 14:1 15:0.525 16:0.225 17:0.25 18:0.275 19:0.25 20:0.1892 21:0.73 22:0.3077 23:0.25 24:20 
1 1:4 2:8 3:5 4:1 5:21 6:0.4762 7:0 8:1 9:3 10:0.2857 11:0.1429 12:0.2381 13:18 14:1 15:0.4943 16:0.2759 17:0.2414 18:0.2529 19:0.2299 20:0.284 21:0.91 22:0.4118 23:0.4359 24:12 
1 1:4 2:6 3:-1 4:0 5:21 6:0.619 7:2 8:2 9:3 10:0.1429 11:0.4286 12:0.2381 13:17 14:3 15:0.5909 16:0.1818 17:0.2386 18:0.3523 19:0.2273 20:0.2405 21:0.62 22:0 23:0.3333 24:5 
1 1:2 2:4 3:2 4:1 5:21 6:0.619 7:1 8:2 9:2 10:0.2381 11:0.3333 12:0.1429 13:18 14:3 15:0.5325 16:0.1688 17:0.2338 18:0.2987 19:0.2987 20:0.2603 21:0.67 22:0.0833 23:0.4194 24:20 
-0.4028446689159061 1:2 2:3 3:1 4:2 5:20 6:0.5 7:2 8:1 9:2 10:0.05 11:0.15 12:0.45 13:18 14:1 15:0.4844 16:0.2344 17:0.25 18:0.2344 19:0.2812 20:0.2 21:0.9 22:0.1111 23:0.4286 24:18 
-0.08523077095330586 1:4 2:3 3:1 4:1 5:22 6:0.4091 7:2 8:1 9:3 10:0.0455 11:0.1364 12:0.5455 13:19 14:3 15:0.4493 16:0.2464 17:0.2319 18:0.2174 19:0.3043 20:0.2 21:1.14 22:0.0909 23:0.3913 24:15 
-0.01050880510385788 1:3 2:-1 3:1 4:3 5:25 6:0.5417 7:2 8:3 9:4 10:0.3333 11:0.2917 12:0.125 13:18 14:4 15:0.4902 16:0.2353 17:0.2549 18:0.2353 19:0.2745 20:0.234 21:1.83 22:0.1 23:-1 24:25 
-0.3378673457051859 1:1 2:3 3:-1 4:0 5:22 6:0.4091 7:0 8:1 9:4 10:0.1364 11:0.0455 12:0.4545 13:18 14:3 15:0.4457 16:0.2609 17:0.2391 18:0.2065 19:0.2935 20:0.1818 21:1 22:-1 23:0.234 24:3 
-1 1:3 2:3 3:1 4:2 5:22 6:0.4545 7:2 8:2 9:3 10:0.0909 11:0.1818 12:0.4545 13:18 14:1 15:0.4833 16:0.2333 17:0.25 18:0.2333 19:0.2833 20:0.2143 21:0.62 22:0.0968 23:0.4286 24:20 
-0.01211036858293871 1:1 2:3 3:1 4:1 5:26 6:0.5217 7:2 8:2 9:4 10:0.4348 11:0.3478 12:0.0435 13:21 14:3 15:0.4493 16:0.2464 17:0.2319 18:0.2174 19:0.3043 20:0.2 21:1.29 22:0.0909 23:0.375 24:15 
-0.01608490864606315 1:2 2:-1 3:1 4:3 5:22 6:0.5455 7:2 8:3 9:4 10:0.3182 11:0.2727 12:0.1364 13:15 14:-1 15:0.4667 16:0.2444 17:0.2444 18:0.2222 19:0.2889 20:0.2683 21:1.33 22:0.087 23:-1 24:28 
-0.08333905471467121 1:2 2:1 3:1 4:3 5:20 6:0.45 7:2 8:2 9:3 10:0.1 11:0.2 12:0.45 13:15 14:3 15:0.4717 16:0.2453 17:0.2453 18:0.2264 19:0.283 20:0.2245 21:0.5 22:0.1053 23:0.2 24:24 
-0.06850376113624242 1:1 2:4 3:-1 4:0 5:22 6:0.25 7:3 8:3 9:4 10:0.25 11:0.2 12:0.5 13:13 14:1 15:0.4771 16:0.2202 17:0.211 18:0.2661 19:0.3028 20:0.2427 21:4 22:-1 23:0.1875 24:3 
-0.04603626875998599 1:4 2:-1 3:3 4:4 5:25 6:0.5 7:3 8:4 9:3 10:0.2083 11:0.2083 12:0.2917 13:19 14:4 15:0.4821 16:0.25 17:0.2143 18:0.2679 19:0.2679 20:0.2 21:1 22:0.24 23:0 24:32 
-0.002943922960682512 1:4 2:1 3:3 4:3 5:25 6:0.5417 7:3 8:4 9:2 10:0.1667 11:0.2083 12:0.2917 13:19 14:4 15:0.5 16:0.25 17:0.2344 18:0.2656 19:0.25 20:0.2069 21:0.73 22:0.2381 23:0.1111 24:28 
-0.01506678248386164 1:1 2:-1 3:3 4:4 5:22 6:0.5238 7:2 8:4 9:2 10:0.2381 11:0.1905 12:0.2381 13:17 14:4 15:0.46 16:0.28 17:0.22 18:0.24 19:0.26 20:0.1818 21:1.43 22:0.25 23:0 24:35 
-0.03951106369320002 1:4 2:-1 3:3 4:4 5:21 6:0.4 7:1 8:4 9:2 10:0.25 11:0.25 12:0.35 13:16 14:4 15:0.4783 16:0.2826 17:0.2391 18:0.2391 19:0.2391 20:0.2 21:0.82 22:0.2333 23:-1 24:37 
-0.04010189797900122 1:2 2:-1 3:3 4:4 5:22 6:0.5 7:1 8:4 9:3 10:0.3182 11:0.1818 12:0.1818 13:15 14:-1 15:0.4545 16:0.2955 17:0.2273 18:0.2273 19:0.25 20:0.2105 21:2 22:0.2258 23:-1 24:38 
-0.0006732181962940237 1:1 2:4 3:-1 4:0 5:22 6:0.35 7:4 8:3 9:3 10:0.2 11:0.25 12:0.45 13:16 14:1 15:0.5 16:0.2115 17:0.2212 18:0.2788 19:0.2885 20:0.2245 21:1.43 22:0 23:0.2143 24:7 
-0.1947875563537764 1:1 2:4 3:-1 4:0 5:23 6:0.6087 7:4 8:3 9:3 10:0.1304 11:0.3043 12:0.2609 13:17 14:3 15:0.5 16:0.2115 17:0.2212 18:0.2788 19:0.2885 20:0.2245 21:0.7 22:0 23:0.2222 24:7 
-0.03486491992117983 1:4 2:1 3:3 4:3 5:24 6:0.4583 7:4 8:4 9:2 10:0.25 11:0.3333 12:0.2917 13:18 14:3 15:0.5147 16:0.2353 17:0.2353 18:0.2794 19:0.25 20:0.1935 21:0.6 22:0.2632 23:0.0667 24:26 
-0.008676743304958559 1:2 2:-1 3:5 4:4 5:25 6:0.5 7:1 8:8 9:3 10:0.4 11:0.25 12:0.1 13:14 14:4 15:0.4706 16:0.2941 17:0.2157 18:0.2549 19:0.2353 20:0.3778 21:1 22:0.2453 23:-1 24:30 
-0.1081368091541362 1:2 2:8 3:5 4:2 5:23 6:0.5217 7:1 8:2 9:4 10:0.1304 11:0.1739 12:0.3478 13:18 14:2 15:0.4658 16:0.2877 17:0.2329 18:0.2329 19:0.2466 20:0.3134 21:1.14 22:0.2903 23:0.5238 24:19 
-0.0650881736098146 1:3 2:-1 3:5 4:4 5:21 6:0.4286 7:1 8:8 9:3 10:0.1429 11:0.1905 12:0.4286 13:10 14:2 15:0.449 16:0.3061 17:0.2041 18:0.2449 19:0.2449 20:0.3953 21:5 22:0.2364 23:0 24:31 
-0.0369346157717223 1:3 2:-1 3:5 4:4 5:28 6:0.4583 7:1 8:8 9:4 10:0.4583 11:0.25 12:0.0833 13:15 14:-1 15:0.4528 16:0.3019 17:0.2075 18:0.2453 19:0.2453 20:0.3617 21:0.5 22:0.2549 23:-1 24:29 
-0.05421853906656943 1:3 2:7 3:5 4:2 5:24 6:0.4583 7:1 8:2 9:5 10:0.3333 11:0.2083 12:0.2083 13:18 14:2 15:0.4507 16:0.2958 17:0.2254 18:0.2254 19:0.2535 20:0.3231 21:0.62 22:0.2727 23:0.5294 24:20 
-0.01689469079825332 1:4 2:8 3:-1 4:0 5:22 6:0.5455 7:1 8:5 9:4 10:0.1364 11:0.1818 12:0.3182 13:14 14:1 15:0.4906 16:0.2642 17:0.2453 18:0.2453 19:0.2453 20:0.32 21:1.33 22:-1 23:0.322 24:1 
-0.03873914946435075 1:2 2:-1 3:5 4:4 5:27 6:0.4545 7:1 8:8 9:3 10:0.4091 11:0.2273 12:0.1364 13:16 14:4 15:0.4364 16:0.3091 17:0.2 18:0.2364 19:0.2545 20:0.3469 21:1 22:0.2653 23:-1 24:28 
-0.01205478206492407 1:1 2:-1 3:5 4:4 5:26 6:0.4286 7:1 8:8 9:4 10:0.4762 11:0.1905 12:0.0952 13:13 14:2 15:0.449 16:0.3061 17:0.2041 18:0.2449 19:0.2449 20:0.3953 21:0.5 22:0.2364 23:-1 24:31 
-0.165941261863437 1:1 2:8 3:-1 4:0 5:21 6:0.619 7:0 8:5 9:3 10:0.1905 11:0.1429 12:0.1905 13:14 14:1 15:0.5102 16:0.2653 17:0.2653 18:0.2449 19:0.2245 20:0.3261 21:1.6 22:0 23:0.3585 24:5 
-0.135537884542576 1:3 2:8 3:-1 4:0 5:25 6:0.5909 7:1 8:5 9:3 10:0.2273 11:0.4091 12:0.1818 13:18 14:4 15:0.4904 16:0.2692 17:0.25 18:0.2404 19:0.2404 20:0.3061 21:0.9 22:-1 23:0.3725 24:2 
-0.111117411091425 1:4 2:8 3:-1 4:0 5:23 6:0.6 7:1 8:5 9:4 10:0.25 11:0.4 12:0.15 13:15 14:2 15:0.4906 16:0.2642 17:0.2453 18:0.2453 19:0.2453 20:0.32 21:0.75 22:-1 23:0.3333 24:1 
-0.142195987842018 1:2 2:8 3:5 4:2 5:22 6:0.5455 7:1 8:2 9:4 10:0.1364 11:0.1818 12:0.3182 13:17 14:1 15:0.4658 16:0.2877 17:0.2329 18:0.2329 19:0.2466 20:0.3134 21:1.14 22:0.2903 23:0.4783 24:19 
-0.03829270686062777 1:3 2:-1 3:5 4:4 5:25 6:0.4286 7:1 8:8 9:4 10:0.4762 11:0.2381 12:0.0952 13:12 14:-1 15:0.4255 16:0.3191 17:0.1915 18:0.234 19:0.2553 20:0.4146 21:0.71 22:0.2281 23:-1 24:32 
-0.11578441376987 1:1 2:8 3:5 4:2 5:21 6:0.4286 7:1 8:2 9:4 10:0.3333 11:0.1905 12:0.2381 13:16 14:2 15:0.4507 16:0.2958 17:0.2254 18:0.2254 19:0.2535 20:0.3231 21:0.88 22:0.2727 23:0.4783 24:20 
-0.0581077987782479 1:3 2:1 3:2 4:1 5:29 6:0.6522 7:3 8:6 9:5 10:0.1304 11:0.3478 12:0.2174 13:18 14:3 15:0.6176 16:0.1765 17:0.2353 18:0.3824 19:0.2059 20:0.2542 21:1.1 22:0.1667 23:0.2 24:15 
-0.2731862162193739 1:3 2:6 3:2 4:1 5:24 6:0.5833 7:3 8:2 9:4 10:0.1667 11:0.25 12:0.25 13:19 14:4 15:0.6184 16:0.1711 17:0.2368 18:0.3816 19:0.2105 20:0.2239 21:0.7 22:0.25 23:0.3636 24:11 
-0.00706928982249144 1:2 2:1 3:2 4:2 5:27 6:0.7143 7:3 8:6 9:4 10:0.1429 11:0.381 12:0.1429 13:17 14:3 15:0.6207 16:0.1897 17:0.2241 18:0.3966 19:0.1897 20:0.2653 21:0.92 22:0.1765 23:0.5 24:20 
-0.2249890623863126 1:3 2:6 3:2 4:1 5:22 6:0.5909 7:2 8:2 9:4 10:0.1818 11:0.2727 12:0.2273 13:17 14:3 15:0.6111 16:0.1806 17:0.2361 18:0.375 19:0.2083 20:0.2381 21:0.7 22:0.2 23:0.3636 24:13 
-0.005182304122439416 1:1 2:1 3:2 4:2 5:21 6:0.55 7:3 8:6 9:4 10:0.2 11:0.3 12:0.25 13:11 14:2 15:0.5833 16:0.2083 17:0.1875 18:0.3958 19:0.2083 20:0.3333 21:1.2 22:0.1364 23:0.3333 24:25 
-0.028669554732846 1:4 2:-1 3:2 4:2 5:29 6:0.625 7:4 8:6 9:5 10:0.1667 11:0.4167 12:0.2083 13:15 14:-1 15:0.5769 16:0.2115 17:0.1923 18:0.3846 19:0.2115 20:0.3023 21:0 22:0.15 23:-1 24:23 
-0.09729502591362933 1:1 2:6 3:2 4:1 5:21 6:0.5238 7:2 8:2 9:3 10:0.1905 11:0.1905 12:0.2857 13:17 14:4 15:0.6184 16:0.1711 17:0.2368 18:0.3816 19:0.2105 20:0.2239 21:0.4 22:0.25 23:0.3333 24:11 
-0.05436486876396659 1:1 2:1 3:2 4:2 5:21 6:0.5 7:3 8:6 9:4 10:0.25 11:0.25 12:0.25 13:11 14:2 15:0.56 16:0.22 17:0.18 18:0.38 19:0.22 20:0.3171 21:4 22:0.1429 23:0.25 24:24 
-0.02815446016450407 1:4 2:-1 3:2 4:2 5:27 6:0.6364 7:4 8:6 9:5 10:0.1818 11:0.4545 12:0.1818 13:13 14:-1 15:0.5833 16:0.2083 17:0.1875 18:0.3958 19:0.2083 20:0.3333 21:0 22:0.1364 23:-1 24:25 
-0.07355589873235163 1:3 2:6 3:2 4:1 5:20 6:0.6 7:3 8:2 9:4 10:0.15 11:0.3 12:0.25 13:15 14:2 15:0.6061 16:0.1818 17:0.2273 18:0.3788 19:0.2121 20:0.2632 21:1 22:0.1538 23:0.4 24:16 
-0.03684552757650496 1:3 2:-1 3:2 4:2 5:29 6:0.6522 7:4 8:6 9:5 10:0.1739 11:0.4348 12:0.1739 13:15 14:3 15:0.5769 16:0.2115 17:0.1923 18:0.3846 19:0.2115 20:0.3023 21:0 22:0.15 23:-1 24:23 
-0.03304349924015543 1:2 2:-1 3:2 4:3 5:21 6:0.55 7:4 8:4 9:3 10:0.15 11:0.3 12:0.3 13:13 14:2 15:0.5581 16:0.1163 17:0.2558 18:0.3023 19:0.3256 20:0.3333 21:3 22:0.1379 23:-1 24:37 
-0.1081301663091169 1:1 2:4 3:-1 4:0 5:25 6:0.5217 7:4 8:2 9:3 10:0.3478 11:0.3478 12:0.1304 13:20 14:1 15:0.5258 16:0.1649 17:0.2165 18:0.3093 19:0.3093 20:0.2258 21:2 22:0 23:0.2889 24:9 
-0.01813978623305998 1:2 2:3 3:2 4:3 5:21 6:0.6667 7:3 8:4 9:2 10:0.1429 11:0.381 12:0.1905 13:16 14:1 15:0.5455 16:0.1455 17:0.2364 18:0.3091 19:0.3091 20:0.2941 21:1.57 22:0.1304 23:0.6 24:31 
-0.03045317678554806 1:4 2:-1 3:2 4:3 5:23 6:0.5652 7:4 8:4 9:3 10:0.1304 11:0.3478 12:0.3043 13:15 14:-1 15:0.5532 16:0.1277 17:0.2553 18:0.2979 19:0.3191 20:0.3023 21:2.75 22:0.1481 23:-1 24:35 
-0.3842870741367018 1:4 2:4 3:-1 4:0 5:20 6:0.5 7:4 8:2 9:2 10:0.05 11:0.25 12:0.45 13:17 14:3 15:0.5258 16:0.1649 17:0.2165 18:0.3093 19:0.3093 20:0.2258 21:0.9 22:0 23:0.3091 24:9 
-0.0816465416456084 1:3 2:3 3:2 4:2 5:22 6:0.5455 7:3 8:4 9:2 10:0.1364 11:0.3182 12:0.3182 13:16 14:1 15:0.5231 16:0.1538 17:0.2154 18:0.3077 19:0.3231 20:0.2787 21:0.22 22:0.1111 23:0.3333 24:26 
-0.01579708022559698 1:2 2:1 3:2 4:3 5:21 6:0.6 7:3 8:4 9:2 10:0.1 11:0.3 12:0.3 13:15 14:4 15:0.549 16:0.1373 17:0.2549 18:0.2941 19:0.3137 20:0.2766 21:2 22:0.16 23:0.3333 24:33 
-0.0009941849007084843 1:4 2:-1 3:2 4:3 5:23 6:0.5652 7:4 8:4 9:2 10:0.1739 11:0.3043 12:0.2609 13:16 14:1 15:0.549 16:0.1373 17:0.2549 18:0.2941 19:0.3137 20:0.2766 21:0.2 22:0.16 23:0 24:33 
